0.0028569586575,0.00230706995353,0.000639876234345,0.00397875485942,-0.0026164422743,-0.00341249932535,0.00308771268465,-0.000533073267434,0.00302666681819,0.00342924427241,-0.00382113154046,0.00334522477351,-0.00045304177911,8.91343734111e-05,0.00110308849253,0.00371981738135,-0.00419943360612,-0.000204016920179,0.0016366726486,0.00194203457795,0.00167865888216,-0.00319281895645,-0.00175289111212,-0.00123510241974,0.00265544443391,-0.00193297176156,-0.00252699898556,0.00399109814316,-0.00428880890831,0.00434353947639,0.00154161825776,0.00286530260928,-0.00179452996235,-0.00424122484401,0.00207448890433,0.0029148333706,0.00209721038118,-0.00311928219162,0.00221029878594,0.00234556104988,0.00138206896372,0.0023210789077,0.00301766837947,0.000989839085378,-0.00359274307266,-0.000109778302431,-0.00368834752589,-0.000808790209703,-0.000812604324892,-0.00378994294442,-0.00132152729202,-0.00339743215591,0.00268853944726,0.00390574987978,-0.00373510853387,0.00397060299292,0.000195091488422,-0.00175147631671,-0.00369539135136,3.49052561432e-06,0.00256881630048,0.00180566997733,-0.00392788182944,-0.00372996460646,-0.000849740288686,-0.00178878032602,-0.00233788928017,-0.00191352015827,0.00264705508016,0.00374466716312,-0.000830279954243,0.00354286958463,-0.00156007090118,-0.000207632125239,-0.00239334488288,0.00122435705271,0.00417909165844,0.000901583873201,-0.00124285952188,0.00128852040507,-0.00329323601909,0.00339068425819,2.51410783676e-05,-0.000443850323791,0.00074778823182,0.00108742783777,-0.00373961683363,0.00159226218238,-0.00225434405729,0.00186580908485,0.00281356927007,0.0026514264755,0.000456517707789,0.000174308515852,-0.00311897159554,0.00240167207085,-0.00199704663828,-3.05837202177e-05,-0.00188476871699,-0.00319796381518,0.00112902349792,-0.00389193301089,0.00216850312427,-0.00159411993809,-0.00436508841813,9.5295792562e-05,-0.00395725620911,-0.00195562350564,0.0018047374906,-0.0038190735504,0.00296012032777,-0.00433288048953,-0.00221176655032,0.00210089748725,-0.00160563015379,-0.00347684836015,-0.00122184830252,-0.00200604926795,0.0029895696789,-0.0016311040381,0.00252013304271,0.00341865327209,-0.000579576531891,0.00357639836147,-0.0010727372719,0.00404891977087,-0.00358687946573,0.00163054803852,-5.58966130484e-05,-0.000982603756711,0.00115650391672,0.00177747919224,-0.00432823039591,-0.00290905009024,0.0018576461589,0.00145044026431,0.00406606169418,0.00227658101358,0.00393271585926,0.00176596513484,-0.0017646435881,-0.00344657967798,0.00245805131271,0.00125631492119,-0.00394568732008,-0.00122343713883,0.00398539379239,1.5990593738e-06,-0.00058907881612,-0.000371126749087,-0.00254296604544,-0.00114789744839,-0.00113824487198,-0.00390925165266,0.00233364617452,-0.000730695901439,0.00281034200452,0.00305625027977,-0.00251576025039,0.00137163815089,-0.000243808317464,0.00331640383229,-0.00248308572918,0.00155019131489,0.000938685028814,-0.00178863015026,-0.00317387934774,0.00132176780608,0.00208076904528,-0.00161122297868,0.00126233254559,-0.000917256867979,0.00185911927838,-0.00262738042511,0.00340416631661,-0.00185747724026,-0.00115593348164,-0.00385920959525,-0.00339292152785,0.000136515140184,-0.00203048693947,0.00292643276043,-0.00423799455166,-0.00105727871414,-0.00142172444612,-0.00419750949368,-0.00328067457303,-0.000755710527301,-6.42508093733e-05,-0.000837415340357,0.000268185511231,0.00082848011516,-0.00427966378629,-0.000315359939123,0.0040437602438,0.000164242708706,0.00154779222794,-0.0016441619955,0.00238960143179,0.00238026073202,0.000184035583516,0.00415318086743,-0.00327024655417,-0.00421816529706,0.00235642050393,0.00267925579101,-0.00331687158905,-0.00204790662974,-0.00421286420897,-0.00180580560118,0.00238238903694,0.000155050700414,-0.00132761930581,-0.0011211988749,-0.00435416866094,-0.00174926966429,0.0012766874861,0.00413744198158,0.00302776205353,-0.00416001584381,0.00347717083059,0.00247024581768,0.00244568008929,-0.000368262612028,-0.000891885894816,-0.00172214827035,-0.00379276531748,-0.00237392634153,-0.00221358146518,-0.000140714895679,0.00215806579217,-0.000230402423767,-0.00386122777127,0.00399417011067,0.00386268855073,0.00248754024506,0.00428688898683,0.000386535568396,0.00403764238581,-0.00370612111874,-0.00117418682203,-0.00239882105961,-0.00265673198737,-0.00313707068563,0.00106677913573,0.00245387083851,0.000681730918586,-0.00308328657411,0.00271401018836,0.00118501321413,-0.000978016061708,0.00151809293311,-0.00209757848643,-0.00135313381907,0.00364229059778,-0.00183049333282,-0.000263804482529,0.00340359727852,0.00181129621342,-0.00382325705141,-0.00308042252436,-0.00429775612429,0.00114090263378,-0.000458624737803,-0.00319419614971,0.00399529188871,0.000257000589045,-0.00225482694805,3.38324980476e-06,0.0015659830533,-0.00370074389502,-0.00196842337027,0.00267753470689,-0.000353953771992,0.000404687016271,-0.000588237482589,-0.00398296536878,-0.00291937566362,-0.000477140245494,-0.00254021747969,-0.0039298767224,0.00299784587696,0.00419842777774,0.00255698012188,0.00308630941436,-0.00225398619659,0.0040188790299,-0.00264727440663,0.00393859064206,0.00431733392179,0.00184624304529,0.00419795606285,0.000605174747761,-0.0021006972529,-0.000551738659851,0.00081485247938,-0.00372827635147,0.00106609961949,0.00419826153666,-0.00270678987727,0.00255217403173,0.00355863943696,0.00387109210715,0.0040145451203,0.000185464377864,0.00416445080191,0.00224415259436,-0.00295501528308,-0.000203491275897,0.00190386676695,-0.00220718467608,0.00122555461712,0.00145234540105,-0.00294606457464,0.000566246104427,0.00236911443062,-1.1463717783e-05,-0.00426054885611,-0.00428730435669,-0.00124980066903,0.00371826789342,-0.00237014447339,0.00117098458577,-0.00242777960375,-0.00155847659335,0.00303612160496,0.00199583545327,-0.00353349209763,-0.00062420591712,-0.00411160942167,-0.000168651313288,0.00141598412301,-0.00333183747716,-0.00184462021571,-0.000893612275831,0.00366012053564,0.00430363602936,-0.00397420208901,0.00227641919628,-0.00112153589725,-0.000940579164308,0.0022175158374,0.00365045154467,0.00393414730206,0.000671287067235,-0.00124904233962,0.00250801956281,-0.00217534624971,0.000557388470042,-0.00123631232418,0.00136536138598,-0.00226775789633,-0.00269376742654,0.00364891579375,-0.0034774907399,5.01708709635e-05,-0.00243839947507,-0.00402633612975,-0.00405175052583,-0.00283663463779,0.00319959502667,-0.00190050993115,0.00393012817949,0.000710676191375,-0.000555021630134,0.000697223062161,0.000143925863085,0.00225698295981,-0.00190030585509,-0.00128440198023,0.00343815679662,0.00389519077726,0.0034247408621,-0.000704897625837,0.00244548777118,-0.000208394092624,-2.33149221458e-05,-0.00257962779142,0.000793576647993,-0.00274151843041,-0.00147206196561,0.0030970973894,-0.00255872076377,-0.00374509114772,-0.00376386241987,0.0038456087932,5.8548484958e-05,-0.000792566221207,0.00271171797067,0.00292946607806,-0.00146668695379,0.00168812670745,0.0023646671325,0.00134804926347,-0.00304297939874,0.00327904871665,0.000339350866852,-0.00190060795285,-0.000654514820781,-0.00403826218098,-0.0032500543166,0.00231609749608,-0.00436602346599,-0.000730000145268,0.000194763488253,-0.00388924451545,0.0041276072152,-0.00239232834429,-0.00171082757879,-0.00171305926051,-0.00235486146994,-0.00435321172699,0.00200013909489,0.00407321518287,-0.00240831216797,0.001421431778,0.00210974784568,0.00303961872123,-0.000677079253364,-0.00172189367004,-0.00152668880764,0.00185419700574,0.00276334467344,-0.00278084119782,-0.00112828752026,0.00350657710806,0.00267522223294,0.00423038611189,0.00221745856106,-0.000934076786507,0.00078931049211,0.00140360556543,-0.00368136377074,0.000386596715543,0.00182529969607,-0.00290569895878,0.00244771363214,0.00072940584505,0.00394550152123,-0.00399585999548,-0.00205021887086,0.000884630368091,-0.00177760014776,0.00186984788161,0.00225900160149,-0.00347133236937,0.000119131938845,7.58046371629e-05,-0.00114280614071,0.00377707765438,0.00285680731758,0.00171946245246,0.00186883902643,-0.00033615421853,0.00367272575386,0.00169669243041,0.00199680426158,0.00315514951944,-0.00197405251674,0.00267835264094,-0.00266209221445,-0.00135189772118,-0.00143682933412,0.00417495891452,0.00311015360057,0.00175401126035,0.00197996222414,0.000539867265616,0.00390057638288,-3.45984954038e-05,-0.00104487605859,-0.00294323195703,0.00249625765719,0.00204444816336,-0.00101136008743,-0.00414630584419,0.00295717688277,-0.00426651444286,0.00177624973003,0.00410293368623,-0.000545983668417,-0.00231517292559,0.00178642850369,0.00276629580185,0.000403471669415,0.00407477747649,-0.00391519488767,4.0024802729e-05,0.0019050227711,0.00316358427517,-0.00280149676837,0.00261685764417,0.000458275142591,-0.000904731219634,-0.00321640912443,0.00318676023744,-0.00299335084856,-0.00166209263261,-0.00183438498061,0.00324020325206,0.00150556175504,0.00258771516383,-0.00218002730981,0.00108803575858,0.000624292355496,0.00290328054689,0.00354267400689,-0.00426018657163,0.00151702237781,-0.00391384027898,0.00042454546201,-0.0018556099385,-0.00168849946931,-0.001285388018,0.00105680420529,-0.00145045260433,0.00202923920006,-0.000835267128423,-0.00376961729489,0.00247495109215,-0.00187194650061,-0.000588774157222,0.00161678681616,-0.00146432628389,-0.00387232890353,-0.00110236089677,0.00387762789614,0.00123529275879,0.00149494409561,0.0011528134346,-0.0026292540133,-0.000714697642252,0.00218853610568,-0.00348134129308,-0.00194085505791,-0.00195426191203,-0.000595191027969,0.00419122725725,-0.00377692212351,0.000161462012329,-0.00280049908906,0.00410667527467,-0.0033771044109,-0.00084320869064,0.00207466143183,0.00178372883238,-0.000676223775372,-0.00134138017893,-0.00089546549134,-0.00205934676342,-0.00257396209054,-0.000149986561155,-0.00202236860059,-0.00185716245323,0.00136630574707,0.00408782623708,0.000902682950255,-0.00369437783957,-0.00370657048188,0.00393837876618,-0.00177133327816,-0.00356268021278,0.000862552784383,0.00107730017044,0.00129428773653,-0.00203225272708,-0.00423444854096,0.0040570134297,-0.0021763429977,0.00153451890219,0.00180161558092,0.000958225224167,-0.00163506483659,-0.00199997378513,0.000850597512908,0.00319369859062,0.00389758008532,-0.00344173167832,-0.00301469513215,0.00388023164123,0.0020628455095,0.00334126874804,-0.00259738671593,0.000762779731303,0.00175398471765,0.00157037819736,-0.000803468341473,-0.00423170719296,0.000722091528587,-0.00215684226714,-0.000435966503574,0.00399237312376,-0.000883022032212,0.00296427914873,-0.00272040534765,0.00150363543071,0.00416193157434,-0.00347668281756,-0.00429348414764,-0.000581520202104,-0.00355770462193,0.00216624583118,0.00361667363904,-0.000577729369979,-0.00210795877501,-0.000574396515731,0.00194862065837,-0.00428713578731,0.000778978224844,0.000987025327049,0.00120000576135,-0.00225366279483,0.00186654448044,-0.00356850493699,-0.00262687425129,0.0032929610461,0.00208187289536,-0.00424625864252,-0.0021982442122,-0.00249477964826,-0.00200245529413,-0.00220538326539,-0.00382051430643,-0.000360336591257,0.00202953210101,0.000929752248339,0.00150702591054,-0.00365797826089,0.00393896503374,0.00295262574218,0.00266114948317,0.00281729758717,0.00377505109645,0.000384315848351,-0.00261813541874,0.00101750844624,0.00211812718771,0.00207475665957,0.000185265205801,-0.0037687686272,-0.00112690625247,0.00367083935998,0.000735211127903,0.000332667725161,-0.00201951898634,-0.00115017429926,0.00344896269962,0.00145110872108,0.00250664073974,-0.000400379009079,0.00113502715249,-0.00219813454896,0.00179154681973,-0.000633831426967,-0.000503347313497,0.00130156299565,0.00380632397719,-0.00380749301985,0.00283275241964,-0.00181409926154,-0.000491373415571,-0.00417495565489,-0.00173847598489,2.1083640604e-05,-0.00387590168975,-7.96017920948e-05,0.0037262509577,-0.00344629632309,0.00230630696751,-0.000790368940216,0.00135260005482,-0.00209472561255,-0.0029741267208,-0.00296564702876,-0.00375096546486,-0.00274577760138,0.00143152393866,0.00332974339835,0.00273996498436,0.00161404511891,-0.00340230204165,-0.00184203265235,-0.00166207412258,-0.00218450231478,0.000128990897792,0.000308448739816,-0.00125110754743,-0.00127817888279,0.00286588189192,0.00252315681428,-0.00167960545514,0.0036099194549,0.00395054137334,-0.00151429779362,-0.00127271062229,4.72821193398e-05,0.00384847912937,0.00328279985115,-0.00347106251866,-0.000938348995987,0.000464035023469,2.55470331467e-05,-0.0026739644818,0.00313026201911,0.00154274865054,0.00294770323671,0.00312979402952,0.00216611847281,-0.000532284611836,0.000963282771409,-0.00296635809354,0.00151397439186,-0.002801413415,0.00169126794208,-0.0023619174026,-0.00334006198682,-0.00292337033898,-0.00434866687283,0.00190766179003,0.00202692952007,0.000128551153466,-0.0029576017987,-0.00363670475781,-0.00419902522117,-0.00291921244934,0.00340982736088,-0.00225785374641,-0.00127378315665,-0.00344656803645,-0.00242513604462,0.00016596732894,0.000938725250307,-0.00222450890578,-0.00386219122447,-0.000952879257966,-0.00232185679488,-0.00244971178472,0.00401227502152,0.00101341796108,0.000494741776492,-0.000736878195312,-0.00062191078905,0.000355330470484,0.00171285576653,0.00176277081482,-0.00286738271825,-6.96874735695e-07,-0.000770212966017,0.00323249143548,0.00114539708011,0.000281854590867,-0.00335898529738,0.000920197868254,-0.00334320240654,-0.00142287369817,-0.00311942375265,0.00167466991115,-0.00256592547521,-0.000945833453443,0.0034518155735,-0.00258284038864,6.62235397613e-05,-0.000706582912244,-0.00420805159956,0.00255351583473,-0.00376356882043,-0.000226612464758,0.000527763622813,0.00111912703142,0.00164463161491,-0.00215547066182,-0.00427909940481,0.00194850354455,0.000309353374178,0.00293202069588,0.00280349608511,0.00299500720575,-0.000131890570628,-0.00145397963934,0.00254315580241,-0.00042691238923,-0.00276491674595,0.00309670111164,0.00333747756667,-0.000295882462524,-0.00370535906404,-0.000980912591331,0.002647704212,0.00350519944914,-0.00259007886052,-0.00378154055215,0.00329203228466,-0.000967120169662,0.00036274609738,0.0040838313289,-0.00378509657457,0.00129284209106,-0.00371928745881,-0.001088800258,0.00265010423027,-0.000582500244491,0.00433797668666,0.000513696344569,-0.00156283960678,-0.00244489847682,-0.00130656035617,-0.00111442850903,-0.00376641028561,-0.00114029727411,-0.000314031320158,0.00194240489509,0.00136620248668,0.00182040245272,-0.00429320009425,-0.00246626604348,0.00140943843871,-0.00014158526028,-0.00431981310248,0.0026560020633,0.00237943232059,0.000420768134063,-0.00378607376479,0.00232448172756,0.000728845305275,0.00245927996002,0.00219561951235,0.00264299637638,0.000155344445375,-0.00314138038084,0.00149210332893,0.00104971812107,0.00211270502768,-0.00288337818347,-0.00266433460638,0.00340590206906,0.00218008249067,0.00356141827069,0.00225635059178,0.000846126466058,0.00134346843697,0.00339468033053,0.000685938051902,0.00115366373211,-0.00300046685152,-0.000229592638789,0.00188693427481,-0.00200132932514,-0.00260091084056,-0.00162700121291,-0.00225830078125,-0.00249032303691,-0.00065778120188,0.00355809670873,5.98014230491e-05,-0.00272584334016,-0.00369435595348,0.00171039253473,-0.00102479849011,0.00280738202855,0.00139056495391,0.00258397543803,-0.00199243472889,0.00167723768391,-0.00206122267991,0.00383073091507,0.00118857633788,-0.00153359537944,-0.00201367982663,-0.00269962078892,0.00169717613608,-0.00245701684617,0.000830084376503,-0.00205623614602,0.00141198618803,0.00274726352654,0.00242497166619,0.00227504060604,-0.00272766803391,-0.00359474890865,0.00173469609581,-0.00115103123244,-0.000592389376834,-0.00409434782341,-0.0021004518494,-0.00407226476818,0.0033078934066,-0.00224170903675,0.00049861142179,-0.00402599573135,0.00145447731484,-0.00154667370953,0.00347138987854,0.00338586978614,-0.00152688729577,0.00349796749651,0.00432887393981,0.00283853686415,0.00300837424584,-0.00219274498522,0.000667622080073,-0.00377910840325,-0.00353764928877,0.00435287319124,-0.00151498732157,0.00216458109207,0.00267501291819,0.00312331831083,0.00434191478416,-0.00225811335258,-0.00401387037709,-0.000776922272053,-0.00323061435483,-0.00417031720281,-0.00122001464479,0.00247494061477,0.000575944082811,-0.00163591641467,0.00134552200325,-0.00234084483236,-0.00424054963514,0.00230573769659,0.00107840786222,0.00228786026128,-0.00402619550005,0.00294087827206,0.00104145985097,0.000551523291506,0.0010858993046,0.00317922211252,0.000757040514145,0.000704731966835,0.00428114458919,0.00223909132183,-0.000505506643094,0.00180851016194,-0.000968689855654,-0.00236841500737,0.000843566493131,0.00373566593044,0.00374403502792,-0.00138178432826,0.000239783141296,-0.00251886341721,0.00432441476732,0.00419774278998,0.00130321434699,0.00265536573716,0.00187576445751,0.000811367412098,-0.00390049838461,-0.000396728486521,0.0015237336047,0.00154762645252,-0.00110950670205,0.00385335134342,-0.00290544563904,1.21670927911e-06,0.00166421709582,0.00171877187677,0.00129543803632,-0.00196336070076,-0.00300280447118,0.00118464697152,0.000864811590873,-0.00280077988282,0.00178868020885,-0.000393235502997,0.00146237295121,0.00294281682,-0.00288480892777,-0.00419921474531,0.00243421224877,0.000955514784437,0.00174060428981,0.00294966483489,0.00264128972776,0.00402138894424,0.000311828276608,-0.000102250713098,-0.000858227547724,-0.00302467122674,0.000631940143649,-0.00194821157493,0.00367567455396,0.000724330137018,0.000808577868156,-0.00126811990049,-0.0039123641327,-0.00408905744553,-0.000670978450216,-0.00362803041935,0.000930830952711,0.00332361715846,0.00334058539011,0.00138649204746,-0.00252235867083,0.00316670932807,0.00336832879111,-0.00264958338812,0.00207065674476,-0.00186531210784,0.0026397369802,0.00433830684051,-0.00410420820117,0.00346653349698,0.00106853002217,0.0041301199235,-0.00030734136817,0.00303032598458,-0.0038216507528,-0.00143970735371,-0.00378129258752,0.00414722366259,0.0027648510877,0.00307539035566,0.0038209555205,-0.00362343387678,-0.00100051611662,-0.00374624109827,-0.00252629769966,-0.00236421078444,-0.000271588942269,-0.00202207476832,-0.00348485913128,-0.00290425820276,-0.0030806530267,0.00412753317505,0.00226144539192,0.00408112304285,-0.00052779779071,-0.00193636945914,0.00260190828703,-0.00151836918667,-0.00175289821345,-0.00233666179702,-0.00323420669883,-0.00212753564119,-0.00126462592743,0.00151700596325,-0.00382001511753,-0.00252867536619,0.00269564683549,-0.00308364257216,-0.00137522933073,0.00318128569052,-0.00301380455494,-0.00364389060996,-0.000136658374686,-0.00172633468173,0.000551728822757,0.00264992797747,-0.00316913565621,0.000702483812347,4.6143290092e-05,-0.00310870050453,0.00108043628279,-0.00197777547874,-0.000108162508695,-0.00364820053801,-0.000354761607014,-0.00169129052665,0.00281199463643,-0.00386899453588,-0.000712440523785,-0.000364821782568,0.00196203729138,0.000646426458843,0.00145754322875,0.00241629034281,0.00315957330167,-0.00162665033713,0.000329846021486,0.00296665797941,0.00427024858072,0.00339800701477,-0.001123743481,-0.0026626100298,-9.43489430938e-05,0.00210746680386,-6.66112973704e-05,-0.000148590479512,0.00295055983588,-0.00121151434723,0.00313880341128,-0.000815194565803,-0.00150107650552,-0.000403362500947,0.00228906562552,-0.0032662563026,-0.0026515875943,0.00393878202885,-0.00283426907845,0.000589467817917,0.00069058832014,-9.22942344914e-05,0.00126173126046,-0.0023599776905,0.000457967282273,-0.00111750513315,0.0014093973441,-0.00313342851587,0.00061690172879,-0.00274893362075,-0.00193391332868,-0.00245708110742,-0.0027702038642,0.00284127471969,-0.00187229202129,0.00372643186711,0.0041000219062,0.000620202161372,-0.00311796157621,-0.0010968715651,0.00259695597924,-0.00115937122609,-0.00360665540211,0.000493764528073,0.00301055237651,0.0025811411906,-0.00283768563531,0.00150612171274,-0.00244157249108,-0.00246164761484,0.00326320203021,-0.00218703481369,-0.00206844182685,-0.00436057988554,0.00323350704275,0.00255200755782,0.00110945280176,0.00218260707334,-0.00303909531794,-0.000365736632375,-0.00130063027609,-0.00354778813198,-0.000122973418911,0.00367058673874,-0.0040166452527,-0.00182224041782,-0.00255475426093,-0.00228757201694,0.00356318429112,-0.0002806368866,-0.00029609183548,0.00227255863138,-0.00301778339781,-0.000113082343887,-0.000613048963714,0.000843997637276,0.00435860361904,0.00235012173653,-0.000893298885785,0.0028573134914,-0.00287611503154,-0.0041002612561,-0.00258160848171,-0.0013948502019,9.05013439478e-05,0.00100306898821,0.00358221121132,8.41742948978e-05,9.25737276702e-06,-0.00392769556493,-0.00406150892377,0.000444695324404,-0.000541466928553,0.00295875407755,-0.00296372803859,-0.00414831051603,-0.000446708378149,-0.00229337299243,-0.00393319223076,0.00195853714831,-0.00339220440947,0.000943570456002,-0.00191300164443,-0.00285181729123,-0.001051527448,0.0026292912662,-0.000943836173974,0.00218703434803,-0.00327092921361,0.0023789962288,-0.00229821307585,0.00154641305562,0.000572295626625,0.00374398496933,-0.000985464081168,-0.00378880253993,-0.00419916445389,0.00285118957981,0.000213997394894,0.0024005791638,-0.00232011708431,-0.00135424919426,-0.00410347199067,0.00402631098405,0.00146331079304,0.00377933355048,-0.0020489608869,0.000971099187154,0.00155625166371,-0.00159435928799,0.00303678470664,0.00390144041739,0.00335746724159,0.00208498863503,-0.00194417848252,-0.00190788053442,0.00404292624444,-0.00427639251575,0.00188408163376,0.00179853546433,0.00106922653504,0.00427636923268,-0.00164384336676,-0.00139858701732,-0.00367702776566,-0.000500964932144,-0.00208738376386,-0.00136880669743,0.00291863665916,0.00379953999072,-0.00274476851337,-0.0011144442251,0.00373954465613,-0.0038266594056,-0.00355995586142,-0.00294514582492,0.00082938966807,-0.00305272499099,0.00408391980454,-0.000466867088107,1.14984350148e-05,-0.0022130664438,-0.000255191582255,0.00141157500912,0.00219071446918,0.00221421010792,0.000678166863509,0.00352780916728,0.00276888208464,0.0022420110181,-0.00388068892062,-0.00430599786341,-0.00251164473593,0.00142568291631,-0.000776797474828,-0.000853551377077,0.00335523602553,0.00345085887238,0.00356967304833,-0.00162652367726,0.0016657335218,-0.00199528317899,-0.00270250719041,-0.00275467708707,-0.00138013844844,-0.000613325159065,0.0028868210502,-0.00331977102906,0.00204868288711,0.000272651494015,-0.001852883026,-6.4600717451e-05,-0.00174813321792,0.000836772785988,-0.000579372979701,-0.00293123256415,-0.00334865227342,0.000405704951845,0.00351066235453,-0.00136391806882,0.00203194143251,0.00138305360451,0.003765135305,0.00279998918995,0.000579607789405,0.00136890937574,0.00347561156377,-0.00087882677326,-0.00151361315511,-0.00427176384255,0.00284860446118,0.0026253934484,-0.00345436832868,0.000669110799208,-0.00031615482294,-0.0033299413044,0.00419296743348,-0.00249210651964,-0.00377926439978,0.000826115487143,0.00208322447725,-0.00408296147361,0.00138361460995,0.00028008321533,-0.00346477353014,-0.00286023179069,0.000591535121202,-0.00177933671512,0.00382414739579,0.00278036855161,0.00421911478043,-0.00209958502091,0.00409829383716,-0.00060203607427,-0.00133277149871,-0.00392668927088,-0.0039056323003,0.00167419214267,-0.000369033921743,-0.00238891551271,0.000993004185148,-0.00215908000246,0.00067578884773,-0.00123076175805,0.00282235629857,0.00279741571285,-0.000199578891625,-0.00130401609931,-0.00120152684394,0.002666632412,-0.00150163681246,-0.00254141516052,-0.00362694263458,-0.000292535871267,-0.00015776915825,0.00297386269085,-0.00243509048596,-0.0010406721849,0.00269009545445,0.00282292277552,-0.0010091009317,-0.000358707911801,-0.00171896722168,0.00377372535877,-0.00333068100736,0.00378415477462,0.00160300731659,0.000273683399428,-0.00408123061061,-0.000214965417399,-0.00080719392281,-0.00295906467363,0.00136333273258,0.00411059614271,0.000540858251043,0.00187255011406,-0.00376881565899,-0.0007205560687,-0.00335055799223,0.000982698868029,0.00382549851201,0.00141024356708,-0.00369584932923,-0.00127041514497,0.000440375646576,-0.000846742361318,0.00291043310426,0.00274482974783,0.000974284892436,-0.00110640225466,-0.00213745841756,-0.00344204949215,-0.00126836879645,-0.00075972994091,0.00153286138084,0.00137870328035,-0.00375423231162,-0.000916062388569,-0.0027794665657,-0.00299739348702,0.00285513955168,-0.0040002646856,-0.000707290542778,-0.00289804744534,0.00330917397514,0.00049600051716,-0.00234658923,1.92800489458e-05,0.00201867707074,0.0039968774654,-0.00244204723276,0.00336897326633,0.00378897041082,0.00363288470544,0.00118006241973,0.00113125774078,-0.000846745737363,0.00220115552656,0.000271199300187,0.0015468809288,-0.00062638358213,0.00201874622144,0.00283028767444,-0.00308808451518,0.00290412362665,0.000349831010681,0.00300659728236,-0.000601445906796,-0.00105763331521,0.00362112978473,-0.00217375461943,0.00300277466886,-0.000141252778121,0.000121281220345,-0.00167358049657,0.000635802745819,-0.00152744073421,-0.00402332469821,-0.00199187267572,-0.00431037973613,0.00417369185016,0.00406360439956,-0.000916895107366,0.00199167476967,-0.00134760222863,0.00149172265083,0.00266427919269,0.00389789440669,-0.00087272899691,0.00247111637145,-0.00204484327696,0.00427824491635,-0.00414129346609,0.0009018133278,0.00139045959804,0.00163957849145,-0.00331532838754,0.00382595509291,-0.00278469664045,0.00106965075247,-0.00242250459269,-0.0016845605569,0.00040370595525,-0.000724619778339,-0.00296761235222,-0.00287411198951,-0.000716277922038,0.00224392139353,0.00347192329355,-0.00363183417358,-0.000934868643526,-0.00349112367257,-0.0042213392444,0.00140983925667,0.000892496667802,-0.00294314906932,-0.00232520396821,-0.00415928428993,0.0029217635747,0.0041415002197,-0.00318394205533,-0.0023458590731,0.00321384612471,0.00372058432549,-0.000703463272657,-0.00392442848533,-0.00402248417959,0.000643563806079,-0.000936819065828,-0.00411619758233,0.000724709767383,-0.00426770513877,0.00250642397441,-0.00169157434721,-0.00401495303959,0.000769190141,-0.00089509866666,0.00413368223235,0.000383753387723,-0.00196393136866,0.00182607176248,-0.00199664174579,0.00352666038089,-0.00109539367259,0.000433438690379,-0.00392475258559,-0.00064668757841,0.00289927911945,0.0026661073789,-0.00240814662538,-0.00239276187494,0.00276787602343,0.00375500437804,-0.00353379221633,-0.000437744834926,-0.00142060825601,0.00323383207433,-0.00363712478429,-0.0025233195629,0.00220194552094,-0.00391839398071,-6.69285509503e-05,-0.000507132266648,-0.00144724885467,-0.000922021456063,0.000259582157014,-0.0029575843364,0.000626563443802,0.00266414624639,0.00226895860396,-0.00302294385619,-0.00306357839145,-0.00202544988133,-0.00121454824694,-0.000800995912869,0.00156657595653,-0.00387156615034,-0.00406363513321,-0.000945416744798,0.00171905104071,-0.00267785787582,0.0012332132319,-0.00209831609391,0.00336809107102,0.00345190404914,-0.00177137448918,-0.00235873810016,-0.000776183442213,-0.0022668170277,0.0015026696492,0.00284412968904,0.00150890136138,0.00282936100848,-0.000900918326806,-0.00300170504488,0.0020752272103,-0.00121967867017,0.0014931850601,-0.00200376822613,-0.00365710281767,0.00429784553126,-0.00300269667059,0.00426152441651,0.00416428828612,0.00256291939877,0.00138982164208,0.000677389441989,0.00319381477311,-0.00183966523036,-0.000283805420622,0.00104040175211,-0.00077693752246,-0.000634755124338,-0.00148318870924,0.000558889470994,0.00305831967853,-0.00260702031665,0.00379013689235,0.00164855783805,0.00281979655847,0.00048850098392,0.00243785814382,-0.00422485684976,0.00277711031958,-0.00401596026495,0.00340146222152,0.00429224502295,-0.00179948774166,-0.00253052683547,0.00231429794803,-0.002157763578,0.00318888993934,-0.00346867810003,-0.00326694454998,0.00418035173789,0.00151537847705,0.00302586448379,-0.00153540458996,0.00153843790758,0.000820570683572,0.000898348458577,0.00159127730876,0.000655994866975,-0.000620980747044,-0.00195766822435,0.00234263739549,-0.00239101191983,0.00167723593768,-0.00232943193987,0.00109223567415,0.00215493654832,-0.00245698681101,-0.00384286791086,-0.0032228550408,0.000923505693208,0.0030485172756,-0.00397329730913,0.00204212684184,-0.00138678774238,-0.000189105747268,0.00374173233286,-0.00146835460328,-0.00030423962744,-0.00424660742283,-0.00365376425907,-0.00210886611603,-0.00412294641137,0.00114497693721,-0.000644200306851,0.000418495590566,-0.00284168380313,-0.00178301509004,0.0014281704789,0.00405968725681,-0.0039260876365,0.00340572255664,0.000669228145853,0.000556103303097,5.84111376156e-07,-0.00376052036881,-0.00358173833229,0.000878943537828,-0.00139008415863,0.00364031456411,-0.000817268679384,-0.00311565352604,0.00187228212599,-0.0018056735862,0.000220365764108,0.00172483746428,0.00349181424826,0.00254848971963,0.00153751648031,0.00156601867639,0.00389036769047,-0.00178419193253,-0.00435663945973,-0.00199242588133,-0.00246435590088,0.00141065765638,0.00116514705587,0.000813823135104,-0.004224489443,0.00199501076713,-0.00154228124302,0.00143877533264,0.000491912767757,-0.0013746995246,-0.00319161103107,-0.00354214129038,0.00289177568629,0.00365012558177,0.00130545918364,-0.00346349179745,-0.000857150065713,0.00199638702907,0.00244054524228,-0.00333428941667,-0.00436590984464,0.00184987008106,-0.0012535416754,-0.00214488501661,-0.00425361143425,0.000349926704075,0.00306322588585,0.00399266043678,0.000572035263758,0.000124390280689,-0.00362380268052,0.000424722529715,-0.00104949588422,0.000933279865421,-0.000973152753431,-0.00226874882355,-0.00353733706288,-0.00161741557531,-0.00352265988477,-0.0028221514076,0.00425194576383,-0.00048979598796,0.000276298873359,0.00325930514373,0.00432382617146,0.000720142794307,0.00272562704049,-0.00151248159818,-0.00169756088872,-0.000851162825711,0.00150385627057,0.00158838345669,-0.00161467422731,-0.00320359528996,0.00115377432667,-0.00324612716213,0.000683235062752,0.00168638164178,0.00174905499443,0.00221058866009,0.00325267063454,-2.30292630476e-06,0.00200779759325,0.00103818555363,-0.00273715471849,-0.00414204504341,-0.00188266404439,-0.000499257119372,0.00102012837306,0.00305283744819,-0.00265323277563,-0.00327029894106,0.00404378538951,-0.0034230244346,-0.000189560028957,0.00074506731471,0.00035936749191,-0.00361513812095,-0.00386827811599,-0.00344543950632,0.000745288620237,0.00038529880112,-0.00232582725585,0.00120092497673,0.00279199611396,-0.00400319648907,-1.80466940947e-05,0.00165076158009,-0.00216364045627,-0.00167967530433,0.000990190077573,0.00347178173251,0.00270361616276,0.000724026816897,0.00200770422816,-0.00118174334057,0.00122865196317,-0.000296954036457,-0.00270818546414,0.00175915029831,0.000491113227326,-0.00123578484636,0.00358874723315,-0.00418329518288,-0.00160978420172,-0.00386956753209,0.00232472969219,0.00176244368777,-0.00147374614608,0.00153161946218,-0.000909985217731,0.00223512481898,-0.000401563680498,-0.000767330231611,0.00379297719337,-0.00217613298446,-0.00331461336464,0.000736351299565,0.00409493315965,-0.00106823456008,-0.00382477929816,-0.00140461616684,4.9815265811e-05,-0.00295295752585,0.00137812178582,0.00434279302135,-0.000423182878876,-0.00126999511849,-0.000868691247888,-0.00336119020358,0.00334357097745,-0.000745386525523,-0.000985880731605,0.00139194435906,-0.000507867545821,0.00129197642673,-0.00382992113009,0.0027364755515,0.00384311121888,0.00129663513508,0.00396587373689,-0.00304443505593,-0.000199024783797,0.000886746565811,0.000711681088433,-0.000861872744281,-0.00141507701483,-0.00325913843699,-0.000946757791098,-0.00294632092118,0.00204395106994,-0.00254332646728,-0.00385494530201,0.000455288361991,0.000829447526485,0.00324455671944,0.000670192879625,-0.00135054276325,0.00264310347848,0.000349832582287,-0.00367411714979,0.000573013152461,0.00355970300734,-0.00090684503084,-0.00177959783468,-0.00311385397799,-0.00304425507784,-0.000588627182879,0.00083335180534,-0.0036624877248,0.00383506878279,0.00222519156523,0.000754300737754,0.00286499783397,-0.00366624258459,-0.000203969597351,0.00113372923806,0.00286691263318,0.0024724774994,-0.0019477425376,0.00384649052285,-0.00328080961481,0.00327260210179,0.00410885410383,-0.00281990226358,0.00193649402354,-0.00401456467807,-0.000827392737847,0.000140239935718,0.000702072575223,0.00380329880863,0.00150163949002,-0.000165314952028,0.0027011372149,0.00393074331805,-0.00417356891558,0.00420999666676,-0.00361434952356,0.00274235475808,-0.00191926851403,-0.00321248010732,-0.000526888470631,0.00125464121811,-0.00104104878847,-0.0038899416104,0.000866274524014,0.00351054081693,-0.00102131254971,-0.00247795227915,-0.000503109651618,-0.00394410965964,0.00279553094879,0.00284660607576,0.00076621316839,-0.00128408742603,0.00261482852511,0.000475427223137,0.00284303538501,0.00114555540495,0.00248060119338,0.00085843965644,-0.000751300191041,0.00399540225044,0.000356989650754,0.000915404292755,-0.00244168238714,0.00109489099123,0.000623165629804,-0.00275283283554,-0.00384608306922,0.00090905406978,0.00229981099255,0.0002023949055,-0.00238677719608,0.00145171640906,-0.00366696645506,-0.000509554520249,-0.00294021191075,-0.00275608222,-0.00260037276894,-0.000990668893792,-0.0039196764119,-0.000893923977856,0.000100406905403,-0.000147708138684,-0.00102503900416,0.00295839598402,-0.00309776887298,4.78188194393e-05,-0.00382473994978,-0.00374517845921,0.000642835511826,0.000574326433707,0.00329783232883,0.000503204937559,0.00401144009084,-0.00394125515595,-0.0035107859876,-0.003981619142,-0.00274908007123,0.000358253484592,0.00126870407257,-0.00396837294102,0.0038908473216,0.00298473681323,-0.00177724473178,-0.00369252217934,-0.00288336561061,-0.00325817614794,-0.00329006137326,0.000160205789143,-0.00222025811672,-0.00124007614795,0.00427093962207,0.00160705391318,0.00391726056114,-0.00312177767046,-0.00103052437771,0.000475974928122,-0.00369611545466,-0.00432953191921,0.00148596207146,0.00123619323131,-0.000780450471211,-9.21490136534e-05,-0.000739791546948,-0.00415651593357,-0.00143870105967,-0.00282039609738,-0.00350698386319,0.00398485967889,0.000865575741045,0.001994142076,-0.00161339959595,-0.000934547861107,-0.00229819747619,-0.00351982982829,-0.00280347582884,0.00259510194883,0.00154789432418,0.000407775631174,-0.000219295514398,0.00368547090329,-0.00373130175285,-0.00191691296641,-0.00131169031374,0.00246337708086,0.00429721316323,-0.00226538418792,0.0032654106617,0.0028841458261,-0.00240515382029,-0.0008804644458,-0.00079018593533,0.00417243083939,-0.00278716953471,0.00260951812379,-0.00144899543375,0.00201349356212,-0.000700069474988,0.000682109501213,0.00290135806426,0.00265302299522,0.0031964185182,-0.00384585792199,0.00167444779072,-0.00314441183582,-0.00073678168701,0.00042211372056,-0.000850905897096,0.000169190301676,0.00433201529086,-0.00318613112904,0.00152944703586,-0.000909768685233,-0.00320540461689,-0.00298088416457,0.00391947710887,0.00331134721637,0.00355087802745,0.00428833207116,-0.00254816212691,-0.00126394059043,0.0014749749098,-0.000143209806993,-0.000714189198334,-0.00124296557624,0.000816738058347,0.000657970900647,-0.00295687001199,-0.00024850765476,0.000464908865979,0.000611695111729,-0.00253222789615,0.00211287662387,-0.00414622202516,-0.00126895913854,0.00244409195147,0.000555902486667,-0.00208657537587,0.00169986416586,0.000586394511629,0.00258401408792,0.00204966729507,0.000959228549618,-0.000105047380202,-0.00320366979577,-0.00208506127819,-0.000707929895725,0.000864880974405,0.000117777337437,-0.00185080175288,-0.00430988380685,-3.47869754478e-05,-0.00187311926857,0.00204592803493,-0.00415724841878,0.000738495553378,0.00385155784898,-0.00284393178299,-0.000249410688411,-0.00356831261888,0.00109506305307,0.000439105468104,-0.000810551922768,0.000184602395166,0.00345957837999,-0.00265296828002,-0.00416938913986,0.00315485917963,0.000671114190482,0.0034079218749,0.000844189606141,0.00270529603586,-0.00061568513047,0.00217916071415,0.00360355083831,0.000627765897661,-0.00278812996112,-0.00201987475157,-0.00263219000772,-0.00221135187894,-0.00169147166889,0.000479510810692,0.000766287790611,-0.000643305422273,0.00100575981196,-0.00365402922034,-0.00359980901703,-0.00286625814624,0.000156050082296,-0.00249821320176,-0.00189339311328,-0.000871894066222,0.00272038672119,-0.00424514245242,0.00130211631767,0.00147230376024,0.00260511715896,0.00377547484823,-0.0041904929094,-0.00302396086045,0.00336883054115,-0.000364035891835,0.000561858003493,0.00142106623389,0.00156104296912,0.00376654672436,0.00433575315401,0.00191971287131,-0.00185929506551,0.00331273535267,-0.00393672753125,-0.00234930613078,0.0034666727297,-0.00213013263419,-0.00244039483368,-0.00316069694236,0.00313262548298,-1.50682433286e-06,0.00152459973469,-0.0022796113044,0.00225037615746,0.00226756697521,-0.00163752725348,-0.000781371898483,-0.002535761334,0.00415805820376,0.00126922270283,0.00379127683118,-0.00171791634057,0.00245882873423,0.00231889868155,0.0016712351935,0.00406270287931,-0.000930833688471,-0.0032250485383,0.00149713014252,0.00199990393594,0.000653502938803,-0.00256076757796,3.72282229364e-05,-0.00164098304231,-0.000634783122223,0.00126590614673,0.00213874527253,-0.00233896425925,-0.000828008516692,-0.00201657833531,-0.00263237697072,0.00247180112638,0.00357044045813,-0.00113450991921,0.00219157407992,0.00346341519617,0.00301936804317,-0.00277048163116,0.00398098723963,-0.00107830634806,-0.00140510278288,-0.00382130406797,-0.000122597353766,-0.00341472169384,-0.00219681323506,-0.00159976037685,0.00269373273477,0.00327559630387,-0.00172615190968,0.00312904710881,0.00311627425253,0.00230813864619,-0.00308585609309,0.00165933102835,0.00388256111182,0.00159146077931,-0.00147168885451,3.12006477543e-06,0.00127001514193,9.02838582988e-05,-0.00331921922043,-0.00164234195836,0.00263760262169,0.00315274274908,-0.00316789234057,0.00394683936611,-0.0014961019624,0.00141484034248,0.00219614803791,0.00272091198713,0.00388884078711,-0.00163493712898,0.00312732346356,-0.00321687571704,0.00178778963163,0.00211013061926,0.00154926988762,-0.00216398900375,0.00325418729335,-0.0028924040962,-0.00389803620055,0.00189632014371,-0.000215931155253,0.00304532097653,-0.00101965467911,-0.00289738108404,0.00293482583947,0.000425041333074,-0.00271480670199,0.00192182068713,9.51308102231e-05,0.000908601505216,-0.000343235209584,0.00286729075015,0.00287476624362,0.0018258059863,-0.00344624416903,0.00295585906133,0.00149084231816,0.00171788455918,-0.00119789200835,0.00330874579959,0.0019653274212,-0.00338346953504,-0.000806861906312,0.00337073672563,-0.00395425222814,0.00402569072321,0.00156195636373,0.00114480301272,-0.00200458825566,-0.00219460949302,0.00385670480318,-0.00176275218837,0.00240283668973,-0.000934781215619,-0.00315074366517,-0.00427275942639,0.000384333980037,0.00415092846379,-0.00114420545287,-0.00124849029817,-0.00136285729241,0.000177315872861,-0.000519969325978,0.00331419357099,4.62006028101e-05,6.56998163322e-05,-0.00315860612318,0.00421161530539,-0.00218424457125,-0.00372579460964,0.00142225460149,0.000830630946439,-0.000742418807931,-0.000680988247041,0.00248641334474,-0.00265785073861,0.00279365689494,0.00129666354042,-0.000709107727744,-0.00036816066131,-0.00212590792216,0.00219893758185,0.00011071118206,-0.00156545464415,0.00083666597493,0.00432542758062,-0.000566709029954,0.0036704801023,-0.00135454256088,-0.00388830224983,-0.00258323806338,-0.000711317872629,-0.00244883401319,-0.0043641878292,0.00362061662599,0.00299982656725,0.00211314135231,-0.00290127866901,-0.00331549742259,-0.00377600826323,0.0019537480548,0.00374122289941,-0.000608029193245,-0.00332613778301,0.000106460684037,-0.0013211480109,-0.00109426456038,0.00105739815626,0.00190746155567,-0.00340054766275,-0.00405531004071,0.00431327382103,-0.00233454396948,-0.0038961735554,-0.0027086166665,-0.00402591330931,-0.000945943698753,0.00263799307868,-0.00138761871494,-0.000489116413519,0.00153071014211,7.56770532462e-05,0.00315299630165,0.00319312349893,-0.0042797694914,0.00242504663765,-0.000344682484865,0.00426499778405,-0.000148244012962,0.00424805888906,0.00222016288899,-0.00219627143815,0.000333193369443,0.00429381802678,0.00311888149008,-0.0035163697321,0.00179945351556,-0.00134981563315,-0.00430529145524,-0.000844384601805,-0.00231714406982,0.00278141675517,-0.00142182479613,0.00285706622526,-0.00436092820019,-0.00167927623261,-0.00226109242067,-0.00232741120271,-0.00377095420845,-0.0027327593416,0.000483114650706,-0.00182291970123,-0.000722831406165,-0.00107655767351,0.00327943079174,0.00353600247763,-6.32464580121e-05,-0.0014843196841,-0.00343390950002,0.0039558429271,-0.00384042877704,-0.00176805676892,-0.00176443066448,-0.0015694265021,-0.00293213385157,0.00246982695535,-0.00329692359082,0.0011757289758,-0.00328517262824,-0.00375049794093,0.00357196340337,-0.00270662456751,0.00280222482979,0.000387696694816,-0.0036866213195,0.00397363724187,-0.00221056537703,0.0031373668462,-0.00289272400551,0.00308761326596,-0.00425073783845,0.000100963654404,0.0023500113748,0.00379335228354,0.00356993521564,0.00278804637492,0.0033865228761,-0.00262732780538,-0.00188562425319,-0.0018439082196,-0.00107506616041,-0.00093309674412,0.000386974337744,-0.00297065544873,0.00166751455981,-0.0029035336338,-0.00165754719637,2.74008107226e-05,0.00258566159755,0.00208838400431,0.00126845773775,-0.0030065337196,0.000408779538702,-0.00360293919221,-0.00107236171607,-0.000756781140808,-0.00401874119416,-0.00197470374405,0.0039753918536,0.00395777635276,-0.00129086407833,-0.00399002525955,-0.0028029687237,-0.000942641985603,0.00390670355409,-0.00313372304663,0.00229825638235,-0.00341758690774,0.00419891718775,-0.00103520450648,0.00240059616044,-0.00137583550531,0.00111253885552,-0.00269013806246,-0.00309165404178,0.00382186286151,0.00364365335554,0.00338023202494,0.00109307817183,0.00268894759938,-0.00376361445524,-0.00144392345101,-0.00162798806559,0.00118223612662,-0.00125910132192,-0.00306989136152,0.000840225024149,0.00274235056713,-0.00103066547308,-0.00321158976294,-0.00264929840341,-0.00229320721701,-0.00174841785338,0.00124451331794,0.000879218394402,0.00170962873381,-0.00120206689462,0.00282619032077,-0.00258487928659,-0.000272191711701,0.00262486608699,-0.00279372511432,-0.00340728601441,0.00334712211043,-0.00137297797482,0.00160299858544,-0.00414501689374,0.0016569577856,-0.00160714064259,-0.00387976062484,0.000956587959081,-0.00226436485536,-0.000989917316474,-0.00366289587691,-0.00308171892539,-0.00176528806332,-0.00358277745545,0.00358407571912,-0.00431334925815,-0.00014265482605,-0.00329036847688,-0.00168052094523,0.00371716008522,-0.00295473099686,0.00406435877085,-0.00256982119754,0.0021067885682,0.000405669066822,0.00335427303798,0.000469554128358,0.000299922947306,-0.00265999464318,-0.00291515211575,0.00363364233635,-0.00150450633373,-0.00111828092486,0.00226620282046,-0.00140861026011,0.00394415762275,0.00207503885031,0.000848686264362,0.00332296965644,-0.00393314985558,-0.0021223842632,-0.000307058624458,-0.00238500488922,0.00212712166831,0.00365732889622,-0.000667255138978,-0.00137982179876,0.00402692658827,-0.000483173702378,-9.73931601038e-05,-0.00129675085191,0.00357301952317,0.000600112427492,0.00228668493219,0.00271992222406,-0.00138225883711,-0.000580526306294,0.00303997658193,-0.00119531597011,0.00256396620534,0.00384752009995,0.00107373925857,0.00210738135502,0.00266142189503,0.00301005016081,-0.00091790384613,-0.00391877163202,-0.000858378771227,0.0015147367958,-0.000435352092609,0.00217125634663,-0.00125027692411,0.00117417518049,-0.00273915380239,0.00217467104085,0.000396888179239,-0.00258516194299,-0.00181839847937,0.00216797785833,-0.000153925997438,-0.00248068454675,0.00407660938799,0.0018756557256,0.00398809788749,-0.000638381985482,-0.000219442299567,0.00347150117159,0.000216513828491,0.00180715555325,-0.00216530170292,-0.000466828321805,-0.00328863621689,-0.00256825750694,-0.00435796333477,-0.0040234727785,0.0041642440483,-0.00225073634647,0.00142364145722,0.00295804883353,0.000440356059698,-0.00302943750285,0.00198935065418,0.000873225508258,0.00201667612419,0.00235269521363,0.00414785183966,0.000640254758764,-0.00138412381057,0.00129404803738,-0.00376879074611,0.00346690858714,-0.0033241789788,-0.00150454766117,0.00275423168205,0.000847615418024,-0.00092717789812,-0.000230599267525,0.00309601100162,-0.00139528966974,0.00322782807052,-0.00359383132309,0.00241733365692,0.00303491111845,-0.00277607212774,-0.000606733083259,-0.00291851093061,0.00180462899152,0.000309762079269,0.00118242762983,-0.00264804274775,-0.00251486781053,-0.00400089705363,-0.00155190052465,0.000522703572642,0.00312553928234,0.00145824684296,-0.000562714994885,0.0039563588798,0.00191493192688,0.00375600997359,0.000241853296757,-0.00210341368802,-0.00390222901478,0.00197443924844,-0.00330454600044,-0.00172045931686,0.000284477631794,0.000563336885534,0.000879010767676,-0.00291213556193,-0.00104868109338,0.00102402153425,0.00410201214254,0.00198802934028,0.00368987256661,0.00228983559646,0.000801638758276,-0.00268711731769,0.00145607045852,0.00107805687003,0.000895480392501,-8.80892257555e-05,0.000251208344707,-0.00144400261343,0.000169702456333,-0.00263871182688,0.00266502564773,-0.00274151633494,-0.00362145574763,-0.00055523251649,0.00138302566484,-0.000542426016182,-0.00194741040468,0.000508984085172,-0.00133425998501,0.00377958850004,0.00369036314078,2.19136436499e-05,-0.00150116055738,0.00207103393041,-0.00404271762818,-0.00021906105394,-0.0014275443973,0.00367187685333,-0.00425847386941,0.000462139927549,0.0021018141415,-0.000129655483761,-0.00361780147068,0.00412506284192,0.000158053386258,0.000997523893602,-0.00229826499708,-0.000143255747389,-0.000617648300249,-0.00370976678096,-0.00343689415604,0.00294649950229,-0.00227022264153,-0.00266182236373,4.37232665718e-05,0.00234664138407,-0.00382281723432,0.000671241607051,-0.00332297780551,-0.00404522800818,-0.00390311586671,0.00291767786257,-0.00333374785259,-0.00396939087659,-0.000541167100891,0.00300349807367,-0.00207298714668,-0.000682447862346,-0.00401500798762,-0.000443398050265,0.000678565702401,0.000620049773715,-0.00146155583207,-0.00160899956245,-0.00343262474053,-0.00116163282655,-0.00349481613375,0.00232813903131,0.00407111691311,0.00410417094827,0.00318764499389,0.000880812178366,0.00175435922574,-0.00187377771363,0.00114246376324,-0.000386118132155,-0.000155956819071,0.00225106673315,-0.00190252438188,-0.0015872491058,0.00370758213103,-0.00387259782292,-0.000124403784866,0.0036041981075,0.000964609440416,0.000406367733376,-0.00218311394565,-0.00136673694942,0.00307416100986,0.000518196611665,0.000129998836201,-0.00349382124841,-0.00422313017771,0.00404867203906,-0.00107242749073,0.000902283529285,-0.00366718135774,0.00159970403183,0.00377704831772,0.00066176027758,-0.00326220062561,0.000714668480214,0.00232620188035,-0.000815558014438,0.00331680593081,0.00129913154524,0.00348624773324,0.00107936572749,-0.00321708968841,-0.00166006956715,-0.00260185264051,0.00356963952072,0.00227405130863,0.00154083559755,-0.0017362406943,-0.00275682052597,0.00223954487592,-0.000224493604037,-0.00239242054522,0.00101904280018,-0.00401124497876,-0.00151623797137,-0.000273383513559,-0.00307179242373,0.00423148646951,-0.00253813574091,-0.00322546577081,-0.00258669769391,0.00234962347895,-0.00064918526914,0.00057203945471,-0.00417992752045,-0.00406279694289,-0.000471809849842,0.00276532908902,0.00336397229694,-0.0036061827559,0.000336195225827,0.00360831199214,-0.000976501381956,0.00287806685083,-0.00319597986527,0.00380181102082,0.00219597970136,0.00385364471003,0.00154304224998,-0.001190896146,0.00382617115974,-0.00195761700161,-0.00146356818732,0.00175421719905,0.00231730472296,0.00374955474399,-0.00257526990026,0.00260245217942,0.00208356627263,-0.00380609976128,-0.000982975470833,-0.00189475191291,-0.00170577957761,0.00421627005562,0.00124702358153,0.00190081039909,0.00416102772579,-0.00107110862155,0.00263541727327,-0.000570724019781,0.00322626600973,-0.00278671854176,0.00390846142545,-0.00245403265581,-0.00151616358198,0.00223693111911,-0.000926668522879,0.000945292704273,-0.000483102950966,0.00211625290103,-0.0023706422653,-0.00385341327637,-0.00174561620224,-0.000223548515351,-0.00289708958007,-0.00126676820219,-0.000872322591022,-0.00386256910861,0.000727968523279,0.00335559621453,-0.00303909485228,0.000854483747389,0.00143878452946,-0.000703317986336,0.00175610603765,-0.000778450979851,4.12057670474e-05,-0.00429933331907,0.00167430529837,0.00140913377982,-0.00402837479487,-0.00114922097418,0.00418221624568,-0.000690983957611,1.78425889317e-05,0.0035790160764,0.00189726962708,0.000717259885278,0.00260033505037,0.00318134529516,-0.000375417177565,-0.000216386659304,-0.0009934916161,0.0040748603642,0.00172213325277,-0.00363677670248,0.00316930562258,-0.000168500395375,-0.00376305077225,0.000435132562416,-0.000721908174455,0.00329839251935,-0.00258257542737,0.00285080377944,0.000504707917571,-0.00388653110713,0.00411976175383,0.000111275854579,-0.00182419735938,-0.000265838578343,0.00312482845038,-0.00170178106055,-0.00268135149963,-0.00323653547093,-0.00176321726758,0.0024456481915,-0.000246494280873,-0.00237777456641,-0.00291282264516,-0.00145907315891,0.00384095264599,-0.00136918399949,0.0042616580613,-0.000127938954392,-0.00279951328412,0.00341514591128,-0.000345044129062,0.00183112767991,0.00422313343734,-0.00392542500049,-0.00351935788058,0.00192532851361,-0.00190339039546,-0.00275465217419,-0.00401978613809,-0.00417265342548,0.002396941185,-0.00318993558176,-0.000280754087726,0.000925363739952,-0.000624382286333,-0.0041267327033,0.0024757636711,-0.00427141832188,0.00228715967387,0.00343423709273,-0.000585015397519,0.000311377662001,-0.000199750225875,-0.000965920626186,0.00338291493244,0.00343973818235,-0.00143197923899,0.00100555084646,0.0037275350187,0.00403436413035,7.94032748672e-05,-0.000410649721744,-0.00193058454897,0.00400654273108,-0.0031165946275,0.000698000716511,-0.00189692538697,-0.00192782480735,-0.000828348100185,0.00435497937724,-0.00388337741606,0.000686644925736,-0.00364254205488,-0.00301450979896,-0.000526448362507,9.24194246181e-05,-0.00210439274088,-0.00160106888507,-0.00360419577919,-0.00171657674946,0.00407353509218,0.00388278090395,-0.00144025427289,0.000619530444965,0.00357630755752,-0.00430931663141,0.0027129072696,0.00391472689807,-0.00356616941281,-0.00295409467071,0.00402274727821,0.000328718248056,-0.00423941528425,-0.0021145644132,-0.000435940193711,0.00168485951144,0.00203609652817,0.00432529067621,-0.00185386382509,0.000334494136041,0.000291767646559,-0.00082264811499,-0.00288688810542,0.0041684624739,0.00308486656286,-1.36559810926e-05,0.00090212613577,-0.00237971893512,0.00038313359255,0.00170273566619,0.000133281631861,0.0042805057019,0.000972811307292,-0.00112528039608,0.0023764653597,-0.00287555274554,-0.00100702315103,-0.00133486790583,-0.000594259123318,0.00246053049341,-0.000137254668516,0.00256746122614,0.000668772088829,-0.0013773930259,0.00270686252043,-0.00228324974887,-0.00240470119752,4.03879967052e-05,-0.00208636675961,-0.00428390596062,0.00129557575565,9.79106698651e-05,-0.000474489177577,0.0040771025233,0.000622551713604,0.00317338039167,-0.00314606446773,0.000605151348282,0.00321303959936,0.000726445345208,0.00190402567387,-0.00111584633123,-0.00355636584572,-0.000366452411981,-0.000920048623811,0.00320497271605,-0.00223363656551,0.00407495116815,0.00399988284335,-0.00220190943219,-0.00132537214085,0.00345364841633,0.00407398212701,-0.000492724415381,-0.00156150490511,0.000228740944294,0.00163992971648,-0.00197630072944,0.00206510140561,-0.00391245400533,-0.00393308047205,-0.000991576467641,-0.00127798074391,-0.00160830991808,-7.73901847424e-05,-0.00156374147628,-0.00268520298414,-0.00166207074653,0.0041463309899,-0.00077484146459,-0.000481533352286,0.000669119588565,0.00421991990879,-0.00225451285951,0.00158329016995,0.00188618234824,0.000937757082283,-0.00359022454359,0.00154481257778,-0.00380395632237,0.000840119086206,0.00209220079705,-0.00252188299783,0.00298288650811,-0.0040984544903,0.00300196139142,-0.00034532189602,-0.00246417149901,-0.00319569418207,0.0039577386342,-0.00372916017659,-0.00262555480003,-0.00132736505475,0.00105043419171,0.000392013491364,-0.00326667982154,-0.00183411408216,-0.00227902783081,-0.00249905744568,-0.000774234766141,0.00178229971789,-0.00246496219188,-0.00116238207556,-0.000950807472691,0.00416020909324,0.00397001067176,0.00262110098265,-0.00225368700922,-0.0037691690959,-0.00159686547704,-0.00203422619961,5.29821154487e-05,0.00242549204268,0.00312900799327,0.00301150954328,-0.00122354039922,0.00163555832114,-0.00163246074226,-0.00383148528636,0.00176066649146,-0.00427733780816,-0.000791677797679,-0.00148827256635,0.00168898049742,0.00232500955462,-0.00170899403747,0.00272115971893,-0.00179778656457,-0.000467467005365,0.00198262510821,0.00168498395942,0.00425511877984,-0.00239798729308,0.00141784886364,0.000958415388595,0.00362431653775,-0.00299848127179,0.00219890987501,0.000596926372964,-0.00196582195349,-0.000222102637053,-0.00144989578985,0.000693327747285,0.00339649454691,0.000605965964496,0.00115081900731,0.000164881988894,-0.00391646241769,-0.00233050528914,-6.85306877131e-05,-0.00165511108935,-0.00277656223625,3.73286420654e-05,-0.00154538371135,-0.00211013946682,-0.000313079508487,-0.00319971796125,0.0037349096965,0.00321079650894,0.00181347841863,-0.00343603524379,0.00240925559774,0.00268929218873,0.00233845668845,-0.00336836534552,0.00125735322945,0.00291938823648,0.000676374998875,0.00127914291807,-0.000362253980711,0.000251755671343,-0.00406320905313,0.00121402658988,-0.00365236913785,-0.000566194183193,-0.00180880830158,0.000397592666559,-0.0031987244729,0.00167386687826,0.00257615628652,-0.00293741351925,-0.00345276203007,-0.00309311877936,0.00329292658716,0.000247133080848,-0.00028468639357,-0.00343178538606,0.00130653276574,0.00321327475831,0.00286575616337,0.00110141374171,-0.00370616768487,-0.00338217313401,-0.00393284950405,-0.00211578770541,-0.00317905261181,-0.00209324038588,-0.00100207293872,0.00386791303754,0.000964700127952,0.00292513892055,0.00183728546835,-0.00338111678138,0.00206051603891,-0.00196188944392,0.00121543719433,-0.00138703128323,0.0043452065438,-0.00206271209754,-0.00192674808204,0.00376037624665,-0.00414807163179,0.00171800586395,0.00196795514785,0.00293728732504,0.00414235936478,0.00415250938386,-0.0037934705615,0.00281035504304,0.001278182026,0.00128714728635,-0.00324319116771,0.00131175480783,0.00421221461147,0.0035954315681,-0.000530526624061,-0.00401481008157,-0.00120115466416,0.00284979003482,0.00175964680966,-0.000354083575075,-0.00388251966797,-0.000637264340185,-0.000269566342467,0.00374154560268,0.00123232370242,-0.00164311402477,0.000221907233936,-0.00378689379431,0.00412579113618,-0.0012206104584,-0.000192277511815,-0.0012622657232,0.00159401504789,0.00141701707616,0.00188039499335,-0.00202277232893,-0.00160791433882,-0.00326998578385,0.00135849579237,-0.0040158322081,0.000853657431435,0.00322800735012,0.00341249443591,-0.000443782337243,-0.000354146555765,-0.00369152543135,0.00149158225395,0.00280520622618,-0.00222780415788,-0.000685887935106,0.00295859272592,0.00329275662079,-0.00224073347636,0.000442415417638,-0.00268315616995,-0.00347409257665,0.00358953978866,0.00279859616421,0.00227073254064,-0.00393776316196,0.00300163286738,-0.000539458356798,-0.00137435854413,0.000407015933888,-0.0035656595137,0.00224150018767,0.000720892101526,-0.00273430300876,-0.00271996925585,-0.00275477371179,-0.00386548787355,0.000767732330132,0.00297217839397,-0.00421025464311,-0.00393527187407,0.000636481971014,0.00279009900987,-0.00151101511437,-0.00131134071853,0.000842285167892,-0.00196957401931,-0.00413084588945,0.00205454323441,0.00109807250556,0.000706206657924,0.00211067986675,0.00153061200399,-0.00256619532593,-0.00128656101879,-0.00326247420162,-0.00322981923819,0.00153902056627,0.00313117844053,0.00404012249783,0.00112140818965,-0.00275635509752,-0.0034411046654,0.00273184571415,0.00068849575473,0.00103353441227,0.00245788297616,0.00177542772144,0.00292046554387,-0.00387262646109,0.0021615952719,0.00306355394423,-0.00186569988728,0.00122699211352,-0.00162108929362,0.00399851985276,-0.00407124729827,0.000697856361512,-0.00290959444828,0.00185378675815,-0.00282767578028,-0.00230838241987,-4.7732341045e-05,0.00362238986418,-0.00251494441181,-0.00310392165557,0.00226191268303,6.80522407492e-06,0.00359576684423,-0.0030831717886,0.00127519946545,-0.00233025033958,-0.00299465656281,0.00160250952467,0.000819175387733,0.00222577177919,-0.00166178424843,-0.000452750216937,-0.000823699228931,0.00422690343112,-0.00181198341306,-0.0017902366817,-0.00126887485385,0.000564549351111,-0.00216120621189,0.00362566974945,-0.00204455154017,0.0034556586761,-0.00346047524363,0.00136726838537,0.00355315185152,-0.00289064855315,0.00408859318122,-0.000410574575653,0.00389118096791,0.00154408160597,-0.00173112854827,-0.0027199795004,-0.00171244353987,-0.00355174927972,-0.00310793193057,-0.00345004512928,-0.000671879854053,0.00258071068674,-0.00312959356233,-0.00322615564801,0.00125281338114,-0.00264240265824,-0.00351155456156,-0.00290724541992,0.00369934923947,0.00280689215288,-0.00127297244035,0.00136093655601,0.000326159992255,0.00154682307038,0.00159535300918,0.00112453813199,-0.00204080529511,-0.00402308348566,-0.000387031468563,0.00341360410675,0.000607510912232,0.00290224282071,0.00429212581366,-0.00293532060459,0.00167490413878,0.00152229203377,0.00419032294303,0.00423959782347,0.00163039809559,-0.00223670736887,0.00260719656944,-0.00342894135974,0.00245129852556,0.00358160492033,-0.00102151825558,0.00114146037959,-0.000608608243056,-0.00054206349887,-0.00165404903237,0.00228927331045,0.00380847556517,0.00384840741754,-0.00283751217648,0.00327221956104,0.00207366258837,-0.00215620500967,-0.00377583713271,-0.00202388456091,0.00359923043288,0.00116366345901,0.00193070503883,-0.0021185495425,0.00191617419478,-0.00411770027131,-0.00108732527588,0.00110736198258,-0.00308814784512,0.00282037327997,-0.00231186090969,0.00133018766064,-0.000826526316814,0.000839298882056,-0.00342547986656,-0.00421570474282,0.00357595644891,-0.00200986210257,0.00279134092852,0.00435968954116,-0.00251781544648,-0.00204878486693,0.00142255274113,0.00406376831234,0.00363055313937,2.61394725385e-05,0.00257691903971,-0.00317843770608,0.00416846899316,0.0040542432107,-0.00293417810462,-0.00174962414894,-0.00348895718344,-0.00199142168276,0.00275909644552,-0.00106092193164,-0.0035916371271,-0.00137602316681,0.00420303596184,0.00113316986244,-0.000730585772544,-0.00290958140977,0.00424483511597,0.00280176545493,-0.00190622301307,-0.0037515386939,-0.00386894494295,-0.00331247504801,0.000706140999682,0.00374369719066,-2.72437282547e-05,0.00299462722614,-0.000471182313049,0.00182181748096,0.00202511693351,-0.00284469802864,-0.0012103546178,0.00119952636305,-0.00374621781521,-0.00120749569032,0.000304843735648,0.0043324502185,-0.000221259324462,0.00275980890729,-0.000591930409428,0.00258816732094,0.000833908678032,0.00337550905533,-0.000776314700488,0.00091149052605,0.00113594590221,-0.00072005315451,-0.00310362572782,-0.0035466668196,-0.00421781325713,0.00326149095781,-0.00229917024262,-0.0025171295274,0.00206132419407,-0.0015700358199,5.37273663213e-05,-0.00294492137618,0.00401389040053,0.00306973024271,0.00317626865581,-0.000812900543679,0.00229101418518,-0.00310757779516,-0.00428823428228,-0.00418914388865,0.000756783527322,-0.000388353306334,0.00015821508714,-0.0042982683517,-0.000673919043038,0.00190434709657,-0.000499219924677,0.00202796887606,-0.00232941680588,0.00273430161178,0.00077281461563,-0.00252366205677,-0.00229709106497,0.00111855182331,0.00288094440475,-0.000735502049793,-0.00210863375105,0.00320461532101,0.00147858634591,-0.00045201490866,-0.000104471313534,-0.00258037121966,0.00110789714381,-0.00123192172032,0.00432743877172,-0.000171880965354,-0.000122108409414,0.000575863348786,0.00363878719509,0.00262680253945,-0.000425516947871,0.00191002816427,0.000753795728087,-6.55842013657e-05,-0.00268467376009,-0.000313784956234,-0.00221763644367,0.00362205621786,-0.0014356833417,0.00394868478179,0.000289515359327,0.00114916288294,0.000375761126634,-0.00323408213444,-0.00108298566192,-0.00349799753167,0.00107419653796,-0.000462777825305,0.0024274350144,-0.00243895780295,-0.00292693753727,-0.000816609652247,0.00372451450676,0.00183770712465,-0.000706681574229,0.000151762433234,-0.00362829398364,0.00423073908314,0.00145353097469,-0.00187212158926,0.000750051403884,-0.0034077342134,0.00406714389101,-0.00283769215457,0.00129315513186,-0.00222078547813,0.00190000387374,0.00241726450622,0.00151470815763,0.00100037839729,0.00342669477686,-0.00367706944235,-0.00147492194083,-0.00219616736285,0.00426066061482,-0.000964559381828,0.00203136866912,0.00161339167971,-0.00251219631173,-0.0022772825323,-0.00190818577539,-0.000774772604927,-0.00231804372743,-0.00419189734384,0.00331253185868,0.00406508846208,-0.00138193555176,-0.00140867335722,-0.00430151121691,0.00157430279069,0.00284165143967,-0.00308335130103,-0.00296935392544,0.00253339321353,0.00101642892696,-0.0039714211598,0.0010709699709,-0.00166659895331,-0.00114453665446,0.00235576997511,0.00271542975679,-0.000868491886649,0.00390435359441,-0.000815155450255,0.00237408769317,-0.000139413008583,0.00347119499929,0.00356049346738,-0.00360002927482,0.00381131772883,0.00284278136678,0.00254398654215,-0.00260944943875,0.00266452739015,0.00305742188357,-0.00183922855649,0.00394868198782,-0.00392810301855,-0.0030548076611,0.00032905646367,0.000662586069666,0.00126798357815,-0.00421521486714,0.00401946948841,-0.00397412152961,-0.00311455177143,-0.00424101622775,0.000584605149925,0.00377416610718,0.00144954328425,0.00281740538776,-0.00424743443727,0.000367746804841,-0.000351962982677,-7.98679866421e-06,-0.00373299745843,0.00161088421009,2.91332853521e-05,0.00231541227549,-0.000127382401843,-0.00305941421539,0.00129534071311,-0.00285839289427,0.00325180077925,0.000988660613075,-0.0029908658471,0.00403683958575,0.000161540898262,-0.00372679089196,0.00110836443491,-0.00215299124829,0.00265205767937,0.00277539342642,0.0041818190366,1.75497771124e-05,-0.000391941663111,0.00221370230429,-0.00320686143823,0.000410758075304,0.000404917926062,-0.00358215649612,-0.000714724301361,0.00308486400172,0.00310990214348,-0.00349700218067,-0.00357133941725,-0.00207029120065,0.00327229406685,-0.00323813059367,0.00192136468831,-0.00348026305437,0.00107592658605,-0.00125526578631,0.00252293050289,-0.00232344772667,0.00121614942327,-0.00230609951541,0.00186603202019,0.00326280551963,-0.0032564275898,0.00320101808757,0.000817865540739,-0.00325378985144,-0.000631395028904,-0.00295915338211,0.00174990133382,0.00226066354662,-0.00343981990591,5.46648952877e-05,0.00274734850973,0.00380826345645,0.000119185817312,0.0039315703325,0.00031275008223,-0.000922366278246,0.00304058147594,-6.00514758844e-05,-0.000244054215727,-8.33527883515e-05,0.0030281774234,0.00289859203622,-0.00084098498337,-0.00145391758997,-6.93017209414e-05,0.000636371783912,-0.00228281877935,0.00256697880104,-0.000116865012387,-0.00144742173143,-0.00343083147891,-0.00227843946777,0.00392277585343,-0.0017001243541,-0.00288934796117,-0.000342201063177,-0.0016828464577,-0.00405661854893,-0.00154289463535,0.000385820691008,0.000452167791082,-0.001251282054,-0.00045912002679,0.00406423537061,-0.00106977438554,-0.00210954854265,-0.00223839655519,-0.000367783883121,0.00226610596292,-0.00256552593783,0.00182769959792,-0.00417893566191,-0.000706704682671,0.00240884535015,-0.00140678137541,0.000557228398975,-0.00257424195297,0.00211321911775,-0.00390710355714,0.00307815126143,-0.00263341609389,0.00326894107275,-0.00128626171499,0.00194474845193,-0.0015768983867,0.00354414782487,-0.00325788371265,-0.00280513451435,-5.98686856392e-05,-0.00364815164357,-0.00265271379612,0.00387452892028,0.00416014296934,-0.00107906502672,0.00369576574303,0.000392301677493,-0.00200882717036,0.0017676523421,0.00138801569119,0.00427046045661,-0.00204983004369,0.00150283670519,-0.00390927074477,-0.00337137375027,-0.00432917708531,0.00436060829088,0.00263939145952,0.0025040844921,8.62593878992e-05,-0.00174380000681,-0.00304264319129,-0.00187815376557,-0.00108127167914,0.00223863078281,0.000347569148289,-0.00368665857241,-0.0042056334205,-0.00346982548945,-0.000779897964094,0.00378256151453,0.0012007127516,0.00263590551913,-0.000292216194794,-0.00120616808999,-0.00341685395688,0.00328271836042,0.00247291708365,-0.00289563997649,0.000108262822323,-0.000108960113721,0.00109312846325,0.00389585015364,0.000697366893291,0.000352101342287,-0.00392404431477,-0.00381417665631,-0.00272799353115,-0.00407985551283,0.00212523341179,0.00195046688896,-0.00317567959428,0.00293462933041,-0.00301222759299,-0.00173441343941,-0.00219004647806,-0.00111355807167,-0.00214042095467,-9.5365481684e-05,-0.000807149801403,0.00424821395427,-0.00387510540895,-0.00312223774381,-0.00390218850225,0.00109947926831,-0.00388749362901,0.00293773133308,0.000105255974631,0.000237109241425,0.000539017317351,-0.00287194293924,-0.00263735186309,-0.00158007314894,0.000817508553155,-0.00252890167758,-0.00334750232287,0.00410497328267,-0.00417103478685,0.0026435747277,0.00251557142474,-0.00176863884553,-0.00317903677933,-0.00309173390269,0.00172470824327,0.00124790077098,0.00246943370439,0.00382011453621,0.00167676585261,-0.00300262635574,-0.00223804078996,0.00298830890097,-0.00253596412949,-0.00372988847084,0.0017751022242,-0.000850113341585,0.0036670693662,0.00131220533513,-0.00357442977838,0.00390993943438,-0.00210679206066,-0.00142024760135,-0.000852475059219,-0.00391656113788,-2.96853977488e-05,-0.0032872534357,-0.000863728637341,-0.00130246963818,0.00238216365688,0.00264704599977,-0.00302451942116,-0.00116414949298,-0.00110480445437,-0.00304210395552,0.00260587339289,0.0018095690757,-0.00270187947899,-0.00116268068086,-0.00344016961753,0.00111994089093,-0.00330411316827,0.00424237875268,0.00245075812563,-0.000957348907832,0.000686652609147,0.00359136750922,0.000473067426356,-0.00284041976556,-0.00105797674041,0.00299609825015,0.00125967815984,0.00131652166601,0.0032027468551,0.00343973073177,0.00366514548659,-0.00353555427864,0.000386070809327,0.00210023345426,0.0022435374558,0.000932429276872,-0.00290759140626,0.0025970293209,0.00192221906036,-0.00361155392602,-0.000314671458909,-0.00284455483779,-0.00141742720734,-0.00420533912256,-0.000868821924087,0.000436580856331,0.00104500737507,0.00142826337833,0.00293659395538,-0.00248245359398,-0.0033115062397,0.00306968856603,-0.00299612618983,0.00414526322857,0.00299112289213,8.85179179022e-06,0.00420337589458,-0.00351319066249,-0.0017177806003,0.001207704423,-0.00130807736423,0.00374033069238,-0.00379033735953,0.000432504544733,0.000794335384853,0.00133409339469,-0.00213173124939,-0.00118118850514,0.00300087686628,-0.00266176625155,0.00285412045196,0.000547874427866,0.00228953175247,0.00186551071238,-0.00255204364657,0.000601620704401,0.00321072922088,-0.000591557472944,0.00407376140356,-0.000416075170506,-0.00311704701744,-0.000964089180343,0.00394379999489,-0.00157256983221,0.00321406521834,0.00332884350792,-0.00130666664336,-0.00363659881987,0.00196113693528,-0.00164421624504,0.00247068866156,-0.000499431334902,-0.000127457038616,0.00242698309012,-0.00102561654057,-0.000495293119457,-0.00107956014108,-0.00115679809824,0.000227676209761,0.00269663729705,-0.00120543816593,0.000212868486415,0.00149138248526,-0.00201131706126,-0.0019407432992,0.00378426839598,0.00195229635574,0.000674879178405,0.00129057327285,-0.00410742871463,0.00103203358594,8.4143874119e-05,0.000400491786422,-0.0012258955976,-0.00365204759873,-0.00267571839504,0.00393547397107,-0.000795872940216,-0.000289748917567,-0.00390319968574,-0.00403537089005,0.00189677067101,0.000333543226589,7.7029770182e-05,-0.00224116910249,0.00213740044273,-0.00289480993524,-0.0027054247912,-0.000341904436937,-0.00186446297448,-0.00220327218994,0.0012688144343,0.00131886650342,0.00283365673386,-0.00071727251634,-0.00372535828501,-0.00197453191504,0.00419089524075,0.000841279281303,0.00183176354039,-0.00429915403947,0.000159847535542,-0.00403590407223,0.000605170847848,0.00367365730926,0.00408968003467,0.000354921765393,-0.000363909523003,0.00388532504439,0.00151626486331,-0.00379689130932,-0.000298186874716,-0.00226637511514,-0.000262638990534,-0.000387812877307,0.000717993767466,-0.00124923221301,-0.00292950985022,3.34266369464e-05,0.00288318796083,0.0014326039236,-0.00140985846519,0.00380253256299,0.00359899597242,-0.00253606191836,-0.00401920778677,0.00210739835165,0.00286071375012,0.00408493960276,0.00340386806056,0.000878614664543,0.000263360358076,-0.00412029260769,-0.00221029226668,-0.00035144816502,0.00112276757136,0.000500792928506,0.00211895722896,-0.00192131008953,0.00056799169397,-0.00359391793609,-0.00075252330862,0.00218462245539,0.00168916769326,0.0042836763896,-0.0019376645796,-1.47673745232e-05,-0.00148696044926,-0.000517460692208,0.00311670871451,0.00160888489336,0.00333917001262,-0.00258702458814,0.00325992400758,-0.00384175451472,0.00339295226149,-0.00149100401904,-0.0016174177872,0.000106519568362,0.00384766445495,-0.00394630851224,-0.00128885987215,0.0031134034507,-0.00090630503837,-0.00262494268827,-0.000655432813801,-0.000997969997115,0.00362704903819,0.00228735944256,4.56883171864e-05,0.00426386483014,-0.000302070053294,-0.0038549832534,-0.00207400415093,-0.000556965416763,-0.00299383234233,0.00390763068572,0.00233021471649,-0.0020216035191,0.000793548126239,0.00193394522648,0.00385275785811,0.00333214062266,0.000133536130306,0.00239830184728,0.000543409725651,0.000461016374175,-0.00336185260676,-0.00326239690185,0.000258718297118,-0.00201659346931,-0.00417978456244,0.00194603693672,-0.00407985458151,0.000832595454995,0.00034308002796,0.00409310031682,-0.000136872578878,-0.00380825181492,0.00045214020065,0.00297862268053,0.00433816993609,-0.000606676738244,-0.00156719679944,0.00355094019324,-0.00269379699603,0.00100883492269,-0.000821671332233,-0.00400442630053,-0.0013316111872,-0.00204800628126,0.00162560772151,0.00391863984987,-0.00202336884104,0.00271997670643,-0.00387989426963,0.000333990581566,-0.00374729163013,0.00378977926448,0.00232612201944,0.00137985788751,0.00282836100087,0.0012888252968,0.00409444095567,0.00186872680206,0.00370775582269,0.000150569860125,-0.00334150134586,0.000246972689638,-0.00325589859858,0.000808358250652,-0.000151803542394,0.0010709380731,-0.00427564280108,-0.00266262656078,-7.46810328565e-05,0.00393331842497,-0.00101492879912,-0.000659117707983,0.00187503313646,0.000906959467102,-0.00175410765223,-0.000777490495238,-0.00246313167736,0.00406874436885,-0.00322310463525,-0.00111770932563,-0.00413783174008,-0.0024275186006,0.0024491250515,-0.00260711158626,-0.00366426911205,-0.000221723064897,-0.00427607120946,-0.00362319406122,0.00268638180569,0.00237083248794,0.00362486299127,0.00309571274556,0.00160013861023,-0.00390636734664,0.00247011613101,0.00301708374172,0.00261182477698,7.52180130803e-05,-0.00233024614863,0.00301547069103,0.00198406074196,0.00419763615355,-0.00300417537801,-0.00239340774715,-0.00251447712071,0.00255463295616,-0.00273178028874,-0.00378140504472,0.00435288948938,-0.00414665834978,0.00292731123045,-0.00117410824168,0.00298293097876,0.000477813271573,0.00350678898394,0.00372119899839,-0.00428383704275,-0.00370500073768,-0.00217798887752,0.00147897563875,0.00339020742103,-0.000348551751813,0.000934834824875,-0.00271789799444,0.00266307243146,0.0040802420117,-0.00201876368374,-4.40729781985e-05,-0.00361161702313,0.000517242879141,2.53653797699e-05,-0.00310255587101,-0.000504610070493,-0.00144686293788,0.000191748709767,0.000748858554289,-0.00428899843246,0.00227945041843,0.00186054222286,-0.00116593926214,-0.00390110211447,0.00222642207518,0.00397426914424,-0.002266949974,-0.00153923965991,-0.00275876908563,0.000672675902024,-0.00301167089492,-0.00125409534667,0.00172081787605,0.000525865470991,-0.000989928259514,-0.000695029855706,0.000543254776858,-0.00431205751374,-0.0036779474467,0.00332896620966,-0.0036835197825,0.00180598837323,0.00366725982167,-0.00200081197545,-0.00112964853179,0.000602391490247,0.00333268404938,0.00385813810863,0.00209194724448,-0.00360743398778,0.00147733429912,-0.000782028422691,-0.000254866899922,-0.00393450492993,-0.00269578839652,0.00253665749915,-0.000400945136789,-0.0017303195782,-0.00101143796928,0.0030943499878,0.00217436952516,-0.00198648031801,-0.00333780073561,-0.0021638344042,0.00367359723896,0.000713134068064,0.000293238786981,0.000842399022076,-0.00116837350652,0.00268168374896,0.000204325857339,-0.00334430695511,-0.00323681440204,0.000322710868204,0.00381167884916,-0.00167182646692,0.00322663644329,0.00230621988885,-0.00220024818555,-0.00404613604769,-0.00347435614094,0.00199547805823,-0.00262048002332,-0.00112266652286,1.57985505211e-05,0.00196901010349,-0.00337497657165,-0.000816271232907,-0.000129291423946,0.000357338867616,0.00277986540459,-0.00286450609565,0.00268831360154,0.00168493378442,0.00048904272262,0.00174297473859,-0.000766646990087,-0.00315499817953,0.00144826283213,0.000216730404645,0.00121792720165,-0.00141276489012,0.00355274206959,0.000763944874052,-0.00361756747589,-0.00043681479292,0.00223894394003,0.00256871874444,-4.58787435491e-05,0.00344691774808,-0.00202669063583,-0.000779096852057,0.00348049262539,0.00346003682353,0.00162223691586,0.00313461013138,-0.00358843500726,0.00318699283525,-0.00156471028458,-0.00280668400228,-0.00227390183136,-0.000714948575478,-0.00217067543417,-0.0015651169233,-0.00318510038778,-0.001778033562,0.000632007897366,-0.000506467767991,-0.00133688037749,0.00215227156878,0.0034359053243,0.00224250042811,-0.00146535411477,0.00213474989869,-0.00303670181893,-0.00322578428313,-0.00134639360476,0.00268690101802,-0.00221300008707,-0.00381119269878,-0.00321366149001,0.00313277868554,0.00116915861145,-0.00215281057172,0.000484098593006,0.000242178371991,0.00135813513771,-0.00232750480063,0.00318221747875,-0.0016624951968,0.00169598730281,-0.00422223703936,-0.00111014011782,-0.00129294604994,0.000381034624297,-0.00372797972523,0.00253381719813,-0.00246205832809,0.00154672050849,0.00264806952327,0.000541533518117,0.00210390961729,0.00141414429527,-0.00125966977794,0.00269733276218,-0.001790585462,0.000622328137979,0.00214269477874,-0.00105587334838,-0.00172093743458,-0.000354216579581,0.00277617527172,0.00375336012803,0.000394177681301,0.00141004484612,0.00352068943903,-0.00350341596641,-0.00233791489154,0.00182408827823,0.00282651977614,0.00311704189517,-0.000740225194022,-0.00358376489021,-0.000542360765394,-0.00234962697141,-0.00182188942563,0.00237737339921,-0.00370430434123,0.00286010513082,-0.000630650203675,0.000839190266561,-0.00358095043339,-0.00141880731098,-0.00358057185076,0.00402944907546,0.00268274405971,-0.000351459748344,-0.00241170451045,0.00378437922336,-0.00135562766809,-0.00295834988356,0.000552264333237,0.00387448631227,-0.0043300180696,-0.00228493055329,0.00382796954364,-0.00287004350685,-0.00337495771237,0.000613546115346,0.00315934489481,-0.000198871057364,0.00431786943227,0.0015648851404,-0.00371681666002,0.00430275360122,-0.000802970200311,-0.00185449200217,0.000506428303197,-0.00170691870153,-0.00360849685967,-0.00435067946091,-0.000438877090346,0.00294159306213,0.000632443872746,0.00435864971951,-0.00185936864,-0.00191511982121,-0.00296874134801,-0.00293108262122,-0.00187380949501,0.00255731702782,0.00354289612733,0.0041481028311,-0.00233556493185,0.00332945561968,-0.00149790500291,-0.00337822036818,0.00323101668619,0.00118921312969,-0.00292528327554,-0.00061131286202,-0.00185599911492,0.00206789188087,-0.000405649043387,0.00427174801007,-0.00388553226367,-0.00126457028091,-0.000157044647494,2.83264180325e-05,-0.00160565006081,0.00200198660605,0.00327203795314,0.00383043894544,0.00266406382434,0.0030611299444,0.000442213524366,0.00284559908323,-0.0017141380813,-0.000885125715286,-0.00159709551372,-0.000283656496322,-0.00187059270684,0.00403028074652,-0.00163260148838,-0.00350752286613,0.000235113082454,-0.00386484223418,-0.00339832762256,-0.00244824471883,-0.00031000142917,-0.000581440865062,0.00261704879813,0.00209142174572,-0.000642021710519,-0.00145040161442,-0.00160084094387,0.00239276629873,-0.00390868168324,-0.0042512989603,0.00258090300485,-0.000198285735678,-0.00322080007754,-0.00230700732209,0.00377637753263,0.0031391591765,0.00183232082054,-0.000154001056217,0.000178557616891,0.00414945650846,0.00406674109399,-0.00248418352567,0.00271660485305,-0.00264161918312,-0.00249942787923,0.00153810577467,-0.000828168878797,0.00376788969152,-0.0035863276571,0.000101683319372,0.00365421711467,0.00352844363078,-0.00299701280892,-0.00116303376853,0.00104083807673,-0.00297198048793,0.00408629467711,0.00362126482651,-0.0029060668312,-0.00330578442663,-0.00361779821105,0.00357498903759,-0.00267320196144,-0.000729637627956,-0.000445350364316,0.000865353038535,-0.00373708689585,-0.0023840512149,0.00376733834855,0.00356585416012,0.00245623383671,-0.00419411621988,-0.0015090147499,0.001117893029,-0.00196135556325,0.00357608613558,0.00116959179286,-0.00373571692035,0.00357106956653,0.00399666791782,-0.00368508487009,0.000283394358121,-0.00171538908035,-0.000934377370868,-0.00279527739622,0.000682428712025,0.00399854965508,2.78162715404e-05,-0.00363962445408,0.00104843440931,-0.0013936678879,0.0031077421736,-0.000569074996747,-0.0026800329797,-0.00269517442212,0.00234706234187,-0.00204501277767,0.00233366875909,-0.0025661631953,-0.001555383089,-0.000300190964481,0.00386958802119,0.00376952090301,-0.00255758827552,-0.00123653060291,-0.00305927358568,8.81775122252e-05,-0.000343019026332,0.00349916168489,0.00375442812219,-0.00101527711377,-7.10957829142e-05,0.00345967896283,0.00267822039314,-0.00433141225949,-0.00156959414016,-0.000681779405568,-0.00235825474374,-0.00262141856365,-0.00403358926997,0.00125240744092,-0.00207200739533,-0.00390645628795,-0.00234723766334,0.00263630133122,0.00306905340403,-0.000146801568917,-0.000731577980332,0.00417203968391,-0.00261268508621,-0.00248353951611,-0.00181570660789,-0.00285538239405,-0.00105197611265,0.00358706107363,0.00100785389077,-0.000767563586123,0.00379288732074,-0.00394030148163,-0.00252790888771,0.000576143560465,0.00100964750163,-0.0040180888027,-0.000845372385811,0.00130290491506,0.00172984146047,0.00120671011973,-0.00156529189553,-0.00354710873216,-0.000635257456452,-0.00323955807835,0.00390810705721,-0.000215783293243,-0.00159415008966,0.00232545123436,-1.69605227711e-05,-0.0016572184395,0.00272405683063,0.00320572592318,0.00151109043509,-0.00395345827565,0.000579865649343,0.00229924032465,-0.00317188049667,-0.00236739125103,0.00333965779282,-0.00418773153797,0.0022072698921,-0.000227624652325,-0.000463293719804,-0.00430105254054,0.00278930761851,-0.00122226541862,0.000357118376996,0.00154891272541,0.00177002942655,0.00398146361113,0.000274820020422,-0.000874061428476,0.00396151375026,0.00124169467017,-0.00176066113636,-0.00325924553908,0.00299130496569,-0.0012017544359,0.00140191789251,-0.000253550620982,-0.00262675946578,0.00088878266979,-0.00383352069184,-0.000755301676691,0.000407964165788,-0.000557204592042,0.00217160279863,0.00286337104626,0.00236861617304,-0.00402456056327,-0.00266886036843,0.000320527353324,0.00379644450732,0.0029247358907,0.00299090729095,-0.00171676336322,-0.000614842807408,-0.000254696904449,-0.00298972078599,-0.00409219460562,0.00390189699829,-0.00226225168444,-0.00226891064085,-0.00363559438847,0.0037412608508,0.000696996110491,0.00145899271592,0.00359349022619,-0.00134659465402,0.00106150039937,-0.00402446743101,-0.00273283757269,0.00289261364378,0.00232982868329,-0.00130242318846,-0.00107405974995,0.000294095429126,-0.00436102459207,-0.00225734664127,-0.00254552066326,-0.00217673368752,0.00267140590586,-0.00192196504213,-0.00269142212346,3.83918377338e-05,0.00319278077222,-0.00225651776418,-0.00367768784054,-0.00125224539079,0.00216283230111,0.000443619937869,0.00276634120382,0.00401276070625,0.00255566742271,0.000907152425498,-5.70538541069e-05,-0.00401354115456,0.00422856211662,-0.00101599097252,-0.00303452275693,0.00145622051787,-0.00188179942779,0.00074985291576,0.000758483482059,-0.000472626066767,0.00293496460654,-0.00205044797622,-0.000447296944913,0.000330076640239,0.00142929865979,0.00247977068648,-0.000917139463127,0.00127585418522,-0.00304866069928,0.00377753796056,-0.00101966480725,0.00200449535623,-0.00418573757634,-0.00257230689749,-0.000111731598736,0.00330284773372,0.00023908005096,0.0037533971481,-0.000140275398735,-8.22314977995e-05,-0.00331793306395,0.00264298007824,-0.00220750435255,0.00348927546293,0.00358712137677,0.00387066137046,0.00017771939747,0.00154694507364,0.00243220874108,-0.00321963732131,0.000882367079612,-0.00406386563554,-2.01309030672e-05,-0.00301167322323,-0.00276659592055,-0.00117686681915,-0.000588647439145,0.00107620947529,-0.00371360173449,3.32996532961e-05,-0.00276939943433,0.000646542292088,0.00120018864982,0.000495791551657,0.00208080955781,-0.00143404805567,0.00231493194588,-0.000585998583119,-0.000137186594657,0.00129360938445,-0.00420320453122,0.0013450627448,0.00103600334842,-0.00165891542565,-0.00361461378634,-0.00356968212873,0.00369509821758,0.00165309594013,-0.00325400521979,-0.0012496925192,0.000808200973552,0.00293003302068,-0.00398232508451,-0.00229792692699,0.00340296258219,-0.00428338581696,-0.00260542496108,0.00400768499821,0.00099085981492,-0.00207928265445,-0.00377860665321,-0.0041173081845,-0.00222705374472,0.00333087844774,-0.000732981192414,0.00192422408145,0.00365209113806,-0.000801677408163,-0.00269373366609,0.000150435822434,0.00356304319575,0.00265777530149,-0.00378878344782,0.00168189778924,0.000628560315818,0.00355762732215,-0.0032942655962,0.000298068945995,0.00331322220154,-0.00078436388867,-0.00015583273489,-0.00374799221754,-0.00193515280262,-0.00153046636842,0.00388669827953,-0.00189570488874,-0.000340234895702,0.00149660988245,-0.00294736376964,-0.000116983617772,0.00208344287239,0.00320346141234,0.0011033754563,0.00147693126928,-0.00326076173224,0.00389232276939,-0.00320590264164,0.00239879102446,-0.00205162074417,0.00378594524227,0.00192121823784,0.00221670116298,-0.00245104939677,-0.000495993939694,0.00102950190194,0.00235757231712,-0.00345586217009,0.00403691641986,0.00340717262588,-0.00200352095999,0.00281835347414,0.000161010932061,-0.000332318217261,-0.00161868147552,0.000707811501343,0.00200769514777,-0.000776383967604,0.00112898368388,0.00174080394208,0.00184390111826,-0.00390969915316,0.00314119597897,-0.000363345374353,-0.00207273638807,-0.00225299666636,-0.000147179802298,0.00337761314586,-0.00106079562102,0.00218085944653,-0.00351817463525,-0.000207616569242,0.00429320242256,0.00236202357337,-0.00252524483949,1.40651127367e-05,-0.00232375552878,-0.000788002857007,0.0024462051224,0.00236891210079,-0.00237186416052,0.00368679850362,0.00080940022599,-0.00104667549022,1.83499778359e-05,0.000918619160075,0.000524062139448,-0.000117330360808,4.44286051788e-05,-0.00282310787588,0.00273116957396,0.000365812826203,-0.00321887317114,0.0023245497141,0.00377604016103,0.00390578247607,-0.00114252336789,-0.00318071898073,0.000161306787049,-0.00338076613843,0.00378877623007,-0.00276118866168,-0.00215732329525,-0.000814248749521,-0.0010191721376,0.0025726556778,-0.000380532641429,-0.0028730717022,-0.00203130207956,8.02059657872e-05,-0.00307663087733,0.000975397182629,0.000574646110181,0.00187479623128,0.00382131501101,0.0035991773475,0.00389447412454,-0.00222750450484,-0.00321519654244,-0.00172512209974,0.00344934430905,0.00412132870406,0.00313730956987,-0.00340321334079,0.00390625745058,-0.000668194086757,-0.00428218720481,-0.000501930015162,-0.00396134657785,0.000383871083613,-0.00140834960621,-0.000230938108871,0.000988762243651,0.00322007713839,0.0014140867861,-0.000574758043513,0.00278916279785,0.0035411673598,-0.0033180702012,0.000279669649899,-0.00187998323236,-0.00395260332152,0.00147213239688,0.00316748674959,-0.00294145033695,0.00272796605714,0.00308591895737,0.00361790601164,-0.00204753712751,0.00352723221295,-0.00156416720711,0.00045803951798,-0.00392226502299,-0.00398010574281,0.00192477612291,-0.000483402254758,-0.00212608138099,-0.00270108133554,0.00148468732368,-0.00435963412747,0.00267125386745,-0.00367145310156,-0.00269171153195,-0.000991815584712,-0.000130980595713,-0.00126452778932,-0.00156379595865,0.00405057473108,0.00123699882533,-0.0041586458683,-0.000608317262959,0.00327428616583,-0.00173207896296,-0.00353803462349,0.00225633499213,0.00092638307251,0.000614709861111,-0.00389574002475,-0.00313700176775,0.00107071362436,-0.0025493116118,3.65317973774e-05,0.000392771646148,-0.00188871356659,0.00391518929973,0.00299028377049,0.0019420334138,-0.00368254305795,-0.00343698472716,-6.19884376647e-05,-0.0029605391901,0.00417566392571,-0.00297965854406,-0.000108357759018,-0.00118501461111,0.00121768144891,-0.00323690241203,-0.000607109104749,-0.00196539470926,0.00338572636247,-0.00400891387835,0.00361244170927,0.00290774879977,-0.00176581996493,0.00252630445175,-0.00409073196352,0.00407628063112,0.000233286336879,-0.00171595287975,-0.00119829061441,-0.00378354941495,0.00427250517532,-0.00402023922652,0.00135326292366,-0.000498694600537,0.00391962844878,-0.00221596751362,0.000281205167994,-0.000152860739036,0.00177192455158,-0.00376955629326,-0.00267174723558,-0.00249043107033,0.00207981653512,-0.00271238177083,0.000642506231088,-0.00248450855725,0.0031576063484,0.00386079377495,0.000162500786246,-0.00128810468595,-0.00232029450126,-0.00392877263948,-0.00201962166466,0.00134733319283,0.00029451950104,0.00387694314122,-0.000904335989617,0.00169322767761,-9.21300379559e-05,0.000110867251351,-0.00202595302835,-0.000392101734178,-0.000253885198617,0.00180489593185,0.00384739437141,-0.00148881098721,-0.00399500504136,-3.13620948873e-05,0.000389041844755,-0.00289314752445,0.00227451696992,0.0042337924242,0.0038920158986,-0.0026429197751,0.00327738281339,0.00178595026955,-0.000401885452447,0.000355454714736,0.00305253500119,-0.000172410247615,-0.00110575766303,-5.79656261834e-05,0.000691639725119,-0.00271301926114,0.00350036961026,0.00152141065337,0.00116424832959,-0.00349493860267,0.000910243892577,-0.00330756953917,-0.00367636466399,0.000239481058088,-0.000847469083965,0.000776294036768,-0.00358449178748,-0.000601370469667,-0.00283761764877,0.00425281748176,0.000534826540388,0.00163713702932,-0.00152281473856,-0.00353634776548,0.00415479112417,-0.00186465773731,-0.000664014660288,0.00130916526541,-0.00414774147794,0.00270922039635,0.000320341583574,-0.00193484604824,-0.00382554880343,-0.00294490135275,0.00344919762574,0.00162482575979,-0.00218196655624,-0.00379076972604,0.00166479765903,0.000632981711533,-0.00083240569802,-0.00118948775344,-0.00247088004835,0.00148147356231,0.00410931091756,-0.00282958708704,0.000848727766424,-0.000660747173242,-0.000464365817606,-0.00214502820745,0.0028389999643,-0.000127684164909,0.000379915261874,-0.00170316291042,-0.00277640554123,-0.00361346406862,0.00186999421567,-0.00265046302229,0.00166013848502,-0.000955845403951,-0.000734153203666,-0.000268018833594,-0.001153781428,-0.00348513084464,-0.00166071602143,0.00143013044726,0.00144802487921,-0.00186501583084,-0.000347289460478,-0.00267485855147,-0.00252714310773,-0.00416226452217,0.0034640408121,-0.00252420664765,-0.0023773398716,-0.00192285678349,-0.003251303453,0.00121656595729,-0.00370747921988,-0.0031919721514,0.00126452709083,-0.00139854627196,0.00181612884626,0.000502225710079,-0.00212863483466,0.00131752365269,-0.00334843434393,0.000319078739267,-0.000547329138499,-0.00202484917827,0.000909181952011,0.00324262445793,0.00435604108498,0.000941906298976,-0.000830514123663,-0.00239728018641,-0.00211892416701,-0.000178106245585,-0.00115726573858,0.00361328735016,-0.00114840560127,-0.0011034605559,-0.00101537734736,0.00293947453611,0.00131740618963,0.000997742637992,-0.00144655199256,0.00277604814619,-0.00402835570276,0.00323769915849,0.000112372195872,-0.00088707706891,-2.37014883169e-05,0.0014623379102,-0.00425191130489,0.003244205378,-0.000463875330752,-0.00136968900915,-0.00315664894879,-0.000527404656168,-3.1111005228e-05,-0.000840055232402,0.00156047707424,-0.000689478125423,0.00402855826542,0.000867554277647,0.00268485373817,-0.00340881641023,-0.000895500183105,-0.00142312911339,0.000607462774497,0.0031529746484,-0.00367955025285,-0.00372986169532,0.00305878464133,-0.00250550406054,0.00147391087376,0.000373831455363,0.00290526915342,-0.00327297858894,-0.00323202437721,0.000495425076224,0.0038958878722,-0.000742407748476,-0.00151105551049,0.000930758484174,0.00375675084069,0.00294051738456,0.00432452140376,-0.00416783662513,-0.00337974540889,0.000955003371928,0.00279778637923,-0.00187498994637,-0.0022768296767,0.00250444700941,-0.00387273286469,-0.00114057562314,5.02309339936e-05,0.000526279152837,0.00199502590112,-0.00126749929041,0.000982990139164,0.000744564516935,0.000414987385739,0.00122560607269,-0.00210031098686,-0.00362608791329,-0.00332391425036,-0.00240467395633,1.12720454126e-06,0.00297104869969,0.00175644282717,0.00252235075459,-0.00130138010718,-0.000832816935144,-0.000928544905037,-0.00269010476768,-0.00383055978455,0.000793069775682,0.00426973588765,-0.00290863937698,-0.00395737821236,0.00243946071714,-0.00216009048745,0.00287691131234,0.00177963462193,0.00388982682489,-0.0007952763699,0.00141344685107,-0.000307137524942,0.00113947119098,-0.000440261152107,-0.00271818228066,6.85688719386e-05,0.000249117234489,0.00271075055934,0.00205545919016,0.00142932927702,-0.00337504711933,0.00192527356558,2.20978313337e-06,0.00343958404846,0.00366452103481,-0.00388336833566,0.00279830442742,-0.00403580488637,-0.00115989055485,0.0003687274002,-0.00307213584892,0.00214948062785,-0.00429196469486,-0.00289333285764,0.000704640231561,0.00187073589768,0.00363621790893,0.00179320469033,0.00149876228534,-0.000922864943277,-0.00435373513028,-0.00331606599502,0.000301099236822,0.00152804574464,-0.000721169169992,0.00201296550222,0.000190282706171,-0.00371742108837,-0.00268889917061,0.00296716927551,0.0019626354333,0.00344522739761,-0.00333877070807,0.00427841721103,-0.00253707496449,-0.00426208833233,0.00434131780639,-0.00191145355348,0.00146623409819,-0.00282247993164,0.000699954282027,0.00352636375464,-0.00156997633167,0.00148577836808,-0.00272447918542,0.00108901399653,-0.00142789958045,-0.00252117589116,-0.00163097609766,-0.00280359247699,0.00350789073855,-0.000897784309927,-0.00222376314923,-0.000450667081168,-0.00156682892703,0.00213310937397,0.00411275820807,-0.000541310757399,0.00315101863816,0.00057453813497,-0.00299228448421,0.00166345748585,0.000116763054393,0.00131411710754,0.003400944639,-0.000520485278685,0.00350120197982,0.00218745763414,-9.99267213047e-05,0.000900483981241,-0.00152298668399,0.0042206174694,0.0014602097217,-0.00398208852857,-0.00151387089863,0.0010758562712,-0.00387318618596,-0.00415642186999,-0.000436703383457,-0.00146091321949,-0.000539108470548,-0.00207190192305,-0.00292710098438,0.00165053922683,0.00012669339776,-0.0026177521795,-0.00157524156384,0.000800864887424,-0.00373431527987,-0.0030777186621,-0.0037254546769,0.00272570759989,0.00220273784362,0.00221066083759,0.00188780284952,0.00147807307076,-0.000201279413886,0.00124144693837,-0.00402993755415,0.00105981633533,0.00242507108487,2.68176677309e-06,-0.00124418654013,-0.00194320920855,0.00124602625147,0.00168245239183,0.00323759485036,-0.00137669534888,0.00235428148881,0.000535064376891,0.00334118679166,0.000242280599196,0.000153399654664,0.0006792669883,0.00217572110705,0.004055689089,-0.0037226753775,-0.00389836472459,0.00381879508495,0.000260355271166,0.00100254116114,-0.000153805420268,-0.00354724493809,0.0023396841716,0.00215758034028,-0.00164398050401,-0.0016916655004,0.00294852931984,-0.00373309175484,0.0033262425568,-0.00212438241579,0.000811276608147,0.00380529812537,0.00155447481666,-0.000747237936594,0.00165404577274,-0.0013622288825,-0.00194464519154,0.00433485675603,0.00218853238039,0.00126265326981,-0.00126372091472,-0.00393584743142,-0.00409388169646,0.000472294428619,0.00228657852858,0.00032565894071,0.00297400425188,-0.00407324638218,-0.0011637606658,-0.00229568569921,-0.000460873008706,-0.00373320793733,0.00396324507892,-0.00241634226404,0.00368551700376,-0.000647502776701,0.00423741713166,0.000471113162348,0.0037599154748,-0.00431832065806,0.00216620834544,0.0035175671801,-0.00314545817673,-0.00352597399615,-0.000659034179989,0.00378481252119,0.000369378365576,0.000238939610426,-0.00313321733847,-0.00435813236982,0.00270647695288,-0.00360057433136,0.0011676090071,0.00361836096272,-0.00254376302473,0.00144198385533,-0.00367801263928,0.000904947111849,-0.00293412711471,0.00205891346559,-0.00173561193515,-0.000320127845043,0.00086726481095,-0.00287000299431,0.00210855575278,-0.00172328110784,0.00141673581675,-0.00298326439224,0.0016415087739,-0.00324595510028,-0.000652075686958,-0.00220710574649,0.00216748123057,-0.00207766611129,0.00333135505207,0.00341951334849,-0.00265024462715,0.000993195339106,-0.00359926465899,-0.00094731367426,0.00186144036707,0.00139097892679,0.00108792958781,-0.0018987164367,-0.00106525141746,-0.00346635025926,0.0019112295704,3.34046635544e-05,0.00182167126331,-0.0021919819992,-0.00153299013618,-0.00144763570279,-0.00414020195603,-0.00138797436375,0.00264692283235,0.00346738286316,0.000158477123477,-0.00038892016164,-0.00409579416737,0.00330945593305,-0.0042513133958,0.00388157065026,-9.46331056184e-05,-0.00138020748273,0.00370235461742,-0.00415199343115,0.000710205116775,0.000426590326242,-0.00245047546923,-0.000621239130851,0.00132856541313,0.00198203092441,-0.00435861339793,0.00381265697069,-0.00292878551409,-0.00232602236792,-0.00206509558484,-0.00403471244499,-0.00329076359048,0.00424473220482,-0.00161340646446,-0.00335841835476,-0.00343093601987,0.00191512901802,0.0030944601167,-0.00212192349136,-0.00418231636286,-0.00241750967689,-0.00387147418223,-0.00346228224225,-0.000598272599746,-0.00235789967701,0.000138785195304,-0.00215208367445,0.00384491239674,0.00354295014404,0.000582701642998,-0.00127107871231,-0.00103781057987,-0.000769795209635,0.00198608450592,-0.000422549055656,0.00311340438202,0.00387599761598,-0.00143234571442,0.000529381853994,-0.00353507790715,-0.0026149188634,-0.000755746732466,-0.00256486400031,0.00328646390699,-0.00298318639398,-0.000387414213037,0.000922222156078,0.00167430797592,-0.00102112453897,0.00322127784602,0.00059590220917,-0.000528462289367,-0.00377790629864,-0.000308715127176,0.00279910443351,0.000999313895591,0.00289886607789,-5.27618467459e-05,-0.0033308446873,-0.00424581766129,-0.00171819597017,0.00172767578624,0.00253305165097,-0.00178333383519,-3.84703780583e-05,-0.000689099193551,-0.000781592447311,-0.00234554032795,-0.00317458342761,-0.00264808302745,-0.0038819743786,-0.00263553997502,-0.00428465660661,0.00111017911695,-0.00160338927526,0.00412930455059,-0.00267410394736,-0.00134637043811,-0.00124151352793,-0.00429118284956,0.00296020088717,-0.00408575497568,0.00384155847132,0.00342168752104,0.000309474067762,0.00038012463483,0.00134186667856,-0.000986341037787,0.00128462736029,-0.00397404748946,-0.00389301381074,-0.000373768300051,0.000432665285189,0.0033846735023,-0.0034512791317,0.00281582958996,-0.00253139948472,-0.000925017171539,-0.00160133186728,-0.000872009317391,-0.0030512243975,3.06334695779e-05,0.00263245240785,-0.000510821526404,-8.24460221338e-05,0.00304374983534,0.00179809099063,-8.38537453092e-05,-0.00211553415284,0.00335939996876,0.000671647081617,-0.00243465951644,-0.00201590266079,0.00264537986368,-0.00397957768291,0.00429468834773,-0.00322717381641,0.00258372630924,-0.000919025507756,-6.84811238898e-05,0.00332197011448,-0.000760758703109,0.000326712528476,-0.00393455987796,-0.00434437394142,-0.00222817086615,0.00157570606098,-0.00330640748143,-0.00337187689729,-0.00077769899508,0.00128986686468,0.00185059942305,-0.00280720274895,-0.00367013108917,0.00384361413307,-0.00208963477053,0.00308366375975,0.0031722150743,0.00237816665322,-0.00289124972187,0.00280829914846,0.00234959623776,0.000843638379592,-0.00142164621502,-0.00207360694185,-0.00330103491433,8.45523172757e-05,0.000743598735426,-0.00122839596588,-0.0002156773553,-0.00119196262676,0.00123017258011,0.00350185623392,-0.00293415063061,-0.00103574723471,-0.00313536892645,0.00109001388773,0.00199716864154,0.00376945640892,-0.00193073099945,0.00392943713814,-0.00381248397753,0.000898848462384,-0.00386602478102,0.0034367532935,0.000259903317783,0.00147789856419,0.00289387698285,-0.00305270357057,-0.00402786629274,0.00330689712428,-0.00161567493342,-0.00323885586113,-0.000275653525023,0.000857691687997,-0.0040942998603,-0.00196517584845,-0.00407839985564,-0.000695772178005,0.00344827538356,0.0042126160115,0.00119589897804,-0.00295388209634,0.00354208238423,0.000141333788633,-0.00302283442579,0.00368059007451,0.00224679266103,0.00202189711854,0.00182529096492,-0.00261616287753,-0.00252307462506,0.00164298457094,-0.00244704913348,-0.000535899191163,0.00246095750481,0.00247796112671,-0.000408573570894,0.00254985177889,0.00295513449237,0.00135040853638,-0.00237106974237,-0.00197316077538,-0.00161673862021,-0.00334535608999,-0.00198061182164,-0.00253608473577,-0.000390470813727,0.00356458127499,-0.0034529203549,0.00192227528896,0.0016343324678,-0.00352897006087,0.00368805299513,0.000597215024754,-0.00118987052701,0.00223886803724,-0.00211831717752,0.00168863148428,-0.00401821825653,0.00296220788732,-0.000452812819276,0.00119274109602,-0.00243368558586,0.00154514040332,0.00237589213066,-0.000234255625401,0.00102715706453,-0.000381681020372,0.00343940523453,-1.90458285942e-05,0.0029830802232,0.00262993364595,-0.00078167981701,-0.00235653039999,-0.000820353918243,0.00284686335362,-0.00237801438197,0.000212710991036,0.00267124478705,-0.00127955153584,0.00124072749168,-0.00222088792361,-0.0034110720735,0.00256905797869,-0.00350105436519,-0.00199608784169,0.00309912092052,-0.00134061626159,0.00412859767675,0.00418694317341,-0.0020231641829,-0.00400714110583,0.00178951036651,-0.000428257306339,-0.00348538975231,0.00181092717685,-0.00409267749637,0.0032309172675,-0.00315451738425,-0.00325343594886,-0.0028313130606,0.00401716260239,0.00168575020507,0.00263019837439,-0.000893856748007,-0.00142913043965,-0.00231798528694,-0.000169323131558,0.000452005653642,0.00114987208508,-0.0021204338409,0.00391573552042,-0.00288305571303,0.0040640537627,-0.00423510046676,-0.000165206874954,-0.00145498441998,-0.000444616598543,0.000616273784544,-0.000562723667827,-0.000743804965168,0.00203083083034,0.0016218937235,0.00290845124982,-0.00218322104774,0.000955398078077,0.000742978707422,-0.0011376470793,-0.000122269848362,-0.0016261304263,-0.00312690064311,-0.00249879527837,-0.00344395777211,0.00159738876391,0.00140229007229,0.00393257616088,0.00200416892767,-0.00391065841541,0.00335341179743,0.00316506344825,-0.000495356856845,0.000748897553422,0.00415498996153,0.000281429151073,0.00353737012483,-0.00364011991769,-0.00269728410058,-0.000517683802173,0.000739260169212,0.0027598538436,0.00426154350862,-0.000970517809037,-0.0039508282207,0.00262845051475,0.000910736387596,-0.00263166381046,-4.54861401522e-05,0.00211469875649,0.00235996372066,-3.70833458874e-06,-0.00170055776834,0.00413480820134,0.00142556498758,-0.000801378453616,-0.00191666581668,0.0020168395713,-0.00225083832629,-0.00286599551328,0.000259934575297,-0.00183359335642,0.00112470786553,-0.00333538674749,0.0013519290369,-0.00189207703806,-0.00436266744509,-0.00325681269169,0.00378443254158,0.00320602231659,-0.00232578464784,0.00242942618206,0.000947244756389,0.00410992512479,-0.00110376661178,0.00158339180052,-0.00381015404128,-0.00090607162565,0.00404806016013,0.000339759688359,-0.00185202935245,-0.00331493467093,0.0017760876799,0.0012639289489,-0.00110084901098,0.00393565790728,-0.00417094724253,-0.00171367940493,0.00367495464161,-0.00156346347649,-0.00216296175495,0.000298263388686,0.00282590650022,-0.00346447946504,0.00386654934846,0.00257512857206,-0.00278274551965,0.00185010943096,-0.00100460357498,-0.000853325997014,0.0024722784292,0.00403901934624,-0.00325930328108,-0.000693266687449,-0.000166849873494,-0.00108011625707,-0.00119466974866,-0.00390859646723,0.00161901372485,-0.000557260646019,-0.00266455183737,