-0.00374819873832,0.0134654082358,0.00693100458011,0.00294749811292,-0.0102766994387,-0.0102773746476,-0.013202519156,0.0109398057684,0.00302090262994,0.0062163528055,-0.0143228275701,0.0140389818698,0.00993204861879,-0.00859397929162,-0.00950560718775,-0.00945840217173,-0.0058482689783,0.000739761337172,-0.002033052966,-0.00623705750331,0.00334179983474,-0.0107702286914,-0.00620968639851,-0.00399238616228,-0.00131230591796,0.00851981993765,-0.00897244084626,0.000425303005613,0.00276099238545,-0.0135500868782,0.00321299093775,-0.00984327681363,-0.0129943136126,0.0134108541533,0.0139111448079,0.00921366084367,-0.00583715876564,-0.0120196668431,0.0055042472668,-0.00178785342723,-0.0112917562947,-0.000143928758916,-0.0139103038236,0.0122289154679,-0.00720644788817,0.00485557038337,-0.00562512455508,0.000599717022851,0.00139567046426,-0.00941501464695,0.0140292039141,0.00821982789785,0.0131304236129,0.0117958635092,0.00292494264431,0.0126038119197,-0.01229400374,-0.00908262003213,-0.0135865053162,-0.00521820317954,-0.00332576874644,-0.00683096516877,0.00982143729925,-0.00427940580994,-0.00654455367476,0.00127571809571,-0.0107274763286,0.00902853533626,-0.0127104269341,0.0145462304354,0.00813362374902,-0.00900095328689,-0.0147727429867,0.00942472741008,0.00618011411279,0.00684172613546,0.00810445938259,-0.0127256345004,-0.0042283073999,-0.0114760342985,0.0108480229974,0.00368372886442,-0.00505186244845,-0.0130388252437,-0.00564686348662,-0.00522266188636,0.00685983011499,0.00410980777815,0.0115684363991,-0.000829915166833,-0.0113648055121,0.00637097051367,0.00779129704461,0.00183087319601,0.00809549819678,-0.000185282042366,0.000679274264257,-0.00216465187259,-0.0141783300787,-0.0117144333199,-0.0139988167211,0.00407548807561,-0.00554610555992,0.00025620276574,0.0121765211225,-0.0074899806641,-0.00267725228332,0.00763491960242,-0.00810216739774,-0.012637861073,-0.00628125993535,-0.0101211387664,0.0128376567736,0.00920548290014,0.00398569507524,0.0110977003351,0.00907252449542,-0.00936382636428,0.0117281135172,0.00117551512085,0.0091850515455,0.0118335746229,-0.00543719949201,-0.0116499019787,-0.00812804605812,-0.00217746268027,0.0095011619851,0.010777277872,-0.014729953371,0.000321267929394,-0.00246713683009,-0.00830196030438,-0.0113565567881,-0.00485115172341,0.0132324369624,-0.00528169795871,0.000561617314816,0.00606555817649,-0.00407396815717,0.0140949962661,0.0138161545619,-0.00741548184305,-8.20138666313e-05,-0.00594873167574,-0.00642787432298,-0.0138355987146,0.00327352946624,8.02291979198e-05,-0.0133997369558,-0.00661293882877,0.012197512202,-0.00778050208464,-0.0106087289751,-0.000314844917739,0.0145093761384,-0.00770603539422,0.0051429066807,0.00781630910933,-0.0078380247578,0.0068183299154,-0.00394979771227,0.00395297398791,0.00398952513933,0.00106901745312,-0.0122402003035,0.0100176753476,-0.00535406870767,-0.0093652503565,-0.0137194423005,0.00271566072479,0.00530512118712,-0.0144420554861,0.000361485028407,-0.00817093532532,0.0043372977525,-0.00972830038518,0.00570463016629,-0.00338364462368,0.0130478320643,-0.0108291069046,-0.00474798167124,-0.0115475123748,0.0126882400364,0.0112735349685,-0.00723147252575,0.00477991625667,0.00947751477361,0.00164940406103,0.000886064895894,-0.00771217606962,-0.0121560571715,0.0118673359975,0.0119629520923,0.00397665658966,-0.00480898283422,-0.00450471416116,0.00675082346424,0.0118641313165,0.0115646477789,0.00836162362248,0.00424354802817,-0.0124238599092,-0.0101088108495,0.0119073297828,0.00317987659946,-0.014662804082,-0.0119060389698,0.00488498946652,-0.0147864082828,-0.0101334033534,0.00145626033191,0.00573329254985,0.00454018451273,-0.0082374624908,0.0063391472213,-0.0078495843336,-0.00521606672555,0.0073643415235,0.00447056442499,0.0104334549978,0.00470904726535,0.00204098131508,-0.0121390512213,-0.00395189877599,-0.00701457355171,-0.00764822447672,0.0141318142414,-0.00319352606311,0.0117129031569,0.00391810853034,0.00880802050233,7.91038837633e-05,0.00229783332907,-0.000223291426664,-0.00910459086299,0.00664619775489,-0.00654927454889,-0.0142111377791,0.00434630503878,-0.00964637007564,0.0131592685357,0.013561675325,0.0123946163803,-0.00387889146805,-0.0144759034738,0.0127965537831,-0.00214527104981,0.0139419026673,0.0138511825353,0.0105465659872,-0.00614106515422,-0.00343286548741,0.0104903681204,-0.00546967238188,-0.00987423118204,0.00169688800815,0.0130303613842,0.00585645716637,0.00209305691533,-0.012034740299,0.00343585317023,0.0146406404674,-0.0107528418303,0.00054750853451,0.0112741747871,0.00719304801896,0.00588593818247,0.00604930194095,-0.00419788621366,-0.0061666816473,0.00924234092236,0.00926479697227,0.0109664592892,0.012345761992,0.000338769139489,4.52484600828e-05,0.00891171954572,0.0044801668264,0.00603376002982,0.00883689243346,0.011651600711,-0.00484010251239,-0.00371714239009,-0.0121301589534,0.00233856216073,-0.0138641102239,-0.00102784228511,0.0012739499798,-0.00637735147029,0.00271356152371,-0.0140267182142,-0.013822119683,0.00963786803186,-0.00417698035017,-0.0111419409513,0.000664479972329,0.00806621555239,-0.0084901060909,0.00367136346176,-0.012388127856,-0.013393945992,0.00093660474522,0.00121385313105,0.00410564709455,0.0067544747144,0.0142162982374,0.000486869452288,-0.00528941769153,0.00881874002516,-0.00684672780335,-0.00182335916907,-0.0125940088183,-0.0141805624589,0.0138218561187,0.0100374920294,0.00585479754955,-0.00272020092234,-0.00976068992168,-0.0102642951533,-0.00746180443093,0.00147064263001,0.00641113752499,0.00478592189029,-0.00657472526655,0.0135893262923,0.00710722524673,0.00162377662491,0.00333765801042,-0.00240211118944,-0.00753686204553,-0.00430301064625,0.00770323397592,-0.0145079577342,-0.0114702424034,-0.0135636422783,-0.0137211233377,0.0106195518747,0.006084298715,-0.00077171146404,-0.0120151406154,-0.000250572746154,-0.000792651611846,-0.00976344291121,-0.00197632494383,-0.00303237210028,0.00346105592325,0.00403595529497,-0.0135844517499,-0.00374613679014,0.00376004888676,9.36721626204e-05,0.0106503600255,0.00474104378372,-0.010070156306,-0.0128296725452,0.00425484590232,-0.0141458753496,0.00256251264364,0.0131520731375,0.00225472357124,-0.00334102497436,0.00428080186248,-0.00124731974211,0.00136275764089,0.0131889963523,-0.00340278912336,0.0137783437967,0.0121100498363,-0.00908853858709,-0.0128657408059,-0.0119270440191,-0.0143935196102,-0.0121163725853,0.00546738598496,-0.0128111420199,-0.00540810823441,0.0103035559878,-0.0142424236983,0.00939512811601,-0.00651705404744,-0.0114075075835,0.00587781937793,0.00385242328048,0.0112774223089,0.00702308444306,0.0090668099001,-0.0065117799677,-0.00963663961738,0.00748738693073,0.00916698295623,0.0146542256698,-0.00261056236923,-0.00382351386361,0.00825803074986,-0.00475609209388,0.0128691848367,0.01070779562,-0.00212141289376,0.00749486405402,0.00760457850993,-0.011856848374,0.0120267057791,0.000157052432769,0.00975325517356,-0.00537600368261,0.0118166198954,-0.00331006199121,-0.0146140037104,0.0121111152694,-0.0122105292976,-0.00539809837937,0.0134459333494,0.013462244533,0.00219400296919,0.00393872335553,-0.00154024141375,-0.00617803493515,-0.00511884503067,0.00515402015299,0.00753977801651,0.00871102605015,0.00865241605788,-0.0122131714597,-0.000166845085914,-0.0132183805108,0.00147981313057,-0.00174669979606,0.0115830022842,-0.00445396173745,-0.0114403497428,-0.0106657948345,0.00781286042184,0.00353186507709,-0.011916751042,-0.012425112538,0.00600409368053,-0.0127640878782,0.00961572490633,0.00616153795272,-0.0125076081604,-0.0124033270404,0.0145385619253,-0.00375640881248,-0.00386482663453,0.00934496987611,0.013361713849,0.0145194260404,0.00756962504238,-0.00369705632329,-0.0124434288591,0.00828005280346,0.00174494297244,-0.00226388382725,0.0121401268989,-0.011615794152,-0.000220268571866,-0.0145986666903,-0.000936328026,-0.01325584203,-0.0113881835714,-0.0114266881719,0.00445766746998,0.00735060451552,0.00249051582068,0.0138075556606,-0.00373844453134,-0.00640221685171,0.0110119041055,-0.00825801771134,0.0138388872147,-0.0145749039948,0.0140377208591,-0.0136486776173,0.0116854226217,0.00082736404147,0.0147277405486,-0.0127331214026,0.00160886743106,0.0140206487849,0.000689935870469,0.00386588065885,0.0058480752632,-0.00135825923644,0.00381071143784,0.00251873675734,0.0119848391041,-0.0135802607983,-0.00654410757124,0.01345609501,0.0116591416299,-0.0013248953037,0.00358881149441,-0.00665117381141,-0.00931786652654,-0.00108481058851,-0.00438136700541,0.00249907188118,-0.0126157328486,0.0141726108268,0.0145256528631,0.00592004926875,0.00107822311111,-0.00569067895412,0.00937466137111,0.00551880756393,-0.0100797619671,0.012276513502,0.00963581446558,0.0134378783405,0.00674336729571,0.0033881093841,-0.00244284141809,0.0129277873784,0.0109361698851,-0.0135870771483,-0.0141504378989,-0.0036910418421,0.00927774142474,0.0145574919879,-0.0104442387819,0.00281192897819,-0.0035587430466,0.0140387639403,0.0102208442986,0.010107642971,-0.000935521209612,-0.00254506850615,-0.00676986714825,-0.0132538378239,0.0108961584046,0.00934786628932,0.0149291371927,0.0148371113464,0.00165581633337,0.00803600344807,0.0132873933762,0.0104457018897,-0.00754838995636,-0.00147775723599,-0.0110792880878,0.0135647999123,0.00317171541974,-0.00810725986958,0.00512947281823,0.00352899241261,-0.00423781108111,-0.0115455426276,0.00512559758499,0.00060650560772,0.00813552644104,0.000602159649134,0.0105213876814,0.00155050598551,0.00182034028694,0.011252601631,-0.00288383010775,-0.010934359394,-0.014078236185,0.00762217119336,0.00359415961429,0.00609671184793,-0.00857571512461,-0.0108639569953,-0.0145035889,-0.00446399440989,0.00268602161668,-0.0032195947133,-0.00186826661229,0.0120742907748,-0.00453366572037,0.000417581468355,0.0084740454331,-0.00309113482945,0.00364719377831,0.0108256889507,0.0134294861928,-0.0105441818014,0.012744391337,-0.000235752464505,-0.00722280004993,-0.00122114084661,0.0143410274759,-0.000220819463721,-0.00511641707271,0.00398526107892,-0.00776369404048,-0.0126717286184,-0.0110878106207,-0.0111126275733,-0.0103998128325,-0.0107906498015,0.00420839386061,-0.00950438715518,-0.00461102090776,0.0118541726843,-0.000778304529376,0.00500555848703,-0.00978999119252,-0.00919333752245,-0.0137170478702,-0.00989105086774,-0.00661500962451,-0.00964977033436,-0.0122880060226,-0.0113339629024,-0.00117206852883,-0.00877383071929,-0.00405531655997,0.000101855373941,0.00568799115717,-0.0137637779117,0.0089446939528,0.0038207822945,-0.0124955018982,0.01116075553,0.0125733856112,-0.0131135229021,-0.00666628824547,0.00914769526571,0.00741673028097,-0.00942562893033,-0.00868384819478,-0.00387009745464,-0.000462652824353,0.00353274308145,-0.00391613226384,-0.00111913087312,0.00739355385303,-0.0138417351991,-0.00739594688639,0.00637418031693,0.0118073038757,0.000349066336639,0.000959643279202,-0.0117358257994,-0.00157085584942,0.000974694674369,-0.00769365206361,-0.00689381267875,-0.0036660367623,-0.0143379736692,-0.00531524559483,-0.00862048007548,-0.00515344040468,-0.0113597130403,0.0116675132886,0.00279634306207,0.00535098882392,0.00863934401423,-4.64289769297e-05,-0.0123408138752,0.00110883498564,0.00259470264427,0.00733293080702,-0.00204149726778,-0.0111260376871,-0.00645959470421,-0.00409025233239,0.00435964670032,0.00211479910649,-0.00429892586544,0.0145352827385,0.00316040054895,-0.00785026326776,-0.0118968170136,-0.0103707499802,-0.00758935557678,-0.0101371128112,-0.00936379935592,-0.00642025563866,-0.00975789502263,0.011853906326,-0.0125405909494,0.000732517975848,-0.00267682550475,0.014411685057,-0.0115903429687,-0.00305132125504,0.0140260281041,0.0109200198203,0.00947311520576,-0.00723249465227,-0.00983211677521,0.00503862788901,0.0128281610087,0.00169619428925,0.00213981722482,-0.00657295715064,0.008051590994,-0.00934955570847,-0.00526735326275,-0.00222728936933,0.000227709198953,-0.00769541179761,-0.0115067893639,0.0033052067738,-0.00631451001391,0.00242736423388,-0.0103259207681,-0.000563311506994,0.000973956601229,-0.0133892856538,-0.00488122552633,-0.0109218256548,-0.0130442036316,0.0146383028477,-0.00530691212043,0.00925809517503,-0.00732994126156,0.0054228217341,0.00777487875894,0.00285768136382,-0.000848823401611,-0.00263351015747,-0.00451490655541,0.0128329219297,0.00987790059298,0.0138933723792,-0.0112240836024,0.00689755473286,0.0130961053073,-0.00952306482941,-0.012950909324,0.00720388395712,0.00222510751337,0.0102127408609,-0.0107617117465,0.00882168579847,-0.00891377776861,-0.0100482450798,-0.0100298384205,0.00939857121557,0.00493575772271,0.000689449778292,-0.00421723723412,0.0112695777789,-0.00321286055259,0.00945898611099,-0.00181808741763,-0.00367612740956,-0.00111457542516,-0.00593358557671,0.00739782676101,8.15318271634e-05,-0.00800013542175,0.0119379200041,-0.00346849579364,0.00130144669674,0.012143842876,0.00371186318807,-0.0114450920373,0.0131406458095,0.00381573732011,-0.00493201240897,-0.0107766939327,0.0087845697999,0.0035876086913,0.000999994925223,0.0117681194097,0.00862232223153,-0.010406114161,-0.00562458857894,-0.00751372426748,0.00728840846568,-0.0139357335865,0.00208832626231,0.00784146692604,0.011256464757,-0.00471759168431,0.00959812570363,-0.01163235493,0.0103508373722,-0.0111287031323,-0.00306827900931,0.00888221245259,-0.0104586221278,-0.00808851327747,0.00664024334401,0.00657405657694,0.00421715388075,0.00579470209777,0.00127672113013,-0.00741487275809,-0.00460964115337,-0.00951219163835,0.0122030964121,0.00249174283817,-0.00296179996803,-0.00113476545084,0.0133632095531,-0.01035605371,0.0025765162427,0.000176277026185,0.00333011010662,-0.0143964998424,0.0111177377403,0.0129101071507,0.00194616871886,0.00587533786893,0.0126226907596,0.00619173934683,-0.0103803146631,0.0022794965189,0.00318848830648,-0.00226634531282,0.00706430058926,0.0129773747176,0.0127145145088,-0.00146837253124,-0.0115544609725,0.014485324733,0.0101251937449,-0.0112131126225,0.0125732803717,0.0110512366518,0.000563087116461,0.00272723380476,-0.00301707931794,-0.0133015261963,-0.00492331944406,0.00904821418226,-0.0147992251441,-0.00497411005199,-0.00304206646979,0.00111742957961,0.0125438561663,-0.00459014624357,-0.00457198638469,0.00709588686004,-0.00142720155418,-0.00822725333273,-0.00142053735908,-0.0107292812318,-0.0096678212285,-4.84659685753e-05,-0.00242186291143,0.012394124642,-0.00411074934527,0.0024079431314,0.00395177956671,-0.0145464129746,0.00488603301346,-0.00961863994598,0.0137750599533,-0.0104962009937,-0.0025504657533,-0.0123877925798,0.0148446289822,6.57307828078e-05,0.00284983846359,-0.0129335131496,0.00746815977618,-0.00866638030857,0.0118925254792,-0.00880879629403,-0.00924054905772,-0.0138455750421,-0.000834217935335,0.00193742359988,-0.0129745174199,0.00823188014328,-0.00139526568819,0.000728919287212,-0.00176956597716,-0.00296458159573,0.00178197713103,-0.0102997627109,-0.0095024658367,0.0108087463304,0.0133281508461,-0.00378487561829,-0.00684909429401,0.00430215382949,-0.00272653927095,-0.0141793638468,-0.0102727580816,0.00645224703476,0.00474788015708,-0.0141284223646,-0.0083063878119,-0.0080343876034,0.00513538205996,-0.0143490601331,-0.0118276141584,0.00896011665463,-0.00960371922702,0.00456337211654,-0.00782202929258,-0.0119670219719,-0.00767297809944,0.00664036208764,0.0106266392395,0.00986552704126,-0.00307175097987,0.00502162892371,-0.00881380401552,-0.00617987336591,0.011840772815,-0.0145494733006,-0.0123832682148,-0.00872718915343,-0.0141452662647,-0.00951742753386,0.00248083891347,-0.0023476255592,0.0117312986404,0.00948379375041,-0.00472591165453,-0.00718748103827,-0.00359438243322,0.00269762868993,-0.0069292797707,0.0037089609541,-0.00270647881553,0.00155486504082,-0.00190824596211,-0.00614048168063,0.0133978305385,0.00787533912808,-0.0107519235462,0.011008319445,-0.000375469302526,0.0117875505239,0.00895837694407,-0.00223430106416,-0.0142666269094,-0.00691103097051,0.00124369899277,0.00398759217933,-0.00723347021267,-0.0107745714486,0.0100061828271,0.0144717162475,0.000767387682572,-0.00980896968395,-0.00680247321725,-0.0143884336576,0.0123774232343,-0.0114200310782,0.00228589307517,-0.00675021577626,0.00161865819246,0.00452381139621,0.00985125917941,-0.00877090822905,-0.0146092688665,-0.0108482157812,0.0119509035721,0.0111702382565,0.00291029480286,0.0030029292684,0.00493046082556,-0.00969866383821,0.0123807461932,-0.00242692884058,-0.00349138770252,0.000565077352803,-0.0135347908363,-0.00997010990977,0.00711134448647,-0.0124642085284,0.00308173941448,-0.0076078819111,-0.00330742471851,-0.00631297100335,-0.00431183259934,0.00654421141371,-0.00606107385829,0.00198390311562,-0.000715518253855,0.0048899310641,0.0130507396534,0.00694835418835,-0.00851630792022,-0.0140062216669,-0.00710261799395,0.00284042488784,-0.0134015604854,-0.000108655105578,0.00289314985275,-0.00495213549584,0.00809363275766,-0.0117532303557,-0.0126931611449,0.00681721419096,-0.000134684276418,0.00562866963446,-0.00194708933122,-0.00757645722479,0.00953338947147,0.00894535891712,0.00581677211449,-0.0068072672002,0.00269570504315,-0.00415351334959,-0.0122016454116,0.0124676385894,-0.0108502563089,0.013451189734,-0.00161313684657,-0.00940679665655,0.00125192222185,0.0111421039328,0.00693795317784,0.00915877055377,0.00474385078996,0.00574447307736,0.0104325367138,-0.00747880572453,-0.000315922050504,-0.0083289956674,0.0145695116371,0.0132666509598,-0.0137599157169,0.00614172033966,0.0127046974376,-0.00954296905547,0.00202995492145,0.0124130304903,-0.0139237027615,0.0058981589973,-0.00605428125709,0.0126791493967,0.0140732033178,0.0132727790624,-0.000770345272031,0.0108163403347,0.0102936876938,-0.00540445093066,0.00982664246112,-0.0138321807608,0.00287622842006,-0.00806607771665,-0.0113357705995,-0.0126387942582,0.00586429005489,-0.00478378357366,0.00671514356509,-0.0129852415994,-0.00551830371842,0.00117991329171,0.00868562236428,-0.0054148635827,0.0037610931322,0.0115313576534,0.00346154044382,-0.00797800160944,-0.0142088560387,0.0110569950193,-0.0143024055287,0.0111945234239,0.000864581845235,0.0131175499409,0.00892648566514,0.0148762380704,-0.00446006190032,0.00798250641674,-0.00292978505604,-0.000601107836701,0.00380941899493,0.0111639155075,0.0144624048844,0.00801493879408,-0.00245671556331,-0.00234943535179,0.007097997237,-0.00780417909846,-0.0116373430938,-0.0043432507664,-0.00635638460517,-0.00608538417146,-0.00795864220709,-0.0136802988127,-0.0144039019942,0.0145710175857,-0.00215781480074,-0.00345578766428,0.00536717427894,-0.00841727573425,0.0134430415928,0.00855480041355,-0.012266561389,-0.0024622392375,0.0113265411928,0.0132868289948,-0.000973808346316,0.00338833616115,-0.00994749739766,0.0146741177887,-0.0080163711682,0.0132270185277,0.00447088852525,0.00321875559166,0.000379095319659,-0.00804645195603,-0.00966385472566,-0.00835063681006,-0.00936786830425,0.00835277885199,-0.00447766063735,-0.013209765777,0.0140147944912,0.0114659368992,0.0127795189619,0.0147858811542,-0.00974257849157,-0.00309977889992,0.00771518424153,0.00585640082136,-0.0103399269283,0.00943579338491,-0.0082324994728,-0.00825107563287,0.00110471737571,0.00277669914067,0.00239270296879,-0.0122045623139,0.0112769650295,-0.00700284261256,-0.011068508029,0.0116141857579,0.0136129288003,0.0108188018203,0.00924697425216,0.00463791005313,0.00151931925211,-0.0123391197994,-0.00273512792774,-0.00380364386365,-0.00717767793685,0.00667481124401,-0.000123259145766,-0.0125166298822,-0.00835988856852,0.00547480862588,-0.0126634044573,0.0104924943298,-0.000145112149767,-0.000580158259254,0.00276056188159,0.00970006175339,-0.00454686395824,0.00531828124076,0.00196363753639,-0.00696037290618,0.0113117601722,0.00888570398092,0.00473375618458,0.0104737328365,0.0109729971737,0.00622496753931,0.0100685013458,0.00589954294264,0.00538169359788,0.00354342581704,0.00755004072562,-0.0101994900033,0.0113786812872,0.0111089488491,-0.0140642579645,0.00973399542272,-0.0110877882689,-0.00492603611201,0.00727484980598,-0.0101351961493,0.0094994623214,0.00992271117866,0.000223034774535,-0.0147472126409,-0.00636256439611,0.00349325384013,0.0143756838515,0.00393791357055,-0.0071761617437,0.00400336133316,0.00119457580149,0.00836055260152,-0.0117418188602,0.00779828755185,0.00123272452038,0.0138322031125,-0.00472418498248,0.00396211352199,0.0129070347175,-0.0118754748255,0.0130625087768,0.00561318872496,-0.0129112116992,-0.0059464443475,0.00621912861243,-0.0129257282242,0.00245485315099,-0.00460444716737,0.00361231551506,-0.0135714542121,0.0110999112949,0.0141457626596,0.0140079539269,0.00745838787407,-0.0110515821725,0.00771576818079,-0.0142033444718,-0.0142769757658,-0.00526987016201,-0.000339455378707,0.00807858351618,0.00547602772713,-0.00161627191119,-0.00676319515333,0.0148517908528,-0.00220543891191,-0.00145239802077,-0.0100495982915,0.00880747660995,0.00578621495515,-0.00834223255515,-0.0124766929075,0.00539245968685,0.00461600348353,-0.00677420245484,0.0134698152542,-0.0104249771684,-0.00202166149393,0.0132531803101,-0.00239836773835,0.00413853768259,-0.00305947521701,-0.00674553820863,0.014459037222,-0.00270892330445,0.0117739550769,-0.00806787889451,-0.00857133138925,-0.0140078738332,0.00453094625846,-0.00392794888467,0.0108853718266,-0.000800526468083,0.0139874452725,-0.00939531996846,0.0110128084198,0.00826342217624,0.00809384323657,0.010300476104,0.00779810268432,0.00377082498744,-0.0110170058906,-0.0139663321897,0.0125728985295,0.00348480395041,0.00885940063745,-0.000551867240574,-0.0114330556244,-0.0111976983026,0.00554404873401,-0.00208202563226,-0.00894686672837,-0.000250954966759,-0.013019407168,0.0024490931537,-0.0069013372995,0.0088899442926,-0.00566543452442,-0.00133767432999,-0.0145905436948,-0.0127733079717,-0.00321167823859,-0.000599221268203,0.002988334978,-0.0062240655534,0.00582536030561,0.0107590537518,0.00836092792451,-0.0137540949509,-0.000582246982958,-0.0118028800935,-0.00770645029843,0.0145395416766,-0.0106805255637,-3.30280163325e-05,0.00353015516885,0.00604894990101,0.00178224698175,-0.0146457310766,-0.00518440082669,0.000529317476321,-0.0123125780374,-0.00446241861209,-0.0139456912875,-0.0125900767744,-0.00307929702103,-0.0109726740047,0.0020179967396,0.00566055672243,0.00898038595915,-0.008958064951,-0.00993404630572,-0.0118136955425,0.0040760259144,0.00616865046322,-0.0139940343797,0.0130323302001,-0.0133849708363,0.00123401440214,0.00624609412625,0.0110832136124,0.00639625219628,0.00901458598673,-0.00479626841843,0.00940590072423,-0.0125441402197,0.0117956632748,0.001422080677,0.0094797257334,-0.00142433855217,0.00428969273344,0.000789011537563,0.00691907759756,-0.0124989524484,-0.0131346983835,-0.00755531014875,-0.0101712020114,0.0111074130982,-0.00838861707598,0.0142168439925,-0.00487264804542,-0.0094966897741,0.00865522958338,0.00474180467427,-5.36349798494e-05,0.00165424600709,0.00654908968136,-0.00811234489083,0.0148285832256,0.0141850169748,0.00449133198708,-0.00897608045489,0.00538471946493,-0.01278066542,-0.0140219340101,-0.00723917456344,-0.00111643376295,0.0110025759786,0.00678693968803,0.00725104939193,-0.00222582812421,-0.0046027363278,-0.00385280372575,0.0145688252524,-0.0137396380305,0.0109654748812,0.00235072080977,-0.00183365761768,0.00673000700772,-0.000398044183385,0.0111565031111,0.0119714969769,-0.00233839894645,-0.006667223759,0.00275917793624,0.0123198088259,-0.00864400248975,0.00367388012819,0.00393055379391,0.00696446746588,-0.0110070947558,0.00644801463932,0.0122201824561,-0.00956971012056,-0.00784117355943,0.0140832411125,-0.00953111518174,0.0105873541906,-0.000230866178754,-0.00755187496543,0.0110766971484,-0.00163375551347,0.000442922959337,-0.00420529767871,0.00277720042504,-0.0100521640852,-0.00325371511281,0.0140242828056,-0.00722569832578,0.00468282448128,-0.00522224092856,0.00817049108446,-0.011027677916,0.0140364654362,-0.00138035789132,-0.00788539741188,-0.0127418180928,-0.00986595451832,0.000590993149672,-0.00486945314333,0.00982590485364,-0.00206455681473,-0.0075071263127,0.00350001570769,0.00617779139429,-0.00994700752199,-0.0099297631532,-0.0138419102877,0.00706298276782,0.00489405030385,-0.000757575791795,0.0102826850489,0.00913242902607,0.00255028996617,0.0110026225448,-0.00878786295652,-0.0115938354284,-0.00687858415768,-0.0132321044803,0.00093140482204,0.0130442408845,-0.0137621462345,-0.0112894773483,-0.00142787455115,0.0129624791443,-0.00549218198285,0.000216373242438,-0.0136956665665,-0.0105058420449,0.0145385563374,0.0138961700723,-0.0147898411378,0.0134986108169,0.00415667984635,0.0109921470284,-0.00135172775481,0.00046641624067,-0.000332776631694,0.00498556578532,-0.0107653522864,-0.0140419499949,-0.00573783041909,0.00611535133794,-0.00890704803169,0.00518164923415,0.0140393180773,-0.0121322013438,0.00515685649589,-0.001680317102,0.0109986681491,-0.00964509136975,0.00575507758185,0.0101015986875,0.0132832862437,0.00547478254884,-8.39220228954e-05,0.00352124590427,0.0110217500478,0.00210995064117,-0.0140296583995,0.0128754172474,0.00566272856668,0.00527389766648,-0.00849404465407,0.00474713789299,-0.00317041366361,0.00451858900487,-0.0117529751733,0.00471601821482,0.014920592308,-0.0134970918298,0.0142562510446,-0.0027809375897,0.0110767437145,0.0084366640076,0.0020024778787,0.00712408451363,0.0113085908815,-0.00286374962889,-0.00516740651801,0.00500745186582,0.00919758901,0.00783642102033,0.00889783445746,-0.00192410883028,0.0094959596172,-0.0113461045548,0.00132953748107,-0.0147654339671,-0.00524033326656,-0.00398915726691,-0.00310153188184,0.00584005285054,-0.00332912337035,-0.00153256463818,-0.00784071162343,-0.00378640904091,-0.00814777985215,-0.0127508826554,0.00309076276608,0.00502573093399,0.00357005000114,-0.00109050632454,-0.00359141314402,0.0108549166471,0.000570252828766,-0.000621771614533,-0.0141716217622,-0.00474265357479,-0.00357908755541,-0.00302256504074,0.00239535677247,0.00100400310475,0.0032238564454,0.00791369378567,0.00935084093362,0.00651671318337,0.0136092361063,-0.0143930027261,-0.00908872485161,-0.0147117422894,0.00440604705364,0.0118915876374,-0.00766349816695,0.012758099474,-0.013137197122,0.0129792140797,-0.00443272432312,-0.0119076864794,-0.000421927223215,-0.00726631423458,-0.00642688991502,-0.00575717864558,0.00905329827219,0.00117014790885,-0.00563715118915,0.00329644023441,0.00645780796185,-0.00679283589125,-0.00258259102702,-0.0112962312996,-0.00952571351081,0.00541118346155,-0.00951706897467,0.000751956016757,0.00624557072297,-0.0117446677759,0.00201116898097,-0.00727269938216,0.0138304168358,-0.000491441984195,0.00914188381284,0.00150073133409,-0.0136407297105,0.00397813273594,0.0134861078113,0.00303583592176,0.00953612755984,0.0114786140621,-0.00812364555895,-0.00860270857811,0.00331578939222,-0.00265791080892,0.0101537685841,0.0119511270896,-0.00437894975767,-0.0078610079363,0.00838107895106,-0.00672764144838,0.00963849481195,-0.00227822549641,0.00500583508983,-0.0120835136622,0.00370055483654,-0.00144080526661,0.00258764298633,-0.00991818401963,0.00707693910226,0.0108389640227,-0.00846247188747,-0.0120781650767,-0.0142314871773,0.00424161786214,0.00319964182563,0.00139526720159,-0.00800810195506,-0.00325911259279,0.00282266712748,-9.6474912425e-05,0.0145730637014,-0.0108614694327,0.00583023158833,-0.00285839894786,-0.0021449404303,0.0065010227263,0.00574934389442,0.0146767934784,-0.0111018363386,-0.0118273496628,0.00670243240893,0.00234198663384,-0.00674699619412,-0.0125650111586,-0.012378600426,0.0117768608034,-0.0092055471614,-0.00527678104118,-0.00816621724516,-0.00433196313679,-0.0128636639565,0.00056961143855,-0.0129177421331,0.00897351652384,-0.00795539468527,0.00119551457465,0.0113553116098,0.00450774142519,0.000984816229902,-0.00524801528081,-0.00498908013105,0.0050637149252,0.0147629464045,0.00483522657305,0.00172646599822,0.00689098751172,-0.00103938416578,-0.0131409121677,0.00186132302042,0.01367205102,-0.00970039423555,0.00567704811692,-0.00893428735435,0.00107090629172,-0.0120490621775,-0.00148219568655,0.0076535702683,-0.00455338368192,0.00492737954482,0.00882729887962,0.0127627542242,-0.00792724359781,-0.00300749135204,-0.0103837950155,0.0147138303146,0.0127574587241,0.00119425414596,0.0102189956233,0.000626635854132,0.00369271426462,-0.0122746853158,0.00762692978606,-0.0111218122765,0.00974202435464,0.00842626951635,0.00623683352023,-0.0138570452109,-0.00588113768026,-0.00707658473402,-0.00417790003121,-0.0123188551515,0.013054985553,0.00160799140576,-0.00580949708819,-0.00307716545649,-0.00157682120334,0.0030058848206,0.00046900138841,0.0125301582739,-9.02197571122e-05,0.0147040858865,0.010499605909,-0.00870793219656,0.0128648271784,-0.0114608425647,0.00948448572308,-0.00356593402103,0.0112927444279,0.0109964115545,0.00914019625634,0.00866529345512,-0.00583482161164,-0.0125197758898,-0.00289791217074,-0.00975304562598,0.00582490535453,-0.0045973258093,0.0142098013312,0.00421222532168,0.00963491760194,-0.0109780346975,0.010815994814,0.0126307243481,-0.000385987164918,0.00317491265014,0.00791188888252,-0.00971391610801,7.71743798396e-05,-0.00302701280452,-0.0105643412098,-0.00395706901327,-0.0129006849602,-0.0141662368551,-0.0108992215246,0.0138363111764,0.00148012419231,0.0139173492789,-0.00201604305767,-0.00562148774043,0.000184117947356,-0.00180652644485,-0.0117804864421,0.00420789932832,-0.00848292559385,0.00357338855974,0.00448794197291,-0.0103954588994,-0.0131044210866,0.00838852114975,-0.00120041833725,-0.0131996516138,0.014784950763,-0.0132111450657,0.00582728907466,0.0144507205114,-0.0077917445451,-0.0106876138598,-0.0113109443337,-0.005876861047,-0.0119186341763,0.00574132381007,-0.0130762476474,0.000282131863059,0.0148398270831,0.00938073731959,0.0034429053776,-0.00578773301095,0.00370207615197,0.000808497541584,-0.00220773275942,-0.011032210663,0.0115506285802,-0.00149965751916,-0.00912281498313,-0.00395028013736,-0.00256493175402,0.00978590454906,0.00697985896841,0.00804611854255,-0.0146078532562,-0.00250453990884,-0.000556944462005,-0.0143640888855,-0.00717536779121,0.00777672836557,-0.0108412513509,0.00105465308297,-0.00850877445191,-0.0145759945735,-0.0077320439741,0.014216796495,0.00900839176029,0.0137299122289,-0.000363164872397,-0.0116596966982,0.00143252592534,-0.0013632705668,0.0102876499295,-0.012007878162,-0.000351646798663,-0.0104553643614,-0.00523821264505,0.00709096388891,-0.000716776296031,-0.00370825617574,-0.00315295369364,-0.00121183809824,0.00851476471871,0.0117134638131,0.0136030996218,0.00857110694051,-0.00551514374092,0.00562036177143,-0.00186450127512,-0.00732975592837,0.0101834405214,-0.0137901548296,0.012002591975,-0.00115122075658,0.00409864680842,0.00476046046242,0.0118041653186,0.00408280873671,0.00340350344777,-0.0129469325766,0.000549589516595,-0.0104517769068,0.00709316926077,0.000364748178981,0.0053840377368,-0.0136932246387,-0.0124049419537,0.00646248925477,-0.0127846570686,-0.0128093957901,-0.0145764807239,0.0136380279437,0.00709543190897,-0.00438456144184,-0.00607901904732,-0.00449064746499,0.00820515863597,0.00482071610168,-0.0094053754583,-0.00973659195006,-0.0119986468926,0.00478886114433,0.00789797771722,-0.00701976753771,-0.0143124982715,-0.0124833555892,0.0139773460105,-0.00611158646643,0.00804284121841,0.00372399156913,-0.00352755887434,-0.00879307836294,-0.0113116549328,0.00343572651036,0.00820447411388,0.00429882109165,0.000904986751266,-0.0136848697439,0.0139960665256,0.00892390497029,-0.0061900364235,0.0143391611055,0.00304346811026,0.0024620546028,0.00741093046963,0.00931386649609,0.00467461068183,-0.0111112352461,-0.00483223982155,0.0127888806164,-0.0082277636975,-0.00381941953674,-0.00202956283465,-0.00181065965444,0.00337373279035,0.0132367545739,-0.00774727808312,-0.0113082583994,-0.00903867185116,0.0115592228249,0.00435575144365,-0.00639646220952,0.00943880807608,0.01079579629,0.0103519102558,0.0125152366236,-0.00740229524672,0.00761919934303,-0.00117932469584,0.0102169811726,0.00682582147419,0.0082587916404,0.00466507580131,-0.00963742751628,0.00134477193933,0.0144793707877,0.0130669791251,-0.0136483395472,-0.0100142573938,-0.0110027883202,0.0067508588545,0.00949378311634,-0.00855936575681,0.000174492713995,0.0101783368737,0.0069546927698,0.00126193871256,0.002699238481,0.00024979931186,-0.00604836735874,0.00194258557167,0.00564311211929,0.0111533403397,0.00407182378694,0.00780120212585,-0.0101555874571,-0.00114846928045,-0.0146590126678,-0.00756815169007,0.0067657190375,0.014693162404,-0.0119748236611,-0.0029429292772,0.00896482355893,-0.00884218234569,0.0016456291778,0.00696319760755,0.00346514140256,-0.00932048819959,-0.00432050088421,0.00847845431417,0.00162009464111,-0.0147815886885,0.00779734319076,-0.0138828586787,0.00734148360789,-0.00888863019645,0.0136852739379,-0.00394534319639,-0.0051705292426,-0.0104897487909,-0.00580770801753,0.011252719909,0.0148283299059,-0.0039343633689,-0.00153532950208,0.00663446867839,0.0115378387272,0.00277969427407,-0.00324079603888,-0.00261054048315,0.00584418000653,-0.0148417679593,0.00357276829891,-0.00431729387492,0.00878930278122,-0.0121596548706,0.00263511971571,-0.00056845403742,0.00425208173692,-0.0130003252998,0.00238956976682,0.00183688069228,0.00181223405525,0.00309171667323,0.00527205690742,0.00911176111549,-0.00687681697309,0.009711002931,-5.21769361512e-05,-0.0126357460395,-0.0131886312738,-0.00495227612555,0.00851143430918,0.00620455667377,0.00862251594663,0.000515913998242,-0.00178661604878,-0.0105326240882,-0.00513285305351,-0.00197122525424,-0.0122908139601,-0.00834690779448,0.0029345380608,0.00704056024551,0.0148884328082,0.0129395639524,0.00425921706483,-0.0023527930025,0.00406835274771,0.00853403378278,-0.0114024905488,-0.00269167730585,0.0101517997682,-0.00347060058266,0.00214716629125,0.00262214243412,-0.00942652672529,-0.00411582225934,-0.0049441056326,-0.0141552630812,-0.014215098694,0.00990970246494,-0.0067796241492,0.000540165812708,-0.00601320527494,0.0131655978039,-0.00719121657312,-0.00210159621201,0.011135536246,0.0102154742926,-0.00937800202519,0.0090415943414,-0.00124930008315,-0.00050886918325,-0.010950056836,-0.0125298742205,0.00680977059528,-0.000105784580228,-0.0018866606988,0.0068567241542,0.00793236866593,-0.0101903621107,0.00329303974286,-0.0108940629289,0.00751003762707,0.00468916958198,0.0136417066678,-0.0128776431084,-0.013233252801,-0.00650722580031,-0.00711897946894,-0.00755897909403,0.0121372956783,-0.00748234242201,-0.00681301951408,0.00774994818494,-0.00150134542491,0.00826713163406,-0.0129848727956,-0.000371176662156,-0.013933413662,-0.0130658373237,0.0121427532285,-0.0107777174562,0.000968689739238,-0.00265588029288,-0.00456057768315,0.0119454162195,-0.0142857749015,0.00489343237132,0.0138444164768,0.00179768924136,0.0130504621193,-0.0133765516803,-0.00242605595849,-0.00716522615403,0.00689610373229,0.0143792359158,-0.00727370521054,0.00460620038211,-0.00901932828128,0.0019519359339,-0.0010774115799,0.0141015890986,0.00324244913645,-0.00449589407071,-0.0115289939567,-0.0104191070423,-0.00820626784116,-0.00743995513767,0.0104751046747,0.00182922487147,0.000698927091435,-0.0115089649335,0.0107594942674,0.00665692053735,-0.0129161048681,0.00620925892144,0.0013007511152,-0.0124962413684,-0.00124555383809,-0.000457004876807,-0.00998503062874,0.0133157428354,0.0104558905587,0.00504995696247,-0.00112621521112,-0.00263587175868,0.00451057869941,0.00135741301347,-0.0130771333352,0.000373733579181,0.00915416143835,-0.00121765234508,-0.013385521248,0.00855296198279,-0.00892186257988,-0.00721131591126,-0.0100170942023,-0.00507241953164,0.00767075223848,0.000579241313972,-0.00881686806679,0.0112879183143,0.0113402344286,0.0110716000199,-0.00780339259654,-0.00145652936772,0.0144895967096,0.00812670122832,-0.0141259338707,-0.0129896039143,-0.00107739516534,0.0122258737683,0.00115630647633,-6.51173177175e-05,-0.0117865558714,0.00468407850713,0.00962319783866,-0.00357247306965,0.00823430065066,0.0138767212629,-0.00885007251054,0.000697040115483,-0.00635939603671,0.00874937418848,0.00231822300702,0.00402074400336,0.00890030432492,-0.00310808420181,0.0124014122412,0.000987040461041,-0.0102185793221,0.00585281662643,0.00876154564321,-0.0054740794003,0.0106712412089,0.0121340239421,-0.00666494201869,0.0144456895068,-0.0107336770743,-0.00890226755291,-0.00943382363766,0.0117708723992,0.00460966676474,-0.0103934425861,-0.00178274372593,0.00344468653202,-0.0124443285167,0.0114249037579,0.00907046999782,0.000155585992616,0.0139557067305,-0.00245708180591,0.0144630176947,0.00501662865281,0.0040232911706,-0.00997991859913,0.0114102698863,-0.0021663531661,-0.0100911278278,-0.0145613150671,0.0017851323355,0.000818500993773,0.00655328994617,0.0116590643302,-0.0125656733289,0.00691600050777,-0.00933888740838,0.0107007417828,0.00953207071871,0.00121856341138,0.00628104154021,-0.00554650882259,-0.000861419888679,0.00960894487798,-0.0012171594426,-0.00424851709977,-0.000173026899574,0.00980658270419,-0.00492341583595,-0.00974672287703,0.0063339616172,0.00973875075579,-0.0119312983006,-0.00777161121368,-0.0106965117157,-0.00454299757257,-0.00148339162115,0.00743381073698,0.0045154588297,0.0036126752384,-0.0044105546549,0.0102008786052,-0.000857906299643,0.0143134128302,0.00400739675388,-0.0111657436937,0.00526333833113,-0.00522522535175,0.00556643307209,-0.0128574771807,-0.00971333682537,0.0106277549639,-0.00815081316978,0.0100691402331,-0.00659446464851,0.00426852004603,0.00580026721582,0.000377997232135,-0.00581668363884,-0.00858517177403,-0.0139464801177,-0.00585735263303,0.00457579316571,0.0130944214761,0.0110897822306,0.00794868823141,0.0086174486205,0.00492894789204,-0.00716186175123,0.0121649997309,0.00510054919869,0.00180557882413,-0.0116220964119,-0.00158201449085,-0.00118455628399,0.0108913937584,0.00139346788637,-0.00357330427505,0.0142444772646,-0.0116302017123,-0.00231409678236,-0.0136824790388,0.00716719171032,0.0124901039526,-0.0065717799589,0.0107055185363,-0.00620778743178,0.0122719509527,0.00758705241606,0.00910906586796,-0.0144001031294,0.0138266338035,0.00677180895582,-0.00583348982036,0.00984063930809,-0.00652744527906,0.0111361229792,-0.0115745998919,0.00608500558883,0.00121566595044,-0.0120540587232,-0.00771131832153,-0.0145674925297,-0.000933347502723,-0.00593756046146,0.00293831853196,-0.00605784542859,-0.00597768975422,0.00726529257372,-0.0134997898713,0.0120365759358,0.0105239842087,0.00501315761358,0.00278479722328,0.0117200650275,-0.00940120406449,-0.0125787919387,-0.00778248300776,0.00880042556673,-0.0139023512602,0.00247365329415,0.0148013448343,0.0106264809147,0.000640406680759,-0.0130368350074,0.00989976339042,0.00295682693832,-0.0115043697879,-0.0121337976307,0.0122378850356,0.00505495257676,0.00983764138073,0.0113222412765,0.00214423425496,0.000521215901244,-0.00207854621112,-0.00546888587996,-0.00195401557721,0.00818238034844,0.00304508046247,0.01172694657,-0.00169156247284,0.00319934799336,0.00392295140773,0.0027395656798,0.00605386774987,-0.00784433819354,0.000369363697246,-0.0118240062147,-0.00345023418777,-0.000368389533833,0.00454786932096,0.0134599516168,0.00300707155839,0.00727757252753,0.000187216312042,0.00400644401088,-0.0128187378868,-0.0073376619257,-0.00412720581517,-0.0008218025323,-0.0135740963742,-0.0107545740902,-0.00666775554419,0.0140874469653,-0.00503858551383,-0.000536523817573,-0.00907933618873,0.00330971018411,-0.00655218958855,-0.008753743954,0.000495148240589,-0.0147733855993,-0.0147088291124,-0.0083929663524,-0.0138407424092,-0.0117104602978,-0.00481411907822,0.00903997011483,0.00215250602923,0.000378410302801,-0.00616974988952,0.0128989061341,-0.00307667278685,-0.0123358489946,0.00349747296423,-0.0115368869156,-0.00462411530316,0.000221522641368,0.0111802117899,-0.000192778607015,0.0060426145792,0.0147232534364,-0.0110094528645,-0.0067299916409,-0.00314957625233,-0.00233541056514,-0.00265828846022,0.0121777048334,0.00639442540705,0.00322379497811,-0.00569507107139,0.00967352371663,0.0135953100398,0.00959605630487,-0.0148910963908,0.00407506013289,-0.0134101910517,-0.00724162021652,-0.0131594724953,0.00310100498609,0.00557450111955,-0.0115174734965,-0.00347028975375,-0.00130738154985,-0.00391208007932,-0.0113221276551,-0.00242145173252,0.007504186593,-0.0128163686022,-0.0125423595309,-0.00433873804286,0.0131969377398,0.0050362944603,0.00533795589581,-0.00412518763915,0.00279824715108,-0.0146351251751,0.00406598392874,0.0123472800478,0.00336322141811,0.0111644752324,0.00669132126495,-0.0113360453397,0.0120235979557,-0.0129527812824,0.0010148229776,-0.0106914043427,-0.0145880458876,-0.00232921913266,-0.00612327083945,-0.000418211711803,0.00230644783005,-0.013631070964,-0.0112630380318,0.00175200880039,-0.00468548340723,0.00684676598758,0.00454984745011,0.0103251803666,0.00575089966878,-0.00209329556674,0.00516756996512,-0.00671043433249,-0.00578627269715,0.00863385014236,-0.00160057330504,0.00891447253525,0.00963281374425,0.0106826461852,0.012447481975,-0.00206168740988,-0.0054112970829,0.00245595350862,-0.00384860183112,0.00301986653358,0.00614222558215,0.00562890386209,-0.00374767440371,-0.00995260570198,-0.00207530870102,-0.0106775928289,0.0116545790806,-0.00460442062467,-0.0103231091052,-0.0141774192452,0.00435669580474,0.00409021927044,-0.00476182904094,-0.0127951670438,-0.00269966921769,-0.00563977938145,0.00529181258753,0.00316046900116,-0.00404511624947,-0.00842792075127,0.0145806437358,-0.00137405551504,0.00562498904765,-0.0107385413721,-0.00043029745575,-0.0141149684787,0.000163173594046,0.0138629851863,-0.00345926987939,-0.0137726804242,-0.0140128787607,-0.0033463218715,-0.0101569192484,-0.0142401168123,0.00765467714518,-0.00123902538326,-0.00629630265757,0.011952964589,-0.0114678908139,0.0136211812496,-0.00555761391297,0.0116040632129,0.00307566928677,0.00976084545255,0.0144604444504,-0.00632133381441,0.0137769319117,-0.00330165144987,-0.00342023209669,-0.00476838974282,0.0012372371275,-0.0103324931115,0.00160481687635,0.00124609679915,0.00782462954521,0.00996816530824,-0.00177921936847,-0.00590536044911,-0.00718995882198,-0.00912325084209,-0.0132154840976,-0.0047068586573,-0.0068638548255,0.0139347082004,0.00172431755345,-0.00456248503178,0.00240419642068,-0.0107791312039,-0.00167156604584,0.00377154885791,-0.000331488001393,-0.00293423887342,0.0147541798651,0.0113623030484,0.00368700735271,0.00207283417694,0.00360494875349,-0.0089234597981,-0.00313276378438,-0.0137589117512,-0.000730507948902,0.00128547160421,-0.00813366938382,0.0138632021844,0.012232767418,0.00663672527298,0.000997509225272,0.0110532194376,-0.011034399271,0.00867933221161,-0.0112085901201,0.0087898792699,-0.00669900793582,0.0112659456208,0.0132661797106,-0.0104923676699,-0.00111496762838,0.014369870536,-0.000495675078128,0.0108612831682,0.00265097478405,-0.00372453010641,-0.00639988994226,-0.00886644329876,0.00782142579556,-0.00338964280672,0.000336909724865,-0.000229353317991,0.00230869976804,0.0109218480065,0.0143624544144,-0.00276094302535