0.0014203696046,0.00309983082116,-0.00037558627082,-0.00201415014453,0.000440205301857,0.005373517517,-0.00514110410586,0.000326731154928,-0.00192792178132,-0.00445971963927,-0.000736091402359,0.00159875978716,0.000321093801176,-0.00532102305442,0.000897198915482,-0.00302764750086,-0.00178982340731,-0.00212078960612,0.00405635870993,-0.00511300843209,-0.00171608047094,-0.00118668563664,0.00134631141555,0.00326996925287,0.00257683801465,0.00285894377157,-0.00347569817677,0.00465803826228,-0.00096823083004,-0.0055254297331,0.00190319900867,0.00117846706416,-0.00422683730721,0.00520222727209,0.000698585063219,-0.000345030421158,-0.00114945485257,-0.00327825988643,0.00512246834114,0.00228829495609,0.000766891054809,0.00148596486542,0.00385166564956,0.00153710343875,-0.00435536308214,0.00223331595771,0.000735966197681,0.00527549674734,0.00264519732445,-0.00176136440132,-0.00412035733461,-0.000198142399313,0.00203017727472,-0.00364686967805,0.00169199262746,0.00368392257951,-0.00387554545887,0.00232905498706,-0.00487953424454,-0.00556142488495,-0.00528233777732,0.00148913695011,0.00535455858335,0.00307065271772,-0.00277468119748,-0.00484074885026,0.00132120994385,-0.00561482226476,0.00331051298417,-0.00290230871178,-0.00226807128638,-0.00176191353239,0.0029822755605,-0.00264651305042,-0.00243471655995,0.000466764817247,-0.000415097922087,0.00515442946926,-0.00267204362899,-0.00461125420406,0.000466653960757,-0.00356391002424,-0.000973390648142,-0.00353365112096,0.00431088870391,-0.0019478101749,0.00311118527316,0.00507561955601,0.00498454738408,0.000283611472696,0.00546742603183,0.00176640390418,-0.00419750669971,0.0043945745565,-0.000350856455043,-0.00392379006371,0.00329831731506,0.0014098106185,0.00432385876775,0.00370425661094,-0.00203127739951,-0.0027526228223,0.00264666229486,0.000831697951071,-0.00486069638282,-0.00359700317495,-0.00393944280222,0.0010180514073,-0.00468109548092,-0.00330231594853,0.000515792111401,-0.00414633005857,-0.00284359417856,0.00460235308856,0.00223157531582,-0.00218089600094,0.00426950678229,-0.00282082613558,0.00101000117138,-0.00148418650497,0.00285379774868,-0.00144923420157,-0.00283690006472,0.00122055877,0.00277682603337,0.000414399168221,0.00244880653918,-0.000878553139046,0.00334385316819,0.00096457573818,-0.00343131017871,0.0044214646332,0.00381171586923,0.00524871284142,0.000783488212619,0.0019903271459,0.00411423482001,-0.00505568552762,0.00466402433813,-0.00258429860696,-0.00500533124432,-0.00296370428987,0.000979672069661,-0.00510932551697,-0.00564170768484,0.00157898012549,-0.000523854570929,0.00389656750485,-0.00273821270093,-0.00247634691186,-0.00477313343436,0.000439007213572,-0.00151267740875,-0.00180888967589,-0.000475480075693,0.00395752489567,-0.00446058716625,0.000270345859462,-0.00342885311693,-0.00324842403643,-0.00274701998569,-0.000455453817267,-5.9709760535e-05,0.00420431979001,0.00443725800142,0.000983524951153,-0.00246807234362,0.00360421231017,0.00331525690854,0.00337259122171,-0.00546486815438,0.00287405704148,0.00399182271212,0.00119121512398,0.00284442538396,0.00312633742578,7.81083945185e-05,0.003549806308,0.00330862798728,0.00470858532935,0.00476816948503,0.000339669059031,-0.0052937711589,-0.00543384067714,0.00496663432568,-0.00183528312482,-0.0013810324017,-0.000336549885105,-0.00264444341883,0.00102599686943,0.00322190090083,-0.00274005508982,0.00275202584453,0.00194874405861,0.00029298645677,-0.00197005597875,0.00421868776903,-0.00109538726974,-0.00141347502358,0.00160220311955,0.00475591560826,9.38594239415e-05,0.0025211807806,-0.000484339660034,-0.00317630171776,-0.00424881046638,-0.0041089002043,-0.00540920440108,0.000601362495217,-0.00416793534532,0.00413816096261,0.00546334590763,-4.35293040937e-05,-0.000565858907066,-0.0017146760365,0.00156385020819,0.00122463947628,-0.00176772184204,-0.00177015783265,0.00164048816077,0.000619946804363,0.00247441395186,0.00499405153096,0.00316455774009,-0.00220908783376,0.00293265469372,-0.000562342756893,0.00314223067835,0.00437373341992,-0.0028247081209,-0.00295240944251,-0.000759060669225,-0.00506808143109,0.00210231309757,0.00282613397576,-0.00174494693056,-0.000389735301724,0.00102445867378,-0.00481859548017,0.00239190622233,0.000304685032461,0.00140783295501,0.00253364769742,0.00198782351799,-0.00457296194509,0.0031980832573,0.001247062115,0.00243244576268,-0.0026939464733,-0.00314709893428,0.00368908117525,-0.00123745482415,0.000853875942994,0.000585301429965,0.000964889477473,-0.00486568640918,-0.00223151128739,-0.00489991903305,-0.00022240440012,0.00454846210778,-0.0012511749519,0.00319559196942,-0.00240371376276,0.00403021788225,-0.000908279733267,-0.00163514784072,0.00223482423462,0.000146148347994,-0.00183750281576,-0.00499475980178,-0.00376740912907,0.0030811149627,0.00475918501616,-0.00374251208268,0.000787138182204,-0.00526414671913,-0.00236196280457,-0.000576090416871,0.00267007178627,-0.00515181710944,0.00318289012648,-0.00335918157361,0.0029375385493,0.00142170279287,-0.00181093881838,0.00253296690062,-0.00297842104919,-0.00316607113928,-0.00495239347219,-0.0012060222216,-0.00454577477649,-0.000907225767151,-0.00553971482441,-0.00389703107066,0.00489182397723,0.00334491184913,-0.00298023712821,0.00247122370638,0.00190800998826,-0.00365004246123,-0.00145513471216,0.00468059303239,0.00270199845545,0.00294660963118,0.000725183694158,0.0018745722482,0.000101612327853,0.0027266277466,0.00263431714848,-0.00529922358692,0.0014928196324,0.00147063971963,-0.00488949660212,-0.00101046345662,0.00451201200485,0.00512991193682,0.00319381826557,-0.00393800996244,-0.00141369004268,-0.00358651136048,0.00172306434251,0.00309131853282,0.00434213643894,0.00408074911684,-0.00452889315784,-0.00422982079908,0.00463489210233,0.00388986151665,-0.000445347948698,-0.000788244360592,0.00059968669666,0.00109532789793,-0.0027764311526,-0.00108574132901,0.00135605165269,-0.00331859616563,0.00564299756661,-0.00245167198591,0.000595344929025,0.000615096476395,-0.000545888615306,-0.00291971536353,0.000741628231481,-0.00462174229324,-0.00127581343986,-0.00311522535048,-0.00424674572423,0.00481366971508,0.00226348894648,-0.00374183501117,0.00508401356637,-0.00320862233639,-0.00298675009981,-0.00414397101849,0.00257902219892,0.000804022070952,-0.00499224010855,-0.00536481430754,0.000371961243218,0.00171604694333,0.00365340034477,-0.00024303162354,0.00199868879281,0.00264462339692,0.00128096039407,-0.00166834145784,-0.00415953760967,0.00167088548187,0.0030408417806,-0.00350445578806,-5.54070829821e-05,-0.00115920254029,-0.00332497013733,-0.00287709455006,-0.00296346726827,-0.000913589959964,-0.00123549799901,0.000615653698333,-0.00459656212479,0.00092171644792,-0.00540349027142,-0.00274035497569,2.71943827101e-05,0.00211669947021,0.00307021196932,-0.00524844042957,0.000426875107223,-0.00164288666565,0.00220685359091,-0.00244183233008,0.00275881681591,0.00115901255049,0.00327835534699,0.00548007758334,0.00462291017175,0.00105783634353,0.00445528468117,-0.00391954276711,-0.00516393966973,0.000377643067623,0.00536635005847,0.00237412843853,-0.0022006474901,0.00191093550529,-0.00519968057051,-0.000329596950905,-0.00296822725795,-0.00509461620823,-0.00282515725121,0.00251799495891,0.00058141030604,-0.00538594229147,-0.00101798016112,0.00285393511876,0.00514286896214,0.00423550698906,-0.00563373602927,-0.00317805958912,-0.00330203468911,-0.000980044947937,0.00165065017063,-0.00392017886043,0.00470269843936,0.00313598825596,-0.000909504014999,0.000952475063968,0.00047542329412,0.000932549301069,0.00407460564747,-0.00338803394698,0.00208004517481,-0.00444052414969,-0.000458963942947,0.00153868366033,-0.00550946965814,-0.00442886725068,-0.00461881887168,-0.00141411437653,0.00138227781281,0.00561062386259,-0.00277791032568,-0.00411349534988,-0.000961070589256,-0.00400028796867,-0.00537332845852,0.000725905585568,0.00429454306141,0.00408283667639,-0.00451123621315,-0.00398333044723,-9.79068718152e-05,-0.00149323034566,0.00229867571034,-5.46881783521e-05,-0.00542355142534,-0.00243345671333,0.00454219244421,0.000132648056024,0.00337144359946,-0.00110223132651,0.00200343411416,-0.00374010344967,0.00267699547112,0.00324288709089,-0.00463182292879,-0.00357831222937,-0.000417105737142,0.00155651022214,0.0015571040567,0.00190435920376,0.00242693303153,6.7703978857e-05,0.00084888265701,-0.00555600691587,-0.00376730179414,-1.27178427647e-05,0.00278048752807,0.00349660986103,0.00259224022739,-0.000150192092406,-0.00246957642958,-0.000621544371825,-0.00554485805333,0.001111199148,-0.0048068719916,-0.00400604028255,0.00142799445894,-0.00549904117361,0.00083524978254,0.00156820495613,0.00326309679076,-0.00488076545298,-0.00561685673892,0.00302091334015,-0.00237033725716,0.00438170367852,-0.00355854816735,0.000970353372395,-0.00441291788593,-0.00109677575529,0.00432261405513,0.00122767686844,0.00214660423808,-0.00309587176889,0.00478268880397,0.00139880832285,-0.00445367814973,-0.00547508569434,-0.00547086959705,-0.00507184397429,0.00465679727495,-0.00159867899492,-0.00227875518613,-0.000940987491049,-0.00101983721834,-0.00295423506759,-0.00461256457493,-0.0044226385653,0.00112416455522,-0.0011638617143,0.0045532300137,-0.000407383718994,4.21177137468e-05,0.00484483409673,2.11828519241e-05,2.49225104199e-05,-0.00154471432324,0.00238163210452,-0.00121612125076,0.00100113532972,-0.00059230189072,0.000327497400576,0.00370020209812,-0.000972958339844,-0.00304957502522,0.000797599903308,0.00494941649958,0.00218713702634,-0.00216437410563,0.00523759750649,-0.00177595298737,0.00546665955335,-0.00348018249497,0.00565210543573,-0.00479274755344,0.00241361162625,0.0027211799752,0.00203299429268,0.00314147933386,-0.00031592824962,-0.00503942882642,-0.00160614890046,0.00161137990654,0.00165583612397,-0.00344425882213,-0.00279057607986,-0.000148184699356,0.00258713657968,0.00399132305756,-0.00467341719195,0.00481471931562,0.00483858585358,-0.00556161440909,7.46971854824e-05,0.000987584004179,0.000609538226854,0.00131126877386,4.01118595619e-05,-0.00232920795679,-0.00456914305687,-0.00329514010809,0.00271883187816,-0.0029255556874,0.00373031781055,-0.00108898908366,-0.000963757804129,0.00416988879442,-0.00322732003406,-0.00350625091232,0.00549178384244,0.000462388794404,-0.00349605712108,-0.00377554120496,0.00409259460866,0.0011321878992,-0.00434953346848,0.00437803985551,-0.000631049450021,0.00553640956059,-0.00246446439996,0.000329060450895,-0.00369306025095,-0.00067854556255,-0.00365422293544,-0.00217645661905,-0.00259895063937,-0.00244938046671,0.00531555060297,-0.00521561875939,-3.22784544551e-05,0.00146412465256,0.00182045693509,0.00288089248352,0.00295349117368,0.00515315774828,0.00289357639849,0.00366269121878,0.00036810094025,0.00178554141894,-0.000244620576268,-0.00252537243068,-0.00210738927126,-0.001574261114,-0.00179912720341,0.000377696211217,-0.00285084615462,0.000190874561667,0.00470918323845,-0.00106054509524,-0.00313330069184,-0.00172889931127,0.00426421826705,0.00499705411494,0.004375054501,-0.00240170862526,-0.00126491975971,0.00537332333624,-0.001988515025,-0.00409155292436,-0.0024606755469,0.00524944346398,-0.000947997614276,0.00490914424881,-0.00447347061709,0.00301149557345,-0.00459489692003,-0.00341723044403,0.00131598266307,-0.000737671274692,0.0018877730472,0.00535604497418,-0.00505430763587,-0.00348360766657,0.00158871267922,0.00448673358187,0.00336870667525,-0.000385974912206,0.00277879647911,-0.00329737132415,-0.00549509935081,0.000795274158008,0.00354547146708,-0.000748977705371,0.000786589283962,-0.000876312144101,0.000162317286595,0.00434943009168,-0.000243563728873,-0.00556540116668,0.00339403166436,0.00133464939427,0.00260869949125,0.00453874468803,-0.00241366680712,3.83203332603e-05,0.00116240628995,-0.00174456182867,0.00391663564369,0.00223752181046,0.00264276238158,0.0034862679895,-0.00273174676113,0.00278109777719,0.00309956097044,0.00387505767867,-0.000125947131892,5.10316749569e-05,-0.00453974679112,0.00398515723646,0.000382331898436,0.00107145751826,-0.0042767226696,0.00115498481318,-0.00517509318888,0.00478891981766,0.00411420734599,-0.00345269287936,0.00106429192238,0.00116489862558,0.00343461381271,0.00290868384764,0.00558082433417,-0.00168286403641,-0.00424062041566,0.000834434758872,0.00298867118545,-0.0024183455389,-0.0029790122062,0.00342359696515,0.00287256599404,-0.0033505843021,0.00417856546119,-0.0041269515641,-0.00441517168656,-0.00168036017567,0.0043737613596,0.00221305643208,-0.00118725269567,-0.00387232238427,0.00241695553996,0.00112425955012,0.00551744876429,0.00300587387756,-0.00449566589668,0.00258359126747,-0.00273938965984,0.00522586842999,-0.0054324278608,-0.00295532308519,-8.15905514173e-06,-0.00475633377209,-0.00176001910586,-2.80730109807e-05,-0.000596844532993,-0.000442470482085,0.00428840657696,6.25734464847e-05,0.00498974137008,-0.00398031901568,-0.00248186220415,0.00177252257708,-0.0024494540412,-0.0017240504967,0.00453726248816,0.000438784452854,-0.00186668871902,0.00313161639497,-0.0048517123796,0.000722643046174,-0.00452378066257,-0.0036510634236,-0.0049446625635,0.00454466836527,-0.00510571431369,0.000188381833141,-0.0031068904791,-0.00131348974537,-6.89775552019e-05,-0.000561942113563,0.0028078565374,0.00465912465006,-0.00225641950965,-0.00537413125858,0.00445630587637,0.00541556626558,-0.000751661427785,-0.000497964443639,-0.00402162224054,-0.000274845719105,-0.00222163880244,0.00559191359207,-0.00356152793393,-0.00137088727206,0.00131921027787,-0.00174929737113,-0.000287285947707,0.00535563519225,9.31828326429e-05,0.00464145420119,-0.00516445795074,-0.00429683085531,0.00502806250006,-0.00419601937756,0.00267666997388,-0.00060857553035,-0.00105138716754,0.00180332863238,0.00257649691775,0.00488730240613,-0.00274595152587,0.00224273325875,-0.00178029062226,0.00246352213435,-0.00404364150017,-0.000477087975014,-0.00357422907837,-0.00184633536264,0.00244109099731,-0.00301206414588,0.00209348462522,-4.29293904745e-05,-0.00460989773273,-0.00127818726469,0.00417758850381,0.005535421893,-0.00147914350964,-0.00503009231761,-0.004178524483,0.00326109398156,0.00176446244586,-0.00242805900052,-0.00122628139798,0.00352101540193,-0.000979630392976,0.00289490679279,-0.00231279549189,0.00254480703734,-0.000377103977371,0.000515678839292,0.00111925194506,-0.000556004117243,-0.000380060897442,-0.00264629046433,0.00549544068053,0.00459145009518,0.000312491174554,-0.00525911338627,-0.00374624202959,0.00400484632701,0.00487409578636,-0.00382691808045,0.00265459506772,0.00139390653931,-0.00222026300617,-0.000719747855328,0.00200704624876,-0.00450553465635,-0.00351338111795,-0.00527418358251,0.00455040065572,0.000838177802507,0.000267524068477,0.00233462452888,0.00552450446412,-0.00370334042236,-0.0041458630003,-0.00231767375953,0.00457007344812,-0.000998441479169,0.00332130817696,-0.0033563519828,-6.96452189004e-05,-0.004209571518,-0.000982172903605,-0.00268516433425,0.000561599736102,0.00317326304503,0.00495938956738,-0.00244138669223,0.00275187240914,0.00436258083209,-0.00423916382715,0.000974313297775,0.00126732012723,-0.00257096951827,-0.00539632840082,-0.00274833687581,0.000960761564784,-0.00342967221513,-0.00240181316622,0.00235365331173,-0.00114708580077,-0.00491109071299,-0.00113745045383,0.00565363420174,-0.002699151868,-0.00265158433467,-0.00372993410565,-0.00257943454199,0.000847920775414,0.00525594968349,0.00122038123664,-0.00101668620482,-0.00124524440616,-0.00537693547085,-0.00562178110704,0.00336340046488,-0.000108230888145,-0.00527501199394,-0.002416389063,-0.00161749008112,0.0032061827369,-0.000738877861295,0.00327416067012,0.00151514296886,-0.00527586182579,0.00530248787254,-0.00359907909296,-0.00253409077413,0.00350018893369,-0.00350403296761,-0.00111543317325,0.00412995368242,0.0015551187098,-0.00223489664495,0.0016317605041,0.00353784719482,-0.00108374026604,0.000813433725853,0.00552007509395,0.00525545934215,0.00010479438788,-0.00456383405253,0.0022717830725,-0.00261357915588,0.00191886129323,-0.00167359446641,0.00247614039108,-0.00149755645543,0.00499126594514,-0.00410557538271,-0.00487747928128,0.00318213389255,-0.00111311150249,-0.000386628933484,0.00490778358653,0.00101931451354,0.00181364011951,-0.00543084740639,0.00193062180188,-0.00125984300394,-0.000447302270913,0.0034856942948,0.000271610013442,0.00550770759583,0.00335885304958,0.00258748861961,0.00100555922836,-0.000987809267826,-0.00505299959332,-0.00544162141159,-0.00512204552069,0.00519086280838,-0.0019962170627,0.00227100565098,0.00106918253005,0.000813103455584,0.000898749451153,-0.00223271618597,0.00437329057604,0.0047427136451,0.00163687218446,0.00411791121587,-0.00497261853889,-0.00451571075246,0.000670543638989,0.00392064079642,-0.00208428432234,0.000546053284779,-0.00553823309019,0.00550486380234,0.00302127958275,-0.00156443635933,0.00546397781,-0.00460592564195,-0.000402563717216,-0.00498559651896,-0.0018635536544,-0.00317065580748,-0.00207175896503,0.00506140524521,-0.000820786575787,-0.00197779177688,0.00159421632998,0.00207586679608,0.00547252641991,0.000523286522366,0.00285826413892,-0.00132987974212,-0.0037171812728,-0.00079084339086,-0.000915894226637,-0.000895131437574,0.00221211602911,-0.00106104405131,0.00513878185302,0.00546203553677,0.000267724972218,0.000664398365188,-0.00104090932291,-0.00162927084602,0.00549116265029,-0.0051902695559,-0.00101308804005,-0.00393875408918,0.00256211985834,-0.00345137575641,0.00435276702046,-0.00141574128065,0.00472027482465,0.00550516135991,0.00306969112717,0.00139608373865,-0.00395507831126,0.00490015698597,0.00313408416696,-0.00239306665026,-0.000352642586222,-0.00488494336605,0.00180132314563,-0.00423454726115,0.00171597499866,0.00194238289259,-0.00198028958403,0.00507570244372,0.00315688527189,-3.42902858392e-05,0.00473541021347,0.00402619596571,0.00217608362436,-0.00392127363011,-3.04214390781e-05,0.00412320578471,0.00123390590306,0.000517254811712,0.00514992279932,-0.0054637491703,-0.00551467202604,0.00444430857897,-0.00521516101435,-0.00189078005496,0.00479717226699,0.00216403300874,0.00167788565159,0.0017778261099,-0.00205943337642,0.000347736058757,0.00147211563308,-0.00219430890866,0.00334217469208,-0.00201303535141,-0.004843252711,-0.00337321101688,-0.00103314267471,0.00461640488356,-0.000950009736698,-0.00463565811515,-0.00342972064391,0.000505280971993,-0.00364227266982,-0.00492791784927,0.00243156612851,0.00321765104309,0.00396717106923,0.00389145524241,-0.00136271468364,0.00265368819237,0.000947130378336,-0.00538676604629,-0.0011100359261,-0.00505339400843,-0.00470878044143,-0.00501809222624,0.00521417334676,0.00389414327219,-0.000686346495058,-0.00284719537012,-0.00483209267259,-0.000775721448008,0.00113695964683,0.00336157507263,-0.00506832497194,-0.000926427775994,0.00539412163198,-0.00428627664223,-0.0011250883108,-0.00254123052582,-0.00413570506498,0.00383474235423,0.00223107356578,-0.00099779246375,-0.00147821102291,0.00370814371854,-0.00462476350367,-0.00399098591879,0.00460015796125,0.0035899116192,0.00311129097827,0.00140504445881,-0.00234353542328,0.00491939904168,-8.87142523425e-05,-0.0024773387704,-0.0015167434467,-0.00545989256352,-0.00276518403552,-0.00352506409399,-0.00411755265668,-0.00528690870851,-0.00308504910208,-0.00447980500758,-0.00513988686725,-0.00409760233015,-0.00336172850803,-0.000947016989812,0.000949576031417,-0.00200643669814,-0.00405310839415,0.00498196808621,0.000171156687429,0.00273765460588,0.00220117880963,-0.00242950441316,0.000679572287481,0.00115790474229,-0.001673095976,0.00193356559612,0.00328940409236,-0.00153266650159,-0.00548216514289,-0.00170086952858,-0.00432999618351,-0.0038913693279,-0.0015129892854,-0.0033032046631,0.00492002256215,0.00173042761162,0.000210345999221,-0.00554085848853,-0.00447918009013,0.003264561994,-0.00124396046158,-0.00513642281294,0.00368388183415,-0.00222872779705,-0.00128248205874,0.00536690792069,-0.00547496648505,0.00250572175719,0.00507877767086,-0.00492828758433,0.00414244923741,-0.000943864812143,0.00427721999586,-0.00216467445716,0.00546070886776,0.00166592095047,0.00144021539018,0.00346205127425,-0.000713861081749,-0.00272553996183,-0.00267737079412,-0.00191218836699,0.00133008032572,0.00382937747054,-1.59085016094e-06,-0.00108853634447,0.00332574918866,-0.00237506791018,0.00214060698636,-0.00445359898731,-0.00436953548342,0.00163246167358,-0.00471425335854,-0.00389673700556,0.00140986102633,-0.000695117516443,0.000696715374943,0.00539647135884,0.00149573292583,0.001030866988,-0.0013516676845,0.00148347357754,-0.00550291314721,0.00065175909549,-0.00487088924274,-0.00316040380858,0.000717346789315,0.001902665128,-0.00129898288287,-0.00091246329248,-1.87272544281e-05,0.00293301744387,-0.00545060355216,-0.000594907440245,-0.00548848230392,-0.00204132520594,0.000228103002883,-0.0047462079674,-0.000163540462381,0.00480436813086,0.00209936965257,0.00319511769339,0.00091290747514,0.00448531052098,-0.00398918520659,-0.000564088579267,0.00110084691551,0.00422658072785,-0.00216717878357,-0.00563709903508,0.00536792492494,-0.00535612599924,-0.0039270138368,-0.00087772635743,-3.73481634597e-05,0.0037855245173,-0.000586324022152,0.000540003005881,-0.00338841462508,0.000785192241892,-0.00171112013049,-0.00453396467492,0.00505135999992,-0.00472676986828,0.00201450660825,0.00461867824197,-0.00362406880595,-0.00296926312149,-0.000825568044093,-0.00232028984465,0.00293211895041,-0.00182681623846,0.00549654616043,0.00405998295173,0.00447337329388,-0.00493048783392,-0.00365681154653,-0.00373530294746,0.00194758083671,-0.00551568856463,0.00346796726808,0.000535137893166,0.000753004744183,0.000425355567131,0.000402441102779,-0.00341323460452,-0.00244878348894,-0.000137195776915,0.00201370334253,-0.00257571600378,0.00346433743834,0.00351475947537,-0.00255393330008,0.000681952224113,-0.0017053973861,-0.00349459634162,0.00346279959194,0.00556001253426,0.000745862664189,0.00468336232007,0.00161031924654,0.00074592436431,-0.000221747366595,-0.00298554962501,-0.00469805020839,-0.00064921961166,0.000696002622135,0.000109585169412,0.00221406202763,-0.00347954966128,-0.0016466260422,-0.000952776113991,-0.00354260625318,0.0045978454873,0.0020542871207,-0.00461290869862,0.00240805395879,0.000542257505003,0.000272608769592,0.00553996069357,0.00133843137883,0.00448776129633,0.00467796390876,-0.00450487667695,-0.00555705977604,-0.000730001251213,0.00304677058011,0.00366765493527,0.00325265736319,-0.000594068493228,0.00282832351513,0.00247570220381,-0.00210319436155,-0.00374384131283,0.00137588498183,0.00200531817973,0.000771535444073,-0.00324011733755,-0.00252218940295,0.00236036418937,0.00523387221619,0.00503274099901,0.000225246476475,0.00437382329255,-0.00531756831333,0.00408652611077,-0.000266698480118,0.00318622775376,-0.00558742182329,0.00417031114921,0.0010769009823,-0.00293426704593,-0.00172156619374,-0.00338164810091,-0.000851778895594,-0.00191916432232,0.000393074995372,0.00356224318966,0.00545607879758,-0.00280744209886,-0.00444638356566,-0.00117682944983,-0.00402748864144,0.0037821799051,1.55727429956e-05,0.00135929859243,-0.0039476538077,0.00282523129135,0.00535771995783,-0.000196291977772,0.00523192761466,-0.00525809917599,-0.0052467151545,0.00520430738106,0.00226732017472,-0.00351709546521,-0.00153626454994,9.05959750526e-05,0.00229415576905,0.00387023179792,-0.00471601588652,0.00177332980093,-0.000260408211034,0.00110673473682,9.91300330497e-05,-0.000554866855964,-0.00332715222612,-0.000310142757371,-0.00350641761906,-0.00514647411183,-0.00142404600047,-0.00536872260273,0.0007098732749,-0.00483229989186,-0.000703412108123,0.00543167069554,-0.00553913973272,-0.00150279595982,0.00196181260981,-0.00385396089405,0.000689412408974,-0.00273147807457,-0.0031319768168,0.00446885637939,-0.00335232843645,-0.00139311130624,-0.00373315718025,-0.00244085141458,-0.00233657937497,-0.001956010703,0.00159774266649,0.00274569052272,0.000123332458315,0.0012518549338,0.00354483746924,0.00565125560388,-0.000489118974656,0.00493749184534,-0.000106188541395,0.00319125992246,0.000830633623991,0.00434504076838,-0.000577327620704,0.00221679033712,-0.000378201104468,0.00403963029385,0.00559256412089,-0.00289965816773,-0.000287443806883,-0.00473207328469,-0.00405660597607,0.00485513685271,0.00049585243687,-0.00118322228082,0.00194200081751,0.000683270511217,-0.00238595972769,-0.00308816554025,0.00102337601129,-0.0035217765253,-0.0040768943727,-0.00205050362274,0.00408871239051,-0.00523422285914,0.00377128692344,0.00137085525785,-0.00519405165687,0.00115674699191,-0.000833535043057,0.00386016024277,0.00460721226409,-0.00241115223616,0.00321611994877,-0.00214756722562,-0.00230774725787,-0.00347235891968,0.00202119513415,-0.00269161746837,-0.000394320202759,0.00353186554275,0.00330329034477,0.00402162922546,-0.0038297555875,0.000985120423138,0.00469321850687,-0.00517549877986,0.00333280395716,-0.00286673032679,0.00192088168114,0.00246079289354,0.00481468578801,0.000102060294012,0.00394005142152,-0.00513853225857,-0.000895838660654,-0.000681318400893,0.000435359601397,-0.000208415673114,0.00529387500137,-0.00476293871179,-0.00265440694056,0.00530138099566,-0.000615889381152,0.000807205971796,-0.00473462324589,-0.00243899156339,-0.00520243123174,-0.00409602187574,0.0015101187164,0.00298353889957,0.00418731523678,-0.00280745467171,-0.00188708596397,0.000787416473031,-0.00470460625365,0.00347078498453,-0.0001862031786,0.00526625756174,-0.0043243188411,-0.00414373818785,-0.00170947413426,-0.00331298471428,0.00222553964704,0.00505481241271,-0.00463431421667,-0.0029118983075,-0.002960951766,0.000105242885184,-0.000539779488463,0.00256771338172,0.00263289175928,0.000825149356388,0.00103169062641,0.00387310422957,-0.00116284086835,-0.00551147572696,-0.00324229290709,-0.0052511934191,-0.00120172661263,-0.00160494958982,-0.00453580729663,0.00288609368727,0.000602464773692,-0.00309900706634,0.00293247634545,0.00190132064745,-0.00348464492708,0.0054625608027,-0.0036448747851,0.00307464343496,0.00529746478423,0.00255225948058,0.00187693396583,0.00456286361441,-0.00260689249262,-0.00251614698209,0.00159967993386,0.00432443246245,0.00133072456811,0.0053975735791,-0.00312961521558,0.00368829700164,0.0048346570693,-0.000821848458145,0.00522721000016,-0.00336430617608,0.00512376520783,0.00455812504515,-0.00490207690746,0.000244752911385,0.000329618458636,-0.0050058006309,-0.00520304124802,-0.00559241138399,0.000280631764326,-0.000405629427405,0.00498381489888,-0.00177954672836,0.00179259898141,-0.0055653587915,0.00185179046821,0.00467766541988,-0.00163950526621,-0.00209982553497,0.00142770563252,-0.00193590880372,-0.00110070954543,-0.00256273848936,-0.00175119377673,0.00203129043803,0.00477849366143,0.000942441576626,-0.00553741818294,-0.00266702915542,0.00511615909636,0.00464221183211,-0.00434325123206,0.00462066615,0.00525511289015,-0.001980912406,0.00227546342649,0.000680875906255,-0.00183985882904,-0.00391712365672,-0.0015022829175,0.00483957864344,0.00352174462751,-0.00191212142818,0.000541537359823,-0.00106083159335,-0.000379290897399,0.00295598362572,0.000488743942697,-0.00360395736061,-0.00260905665345,0.000769016274717,0.00218270160258,9.43209524848e-05,0.00136175437365,0.00327449245378,0.000515775464009,0.00539817707613,-0.00298740481958,0.00474802125245,-0.00285071204416,0.000360356963938,-0.000495995627716,-0.00143474538345,0.00523476302624,-0.00257240049541,0.00197946815751,0.00344035448506,-0.00342373596504,0.00535225123167,0.000529566255864,0.00468888599426,0.00185525475536,0.00169184478,-0.00174368137959,0.00306180911139,-0.00531450007111,0.000633408373687,-0.00528787728399,-0.00218143058009,-0.00456245103851,0.00465614860877,0.00145250651985,0.00190761941485,0.00397251779214,0.00263717770576,-0.00424698926508,0.00133127998561,0.00540898321196,-0.00323021505028,0.0013568616705,0.000722522148862,-0.00122195796575,0.00514381332323,-0.00162047392223,-0.00459106545895,0.00523322960362,0.00259501184337,-0.00177822739352,-0.0024785597343,0.00484297703952,-0.00255727046169,0.000423354707891,-0.00321982079186,0.00560263590887,0.00305057968944,0.000767974590417,0.00278278416954,0.00471111014485,0.00523980287835,0.00323727331124,0.00395013950765,-0.00115243322216,-0.00121996959206,0.00348912761547,0.00293830339797,0.0045366063714,-0.00414688512683,0.00216025882401,0.00167219236027,0.00337807927281,-0.00537324137986,0.00369164347649,-0.00195989804342,0.00211853650399,0.00132064486388,-0.000673500006087,0.00278454693034,0.00521774310619,-0.00199324544519,0.00281180045567,-0.00209433631971,0.00391103327274,-0.000706525985152,-0.000570920412429,0.00307690235786,-4.05840182793e-05,-0.00263582332991,0.00560583546758,0.00136217288673,0.00164440681692,0.00166061113123,0.00433786725625,-0.00357129867189,-0.00498152384534,-0.00127786991652,0.00073710369179,-0.0024197914172,0.00214255717583,-0.00481458706781,0.00329027255066,0.00246912124567,-0.00323125673458,-0.00227571860887,0.00347446021624,0.00309384753928,0.00355095625855,-0.00200673821382,0.00531264115125,0.00243802485056,-0.00491312379017,-0.000248574884608,0.00186372245662,-0.0037434278056,0.00454602017999,0.00287683913484,-0.00472917966545,0.00467567704618,-0.0010776782874,-0.000533824262675,0.00320472591557,0.0016317992704,-0.00070274627069,-0.00271431286819,0.000194691398065,0.000898909114767,0.00148407847155,0.00119158136658,0.0013299852144,-0.000270704797003,0.00070340273669,-0.00238624261692,-0.00385914952494,0.00121274671983,-0.00511852325872,-0.00491259293631,-0.00285348086618,-0.00345265353099,-0.00141980242915,-0.00145174318459,-0.00432857638225,-0.00286264787428,-0.00559821352363,-0.00168150558602,0.00335546024144,-0.00264036026783,0.00162453704979,-0.00453886063769,-0.00551096722484,-1.44834621096e-05,-0.000431804626714,-0.00348432757892,-0.00240940833464,-0.00530305039138,0.00337092624977,-0.00224321917631,-0.00316843879409,0.00344848493114,-0.0052057672292,-0.00243270723149,-0.0026788781397,-0.00267637474462,-0.00551983388141,0.00491858180612,0.00412112986669,-0.000963638653047,-0.000613768643234,0.000276323378785,-0.000241986810579,0.00315937376581,-0.000127723949845,-0.00351525773294,-0.00432771677151,0.00473262602463,-0.0051032975316,0.00449843611568,0.00215696357191,-0.0010743123712,-0.00353391165845,-0.00213972153142,0.000340983388014,0.00177673308644,0.00216819043271,-0.000592757191043,-0.00142178917304,0.0030370624736,0.00481337402016,0.00468957331032,0.000586856680457,-0.00475686322898,-0.00482201389968,-0.0010967151029,0.00263571389951,-2.7216030503e-05,0.00144288607407,0.00388476252556,-0.00519461743534,0.00479496596381,-0.00190922536422,-0.00512169953436,0.00379555439577,0.00491184694692,0.00304016517475,0.00344599829987,0.00420118961483,0.000255694292719,0.00204331148416,-0.00241183792241,-0.00282741873525,0.00123452860862,0.00265552895144,-0.0011602655286,-0.00112467654981,0.00513876974583,0.000211439546547,0.00550037994981,0.00410462077707,0.001581027871,-0.0055483430624,-0.00230558146723,-0.00092925404897,0.00172983587254,-0.00117938243784,0.00370865711011,0.00184389622882,-0.00172624445986,0.00321808038279,-0.00222451402806,-0.00494164507836,-0.00370048405603,-0.00562058854848,0.00375987961888,0.00143921526615,0.000799897010438,0.00183426612057,0.00173872383311,0.000742586620618,0.00387364812195,-0.000665728759486,0.00344849517569,0.00324396905489,-0.00339474296197,-0.000519809313118,0.00379008776508,0.00374397402629,-0.00537911755964,-0.00312851695344,-0.000857772422023,-0.0051173879765,-0.00270367274061,-0.00272995885462,-0.00322444317862,-0.00116551341489,0.00354218226857,-0.00289038638584,0.000930913549382,0.000653974770103,0.00359773891978,-0.00119560433086,-0.00312268221751,0.00442991359159,0.0037676137872,0.00137680268381,-0.00459631066769,-0.00546832708642,-0.00358575489372,-0.0034272717312,-0.00411008717492,-0.00268612196669,-0.00183009414468,0.00287982914597,0.0023719756864,-0.00447038980201,0.00539761921391,0.0028539057821,-0.0038026839029,-0.00424293568358,-0.00466070463881,0.00262379320338,-0.00297887530178,-0.00482556410134,-0.00088095117826,0.00236271717586,-0.0022069637198,-0.000193284533452,-0.00347200548276,-0.000798171327915,-0.00159200176131,-0.000744252756704,-0.000384771439712,-0.00460722390562,-0.00459514046088,-0.00270412350073,-0.00434196507558,-0.00279258913361,-0.00537332613021,-0.00168501108419,-0.00323779461905,0.00443672481924,0.00405243784189,-0.00225397851318,-0.000274481950328,0.00515640340745,0.000275206170045,0.00394252454862,0.00369303929619,0.00499240541831,-0.00219422508962,-0.00515954103321,-0.00447535421699,0.000808886485174,0.000345091946656,-0.00227614841424,-0.00283854594454,0.00237026275136,-0.0018007834442,0.00117803586181,0.00240306206979,-0.000783590890933,-0.00346402637661,0.00408202596009,-0.00459330994636,0.00372800463811,0.00380954728462,0.000805477437098,0.00146667961963,-0.0016027103411,0.00386501080357,-0.00266911811195,0.000678567274008,-0.00563056627288,0.00497602205724,0.00507161300629,0.00238189892843,-0.000865228532348,-0.00363127933815,-8.25334209367e-05,0.00329769263044,0.00119303364772,0.000313581258524,0.00395424198359,-0.00210987683386,0.00407317234203,-0.00068158947397,-0.00562324700877,0.00262563652359,0.00427535921335,-0.00017380178906,-0.000508675700985,0.00345670874231,0.00435371696949,0.00536733306944,-0.00174220488407,0.00107367383316,0.00365427439101,0.00036316330079,-0.000428291939897,0.000816383224446,-0.00161536771338,-0.00347869028337,-0.004897124134,0.00124659074936,-0.0013635980431,0.00433313008398,-0.00312947225757,-0.00213768030517,0.00532265100628,0.000639081466943,-0.00173016719054,0.004083274398,0.00275445682928,0.000829613069072,0.0044021406211,-0.0045885364525,-0.00119038089179,0.00351399392821,-0.00128709257115,0.00482771731913,-0.00392638565972,-0.00184457935393,-0.000837077037431,0.00211655604653,-0.00344213843346,-0.00553941726685,0.00539052812383,0.00451131584123,-0.00225636409596,-0.000184215896297,-0.000122694604215,0.00417746324092,0.00110018416308,0.00369369843975,0.00466117588803,0.000748464313801,-0.00242284103297,-1.18937141451e-05,0.00396999903023,0.000948187313043,0.00447714608163,0.00447391439229,-0.00142923300155,-0.000584009743761,0.00201434292831,-0.00439506163821,-0.000386756117223,-0.00396175542846,0.00393701624125,0.00500924093649,-0.00405039498582,0.00189481826965,0.00154656299856,0.00294331973419,0.00221633003093,-0.00319580221549,-0.00235812505707,-0.00378272030503,0.00476444885135,0.000249282515142,0.00538650201634,-0.000570505857468,0.000598671555053,0.00327359163202,0.00336325145327,-0.00303741055541,-0.00239141145721,-0.00454509956762,0.00345642142929,0.00332520552911,-0.00473224325106,-0.00274024251848,-0.000564335030504,0.000474905071314,0.000257418811088,0.00546467723325,0.00298898527399,-0.00437121745199,-0.00233237678185,-0.00174524309114,-0.00208762218244,0.00323571823537,-0.00157308671623,-8.20618442958e-05,0.000381821388146,-0.00259230076335,-0.00200123665854,0.00316950120032,0.00414966838434,-0.00523072155192,0.0011925305007,0.00151229498442,0.00268681463785,0.00219538947567,0.00427112262696,-0.00476271379739,-0.00125865091104,0.00319312745705,0.00392233673483,-0.00265624606982,0.000967826112173,-0.00360613130033,0.00397110404447,0.00260901171714,-0.00313912308775,0.00140301510692,0.000108878899482,-0.0027243164368,0.00444773212075,-0.00397924985737,-0.000365269719623,0.000938865880016,0.00366103928536,-0.00395276024938,0.00123710581101,-0.00557670369744,0.00365010229871,-0.00299673248082,0.00250057154335,0.00115459354129,-0.00508408993483,-0.00357909756713,-0.00262352731079,0.00437540840358,-0.000214414176298,0.00467814737931,-0.00511439796537,-0.00557665899396,0.00507101137191,0.0025344917085,0.00320611987263,0.00470416573808,0.00548119051382,-0.00454622320831,-0.00386126688682,-0.00351887196302,0.00360283511691,-0.00163081591018,0.00105711666401,0.00401902059093,0.00207349378616,-0.00491137895733,-0.000611772935372,-0.00488780019805,-0.000236689971644,-0.00317133124918,-0.00563619844615,0.00354335224256,0.00530989887193,0.00525055313483,-0.00226804567501,0.00372004439123,0.0020240212325,0.00339557649568,0.00391753856093,0.00543314032257,-0.00393532216549,0.00305225676857,0.00264981109649,-0.00239783921279,-0.00121225405019,-0.00365262618288,0.00467514665797,0.00429142545909,0.00129164429381,0.000133764653583,-0.00301797199063,0.00327682914212,-0.00555849075317,-0.000418509618612,0.00407904712483,0.00134199729655,0.00153010780923,-0.0048517761752,-0.0024094528053,0.00196816911921,-0.00509021198377,-0.00190934794955,-0.00164918182418,-1.22043893498e-05,-0.00155383546371,-0.000516514584888,0.000534635910299,-0.00419908203185,-0.00360969547182,0.003762913635,-0.000451711908681,-0.00163459463511,-0.000744398450479,-0.00367366941646,-0.00293839769438,0.000178708811291,-0.00159193191212,-0.00027433023206,-0.00395762454718,-0.00388114410453,-0.0013090679422,-0.00136655126698,0.00433758459985,-0.00527208903804,0.00557594839483,0.00516514666378,0.000480963353766,0.00247673434205,0.0049246721901,-0.00281007005833,-0.00208148988895,-0.00439661554992,0.000724601733964,-0.00384796014987,0.004874588456,-0.00077106570825,0.00474811019376,-0.00333177065477,0.00219667237252,0.0016715117963,-0.00113166566007,0.00450678635389,-0.000734504777938,-0.0034071598202,0.00539602246135,-0.000658943783492,-0.00329813593999,-0.00153920636512,0.00128619419411,0.000138735878863,0.00153053528629,0.00183284003288,-0.00425573298708,-0.00209034909494,0.00281485402957,0.00170298491139,-0.00465135788545,-0.00208692252636,0.00488019920886,0.00409649498761,0.00193265546113,-0.00482646655291,0.00121368654072,-0.00551252625883,0.00182506383862,0.00261751189828,-2.79544638033e-05,-0.00560729252174,0.00188708107453,0.00361852557398,0.000974099733867,0.0023685998749,-0.0046290657483,0.00243788165972,0.00129438494332,-0.00190748181194,0.00209878850728,0.00164931989275,0.0011278106831,-0.00358176487498,-0.0023009381257,0.00555972196162,-0.000752718537115,-0.00497799366713,0.00451518641785,-0.00369458179921,-0.00108729326166,-0.00250656926073,0.00524868583307,-0.0013747503981,0.00236357818358,0.00111605052371,-0.00516399554908,-0.00130445917603,-0.00123992632143,0.00554217677563,0.00353062688373,0.00403632130474,-0.00210493686609,-0.00192928849719,0.000180058588739,0.0014850118896,0.00258494610898,0.00363093614578,0.00422342959791,-0.00537150539458,0.00335166859441,0.00125692947768,0.000366465508705,0.00145625323057,0.00432227784768,0.000515796476975,-0.0038159720134,-0.000711180851795,0.00480307312682,0.00355955795385,-0.00335397571325,0.00242503569461,-0.00275265914388,-0.00170891499147,-0.000347770605003,-0.000664900697302,-0.00531876506284,0.00310192559846,0.00392031017691,0.000353576644557,-0.0036942739971,-0.00284641073085,-0.00422137184069,-0.0037332160864,0.00425965664908,-0.000221103255171,-0.00439510447904,-0.00276990537532,0.00508573139086,0.000107960186142,0.000179972077603,0.000293168239295,-0.00438828626648,0.00532107241452,-0.00469505600631,0.00226505193859,-0.00499719427899,-0.000634621246718,0.00452238274738,0.00303851766512,-0.00186610443052,0.000583799846936,-0.00378158083186,0.00516056921333,0.00236272485927,-0.00141817890108,-0.00205545080826,-0.00295204855502,0.00324287964031,-0.000736132962629,-0.0019169485895,0.00458468403667,-0.00395220750943,-0.00266753975302,-0.00175244593993,-0.00271258340217,0.000968469830696,0.00114517414477,-0.00503170536831,-0.0040165707469,-0.00340595422313,-0.00485554384068,-0.00424005836248,-0.00294102821499,-0.00174283480737,0.00329664233141,-0.00318690063432,0.0019252266502,-0.00499636586756,0.00179192307405,0.00333514809608,0.00118779379409,-0.00337367644534,-0.00191489863209,0.00345338741317,-0.000767254387029,-0.00276561896317,0.00489442422986,0.00155502965208,0.00345868174918,-0.0053745508194,-0.00181467761286,-0.000462784053525,0.000990458182059,-0.00350353913382,-2.11885508179e-05,0.00210084579885,-0.00174070871435,0.00216664536856,-0.00124569376931,-0.000343311490724,-0.00413309782743,0.00171245913953,-0.00311564840376,0.00372032471932,0.000606269168202,0.000683312944602,0.00466588418931,-0.00375870289281,0.0003438758431,-0.00132894492708,0.00527573330328,0.00331270135939,0.00291454396211,-0.00334253767505,-0.00296714459546,-0.00532062305138,0.00156939274166,-0.00145752320532,-0.0021222946234,0.00155239435844,0.00371945928782,-0.00414638966322,0.0047367955558,-0.00526307197288,-0.00457521481439,0.00382619770244,-7.95392043074e-05,0.00496963318437,-0.000430633110227,0.00482114264742,-0.00294107641093,0.00131967861671,0.00559394760057,-0.00139839982148,-0.00563424825668,-0.00492643704638,0.00406280905008,-8.88468348421e-05,0.000418078183429,0.00338850705884,0.00352594559081,-0.00025238681701,0.00405153399333,-0.000354114337824,0.0019818963483,-0.00527339475229,-0.0040902546607,0.00397644424811,-0.00211016857065,-0.00186564377509,0.00184588192496,0.00104926561471,-0.00472130766138,0.00300794350915,0.00132837088313,0.00402069324628,0.000404288672144,-0.000965808168985,-0.00145185540896,-0.00560092087835,-0.00520102214068,-0.00416722567752,0.00485953269526,0.00430678902194,-2.90040770778e-05,-0.00361333088949,-0.00399871636182,-0.00275471084751,0.00462422240525,0.000245436676778,0.0034405507613,7.9124190961e-05,0.00124028371647,0.00124771462288,-0.00529647478834,-0.000616116216406,0.00411909120157,-0.000120502190839,-0.000728403043468,0.000302911124891,-0.00134541920852,0.00017690101231,-0.0041204188019,0.00529385870323,-0.00526502169669,-0.000187285317224,-0.00327652180567,-0.00499109271914,0.00171796861105,0.00548861548305,0.00282492907718,-0.00277867540717,-7.21043688827e-05,-0.00508801732212,0.000360735401046,-0.00452625658363,0.00333379604854,-0.00500970659778,-0.00554504571483,0.00409080507234,0.00500650377944,-0.00467221438885,-0.00249715568498,0.00273552839644,0.000451045896625,0.00508222403005,-0.00125040567946,-0.00561331864446,-0.00542763713747,0.000736353802495,0.00285359472036,0.00328903621994,0.00465605454519,-0.00306038185954,0.00269869971089,0.00370156485587,0.00380532373674,-0.000997161958367,0.00142749852967,0.000586077861954,0.00110531563405,-0.00246155750938,0.00207487214357,0.00237768772058,-0.00343489344232,-0.00063429295551,-0.000877702026628,0.00281795230694,0.00188571040053,-0.000266116083367,0.00172772468068,-0.00267828791402,-0.00302330986597,-0.00293769384734,-0.00531740440056,0.00216311053373,0.00549610937014,-0.00215668510646,0.00486277509481,0.00120727228932,-0.00310761178844,-0.00551678938791,0.00253233104013,0.00222526327707,-0.00305880443193,-0.001889060135,0.00450329296291,-0.00387313123792,0.00379545311444,-0.0037375963293,-0.000204087744351,-9.14947577257e-06,-0.000313015683787,-0.00239529949613,-0.00278617115691,0.00263883755542,-0.00253386422992,0.00124540843535,0.00392209272832,0.00381361483596,-0.00376081932336,0.00175234419294,0.00115916191135,-0.00246244994923,-0.00122462585568,-0.00242705107667,0.000421765464125,0.00343579403125,0.0042711221613,0.00252216565423,-0.000184472242836,0.00518235890195,0.00072493503103,-0.000239909160882,0.00403671758249,-0.00356336357072,-0.00386577495374,0.00319735053927,0.00419271597639,-0.00482803722844,0.00298869237304,-0.000851467077155,0.00230620638467,-0.00412476900965,0.005350924097,0.00431370409206,-0.0010606336873,0.00445027044043,0.00446797488257,-0.00043555998127,0.00505550950766,0.00539440382272,-0.00319497496821,-0.00489723170176,-0.00190667982679,-0.000123729434563,-0.00460313493386,-0.00406059017405,0.00533603643999,0.0026856821496,0.00424196757376,0.00532988738269,-0.00137532141525,0.00212671537884,-0.0035702821333,0.000586724432651,-0.0032778957393,-0.00383699010126,-0.00453789392486,0.0009051382076,0.00509005971253,-0.00426803342998,2.96970101772e-05,0.0021187288221,-4.32386477769e-05,0.00465953163803,-0.00376969645731,-0.00537682138383,-0.00131808000151,0.000630941300187,-0.00277227442712,-0.00374553212896,0.00345032708719,-0.00351780001074,-0.000644596992061,0.00514235533774,0.00127786770463,-2.22473863687e-05,-0.00157666229643,0.000234015489696,0.00265283463523,0.00365032767877,0.00169782270677,0.00328611629084,-0.00467310659587,-0.00551029015332,0.00263122911565,-0.00271370750852,0.00425116205588,0.000386027648346,-0.000262171815848,0.00306549388915,0.0027068045456,0.00229048798792,0.0021278813947,0.000154766283231,0.00480288406834,0.0043976996094,-0.00194823730271,0.00342583819292,0.00440295040607,0.00131779618096,0.000609117851127,0.00192421628162,-0.00382915581577,-0.00468527898192,0.0036006255541,0.000809785502497,-0.00428771693259,-0.000964920793194,-0.0023001069203,0.00422682939097,6.29069836577e-05,0.000857702747453,-0.00301180710085,0.00336282956414,0.00484445458278,0.00328851654194,-9.94797155727e-05,0.00377014605328,-0.00354698253796,-0.00438988022506,-0.000717292947229,-0.00361964246258,-0.002741943812,0.000943664985243,-0.00110531738028,0.00411829072982,-0.00312125822529,0.00559846963733,-0.00160861050244,0.000155412737513,-0.00417598243803,0.000877896382008,0.00519908033311,0.00280322809704,-0.00291074439883,-0.000665619561914,-0.000859847816173,-0.00456277327612,0.00434607826173,-0.00135715946089,-8.16722604213e-05,-0.00237713055685,-0.00394713226706,0.0045299413614,-0.00524745415896,-0.00114883517381,0.00259170960635,-0.00217799423262,-0.000627015193459,0.000712254375685,0.00558112328872,0.00290382141247,0.00526495976374,0.00216713035479,-0.00262815738097,-0.00241969781928,0.00362931494601,-0.000841262342874,-0.00149129913189,0.00500880461186,-0.00552783068269,0.000258388754446,0.00308640138246,0.00264644343406,-0.0015212794533,0.000379141420126,-0.00561443297192,0.000369894696632,0.000998232280836,0.00421384628862,-0.00329466769472,0.00365247717127,0.00244175386615,0.00185338594019,-0.00121810403652,-0.00152286607772,0.0022743307054,0.00551905110478,-0.0010941058863,0.00470920931548,0.00095465144841,0.00413892092183,-0.00321853510104,0.00294428854249,0.00376644334756,0.00373507360928,0.0031984646339,-0.00223473319784,0.000227425218327,-0.00228552543558,-0.00179638038389,-0.00226842868142,-0.00246052141301,0.00216625956818,0.00167826586403,-0.00336470734328,0.00214468012564,-0.00238317600451,-0.00339347915724,0.00277492171153,-0.00157133699395,0.000763365824241,-0.00341146672145,0.00126479961909,-0.00332247954793,-0.00378740672022,-0.00130379514303,0.00325580569915,-0.00368140428327,-0.00435423711315,-0.00531962607056,-0.000974134134594,-0.00248859426938,-0.00237457617186,0.0054254331626,-0.00348250311799,-0.000494008651003,0.0054754675366,-0.00533126620576,0.00219972105697,-0.00148157426156,0.0045678676106,0.00463394448161,-0.0012991958065,-0.00317332101986,-0.000837968022097,0.00523732788861,-0.0024956385605,0.00541840773076,0.0035874939058,-0.00265335221775,0.00326722208411,-0.0051172063686,0.00051670341054,-0.00163971306756,-0.000852884608321,-0.000333689589752,3.91028197555e-06,0.00174181512557,0.00219821673818,0.00535204820335,0.00294448877685,0.00209666276351,-0.00124274357222,-0.00434825383127,-0.00501558603719,-0.000279094441794,0.00187570787966,0.00167107884772,0.00509374821559,-0.00135615083855,0.00141810183413,0.00435891933739,-0.00111140287481,-0.000278455845546,0.00475580058992,0.000541330839042,0.0033599184826,0.0048978542909,0.000775671156589,-0.00444676121697,0.00360966450535,0.00356538989581,-0.0043811830692,0.000516297004651,-0.00017379502242,0.00389762013219,-0.00257608084939,-0.000861360167619,0.00115711207036,0.000167234742548,0.0051173591055,0.00518087949604,-0.00475897407159,-0.00231352797709,-0.00559612456709,-0.00095652602613,0.00180550594814,-0.000352492992533,-0.00492169288918,-0.00346562382765,-0.00372189818881,0.000101921017631,0.00198513222858,-0.00210072868504,-0.00420234072953,0.00335233332589,0.00402809260413,-0.00255119125359,-0.000920042803045,-0.0047510638833,-0.00310286460444,0.00299504888244,-0.00154816452414,0.00115983048454,0.00502113020048,0.00250478833914,-0.000550264725462,-0.00152913748752,-0.00352317234501,0.00287225027569,-0.00440627941862,-0.00498329894617,-0.00449218507856,-0.00293093780056,0.00141343381256,0.00406161230057,0.00554958404973,0.0025968705304,-0.00402350677177,-0.00253406306729,-0.00418169237673,-0.00436755269766,0.000745299970731,0.00457829609513,0.00206363853067,0.00337892072275,7.09823289071e-05,-0.000299604842439,0.00492611248046,0.00248920125887,-0.000480304646771,-0.00191359838936,-0.00462111551315,0.00360881234519,-0.00375954434276,0.000149239378516,0.00153163343202,0.00273922760971,-0.00473175477237,-0.00555326789618,0.00230880407616,-0.000530307064764,-0.00362002733164,0.00543572753668,0.0032797602471,0.000873135693837,0.0022706235759,-0.0039153075777,0.00521180406213,0.00559785636142,0.00166389287915,0.00188847992104,0.00229720305651,0.00185994408093,-0.000709519139491,0.000445338402642,-0.00247140950523,-0.00061564479256,-0.000737121968996,-0.00241013546474,0.0032271775417,-0.00103603233583,0.000570080126636,-0.00390326953493,-0.000297696358757,0.00294167199172,-0.000649928755593,0.000630224472843,0.00225804024376,-0.00127804011572,-0.00168161722831,-0.0047067143023,0.000907596957404,0.00231741508469,0.000896049081348,-0.00247036549263,-0.00270995125175,-0.00387285952456,-0.00514485873282,-0.000849451578688,-0.00386117398739,0.00213471893221,0.00519821373746,-0.00484530162066,0.00442054960877,0.00176065694541,0.00405105622485,-0.00392402894795,0.0045735090971,0.00515456451103,0.00457608979195,0.00320680974983,-0.00465381843969,-0.00317905610427,0.00465000933036,-0.00308077340014,-0.00174330489244,-0.00510419765487,0.00142696255352,0.000694352202117,0.00519992178306,0.00441482616588,4.57808746432e-05,0.00121488631703,-0.00100287701935,-0.0041771796532,0.0041371663101,0.000538676045835,-0.000865039997734,-0.00490080425516,0.00184861849993,-0.00115596398246,-0.00280644046143,0.0042385365814,-0.00359861319885,0.000148443636135,0.0033237952739,0.00392668275163,0.00358328968287,0.0044643371366,-0.00406424282119,0.00495992833748,-0.00555173493922,-0.00278035853989,-0.00472366111353,0.00501730199903,-0.000880449777469,-0.00210913154297,-0.00378461298533,-0.00391204003245,0.00126784527674,-0.00514153158292,0.00104621995706,0.00308512919582,0.00112184754107,0.00367229687981,-0.00267459102906,-0.00480131572112,0.00247840303928,0.0036898534745,-1.39326277804e-06,0.0036051669158,-0.000495863787364,-0.00342880864628,-0.000309574767016,-0.00323182530701,-0.000336293189321,-0.00400520022959,-0.00357541791163,0.00430956436321,-0.00436359364539,-0.0031377216801,0.00558281503618,0.000839478045236,0.000950287387241,0.00388053874485,0.000254936836427,-0.00316589465365,-0.000896740006283,0.00286325695924,0.0041912291199,-0.00258445204236,-0.00271141133271,-0.00196930579841,0.00106779637281,-0.0025244851131,0.00442278431728,0.00538242701441,0.00200287881307,0.00529525987804,-0.00242125429213,0.00354121462442,0.00199525244534,-0.00270004547201,-0.00207573082298,-0.000151063810335,0.0032751893159,0.00418630987406,0.0014921160182,0.00248294905759,-0.00269261724316,0.00270337122492,0.00116457662079,-0.00315538304858,0.00506786676124,0.000122962126625,0.00330704823136,0.000267144234385,0.00487280497327,-0.00407852837816,0.000499421090353,-0.00538863707334,-0.00344111723825,-0.00249549606815,-0.000329247355694,0.00360065419227,-0.000396581832319,0.000672305526678,0.00477525172755,0.0028810556978,-0.0051054507494,-0.00367780798115,-0.00524095445871,-0.0048922621645,-0.00184165663086,0.00255685788579,-0.00291016115807,-0.00123747170437,-0.0012195246527,0.00100153649691,0.00442320061848,0.00544436136261,0.00116330327,3.78022632503e-05,0.00203694496304,0.00188038556371,0.000250426382991,0.0026589424815,-0.000119022231956,0.00559317087755,-0.00511983083561,-0.000662394741084,-0.00118468713481,0.00303600076586,-0.00351620302536,-0.000765742792282,0.00221785996109,0.00114648020826,0.000489848898724,-0.00075583846774,0.00282910955139,0.00163533911109,0.0042165578343,0.00261417333968,-0.00408630957827,0.00133125158027,-0.00517024518922,-0.0012938316213,-0.00101609306876,0.00399231445044,-0.00363443815149,0.00160438672174,-0.00349684082903,0.00505449622869,0.00031485920772,0.0023356184829,0.00163834274281,-0.00223894789815,0.00451771123335,0.00142015400343,9.80153563432e-05,0.000302027503494,0.00439890474081,-0.00500374799594,-0.00127306370996,0.00384414894506,-0.0052480190061,0.00155505014118,-0.00111248379108,-0.00335898832418,0.00124098791275,0.00372467027046,-0.000387962936657,-0.00401306105778,-0.00221055676229,0.0054240077734,-0.00442388933152,-0.00386280356906,0.00551599310711,0.00429394608364,0.00231551611796,-0.00397281581536,-0.00296007469296,-0.00364266871475,0.00145422900096,-0.00117000075988,-0.00513976113871,-0.00238634063862,0.00405147532001,0.00332089001313,0.00159052899107,-0.00471273297444,0.00430179620162,0.000363840023056,-8.77870334079e-05,0.00488152634352,-0.00557996612042,0.000605600944255,0.00326670496725,-0.00495980214328,-0.00164139061235,0.0053796377033,-0.00327817117795,0.000333227624651,0.0027630017139,-0.00125886825845,-0.00106105359737,-0.0049574971199,-0.00352348107845,0.00428423378617,0.00357991713099,-0.0022283392027,-0.00135686551221,-0.000693143811077,-0.00176127720624,0.00172094686422,-0.00552785675973,0.00427923118696,-0.00227343756706,0.00419110571966,-0.00053511740407,0.00310513004661,0.00366426026449,-0.00226618954912,0.00156732799951,0.00119520712178,-0.000289945455734,-0.000362819730071,-0.00222131214105,-0.0021649133414,0.000525714480318,-0.00530739920214,0.00488475244492,0.00167713081464,-0.000658203847706,-0.00497344275936,0.00145131617319,-0.00547164585441,0.00201503001153,-0.00485224509612,0.00174631481059,-0.00108288903721,0.00182009057608,-0.00410629296675,-0.00434503704309,-0.00287464819849,-0.00101933383849,-0.00281128543429,-0.00474495347589,-0.00199718191288,0.00230780895799,0.000922750972677,0.00522209843621,-0.000741325842682,-0.00190730881877,0.00217316392809,-0.00101224519312,0.00132094300352,0.00502939568833,-2.59912594629e-05,-3.7441834138e-05,0.0030945695471,0.00287867803127,0.000166716054082,-0.00493856100366,0.00541947595775,-0.00140392058529,-0.00208932394162,0.00542805762962,0.0041909199208,-0.0019365879707,-0.00218425015919,0.00248153484426,-0.00189022603445,-0.00282741850242,0.00540683465078,0.000719121249858,0.00294420775026,0.00238513364457,0.00286533753388,0.00453722570091,-1.5191503735e-05,0.00284106796607,0.00333216157742,0.00502336630598,0.00238553364761,0.00441544502974,-0.00460283504799,-0.00425168452784,-0.00388703425415,-0.00404007826,-0.00468787830323,-0.00429150508717,0.00558338081464,-0.00259985844605,-0.000272168108495,0.00361260934733,-0.00433978997171,-0.00208899751306,-0.00387641997077,-0.00497016776353,0.00518904626369,0.00403124745935,0.00426799058914,0.00414793705568,-0.0039266096428,0.00320176291279,0.00255582830869,0.00478946836665,-0.00319439847954,-0.00099267216865,-0.00233949045651,-0.00275797583163,0.00170226080809,-0.00382055994123,-0.000418692769017,0.00163733318914,-0.004200915806,-0.00276855798438,0.00526382401586,0.00331970537081,0.00198010494933,0.00400425633416,-0.00551630556583,-0.00560557423159,-0.00393336080015,-7.75485386839e-05,0.000767275691032,-0.004391991999,-0.00486015575007,0.00368854077533,-0.000425677513704,0.0055447272025,-0.00308424280956,0.00164048373699,0.0034178039059,0.00418953970075,-0.00221388228238,-0.00349201727659,-0.00312100234441,0.00186146295164,0.000228564837016,0.00109537993558,-0.00544532062486,-0.00125668535475,-0.00217058137059,0.00408940156922,0.00309976632707,-0.000820238201413,0.00145201513078,-0.00513832177967,0.00152512674686,-0.00458119390532,0.00239316816442,0.00080813880777,-0.00228259828873,-0.00148719886784,-0.00466164853424,-0.00203051092103,0.00525186350569,-0.000182986696018,-0.000318073231028,0.00143441662658,-0.000202688897843,-0.00166056584567,-0.00410272786394,0.00144670193549,0.00278779910877,0.00475725810975,-0.00564625253901,-0.00492659211159,0.0044893338345,0.00145619304385,0.00515082525089,-0.000808747776318,-0.000968826585449,-0.00178871315438,-0.00406649103388,-0.00140010600444,-0.00551568670198,7.75137159508e-05,0.0038980958052,-0.00204955157824,-0.00461120950058,0.00532909110188,-0.00422292482108,0.000296658661682,0.00346819404513,-0.00282801664434,0.00383347831666,0.000617022044025,-0.00192814471666,0.00410707108676,0.00135167688131,0.00127687852364,1.75790919457e-05,-0.00257489434443,-0.00223428150639,-0.00468542426825,-0.00292552751489,-0.00253991782665,-0.00501374481246,-0.00443015713245,-0.00262170564383,0.00198027142324,-0.00359431002289,0.000223093476961,6.53990136925e-05,0.00375303463079,0.00121037545614,0.0046911095269,0.00142449629493,-0.00538899051026,-0.00136394577567,0.00222669169307,-0.000305241439492,-0.000935350661166,0.00191569479648,-0.00244672177359,0.00460037775338,-0.00100604933687,0.00145971123129,0.00542979408056,0.00320396455936,0.000333577889251,0.00403961911798,0.000662839680444,-0.000680262106471,0.0042021186091,-0.00536702852696,-0.00106683012564,-0.00179586885497,0.00240012537688,-0.00553177250549,0.0017982411664,-0.00175775005482,-0.00456722220406,0.00541056180373,-0.00327443494461,-0.00172645237762,-0.00333299906924,0.00181105092634,0.00317385722883,0.00405722903088,-0.00215761782601,0.000257078383584,0.00182538514491,0.00144391483627,0.00242204614915,0.00302924169227,-0.00457197520882,-0.00376505916938,0.00263485801406,-0.000278348219581,-0.000839654763695,-0.000518467801157,-0.00146165990736,0.00101505592465,-0.00201232288964,0.00153235974722,-0.00337690720335,0.00289902626537,0.00316940830089,0.000873181212228,-0.00149220577441,-0.00550537649542,-0.00429406855255,-0.00476720463485,-0.00555283622816,0.00249798852019,0.00514214020222,-0.00554198306054,-0.00439407443628,0.00406346470118,0.00211672205478,-0.00109208945651,0.00554943131283,0.000809768389445,0.00189497985411,0.00170929101296,-0.00315810134634,-0.000156924477778,-0.00322920596227,8.43415473355e-05,-0.00532817421481,-0.00135736505035,-0.00146757205948,-0.00237869634293,-0.00478033348918,0.00304119265638,-0.000922087638173,0.00352747621946,0.00377345783636,-0.00326101551764,-0.000912172254175,0.00247592129745,-2.83479112113e-05,0.00399216404185,0.000786616757978,0.00144256837666,0.0032227546908,-0.00429291417822,0.000931255752221,-0.00470892246813,-0.00272882706486,-0.00327135040425,0.000737038033549,0.00386713608168,-0.00417324295267,0.00301337358542,-0.00405726162717,-0.0035303325858,0.00469293957576,-0.00556495832279,-0.00344583578408,-0.00323761603795,-0.0024877358228,-0.00156586384401,-0.00450834445655,-0.00037813000381,-0.00115947285667,0.00139115820639,0.00413407525048,-0.00230863247998,0.000504222116433,-0.00147574814036,-0.0052187666297,0.00361008825712,0.00149725447409,-0.00564931984991,-0.00285197724588,-0.00218013720587,0.00350214657374,0.00292755593546,-0.00119466288015,-0.00389483035542,-0.00130903813988,0.00348645751365,-0.000558682135306,-0.00436375662684,-0.00523805711418,-0.00190487306099,-0.00399636663496,0.00275032222271,-0.00252197007649,0.00424754293635,0.0013064868981,-0.0012227029074,0.00122408266179,-0.00233632838354,-0.00407592393458,0.0052284495905,0.000694141548593,-0.00559069775045,-0.00216481741518,-0.00386969209649,-0.00275425403379,-0.00504357088357,-0.00290234596469,0.00204934761859,0.00360511685722,-0.00174554658588,0.000234028470004,-0.00520103331655,-0.00464689638466,0.000567058334127,0.00383094116114,-0.00467866286635,-0.000941028702073,0.00529908109456,0.00267999013886,-0.00343922455795,-0.00244905473664,0.00504460604861,-0.00317484582774,-0.000688200001605,-0.00165504484903,-0.000135050999233,-0.00300092669204,0.00188113003969,-0.00302343163639,0.00113204692025,-0.00163063476793,-0.00283249863423,0.00218247179873,0.00523807480931,0.00415409822017,-0.00469413259998,-0.000537875806913,0.0021799786482,0.000685595034156,0.00253696576692,0.0053497585468,-0.00180587777868,0.00304035050794,-0.00461229914799,0.00415828777477,0.00312578910962,0.000214614236029,0.00360750616528,0.00186156725977,0.000570992007852,0.00502341100946,-0.0042001795955,0.00555444741622,-0.00392692955211,-0.000243714384851,-0.00305652897805,-0.00259855133481,0.00147106288932,-0.00528064323589,0.00496401172131,-0.00251138210297,-0.00259153847583,0.0040912819095,0.002974960953,0.00192214851268,-0.00401819916442,0.0030290321447,-0.00159389048349,0.00556487124413,0.00191683101002,0.00377844413742,0.00262389122508,0.00104601995554,0.00242637377232,0.00108193734195,-0.00509495707229,-0.00176700251177,-0.00209607533179,0.00239912327379,0.000841016415507,0.00122904311866,0.00390306767076,0.000265840091743,-0.00320579810068,-0.00553313782439,-0.00387035147287,-0.00532806944102,-0.00299335806631,0.00150605628733,-0.0039616744034,-0.0047474890016,0.00530370511115,0.00559823028743,0.00152897916269,-0.00444621872157,0.00361519819126,0.000423096265877,-0.0036151506938,0.000835485756397,-0.00522690126672,0.00532360142097,0.00366706377827,-0.00272356509231,-0.000935532618314,-0.00120269879699,0.00406878301874,-0.00166231615003,-0.00512969074771,-0.00324470410123,-0.00323474430479,0.00506092607975,0.00477613834664,-0.00227338820696,-0.00564093189314,0.000173510314198,0.00334223173559,-0.00263509084471,-0.000707935425453,-0.00371851213276,-0.00197035074234,0.00290816533379,-0.000829634664115,-0.000614918651991,0.00325527461246,0.00294699869119,-0.00356387184002,-0.000984499696642,0.00391809409484,-0.000515654392075,0.00180262187496,-0.00222045904957,-0.0050065536052,-0.00381546420977,-0.00113771599717,-0.00168329034932,0.00444710673764,0.000489412865136,0.00141130341217,0.00210699485615,0.000331193470629,0.00302249984816,0.00317460042424,-0.00170684722252,-0.00472132395953,0.0054728500545,0.00158623699099,0.00233581825159,0.00287606194615,0.00125085865147,-0.000348364468664,0.00546085834503,0.00255479570478,0.00389120425098,-0.000701415992808,0.00455748708919,0.0026055839844,0.00276363664307,-0.00468995282426,0.00130875385366,-0.00188258418348,0.00189154304098,0.000751936750021,-0.00441567273811,0.000319715007208,-0.000570483854972,0.00310639175586,1.04480641312e-05,-0.00023239494476,0.00246242107823,0.00188687513582,0.00554205942899,-0.00169333280064,0.00211041653529,-0.0037816639524,0.0034249483142,0.00321685569361,0.00253464817069,-0.00432615866885,0.00549395615235,0.00498586753383,-0.00148764241021,0.000855482649058,0.00437843706459,-7.93180879555e-05,0.00110245903488,0.0011486033909,0.00166888150852,0.000834944890812,-0.00108224968426,0.00042758428026,0.00418112706393,0.0040981550701,0.00306292437017,-0.000989965745248,0.00321467779577,-0.00128684728406,0.00183633121196,0.000743627373595,-0.0022799083963,-0.000549534801394,0.00371866067871,0.00465024542063,-0.00334905134514,-0.000511877937242,-0.000768593454268,-0.00014097696112,0.00537243159488,0.000195077809622,0.00371534773149,0.00183687894605,-0.00445835338905,0.00219545746222,0.00164595479146,0.0029056717176,-0.0048285247758,-0.00294188177213,0.00302801094949,-0.00147979380563,0.00462831417099,0.000183019059477,-0.00565872527659,0.00223142723553,0.000135398207931,-0.00208496442065,-0.00544628594071,-0.00343016674742,-0.00385027006269,0.000912916846573,0.0030239385087,-0.00302467867732,0.00221180683002,0.00449694599956,0.00135085126385,0.00309283332899,-0.00336814671755,-0.00483009126037,-0.00154599011876,0.00233932561241,0.00208028801717,0.00512169720605,0.00144575641025,-0.00102703669108,0.00333574577235,-0.00394672807306,0.00351542420685,-0.00153987912927,-0.00393607467413,-0.0038441340439,0.00544413225725,0.00137259298936,-0.00370381399989,-0.00263760937378,-0.00146716053132,-0.00504225865006,-0.00444836635143,0.00293896277435,0.00322298356332,0.00549978530034,-0.00490996986628,0.00437982846051,-0.00208745221607,-0.00196722941473,-0.00423506135121,0.00547790061682,0.00541785359383,0.00410443870351,-0.0046478016302,0.00384234450758,0.00150137220044,-0.00421820487827,-0.00271454127505,0.00211887154728,0.00341032701544,0.00391513807699,0.000471678358736,0.00036751801963,0.00205893116072,0.00311628775671,-0.0037486422807,0.00268793920986,-0.00181399122812,-0.00133826502133,-0.00479875085875,0.000975855858997,-0.00462114950642,0.0046474467963,0.00134391861502,0.00551975844428,-0.0028998281341,0.00200683367439,0.00522744143382,-0.00230139563791,-0.00458830175921,0.00149097666144,-0.00153795257211,-0.00258997012861,0.00555712031201,0.00284933531657,-0.000189040918485,-0.00511494465172,-0.00351370871067,-0.00230199168436,-0.000171522071469,-5.78593535465e-05,-0.00540066091344,0.00498628243804,0.000457230344182,-0.00545727647841,0.00224972167052,-0.00487356632948,0.00247398973443,0.00225148815662,0.00545626087114,-0.00181288202293,-0.00404838845134,-0.00464154919609,-0.00486933998764,0.00348215387203,0.00244433688931,0.00535442959517,-0.00218432652764,0.00340040680021,-0.0046286364086,0.00453990371898,-0.00509535288438,0.00322727649473,-0.00220607686788,-0.00363258318976,0.00228467164561,0.00444836262614,0.00295863556676,-0.00214111735113,-0.00168346671853,-0.00354081438854,0.00363631849177,-0.00447045918554,0.00453135371208,0.00111573084723,0.000976916402578,0.00379189033993,0.00186645658687,-0.00224132393487,-0.00172936287709,-0.0037245976273,-0.000434222019976,-0.00443588104099,0.00170255056582,-0.00376788061112,0.00408719060943,0.00224271439947,0.00440290244296,-0.00469342712313,0.00335130933672,0.00428186124191,-0.00517354207113,0.00561913428828,-0.0022780993022,-0.00328355445527,-0.000986145110801,-0.00557984644547,0.00433950731531,-0.00264166924171,0.000220152069232,0.0013731130166,0.0032674446702,-0.00284841493703,0.00243129488081,-0.00434713624418,0.00228530215099,0.00471703941002,-0.00471612811089,-0.00435797171667,0.000623069819994,-0.00515290442854,-0.00355526059866,-0.00352359027602,-0.000232608988881,-0.00286443904042,-0.000297307065921,0.000218861096073,0.00258733541705,0.0050222883001,2.18063596549e-05,-0.00166001275647,-0.00274893199094,0.00150199746713,0.00498751644045,0.00297189410776,-0.00334368715994,0.00442654639482,0.00264238403179,-0.00422743801028,0.00238561211154,-0.00240232679062,-0.000117839015729,-0.00227937102318,-0.00472366018221,0.00301631516777,0.0036958726123,-0.00304515613243,-0.00295855966397,-0.000806597468909,0.00350718479604,-0.00479447841644,0.00347595009953,0.00476508634165,0.000680768454913,-0.00498533807695,-0.00262030842714,-0.00440877908841,-0.00273648928851,0.00351065746509,-0.00503876432776,-0.00245897565037,0.000176928311703,0.00421456526965,-0.00284169334918,0.00313236517832,0.00093025888782,0.00197946140543,0.00407578982413,-0.00536959897727,0.000321472733049,0.0027805804275,0.00432609627023,-0.0041757998988,-0.00181538693141,-0.00478797871619,0.00376445287839,0.0040181428194,-0.000208234065212,-0.00544103514403,-0.00452060997486,0.00138347072061,0.00543440086767,0.00380894448608,0.00334599870257,-0.000950145651586,0.00546370400116,0.00365186925046,-0.00188090722077,0.0027870843187,-0.00078559393296,0.00179165648296,0.00529232015833,-0.00288948626257,0.00331300217658,0.000999266747385,0.00506523810327,-0.00415450474247,0.00246290606447,-0.00525481533259,-0.00288711069152,-0.0020469808951,-0.000787380442489,0.00523979216814,-0.00491055939347,-0.0037642524112,-0.0033790722955,-0.000880794774275,-0.0049886261113,0.00524111744016,0.000655319890939,0.00352095020935,0.00305974762887,0.0017970262561,0.00455124629661,0.00452835625038,-0.00423023896292,0.00452320603654,0.000248707918217,-0.00264388904907,0.00120540731587,-0.00249876105227,-0.000257678417256,0.00355767598376,-0.00530981132761,-0.00360370147973,0.00514224451035,-0.000641136604827,-0.00224419450387,0.00476568890736,0.00462926598266,-0.00517364870757,-0.0015753650805,0.00464740674943,-0.00364120979793,0.000864008441567,-0.00204685493372,0.00265446933918,-0.00388442748226,0.0010657083476,-0.00567380711436,-0.00281814904884,-0.00384031189606,-0.0033013348002,0.0040550082922,0.0046697719954,0.00286330864765,0.000998824252747,-0.00306324288249,-0.00256726960652,-0.00216962210834,0.00311209261417,-0.00281417998485,0.00533262686804,0.00333210779354,0.0056303315796,-0.000481609458802,0.000990043627098,-0.00250301882625,0.00115301902406,0.00533840944991,-0.00533005967736,-0.00240253540687,-0.00249291723594,0.00543418433517,-0.00417367368937,0.00351186702028,-0.00256913830526,0.00405736267567,-0.000158507464221,-0.00293427472934,0.00235145213082,0.00383986742236,-0.000360050791642,0.00239718635567,-0.00362278451212,0.00492569431663,-0.00458539975807,-0.00316635821946,-0.00241547496989,-0.00394879141822,-0.00107759330422,-0.000500341935549,0.000187735204236,-0.00521466834471,-0.00319852307439,0.00345746590756,0.00348954834044,-0.00194460118655,-0.000461493356852,-0.00360170006752,0.00361997378059,0.00514125963673,-0.00238169310614,0.00316538196057,-0.00169154198375,-0.00564623298123,0.00110809353646,-0.00103269575629,0.00290257041343,0.00279322313145,0.00502371182665,-0.000722604221664,-0.000217302716919,-0.00114570232108,-0.0023156052921,0.00153901055455,0.00368961738423,-0.0038887092378,0.0054286471568,0.00205876911059,0.00314766936935,0.00562109891325,2.60568867816e-05,-0.00486696744338,0.00326281529851,0.00417270930484,-0.00383679009974,-0.00540011515841,-0.00413727108389,-0.00200994848274,0.00477783801034,-0.00564591959119,0.00341479154304,0.00399210350588,0.00349682220258,-0.00474420469254,0.00200589187443,0.00511210504919,-0.00431282492355,-0.00531556596979,0.00420467322692,0.00161851965822,0.00163552933373,0.00523111596704,0.00302998907864,-0.00117990095168,-0.000745641009416,-0.00403766846284,-0.00223585125059,-0.000637609395199,-0.0027217308525,0.00468214927241,-0.00554027594626,0.000963725382462,0.003050805768,0.00260413298383,0.00160652736668,-0.00103251682594,0.00471307290718,-0.00195277936291,0.00280961766839,0.00480550713837,-0.00422057928517,0.00503649003804,0.00310245086439,0.00129964377265,-0.0014501750702,0.00455237878487,-0.00517423497513,-0.000789517886005,0.00288308062591,0.00349940685555,-0.00338505278341,-0.00513396784663,0.00340564409271,-0.000901894352864,-0.00404941895977,-0.00470473105088,0.00157150102314,0.00091770751169,0.00398386782035,-0.00532306032255,0.00413937726989,0.00435213930905,-0.000633649760857,-0.00481313141063,0.00502493511885,-0.00486551132053,0.000998843810521,-0.000103809121356,0.00376240327023,3.0540879834e-06,-0.000375589705072,0.00427759997547,0.00522016035393,0.000530656834599,-0.0005383422249,0.0037173111923,0.00371727510355,-0.00206869840622,0.000835440470837,-0.00393732078373,0.00150618213229,0.00375003810041,-0.0035596890375,-0.00202721450478,-0.000596771540586,0.00388247519732,0.00259673711844,-0.00209005153738,-0.00292490632273,0.00219346745871,-0.00024679696071,0.00103842688259,0.00166194932535,0.000644218875095,0.00125913869124,0.00436215801165,0.00414387090132,-0.00398778403178,0.000958662247285,-0.000705690064933,-0.00244451942854,0.00146351603325,0.000103683509224,0.00308899208903,-0.00461646588519,-0.00225046346895,-0.00538137089461,0.00276172719896,0.00464434036985,0.000969207205344,0.00130393903237,-0.00514736166224,2.40122099058e-05,0.000285096233711,-0.00523164030164,0.00317418365739,-0.00252533098683,0.00250775925815,-0.0011163916206,0.00558549072593,-0.00327292177826,-0.00501387333497,0.0054075284861,-0.00291519006714,0.00151133874897,-0.00143712235149,0.00155995413661,0.00106731313281,0.00232484773733,-0.00546388747171,0.00378249492496,-0.000260085595073,0.000194346983335,-0.00102485192474,0.00551676610485,0.00339314038865,-0.00214937003329,0.00318391039036,-0.000729242281523,0.0041670287028,-0.00532153435051,-0.001651757746,-0.00081038440112,0.00274489494041,-0.00360903632827,-0.00243336032145,0.00251458282582,-0.00480150384828,-0.00339625170454,0.00284807477146,0.00422933790833,0.00257054972462,0.000290021183901,-0.00455027865246,0.00368320662528,-0.0042678094469,-0.00131624203641,-0.0050993533805,0.00235400465317,1.56603600772e-05,0.00458499509841,-0.00410863431171,0.0035849576816,9.67415835476e-05,-0.00153797923122,0.00159945501946,0.00325989746489,-0.000699090771377,-0.0030450890772,0.00467747543007,-0.00213832966983,0.00560969905928,0.00299875321798,0.00209974567406,-0.00553727569059,-0.000605886452831,3.91362164009e-06,-0.00142174144275,-0.00398169504479,-0.00152275094297,-0.00482980906963,-0.00238807080314,-0.00473131798208,0.00283023319207,0.00191457883921,0.00495364284143,-0.00137837324291,0.00321536953561,0.000969831249677,0.0016313084634,0.000515942112543,0.00313577614725,-0.00519944401458,-0.0047641703859,-0.00458963029087,-0.00240998668596,0.001009701984,0.00162579771131,0.0023832062725,-0.00249966350384,0.00167773931753,-0.0043435273692,-0.00556143559515,0.00218055979349,0.00241719023325,0.00136033538729,-0.00274719158188,0.00481271464378,0.00422710133716,0.000151796717546,0.00550681725144,-0.0023009525612,-0.000124172205688,0.00481463968754,-0.000452201173175,-0.000351741124177,-0.00477976165712,-0.00328773190267,-0.0038924398832,0.000714036868885,-0.00207626121119,-0.00480646779761,8.88510985533e-05,0.00188945059199,0.00265048071742,0.0037924037315,-0.000227944779908,-0.00126077036839,0.00205797329545,-0.00552636524662,0.00148584856652,-0.00109037419315,-0.000556748651434,-0.00232750480063,-0.00424121553078,-0.00114139448851,-0.00219545210712,0.00517581775784,0.00498836394399,0.0016004947247,0.00453788274899,0.00281438534148,-0.00176931382157,0.00114800292067,-0.00318910600618,0.00208997353911,-0.00517371948808,0.00371970143169,0.00091429031454,-0.00501957256347,0.00417672330514,0.00424388749525,0.00396251026541,0.00307475333102,0.00198505120352,-0.00119244563393,-0.00413874303922,-0.00241513014771,-0.00175590557046,-0.00163261860143,0.000712621840648,-0.00332518690266,-0.00353684555739,0.00242542638443,-0.00559663772583,-0.0039908150211,-0.000763291842304,-0.00399565231055,0.00517133576795,0.00189547822811,-0.00078807072714,-0.0044121243991,-0.00132606073748,0.00167504209094,0.00527302036062,-0.00033671600977,0.00214773416519,-0.00347247347236,0.00137009145692,-0.00297840661369,-0.00344109884463,7.63781936257e-05,-0.00328809884377,0.00247471709736,0.00492108566687,-0.001226971508,-0.00203136214986,-0.00368874054402,-0.00126324652229,0.000650379864965,-0.00146027235314,0.00136765523348,0.00181255268399,-0.00457134842873,0.00221242872067,0.00450246408582,-0.005380673334,0.000556676648557,0.00115053320769,0.00234846770763,-0.00131559406873,0.00357970129699,0.000427125720307,-0.00105363875628,0.00245520519093,0.00480841193348,0.00350383645855,0.00484556611627,-0.00267059635371,-0.00433408515528,0.000367827509763,-0.00517170736566,0.00195356272161,-0.00296037644148,-0.000536736100912,0.00173839263152,-0.000211712424061,-0.00300491391681,0.00428032549098,0.00297055626288,0.00112227874342,0.0022243456915,-0.000977990450338,-0.00142388511449,-0.00386368483305,0.00341218337417,-0.00136559968814,0.00215405295603,-0.00228264601901,0.00332625745796,-0.00448408583179,0.00139297742862,0.00345742632635,0.00179137685336,0.00220286333933,0.000279203377431,0.000652814866044,-0.00492312200367,-0.00283231027424,0.00249470584095,0.00502173462883,0.00045773704187,0.00253608939238,0.00206110300496,0.00563186919317,0.00332091632299,0.00142859434709,-0.0043661352247,-0.00156757817604,-0.00283360434696,0.00398429157212,-0.000623360683676,0.000384406535886,0.00524109322578,0.0037921895273,0.00326225743629,-0.00406020088121,-0.00541083188727,-0.00424867682159,0.00269429199398,-0.0010321267182,-0.00434790644795,0.00267996778712,-0.00347602576949,0.000984210288152,0.00270853447728,0.00119924056344,0.00555894849822,-0.000767089892179,-0.00215056934394,-0.0034012356773,2.01233688131e-05,0.00396291166544,0.00503069488332,0.00531494105235,0.000332169991452,0.00116757140495,0.000899364356883,-0.000407369690947,-0.00395476957783,-0.00493601663038,-0.000739065289963,-0.00357114220969,0.00434927642345,0.00293765333481,0.00131741259247,-0.00513884797692,0.0013608452864,0.00134754064493,-0.000708776060492,0.0017622950254,0.00402553845197,0.00289565371349,-0.000321791390888,-0.0027093172539,-0.000272030127235,0.00502120982856,0.00359670585021,-0.00536920921877,0.00317808729596,-0.00374642689712,0.000782635936048,0.00344439572655,0.000671558605973,-0.00110844545998,-0.00204233080149,-0.00222515384667,0.00379392039031,0.00365396682173,0.00363613222726,-0.00247701397166,0.00335954292677,-0.00525968195871,-0.00333952205256,0.000143647252116,-0.00107479037251,-0.00440877443179,-0.00520217930898,0.00123663654085,-0.00212934124283,-0.00549344625324,-0.000801753310952,-0.00220526685007,0.000845828210004,0.00483955862001,-0.00219286093488,0.00560079095885,-0.00470098946244,-0.00467573106289,0.00238755973987,0.00279091671109,-0.000892464013305,-0.00243951310404,0.00330398557708,0.00513867847621,0.00551931047812,0.00150024681352,0.0026949592866,0.00362363038585,0.00335931219161,0.00555881205946,0.00349006918259,0.00181819498539,-0.00141965225339,0.0010879393667,0.00428074179217,-0.00221946975216,-0.00532695092261,-0.00197408767417,0.00518384249881,0.00330503308214,-0.00355752790347,-0.00553784519434,0.00189224490896,0.000873335578945,-0.00473526399583,0.00524905184284,0.00131189683452,0.00169327191543,0.00397573364899,-0.00186476425733,0.000636248267256,0.000839047657792,0.00526200095192,-0.00418927147985,0.00290508638136,0.000827278592624,0.00388276739977,0.00373094691895,-0.00553999980912,-0.00277628842741,-0.00363151892088,-0.000455423054518,0.00456013111398,-0.00561945373192,-0.000156053429237,0.0043283496052,0.00479668704793,0.00175608706195,0.00370597606525,-0.00201183022,-0.00244273524731,-0.00512068392709,1.36759999805e-05,-0.000518914370332,-0.00146782665979,-0.00439164228737,-0.00306386128068,-0.00337016698904,0.00500046927482,0.00525475619361,-0.00563441868871,-0.00374472117983,0.00437638629228,-0.00523952487856,0.00499461498111,-0.00137566437479,0.000417849863879,0.00296344002709,-0.00291515560821,-0.00453471345827,0.0034850940574,0.00546018965542,0.00177576101851,0.00365784252062,0.00497046066448,-0.0030884493608,-0.00171096005943,-0.00319650536403,-0.00497518060729,0.00260612880811,-0.00402682228014,-0.0046255053021,-0.00163001113106,-0.00498903775588,-0.00364345358685,-0.004882927984,0.0042456719093,0.00314270402305,0.00404486199841,0.00414456706494,0.00500589283183,-0.00356325297616,0.00450265221298,0.000262945861323,-0.00379412667826,0.00174113828689,-0.00197637360543,-0.00514839449897,-0.00478442013264,-0.000882728374563,0.00367135577835,-0.00215699896216,0.00298879318871,-0.00504193082452,-0.00122026994359,-0.00423126714304,0.00409196596593,0.00527232233435,-0.00199050712399,0.00550888152793,0.0028341517318,-0.00565831223503,-0.000185245691682,0.0037589694839,0.000364301900845,0.000546192401089,-0.00061008654302,-0.00120551767759,-0.00536247435957,0.00135771301575,0.00299715832807,0.00326232332736,0.00139051734004,-0.0018134227721,-0.00541663635522,0.00445634452626,-0.000821032444946,0.0011252326658,-0.00348011450842,-0.00407488038763,-0.00469833239913,0.00335171842016,0.00162960845046,0.00134353211615,0.00471574161202,-0.00388538232073,-0.00375471357256,-0.00353763112798,-0.000892893469427,0.0042049488984,0.00428695976734,0.000997868715785,0.00176171411294,0.00447113392875,0.00137813843321,-0.00308158807456,0.00229056063108,0.00302524399012,0.00150392670184,-0.0025866869837,-0.00115804374218,-0.000358903227607,-0.00403703097254,-0.000559590233024,-0.00385024398565,-2.55728082266e-05,-0.00509840855375,0.00505218794569,-0.0028874615673,-0.000392334099161,-0.00530257867649,-0.00349380727857,0.00216566375457,-0.00440876744688,0.00142962520476,-0.00564951030537,-0.000415032642195,0.00248338049278,0.00480078300461,-0.00010034875595,0.00383106386289,0.00340206641704,-0.00232857326046,0.00421778392047,0.00156683602836,-0.00449486263096,0.00494574801996,-0.00367516186088,-0.000353917508619,-0.00039910551277,0.00139726651832,0.00184638833161,-0.00303881778382,-0.00168729771394,-0.0040374789387,-0.00424748891965,0.00365673238412,0.00281612225808,-0.000666967360303,-0.00458797207102,-0.000585106085055,-0.00234295171686,0.00312361796387,-0.00457971496508,-0.000568774878047,0.00101443228777,0.00547326356173,-0.00465917913243,-0.00438388017938,0.00549950264394,-0.00108599930536,0.00273681478575,0.00318644172512,-0.00211351178586,-0.00324716372415,-0.00254851602949,0.00297272764146,0.00383302476257,0.00223906780593,-0.000681323348545,-0.00270152324811,-0.000862044922542,0.0046702446416,0.00408991798759,-0.00201388075948,-0.00196228804998,0.00314886658452,-0.000847060640808,0.000805537740234,-0.000895129400305,-0.0029301957693,-0.00353497988544,-0.00409257179126,-0.00554114906117,-0.00249734823592,-0.00373218627647,-0.00275365472771,-0.00481319380924,-0.00181538413744,0.000201800474315,0.00500294798985,-0.00175305106677,-0.00532664125785,-0.00158015743364,0.00356300896965,-0.00183134118561,-0.00237879366614,0.00471372436732,-0.00231669843197,0.0052933441475,0.00373723241501,0.00205942220055,0.0010878572939,-0.0031359246932,0.00258115469478,-0.00175237189978,-0.00018627884856,-0.00450075045228,-0.00232893181965,0.00030523337773,-0.000385375198675,-0.00179339910392,-0.00034135626629,0.00274870893918,-0.000480611808598,4.88965888508e-05,0.00225364556536,0.00384193053469,0.000283046712866,0.00504685891792,-0.00167779508047,-0.00281861517578,0.00216254056431,-0.00368706625886,0.00450174184516,-0.00130322738551,0.00221975357272,0.0007728409837,-0.00505933817476,0.00234328722581,0.0032583468128,0.00543459970504,-0.000969086948317,1.2331216567e-05,0.00421787332743,-0.0026304773055,-0.00353563693352,-0.00417144689709,0.00538372294977,-0.00262048025616,0.00288646738045,-0.000593014876358,-0.00295723159797,0.00464965589345,-0.000433176377555,0.000721839955077,-0.00316169136204,-0.0020122253336,0.00277668074705,-0.0017986408202,4.34404319094e-05,-0.00438442826271,0.00393432239071,0.00266240350902,0.0029243035242,-0.00366272521205,-7.87071403465e-05,-0.00536605762318,-0.00211475370452,-0.00174242595676,0.00465366430581,0.00554797425866,0.00130741135217,0.000162799362442,-0.000704238482285,-0.00547348055989,0.00336663611233,0.00191604858264,0.00166117737535,0.00346755003557,0.00481321103871,-0.00127592554782,-0.000858986342791,0.00534560717642,0.0018323144177,0.00394591409713,-0.0031750604976,-0.00209515169263,-0.00125243503135,-0.00209678243846,0.00431788386777,0.00010334327817,0.00510262371972,-0.00204710196704,-0.00525919627398,-0.00411926349625,-0.00322590116411,0.00155585631728,-0.00363382394426,-0.00136779691093,0.00331207434647,-0.00427072867751,-0.00477137370035,0.000424049794674,0.00221166317351,0.00461875554174,0.00180359894875,0.00501713808626,-0.00291657680646,-0.00181646435522,0.00380868767388,0.00348921888508,0.00183656951413,4.02029763791e-05,-0.00548120122403,-0.00251045683399,-0.00389110180549,-0.00510278949514,0.00309376139194,-0.00419669225812,-0.00164015509654,0.00537075707689,-0.00105506577529,-0.00407740939409,0.00212176004425,0.00348063767888,-0.00252107484266,0.00347393914126,-0.00260732788593,0.00215962808579,-0.00426630908623,-0.000840049819089,0.000207773919101,0.00252340594307,0.00167248863727,0.00397132104263,-0.00359370047227,0.00179926119745,-0.00423296028748,-0.000271791272098,0.000253702834016,-0.00536925066262,-0.00488200131804,0.00381223089062,-0.00243475381285,-0.00176362134516,0.00156359269749,-0.00318189477548,-0.00349338678643,-0.000907693989575,-0.00500700809062,0.00469415634871,0.00495579605922,-0.000606245768722,-0.00330818770453,-0.000353273877408,-0.00454413052648,-0.00117614888586,-0.00484112929553,0.00231060315855,-0.00255656242371,0.00021305338305,-0.00552099058405,0.000258053245489,-0.0056371181272,0.00478713586926,-7.45577563066e-06,-0.00454261526465,-0.00181771384086,-0.00515318801627,0.00032878969796,-0.00429075537249,-0.000324641179759,-0.00221378658898,0.00294307968579,-0.000215312669752,0.00392228132114,0.00497570540756,0.0052942908369,-0.00272616394795,0.00301072513685,-0.000714481458999,-0.000849443837069,0.00414892937988,-0.00402115192264,-0.000265603594016,0.00103553757071,-0.00492059299722,0.00410690903664,-0.00211399002001,0.00175844575278,0.00482559576631,0.0024700590875,0.00434998003766,-0.00488192075863,-9.68890381046e-05,0.000718329567462,0.00212275516242,-0.00435484666377,0.00175021169707,-0.00402538431808,-0.00491164345294,-0.000369539717212,0.00111233326606,0.00515735894442,0.00222326233052,0.00101076136343,-0.00325004803017,-0.00395696749911,0.00119034864474,-0.00315522053279,0.00231350329705,-0.00438174093142,-0.00183585856576,0.0030652100686,0.00372046465054,-0.00177246925887,-0.0033387534786,0.00515827676281,0.00292938947678,0.00344931613654,-0.00315747223794,-0.000876987352967,-0.00490373186767,-0.00443800259382,-0.00317657878622,-0.00224627251737,0.00560030248016,-0.000902403728105,0.00221594120376,0.00455166492611,-0.00289279897697,-0.00403857883066,-0.0029244562611,0.00430261809379,0.00185199605767,-0.000571661337744,0.00360007327981,-0.00299824913964,-0.00297056906857,0.000738661910873,0.00325837382115,-0.00274008326232,-0.00330004119314,-0.000315636978485,-0.00415743794292,0.00278066494502,0.000853036995977,0.000121500153909,0.00418887939304,0.00260924268514,-0.00398610066622,-0.000920068705454,-0.00204123184085,0.00339518510737,0.00245632696897,-0.00033685285598,0.00363911641762,-0.00103722792119,0.00341191212647,-0.00531123345718,-0.00415175408125,0.00287394947372,-0.00438050040975,0.00205743080005,0.00250758859329,0.0018136035651,0.00357794202864,0.000110958877485,0.00446894206107,0.000765445176512,6.86905623297e-05,8.58326820889e-05,0.00463939085603,-0.00291810208,0.00218523666263,-0.00293029216118,-0.00463132699952,0.00511045241728,-0.00420677056536,0.00208528526127,-0.000873031909578,0.00379165099002,0.00306906853803,-0.00404796469957,-0.000383932085242,-0.00536224246025,-0.000816885498352,0.00224380148575,-0.0030485666357,0.00348555576056,-0.00507240043953,-0.00528265256435,-0.00536321057007,-0.00250729499385,-0.000391953275539,-0.00445862673223,0.00559672620147,0.00562610523775,0.000201439062948,0.000746518140659,0.00480349175632,0.00302812457085,-0.00377705297433,0.0032846822869,-0.00306479563005,-0.000811199715827,0.000345078646205,0.00243108067662,-0.00397832412273,-0.00481481384486,0.00411725277081,0.00367253483273,0.000240485183895,0.00181325327139,0.00245706061833,-0.000287949107587,-0.00276756519452,-0.000233003127505,0.00507457926869,0.00379726919346,-0.000412151566707,-0.00312548270449,0.00438593327999,0.00154360069428,-0.00109666469507,-0.00441059889272,0.00282712094486,-0.00208896561526,0.00118250900414,0.000767630233895,0.00223759561777,0.00040579517372,0.0014551152708,-0.00475102197379,0.00184931186959,-0.00347734265961,-0.00124094018247,0.000122258017655,0.00209354795516,0.00272164773196,0.00229758024216,-0.00459768297151,-0.00129827379715,-0.00249953940511,-0.00116804253776,0.00164122937713,-0.00349164870568,3.51555695488e-06,0.00433154869825,0.00259311497211,0.00252795033157,0.00392267480493,-0.00115944992285,0.00291378633119,-0.00500999484211,-0.00503576453775,-0.0019221274415,-0.00344795151614,0.00018941325834,-0.00360226794146,0.00535710155964,0.00394969712943,0.00543586770073,0.00345970410854,0.00508051831275,-0.00151158845983,-4.39652467321e-05,-0.00296236504801,0.00151538220234,0.00323883420788,-3.44705076714e-05,-0.00232273596339,6.80175871821e-05,-0.00496111018583,0.00248147477396,-0.000565914029721,0.00448416313156,0.00476698204875,-0.00425319140777,0.00559082813561,0.00529359420761,0.0014187656343,0.00366114848293,-0.00546378502622,0.00529994210228,-0.000512701575644,0.00461377203465,-0.00131762831006,0.00323969987221,-0.000946548942011,-0.00157113431487,0.00503297289833,0.00223263539374,0.00382657162845,0.000471515377285,0.00471155904233,0.00269449409097,-0.00486397230998,0.00299109425396,-0.00546841369942,0.00369438529015,-0.00192751444411,0.00108487368561,0.00279331323691,0.00152227364015,0.0019226098666,0.00441350182518,-0.00145144166891,0.000506665557623,-0.00370199303143,-0.000393365480704,-0.00398343428969,0.00148402631748,-0.00201363489032,0.00403299508616,-0.00179508246947,-0.00243669422343,-0.000125140199088,-0.00369750522077,-0.00337550695986,0.00317515688948,-5.77747523494e-05,-0.00331238354556,-0.00528903771192,-0.000370928522898,0.00275157298893,-0.00167445687111,-0.00284172128886,-0.00116353621706,0.0051995543763,-0.000860663945787,-0.00270964251831,0.000790985999629,0.00352169736288,-0.00539290346205,0.000665107858367,0.00381085812114,-0.00320738833398,0.00477607222274,0.000886606867425,0.000197254179511,0.00525077292696,-0.00417945953086,0.00272342027165,0.00361023470759,-0.00012126803631,-0.00557221192867,0.000282994296867,-0.00390994502231,0.000715316506103,0.00270594377071,0.000359211611794,0.00148682517465,-0.0044703707099,-0.00454836478457,0.00397598557174,-0.00508788507432,-0.00243111024611,0.00495692016557,-0.000457221089164,0.00198141951114,-0.00313895870931,-0.00258697895333,0.000109641463496,0.0015694036847,0.00521437544376,0.000849381089211,-0.00456055952236,-0.00149687763769,-0.00288480357267,-0.00276907882653,6.88429790898e-05,-0.00206600828096,-0.00237534404732,0.00529888318852,0.000956286268774,-0.00268662627786,-0.00252730445936,0.00352376652882,0.00437685381621,0.00203126226552,-0.000768189900555,0.00299851945601,0.00495246145874,-0.00376736395992,0.00409676041454,0.00395108619705,-0.00150250643492,-0.00234734662808,0.000745404686313,-0.0025677557569,-0.00400281464681,0.00512995710596,-9.06611749087e-05,-0.000306737230858,-0.00422073109075,5.3883966757e-05,0.00275570899248,-0.00283887493424,-0.00147247174755,-0.00362050975673,-0.00162866443861,0.00409501278773,-0.00296308845282,-0.00530947977677,0.000419582502218,0.000908834626898,-0.00192456145305,0.00161071470939,-0.0052149714902,-0.00179264810868,-0.00400884728879,-0.00304513867013,-0.00131821143441,-6.45042528049e-05,-0.0045897164382,-0.00449789548293,0.00197790632956,-0.00107399153057,-0.00364756933413,-0.00298728956841,0.00249821972102,-0.00505964551121,0.00010749361536,-0.00157074758317,0.00352678191848,0.00328890862875,0.00214795465581,-0.00129412382375,0.00149252370466,0.00158991711214,-0.00188867957331,0.00430502509698,0.00549095496535,-0.00208948948421,0.00341466418467,1.89244019566e-05,-0.00040232448373,-0.00127397279721,-0.00234291376546,0.00475209159777,0.00273161428049,-0.000661806785502,0.00285314302891,0.00248042400926,-0.00262202625163,-0.00365328066982,0.00381250423379,0.00353103410453,0.00562801305205,-0.00542462896556,0.000466566678369,0.00228634383529,0.000943250430282,0.00238945265301,-0.00409154314548,-0.0056264209561,-0.00459165219218,-0.00134621199686,-0.00192428706214,0.00423886906356,-0.00469909794629,-0.000637854333036,0.00518661411479,4.28232415288e-05,-0.00414647487924,-0.0023501503747,0.00144362228457,-0.00550798000768,0.00530284503475,0.000767341873143,0.00231823092327,-6.35353956113e-07,0.00518889632076,0.00101995491423,0.00184271682519,0.00409118831158,0.00409927871078,-0.00532388174906,-0.00243907631375,-0.00285723968409,-0.00556722236797,0.00427143601701,-0.00205644895323,-0.00171934172977,-0.00451592262834,0.00554851209745,0.00370008242317,0.00082368956646,0.00308589497581,0.00314450939186,0.0017833544407,-0.00367482635193,0.00250227958895,0.000798350141849,0.00254479050636,0.000502503535245,0.00517144845799,0.00144788029138,0.000844699330628,0.0038875201717,-0.00135389855132,-0.00207121786661,4.74187509099e-05,0.000966669584159,-0.0031489348039,0.00207266281359,0.00343058072031,0.000885862158611,0.000271250464721,-0.00231038103811,0.00464280508459,0.00288926810026,-0.000211288570426,0.00181063567288,-0.00183280708734,-0.00496554654092,-0.00333611364476,-0.00474316207692,0.000104041093437,0.00139179907274,-0.00134018470999,0.000350931455614,-0.00467754574493,0.00306239887141,-0.00527292955667,0.0015298955841,-0.000743683136534,-0.00356529490091,0.000270634889603,0.00318661169149,-0.000967885716818,-0.00148585846182,-0.00403276877478,0.00107931951061,0.00371880899183,0.000703533238266,-0.00377691048197,0.0018329739105,-0.00530279241502,0.0038323183544,0.00477580120787,0.00110715487972,0.00432674726471,-0.00468809669837,-0.00306171202101,-0.00205631111749,0.00309731205925,-0.000169585764525,-0.00170615047682,-0.00385762751102,0.00352103076875,-0.00541286962107,-0.00183138507418,-0.0028998432681,-0.00418622326106,-0.00369967566803,-6.14917444182e-05,-0.000827467767522,0.000216285203351,0.0025822839234,0.00444464338943,-0.00430546328425,-0.0047100991942,-0.00202270457521,0.000532072852366,-0.00451558362693,0.00245058396831,0.000642816710752,0.00281791039743,-0.00159805431031,-0.00110979145393,0.00348385982215,-0.00262831081636,-0.00133470189758,-0.00549487629905,0.000631574774161,0.00398013088852,-0.00533207552508,0.00129272718914,0.00391210103408,-6.25329048489e-05,-0.0021080696024,0.00562098436058,-0.0049144141376,-0.00326817668974,0.00436207326129,-0.0022857694421,0.00362260336988,-0.00187991862185,0.00353369000368,0.0021061648149,-0.000349819340045,0.000265514187049,-0.00363866123371,-0.00433714594692,0.00245908251964,0.00395075557753,0.00251925992779,0.00467771012336,0.00442004902288,0.00315488222986,0.00451107975096,-0.00375328306109,0.00262544746511,0.00287777162157,-0.00390309933573,0.00464063417166,-0.00554476631805,-0.000730003230274,-0.00540126115084,0.000273503101198,-0.000983834266663,0.00140090088826,0.0030221294146,0.00304621038958,0.00252209417522,-0.00449217157438,-0.000924084044527,0.00358191411942,0.00175410183147,0.00205631763674,-0.00307869468816,-0.00196905992925,0.00516292033717,0.00393176265061,-0.00377972098067,0.000514326966368,-9.83363133855e-05,-0.000628028879873,-0.000323256972479,0.00162469560746,0.00529106147587,0.00425282493234,0.00425057625398,0.00230860104784,-0.00544564565644,-0.000664267339744,0.000134787376737,0.00388156017289,0.00479009281844,-0.00053887325339,-0.00224726670422,-0.00183006410953,0.000898414640687,-0.00253544724546,0.00465321354568,-0.000911317882128,0.00554967764765,-0.00440677208826,-0.00352070434019,0.00013953576854,0.00417293794453,-0.001642884803,0.0038242363371,-0.000834433245473,0.00399981113151,-0.00250813690946,-0.000309350056341,-0.00249340990558,-0.00321149709634,-0.000883077154867,-0.00186052115168,0.00325525295921,0.00280857179314,-0.00159080256708,0.00557474698871,0.00536620989442,0.00473295664415,0.000986671308056,-0.000982962315902,-0.00210560206324,-0.00547519978136,0.00149872980546,0.00060948979808,0.00147687771823,0.000867211318109,-0.00408801389858,0.00221756729297,-0.00156963057816,0.000192673251149,-0.00151066004764,-0.0053963875398,0.00426611863077,-0.00396339502186,0.00093755160924,0.00434049591422,-0.00314256455749,-0.000986471655779,-0.00137410196476,-0.00463630352169,-0.000856393831782,-0.000223661714699,-0.00534440483898,-0.000125653547002,-0.00458418345079,0.00444598728791,0.00170714827254,-0.00500621134415,0.00370721356012,-0.00155557622202,-0.0030931273941,-0.00277309957892,0.00111424014904,-0.00472206762061,-0.00497995037585,0.00145114841871,0.00545829860494,-0.000178048736416,-0.000971172878053,0.00506584299728,-0.00291926390491,-0.00292440340854,0.00458999862894,0.00167070492171,-0.00503603834659,0.00197657127865,0.00362795311958,-0.00254659424536,-0.0013147824211,-0.00340902758762,0.00151716195978,0.00186471303459,-0.00487046036869,0.00201743026264,0.00179977738298,-0.00524815870449,0.000634241849184,0.00129644677509,-0.000781627080869,0.00454582320526,-0.00193253951147,-0.00488581182435,0.00195128819905,0.00119784066919,0.00553791830316,-0.00303002097644,-0.00117353443056,-0.000430833548307,0.00409571779892,-0.000957876327448,0.00308532523923,-0.00387083785608,-0.00101195683237,-0.00389307993464,0.00509269768372,-0.00363547657616,-0.000906609056983,-0.00471499422565,0.00477301841602,0.00140844006091,0.0052374470979,-0.00516712805256,-0.00366663606837,-0.00134789955337,0.00138060608879,-0.00191925140098,0.00240409490652,-0.00377799104899,0.00114629487507,-0.00114531861618,0.000101578669273,0.000795772881247,-0.00496788369492,0.004802855663,0.00324324192479,-0.000642286147922,0.000545153510757,-0.00527726020664,-1.4822774574e-05,-0.000824757153168,-0.00141080783214,0.00357350078411,-0.00358871091157,-0.00365218752995,0.000252913450822,0.00212384434417,-0.0053920103237,0.000526120013092,-0.00226833159104,0.00291237421334,-0.000344192900229,0.00378519529477,-0.00115714396816,0.00370619236492,0.00245582661591,0.00371940317564,0.00354036106728,-0.000146390957525,-0.00148373434786,0.00300577888265,-0.0015579930041,-0.00463491259143,0.00406527332962,-0.00115462439135,-0.00414641294628,0.00166399625596,0.00441824225709,0.00409249728546,0.000626685563475,-0.0046466672793,0.00223403121345,0.00124159443658,-0.00326632894576,0.00454000057653,-0.0046625523828,-0.00142455939204,-0.00457360083237,0.00466893753037,-0.00524239521474,-0.000828343327157,0.00410166056827,-0.00280009792186,-0.00445511611179,-0.00420647254214,-0.00106387212873,-0.000796519336291,0.00247686426155,-0.00295222061686,0.00229325238615,0.00565300742164,0.00412964774296,0.0015409901971,0.00498219579458,0.00556111522019,0.000802729860879,-0.00255144364201,0.00470030866563,0.00389992259443,-0.00468871835619,0.00494224857539,-0.00150453101378,-0.00200361083262,-0.00176407163963,-0.00202695676126,0.000189299273188,0.000910117523745,-0.000832774152514,-0.000980386859737,0.00269143492915,-0.00561119057238,0.00506109558046,0.00243268324994,0.00235152221285,-0.000874242861755,0.00527480943128,-0.00564178498462,-0.00478094816208,0.00344590330496,0.00270685972646,-0.00257744058035,0.0010793521069,0.000370240595657,0.000314424163662,0.00108837219886,0.00559056038037,0.00551832700148,0.0054542189464,0.000558313331567,-0.00204895832576,0.000687554536853,0.00139516312629,-0.00212426367216,0.00150917028077,0.00138729193714,0.00457000127062,-0.00295902369544,0.00224225665443,-0.000548857904505,-0.00417665299028,-0.0020705088973,-0.00499797286466,-0.00203585252166,-0.00486623030156,0.0048175198026,-0.00449610548094,0.00359518500045,0.00459906598553,-0.000358582183253,-0.00503680994734,0.00109003507532,-0.00299202580936,-0.00364907598123,0.00076187151717,-0.0016169185983,0.00261185783893,0.00103871652391,0.00373085658066,-0.00498639559373,-0.00299033243209,0.000764409312978,0.00430847145617,0.00355095253326,0.00203692959622,0.000844484136906,0.00149337039329,-0.00323131983168,0.00108632503543,-6.05498062214e-05,-0.00129667704459,0.00439414894208,0.00373475323431,-0.0047758994624,0.00550217553973,-0.00304306275211,-0.0032086505089,0.0050283013843,-0.00061417138204,0.00346274883486,-0.00238480139524,0.00422951485962,0.00376745453104,0.00023022784444,0.00232858094387,0.00525683956221,-0.000532164354809,-5.5483658798e-05,0.00252922787331,-0.00127418874763,0.0052251922898,-0.00518627325073,-0.0010824566707,0.00242667109706,-0.000789862649981,-0.002713565249,-0.000969959888607,0.00432247575372,0.000540157023352,-0.00185579247773,0.0019480669871,0.00127327500377,0.000692119763698,-0.00122205470689,-0.00482851779088,0.00137377518695,-0.000898286351003,-0.000796810723841,-0.00299811176956,-0.0028246473521,0.00325903878547,-0.000224617033382,-0.00440900027752,-0.00512642273679,-0.00310397497378,-0.000133300709422,0.00133445370011,-0.00402023876086,-0.000737918948289,-0.00482324603945,-0.00521701201797,0.00411835871637,0.00180024770088,0.00318831647746,-0.00358707620762,-0.00200091535226,-0.000625593937002,0.00179688364733,0.00040395592805,0.000591811316554,-0.00386899197474,-0.000275102007436,0.00367120536976,0.000116931048979,-0.00338507373817,-0.000969238288235,0.00289113866165,-0.00411715125665,0.000919788668398,0.00527133094147,-0.00134344038088,-0.00515007320791,0.00151503609959,-0.0051098302938,-0.00347591424361,-0.00509517407045,-0.00371282314882,0.00402442924678,0.00266660889611,-0.00177705229726,0.00450162449852,0.00187890476082,-0.000579652143642,-0.00486976327375,0.002619916806,-0.00139629177283,-0.00221826066263,-0.00238282862119,-0.00555522926152,0.00275474134833,-0.00399936316535,0.000244599155849,-0.00546052400023,0.00145713123493,-0.00146449753083,0.00148954498582,-0.00462590018287,-0.00263089104556,-0.004394675605,0.00166323990561,-0.00441453233361,0.00133566418663,-0.00411898782477,0.00502465153113,-0.000933904724661,-0.00421059131622,-0.00516918441281,-0.00191713485401,0.00443703215569,-0.00401583127677,0.00330003560521,-0.000922694045585,0.00343682710081,