0.00205606105737,-0.000169837017893,0.00429712887853,0.00699219573289,-0.00212398311123,0.00389990047552,-0.00447537284344,-0.00124451308511,0.00341111095622,-0.00640481291339,0.00555483810604,0.00640436587855,0.00570939388126,-0.00773737719283,0.00465108361095,0.00609445432201,0.0074349171482,-0.00723130442202,0.000952585309278,0.0058621079661,0.00353369186632,0.00543644838035,0.00302963680588,-0.00737596489489,0.00580465095118,0.0017792605795,-0.00393514055759,0.00273764762096,0.00018449241179,0.00331731815822,-0.000457133428426,-0.0061728656292,0.006322898902,0.00278494344093,0.00326377502643,0.00409190077335,0.000152176915435,0.00326289143413,-0.0044876835309,-0.000519688008353,0.00291970488615,0.0046684728004,0.00718603888527,0.00553004303947,-0.00711344927549,-0.00502632139251,0.00273170741275,-0.00648751435801,0.0076068835333,-0.000482660252601,0.00284505519085,-0.00701125664636,-0.00110594218131,-0.00405124342069,-0.00613103853539,0.00263141933829,0.00732641620561,-0.00304026482627,0.00658194813877,-0.00770102720708,0.0024815632496,0.000441203592345,-0.0020526945591,-0.00130518432707,0.00152230286039,0.000863379333168,9.38519224292e-05,0.00742182228714,0.00411327322945,-0.00499444268644,0.00640940107405,-0.000149310159031,-0.00753228040412,0.00438122544438,-0.00230388739146,0.00766599690542,0.000643241102807,-0.00357766309753,0.00385519815609,-0.00345767242834,-0.00736872246489,-0.00626203790307,0.00239273742773,-0.00444607343525,-0.00408032815903,-0.00545159261674,-0.00379318115301,0.00397791620344,0.000178717891686,-0.0044162995182,-0.00392945297062,-0.00191277742852,0.00762677565217,-0.00506586721167,0.00464111147448,0.00561022013426,0.00699329795316,0.0015839113621,-0.00620516575873,-0.00739254476503,-0.000916597433388,-0.0023391561117,0.00555537873879,0.00146229146048,0.0052614598535,0.00105228752363,-0.00424259481952,-0.0046719238162,-0.00165130209643,-0.00729988515377,-7.70289407228e-05,-0.00354497809894,-0.00704731279984,-0.000427728315117,0.00214074668474,-0.00619763275608,0.00164006219711,0.0068006250076,-0.00194096681662,0.00739922188222,0.00431592809036,-0.00760375615209,0.00683508720249,0.000118875243061,0.00151654996444,0.0016533927992,-0.00171215436421,-0.000894641270861,0.000257038627751,0.00715369079262,-0.00437752250582,0.00636653183028,0.00731175299734,-0.00119207240641,-0.00393409095705,-0.000621069921181,-0.00618129037321,0.00492832483724,-0.00289166043513,-0.00305348425172,0.0026438802015,0.000913807773031,0.00129151542205,-0.000271391123533,-0.000793728686403,-0.00287635857239,-0.00338477501646,0.00759003218263,-0.00153046590276,7.53215281293e-05,-0.00162883021403,0.00345101882704,-0.00507524190471,-0.00695475656539,0.00727469660342,0.000508376804646,0.000740121002309,-0.000552467477974,-0.00698803644627,0.00268543954007,0.000975084956735,-0.00555716920644,0.000321877596434,-0.00415271986276,0.00212049530819,0.00254986388609,-0.00317991501652,-0.00630570109934,0.00455654598773,0.00206462200731,0.00156674883328,0.00147151155397,0.00334236235358,-0.00423293467611,-0.00148045411333,-0.00432839151472,-0.00664922874421,0.0062462114729,-0.00702747050673,-0.00703576672822,-0.00277734198608,-0.00282742129639,-0.00713423173875,0.00409598043188,-0.00593599351123,-0.00638267491013,-0.00639907224104,0.00219685141928,-0.00513552688062,0.00118007999845,-0.0046464134939,0.00516347819939,-0.00486018089578,-0.00111383758485,0.000778534566052,0.00583719648421,-0.00442725419998,0.00182868842967,-0.00726589048281,0.00421854527667,0.000382815604098,0.00683317100629,0.00421450659633,-0.00156646233518,-0.00133517780341,-0.0076519632712,0.00518225692213,0.00467807939276,0.00102258834522,-0.00195802166127,0.00467075174674,0.00166640989482,-0.00482236221433,-0.00401254137978,0.00159551505931,0.00271264347248,-0.00600383756682,0.00520728435367,1.71808260347e-05,-0.00466757081449,0.000974848167971,0.00577195826918,-0.00690161949024,-0.00434149615467,0.000940578698646,-0.00772450584918,-0.00497853616253,-0.00409970292822,0.00589125324041,0.000337189907441,0.002003663918,-0.00770569220185,-0.00178451451939,-0.000851667195093,0.00519378110766,-0.00474876537919,-0.00674579199404,0.00497703021392,-0.00448041968048,0.00290875276551,-0.00634036771953,0.00262601370923,-0.00122088519856,0.00656948890537,-0.0046599577181,-0.00671705277637,0.000480971066281,0.00640870211646,-0.00461194757372,0.00513156596571,-0.00251147593372,-0.00622100336477,0.00135383976158,0.000306268339045,0.0051901685074,-0.00616042269394,0.0022093586158,0.00182613125071,0.00760609004647,-0.00268604257144,-0.00706084445119,-0.0014024709817,-0.000581297499593,-0.00205489806831,0.00198116246611,-0.00364618608728,-0.00492257717997,-0.000761322444305,0.00347040360793,0.00600931514055,0.00249412003905,-0.00192514376249,0.00377393350936,-0.00483439303935,0.00385682471097,-0.000335631659254,-0.00357804237865,0.0029263983015,-0.00133084936533,0.00181213277392,0.00248513813131,-0.00168898247648,0.00745946355164,-0.00070388749009,0.00743056833744,-0.00412748707458,-0.00518074491993,0.00197863811627,0.000685309409164,0.000581437489018,0.00759913679212,-0.0077410293743,-0.000758312526159,-0.00302069447935,-0.00115300959442,0.00672150682658,0.00472084525973,-0.00464529171586,0.00311132939532,0.00118817365728,-0.00145571317989,-0.00247638858855,0.00148152606562,-0.000515115680173,0.000730177853256,0.0041755582206,0.00717025389895,-0.00141320913099,-0.00117131823208,0.00522023066878,-0.00575019977987,0.00460562715307,-0.00171686802059,-0.00134691863786,-0.00317643745802,-0.00586003344506,0.00374818313867,0.00611778814346,-5.06909964315e-06,-0.00479416316375,-0.00296770012937,-0.00645165564492,0.00506429513916,0.000282403110759,0.00735047738999,0.00417007179931,0.00345680653118,-0.000990822212771,-0.00236786156893,-0.00349177815951,0.00750565482304,-0.00418932177126,-0.0054859421216,-0.000482721719891,0.000243515503826,-0.00501249730587,-0.00235325680114,-0.0032353841234,0.00369284604676,-0.000214309227886,0.00424556294456,-0.00633082399145,-0.00287256576121,-0.00314693478867,-0.000676314171869,-0.0015308711445,-0.00372178433463,0.00487231602892,0.00624305615202,0.00421158224344,0.00306746759452,0.0013454311993,-0.00256237783469,0.00643143476918,0.00226686173119,0.00598375732079,-0.000754048407543,-0.00138372380752,-0.00655586086214,-0.00253674457781,-0.00178882898763,-0.000116367395094,-0.000410857319366,0.00642289919779,8.57674895087e-05,0.00530200777575,-0.00576184689999,0.00108620699029,0.000557827937882,-0.00533849094063,-0.00396072212607,-2.17822544073e-05,0.000300965330098,0.00614731991664,-0.00520518189296,-0.00304319174029,-0.00404111808166,0.00433187745512,-0.0044140573591,0.00612441916019,0.00661526387557,-0.00601802533492,-0.00439913198352,-0.00181475409772,0.00563603267074,-0.00586460251361,-0.00242925761268,0.00307712820359,0.00341383321211,-0.00224563595839,0.00711885467172,-0.00230644783005,0.0017223827308,0.00175104301888,0.00460716290399,-0.002238860121,-0.00141377060208,-0.00129187607672,-0.00684017455205,0.00356099032797,0.00411887001246,0.00492104608566,0.00328136654571,0.00140086293686,0.000964347389527,0.00219056056812,-0.00761950295419,-0.000831380137242,-0.00713101634756,-0.000206642667763,-0.00544848199934,-0.00759994052351,0.00352961965837,0.00312953116372,-0.00177589512896,-0.00673349713907,0.00730245467275,-0.00541620096192,-0.000207495308132,-0.0035448607523,-0.00570123130456,0.000170078274095,-0.00472052255645,-0.00217579025775,0.00161648914218,-0.00178129039705,0.00026535775396,-0.00417083594948,0.002990167588,0.00204168329947,0.00294327712618,-0.00250789779238,0.00676327571273,0.00187945039943,-0.00578804500401,0.007297124248,0.00102853449062,0.00302738440223,-0.00200670887716,-0.000925665546674,0.00355311343446,0.00560367153957,0.00707180984318,0.00752735324204,0.0014351841528,-0.00640187365934,0.00117567228153,-0.00459662126377,0.00225455174223,-0.00257096276619,0.000317223952152,0.00245931767859,0.00627720169723,0.00449334457517,-0.00741499429569,-0.0053798193112,0.00566652277485,0.00372928357683,-0.0054587982595,0.00134783098474,0.00132732093334,0.00421847356483,0.00481256190687,0.00266070570797,0.00326626515016,0.00254807644524,-0.00541093898937,0.00282395235263,-0.00047012543655,0.00734957493842,0.00319859921001,-0.00196705688722,0.00630401168019,-0.0041856165044,-0.000527215597685,-0.00676819868386,0.00195298250765,0.000870068033691,3.53933573933e-05,-0.0045607034117,-0.000119878219266,-0.000663567567244,-0.00741307716817,-0.00524418987334,0.00616907468066,0.00442591542378,-0.00589983258396,0.00726219033822,-0.000568908581045,0.00382494856603,0.000611466064584,0.00404590275139,0.00247340439819,-0.00674529606476,0.00634900527075,0.00410933513194,-0.00433016708121,-0.00425669224933,0.00284733157605,0.0030675525777,-0.00640529301018,0.00621877331287,0.00377874099649,0.00743803055957,-0.00107060035225,-0.00641833245754,0.00622862158343,0.00479632802308,-0.00774556817487,0.000431106658652,-0.00763361342251,-0.00232412084006,0.00566952349618,0.00265020108782,0.00537891779095,0.000850240990985,0.00419897772372,-0.000245491391979,1.07386513264e-05,0.00148002477363,-0.00557902315632,0.00218152534217,0.0054571852088,-0.00528708985075,-0.00193303939886,0.00644897203892,-0.0029484659899,0.00575291831046,0.00214178441092,0.0052627059631,-0.00555135961622,0.00439203856513,-0.00729607976973,-0.00166476343293,-0.00343602569774,0.00214078021236,0.00404674839228,-0.0024285428226,0.00516477320343,0.000760349619668,0.0038665602915,0.00343692977913,-0.00561823975295,0.00353447068483,0.00499824434519,-0.00721388775855,-0.00524821737781,0.000277295475826,-0.00684636924416,-0.00210435199551,0.0052055302076,-0.00618962571025,-0.00558929843828,-0.00590879609808,0.00066023907857,-0.00305578927509,0.00484979758039,0.00123601371888,0.00259142834693,-0.00300240563229,-0.000159061557497,-0.0020283581689,-7.45573779568e-05,0.00287323771045,-0.000791209226009,-0.00672000693157,-0.00202537002042,0.00596381817013,0.00495567871258,0.00510566309094,-0.00495406426489,-0.0065240887925,0.00480250455439,0.0025287931785,9.52493210207e-05,0.00285506667569,0.00661660963669,-0.00575763080269,-0.00513416994363,0.0013534585014,0.00315817841329,0.00218260660768,-0.00383095047437,0.00185234239325,0.00089609879069,-0.00737746339291,0.00185487035196,-0.000787754717749,0.00541932089254,0.00236388854682,0.000687890395056,0.00607049278915,0.00249540316872,-0.00388324819505,-0.000533837301191,0.00262794969603,0.00491598434746,-0.00337705458514,0.00346227711998,0.00278780260123,-0.0054810908623,-0.00539224827662,-9.20417824091e-06,-0.00140668661334,-0.00569053879008,-0.00639926362783,0.00610131304711,-0.00479586655274,-0.00207925448194,-0.000557774328627,-0.0064707105048,-0.00561947794631,0.000357065233402,0.0030417246744,0.00528106139973,0.00555928610265,0.00065949477721,-0.00332586816512,0.00119248614646,0.00186274084263,-0.00332422368228,0.00254530902021,-0.00506396172568,-0.00318677723408,0.00660193897784,0.000122522891616,-0.00542589975521,0.00256699346937,-0.00420368928462,-0.00721103046089,0.00570746604353,-0.00104438350536,0.00424849754199,0.00543874362484,0.00110215111636,-0.00625354098156,-0.00280686630867,-0.00384549563751,0.00157541513909,-0.00140799861401,-0.00138650089502,0.00235330872238,-0.00725753372535,-0.0057074194774,0.00596398673952,0.00515575380996,0.00677534239367,-0.00451224343851,-0.0024856524542,-0.006023067981,0.00212533678859,0.00430268514901,0.00177753949538,0.00144794734661,0.00462673697621,-0.00639527756721,0.00369586772285,0.00601710472256,0.00221145409159,0.002798138652,0.002168165287,0.0049560982734,-0.00163432850968,0.00548584014177,-0.00358948926441,-0.0059804529883,-0.00680730678141,-0.00624004099518,-0.000716342998203,0.0014281765325,0.00205182214268,0.000954847084358,-0.00456453626975,0.00560272345319,-0.00450280262157,0.00499669881538,0.00327471247874,-0.00226439838298,-0.00123364001047,0.00481128785759,0.00745814433321,-0.00399374682456,0.00288175907917,-0.00660017319024,-0.00649954704568,-0.000786993477959,-0.00746367964894,0.00630424264818,-0.00178486888763,-0.00186366285197,-0.00271878810599,-0.0031347128097,-0.00630749389529,0.00162767386064,-0.00383669580333,-0.00239123473875,-0.00255963020027,-0.00250562792644,0.00582512561232,-0.000478497997392,0.000118521063996,0.00434820819646,-0.00300053274259,0.003985311836,-0.00496651930735,0.00318014505319,-0.00553218787536,0.00288009177893,-0.000516307656653,-0.00674503017217,0.00152279075701,0.00291875912808,-0.00463276542723,0.00668251980096,-0.00424199132249,-0.00294709135778,0.0036065953318,-0.00466002477333,0.00646656379104,0.00214016926475,0.00380505016074,-0.00591590534896,0.00492948107421,0.00102701992728,0.00412457250059,-0.00664783315733,0.00163759675343,0.00288977706805,-0.000117647890875,0.00513836322352,0.00674838013947,-0.00431251572445,-0.00681678112596,0.00417774403468,-0.000334488373483,-0.00685717118904,-0.00637759221718,-0.00423816824332,-0.00768297957256,-0.000498466659337,-0.00203813612461,-0.00704749068245,-0.00403366144747,0.00366806890815,0.00470785005018,-0.00769077753648,-0.00611117715016,0.00765345385298,0.0022593406029,0.00281673972495,-0.00189419370145,3.53386167262e-05,8.78958962858e-05,-0.00238014361821,0.00289594405331,0.00108832714614,0.00681537948549,-0.00764386449009,0.00591169018298,0.0068983072415,-0.00547702750191,-0.00432350067422,-0.00696904584765,-0.00412106467411,0.00211729831062,-0.00440292526037,0.00540177244693,0.00636566849425,-0.00732150999829,7.45256838854e-05,-0.00750766601413,0.00180808245204,-0.00238663097844,0.00530571211129,0.00641070120037,-6.4373954956e-05,0.00694506941363,0.00561933917925,-0.00626613618806,-0.0022613981273,-0.00250328914262,-0.00307116983458,0.00454920576885,-0.00311327748932,-0.00190508528613,-0.00643379613757,0.000266905641183,-0.00595043320209,0.00565605610609,0.0045639523305,-0.00309242331423,-0.00768706994131,-0.00665401155129,-0.00439367583022,-6.9295958383e-05,0.00352805666625,-0.00623064814135,0.00317434640601,0.000679375196341,0.00180564424954,0.00656478432938,0.00695297075436,0.00362590514123,0.00293614738621,0.00401767529547,0.00263318396173,-0.00759561778978,0.00762820756063,0.00207604561001,-0.000212148574064,-0.000766388431657,-0.00413925852627,-0.000392659800127,0.00356583367102,-0.00382996932603,0.00529084866866,-0.0045019024983,0.00549350352958,0.00125897605903,0.00517387036234,-0.00131912482902,-0.00279561453499,0.00301288394257,-0.00215213024057,0.00695063825697,0.00367808435112,-0.00112237595022,-0.00507350312546,0.000838725303765,0.00144294777419,0.00719984155148,0.00372795783915,-0.00383585039526,-0.00370861240663,0.00120246876031,-0.00590886967257,0.00298324087635,-0.00652862573043,0.00109807960689,0.00741075212136,0.00572198722512,0.00528038805351,0.0038233641535,0.00658463779837,0.00660137180239,-0.00524797523394,-0.00422329548746,0.00651470106095,-0.00351147470064,-0.00189016130753,-0.0071020568721,0.00613475590944,-0.00663003930822,0.000431180378655,-0.00435478147119,-0.00731950765476,-0.00326986657456,0.00250477064401,-0.00636758096516,0.00539497612044,0.00293276715092,-0.00684228353202,-0.00151110312436,0.00473764818162,0.00663946010172,0.00196272251196,0.00276819639839,0.00578668573871,-0.000729602063075,0.00317230145447,0.00117210205644,0.0029825984966,0.00587397161871,0.00444675190374,-0.00577701581642,0.00663756579161,-0.00697470409796,0.00393179245293,-0.00334220589139,0.00428965967149,-0.00751895178109,-0.00434158788994,-0.00651242909953,0.0038671772927,-0.0047515030019,0.00657050358132,-0.0014033120824,0.0033556916751,0.00498515181243,0.00696408236399,-0.000621084356681,0.002610870637,-0.00212402548641,-0.00337017723359,0.00285397120751,-0.00150764698628,0.00108838954475,-0.00468134973198,0.00328476727009,0.00721474317834,0.000556512735784,0.000281932123471,0.00544065609574,-0.00540486909449,-0.0016712838551,-0.00506267789751,0.000688793719746,0.00176862173248,0.00636139186099,0.00507947010919,0.00223333737813,0.00421189609915,0.00195862818509,0.00106696342118,-0.00700725615025,-0.00736761139706,0.00540814502165,-0.00339265516959,-0.00232807849534,-0.000808650976978,-0.00708929402754,0.00709673529491,-0.00615419913083,0.00719862850383,0.00318119232543,0.00680321129039,-0.00694476347417,-0.000845897418913,0.00695258798078,0.00222524278797,0.000687494291924,0.0026128469035,-0.0048768799752,0.00376097997651,-0.00349657074548,-0.00340426154435,0.0014688965166,-0.00742588704452,-0.0069175590761,-0.00750689255074,0.00408256845549,-0.00733618345112,-0.00627425173298,0.00161048560403,-0.000421906035626,-0.00210214033723,-0.00226300838403,0.00551389157772,-0.0065497495234,0.00654183421284,-0.00410277349874,-0.000214331230382,0.00702872220427,0.00211801729165,-0.00386308738962,0.00741995731369,0.00482980487868,-0.00289339292794,0.00150614615995,0.000842779059894,0.00177565717604,-0.00585183175281,0.00222082110122,-0.0044362032786,-0.00281316484325,0.000676089955959,-0.00445359852165,0.00602849526331,-0.00129677634686,-0.0051873116754,-0.00680267577991,0.00431908853352,0.00504236994311,-0.00650637270883,0.000633438117802,0.00233229366131,0.00626757740974,-0.00700530596077,-0.00238658254966,-0.00590746756643,-0.00113482552115,-0.00200646556914,0.00143798801582,0.00266944500618,0.00713572278619,-0.00523674767464,0.00458443677053,0.00530718825758,0.00097076036036,0.00440798932686,-0.00235401443206,-0.00721551058814,-0.00542449764907,-0.00516636949033,0.00575958704576,0.00703334389254,-0.00153643416706,0.0023790022824,-0.00306849065237,-0.000873473996762,0.00183021137491,0.00546483043581,-0.00116234633606,0.0030389172025,-0.00391003210098,-0.00267773447558,-0.00436157593504,0.00560159841552,-0.0059202844277,0.00413436302915,0.00200289813802,0.00228271912783,0.00578517606482,0.000443178723799,-0.00657857162878,0.00662145670503,-0.00254214997403,-0.00728947622702,0.000479517504573,-0.00221707229502,0.00632266979665,0.000132885776111,-0.00692516285926,-0.00407482264563,-0.0043046688661,0.00403774157166,-0.0067378859967,-0.00273101218045,0.00259764469229,0.0017120904522,0.0022405164782,0.000878504244611,-0.00504248403013,0.00265283579938,0.00692193955183,-0.00712011801079,-0.00217003538273,-0.00325419916771,-0.00546837691218,-0.00367359328084,-0.00736181344837,0.00216561299749,0.00169765471946,1.53537584993e-05,-0.00290787918493,0.0073116896674,0.00180202280171,0.00594080332667,-0.00303055206314,0.00390117056668,-0.00765781942755,0.00269697816111,0.00379776023328,-0.00358340283856,0.00765530439094,-5.91440584685e-05,-0.00204816507176,-0.00489413365722,-0.00535005517304,-0.00455989316106,0.000525509531144,0.000531837751623,0.000438187998952,0.00551621010527,-0.00772518850863,-0.00362942391075,0.00591954076663,-0.00620673596859,-0.00474349409342,-0.00270639872178,0.0047928551212,0.00126173708122,0.000826764269732,0.0065272692591,-0.000227894692216,0.006865398027,-0.00568001531065,-0.00158045091666,0.00494056753814,-0.00543013494462,-0.00504055712372,-0.00185866211541,0.00658227968961,-0.00494212843478,0.00699835829437,0.00262081576511,-0.000477336696349,-0.00747762806714,0.000348017754732,-0.00133494753391,0.00445479201153,0.000880710082129,0.00727818114683,-0.00602288031951,0.0063708871603,-0.00189211568795,8.07880569482e-05,0.00541772367433,0.00281911646016,0.00685243541375,0.00744460755959,0.00214907014742,0.00088722986402,-0.0038477818016,-0.0035006578546,-0.00383584480733,0.00435995636508,0.00174666731618,0.00360317435116,0.00484520522878,0.00603537447751,-0.00548415351659,0.00575324194506,0.0022139409557,0.0064156637527,0.00658117653802,-0.00116769375745,0.00327011127956,0.00499481707811,-0.00377824646421,-0.000251079589361,-0.00375084788539,-0.00638659438118,0.00301977875642,0.00107991776895,-0.00157613039482,-0.00446843774989,-0.00482475152239,-0.00343581242487,0.0074089281261,0.00710681313649,0.00528907030821,-0.00669347494841,0.0050894333981,0.00391307938844,0.00673699844629,-0.000543758622371,0.000197768036742,0.00101267267019,0.000677092990372,-0.00290686031803,-0.00525786122307,0.0032360823825,0.00633485242724,0.00253557250835,0.0050472705625,0.000296093348879,4.69994447485e-05,0.00746018020436,0.00760019710287,0.00163679837715,-0.00203408277594,-0.00201010121964,0.00261116214097,-0.00429523689672,0.00737025821581,0.00324590643868,-0.00527124851942,-0.00213772244751,-0.00430568074808,-0.00642962986603,0.00219398550689,-0.00614666147158,-0.00164385023527,0.00257484405302,-0.00526955118403,0.00588737754151,-0.0049039083533,0.00166602898389,0.00649917125702,-0.0062861489132,-0.0061382134445,-0.00581815466285,-0.00224016769789,0.00260686618276,0.000565736088902,-0.0031451145187,0.00179167743772,-0.000856169732288,-0.00230460776947,-0.00184466678184,-0.00220119184814,0.000150938547449,-0.00187866971828,-0.00281606474891,-0.00279267271981,-0.00436733616516,-0.00450922502205,-0.00333219859749,0.00725809764117,-0.00459606805816,-0.000885732762981,0.00627463450655,-0.0075696092099,0.00158795749303,0.00568280788139,-0.00516129517928,0.0047958525829,0.00222449679859,0.00492807850242,-0.00665757758543,-0.00665680132806,-0.00554542755708,0.00735665671527,0.00581991486251,0.00108139787335,0.000403557671234,-0.00381515361369,-0.00448171840981,-0.00413289899006,0.00351523398422,0.00203301757574,-8.00712041382e-06,0.0051125488244,-0.00683691864833,-0.00719301495701,0.00491420039907,-0.0013268442126,0.00251950277016,-0.00151355809066,-0.000983597710729,-0.00740456301719,0.000434180285083,-0.00720504485071,-0.00232846685685,-0.00564326206222,-0.00439116498455,0.00625269999728,0.00720709608868,-0.00724265864119,0.00635325862095,0.00538372108713,0.000213778796024,-0.000288179464405,-0.0017805370735,0.0023313104175,-0.00493696285412,-0.00660753669217,0.0073686814867,0.0049208025448,-0.00188750925008,-0.00674042990431,0.00702056242153,-0.00696003204212,-0.00771254533902,-0.00329823000357,0.00374867720529,0.00529067404568,0.0012739058584,-0.000651144655421,-0.007518786937,-0.0023781163618,-0.00645516905934,-0.00436368351802,-0.00669124862179,0.00609013717622,0.00317689171061,-0.000737556023523,0.00662022968754,-0.00453086895868,0.00696823792532,-0.00660374574363,0.00459318142384,-0.00267647765577,-0.00571226375178,0.00246164528653,0.00205710669979,0.00666863378137,-0.00348779535852,0.00407510949299,0.00647352216765,-0.000707112078089,-0.00131345633417,-0.00206096284091,0.00743419211358,0.00163039902691,0.00647778250277,-0.000821093912236,0.00585743971169,-0.000619099941105,-0.00532437581569,0.00148818001617,0.00566049944609,-0.00722881965339,-0.00338070141152,0.00684675807133,-0.00358723010868,-0.00160939246416,-0.00269745034166,-0.00373766291887,-0.00170656386763,0.00538831250742,-0.0026654698886,0.00309708388522,-0.00396272493526,-0.00496453419328,0.00469796638936,-0.00578478723764,0.00417893799022,0.00206531118602,0.000522639951669,-0.000645757245366,0.000509157951456,-0.00582108041272,-0.00394909130409,-0.00746015598997,0.00303407432511,0.00455697532743,0.0028886157088,0.00318367267027,0.00557279353961,0.00308143114671,-0.00234480155632,-0.00406018691137,-0.0014194175601,-0.000605136097874,-0.00354455690831,-0.00322055444121,0.00320104253478,-0.00455405144021,0.00409037992358,-0.00378263602033,-0.00148133211769,-0.00350110977888,0.0049261203967,-0.00166765740141,0.00735150743276,0.00152104254812,-0.00749347871169,0.00482976529747,0.00288690440357,-0.00379780400544,-0.00360663188621,-0.000153859189595,0.00253444584087,0.00613476149738,-0.00518392957747,-0.00516822002828,0.00300891627558,-0.0028451771941,-0.00424584001303,0.00285936403088,-0.00681715831161,0.000450137478765,0.00213604187593,-0.00181326805614,-0.00581058347598,-0.00246352003887,-0.00109512847848,-0.00526430783793,-0.000205787218874,-0.00251467409544,0.00614647660404,-0.00675139576197,0.00259591406211,0.00339799304493,0.00165428442415,0.000309787137667,-0.0059647122398,0.00164248177316,0.00100126734469,0.00634425040334,0.00571694038808,-0.00742689240724,0.00745180947706,0.000982900266536,0.00639294320717,-0.00544061372057,0.00300353090279,-0.000669428962283,-0.00567374145612,-0.00739316130057,-0.00440592225641,-0.00748576503247,0.00148201035336,-0.00304018636234,0.00697208102793,0.002016620012,0.0040404680185,-0.00105173524935,-0.00362247508019,0.00409680744633,-0.000528230157215,0.00768032250926,0.00139878853224,0.0052974303253,-0.00330302747898,-0.00115818658378,-0.00403285073116,0.00422110082582,0.00394065398723,0.00140085397288,0.00353709841147,-0.00218120240606,0.00580543419346,0.00648800376803,0.00250129494816,-0.00199003703892,0.00524529535323,0.00738770142198,0.00119184411597,0.0024397035595,0.00538439350203,0.00263733812608,-0.00470647122711,-0.00121398991905,0.00170187663753,-0.00058628746774,0.00275010918267,-0.00339885079302,-0.00529397604987,-0.00730532035232,-0.00714311748743,-0.00223842915148,-0.00740810949355,-0.00355093250982,0.000179660622962,0.00374090205878,0.00134535809048,0.000506424810737,-0.0040069934912,-0.00750075047836,-0.00574117153883,0.00740899564698,0.00657474715263,-0.0029495798517,-0.00279766670428,0.00600464409217,-0.00653941230848,-0.00510605378076,-0.00593162514269,0.00568971084431,-0.0076497043483,-0.00752843404189,0.00480881985277,0.00207813014276,0.000940461526625,0.00649137143046,-0.000291479140287,-0.000546573312022,-0.0012575618457,0.00231472519226,-0.00276351883076,0.00256407167763,0.00310844066553,-0.00448782369494,0.00143058574758,0.00346542173065,0.00708329072222,0.00673890300095,-0.00457639666274,0.00116846698802,-0.000497279805131,-0.00235108961351,-0.00246060825884,0.00724372360855,-0.00717640249059,0.00541634159163,-0.000742304953746,0.00100465957075,0.00366794876754,-0.000698022078723,0.00749653810635,0.00564928911626,-0.00444701500237,0.00260572950356,-0.000404692487791,-0.0021684912499,-0.00231369282119,-0.00522935250774,-0.000678056851029,0.00145188928582,0.00457978667691,-0.00328437518328,0.00420136004686,0.00079639715841,-0.00376773998141,0.00439600972459,0.0015544159105,0.00698691653088,-0.00329896435142,0.00726852845401,0.00082384905545,-0.000731440959498,0.00575316837057,-0.00531352963299,-0.000620106933638,-0.00581348827109,0.00171380338725,-0.0070944451727,0.00737733533606,-0.00762448273599,0.00663631455973,0.00219199294224,0.00494783651084,-0.00222319969907,-0.00398439448327,-0.005077871494,0.000448077364126,-0.00363611383364,0.00583415618166,-0.00728693138808,-0.00644400762394,-0.00441828928888,-0.00647819554433,0.00503001455218,-0.00768657308072,0.00230826972984,-0.000719335279427,0.00417699525133,-0.0014150912175,0.00220634485595,0.00211686710827,-0.00213368656114,-0.0059866309166,-0.00106597458944,0.00575619610026,0.00454190513119,-0.00201646820642,0.00563574535772,-0.000977867632173,-0.00472028693184,0.00558546278626,-0.000130468222778,-0.00105349963997,-0.00412883656099,0.00404607830569,0.000737434718758,-0.00455446494743,-0.00375227886252,-0.00185166043229,0.000492077553645,0.00467224977911,-0.00455585913733,0.00364448945038,0.00638613943011,-0.00164765620138,-0.00210836925544,-0.000381685822504,0.00485627632588,-0.00632610870525,-0.00177758757491,-0.00730186142027,0.000237701780861,0.00681663909927,-0.00528114847839,-0.00381266302429,0.00303207617253,0.00290258205496,0.00145507103298,-0.00401850230992,-0.00672169169411,-0.00431857537478,0.00211368361488,-0.00317705608904,0.00524164969102,0.00176179932896,-0.00697754276916,-0.00638790102676,-0.00341853126884,0.00110320840031,0.00671013211831,-0.00615557003766,0.00507095456123,0.00109151063953,-0.0021325557027,0.00217406591401,0.00436636293307,-0.00221276772209,0.00644485605881,0.000753833563067,-0.00532743567601,0.000689568347298,0.00406478904188,0.00130381912459,0.00126480602194,-0.00732196681201,-0.000599360908382,-0.00210803211667,-0.00707438634709,0.00276259286329,-0.00492401700467,-0.0023497545626,0.00116406136658,-0.000955066585448,0.00308051635511,0.0052873827517,-0.0051381229423,-0.00345050171018,-0.00488237524405,-4.58840222564e-05,-0.00652695493773,0.0036901824642,-0.00577556621283,0.00686172535643,0.00521963834763,0.00720928376541,-0.00712383072823,-0.00458382396027,0.00708172982559,0.0074442117475,-0.00341995991766,0.00148866558447,-0.00454975757748,0.00605758605525,-0.00563997076824,0.00286959041841,-0.00327417603694,-0.00198316527531,0.000704500882421,-0.00115498306695,0.000325873319525,0.00273708673194,-0.00318024610169,0.00365022174083,-0.00131352466997,-0.00741579243913,0.0053144400008,-0.00340635492466,0.00552421109751,0.00373914162628,-0.00147528538946,0.00228391564451,0.00755695160478,-0.00300643104129,-0.000797214976046,-0.0054568327032,0.00569920614362,0.000783843104728,-0.00617591664195,0.00147347257007,-0.000527022755705,-0.00300502823666,-0.00746051082388,-0.00440992601216,-0.00457012699917,0.00329171959311,-0.00374808418564,0.00735405832529,-0.00490855006501,0.00603415863588,-0.00211155368015,0.00767521420494,0.00465600797907,0.00157335610129,0.00507046002895,0.00609111133963,0.0076471529901,-0.0051222583279,0.00127559539396,-0.00178784970194,-0.00180908560287,0.00200084946118,2.28732242249e-05,0.00475120637566,-0.00269151525572,0.000421677192207,0.00714404694736,-0.0063610621728,-0.00361405825242,-0.00618911813945,-0.00679003121331,-0.00750099727884,-0.00211719516665,0.00533782551065,-0.00402810890228,-0.0027511138469,0.00545806251466,-0.00544301699847,-0.0041028028354,0.00322906416841,0.00367872603238,-0.00222222856246,-0.00759603595361,-0.0018698037602,0.00329504837282,0.00328461523168,-0.00126815715339,-0.00236436119303,0.00308814481832,0.00689841294661,0.00448834616691,-0.00420871842653,0.00710971839726,0.00166275806259,-0.00601190002635,-0.00254855165258,0.00342787476256,0.00567686744034,0.000424733560067,-0.00562145514414,-0.00584033643827,-0.00271659344435,-0.0071683190763,-0.00128737243358,0.0042466125451,-0.000632048235275,0.00506783463061,0.00239715282805,-0.00476364186034,-0.00444310577586,-0.00235559791327,0.000551760487724,0.00271592754871,-0.00508089503273,-0.00538659468293,-0.00756106618792,-0.00601040245965,0.00385126844049,-0.00689741736278,0.00159710156731,0.00152149272617,0.00756630906835,0.00270621129312,0.00303986947984,-0.00636873301119,0.00577280437574,-0.00281309452839,-0.00292840576731,-0.000565136491787,0.00316912983544,-0.00320771848783,0.00424762396142,-0.00396140944213,-0.00585802458227,0.00299928127788,0.00647001201287,0.00628594821319,-0.00678848288953,-0.00170881056692,-0.00331829441711,-0.000735607405659,-0.00697456626222,-0.00141462974716,0.00707745179534,0.000996834947728,-0.00439951941371,0.00473602395505,-0.0016207593726,-0.00676882453263,-0.00231447000988,0.00481061358005,-0.00434289919212,-0.00271346396767,-0.0035621933639,0.00610720040277,-0.00321254110895,-0.00404405128211,0.00655632093549,0.00767676904798,0.00141177023761,0.00667793909088,0.00410511437804,-0.00485352240503,0.00280621601269,0.00444492697716,0.00371789513156,0.000429896608694,0.000202273949981,0.00493470719084,0.00288458401337,0.00448829028755,-0.00454752193764,0.00716625479981,0.00356093118899,-0.00123063358478,0.00149923027493,0.00212503643706,0.00461676064879,0.0030664622318,0.00528327608481,-0.00165666628163,-0.00124727899674,-0.00483861099929,0.000210029567825,-0.00156009255443,0.00250333105214,0.00154764472973,0.00547609990463,-0.00516020553187,0.00637093558908,-0.0043540596962,0.00336536881514,-6.79400909576e-05,0.00308699649759,0.000518898945302,0.00231149466708,0.00384877761826,-0.00477696256712,-0.00247390544973,0.00562685029581,0.00514653138816,0.00275418092497,-0.00304540270008,-0.00457420106977,-0.00700842402875,0.00665817968547,0.00205564056523,-0.0013817474246,0.00289337569848,-0.000685802486259,-0.00234185974114,-1.95242719201e-05,0.00361429806799,0.00517466338351,-0.00621697679162,-0.00675309076905,-0.00250218063593,-0.00715037481859,-0.000117236479127,0.00496230088174,-0.00238794879988,-0.00041041962686,0.00111003266647,0.00634704297408,0.00654706684873,0.0019977001939,-0.0075967637822,-0.00482765957713,-0.0046413638629,0.00148987490684,0.0031665766146,-0.0063808648847,-0.00328347529285,7.29966195649e-05,0.00415429007262,-0.00243464205414,-7.7365024481e-05,-9.33433839236e-05,0.00655244290829,0.00529416976497,0.00548950582743,-0.00517928088084,0.00615221215412,-0.00167393416632,0.000656716525555,0.00173039815854,-0.00111152243335,-0.00245324824937,-0.00392288016155,0.000175270979526,0.00517692044377,0.00405939575285,0.000118891650345,-0.00245994864963,-0.00755425449461,-0.00454504787922,-0.00486745359376,0.0013295969693,0.00645982008427,-0.00286335102282,0.00449710665271,-0.0026548798196,0.0071365237236,-0.00473672663793,-0.00146413582843,-0.00543867843226,-0.00425241375342,-0.00610843254253,-0.00605361862108,0.00195605074987,0.00435375142843,-0.00649326480925,-0.0043282341212,-0.00278832437471,0.00671370327473,0.00148601771798,-0.00608825078234,-0.00203742668964,0.00329384463839,0.00735366344452,0.00365171791054,-0.00494757667184,0.00489897280931,-0.00769234914333,-0.000301292340737,-0.00242059514858,0.00685881311074,-0.00703751435503,-0.00380190741271,-0.00373565661721,-0.00121200911235,0.00650415755808,0.00232596206479,-0.00587208010256,0.00498422933742,0.00197427161038,-0.00749689619988,0.00643043639138,-0.00701413815841,0.00166727986652,0.00152671744581,0.00164958147798,0.00534552987665,-0.00583806913346,0.000505552685354,0.00110641110223,-0.00160890142433,0.000403686863137,-1.50232790475e-05,0.00396959995851,-0.00549238128588,-0.00728728948161,0.00663214037195,-0.00290329917334,0.00447514466941,-0.00280931335874,-0.00768307037652,-0.00441658636555,-0.00611660815775,0.0049537117593,-0.00510806962848,0.00759197911248,0.00171215028968,-0.00276014674455,4.6334011131e-05,0.00709853647277,0.00207402859814,0.003887017956,-0.000123813690152,0.000478127971292,0.00744128413498,0.00158520275727,0.000619790051132,0.0057361270301,-0.000818744651042,-0.000441896205302,0.00320938671939,-0.00528505863622,-0.00574198644608,0.00179150316399,-0.00492022465914,-0.00102987128776,0.00466382596642,-0.00296788197011,0.0037045776844,-0.0026917157229,-0.00713783642277,-0.00633707642555,-0.00105551234446,-0.00284538348205,-0.000513972481713,0.000321375380736,0.00679740030318,-0.000464481534436,0.00548228202388,0.00537767028436,0.00594472559169,0.000550557801034,-0.00333489966579,0.00439337594435,-0.00276109506376,0.00608379114419,-0.00612301938236,0.00272508664057,-0.000313331140205,0.0016281013377,-0.00602458370849,0.00724915694445,0.0032850955613,-0.00334141170606,0.00598672032356,-0.000752269290388,-0.00486966501921,-0.00109523546416,-0.00281299976632,0.00319223594852,-0.00741298915818,0.00584310712293,-0.00106872001197,-0.00599820259959,0.00410959124565,0.00751169631258,0.00619108276442,-0.00519922422245,-0.00440719770268,0.00749324588105,-0.00462109548971,-0.00309407152236,0.00186229241081,-0.00325366156176,-0.00186442350969,0.00369014940225,0.00140659930184,0.00475305458531,0.00421809218824,0.00458523631096,-0.00500577595085,-0.00378465163521,-0.00493254605681,-0.005857586395,0.00537254055962,-0.00769129022956,0.00193444243632,0.00572132179514,-0.00516522210091,0.00662808679044,0.00702685303986,0.00121349771507,0.0025458689779,-0.00486867316067,0.00743965711445,0.00366352708079,0.000218036700971,-1.71445062733e-05,0.00178851408418,-0.00487540196627,0.00146503001451,-0.00666990224272,0.001585074584,0.00112089072354,-0.00223024818115,-0.00635586632416,0.000741553376429,-0.000996958464384,-0.0029278555885,-0.00114334153477,-0.00680873310193,-0.00643345993012,-0.0055215228349,0.000792450329755,-0.00337964785285,-0.0041203876026,0.00198152614757,0.00146214629058,-0.00253426237032,0.00670960079879,-0.00160915043671,-0.00482901372015,0.00596220092848,0.00308194337413,0.00380367343314,0.00534804724157,0.0045334934257,0.00532976165414,-0.00424074660987,0.00174965173937,0.00267403223552,-0.0032369652763,0.00759077910334,0.00470444466919,0.0063614686951,-0.00540696596727,-0.00717215100303,-0.00731305964291,0.00562190962955,0.000678534794133,-0.00300528923981,0.00467842118815,0.00218562129885,0.0018062510062,0.0045603653416,-0.000507864926476,-0.00525245349854,0.00641293963417,0.00560500007123,-0.00391179183498,-0.00267339777201,0.00490855192766,0.00725591275841,0.00421862630174,-0.00694099115208,-0.00144751998596,0.00422848341987,-0.00055725814309,0.0026823177468,-0.00718804448843,-0.00448274426162,0.00396570609882,-0.00477718375623,0.00723994709551,-0.00208955607377,-0.00475118635222,-0.00474982522428,-0.00504709780216,-0.00238802703097,0.00122602330521,0.00587959354743,0.00665715057403,0.00150791020133,0.00201623793691,0.00028974423185,-0.00255390699022,0.000490548030939,-0.00519601488486,-0.00276838499121,-0.00467045651749,0.00521117728204,-0.00523421866819,0.00377765437588,-0.00672558881342,0.00243154214695,0.00406566914171,-0.00619765790179,0.00416481262073,0.00129272020422,0.00283962464891,0.00341234332882,-0.00523116998374,0.00456441054121,0.00431452505291,0.00223081419244,3.76170100935e-05,0.00536480778828,0.00583993829787,-0.00258507602848,0.000472220766824,-0.000809877063148,-0.00119046261534,0.00502453651279,0.00248865876347,-0.00043831547373,0.004416922573,0.00680315122008,-0.00146032113116,-0.00566248828545,0.00644334731624,0.00702307745814,-0.00143827951979,0.00225486513227,-0.00635593617335,-0.00703529361635,-0.00629472685978,0.00420037051663,-0.000667634827551,0.00236592139117,0.000810419442132,-0.00475720595568,0.00481899036095,-0.00444324500859,-0.00493540149182,0.00178588973358,0.00566672394052,0.00561868213117,-0.000982323195785,0.00283003412187,0.00498874112964,-0.00441148225218,-0.00165361654945,0.00202632602304,0.00520667852834,-0.00256332592107,0.00183944473974,-0.0068452693522,0.00664276536554,0.00607928680256,0.0064828582108,0.00719486130401,0.00530289718881,-0.00449333246797,0.00121251342352,-0.00498352432624,-0.00744195049629,-0.00554564362392,0.00523359607905,0.00371977174655,0.00396937970072,-0.00149365281686,-0.0073442524299,-0.00285371649079,-0.000733222346753,-0.00223153550178,-2.08169240068e-05,0.00169166177511,-0.00593574624509,0.00625353725627,0.000885071407538,0.00545496866107,-0.000436127214925,0.00352899287827,0.00605676043779,0.00151874113362,-0.00144973269198,0.00112867122516,-0.00518225692213,0.0030939350836,-0.00716971280053,-0.000764026073739,0.000678820186295,-0.00153321248945,-0.000295065052342,-0.00503523740917,-0.00654078554362,-0.000907819543499,0.00666396366432,-0.00497231772169,-0.00337703060359,0.00581944454461,-0.00361879868433,-0.00179432402365,-0.00617631478235,-0.00702736247331,0.00244531943463,-0.00545007642359,0.000873599492479,-0.00110727187712,-0.00629104860127,-0.0011275728466,-0.00391661049798,0.00550193618983,-0.00369480880909,0.0030298337806,0.00281437719241,-0.00477084098384,0.000824110524263,0.00523337116465,-0.00620278622955,0.00167068571318,-0.00513507891446,-0.00403585238382,0.00225344276987,0.00209655752406,0.00250518438406,0.000622145948,0.00434623612091,0.00225505954586,-0.00445939181373,-0.00618751300499,-0.0075944531709,-0.00764397252351,-0.0061108963564,-0.00105043826625,-0.00766156893224,-0.00184623349924,0.00424411986023,-0.0057698241435,0.00440722005442,-0.00482050096616,-0.0042328373529,-0.0039870403707,-0.00275606452487,-1.94563417608e-05,0.00275137042627,0.0042239325121,-0.00741974124685,-0.00550761446357,0.00379595067352,0.00416815839708,0.00682146567851,-0.00325992656872,-0.0042745671235,0.00110191432759,-0.00653722602874,0.00343977799639,-0.00037292324123,0.00320528051816,-0.00530497543514,-0.000579241663218,-0.00242520775646,-0.000478384259623,0.000862128159497,0.00281699304469,0.0056283804588,-0.00415321998298,-0.00116098846775,-0.0060031702742,-0.002591523109,-0.00188537419308,-0.000938068376854,0.00655542919412,0.00629410380498,-0.00668285740539,-0.0013619196834,-0.00280957156792,-0.00217619515024,0.00383491744287,-0.00470538716763,0.00391599303111,0.00640449812636,0.0029580926057,-0.00139830366243,-0.00678244698793,-0.0061426484026,0.00328388414346,-0.00599676044658,-0.00136396801099,0.00569331506267,0.00051675416762,-0.0025599191431,-0.00419353507459,0.000577043858357,-0.00250804494135,0.00704201078042,-0.00754881463945,0.00683092791587,-0.00449619349092,0.00110462412704,-0.00368747673929,0.00485938088968,0.00303148082457,-0.00414075003937,0.000961112440564,0.00626522442326,-0.00430001178756,0.00480268569663,0.00448074890301,-0.00184883410111,-0.00716572022066,-0.00518125295639,-0.000441426469479,-0.000490870443173,-0.00612132903188,-0.0033274278976,-0.00192250381224,0.00485003413633,0.00611017178744,0.00156069919467,-0.00352992047556,0.00282799801789,0.00682546617463,-0.00605493970215,-0.00341994385235,0.000685136357788,-0.002490329789,0.00558664882556,-0.00371950305998,0.00587189476937,0.00509535660967,-0.0051600644365,-0.00630258861929,0.00269346032292,-0.00159170641564,-0.00416869157925,0.00636705663055,-0.00638562720269,0.0050750747323,0.000911992392503,-0.00586835248396,-0.00196163565852,0.000496463035233,-0.00509148743004,-0.00577968684956,-0.00353842973709,0.000909129274078,0.00416402705014,0.00709161395207,-0.00546070514247,-0.00761848688126,0.00740310363472,-0.00563484849408,0.00385506590828,0.00418914109468,-0.00644827168435,0.00477011827752,-0.00389924040064,0.00449337810278,-0.00283465231769,0.00383282732219,0.00521413516253,-0.00768255256116,0.000331735966029,-0.00246675591916,0.00528021994978,-0.000293186312774,-0.00184350693598,-0.00546375336125,-0.00337406201288,0.00759745575488,0.00547753460705,-0.00301341060549,0.00179435836617,0.00765698915347,0.00289239129052,-0.00251338840462,-0.00711803650483,0.00459170248359,-0.00333741027862,-0.00552616082132,-0.00596383446828,-0.00609031226486,-0.00598516268656,0.000218886503717,0.00404065195471,0.00603375257924,0.00284470734186,-0.0062698032707,0.00687073962763,-0.00765775050968,0.00386469950899,0.00741485133767,0.00605659373105,0.00330568524078,0.000354730320396,0.00767996534705,0.00190290238243,0.00507273525,-0.00494321109727,0.00212979246862,-0.00754020595923,0.00472807092592,-0.00137625809293,-0.00376527081244,-0.00375081808306,0.00737535674125,0.00562072079629,0.00442604953423,5.16977816005e-05,-0.00158689438831,0.00137404620182,0.000669839093462,0.00594440102577,0.00727411964908,0.00662489188835,0.00410956889391,-0.00148656149395,0.00400620419532,0.00429216818884,-0.00512060243636,0.00489580398425,0.0063342647627,0.00385121302679,0.00276557519101,-0.00438591279089,0.00209865882061,0.00199357466772,-0.00195473688655,-0.00600244943053,-0.00104657211341,0.00646643107757,0.00431412225589,-0.0022766336333,-0.00471828272566,-0.000635493721347,0.00395536562428,0.00283164507709,0.00587774161249,-0.00294371484779,-0.000120529883134,-0.00378099968657,0.00418388331309,-0.00126862386242,-0.00114127574489,0.00482250610366,0.00351293827407,-0.000470125902211,-0.00193943735212,0.00287253526039,0.00679294159636,-0.00119854160585,-0.00715033337474,0.00581153202802,-0.00518330605701,0.00616162084043,0.00505116768181,0.00242963992059,0.00530379638076,-0.00374212604947,0.00545691652223,0.000916395627428,-0.00501736160368,-0.00381247932091,0.00444893958047,0.00526497187093,0.00575948134065,-0.00489544542506,0.00618010247126,-0.000119904980238,0.00758744077757,-0.000387824722566,-0.00384987588041,-0.0068186619319,0.00252171652392,-0.00766414357349,0.00516128353775,-0.00294484873302,0.00253539346159,-2.87195089186e-05,0.00240199873224,-0.00692044198513,-0.00470424816012,0.00604491215199,-0.00129720405675,0.000984078156762,-0.000687069026753,0.00631584366783,-0.00467172684148,0.00519700860605,-0.00682297209278,0.00548092508689,0.00618497794494,0.0044392501004,-0.00347323669121,-0.00598902348429,-2.02842165891e-05,0.00252574286424,0.00489279394969,5.78790313739e-05,0.000686517043505,0.00669638812542,-0.00701282965019,-0.00282786833122,-0.0009878721321,0.00211957423016,-0.00628335447982,0.00575177092105,-0.00286697642878,-0.00489398697391,0.00137886987068,-0.00558104924858,-0.00265628169291,0.00560157140717,0.00448246393353,-0.00336246239021,-0.00122222211212,0.000135435417178,0.00105109298602,-0.00306347664446,0.000543086964171,0.00423401035368,0.00288713444024,0.00697642518207,-0.00401675747707,0.00276760663837,0.00695706577972,-0.00621657073498,0.000972454319708,0.00749263120815,-0.00675177946687,-0.00209838524461,-0.00638803793117,0.00134087819606,0.0054606157355,-0.00396586302668,-0.00454769749194,0.000481174996821,-0.00221238099039,0.00505256466568,-0.00562957208604,0.00641621416435,0.00481537217274,-0.00746388128027,-0.00339963240549,0.00640277797356,0.00550160929561,-8.8185101049e-05,0.00074996665353,-0.00644980277866,0.00464670779184,-0.00651872716844,0.00224046641961,-0.005939302966,-0.00100381555967,-0.00214025657624,-0.00129506166559,0.00121478491928,-0.00553048122674,-0.00425449572504,-0.00606927182525,0.00238037644885,-0.00687966635451,0.00246163317934,0.00731688924134,0.0060237981379,-0.00266505358741,-0.00438542943448,0.00712155969813,-0.000850153795909,-0.00226087193005,-0.00575416674837,-0.00512901274487,0.00374769512564,-0.00459132809192,-0.00493683852255,-0.00272648851387,0.00639620656148,0.00139627896715,0.00426174281165,0.00339542748407,0.00696031888947,0.00295562716201,-0.0057669649832,-0.00458069052547,0.00314760557376,-0.00438127480447,0.0050587025471,0.00587701331824,-0.00130374007858,-0.0017985815648,-0.00583522440866,0.00677449954674,-0.000181623312528,0.00322852167301,-0.00526565033942,0.000627868517768,0.004295184277,0.00152850314043,-0.00183672131971,0.00179120805115,0.0076656374149,0.00283672800288,6.56766860629e-05,0.0055021783337,-0.000432318774983,-0.000720616080798,0.000904704851564,-0.00275495904498,-0.00659628678113,-0.00187983259093,0.00357290031388,-0.000174459084519,0.00549219083041,-0.00488652428612,-0.00427100434899,0.00224575237371,0.00493352906778,0.00303591554984,-0.000845576287247,0.00593338580802,0.00272696581669,0.00518595147878,0.00625144690275,0.000480554939713,0.001381951035,0.00259417830966,0.00730767892674,0.00474102236331,-0.00715909106657,-0.00107416731771,0.00570874521509,-0.00713684316725,0.00202837307006,0.0068864361383,-0.00288466433994,0.00344711332582,-0.00289034331217,0.00217820703983,0.0067531587556,-0.00200572353788,0.00711853103712,-0.00180139485747,-0.00165219721384,0.00409434689209,-0.00213106605224,-0.00264011998661,-0.00483550876379,-0.00632665958256,0.00522808078676,-0.000354445714038,0.0023476856295,-0.000322559615597,-0.00192325143144,-0.00139364949428,-0.00647439528257,0.00270084734075,0.000206153854378,-0.00667787529528,0.00200049229898,-0.00446469802409,-0.00556319579482,0.00737930182368,-0.00647509563714,0.00356946350075,0.00306200282648,0.000356916891178,-0.00637657567859,-0.00318531156518,-0.00520602473989,0.00748306280002,-0.00616648048162,-0.00750086409971,-0.00431763613597,0.0044154394418,0.00532945757732,0.00313190557063,-0.00100829417352,0.00451375031844,0.00275486242026,0.00764049310237,-0.000917152385227,-0.00479784188792,-0.00667038140818,0.00193628051784,0.0067282342352,0.00443392852321,0.00360658764839,0.000287547445623,-0.00491874292493,-0.00346757890657,-0.00334672327153,0.00256276759319,0.0055156913586,-0.00558818085119,-0.00718683283776,0.000193383108126,0.00615517050028,0.00713371858001,-0.000317640980938,-0.00384608004242,0.00413499912247,-0.005087335594,0.00501648848876,0.00571443280205,-0.00289754010737,-0.00487017631531,-0.00598300993443,0.00171153887641,0.00745278643444,-0.000799128203653,-0.00363237410784,0.00507197761908,0.0033109637443,-0.00655815610662,-0.00367771275342,-0.00193941860925,-0.0043560010381,0.00592799019068,-0.00481201941147,0.00454150559381,0.00374434958212,-0.00751095637679,-0.00339130195789,0.00018355618522,-0.00431540794671,0.00492574833333,-0.00562197947875,-0.00512689817697,0.0013833437115,-0.00733517901972,0.00762836961076,0.000486345117679,0.00235840608366,-0.00379743683152,0.00703478045762,-0.0025379259605,-0.00572516396642,-0.000676638330333,-0.00573312304914,0.00715164234862,9.60077959462e-05,0.00156592368148,-0.000221568348934,-0.00410662358627,-0.0050690821372,0.00720265088603,-0.00280019338243,-0.00679769692943,9.1365283879e-05,-0.00393112422898,0.00320469611324,-0.00186476728413,0.0067076003179,-0.000975120754447,0.00274078152142,0.00540930451825,0.00562978675589,0.000848873809446,0.00470400275663,-0.00387290515937,0.00159878318664,-0.0071850088425,-0.0025473870337,-0.00236276630312,0.0057848226279,-0.000390355446143,0.00373090850189,-0.000428553146776,-0.00285463151522,0.00679968763143,0.00194027507678,0.00219374918379,-0.000119015821838,-0.00483324984089,0.00518590258434,0.00369716645218,-0.0018081831513,0.00676016882062,-0.00239208992571,-0.00709836464375,-0.00367296952754,-0.00201035663486,0.00495855463669,0.00445607490838,-0.00102565041743,0.00311735202558,-0.00417553447187,0.00604991940781,-0.00674827815965,-0.00154124316759,0.0047951056622,0.000187101279153,0.00486301770434,-0.00513081904501,-0.00380762200803,-0.00153854815289,0.00556408148259,0.00707671884447,-0.00681902095675,0.00681787077338,0.00308028515428,-0.000227986703976,-0.00393284717575,-0.00331529648975,0.00255554402247,-0.00120669195894,-0.00721181323752,0.00721454015002,0.00257888319902,0.00448250770569,0.00223102699965,0.00332215707749,-0.00709187984467,-0.00169048283715,0.00673934072256,0.0070719816722,0.00649440847337,0.00771711114794,-0.00660937931389,-0.00671368325129,0.00669876020402,-0.00722781661898,0.00596463074908,0.00581913907081,0.000655716634355,0.00588982412592,0.00291767343879,-0.00504988618195,0.0053302408196,-0.0015079221921,-0.00434413226321,0.00738361570984,0.00287101930007,-0.00483811739832,0.00573760271072,0.00503136590123,-0.00610646093264,-0.00574335502461,-0.00424591079354,0.00618725083768,0.00349374907091,0.00621430343017,0.00533878058195,0.000525993411429,-0.00691275577992,0.00342670106329,0.00182298035361,-0.00411507720128,0.0065681533888,0.00290347961709,0.00468563707545,0.00427908450365,-0.00573927536607,-0.003383703297,0.00405194284394,0.00130755873397,-0.00577102974057,-0.00116470828652,-0.00400773389265,0.00383461918682,-0.00557504501194,0.00176424672827,-0.00726886745542,0.00296177901328,-0.00632323510945,-0.0057176137343,-0.000303525739582,-0.00753689138219,0.00739224348217,-0.0035302459728,-0.00762883154675,0.00563627481461,-0.00667455373332,0.00579282781109,0.00462481332943,-0.00583430565894,-0.00595702696592,0.00375608610921,0.00441575376317,-0.00190285407007,0.00582365551963,-0.0046399012208,0.00172420858871,-0.00129152787849,-0.00255296425894,0.000593657663558,-0.00302974390797,-0.00426240032539,0.000640490849037,0.000438810879132,0.00480686221272,0.0023398490157,-0.00253755459562,0.00290986662731,-0.00590132409707,-0.00489968061447,0.00134678580798,0.000893111748155,0.000481516733998,0.00208658864722,-0.00532066868618,0.00466454355046,0.0058094211854,0.000340511149261,0.00286791892722,0.00494894525036,0.00233451463282,-0.000995985348709,0.00284303724766,0.00666322605684,-0.00327893905342,0.00466398661956,0.00769048556685,0.00407146057114,-0.00290705030784,-0.0058176247403,0.000701476354152,-0.00590776372701,-0.000577627215534,-0.00250605656765,-0.00036005891161,-0.00284330220893,0.00533715914935,-0.000957010430284,-0.00608410220593,0.00226388010196,0.00431097298861,-0.00114746205509,0.00164451880846,-0.000816721876618,-0.00460032140836,0.0015113602858,0.00312068895437,-0.00385638815351,0.00325040169992,0.00556980306283,0.00645163143054,-0.00503590749577,-0.00511583546177,0.0057166730985,0.0028678777162,-0.00569527223706,-5.71275231778e-05,0.00402733962983,-0.00462587643415,0.00635202974081,0.00566606363282,0.00146220787428,0.00430456455797,-0.00540289236233,-0.00386876403354,0.0042517031543,-0.000840320717543,-0.0049048778601,-0.00322126899846,0.00190423242748,-0.00706445472315,-0.00541026564315,-0.00457262573764,0.00599815277383,0.00600151950493,-0.00441969651729,0.00152809161227,-0.00214518373832,-0.0069269919768,-0.00533586274832,-0.00762238074094,0.00748604675755,0.00232354807667,-0.00565727753565,0.00361766549759,0.00174635404255,-0.00450689764693,-9.36246433412e-05,0.00172008632217,-0.00211802613921,0.00709098018706,-0.00624202052131,-0.00575867341831,0.00551632745191,-0.00384109979495,-0.00569414300844,-0.00173182750586,-0.00510571477935,8.00548514235e-05,0.00361910718493,0.00395733583719,-0.00302059343085,0.00295131467283,0.00720102526248,-0.00758467009291,0.00227664969862,1.11773815661e-05,-0.00161467457656,-0.00447049783543,-0.00578495906666,0.0065136491321,-0.00722959963605,-0.000447260419605,-0.00453805178404,-0.00542609207332,-0.00225739460438,-0.00282054301351,-0.000572630378883,-8.83693501237e-05,8.46851835377e-05,-0.00566330272704,-0.00506437197328,-0.00269630295224,-0.00645220698789,0.0051615475677,-0.00619162758812,-0.0041759070009,0.00213512848131,0.00665801949799,-0.00562086747959,-0.000923500163481,-0.00311459018849,-0.000290501891868,-0.000937230011914,0.00121466978453,-0.00704032694921,0.00509511819109,-0.0071894004941,0.0011348137632,0.00486440956593,-0.00592061411589,0.00282224034891,-0.00445304019377,-0.00463321944699,-0.00701191136613,-0.0020159536507,0.00607684487477,0.0031708041206,0.00107640319038,0.00493376748636,0.00519602699205,0.00146334664896,-0.00290743494406,0.00589280715212,-0.00229762122035,-0.005025413353,0.000935230928008,-0.00639404729009,-0.00444043660536,0.00538339512423,-0.00125616136938,-0.000156766473083,0.000617585843429,-8.89713846846e-05,-0.0043338756077,0.00644104974344,0.00278478325345,0.00235099322163,0.00521562807262,0.00274530635215,-0.00582815613598,-0.0024574988056,-0.00193107093219,0.00267644040287,0.00318593648262,0.0008908326854,-0.0015285887057,0.00582399405539,0.000864711008035,0.00501508498564,0.00660820305347,-0.00117352441885,-0.00321208918467,-0.00195809127763,-0.00642257090658,-0.00229183002375,0.00011512223864,-0.00452232547104,-0.00495196459815,-0.00280728959478,-0.00614577624947,-8.91571471584e-05,0.00210792012513,0.00138080562465,-0.00337484409101,0.00558347627521,-0.0060064541176,-0.0076755322516,-0.0056242858991,0.00347323273309,0.00447175558656,0.00412897858769,-0.00269365799613,0.00580293405801,0.00602875044569,0.00495772715658,0.0036757318303,0.00528135616332,0.00246077030897,0.00718071265146,0.00202473113313,-0.00515052163973,-0.00488075939938,-0.00105297879782,0.00340453721583,-0.00553247099742,-0.00469348812476,-0.00650815479457,-0.00511393509805,-0.00430199317634,0.000921012542676,-0.00170423195232,-0.00625131698325,-0.00525426957756,0.000324681692291,-0.00566365104169,0.00355112995021,-0.00622743321583,-0.00476303882897,0.00582168949768,0.000536693143658,0.00756807578728,-0.00534460693598,-0.00650285603479,-0.00652722129598,0.00673731230199,0.00222879461944,-0.00249612447806,-0.00177043164149,0.00310772447847,0.00181899976451,-0.00220657209866,0.00295104645193,-0.00241084559821,-0.000716398237273,0.00543246883899,-0.00587307708338,-0.00102414365392,-0.00627976981923,-0.00710035208613,0.00721159344539,0.000981902703643,0.00738015444949,0.00555541040376,0.0075063444674,0.00672440929338,0.00587000139058,0.00347763369791,0.00363843329251,0.00684908544645,0.00737860891968,0.00686964113265,-0.000242668727878,0.00583439227194,0.000174503002199,0.00100836961064,0.00501787289977,0.00511121191084,0.00501452106982,0.00508510135114,-0.0011106148595,0.000487189361593,-0.00379931856878,-0.00054752023425,0.00712718022987,0.00490255421028,-0.00209780503064,0.00207294966094,-0.00378419482149,-0.00449831644073,-0.00125052651856,-0.00504364585504,0.000866395945195,-0.0011391218286,-0.00556229706854,0.00311548099853,0.00343238469213,0.00604733917862,0.00329528865404,-0.00434299465269,0.00253716413863,0.0073725041002,0.00546039314941,-0.000998979550786,0.00304748350754,-0.00744494935498,-0.00431557931006,-0.00153627269901,-0.00135586876422,0.00586177315563,0.00756964553148,-0.000681491917931,-0.00167822907679,-0.00567311095074,-0.00408814335242,-0.00554275279865,-0.00235367147252,0.0038331320975,-0.00736261485144,0.00574909988791,0.00345218507573,-0.00201184186153,0.000407473766245,-0.00601920671761,0.00432146061212,0.00436240946874,-0.00186463946011,-0.0036776997149,0.00132226862479,-0.00271981698461,0.00316633097827,0.00329746748321,0.00739986589178,-0.00225694919936,-0.00683863041922,0.00595656782389,-0.00755113642663,-0.000791714934167,-0.00372823094949,-0.00136521807872,-0.00500514032319,0.00271102925763,0.000969170127064,-0.00146100134589,0.002557041822,-0.00641037523746,0.00554445199668,-0.00068684364669,0.00180542678572,-0.00342813064344,0.00730422511697,-0.000732704356778,-0.00482845911756,-0.00524417404085,-0.00341252819635,0.00422684662044,-0.00294516328722,-0.00642723403871,-0.000799005269073,-0.00439063226804,0.00651488406584,-0.00194129126612,-0.00283342693001,-0.000778320769314,-0.00725447619334,0.000496943539474,0.00753172766417,-0.00240176217631,0.0067348103039,-0.00581745523959,0.00140768964775,-0.00508245360106,0.00587122747675,0.00348986615427,0.00580749800429,0.00298849307001,0.00268060388044,0.000460072420537,0.000722562719602,0.00438633654267,0.00114198215306,-0.00101746094879,0.00322278076783,0.00717974593863,0.00634056935087,-0.0026757416781,-0.00172852713149,0.00707752164453,-0.00410601636395,-0.00572761008516,-0.000346548709786,-0.000817245221697,0.000755157670937,-0.00720646092668,-0.00451502110809,0.00468778889626,-0.00213774549775,0.00644581159577,0.00107931206003,-0.00737146800384,0.00739668868482,-0.00280672917143,-0.00200579036027,0.00635458482429,0.00585097959265,0.00287250219844,-0.00754190701991,-0.00764439068735,-0.0049487836659,0.00406866287813,0.0051864720881,-0.0042260796763,-0.00648090196773,-0.00110796221998,0.00664064707235,0.000399155396735,0.00361640471965,0.00323947309516,0.00548708904535,0.0074942461215,0.00743385963142,0.00063912756741,-0.0025486794766,0.00446855183691,0.00314753432758,0.00439964793622,-0.00306570460089,0.00130424217787,-0.0048372107558,-0.0043077217415,-0.00199712929316,0.00327018997632,-0.00299607147463,-0.00262551358901,0.00463780760765,0.00640022754669,0.00526675023139,-0.0048448885791,-0.00063276081346,0.00315530365333,0.00329408072866,-0.00157258857507,-0.00120691303164,0.00121291435789,0.00276655959897,-0.00656343670562,0.00225303904153,0.000208613724681,-0.00711076008156,-0.00677738152444,-0.00462004728615,-0.00220936257392,0.00404431531206,-0.00283943093382,0.00408473005518,-1.41931095641e-05,-0.00446668034419,0.00429436424747,0.0034488060046,-0.00714119011536,0.00364551180974,0.00261936057359,-0.00190383812878,0.0020145305898,-0.00535986991599,0.00137168471701,-0.00503429258242,-0.00595747446641,-0.00460003316402,-0.00582569930702,-0.0057893129997,0.00593304820359,0.00617726473138,0.00363030075096,0.00437417253852,-0.00214169803075,0.00069683266338,0.00487493211403,-0.000150019186549,0.00367482216097,-0.00116423203144,-0.00235521001741,0.00537121575326,-0.00256492360495,-0.000358750286978,-0.00603009294719,0.000166984871612,0.00164570275228,-0.00167323742062,0.0022783970926,-0.000891101837624,-0.00112334173173,-0.00117952981964,0.0055636819452,0.00352824223228,-0.000654497998767,0.00215505831875,0.00501028262079,-0.000665194413159,0.00532817840576,-0.00496887788177,0.00144852907397,-0.00214511156082,-0.00617032544687,0.00606020586565,-0.000145823767525,0.000639409292489,0.00028499198379,0.000673911185004,0.00134017830715,0.00574842700735,0.006925531663,0.00185776059516,-0.00189922284335,0.000247097108513,0.00314678181894,0.000465362682007,-0.00367964617908,0.00166602060199,0.00601578550413,-0.0060570910573,-0.00660720514134,0.00734703149647,0.0046965633519,-0.00133450457361,-0.00725628482178,0.0067075882107,0.00455600814894,0.00167336291634,0.00452582491562,0.00199759774841,0.0026970426552,0.00625951681286,-0.00142549944576,0.000449825485703,0.00435345293954,-0.00352177349851,0.00157998397481,-0.0023017025087,-0.00691895373166,-0.00531609123573,-0.00595127465203,0.000768715050071,-0.00585195468739,0.000672904890962,0.00362448371015,0.0020528503228,0.0038586424198,-0.000118058043881,0.00368987955153,0.00451382016763,-0.00383147550747,0.00551586505026,0.00674778362736,0.00358379073441,0.00728791812435,-0.00670351739973,-0.00538453971967,0.00623118272051,-0.00722574116662,0.0013732125517,-0.0035505683627,-0.000675184070133,-0.00173640903085,-0.00479320809245,0.0013423950877,-0.00457245716825,-0.00141435419209,0.00419188896194,0.00263244193047,0.00232654321007,2.157682502e-05,-0.00478599779308,-0.000825437891763,-0.000448743521702,-0.00456724222749,0.00158507050946,0.000221009846427,-0.0026497207582,-0.00449881749228,-0.0055014626123,0.00589331658557,0.00679531833157,0.00494033098221,0.00146928045433,0.00714319571853,-0.000491937797051,-0.00701382709667,-0.00193839822896,-0.00494033657014,0.00296889455058,-0.0031361381989,-0.00045853832853,0.00671676872298,0.00761388987303,0.000552444078494,-0.00345394504257,-0.000921713595744,0.00580546306446,-0.00402899365872,-0.00673847040161,0.00491970870644,0.000474247673992,0.00613854359835,0.00287303910591,-0.00715629989281,0.00444660009816,-0.00475908210501,-0.00574764190242,0.000975529546849,-0.000902681436855,-0.00304244994186,0.00138556514867,0.00377135258168,-8.50481737871e-05,0.00446404190734,-0.00123887276277,-3.32309838313e-07,0.000702866178472,-0.00283060688525,-0.00208991765976,0.000195382235688,0.00593391712755,0.000794437772129,-0.00602226564661,0.00358211179264,0.000269646232482,-0.00153430330101,0.00297110504471,-0.0051249479875,0.00442100316286,0.00335666025057,-0.00483818538487,0.00536340568215,-0.00472414726391,0.00275608967058,-0.0020221802406,0.00396253261715,-0.00680475169793,-0.00384423532523,-0.000438525690697,0.00332991476171,0.00179830554407,0.00702410656959,0.000927740999032,-0.00304189906456,-0.00100685900543,-0.00653545837849,-0.00589476525784,0.000288149924017,0.00735838199034,-0.00392587576061,0.00429480802268,-0.0020420756191,-0.00720930751413,-0.0051707867533,0.0018934487598,-0.00416520843282,0.00544065563008,-0.00203710468486,-0.00421801675111,0.00432390999049,-0.00524532888085,0.00700754253194,-0.00402708211914,0.0048851869069,0.000279309722828,0.00371003081091,-0.00556806661189,-0.00448183203116,-0.00463753100485,-0.00562453409657,-0.0036074439995,0.00526513252407,0.00384076382034,-0.00296824146062,-0.00205403985456,0.00364037021063,0.00501587428153,-0.00115327897947,0.00373373250477,0.00108612305485,0.00761543447152,0.00296017643996,0.00369183998555,0.00531129166484,-0.00549864582717,-0.00202823267318,-0.000114238078822,-0.00534250540659,-0.00211411621422,0.00288228597492,-0.00383331882767,-0.000269407115411,-0.00559275597334,-0.00593877211213,-0.00203086039983,0.00351950107142,0.000420276570367,0.00199785246514,-0.00147960241884,0.00134764506947,-0.000228734585107,-0.00156752800103,-0.00732769817114,0.00534759275615,0.00699744280428,0.000478246103739,-0.000802472233772,0.00409944681451,-0.00750140473247,-0.00556206703186,-0.00341573986225,-0.00640304293483,-0.00699103157967,0.00678923912346,-0.00484926439822,0.00145128613804,0.000615468889009,-0.00328274560161,0.00229453155771,-0.00267635611817,-0.000636718061287,-0.00182284309994,0.00635581184179,0.00666111754254,-0.00192650628742,-0.00388742424548,0.00366817018948,-0.00283635617234,-0.000277286599157,0.000693055568263,0.00753267388791,-0.00178833655082,-0.00137370161247,-0.00664661545306,0.00253315782174,-0.00474983407184,0.00177147192881,-0.00396352726966,0.00687871593982,-0.00645439326763,0.0066514480859,0.000801742193289,0.00676494138315,-8.73141470947e-05,-0.00700297346339,-0.00464456435293,-0.00227486807853,0.0067720701918,0.00402055913582,0.00158705667127,-0.00091306300601,-0.000801682122983,0.00237380666658,0.00341821764596,-0.000330168084474,0.00462118815631,0.000395739247324,0.000247135350946,0.00230915704742,0.0045572235249,0.0015142072225,0.00654257833958,0.00582884019241,0.00418203789741,-0.000565962167457,0.0017578699626,0.000119297241326,-0.0076043359004,0.00253089703619,0.00643088528886,0.000308519985992,-0.00506834685802,-0.000608687289059,-0.00765306781977,0.00371903576888,0.00261733611114,0.00235730130225,-0.00100222788751,-0.00164979882538,-0.00349185941741,0.00643911352381,-0.00200849352404,0.00086116429884,-0.000642272701953,0.00250333710574,0.00745647354051,0.00125501002185,-0.00140836229548,0.00166231079493,-0.00716973003,0.00626506097615,-0.00509802531451,0.000642485916615,-0.00183560920414,0.00543387886137,0.0071647898294,-0.006736475043,-0.00450324406847,0.00541289104149,-0.000687423045747,0.00206649047323,-0.0019680953119,0.000551347678993,-0.00357631966472,0.0014116265811,-0.00101320270915,0.00282094441354,0.00169032544363,-0.00563159678131,-0.00476076407358,-0.00734288338572,-0.00217359652743,-0.00348879233934,-0.00643075350672,0.00276469998062,0.00334881432354,0.00252068950795,-0.00410390459001,0.00199608248658,-0.0018398774555,-0.00754248630255,0.00723162153736,0.0033766280394,-0.00401781732216,-0.00292546185665,0.00616010418162,-0.00376600911841,-0.00627564964816,0.00528034893796,0.00306597026065,0.000674844661262,0.000854156794958,0.00291491369717,0.00635597296059,0.00499553279951,-0.00409828592092,0.0022358384449,0.00266222725622,0.00498283654451,0.00636168662459,-0.00679389992729,-0.00623981794342,-0.00622852705419,0.00298404530622,0.00662769796327,0.00128589535598,0.00106618227437,0.00526323914528,0.00761587079614,0.00683800596744,0.00166735064704,0.00769663462415,0.00346360402182,0.00311429984868,-0.00619068043306,-0.00311333104037,0.00130469573196,0.00306914653629,-0.00458679301664,0.00478791864589,0.00581670878455,0.00544755905867,0.000596694997512,-0.00245304382406,0.00529599795118,0.00375516107306,-0.00711361924186,3.6935431126e-05,0.00500496989116,0.00108747766353,-0.00355933024548,-0.0074426503852,-0.00419930089265,0.00174536614213,-0.00379183329642,-0.00752235064283,-0.00661804201081,-0.00183537020348,-0.000524059170857,0.00401740800589,0.000659129640553,0.00432222057134,-0.00538557069376,-0.0022912339773,0.000286750495434,-0.00745839020237,0.00712898001075,0.00654068635777,0.0025493693538,-0.00440580584109,-0.00557174254209,0.0060075679794,-0.00325867440552,-0.00188799609896,-0.00159343867563,-0.00441010529175,0.00348290288821,0.00117488822434,0.00601668050513,-0.00431306287646,-0.00246007647365,-6.51221344015e-05,-0.000410943728639,0.00745013309643,0.00150107953232,-0.00136760459282,-0.00329786608927,0.00121078174561,0.000736276677344,0.00014570033818,0.00687020644546,8.60932268552e-05,-0.00417606206611,-0.00528862094507,0.00634362688288,0.00770444609225,0.00144613778684,0.00352660496719,-0.00120585272089,0.00560506526381,-0.00234470353462,-0.00739899510518,-0.00710726343095,0.00504613760859,-0.0012006390607,0.00723984278738,-0.00125004653819,0.00690385326743,-0.000433382840129,0.00344291119836,-0.00317006837577,0.000775658641942,-0.00267090345733,0.00275166332722,-0.0041813054122,-0.00217335438356,0.00208674115129,-0.00301040173508,-0.00338888261467,-0.0018266501138,0.00189729337581,-0.00255512772128,-0.000991141772829,-0.00737368455157,0.00310616078787,0.00483130617067,0.00506773963571,0.000784290954471,-0.00113893218804,-0.0048257894814,0.00242631440051,0.00120323442388,-0.00106350216083,0.0017896713689,0.00703047169372,-0.00560072530061,0.00719073135406,0.00110355811194,0.0051434263587,0.00763790076599,0.0066305520013,-0.00153809948824,-0.000632959476206,0.00165165646467,0.00214718445204,-0.00417650258169,0.0069290981628,0.00507911527529,-0.00568836787716,0.00760052818805,0.00767339719459,-0.00223018508404,0.00539290020242,-0.00367600214668,-0.00522707449272,0.00548773258924,0.000962361111306,-0.00675019994378,0.00515109207481,-0.00178039295133,-0.00509216915816,0.000436886795796,-0.000442614778876,0.00470182811841,-0.00031367293559,0.00254842522554,-0.00224004453048,-0.00601152889431,-0.00703225564212,-0.00275470782071,0.00261580455117,-0.00753723084927,-0.00385951902717,-0.00536464387551,-0.000565814611036,0.00381508120336,0.000827595300507,0.00168493681122,0.0069006094709,-0.000645330233965,0.00486132409424,-0.00239566480741,0.00187197839841,0.00415481207892,0.00506266346201,-0.00427614850923,-0.0037669306621,-0.00188465823885,-0.00384141271934,0.000632397597656,0.00475368229672,-0.00533254537731,-0.0014147257898,0.00351392594166,0.0031575912144,-0.00401630112901,0.00249090092257,0.00721699325368,0.00196393905208,-0.00265284115449,0.000246549316216,-0.00248568714596,0.000505562697072,0.00527467159554,-0.00563538633287,-0.0013282019645,0.00208293856122,-0.000523750204593,0.00436091516167,-0.00521047413349,0.00579631747678,0.00739663094282,-0.00214710854925,-0.00594386085868,0.00754056079313,-0.00228748796508,-0.000106653351395,-0.00395684689283,-0.00684640835971,-0.00576624833047,-0.00403296202421,0.00754438806325,0.00458829011768,-0.00121176883113,-0.00277434405871,-0.00548440683633,-0.000217749373405,0.00629760231823,0.00762688973919,0.00621636258438,-0.00668800016865,-0.00526285544038,-0.00551720149815,-0.00520891649649,-0.00578322540969,-0.00621529202908,-0.00229508639313,-0.00526476092637,-0.0054685594514,0.000395788927563,-0.00456291995943,-0.00760403880849,0.00304492237046,-0.00262788194232,0.00367696583271,0.00608474155888,0.00658169528469,-0.00495544122532,0.00268229516223,-0.00654151057824,-0.000549766409677,-0.00111251696944,-0.0045630405657,0.00426232954487,0.00639672065154,-0.00371531629935,-0.00385090196505,-0.00467908289284,0.00290312198922,-0.0068280515261,-0.00671431329101,-0.00501191755757,0.000724483164959,-0.00379877281375,0.00753331836313,-0.0016047762474,-0.000448141363449,-0.00669519556686,0.00318458955735,0.00446660257876,-0.00254568597302,0.0034995933529,-0.00418978277594,0.00461281603202,0.000664486899041,-0.00157346786,0.00341138173826,0.00178042287007,0.000512763974257,-0.00444725016132,0.00540594942868,-0.00103900360409,-0.000828053394798,-0.00459842104465,0.00667026592419,0.000855112972204,-0.000561210559681,0.00738051580265,-0.00205554999411,-0.00720998551697,-0.00415929825976,0.00382173946127,-0.00528922583908,-0.00529389688745,-0.000665458384901,-0.00071095774183,-0.000601674080826,-0.00431375904009,-0.00509879831225,0.00416975747794,0.00162101106253,-0.00274268654175,-0.00465747341514,0.00584565568715,-0.00559182697907,0.00131182512268,0.00171865115408,0.0055249882862,-0.00682240957394,-0.00294977473095,0.00721047539264,0.001080504735,-0.00125196971931,-0.00280947377905,-0.0053969155997,-0.00481176143512,0.00432736380026,-0.00393009604886,-0.00430669775233,-0.00277459062636,0.00397276319563,-0.00121264788322,-0.00726097496226,0.000218172746827,-0.00340795633383,-0.000628795940429,0.0059327990748,-0.00466195540503,-0.00247475760989,0.00688828527927,0.00423458591104,-0.00346674048342,-0.00605865707621,0.00671386346221,-0.00545594003052,-0.00207120506093,-0.00257890787907,-0.00590941403061,-0.00614398252219,-0.0033389753662,-0.0020142137073,0.00725654279813,0.000580841733608,0.00633333297446,-0.00571416970342,-0.00401625689119,-0.00518420757726,-0.00190834875684,0.0064631216228,-0.00315938936546,0.00149468204472,0.00643299520016,6.0535963712e-05,0.000447115686256,0.000830037868582,-0.0033710829448,-0.00123995682225,0.00538190035149,-0.0015277445782,-0.00123225885909,-0.00590668804944,-0.000543079164345,-0.00641341181472,-0.00357269262895,0.00741688720882,0.0062666926533,0.00188936071936,0.00330158905126,-0.00403260439634,-0.00547691481188,0.000803881383035,0.00615997146815,0.00514625292271,0.0013930471614,0.00749760633335,-0.00387196755037,0.00413525756449,-0.00332170841284,0.00733937555924,-0.00361611670814,-0.00205782218836,-0.000347184221027,-0.00273492909037,-0.00344708142802,-0.000438832299551,0.00490080798045,0.00424132449552,-0.000842225330416,-0.00286968401633,-0.00567097682506,0.0057230819948,0.00597309553996,-0.0066691627726,0.00385506940074,0.00594219332561,0.00366583489813,-0.00245758146048,-0.00107905059122,-0.00306010362692,0.00067674863385,0.00603488879278,0.00266251713037,-0.000625789631158,0.00557869439945,-0.00768532929942,-0.00346266687848,-0.000971468980424,0.00144515710417,0.00766625488177,0.00217103236355,-0.0018106806092,0.0034881029278,0.00748963002115,0.00173458980862,-0.00227056536824,0.0028298527468,-0.000535443599802,0.000570495263673,0.0070462715812,-0.000960010918789,-0.00285629881546,0.00209797103889,0.00107328803279,-0.00156599050388,-0.0030257795006,0.000407288898714,-0.00517548015341,-0.00356424530037,0.00543022621423,0.00633269641548,-0.00162821367849,0.00517565943301,-0.00610561622307,-0.00436041364446,0.00150940997992,0.00276416097768,-0.00381264416501,0.00680503295735,0.00192381208763,0.00652144150808,-0.00606612442061,0.00130342098419,-0.00242486782372,0.00567454705015,-0.00749347032979,0.00413940101862,-0.00516781816259,0.00603628857061,-0.000564398418646,-0.00504268193617,0.00492261722684,6.54471223243e-05,-0.00675032567233,-0.00719489809126,-0.00378590007313,0.00331382220611,-0.000997873605229,0.000422615528805,-0.00559886591509,0.00341615523212,-0.00212449789979,-0.00253212498501,0.00128013745416,0.00411409512162,-0.00732240732759,-0.00693910848349,-0.00621312763542,0.00536287249997,0.00550611596555,0.00215756171383,-0.00698709581047,0.00389430252835,0.00569648109376,0.00643179751933,0.00468953792006,-0.000772999366745,-0.00061497540446,-2.33978807955e-05,-0.00038197520189,0.000241450485191,-0.00643710279837,0.00487733446062,-0.00765049271286,-0.00721564516425,-0.00728610064834,0.00619737664238,0.00766776641831,-0.00310803391039,-0.00575813092291,-0.00740854581818,0.00621759239584,-0.00218043569475,-0.00010324978939,-0.00190965284128,0.00629873666912,0.00514794886112,0.00613129278645,-0.00106819125358,-0.00435502501205,0.00159107404761,-0.00444168364629,-0.00268158409745,0.00688537349924,0.00574311148375,-0.000953878101427,-0.00275062257424,0.00123279599939,0.00407442077994,-0.00470286607742,0.00629569776356,-0.00480639655143,0.00171521655284,0.000785190612078,-0.00262404745445,0.000966106541455,0.00588433071971,-0.00259814877063,0.00596425123513,-0.00673092668876,0.00053956604097,-0.00317715248093,0.00666042137891,-0.00697046238929,-0.00740920007229,0.00479609286413,0.00371685950086,-0.00530447578058,0.00684109330177,0.0057882135734,-0.00394879793748,0.00286483415402,-0.0010843797354,0.000956067873631,0.00451010698453,0.00203700037673,-0.00624577421695,0.00165700062644,-0.00483616581187,-0.000818261643872,-0.00163515086751,-0.0064064594917,-0.00616812100634,0.00445955386385,0.00119283236563,0.00732990866527,0.00698580173776,-0.00475556682795,0.00550588360056,-0.00266520609148,-0.00504124723375,-0.0007257622201,-0.00329632195644,0.000150720079546,0.00230052648112,-0.00301747373305,0.000700309989043,0.00195913459174,0.00181134499144,0.00657050171867,0.00231228815392,-0.00256477063522,-0.00623870827258,-0.000184826363693,0.00119256519247,0.000885496090632,0.000790907070041,-0.00190687342547,0.00708135217428,0.00176028592978,-0.0042692469433,-0.00760100781918,0.00109997438267,0.00381903955713,-0.00600998289883,-0.000503459828906,0.0073030218482,-7.10130043444e-05,0.0054733180441,-0.0055293100886,-0.000723697070498,-0.00224558403715,-0.00726367766038,0.000343074469129,-0.00154586345889,0.00174034223892,0.000734411005396,-0.000701163662598,-0.00613954942673,-0.000867559632752,0.00729161221534,-0.00346281658858,-0.00175417691935,0.00529128685594,0.000330564944306,-0.00766396382824,0.000630414520856,0.00576266786084,0.00295930565335,0.00399034796283,-0.00710489833727,-0.0049301693216,0.00133564567659,-0.00533285876736,0.00393932312727,-0.00419350387529,-0.00278736767359,-0.00705259898677,-0.00111694587395,-0.00374879548326,-0.00718351453543,-0.00562912039459,-0.00163927441463,-0.00241293315776,0.00559092918411,-0.00302394223399,-0.00128884112928,-0.00139134482015,0.0015464698663,0.00623564654961,0.00271454523318,0.00524203665555,-0.0048092273064,0.00525846146047,0.0031085985247,-0.00314570614137,0.00612169550732,0.0025664542336,-0.000477950990899,0.00317468191497,-0.00759320147336,-0.00270582828671,0.00428996654227,0.00556032871827,0.00465240934864,0.0035878138151,-1.77873971552e-05,-0.00477104866877,-0.00598714081571,0.00656319083646,-0.00444557331502,-0.00391343422234,0.0034403402824,0.00396667793393,-0.0013991886517,-0.00654063140973,-0.000222104325076,0.00484416354448,0.0059128520079,0.00233612279408,0.00286643812433,-0.00733182951808,-0.00440956326202,0.0038300815504,0.000488552381285,0.00136001186911,0.00480810459703,0.00263338536024,-0.00121846236289,0.00733347330242,-0.00396774942055,-0.0024526885245,0.00260447803885,-0.00411785719916,-0.00182645977475,0.00296712527052,-0.00248474325053,-0.00681924587116,0.000940109835938,0.00418320810422,0.00376226846129,0.00188305461779,0.00410796049982,-0.00462616188452,0.00362499523908,-0.00693189026788,0.00371907418594,-0.00691986456513,0.00420412933454,0.00595504418015,0.00509245786816,-0.00232319091447,0.00734718190506,0.000298439321341,-0.00184952223208,0.001284652506,-0.00299626775086,-0.00495053129271,-0.00518150534481,-0.00508712325245,-0.00417808350176,0.00597958639264,-0.00145537196659,-0.00769993197173,-0.0030115256086,0.00767181999981,0.0036605624482,7.44906647014e-05,-0.0057359081693,-0.000670389446896,0.00217072665691,0.00647818297148,-0.000108532651211,0.000757540110499,0.00106015440542,0.00697240978479,-0.00247144605964,0.00557968765497,-0.00104434462264,0.00373222935013,-0.000245436327532,0.000852937751915,-0.00262164906599,-0.0013020853512,0.000406339589972,0.00162390945479,-0.0019873441197,0.00517184566706,0.00339521374553,-0.000733712047804,0.00363994156942,-0.00759938592091,0.00145814311691,0.000406635721447,0.000238390348386,0.00161218096036,0.00468197790906,-0.00699135893956,-0.00540537573397,-0.00755419256166,-0.00403274362907,0.00738613307476,-0.00193876540288,0.00119954894762,0.00757828494534,0.00197858479805,-0.00506191747263,0.00472227856517,0.00081596680684,0.00765938637778,0.00395473558456,0.00765485083684,0.00604924652725,-0.00488750822842,0.00384666468017,-1.11556555566e-05,-0.00569571787491,0.0010649622418,-0.00625266786665,0.00406187074259,-0.0021233309526,0.00478608394042,0.00283130817115,0.00585758546367,-0.0048298696056,0.00225757225417,0.00563400052488,-0.00418254407123,0.00438910257071,-0.00330238160677,0.00488752312958,0.000257722858805,0.00258244015276,-0.00199385173619,0.00504741678014,-0.00580308074132,-0.00471835630015,-0.00631670327857,0.00695132790133,-0.00050757691497,-0.000334606796969,-0.00305095920339,-0.000454876600998,-0.00407569808885,0.00698310974985,-0.0036379864905,0.00657880026847,-0.0001704449096,-0.000956853269599,0.00470170006156,-7.03243131284e-05,-0.00358478934504,-0.000988427549601,-0.000918848498259,-0.00314859277569,-0.00121591240168,-0.00585021916777,0.00680583016947,0.00217311573215,-0.00472241826355,0.00448414916173,-0.00358821847476,0.00150318408851,0.00641337689012,0.00411153910682,-0.00581593858078,0.000724432407878,0.00322255538777,-0.0045813745819,-0.00614749500528,-0.00541469082236,0.00716646155342,0.00534276943654,0.00554171670228,-0.00389893655665,0.000916305638384,-0.000174325949047,0.00517696375027,-0.00119028764311,0.00060229562223,0.00126897112932,-0.00196799263358,-0.00717544183135,-5.60540320294e-05,-8.6418032879e-05,-0.00706944800913,-0.000194883876247,0.000188795776921,-0.00562464632094,-0.00547750899568,0.00675392802805,-0.00476165255532,-0.00288279959932,-0.00310576939955,0.00244881305844,0.00220777327195,0.00638651568443,-0.0014836069895,0.00433925911784,-0.00187492312398,-0.00399520574138,0.00605552317575,-0.000235365936533,-0.00167298852466,0.00627706386149,0.00679834326729,-0.000732835265808,-0.00739620765671,-0.00719889579341,0.00169956486207,0.00545246805996,0.00581079442054,0.00621067499742,0.0047656125389,0.00576470652595,0.00529233086854,0.00526985526085,-0.00264312559739,-0.00162093224935,-0.00280384416692,-0.00531152170151,-0.00257222773507,0.00630724197254,0.00729002105072,-0.00537462672219,0.0025201565586,0.007226371672,-0.00450741080567,0.00526766711846,-0.00312135042623,-0.00136423693039,0.00644379109144,-0.00680021476001,-0.000774715328589,0.000107805790321,0.0062050037086,0.00115578318946,0.00688627129421,-0.00279365247115,-8.08987970231e-05,-0.00734907062724,0.00756066245958,-0.00409926986322,0.0066351108253,-0.00152278179303,-0.00514998752624,-0.0012196295429,-0.00269912928343,0.00698998896405,0.00420185690746,-0.00449821352959,0.000636076671071,0.00263963243924,0.0012413514778,0.00644807098433,-0.00595591915771,-0.00707559566945,0.00174449104816,0.00380306644365,0.00479312846437,-0.00444076955318,-0.00476498063654,0.00524287763983,-0.00248989160173,0.00248176767491,-0.00537165813148,0.00466289604083,0.0071305190213,0.00729669304565,0.000310968607664,-0.00400601699948,-0.00552292587236,-0.00390665931627,0.0018947502831,-0.000972080102656,-0.000331196002662,-0.000379300559871,0.00454641086981,0.00513135734946,-0.00748382508755,0.00647212192416,-0.00170439702924,-0.00398252904415,0.00767274806276,-0.00580816622823,-0.00274332007393,0.0063014421612,-0.000357593788067,0.00659013865516,-0.00397084094584,-0.00141037558205,-0.00690103834495,-0.000687325780746,-0.00769058195874,-0.00280768843368,0.00333841727115,0.00347785465419,-0.00109600031283,-0.00749822985381,-0.00567649817094,-0.00396228022873,-0.00744423316792,-0.00434885313734,0.000382720172638,-0.00575794698671,0.00567148299888,-0.00677252374589,0.00427602697164,-0.000810456054751,0.00176006671973,-0.000238413864281,-0.00109140085988,0.00279998150654,-0.00419459957629,-0.0001874591253,0.0047605088912,-0.00530554447323,-0.00626878580078,0.00161585444584,0.00717133376747,-0.00107571913395,0.00487253814936,-0.000442612479674,-0.00407845666632,-0.000213735402212,-0.000880092789885,-0.00380495632999,-0.0022499433253,-0.0016486227978,0.00556182349101,-0.00295443693176,0.00657829130068,-0.00749170826748,-0.00571838580072,-0.00728202378377,0.00415267795324,-0.00577290961519,0.00116481469013,0.00431023491547,-0.00014269426174,-0.00618371460587,0.00522943399847,-0.00451246090233,-0.00623782211915,0.00415046047419,-0.00726451771334,0.00183935661335,-0.00120726763271,-0.000990939559415,0.00471993070096,-0.00697450712323,0.0037509414833,0.00319281662814,0.00603005802259,0.00121227419004,-0.00522436434403,-0.00697774672881,-0.000873455661349,0.00342000811361,-0.00704234093428,-0.00386944855563,0.00419511273503,-0.00414450326934,-0.0018187671667,0.00382660841569,-0.00105781061575,0.0042037689127,-0.00353025691584,0.00708544114605,-0.00625300221145,0.00389678985812,-0.00655579240993,0.00534232519567,-0.0055940952152,0.00135040760506,-0.00255269487388,0.00163225224242,-0.00696271331981,0.00590145681053,0.00332192354836,-0.00236584828235,-0.000438806047896,0.00196380028501,0.00183408963494,0.00217257905751,-0.0053071193397,0.00454329513013,-0.000603015418164,0.00465218350291,0.00663180649281,-0.00610432680696,-0.00220324867405,0.000496525201015,-0.00561595149338,-0.00369854364544,-0.00693899439648,0.002817268949,-3.70896850654e-05,-0.00721556833014,-0.00301176263019,-0.00139927503187,-0.00241108681075,-0.00741633586586,-0.00325765577145,-0.00644566351548,-0.0076087587513,-0.00224667671137,-0.00173353345599,0.00641534104943,-0.00571806821972,0.00311203161255,-0.0036300115753,-1.84474974958e-05,-0.00104965327773,-0.000227567346883,0.00407195650041,-0.00741284713149,-0.00261744274758,-0.00244589522481,-0.00623548449948,-0.00753277027979,0.0033991294913,0.00592584488913,-0.00289858272299,0.00238072825596,0.00766074471176,-0.00516293430701,-0.00342786964029,0.00492771202698,-0.00764714973047,0.00144937168807,-0.000320152088534,0.00342545891181,0.000466049299575,0.000268510280875,0.00326309888624,0.000788295641541,0.0075199464336,0.00307247252204,0.00475271651521,-0.00117855705321,0.00708581646904,-0.000778788642492,-0.00235781865194,0.00679735094309,-0.00188033201266,-0.00205720099621,0.000886947091203,0.0054101026617,-0.00260501238517,0.00510234339163,-0.00518450979143,-0.00503618456423,-0.000740301504266,-0.00363604840823,-0.000224231465836,-0.00750719709322,-0.00342887174338,0.00692408299074,0.00587038230151,-0.00725231086835,0.00471813045442,-0.000844973837957,0.00491123041138,-0.00337257632054,0.000796077598352,0.00752374948934,-0.00265143858269,0.00595874385908,0.00584347266704,-0.00531806563959,-0.00393674336374,-0.00572037231177,-0.00325023173355,0.000389216147596,0.00662789819762,-0.00157488195691,0.00755106890574,-0.00153388793115,0.00139525753912,0.00719415070489,0.00158907589503,-0.00172425003257,0.000415257090935,0.000696640810929,-0.00607582321391,-0.00145204016007,0.000426281272667,0.00432948255911,-0.00760392285883,0.00486396858469,-0.00352689018473,0.00334380147979,0.00422282377258,0.00556986033916,0.00699325976893,0.00619308836758,0.0020750737749,0.00349901639856,0.00313893193379,0.000295429199468,0.00416486803442,-0.000706354039721,0.00495764799416,0.00378218200058,-0.000137642942718,0.000237721862504,0.00219751731493,-0.00255659618415,0.000884623499587,0.00619016680866,-0.00289841508493,0.00294105662033,-0.00708386907354,-0.0057204910554,0.00595974316821,0.00624240655452,0.00107899820432,0.00151420617476,-0.00137607567012,0.00151071453001,0.00581649132073,-0.00531331496313,2.62889407168e-05,0.00582247786224,-0.00660340487957,-0.00459378771484,0.000216161512071,0.0018305669073,0.0032146947924,-0.00484443129972,0.0015279087238,-0.00239945179783,-0.00281589501537,-0.00672844424844,-0.00578876491636,0.004628370516,-0.000652561837342,0.00385807501152,0.0049159345217,0.00454199220985,0.00744105270132,-0.00370110850781,-0.00657927477732,0.000363858853234,0.00716483779252,-0.00458155339584,0.000691691937391,-0.00138081365731,0.00192346912809,-0.000970367807895,0.0075533464551,0.0043249395676,0.00422714836895,-0.00203958316706,0.00410751299933,0.000350336456904,0.00552836991847,0.00436945445836,0.00264016562141,-0.00397960282862,0.00115300808102,0.00608178740367,0.0019284998998,0.00513601209968,0.000534476072062,0.0053072120063,0.00130479375366,0.00543614383787,-0.00040412103408,0.00258468673564,-0.00681632850319,-0.000944469706155,-0.00555040920153,-0.00414771260694,0.000652818474919,0.000642812403385,0.00463546998799,-0.000369831512216,0.00687252636999,-0.0025319987908,-0.000617233046796,0.00418832153082,0.00243983138353,-0.00512715801597,0.000307386246277,-0.00653285346925,-0.00539786601439,-0.00608842307702,-0.00623584678397,-0.00544371455908,0.00604011630639,0.00291695608757,0.00272276904434,0.00612417096272,0.00306705967523,0.00169467402156,0.0038001188077,0.00306783057749,0.00157054467127,-0.00604103412479,-0.00661905435845,-0.00515763554722,0.00188643613365,0.000352489267243,0.000733036838938,-0.0017512536142,0.00499806506559,0.00375176151283,-0.00690819974989,-0.00460740691051,0.000723908655345,-0.00474628247321,-0.00552020361647,-0.00755147542804,0.00747182266787,-0.00412826845422,-0.00117884716019,0.00197719619609,-0.00389833794907,0.0048636123538,0.00144602637738,0.00287006795406,-0.0053267753683,0.0034537834581,-0.00688097625971,-0.00274525978602,-0.00105371058453,-0.00623043626547,0.000932198483497,-0.00243670889176,-0.00561064109206,-0.003292840207,0.0012566158548,-0.00422113342211,-0.000446058926173,0.00295152910985,0.00173105858266,0.00408826582134,0.0029755004216,-0.00022825205815,0.000316534307785,-0.00361855770461,0.00668038986623,0.00621578423306,0.00489607825875,-0.00540378130972,0.00421537039801,0.00661076558754,0.00633745035157,0.00626409519464,0.00269722775556,-0.00384229025804,0.00133310537785,-0.00332364067435,0.0046550296247,-0.00504690455273,-0.00436429167166,-0.00361273251474,0.00146794167813,0.0013752002269,0.000778243294917,-0.00545680476353,-0.000546846364159,0.00663021346554,0.00678087305278,-0.000284054258373,-0.00364947156049,0.00762110343203,-0.00430448679253,0.00527931889519,-0.00315132061951,0.00634381780401,-0.00586358644068,-0.00281778583303,0.00222425651737,-0.00623804423958,-0.00165354460478,-0.00162341271061,0.000190624734387,-0.00764296483248,0.00235218624584,-0.00138153659645,-0.00396280596033,-0.00451598316431,0.00417813379318,-0.00336458347738,0.00266970950179,-0.00763166276738,0.00719170924276,-0.00654262676835,-0.00154002103955,0.00252046016976,0.00185118673835,0.0059910886921,0.00718275271356,0.00332500599325,0.00207520416006,-0.00626535573974,-0.000982836820185,-0.00489737093449,-0.00192426668946,-0.00560153834522,0.00433742720634,0.000136201604619,-0.00607681460679,0.000254564190982,-0.00269945361651,-4.56136913272e-05,-0.00381907913834,0.00387870031409,-0.00766939390451,-0.00563070178032,0.00102295773104,0.00221047759987,-0.00715275807306,0.00248836260289,-0.00468429643661,-0.00551818497479,-0.00748432613909,-0.000205762451515,0.00381657015532,0.00139530166052,0.00556697882712,0.000448426231742,-0.00765617517754,0.00539651652798,0.00638538040221,0.00568286469206,-0.00485993782058,0.00749265542254,0.00704143755138,0.00542195839807,0.00117690872867,-0.00473674433306,-0.00479430239648,0.000223252733122,0.00599096156657,-0.00187470496166,-0.000159868301125,-0.00131436437368,0.00361085752957,-0.00625608908013,0.00332969869487,0.00433686980978,0.00325336796232,0.00266531482339,-0.00175972178113,-0.000320614897646,-0.004514509812,0.00289932754822,-0.00455762818456,0.000827384355944,0.00374396773987,-0.00493709743023,-0.00360367354006,-0.00100778276101,0.00220379722305,-0.0027954003308,-0.0050394772552,-0.0053848917596,-0.00373109080829,-0.0015415775124,-0.00635160459206,0.00690880278125,0.0076314327307,0.00565994158387,0.00498387869447,-0.00116317335051,-0.00258404621854,-0.00110562634654,-0.00749468244612,-0.00532067008317,0.000647147593554,0.00652258703485,0.00652537075803,0.00323943514377,-0.000302489614114,-0.00365600199439,-0.00139625091106,0.00741459149867,0.00544356554747,-0.000308527465677,0.0053874081932,0.00375063740648,-0.00156203261577,-0.000164568438777,-0.00063609064091,-0.00756598915905,-0.00283035030589,-0.00719175674021,0.00586729543284,0.00126239191741,-0.0015537829604,-0.00625207927078,-0.00716248666868,-0.00383642408997,-0.00168133107945,0.0014513884671,-0.00235671526752,-0.000363298429875,0.00270339520648,-0.00711523601785,0.000310166884447,-0.0033947143238,0.00427941931412,-0.00280623650178,-0.00516929617152,0.00439347047359,0.00407503731549,-0.000623059342615,-0.00493929162621,-0.000483682233607,-0.000963736907579,-0.00551291462034,-0.0021817588713,0.00478897662833,-1.96090968529e-05,-0.00578576186672,0.00586833385751,0.00369960907847,0.000600285537075,-0.00365599291399,-0.00628985837102,0.00360952387564,0.00189823028632,0.00486691296101,0.00285215722397,-0.00539799500257,-0.000800110283308,-0.00296648661606,0.00557391485199,-0.00355909904465,-0.00013828909141,0.000679896038491,0.0018493331736,0.00200198381208,0.00216226885095,-0.00231738085859,3.44661702911e-06,-0.00690030911937,0.000338488840498,0.00179862312507,0.00368620618246,-0.00552867306396,0.00176485441625,-0.00274960813113,-0.00156989786774,-0.000473931577289,-0.00581214996055,-0.00409809919074,-0.00682704756036,0.00723286764696,-0.00485789449885,0.00197867746465,-0.00601936224848,0.00295424181968,0.00570203131065,-0.000466964556836,0.00279264291748,0.00241682003252,0.00231053959578,-0.00614518532529,0.00482524232939,0.00126525689848,-0.0042774444446,-0.000990770640783,0.00341070862487,0.00213621230796,-0.00542392674834,0.00149347027764,6.93254332873e-05,0.00231440248899,0.0043268580921,-0.0027015004307,-0.00146831094753,0.00139379384927,0.00429159402847,0.00174157507718,-0.0075516635552,0.00751519715413,-0.00734017882496,0.00562094710767,0.00619816360995,-0.0044653583318,0.0041744816117,-0.000431986874901,-0.00134606775828,-0.00552427954972,-0.0006865405594,0.00204914133064,-0.000102751109807,-0.00433412427083,-0.000274435471511,0.00568559160456,0.00483116228133,-0.00483038555831,-0.000238443506532,0.00152877252549,0.000420838536229,0.00240517174825,0.00277117872611,-0.00155277387239,-0.00405651330948,-0.000965140468907,-0.00612290296704,0.00374433537945,0.00417931890115,0.0067669316195,0.00608397554606,-0.00582729931921,0.000633270072285,0.00309652229771,0.00499104848132,-0.00319182570092,0.00743944570422,-8.65523907123e-06,-0.000657359312754,-0.00127987249289,-0.00504496460781,0.000820988207124,-0.00586800416932,0.00522642908618,-0.00704905437306,0.00536525668576,0.00472169322893,-0.00315140583552,-0.00724189821631,0.00585816148669,0.00462132552639,0.00200314959511,-0.00694278953597,5.94428493059e-05,0.006623594556,-0.0061434591189,8.67022827151e-05,0.00461580278352,0.00242032250389,-0.00169594760519,0.00598276685923,0.000350833579432,0.00562585843727,0.00165568699595,-0.00295430910774,0.00608640257269,0.00579232070595,-0.00305018899962,-0.00444487808272,0.00732224807143,-0.000475045206258,0.00761304004118,-0.0038679628633,-0.00621968088672,-0.0076656350866,-0.00296557927504,0.00124196987599,-0.00394434807822,0.00110213633161,-0.00691399071366,0.00719418562949,-0.00244006211869,0.00722043542191,0.000449735409347,-0.000604820146691,-0.00641811313108,-0.00649280240759,0.000126885381178,-0.00288726761937,-0.00492687150836,-0.00571205932647,0.000820951827336,-0.00315181585029,0.00463646557182,-0.00641361018643,-0.0076752435416,0.00673690671101,-0.00753468833864,0.00547096552327,0.00578604126349,0.00681171985343,-0.000164783341461,0.00182574603241,-0.00214814837091,0.00719634490088,0.00349350436591,0.00332736526616,-0.00233939499594,-0.00314583978616,0.000808201788459,-0.00653912313282,-0.00132831803057,0.000416492926888,0.00378413288854,0.00102860038169,-0.00177475623786,-0.00736270844936,0.00313928769901,0.00405631912872,0.00538952508941,-0.00473604537547,-2.40906206272e-06,-0.000688393425662,0.00394780561328,-3.12439842673e-05,0.0045194607228,-0.00651466986164,-0.006965553388,-0.00367799564265,-0.000473792548291,0.00380019331351,-0.00214582472108,0.00365113350563,0.00504429033026,-3.06239853671e-05,0.00699959229678,-0.00543733919039,-0.00322402641177,0.00760884629562,-0.00521316751838,0.00627782614902,0.0064151911065,0.00208156229928,-0.00703110499308,7.42999400245e-05,-0.00671859458089,-0.00267017935403,-0.00751988170668,-0.00707907229662,0.00297339819372,0.00737251946703,0.00429095420986,-0.00167488865554,-0.00258006667718,0.00755226239562,-0.00421009026468,-0.00717581762001,-0.00374165712856,-0.00249941251241,-0.000241121975705,0.00299737672321,0.00235273502767,0.00192819233052,0.00593388825655,0.00118832336739,-0.00505767902359,-0.00220165797509,0.00260452763177,0.000333656411385,0.00116104190238,-0.00316886696965,-0.00332477898337,-0.000822139030788,-0.00724962679669,-0.00109433743637,-0.000195546032046,-0.00684316502884,-0.00726679060608,-0.00763301551342,-0.00218922761269,-8.259430615e-05,-0.00511084124446,0.00604467326775,0.00122451514471,0.00144481658936,-0.00676251249388,-0.00653774291277,1.17733516163e-05,0.00399060081691,0.00516592804343,0.000573026482016,0.00131546554621,0.00170497735962,-0.0029869696591,0.00727617600933,0.00728235021234,0.00186532456428,-0.00193139805924,0.00533436564729,-0.00507160322741,0.00153748109005,0.00440183468163,-0.00771457748488,-0.00111417192966,-0.00373487500474,0.00454242015257,0.00648125354201,-0.00509915407747,-0.00499950209633,0.00707217212766,0.000128494953969,-0.00626343907788,-0.00659922417253,0.00710954749957,-0.00110627617687,0.00676764920354,0.00113021337893,0.00337272207253,-0.00346644991077,-0.00673089828342,0.00436015706509,-0.00517606409267,0.00328259193338,-0.00660704309121,0.0011061236728,0.00385087821633,-0.00747739383951,-0.0017786383396,0.00130781251937,0.00454741436988,-0.00379071081989,0.00480864569545,0.00221093557775,-0.00243685301393,-0.00316536659375,0.00304595613852,0.00338639947586,0.00204335246235,-0.000934175855946,-0.00744829699397,0.0010703507578,0.0016596163623,-0.00408096238971,-0.00465228874236,0.00555033190176,-0.00501277484,-0.00455082161352,0.00182403344661,-0.00286339875311,-0.000980180688202,0.000392666639527,0.00658024102449,-0.00376733578742,-0.00710143474862,-0.00600057048723,-0.00699192658067,0.00387197849341,0.00737209804356,-0.00652891723439,-0.00337557168677,0.00540980370715,0.00608427729458,-0.00442894455045,0.00641535408795,0.0011519807158,0.00758986128494,-0.00741998665035,0.00436293566599,-0.00691368523985,0.00356781110168,0.00680182222277,-0.00272387312725,-0.00253681303002,-0.00407364917919,-0.00111056584865,-0.000469885271741,0.00105893844739,0.00285773142241,0.00176793069113,-0.00624011596665,0.00198920955881,-0.00481138657779,0.000467408826808,0.00128228601534,-0.00105242512655,-0.00133835431188,-0.00122162722982,-0.00415990361944,0.00461023161188,-0.00028920249315,1.09677375804e-05,-0.00493616238236,-0.000446639780421,-0.00103729555849,-0.00139571062755,-0.000900130777154,-0.0039879293181,0.00448262970895,-0.00477228686213,0.000537770974915,-0.00280907703564,0.00331096420996,0.0028818952851,0.00299186515622,0.0058781998232,0.00426440360025,-0.00269585265778,-0.00170853373129,0.00560346478596,0.00492962589487,0.00643472140655,0.00515969563276,-0.0057872030884,-0.00268638972193,-0.00326823815703,-0.00193426944315,-0.00327149382792,0.00432961015031,0.00303254229948,-0.00471465848386,-0.00500791845843,-0.00441892305389,-0.00293617253192,0.00275268498808,-0.00208986946382,-0.00123619579244,-0.00713418377563,-0.000373358430807,-0.000968076172285,0.00276699778624,-0.0046712984331,0.00335763790645,0.00328314187936,0.00181098724715,-0.00226858444512,-0.00688906945288,-0.00414156308398,0.00656058778986,0.00577478297055,-0.00475153652951,-0.00283617107198,-0.00764226540923,-0.00300277839415,0.00456103170291,0.00102037645411,0.0056151333265,0.00704423617572,-0.00438082451001,0.0007663796423,0.00385972624645,0.00179936760105,-0.00377813051455,0.00728606013581,0.00261294818483,-0.00763810798526,0.000172436542925,-0.00522313080728,0.00337626133114,-0.00677965767682,-0.00252639665268,-0.00294556072913,0.00597451906651,0.00569873675704,0.00492296461016,0.00373348174617,0.00694705080241,-0.00483351526782,0.00487058376893,0.00260961777531,0.00304135400802,-0.00119598989841,0.00228203646839,-0.0041199340485,0.000399088778067,0.00719713419676,0.00278404168785,0.00264047458768,-0.00415216572583,0.00519262673333,0.00646682782099,-0.00611175736412,-0.000803441565949,0.00249021453783,0.0058494983241,0.000500131456647,-0.00130286044441,-0.00718037458137,0.000724065641407,-0.00270373746753,0.00754129188135,0.00144467398059,-0.00447420356795,0.00753325782716,0.00133552984335,0.00408649211749,0.00716896215454,0.00379664381035,0.0067733488977,-0.00219871778972,-0.00699058687314,0.00709099229425,0.000667258922476,0.00411784695461,0.00072394387098,0.00395937357098,-0.00686570815742,-0.00675869453698,0.00640566647053,-0.00106467178557,-0.00314645143226,0.00632905075327,0.00762543734163,0.0016894377768,0.000851950258948,0.00637036934495,-0.0050373240374,0.00197852496058,0.00465380540118,0.00362247694284,0.00375998159871,0.00463384343311,-0.00451247626916,0.000782122137025,-0.00609511323273,-0.00638915086165,0.0048312866129,0.00474090548232,-0.00497517641634,0.00093858409673,-0.00718825310469,-0.0020674164407,-0.00551071017981,-0.00203515333124,0.00116769759916,0.0046358294785,0.000138382936711,0.00659302994609,-0.00622273888439,0.000533407146577,0.0062169614248,-0.00416622357443,0.00411456031725,-0.00384491193108,0.00730609847233,0.0038992324844,0.00229949271306,0.00569149851799,0.001286968356,-0.00327257742174,-0.00287453155033,0.00130400562193,0.000366827938706,0.00623065698892,0.000580736203119,9.97307724901e-05,-0.000862970366143,-0.00581603124738,-0.00594101892784,0.00250596902333,-0.000721490185242,0.000628110021353,0.00650588609278,0.00428177183494,-0.00194453296717,0.00420412514359,0.00722537795082,-0.00528034474701,0.00603865040466,-0.00233470066451,0.00355410436168,0.00268426258117,0.0031109363772,0.00596321793273,0.00192834984045,-0.00485887844115,0.00252178031951,-0.00257739704102,0.00692688720301,-0.00296712503769,-0.00408129068092,-0.00756170181558,0.00552532216534,0.00635858252645,-0.00673550879583,-0.00138037616853,-0.00131912797224,0.00457159848884,-0.00247496762313,-0.00247975275852,-0.00265978323296,-0.00115526176523,0.00213907915168,0.00716872233897,0.000372234266251,-0.00176831684075,-0.00750799058005,-0.00530676962808,0.00685269664973,-0.00377082894556,-0.00466564809904,-0.0051214681007,0.00129690347239,-0.00168397440575,0.00123258889653,0.00725292833522,-0.00662842486054,-0.00571099622175,0.00106239633169,-0.00525977415964,0.00244807545096,0.00477553112432,0.00344140199013,-0.00289209373295,