-2.18459177987e-15,-2.23332620165e-14,-2.73301126603e-14,-1.45763782311e-14,-3.10620534285e-14,-4.38246241055e-14,-2.16275446581e-14,-3.59014440355e-14,-5.52076898194e-14,-1.35626449646e-14,-3.6192118638e-14,-4.53869458835e-14,-2.45977876604e-14,-4.68814982495e-14,-5.47719252494e-14,-1.5603031291e-14,-4.46702170967e-14,-5.76852950715e-14,-2.22482656484e-14,-4.60390189513e-14,-5.89250531507e-14,-1.86105386608e-14,-4.65805101739e-14,-6.40378863218e-14,-2.56825573449e-14,-4.33096382379e-14,-6.79205159454e-14,1.20527069228e-13,9.67225770505e-14,7.22920055524e-14,1.09573422113e-13,1.01569523191e-13,5.99154108489e-14,1.10167029579e-13,9.23125305038e-14,5.53913773844e-14,1.05824881193e-13,9.17281184278e-14,6.17247409868e-14,1.06450547162e-13,7.90367595048e-14,6.07137156847e-14,8.77328605272e-14,6.34703810234e-14,5.00918886448e-14,7.77400943641e-14,6.90839326392e-14,6.4974589565e-14,6.87092120396e-14,5.68606847804e-14,5.13301017359e-14,6.17169889413e-14,5.44509810776e-14,2.72868157242e-14,6.89156932611e-15,8.70650733041e-14,1.60454074615e-13,2.45958411786e-14,1.02173051107e-13,1.66286838357e-13,5.18703359615e-14,1.17919766291e-13,1.71712308001e-13,4.85308746857e-14,1.00560313928e-13,1.6582147168e-13,5.66858639564e-14,1.22339313159e-13,1.68236545571e-13,8.02252415975e-14,1.32113355087e-13,1.64487509984e-13,6.96289204137e-14,1.22341440906e-13,1.55595330999e-13,8.6330648305e-14,1.28360064006e-13,1.49953441049e-13,1.0281136836e-13,1.2698341185e-13,1.52686877356e-13,-8.00945715188e-15,1.08471386509e-14,3.83299450935e-14,-7.82461592806e-15,1.4614862326e-14,5.69069124505e-14,-7.82348937424e-15,2.48780183466e-14,6.05849395717e-14,-3.39224392222e-15,1.27953389935e-14,5.23460262766e-14,-9.75450511245e-15,2.18609767739e-14,5.49639950524e-14,5.38149889302e-15,3.2500213729e-14,5.7457605839e-14,-1.961700142e-15,1.89544255671e-14,4.38262537969e-14,1.42209869233e-14,2.28140870453e-14,4.98803303078e-14,2.61073528383e-14,2.58690536711e-14,5.93955359071e-14,3.68790115362e-14,2.13958320191e-14,-2.90874057527e-15,3.72586279863e-14,2.45586818432e-14,-7.08235036847e-15,3.19898594376e-14,2.46659043559e-14,2.57130488369e-15,2.7805152454e-14,1.82323706371e-14,-1.58860504097e-14,3.87178963478e-14,3.44602716859e-14,1.34720869782e-14,4.58844286622e-14,3.2555050642e-14,1.20383354842e-14,4.10611249049e-14,2.73859524603e-14,1.46983710925e-15,4.81014289814e-14,2.39479778645e-14,1.47596998778e-14,5.17592933303e-14,2.53887741316e-14,8.92579433487e-15,2.77451418638e-14,-8.15121150373e-15,-4.53281143631e-14,-1.69805541969e-14,-5.69039579996e-14,-8.06301707801e-14,-4.89678386544e-14,-8.30282633553e-14,-1.02938240343e-13,-3.71463690157e-14,-6.73088090797e-14,-8.93130648648e-14,-6.98282848644e-14,-1.04756135678e-13,-1.10982383494e-13,-9.60334852547e-14,-1.23344626071e-13,-1.41860766298e-13,-8.01790884662e-14,-9.50862516979e-14,-1.10399319894e-13,-1.05835926503e-13,-1.28079309853e-13,-1.35105441374e-13,-1.14343240822e-13,-1.25040955238e-13,-1.49093072415e-13,1.91417235253e-13,1.71347609495e-13,1.48926200148e-13,1.9215460115e-13,1.76004040986e-13,1.42557081591e-13,1.92973241553e-13,1.6162318337e-13,1.23524996655e-13,1.84275243177e-13,1.63631993155e-13,1.14521456554e-13,1.78732991406e-13,1.33477376287e-13,9.15206224607e-14,1.57068178993e-13,1.13037258319e-13,7.44092220023e-14,1.40561349994e-13,1.02080961685e-13,7.00951951105e-14,1.18367799286e-13,7.6312999702e-14,4.50034635751e-14,9.8890249559e-14,5.4579330286e-14,8.2744353158e-15,5.9342751355e-15,2.06670533416e-14,4.14151779006e-14,3.09914998192e-15,1.92402161775e-14,3.41834952e-14,4.42892436999e-15,1.65541950807e-14,3.28558218772e-14,6.50588470557e-17,1.71276685732e-14,2.43000792963e-14,1.0509971257e-14,2.22816150296e-14,3.97452897146e-14,1.72462904553e-14,3.85605955532e-14,4.6630671465e-14,8.13140702639e-15,1.9001136046e-14,2.65232680383e-14,3.07749397526e-14,3.06359213172e-14,2.96560769919e-14,4.85468192339e-14,4.79063742343e-14,4.81521188211e-14,-1.25067845146e-14,5.72262997758e-15,4.05108075991e-14,-1.23924393018e-14,4.78521988541e-15,3.32252434387e-14,-9.80979434105e-15,1.19454083466e-14,2.69569794004e-14,1.7671170652e-14,4.00151103658e-14,6.38838889557e-14,1.80382340737e-14,3.76310412681e-14,5.40152876583e-14,1.20402125092e-14,2.90761609668e-14,4.77512113509e-14,3.31357764307e-14,6.09565973001e-14,6.79974875234e-14,3.89884251186e-14,5.37610524132e-14,6.4261326837e-14,4.63332680328e-14,5.50700639062e-14,4.58425750702e-14,-9.05548490468e-14,-7.04151092903e-14,-3.62263794266e-14,-8.35105097054e-14,-6.07503549419e-14,-3.2775733218e-14,-6.55504703252e-14,-5.5522020358e-14,-3.46408049001e-14,-6.81941617975e-14,-6.05128469035e-14,-2.90270974303e-14,-5.98442058712e-14,-4.45936046607e-14,-2.09918752303e-14,-6.01568220151e-14,-3.18832112133e-14,-2.18195043468e-14,-4.54390553504e-14,-2.34994197089e-14,-4.54263769612e-15,-3.26501148438e-14,-1.03382980074e-14,-3.12398731727e-15,-3.96424226453e-14,-1.57591733445e-14,5.43560693417e-15,-1.60808188597e-14,-2.97642939213e-14,-3.42810903362e-14,-1.55172099128e-14,-2.83531963234e-14,-4.28114947735e-14,-1.59364166828e-14,-2.79692295122e-14,-4.37665718554e-14,-2.69152816625e-14,-3.27538424985e-14,-4.25155584024e-14,-3.43536708954e-14,-3.79202420332e-14,-4.01338169512e-14,-3.0106729013e-14,-4.00803793366e-14,-5.26048897097e-14,-5.04484793512e-14,-5.33670838369e-14,-5.30672036804e-14,-4.1966742039e-14,-5.13239285598e-14,-5.20604542006e-14,-3.60107654958e-14,-5.94565764895e-14,-5.48340195407e-14,-1.33919415677e-14,-4.81382511977e-14,-7.60197433431e-14,-1.95004755209e-14,-6.66604832856e-14,-7.74578968674e-14,-4.00976113749e-14,-6.85691060138e-14,-7.84738959469e-14,-3.86054442537e-14,-6.98065466109e-14,-8.66358241115e-14,-4.89496342223e-14,-7.66177553802e-14,-8.55517845694e-14,-6.04170508653e-14,-7.77781566366e-14,-7.71603714624e-14,-5.42217875146e-14,-7.44578145884e-14,-8.74691825589e-14,-6.34488460578e-14,-7.40228530056e-14,-7.7179256909e-14,-6.74074375961e-14,-7.60135904958e-14,-6.24103226781e-14,6.49760871193e-14,4.77177840427e-14,1.82573428625e-14,9.1005863598e-14,6.41973318038e-14,1.81457699886e-14,9.6258958649e-14,6.80874153174e-14,2.05833122763e-14,6.30696327954e-14,4.00763948936e-14,-3.58858594763e-15,7.18444604481e-14,3.42907397356e-14,-1.53115215141e-14,6.9889359328e-14,3.82657501605e-14,-2.1036781529e-14,3.88834438551e-14,7.54951656745e-15,-3.89274116414e-14,4.11454182357e-14,6.96965517594e-15,-4.3552716365e-14,3.04782139468e-14,-5.58395077884e-15,-5.68834598023e-14,1.72245044291e-13,1.63211390475e-13,1.29107743376e-13,1.81392254732e-13,1.66285632182e-13,1.29387996086e-13,1.80685517546e-13,1.4551962337e-13,1.07874050404e-13,1.68177632736e-13,1.45212116528e-13,1.11243364509e-13,1.52276046048e-13,1.31690570449e-13,1.00372381034e-13,1.46020809376e-13,1.14469753663e-13,7.11237031726e-14,1.48864725885e-13,1.27337227676e-13,7.88440086873e-14,1.24678235401e-13,9.72712985462e-14,5.77278093492e-14,1.09180486917e-13,7.76973225884e-14,4.04147981086e-14,-2.09793608267e-13,-1.69494071014e-13,-1.09330676023e-13,-2.37499879789e-13,-1.82014315729e-13,-1.19510778769e-13,-2.29232404543e-13,-1.81719223002e-13,-1.14321095993e-13,-2.19049740369e-13,-1.73131284699e-13,-1.08228496423e-13,-2.22988145418e-13,-1.81796201357e-13,-1.15550079813e-13,-2.10143561623e-13,-1.64955370327e-13,-1.03182382343e-13,-2.03673395423e-13,-1.5996646824e-13,-9.80163012928e-14,-1.99562791964e-13,-1.59677284416e-13,-9.94597945127e-14,-1.8871498331e-13,-1.39032231908e-13,-7.67107867028e-14,-1.68803244494e-13,-1.47823959562e-13,-1.15427714045e-13,-1.72974576828e-13,-1.51732643919e-13,-1.15464712444e-13,-1.5687977176e-13,-1.48855998057e-13,-1.14617991205e-13,-1.53116695755e-13,-1.31127584919e-13,-9.78692224918e-14,-1.47080183319e-13,-1.25479338834e-13,-1.05513322146e-13,-1.22779146875e-13,-1.17535159123e-13,-9.62368544772e-14,-1.21054520032e-13,-9.99391135169e-14,-8.39939825591e-14,-1.10093629092e-13,-9.94418035329e-14,-9.64319295531e-14,-9.3814929783e-14,-8.57459380734e-14,-7.92613655373e-14,1.35028313942e-13,1.42938978254e-13,1.41691346156e-13,1.45692811114e-13,1.61344353676e-13,1.59908856447e-13,1.62182455508e-13,1.78034412841e-13,1.68952024138e-13,1.24286120133e-13,1.45251080044e-13,1.50376401869e-13,1.44844192521e-13,1.65524617125e-13,1.54882373203e-13,1.53279949497e-13,1.58692368057e-13,1.37473027211e-13,1.21939662686e-13,1.29291325909e-13,1.15533640597e-13,1.25541653353e-13,1.23597895699e-13,1.18175692214e-13,1.16379196319e-13,1.19731495226e-13,1.02318754326e-13,1.44307864811e-13,1.71446055052e-13,1.74692115699e-13,1.55906713863e-13,1.78502178316e-13,1.86396430517e-13,1.48483208693e-13,1.70048382927e-13,1.8135722145e-13,1.39395317663e-13,1.683230378e-13,1.74543119216e-13,1.5027832223e-13,1.76740824124e-13,1.74470328592e-13,1.42907942966e-13,1.62123732408e-13,1.52604437333e-13,1.44424375887e-13,1.55856799905e-13,1.52798184262e-13,1.29851587382e-13,1.41040052359e-13,1.24692587527e-13,1.1914434554e-13,1.25816119133e-13,1.10435166329e-13,-1.8270880143e-13,-1.08453461598e-13,3.72161924826e-15,-1.46977102797e-13,-6.85659550513e-14,2.9632556581e-14,-1.13693031227e-13,-2.83115273846e-14,6.02673699791e-14,-1.10108381017e-13,-2.89861891271e-14,5.82654448777e-14,-8.87610907625e-14,-2.74565475743e-15,9.35616330505e-14,-4.94167457876e-14,3.03374709523e-14,1.25118557008e-13,-3.94241625836e-14,3.56729856971e-14,1.28654682394e-13,-1.55124123182e-14,6.26613358098e-14,1.40951242648e-13,2.13894572491e-14,8.16214703789e-14,1.47051668802e-13,9.52512012e-15,2.93404826802e-14,4.53112550193e-14,1.11523229277e-14,2.29039131953e-14,3.45490000812e-14,1.22254933431e-14,1.75089943358e-14,6.13438497522e-15,4.75428740684e-16,1.61956053765e-14,2.99727148483e-14,1.05344640617e-14,1.15421198667e-14,4.38409557477e-15,-1.2142657756e-14,-8.51659695322e-15,-1.41069873e-14,-8.24498990945e-15,5.33765646767e-15,9.38670477202e-15,-1.93378638298e-14,-5.74290371117e-15,-1.43613911047e-14,-3.08922199345e-14,-3.79967358846e-14,-4.39731869081e-14,-5.55061219731e-16,-1.96115952322e-15,3.92561569866e-15,1.28182681754e-14,1.16288628168e-14,1.68313625781e-16,2.31514721267e-14,1.18769121803e-14,8.09393555935e-16,6.17891053264e-15,2.44089780872e-15,4.34087698919e-15,2.50766983947e-14,1.29142226088e-14,1.51388369072e-14,2.32345474241e-14,2.94458366381e-14,3.26470689133e-14,2.67010924411e-14,2.15069746002e-14,2.17713573e-14,3.36932460827e-14,3.72427037668e-14,4.18685810848e-14,4.63410336309e-14,5.52367498258e-14,4.48883619619e-14,2.3860069736e-13,2.21775858312e-13,1.90637748101e-13,2.20559261501e-13,2.14012821679e-13,1.82410876226e-13,2.15181916881e-13,1.94975329285e-13,1.71915975379e-13,2.15512056443e-13,2.09346307108e-13,1.81759812821e-13,2.05640111059e-13,1.91822889495e-13,1.60342537316e-13,1.96218583916e-13,1.77374472532e-13,1.38338423833e-13,1.83089627443e-13,1.68916679147e-13,1.37881446169e-13,1.64912584998e-13,1.48009669841e-13,1.10586331216e-13,1.49548857456e-13,1.23299198e-13,8.19683540878e-14,3.7429352559e-14,8.34057825518e-14,1.13078708723e-13,9.42838268938e-14,1.28625002359e-13,1.47113387011e-13,1.3033325775e-13,1.61124138662e-13,1.76422678549e-13,1.14671361057e-13,1.35084651798e-13,1.50638074063e-13,1.51612297478e-13,1.73038870017e-13,1.72766179618e-13,1.87557705911e-13,1.94349690421e-13,1.91219273488e-13,1.77358439892e-13,1.82611209682e-13,1.67020612835e-13,1.98086393208e-13,1.94515898614e-13,1.75740823803e-13,2.0505031863e-13,1.95245593781e-13,1.81385763072e-13,2.14244014239e-13,2.63534718136e-13,2.69407217889e-13,2.55112391715e-13,2.95116361904e-13,3.07187489421e-13,2.88374006749e-13,3.1449793941e-13,3.22636475912e-13,2.5152913064e-13,2.91377165451e-13,2.8654059377e-13,2.85079197661e-13,3.04318717578e-13,2.98611612867e-13,3.0037441718e-13,3.10981790449e-13,2.84200885482e-13,2.69641893449e-13,2.92597055526e-13,2.70562082938e-13,2.74294801282e-13,2.77011107195e-13,2.52222342404e-13,2.71620996094e-13,2.61380869206e-13,2.36139504218e-13,-2.47482901685e-14,-1.63673650235e-14,-2.27026734136e-14,1.29023683827e-14,9.10489098124e-15,1.09496550485e-14,4.22745300951e-14,4.44526075563e-14,4.81819004995e-14,1.93778099036e-14,2.62719228696e-14,1.3926382088e-14,3.34936309102e-14,3.52278190614e-14,2.76172144778e-14,6.53053186615e-14,6.30011044419e-14,4.65931072479e-14,3.78975889841e-14,3.7236564472e-14,3.05188444232e-14,6.96651395425e-14,4.93054321058e-14,4.4664233656e-14,7.35575066569e-14,6.28625162992e-14,5.25475455791e-14,-7.00254741345e-14,-3.25414405166e-14,6.39149589713e-15,-5.55024742257e-14,-2.02413430526e-14,1.19286362472e-14,-4.6336717151e-14,-4.69143555045e-15,3.35754068591e-14,-2.4107050652e-14,1.53965218527e-16,3.28476056576e-14,-2.0732776322e-14,1.36305829362e-14,4.42286791501e-14,6.68845717811e-15,3.01207219973e-14,7.13913249264e-14,7.53283764169e-15,2.93186055132e-14,5.86444887335e-14,4.1649599351e-14,5.338700944e-14,7.80703965559e-14,5.91519495603e-14,7.73776184728e-14,1.03926666806e-13,-2.35600740441e-14,2.29764497088e-14,6.75773659579e-14,-3.76046926142e-15,4.30037780288e-14,8.14925926219e-14,1.18296680706e-14,4.71529350396e-14,8.65002581824e-14,1.8265198246e-14,5.74336246422e-14,9.68978925418e-14,2.92284981483e-14,6.58938032719e-14,1.039503634e-13,2.22123531455e-14,6.24241055982e-14,9.50993163341e-14,4.50161487405e-14,8.11193628003e-14,1.16490245726e-13,4.29544976519e-14,8.18205773316e-14,1.03507825954e-13,3.51749099954e-14,6.61928804412e-14,8.22694912412e-14,-1.27310583408e-13,-1.03274200715e-13,-7.26231073433e-14,-1.44369135787e-13,-1.13777219525e-13,-9.13851717281e-14,-1.41318543239e-13,-1.27603114707e-13,-9.53819746167e-14,-1.39356245727e-13,-1.0697131657e-13,-7.83935633422e-14,-1.37972546257e-13,-1.13182426213e-13,-9.14437999606e-14,-1.31536993212e-13,-1.11170777174e-13,-8.864065623e-14,-1.14410840827e-13,-9.84018300328e-14,-6.82433235898e-14,-1.12108246135e-13,-9.56579853848e-14,-6.21020636716e-14,-1.10853221134e-13,-7.70212344424e-14,-5.43258201011e-14,-1.66826120518e-14,2.23759982168e-14,5.46946453514e-14,-1.51489979144e-14,1.72674340917e-14,5.51215160755e-14,-2.66193368211e-14,1.54393201511e-14,4.72672878756e-14,-2.66958035674e-14,8.9846732891e-15,5.29369130725e-14,-2.57888786145e-14,1.87750070482e-14,5.67718344124e-14,-1.33145693432e-14,1.56913124529e-14,4.16641446007e-14,-3.00404266621e-14,6.45762291229e-15,4.57788476994e-14,1.11245892691e-16,1.86075249176e-14,4.73830772795e-14,1.17818505196e-14,2.7466927116e-14,5.77479484045e-14,1.37320412203e-13,1.42024223328e-13,1.39405929292e-13,1.18430235779e-13,1.17899396843e-13,1.09198457568e-13,9.51603230351e-14,9.68913195661e-14,9.11278905526e-14,1.22181697268e-13,1.18466597209e-13,1.07106855394e-13,9.86621266456e-14,8.53646716032e-14,7.46949973662e-14,6.96873521345e-14,6.78322889937e-14,6.53262098821e-14,8.53859422945e-14,6.26551423049e-14,6.07530247897e-14,5.52646849724e-14,4.4827511115e-14,4.09505430596e-14,4.01491313069e-14,3.37097022388e-14,4.40561080456e-14,-1.74782023164e-13,-1.68166587426e-13,-1.25618740128e-13,-1.69487037252e-13,-1.56559173178e-13,-1.05954761837e-13,-1.597742663e-13,-1.21774714878e-13,-8.01797457638e-14,-1.601485871e-13,-1.33522723043e-13,-8.77524981391e-14,-1.41059269842e-13,-1.14105556601e-13,-6.41094030076e-14,-1.35304351816e-13,-9.00637935541e-14,-3.77073792654e-14,-1.36338057272e-13,-1.01839990976e-13,-6.87779775623e-14,-1.14441239146e-13,-7.55480205304e-14,-4.15321294337e-14,-7.60119032062e-14,-4.65035894179e-14,-1.04623112542e-14,-1.65626220421e-13,-1.34201718206e-13,-1.00408200363e-13,-1.7213601421e-13,-1.3940651205e-13,-9.11503335375e-14,-1.79348371007e-13,-1.32477728332e-13,-9.50090903846e-14,-1.66290416224e-13,-1.27355184775e-13,-9.25010393803e-14,-1.61731440957e-13,-1.21448708837e-13,-8.96812328175e-14,-1.39274998327e-13,-1.06657290964e-13,-8.79445171201e-14,-1.4876897728e-13,-1.01639196733e-13,-8.88200578082e-14,-1.25229714836e-13,-1.04060308276e-13,-8.09509455454e-14,-1.04567281212e-13,-8.06417852959e-14,-6.46343398182e-14,-7.48312883555e-14,-8.01936303279e-14,-6.1130923457e-14,-6.33272934417e-14,-6.86990273154e-14,-6.58011853013e-14,-6.31592624338e-14,-5.71196735744e-14,-5.48378142483e-14,-6.39638962998e-14,-6.42604798041e-14,-5.37273438901e-14,-6.35011994702e-14,-6.11072065344e-14,-4.83989645507e-14,-5.04689470554e-14,-4.07774366302e-14,-2.54477903051e-14,-5.32770645634e-14,-5.21214981711e-14,-3.97165481926e-14,-4.81042445189e-14,-3.21927272166e-14,-2.11193265838e-14,-3.97856830218e-14,-1.67953978768e-14,-7.0678025776e-15,-1.65399554404e-13,-1.74244055599e-13,-1.81317295705e-13,-1.66847126935e-13,-1.72419546631e-13,-1.74670878889e-13,-1.76595812084e-13,-1.74904931033e-13,-1.56884244094e-13,-1.64782887314e-13,-1.54829165981e-13,-1.4650691142e-13,-1.56931217153e-13,-1.49158625989e-13,-1.39389219026e-13,-1.70499329715e-13,-1.50913840886e-13,-1.36927551546e-13,-1.37087159658e-13,-1.3493123719e-13,-1.29650562747e-13,-1.49493658013e-13,-1.36679337011e-13,-1.18534115899e-13,-1.4657018817e-13,-1.23205536485e-13,-1.13051041239e-13,1.56324524722e-13,1.73103488466e-13,1.55920835596e-13,1.36166360305e-13,1.38903116982e-13,1.19640137641e-13,1.04927934288e-13,9.96045490553e-14,7.60702807169e-14,1.26172387967e-13,1.15945244399e-13,9.42240534728e-14,8.51894780846e-14,8.08075123742e-14,5.49990113944e-14,6.534266265e-14,5.95320369607e-14,4.09040002932e-14,6.90151535638e-14,6.82740065113e-14,4.15083616892e-14,4.1934991856e-14,3.89777423391e-14,1.14701703471e-14,4.68723062479e-14,2.38136384391e-14,-1.23561134469e-14,5.81444343627e-14,7.08286307751e-14,1.08268957493e-13,5.40523470438e-14,7.41968810068e-14,9.97318818242e-14,7.0101300524e-14,8.38418147842e-14,1.01970738982e-13,8.77595183481e-14,9.74354738602e-14,1.19504842762e-13,8.38446337099e-14,9.58225876034e-14,9.83145924155e-14,9.09523582208e-14,9.79692130372e-14,1.06318315154e-13,9.61268079567e-14,1.00851239252e-13,1.09215161058e-13,8.78128543188e-14,1.03189795576e-13,1.15498024556e-13,9.20052405031e-14,9.73022321895e-14,1.02752516511e-13,-1.22299807542e-13,-1.37464895695e-13,-1.42512913905e-13,-1.32129170886e-13,-1.65718580893e-13,-1.62430344782e-13,-1.48024482754e-13,-1.54787586828e-13,-1.52500299715e-13,-1.43871080414e-13,-1.55899910494e-13,-1.54016258297e-13,-1.51973431669e-13,-1.59507118885e-13,-1.5308202839e-13,-1.62045059988e-13,-1.65840363902e-13,-1.58201075395e-13,-1.48280598412e-13,-1.55968594702e-13,-1.58264609642e-13,-1.52215506909e-13,-1.53703222025e-13,-1.53780498535e-13,-1.54792276002e-13,-1.60207676118e-13,-1.42837537588e-13,1.29057639684e-13,1.05093464855e-13,6.63619211124e-14,1.48108047636e-13,1.0440587739e-13,6.08895732771e-14,1.3051055191e-13,9.06073989709e-14,4.98991683205e-14,1.17488091196e-13,7.9929450916e-14,3.43341789732e-14,1.11942627477e-13,7.49834358016e-14,2.8562916599e-14,9.49039769839e-14,5.42847186744e-14,1.40701955769e-15,8.27006106825e-14,3.7648313964e-14,-1.46611357359e-14,6.48310750787e-14,1.6319455146e-14,-2.07248599521e-14,3.33935895429e-14,-3.01756059207e-15,-4.30608273919e-14,-1.63978870087e-13,-1.44236768254e-13,-1.05900843108e-13,-1.74073510597e-13,-1.60421900915e-13,-1.2504702677e-13,-1.83733331826e-13,-1.68616856588e-13,-1.23516051987e-13,-1.7657744841e-13,-1.65117092633e-13,-1.27467182859e-13,-1.8027716635e-13,-1.68319351512e-13,-1.33272055501e-13,-1.7277589678e-13,-1.44088544264e-13,-1.20950531491e-13,-1.64520334205e-13,-1.45112803609e-13,-1.13892280481e-13,-1.47004980346e-13,-1.38047938966e-13,-1.09374017005e-13,-1.26208803608e-13,-1.17021857157e-13,-8.53539244491e-14,1.48222756226e-13,1.58100027753e-13,1.58919291572e-13,1.81291383273e-13,1.81607617941e-13,1.88359636048e-13,1.9652777127e-13,2.05239457699e-13,1.9364796767e-13,1.86510840951e-13,1.9276343488e-13,1.82784804003e-13,2.07460811768e-13,2.06553998623e-13,1.97420625312e-13,2.15584521806e-13,2.23216654579e-13,2.06012209245e-13,2.07127812623e-13,2.21860995287e-13,1.97257547753e-13,2.22850939633e-13,2.19686017966e-13,1.87609828931e-13,2.13510063579e-13,2.07429207274e-13,1.81637623236e-13,-9.21074197816e-14,-7.67936061963e-14,-5.38895168181e-14,-9.01295300871e-14,-7.41336381388e-14,-4.96948843025e-14,-8.67774480203e-14,-6.6637227149e-14,-3.77435611248e-14,-1.0886691532e-13,-8.97817519115e-14,-5.48294658916e-14,-1.07238850233e-13,-8.39361742546e-14,-5.07882750884e-14,-1.04045617337e-13,-7.34385019159e-14,-3.70515792526e-14,-1.04268407331e-13,-8.21415960424e-14,-4.70167490824e-14,-8.09479639894e-14,-5.82192578652e-14,-3.81892224278e-14,-7.43697028331e-14,-4.29516380687e-14,-1.43687890904e-14,1.52975763025e-13,2.11971377408e-13,2.55825796745e-13,1.70163457435e-13,2.25444866226e-13,2.71330240177e-13,1.85766088926e-13,2.43241678969e-13,2.70622798259e-13,1.97782667522e-13,2.45448599596e-13,2.7656452432e-13,2.14743167367e-13,2.62146180414e-13,2.94869109598e-13,2.37090864519e-13,2.66783502841e-13,2.89936477604e-13,2.29173938941e-13,2.68552541316e-13,2.84051888998e-13,2.39584312675e-13,2.66037165171e-13,2.78880678316e-13,2.41342861494e-13,2.55014244313e-13,2.63644547817e-13,1.08929189182e-13,8.46682207852e-14,3.61345712195e-14,9.79464109103e-14,6.97762160551e-14,2.07467760826e-14,7.85206318368e-14,4.29768559336e-14,1.79675529859e-15,7.96998033434e-14,6.2896885508e-14,1.63987120188e-14,6.0573995906e-14,3.3388039783e-14,-1.1750623803e-14,3.2518465595e-14,5.58059483431e-15,-2.24884045711e-14,4.62211615282e-14,2.5752898349e-14,-1.05643295964e-14,2.27751438585e-14,-2.39574036472e-15,-2.93464864497e-14,2.86167476604e-15,-2.06047320455e-14,-5.5259636656e-14,2.53798745258e-13,2.36314657079e-13,2.00457163889e-13,2.8661567477e-13,2.66557500898e-13,2.20298809034e-13,3.06802136864e-13,2.77653551192e-13,2.28001292976e-13,2.86679371648e-13,2.71982685939e-13,2.20306574632e-13,3.13962912743e-13,2.86361402256e-13,2.26536319e-13,3.12232471865e-13,2.79757933399e-13,2.07380743437e-13,2.951018607e-13,2.6395801777e-13,2.01430208234e-13,2.91848956026e-13,2.53891281913e-13,1.95260189853e-13,2.68654483425e-13,2.23279958433e-13,1.68573136136e-13,6.60820004402e-14,1.05735238002e-13,1.35447358082e-13,7.48477817811e-14,1.09053452304e-13,1.22557237796e-13,9.04701660809e-14,1.0973978616e-13,1.10878991264e-13,8.01601420333e-14,1.08919268732e-13,1.1121438243e-13,9.03132210401e-14,1.08871638376e-13,1.15811508061e-13,9.86407543103e-14,1.1760105151e-13,1.41439106521e-13,9.35128100714e-14,1.08202468795e-13,1.23429600416e-13,9.8892485726e-14,1.17368002253e-13,1.36495917108e-13,1.19813271175e-13,1.32599931469e-13,1.56666563403e-13,1.25140097056e-15,4.48944944805e-14,7.196395308e-14,7.25015818323e-15,5.72403181711e-14,7.82190677788e-14,1.56797775583e-14,5.82073655226e-14,8.10480494024e-14,5.71570082456e-15,4.87068135932e-14,6.52626214247e-14,2.51096022365e-14,5.73649336583e-14,7.98182117731e-14,2.14278549467e-14,5.85589519583e-14,8.60893184539e-14,1.39720541045e-14,4.76144799044e-14,8.0023519007e-14,2.705610089e-14,6.01789261869e-14,8.52969902826e-14,2.55844658474e-14,6.68847437288e-14,9.34320912196e-14,3.7529925863e-14,7.33005304132e-14,1.02448099646e-13,4.6831713041e-14,7.48868875982e-14,1.13254898352e-13,5.66804090642e-14,8.79515373291e-14,1.20249540577e-13,5.70668797048e-14,8.81865923601e-14,1.32103407532e-13,6.42973901118e-14,1.05425752492e-13,1.40184237374e-13,6.31826473194e-14,1.0768735079e-13,1.45001483151e-13,7.10919699303e-14,1.14130181542e-13,1.41728805341e-13,7.19832789838e-14,1.15078126607e-13,1.21273772817e-13,8.06737760362e-14,1.09413827553e-13,1.26763223941e-13,1.77400395128e-14,-3.66357978839e-14,-9.51513580384e-14,3.16331365941e-14,-2.5013001517e-14,-9.29775733401e-14,4.23349642018e-14,-2.17583672027e-14,-8.83795667943e-14,1.46719133831e-14,-4.90034953533e-14,-1.17434328321e-13,1.67656111162e-14,-4.07156743759e-14,-1.03062598332e-13,1.48027613387e-14,-4.2391451135e-14,-9.20817580714e-14,7.68302187719e-16,-5.11478609033e-14,-1.03422905819e-13,-7.33182401781e-16,-4.961378598e-14,-9.29835025708e-14,-1.51162262097e-14,-5.58148023785e-14,-1.05719761016e-13,5.65270656075e-14,5.50924425166e-14,4.06902057892e-14,7.3984248632e-14,7.24942363626e-14,5.22464897409e-14,8.77958865548e-14,7.51730356565e-14,6.44614841106e-14,1.00366241739e-13,9.79175575799e-14,8.02923469357e-14,1.08954938984e-13,9.54331828406e-14,8.4755343206e-14,9.07402272895e-14,7.98314119346e-14,8.45290837651e-14,1.19843872781e-13,1.16386419816e-13,1.13062025562e-13,1.08016575556e-13,1.09850815239e-13,9.97497033974e-14,7.57650981341e-14,7.78575947745e-14,8.13471672293e-14,-8.15628895803e-14,-2.62884603409e-14,9.67139678076e-15,-6.79122556801e-14,-1.6127436165e-14,3.3264200178e-14,-4.96855974332e-14,-9.36959894165e-15,4.1007395911e-14,-4.82702324834e-14,2.94798403523e-15,4.88033922899e-14,-3.13516641576e-14,1.61381392733e-14,5.08187513338e-14,-7.11977355463e-15,2.23174394411e-14,5.91536978363e-14,-3.14391524966e-14,2.48562580701e-14,5.81193215299e-14,-1.13478681069e-14,1.99418677779e-14,5.74979246073e-14,3.76655519315e-15,3.50106533662e-14,6.16836836058e-14