0.00226071220823,-0.0726811513305,0.00458690151572,-0.112775959074,-0.0400250405073,0.00589850684628,-0.0710945352912,0.0418144278228,-0.117268748581,-0.0040152897127,0.0561756156385,-0.018361536786,0.0979067310691,0.0345236100256,0.119847290218,-0.0564928352833,0.114695034921,0.0278895851225,0.0640255585313,0.105074554682,0.0133016994223,0.0946201756597,0.0108174970374,0.0258536022156,-0.0144418338314,-0.0927471518517,0.0139047028497,0.124782517552,0.0750311911106,0.0646533742547,0.0374089516699,-0.0398346930742,-0.0864562764764,-0.072091050446,-0.129155531526,0.0452984720469,0.0815270245075,-0.0604522638023,-0.106751568615,-0.0429807417095,-0.0544014573097,-0.0128705594689,-0.0617098361254,-0.0419333167374,0.106545485556,-0.0432668142021,0.0745814070106,0.0328258126974,-0.0425601191819,0.0830196887255,0.0247830655426,-0.128568679094,-0.112850666046,0.0659840703011,-0.0140792634338,-0.024805502966,-0.0927088484168,-0.089703977108,0.0777619034052,0.0859372466803,0.0155930453911,-0.0536685623229,0.113049305975,0.0323019474745,0.0774556025863,-0.129998385906,-0.0131036033854,0.0968860015273,-0.0424128361046,0.0591277033091,0.0411173515022,-0.0910535901785,0.0717764049768,-0.101427361369,0.0594891123474,0.128274649382,0.119649030268,0.0784019678831,0.00891818478703,0.045606829226,0.0595399178565,-0.12854719162,-0.103976532817,0.0253798160702,-0.129035383463,0.106923997402,-0.00270307832398,-0.0633410438895,-0.0277645085007,0.0917238816619,0.111633017659,-0.100422881544,0.0726105570793,0.0203825682402,0.0222850628197,0.0730005577207,-0.0725457072258,0.00804500002414,-0.0473100282252,-0.10607341677,-0.103310249746,-0.0951016023755,0.0300016924739,-0.103113934398,0.0182880666107,0.0230453778058,0.105570971966,0.0330027453601,0.126889720559,-0.122725717723,0.0532960295677,-0.123905688524,0.0598937533796,-0.029934566468,0.0290199201554,-0.0498893149197,-0.0892258286476,0.0583812743425,0.105738893151,-0.0828040018678,0.109944313765,-0.0941526740789,0.0615581907332,0.120074927807,-0.0922729000449,-0.0170377958566,-0.0425282604992,-0.0291870590299,0.0661677792668,0.0421236865222,0.122530825436,-0.0822686627507,0.0112868975848,-0.0133282206953,0.109500646591,-0.128045573831,0.127833992243,-0.0053774449043,0.0327489227057,-0.0366728156805,0.092103369534,0.0161309111863,0.0424949228764,0.0388586074114,-0.0356639698148,-0.110970184207,0.0803646966815,-0.055083706975,0.0911442860961,0.0283119548112,-0.0383515916765,0.0245476067066,0.0379477143288,0.0539325140417,0.0841748118401,-0.0890828594565,0.116025708616,-0.0234268773347,0.0941406935453,-0.0732040852308,-0.123266160488,0.019065849483,-0.045955426991,0.126573324203,-0.103538446128,-0.118482649326,-0.119080163538,-0.07414188236,0.0205998308957,0.00134703924414,-0.0393111370504,-0.107525743544,-0.0696246027946,-0.0825918093324,0.0642389729619,0.0732026696205,0.0724358931184,0.122648559511,0.100473679602,-0.000574032659642,-0.0223161242902,0.108645685017,0.0290111899376,-0.0538351908326,0.0167836826295,0.128618374467,0.0913094207644,-0.0572656430304,0.118369363248,0.125853389502,-0.0703398510814,0.103399470448,0.100159786642,-0.12039218843,0.0443284772336,-0.0509600304067,0.0456159003079,0.108097516,-0.000404976250138,-0.0224657785147,0.110139623284,0.123889625072,-0.114555850625,0.110483951867,-0.109186917543,-0.0426335036755,0.0685742050409,0.0723773464561,0.0589851476252,-0.120581187308,-0.0960395932198,0.11400090903,-0.109507448971,-0.11026981473,0.0877028927207,0.0368747152388,-0.0388155020773,-0.0874380320311,0.100430749357,0.127721488476,-0.11770234257,0.0141247007996,-0.0624416060746,0.0868899524212,-0.0402753800154,0.0560448095202,0.0102567002177,0.010779665783,0.0935344323516,-0.00781710259616,0.090292006731,-0.0357904843986,-0.085118599236,-0.0117203472182,-0.000526846153662,-0.00574944121763,0.0805279165506,0.0168158710003,0.101476691663,0.00361243844964,-0.0720805972815,-0.0969792976975,0.0962256789207,-0.116168372333,-0.100103370845,-0.114210940897,-0.0200553573668,0.00841583218426,-0.125659823418,0.00396283855662,-0.0278933942318,0.0714421793818,0.0861720591784,0.0482590682805,-0.00703832134604,-0.074331484735,0.0906587392092,-0.0415093787014,-0.0376857034862,0.108674407005,0.124255359173,0.104106537998,0.130282491446,0.0964653044939,0.053437076509,-0.0539137907326,0.11844291538,0.0984834656119,-0.0677916482091,-0.00283388514072,-0.112437129021,0.118523143232,0.0190163496882,-0.0666388124228,-0.0542968139052,0.125674262643,0.0302200615406,-0.0207521338016,-5.21163092344e-05,-0.104981333017,-0.11113344878,0.0242350380868,0.00313196610659,-0.0368367210031,0.0172810778022,-0.1117471084,0.116091519594,-0.0539488978684,-0.111988581717,-0.0864345282316,-0.105792589486,-0.0840549245477,-0.0217816028744,0.0622337721288,-0.0595419406891,-0.0167682040483,0.11210116744,-0.0534005500376,0.0770553573966,-0.0894872173667,-0.0841254293919,-0.011475876905,-0.0695394873619,0.105376705527,-0.117483340204,0.0254252683371,0.0272506959736,-0.113483160734,0.0608087033033,-0.00813699420542,0.05832695961,0.0854829549789,-0.0463138148189,-0.00406082160771,-0.0625622943044,-0.0780632048845,-0.13060118258,0.121221661568,-0.0154590718448,-0.12733912468,-0.12841938436,-0.0553558543324,-0.127112179995,-0.032825499773,-0.114301979542,-0.120495826006,0.0442756414413,0.106368623674,-0.0237098950893,0.088045924902,-0.123107083142,0.0725971013308,-0.114338196814,0.0884797945619,0.0999661684036,0.0747606679797,0.0838539674878,0.0160593986511,-0.061497926712,0.0374350957572,-0.0158272329718,-0.129366695881,-0.00607710005715,0.0395165458322,-0.127131044865,0.0317169874907,0.0398679822683,-0.0894181355834,-0.0180405955762,0.121400177479,0.100443631411,-0.0233191438019,-0.0392634272575,-0.0982984602451,-0.121542558074,-0.052961088717,0.11512888968,0.11992199719,0.0817201137543,-0.0390075482428,-0.0931992381811,0.0249691661447,0.0382976382971,-0.0197348278016,0.0501016825438,0.0644926354289,0.0740055143833,0.000589222298004,0.0762488543987,-0.124089226127,0.0471666641533,-0.0691355168819,-0.0600131750107,-0.106876693666,-0.0804427117109,0.128647372127,-0.0221314206719,0.111848674715,-0.0881615877151,-0.0773989111185,0.0151037331671,-0.0393591858447,0.0376184023917,-0.020397670567,0.0814651995897,-0.0179102662951,0.0189046841115,-0.0467975921929,0.0533439591527,0.0404508188367,-0.0269433706999,-0.0585753060877,0.0298265870661,0.115868546069,-0.0960698798299,0.0782050862908,0.011237770319,0.00667949486524,0.120720878243,0.0276809502393,0.0864224359393,0.00378156430088,-0.0654144585133,0.0508528165519,0.110651694238,0.0892151370645,-0.0788868516684,-0.0478938855231,0.00440153386444,0.018710853532,-0.0800764933228,-0.0706110820174,0.0676687657833,0.0602127276361,0.0886835306883,0.113190464675,-0.0501530431211,0.0940142646432,0.0433945320547,0.119685992599,-0.0596155039966,-0.0602437704802,0.0534047335386,0.112006239593,0.0848494023085,0.0593500398099,-0.0294854007661,0.0569254644215,0.078714825213,0.0662131011486,0.046215813607,-0.118437938392,0.0417462587357,-0.00569298723713,0.120677597821,0.0280115772039,0.0282828379422,0.129172220826,-0.106289297342,-0.0585079565644,0.0407956205308,-0.0483135357499,-0.0402299165726,0.10267201066,0.0207501091063,-0.103845953941,-0.0494571998715,-0.110855720937,0.0146773140877,-0.0854365080595,0.0933696255088,0.0202049948275,-0.115229822695,-0.0520803518593,0.0304092168808,-0.0430269353092,0.00343383708969,0.10703163594,-0.0392255112529,-0.0429242514074,0.0836057141423,-0.0473999716341,-0.110365822911,-0.0834360420704,0.117349036038,0.113294020295,-0.0719653069973,0.0139831537381,-0.0948377549648,0.0456624105573,-0.0823026150465,-0.117738284171,0.0849428772926,-0.0456694588065,-0.102380566299,0.0872981399298,0.0686000436544,0.0480403155088,0.107526302338,-0.00282762269489,-0.0972691997886,-0.114713102579,-0.0474858768284,-0.108049228787,0.00927492789924,-0.126963198185,-0.0147093022242,-0.0840829014778,-0.0344504415989,0.0457652509212,-0.03897530213,-0.0414918363094,0.128321230412,0.0572133734822,0.00362060847692,0.0207432322204,0.031413782388,-0.124330416322,-0.109768353403,0.0389986969531,-0.0354523472488,-0.116258628666,-0.0529604479671,-0.0966890156269,0.108845584095,-0.0776970610023,-0.0931861028075,0.032976064831,0.00571415387094,0.0198398828506,-0.0167643595487,-0.00860039144754,0.072886697948,-0.0732551515102,-0.0270744524896,0.11969781667,-0.0810831859708,-0.0539438873529,-0.0806697160006,-0.125402823091,-0.0602048747241,-0.118611514568,-0.0903130620718,-0.0359243229032,-0.125343114138,0.0661278441548,0.0772757232189,-0.02318155393,0.126717045903,0.0467874854803,0.0637130513787,-0.0804598033428,0.0882359519601,0.116374373436,-0.0689517781138,0.0487582087517,0.0645721629262,-0.0509459599853,-0.00653485022485,-0.105238772929,-0.0855680927634,-0.114730373025,0.0156463366002,0.0326685234904,0.108724102378,0.0109445974231,-0.062683545053,-0.115278705955,0.100574426353,-0.00557953119278,0.0620057433844,-0.126964658499,-0.00315270386636,-0.0456226244569,-0.122863933444,0.0720340684056,0.00332245719619,-0.0436725467443,0.0798612087965,-0.0139803513885,-0.129930838943,0.116116322577,-0.0639875531197,0.0863401144743,0.0826374068856,-0.0883866995573,-0.00689944205806,-0.120309025049,-0.0381093993783,0.0603218562901,-0.0688297227025,-0.100193016231,0.00178630917799,0.00959508586675,0.0459008067846,0.0676849633455,0.0511719062924,0.0902913436294,-0.0724865570664,0.018213249743,-0.0366133786738,0.120807051659,-0.0156461335719,0.120179891586,0.070327617228,0.0570332184434,-0.00229850737378,-0.0148984603584,0.00684952037409,-0.0540550127625,0.105682060122,0.0768714845181,0.078718945384,-0.0175720844418,-0.112269841135,0.0477579236031,-0.032953992486,0.0967484787107,0.0731905177236,-0.0928571671247,0.0264828186482,0.0501470379531,0.0177025292069,0.00353847304359,-0.0712939873338,-0.0691906362772,0.0699475631118,-0.125990301371,0.0727982893586,0.00687415944412,0.113933674991,0.129910334945,0.0426218621433,-0.0230711251497,-0.00664216419682,-0.0774716213346,-0.104922935367,0.0204682778567,0.0797559097409,-0.0624226592481,-0.0211372580379,0.01432266552,0.106660455465,-0.0944936648011,-0.0688019394875,0.109440766275,-0.120406001806,0.0408223941922,0.0364843681455,-0.0305275861174,-0.00841079186648,0.0927205979824,-0.0876894816756,-0.0702781826258,0.00314325164072,-0.0236867330968,0.0193613022566,0.109958223999,0.108980998397,-0.0706481263041,-0.0517879985273,-0.088416159153,0.11181101203,-0.0267584994435,-0.0132026877254,0.0790858790278,0.00334123731591,-0.0994805544615,-0.0163532923907,0.0340290479362,0.0572191365063,0.03790634498,-0.0996812209487,-0.0512630417943,0.0609729476273,0.0993137657642,-0.118506878614,-0.119778171182,0.0374222099781,0.0124870846048,-0.0902012586594,0.0125512611121,0.123996339738,0.034152481705,-0.0133754033595,0.0855693817139,-0.0751233920455,-0.0224325545132,0.00723103992641,0.00115719006862,0.110049456358,-0.0542448088527,-0.115998901427,0.108847849071,-0.0740133300424,-0.0317252539098,0.00798528268933,0.124344609678,0.00912976823747,-0.0137570193037,0.0217779334635,0.123018264771,0.0830462500453,-0.0866534262896,0.0791842341423,0.0890787020326,0.0497496239841,0.0410000607371,-0.0155745949596,0.0369370393455,0.0620084144175,-0.0987427160144,-0.063570022583,-0.0801273658872,0.0890894681215,0.0469351671636,-0.0130042312667,0.0851263329387,0.0565523728728,0.108016304672,-0.110793367028,0.00226115691476,0.0539347119629,-0.0766145214438,-0.0453318655491,-0.0213141702116,0.0768352225423,-0.0018071718514,-0.00199182704091,-0.0181994885206,-0.0710981935263,0.110628202558,-0.047642853111,0.0176414735615,-0.0918399468064,-0.0171945765615,0.105589844286,0.129558309913,-0.0361502543092,-0.0904773846269,-0.0486049763858,-0.0452604815364,0.0377010963857,-0.00109120318666,0.0701127946377,0.0525521859527,-0.0651160776615,0.0742432549596,0.0907709226012,0.02567669563,0.11177893728,0.0739364773035,0.0248937252909,0.106156498194,0.0261913798749,0.00549006043002,-0.0376378968358,0.100063122809,-0.098753862083,-0.00703017739579,0.0096816830337,0.0142147829756,0.0396159477532,0.00141403067391,-0.0636906549335,0.0932352617383,0.0410895645618,0.0935853868723,-0.0586383603513,0.0357623770833,0.0559275224805,-0.0305645857006,0.0815716534853,-0.130164399743,0.0247439797968,0.0296203996986,0.00881962943822,0.0339761711657,-0.0870461165905,0.0482882037759,-0.0429692156613,-0.0125673189759,-0.0436698980629,-0.00684531033039,0.0317589454353,0.0883803144097,-0.00442405324429,-0.0463173799217,-0.00324557395652,0.0492774285376,-0.0401784479618,-0.0225067641586,0.0163393300027,-0.0539566427469,-0.0761855915189,-0.0941478386521,-0.0386553779244,-0.118217661977,0.0217150524259,-0.0848605409265,-0.0321744419634,-0.0604601353407,0.0339808054268,0.09147785604,0.0347232632339,0.0109811360016,0.0440800152719,-0.123035289347,-0.0987550616264,-0.106055133045,-0.105200089514,-0.0627640709281,0.00825385656208,-0.100883662701,0.113650307059,0.0925065204501,0.123201973736,-0.119758278131,0.0917601361871,0.0792954191566,0.105018481612,0.00730706937611,0.0752795860171,-0.117333173752,-0.110902942717,-0.0997493118048,0.108462385833,-0.114749029279,-0.104556173086,0.112547233701