-0.00545088294894,-0.00627392577007,-0.00568218063563,-0.00569802848622,0.000187404672033,-0.0082779545337,0.00518504483625,-0.00236672349274,-0.0107877627015,-0.00169458391611,0.00851174164563,0.00533075490966,-0.0104033071548,0.00929989479482,-0.00591785134748,0.00420530280098,0.00255163572729,-0.0047548590228,-0.000105106315459,-0.00512641295791,0.0120403980836,-0.000296533922665,-0.00894034840167,-0.000852710043546,0.0123335095122,0.00211432785727,-0.0119391269982,0.0124109545723,-0.00377210322767,0.00539116468281,-0.00712917326018,0.0107823703438,0.00197307579219,0.0028961119242,-0.00835703779012,-0.00500025553629,-0.00168737408239,0.0121571710333,-0.010736647062,0.000621037965175,-0.0047318097204,0.00603614049032,0.00656176218763,-0.00224518752657,0.00268958299421,-0.0112963085994,0.00399247603491,-0.000519607739989,0.00123840209562,0.00610028905794,0.00368421408348,0.00477115949616,-0.00206599989906,0.00669767009094,6.61223239149e-05,-0.00367797841318,-0.00763715105131,0.00157550093718,0.0023000347428,0.00553832529113,0.00127675733529,-0.00888981483877,0.0102459089831,-0.00570063712075,-0.00377021590248,-0.00774215580896,0.00157982658129,0.0119667397812,-0.00288817216642,0.00228811986744,0.00568116502836,0.00498724915087,0.00678544305265,0.00344407255761,-0.0062100617215,0.0100952610373,0.00220992416143,0.0055265231058,-0.00208541052416,-0.00183634238783,0.00631142640486,-0.0124744465575,0.00111982261296,0.00641181785613,-0.00827577710152,-0.00822121556848,-0.00736534874886,0.00513959489763,0.0048580407165,0.00154102453962,-0.0058311750181,-0.000864833651576,-0.00423159729689,-0.0122300758958,0.00205288059078,-0.01037988998,0.00909032020718,0.00367819401436,0.00148378429003,0.00960788689554,-0.00713627459481,-0.0014352297876,0.0119659947231,0.0116976685822,-0.00271827098913,0.00439204322174,0.00010119601211,-0.0103864567354,-0.0103371441364,-0.00834775622934,0.00383522943594,-0.0110401334241,0.0033073106315,-0.0125160263851,-0.00644809799269,-0.0109955742955,-0.00244494667277,-0.0063728117384,-0.00617542723194,0.00883282721043,-0.00152033485938,0.00493015628308,-0.00527590699494,0.0106386383995,0.010319236666,-0.00405560713261,-0.000411908724345,0.00526738818735,-0.00246164458804,0.00502658402547,-0.00731349689886,-0.00951172597706,-0.00145139324013,0.000809202319942,0.00414140988141,0.00858028139919,-0.011415717192,-0.00693270331249,-0.0114435432479,0.0101160528138,0.00879832077771,0.0109706446528,-0.00557771092281,0.00827699061483,0.000520753732417,-0.0117860287428,0.00747555261478,-0.00672345655039,0.00242240633816,-0.0004474989546,-0.0100430594757,-0.00629189843312,-0.0079061826691,0.00566279469058,0.00327669992112,-0.00878859683871,0.00680792331696,0.000746479956433,0.00369081413373,-0.0111687565222,-0.0122121013701,-0.0048332544975,0.0110322302207,-0.0116054015234,-0.0122443484142,0.0058838785626,-8.15177409095e-05,0.00304200081155,-0.00314106745645,-0.00745341228321,0.011340928264,-0.00961236190051,0.0016445168294,-0.00924903247505,-0.00498985964805,-0.000714314170182,0.00752567080781,-0.0022369355429,0.00164816936012,-0.00563480472192,-0.010839718394,-0.00525663560256,0.00263116881251,0.00289866235107,-0.00549266999587,-0.00282389810309,-0.00745744863525,0.00170562195126,0.00382174015976,0.00540357921273,-0.000497892324347,0.00915853586048,0.00330378068611,0.00164014298934,-0.00493832957,-0.00165755895432,0.000854873564094,0.01220905222,0.0080582452938,0.000754445791245,0.00165481574368,0.00840438436717,-0.00835431274027,0.00598424207419,-0.00280180806294,-0.00345689151436,0.00478310650215,0.00790169276297,0.00596140418202,0.00951572228223,-0.0103815263137,-0.000654363422655,-0.0126113118604,-0.00937515310943,-0.00248610042036,-0.0111660109833,-0.00705211283639,-0.000574073230382,0.000841314787976,-0.00364769296721,0.00304526928812,0.0111464448273,0.004571093712,0.00753018865362,-0.00558318849653,0.00468220701441,-0.0105938222259,-0.00342138996348,-0.00246315216646,0.0100401481614,-0.00108423223719,-0.00776619883254,-0.00359371863306,0.00290871341713,-0.005076745525,-0.00279986090027,0.00220754928887,0.0121026858687,0.0122317736968,0.00396224344149,0.00913317035884,0.0102395545691,-0.00125403190032,-0.00229195412248,-0.00294512859546,-0.00132209877484,0.0112121421844,0.00226844428107,-0.00880050472915,-0.0081811696291,-0.00604801997542,-0.00557614676654,0.00169818417635,-0.0010741740698,-0.000607760972343,0.00193344533909,-0.00243186648004,0.0059544253163,-0.00769550912082,-0.00525650149211,0.00224185921252,0.0123268561438,0.00875444430858,0.00681974412873,0.00147790357005,0.00914702843875,0.00755653716624,0.00861395988613,-0.00734389666468,-0.0101239029318,0.0118120927364,-0.00832058489323,0.00349823129363,-0.00551728112623,0.0112402550876,0.00479510892183,0.00479278434068,0.00934911426157,-0.00398633163422,-0.00666635436937,-0.00976511929184,0.00628547510132,-0.00372979603708,-0.0126648070291,0.0122971590608,0.00126593816094,-0.00767210358754,-0.00838558841497,-0.00181736040395,0.00439876550809,0.00676245428622,0.0122413635254,-0.0126126818359,-0.000147422746522,-0.0118599087,0.0122224465013,-0.0100380368531,-0.0121993329376,-0.000691337452736,-0.00360231893137,-0.00779528589919,-0.00931776501238,0.00156242900994,0.00964385271072,-0.00824124645442,0.00451029511169,-0.00810389779508,0.00643731746823,0.00630724709481,-0.00472042197362,0.000334556185408,-0.0036834536586,-0.0114963175729,-0.00971471983939,0.00987995509058,-0.0022430953104,-0.00998729187995,0.00233940430917,0.00569979893044,-0.00352853978984,-0.00586879765615,0.00144777947571,-0.00760660739616,0.00596840772778,-0.0105939451605,0.00963376276195,-0.00287739280611,0.00465631764382,-0.00197646045126,-0.00709790317342,-0.00348146539181,-0.0073360693641,-0.00772370770574,-0.00174999749288,-0.0106048779562,0.00283776083961,0.00251137651503,-0.00401783362031,-0.00152261194307,0.0068897139281,-0.00700191082433,-0.00842616148293,-0.00479161413386,0.00602406170219,-0.0116601604968,-0.00197279127315,-0.00302024930716,0.00207924982533,-0.0108361076564,-0.00742824980989,-0.00720698852092,0.00344864977524,0.00294779310934,0.00983350444585,-0.00914232432842,0.0124756610021,-0.00166251428891,-0.00428346078843,-0.0112238712609,0.00567889725789,0.0119717391208,-0.00907661672682,0.00944889057428,-0.00695150904357,0.00105642830022,-0.00981148891151,0.0115858316422,0.00570577289909,0.00508868414909,-0.00731655815616,0.00452992459759,-0.00289391190745,0.00331309786998,-0.0115489559248,0.0124564357102,-0.00574029562995,0.00520930904895,0.0109637668356,0.00771922059357,-0.00624422822148,-0.000136802598718,0.00840822141618,-0.00325754703954,-0.00204519671388,0.00787509791553,-0.00375631102361,0.0117182079703,-0.00449051056057,0.00723559269682,-0.00393164390698,-0.01056905929,0.00522254128009,-0.0039714500308,0.00921972095966,0.00965934339911,0.00571529846638,-0.0125457979739,-0.000790363759734,0.00496984040365,-0.000119535106933,-0.00611020531505,0.00020855027833,0.0033590705134,-0.00656430842355,0.00586306024343,-0.00999427493662,0.00905834697187,0.00365159730427,0.0102367298678,0.0101153971627,0.0070011569187,-0.00866101402789,0.00999312661588,-0.0100389607251,0.00863132160157,0.0118717420846,-0.00398463662714,0.00839810632169,0.00412800582126,0.00997202657163,0.00716875633225,-0.00787917710841,-0.00322132115252,0.00420500943437,-0.00247553898953,-0.0110758431256,-0.00339048099704,0.00881173741072,0.00311103509739,-0.00289180246182,-0.00870449375361,-0.00769129442051,0.00624336767942,-0.00624246941879,0.00914819911122,0.00484460173175,-0.010837752372,-0.00343454419635,-0.00332145113498,-0.0103490017354,0.00672184303403,-0.00705648772418,-0.00949096120894,0.00871143024415,0.00778939062729,-0.0123250856996,-0.00817684549838,0.0122978901491,-0.0056651183404,0.00487872771919,-0.00412087608129,0.00631488719955,0.0122348424047,0.000804911425803,0.00107133435085,0.00612860918045,0.00954766850919,-0.0105308396742,0.00904171448201,0.00909660756588,0.0107802888379,-0.0048838336952,-0.00692278752103,0.000359310331987,-0.0113060176373,0.0050685335882,-0.00652661500499,0.00607068371028,-0.00420895824209,0.000229776400374,-0.00985067803413,-0.000833186204545,0.00899475254118,-0.010233303532,0.00745297037065,0.00559473689646,0.00552039733157,0.00367411784828,-0.00714929122478,0.00958093255758,0.00332215079106,-0.00445209117606,-0.0103916469961,0.0051073115319,0.00410458492115,-0.0101254293695,-0.00170215184335,-0.00270011904649,0.0103303492069,-0.00511366548017,-0.0125864846632,0.00673593021929,-0.0120845949277,-0.00406839558855,-0.00152768543921,-0.000218736910028,-0.000688162166625,0.00149899150711,-0.00648576067761,-0.0122943408787,0.00296379788779,0.0121258804575,0.0111285038292,0.00887865293771,-0.000809444405604,-0.00211017322727,0.0103009911254,0.000509464531206,0.00968374870718,-0.000969453190919,-0.0062132421881,0.010883689858,0.00175786390901,-0.00260559516028,-0.00414141220972,0.0108736399561,-0.0107877906412,0.000906682747882,0.00478856917471,-0.0122155202553,-0.0108007201925,-0.0106792040169,0.00238993577659,-0.00163083721418,-0.00359626673162,-0.0113887814805,0.0114245861769,-0.00212207506411,-0.00514690298587,3.54720541509e-05,-0.00848689954728,-0.000263137742877,-0.00186175713316,0.00383628136478,-0.00333414622582,-0.00462009571493,-0.00386898266152,-0.0086787045002,0.0118804965168,-0.00718952622265,0.00166328682099,0.00848927441984,0.00101108138915,-0.00563117861748,-0.00569616863504,0.00152170378715,-3.90775530832e-05,0.00189465412404,0.00233820942231,-0.00936634931713,0.00273349625058,-0.00361607130617,-0.00746614439413,-0.00246761017479,-0.00770130567253,0.0102531984448,0.000744988967199,-0.00600708834827,0.00356378033757,0.0110204126686,-0.0106875468045,0.00806649867445,0.00227997265756,0.00620736880228,0.00788050796837,-0.0099039459601,-0.00452963775024,0.0119648873806,0.0112929129973,-0.00367047078907,-0.00967267341912,-0.00400490080938,-2.26191950787e-05,-0.0119830416515,-0.00207100552507,-0.00223823520355,-0.00688230199739,-0.00170580728445,0.010799841024,-0.00546898785979,-0.0107098706067,0.0114607131109,-0.00176661380101,-0.00971284601837,-0.00197692564689,0.00170937855728,-0.00226914696395,-0.0113211255521,-0.00351484958082,0.0100657772273,0.00444687344134,-0.00447705481201,-0.00890792906284,-0.0070673385635,-0.0110658975318,0.0107195656747,-0.00168860051781,0.0062798736617,0.00204541697167,0.00706625496969,0.0027331225574,0.00802821386606,-0.00446384865791,-0.00176382565405,0.00506875524297,-0.00323975179344,-0.00499151693657,-0.00428124982864,-0.0073345284909,-0.00363135524094,-0.00385665846989,0.00907223578542,-0.00521398475394,0.00915953610092,-0.00653164926916,-0.0085015995428,0.000309700350044,0.00733323814347,-0.000952246482484,0.00916587561369,0.00949221290648,-0.0103480648249,-0.010212787427,-0.000467643403681,-0.00410207500681,-0.000388576765545,0.00690582627431,-0.00197622203268,-0.00325591792352,-0.00333673274145,0.0116188293323,0.00212071905844,0.00898532848805,-0.00617778301239,-0.00788048375398,-0.00836871564388,0.00536432489753,-0.00427944539115,-0.00729461200535,0.00101509224623,0.00157400604803,-0.0092893904075,-0.00494620576501,-0.0106837535277,-0.0125089241192,0.0117492917925,-0.00756562966853,-0.00493968464434,0.011200748384,-0.00834859907627,-0.00102887523826,0.00424328679219,0.00951323192567,-0.00590793928131,-0.00162351841573,0.000679695978761,-0.0061070388183,0.0095241535455,0.00243771378882,0.0120267933235,-0.0107805756852,0.00982831604779,0.00623190961778,-0.000169132850715,-0.00148496113252,-0.00544050242752,0.00694073271006,0.011568153277,-0.00514092948288,0.00284307193942,-0.00588256586343,-0.00406959932297,-0.0115661183372,-0.00896752346307,-0.00308639532886,-0.0108816074207,-0.00386438006535,0.00308002158999,0.0113565372303,-0.0110646886751,0.00108157913201,0.00598191469908,-0.011162227951,0.00469089020044,-0.00461622234434,0.0118293892592,0.00600635679439,0.0105353379622,0.000192389998119,0.00654146494344,-0.0115144187585,-0.0115869175643,-0.0030077509582,0.0120306843892,-0.00926201138645,0.00212180404924,0.00825239252299,-0.0074836644344,-0.00827243737876,0.0110226674005,-0.00365425157361,-0.00813490245491,-0.00357054825872,0.00419518910348,0.00801436509937,0.00637233024463,-0.00048644078197,-0.0092989038676,-0.0113850245252,0.00396467698738,0.00308829173446,0.00956789683551,0.0021833088249,-0.0112839657813,-0.00561517151073,0.00637615751475,0.00532025750726,0.00530582852662,0.00570045551285,0.00237067975104,-0.00314769940451,-0.00646576564759,-0.00787007808685,0.00773667916656,0.00562923774123,-0.0110553679988,0.00726487999782,0.00757539877668,-0.0124292420223,0.000783620693255,-0.00119919027202,0.000273104844382,-0.011023982428,0.0116112940013,0.0117417890579,-0.0022065974772,0.00617890199646,-0.00581672275439,-0.00746510690078,0.00974327232689,0.0109513802454,-0.00486443983391,0.000283713510726,-0.00195094861556,-0.00225853244774,-0.0085404664278,-0.00847485009581,-0.00906684435904,0.00333016971126,0.00248044054024,0.00590624567121,0.00524347089231,0.00642205867916,8.27995972941e-05,0.0118715455756,0.0120674455538,0.00885340664536,0.00916956085712,-0.00871035736054,0.0117376614362,-8.67904163897e-05,0.000114375550766,0.0101774102077,0.00137198506854,0.0102646630257,-0.00298510235734,0.0117711769417,-0.0123873092234,0.0114583838731,0.00741241406649,-0.00847190991044,0.00952802877873,-0.00849239062518,0.000403303158237,0.0123618487269,-0.00830950774252,-0.00674662832171,0.00398265803233,0.0113199278712,-0.01014004834,-0.0112454947084,0.00462126731873,-0.00144492567051,-0.00148686114699,0.00712018553168,-0.00589783629403,0.000126562415971,-0.0112197902054,0.00987353548408,0.00487380940467,-0.0102724032477,0.0101220840588,-0.0109971975908,0.00431465683505,-0.00863846298307,-0.0120024261996,0.00711755547673,0.00523727759719,-0.00908203516155,-0.00390086788684,-0.00341846887022,-0.0054258457385,0.000281557819108,-0.0043475292623,-0.00238205166534,0.0121767846867,0.00727242883295,0.00920096971095,-0.00290827034041,-0.00140096491668,-0.0097575718537,0.00767426146194,-0.00625004898757,0.00367846153677,-0.0061251455918,0.00965923722833,0.00355136208236,-0.00272604636848,-0.00162520247977,-0.00806849822402,0.00151844741777,0.00818304345012,-0.00421711569652,0.00339594809338,0.00996131170541,-0.0110934404656,0.00753396330401,0.00377664971165,0.00336616812274,0.0119969910011,-0.0124322650954,-0.0101624131203,-0.00673373043537,0.00550624355674,0.00346277910285,-0.0120208607987,0.00876704789698,0.0012316465145,-0.00493834773079,-0.00841658562422,-0.0075218193233,-0.00402466999367,0.0014204562176,-1.44069354064e-05,0.00927192810923,0.00198451406322,0.00334594515152,0.00684709195048,-0.00755108427256,-0.00916297640651,0.000932584691327,0.00470825005323,0.00413155322894,0.00838010385633,-0.0126868104562,0.00118043785915,-0.00892279483378,-0.00111564726103,-0.00612847879529,0.00062460830668,-0.00918441079557,0.0115756364539,-0.0100108953193,0.00999882351607,-0.00549196731299,-0.0052962647751,-0.00820756144822,0.00462598726153,-0.0122129265219,0.0118911443278,0.0118097160012,0.00197927327827,0.00539653934538,-0.00133078463841,0.00541332643479,-0.00467491848394,0.000538861902896,0.000458275753772,0.00214087311178,0.00585954356939,-0.000276619452052,0.00509449373931,-0.00193875050172,0.00111614831258,-0.00222092261538,-0.0119471950457,0.00596324913204,0.00483843591064,-0.00856609735638,-0.00598134053871,0.00054302054923,-0.00102709385101,-0.00657702842727,0.0107373697683,0.000367034896044,-0.00749665172771,0.00493303826079,0.00562307611108,0.00201859232038,0.000744498043787,0.0036688207183,0.00112880032975,-0.00902786292136,-0.00340263592079,0.00420113559812,-0.0122400699183,-0.00159523799084,-0.0122450543568,0.00904513802379,-0.00402624858543,-0.00568478833884,0.00464601814747,-0.0112016443163,0.012246998027,-0.00530338892713,0.000330748327542,-0.0041295895353,-0.00988613441586,-0.00884200911969,-0.00526951858774,0.00427947752178,-0.0109497141093,-0.00866473466158,0.010299962014,-0.00882954988629,0.00724796298891,0.00579860433936,0.00374938151799,0.00280246464536,-0.00684710824862,0.00912478938699,0.011484047398,0.0119081782177,0.0124902902171,-0.0115519305691,-0.00577656039968,0.00447780778632,0.0109388362616,-0.0063207517378,0.0114319119602,-0.00147738319356,0.00497887143865,0.0051306434907,-0.0113001652062,0.0123337637633,-0.00346096185967,-0.00696019362658,-0.00100585725158,0.00562646333128,0.00140690500848,0.00882129184902,-0.00963194388896,0.00363357458264,0.00437460187823,-0.000513200357091,-0.0022819081787,-0.011211338453,0.00923169218004,0.00728485686705,0.00435708696023,-0.00522205187008,-0.00728286616504,-0.00078715570271,0.00360191031359,0.0103340838104,-0.00509792659432,-0.00626181717962,-0.00746704591438,-0.0066545419395,0.00334222335368,0.00906070694327,0.00789796002209,0.00345194013789,-0.00128092477098,-0.00234395358711,-0.010925504379,-0.000448985112598,-0.00684232357889,0.00261669792235,0.00295957759954,-0.00698336493224,0.00603593606502,-0.00955218914896,-0.00281589222141,-0.0123139210045,0.000952756672632,0.00611625192687,-0.00113407406025,-0.00480763847008,0.00124120048713,0.000579838757403,-0.00773594528437,0.00123356271069,0.00743069127202,0.00201443186961,-0.0107691762969,0.00818717200309,-0.00984770432115,-0.00265578553081,-0.00343806156889,0.00499848974869,-0.00875657238066,0.00618587667122,-0.000961890385952,-0.00104331236798,0.00377548020333,0.0016585882986,0.000496197200846,-0.000239538028836,-0.0102923307568,-0.0113033019006,-0.00554861780256,-0.00379232387058,-0.0101135028526,0.0107340598479,0.00205677980557,0.0015601599589,-0.00971972197294,0.0075417808257,0.00621209433302,-0.00315410038456,-0.00736267585307,-0.00824396125972,-0.00918224733323,-0.00763486372307,-0.00783592648804,-0.000948517001234,-0.0083518056199,0.00804214552045,-0.00241639348678,-0.0126064345241,-0.00190825213213,0.00562825519592,-0.0118678845465,-0.000657783122733,0.00765135558322,-0.00427520927042,-0.00862211361527,-0.00929183978587,-0.00778592703864,0.00168919109274,0.00306213647127,0.0122956559062,-0.0125860404223,-0.00134451687336,0.000978108495474,-0.00366207957268,0.0112864905968,0.00663794763386,-0.00464483024552,0.00305943284184,0.00759295606986,-0.0106042511761,-0.00380178214982,-0.0103020472452,0.00166363385506,0.0124347377568,-0.00721903797239,-0.00847449339926,0.00419636163861,0.00993004627526,0.0112005388364,0.00979362055659,0.00316459801979,-0.00942244753242,-0.0093036191538,-0.0111998748034,-0.00605834508315,0.00222426955588,0.00193385768216,-0.0122897969559,-0.00323950685561,0.00159887305927,0.00798666290939,-0.000884186301846,-0.00131484004669,-0.00338339619339,0.00616822112352,-0.0031179562211,0.0109745096415,-0.0103921061382,0.00776978861541,0.00330339418724,-0.0115883620456,0.0101404273883,-0.00649485643953,-0.0103484755382,0.00248123565689,-5.30322995473e-06,0.00951958727092,-0.0119706932455,0.00695882318541,-0.00962893292308,-0.00907719042152,0.0014824916143,0.0081281485036,-0.00180455762893,0.000178228117875,0.00839198101312,-0.00078420015052,-0.00970165617764,0.0056640910916,-0.00555786630139,-0.00370962102897,-0.0084316143766,0.00980055704713,0.0112204542384,-0.0109190475196,0.00879051629454,0.0123531250283,0.00596254039556,-0.00570577895269,0.00362511002459,0.00538931647316,0.00224938918836,0.0108912689611,-0.00398054020479,0.0121353100985,0.00391570432112,0.00839296262711,-0.00562141556293,0.00559392618015,-0.00174818444066,-0.000215096253669,-0.00107432308141,-0.0124629950151,-0.00462940568104,-0.00368592818268,0.00106097804382,0.00490270089358,-0.0103150652722,0.00741087319329,-0.00842723250389,-0.00399617385119,-0.00816355925053,-0.0120260510594,0.000109757755126,0.00461507868022,0.00567127019167,0.00501331500709,-0.010545508936,0.00323039921932,-0.00456994306296,-0.00827249418944,0.00232476764359,-0.0121937980875,-0.00208361656405,-0.0118282809854,0.00492928549647,0.000540138571523,-0.00214962032624,0.00646013440564,-0.000769272912294,0.0115310596302,0.0101389447227,0.00453622546047,0.00389695074409,0.00995969586074,0.00286389281973,0.00168661447242,0.0117133976892,0.00774158397689,-0.00947543233633,-0.0113607430831,-0.0104967048392,0.00252963509411,0.0123875802383,0.00506033748388,0.00635723769665,-0.0123087288812,0.00360445654951,-0.0028550575953,0.00916742812842,-0.011450487189,-0.000139675743412,0.00555728841573,0.0110131707042,0.0121853621677,0.00601101852953,0.00535992439836,-0.0118750119582,-0.010747725144,0.00142191629857,-0.00398821290582,-0.0109050087631,0.00780254648998,-0.0115478346124,-0.00602451805025,-0.00185907597188,0.000924234685954,-0.010393595323,0.00456854840741,0.00389536446892,0.0093894302845,-0.00762836262584,-0.000440431438619,-0.003213301301,0.0080433562398,0.000730973726604,-0.00970464292914,-0.0113321812823,-0.0103838155046,-0.00200470793061,-0.00967731699347,0.0040742685087,0.00206897477619,-0.00497743533924,-0.0099163968116,0.0119571471587,0.00459841452539,0.0109656583518,-0.00159560074098,0.010994697921,-0.00858996063471,-0.0100199673325,-0.000120247052109,0.00784777570516,0.0046797208488,-0.00462668016553,0.010161488317,0.000706111663021,0.00677359383553,0.00552599783987,-0.00809327699244,-0.0126317217946,0.00949984323233,0.00998206716031,0.0049915285781,-0.00962098594755,-0.00774510717019,-0.00886104721576,0.00789325777441,0.00554064894095,-0.0126464851201,0.00875241775066,-0.00478974590078,-0.00753343431279,0.00605691364035,-0.00759462313727,0.00545452395454,-0.0103001976386,0.000106231724203,-0.00347225111909,0.00240802392364,0.000182948177098,0.0118045136333,-0.010622122325,-0.00251373788342,0.010601637885,0.00129407516215,-0.00991739239544,0.00664402963594,0.00722928205505,-0.00718787033111,-0.0052199899219,0.00436339853331,0.00760957598686,0.000146877238876,-0.00134421128314,-0.0119196204469,-0.00951718166471,0.00338675035164,-0.0104213720188,-0.0124973822385,0.00944921560585,-0.00194157520309,0.00957336090505,0.00128781655803,-0.00910053309053,0.00806578621268,-4.93269435538e-05,-0.0113145839423,0.00049331120681,0.00672595668584,-0.00635533314198,-0.00347883673385,0.00719313276932,0.0114600276574,0.00600010715425,-0.0124637680128,0.00164713058621,-0.00179991021287,-0.0019411171088,0.0114083066583,0.00707945134491,0.00559268239886,-0.011769734323,-0.00530797149986,-0.00555906631052,-0.00281570642255,-0.0108564514667,0.00814771372825,0.000867692928296,-0.00310565810651,-0.0122078787535,0.00937898550183,0.00550079811364,-0.00711167277768,-0.0125741232187,-0.00488340575248,0.00612193997949,0.00543704675511,-0.00832540541887,-0.00146162533201,-0.0117848869413,0.00798855256289,0.0098816556856,0.00553359743208,-0.00558715686202,-0.00809417292476,0.00261027994566,0.00974921230227,0.00347361667082,0.00445837248117,0.000585014582612,0.00624426733702,0.00471687177196,0.00172780279536,0.00648763542995,-0.010352066718,0.0106102460995,0.00825991854072,0.0102131348103,0.0106125222519,0.00148415658623,-0.00279850303195,0.00648224540055,-0.00309658446349,0.00360749801621,-0.00797786843032,-0.00829073600471,-0.0104146366939,-0.00742383953184,-0.00154539162759,0.010775689967,0.00248351553455,0.00857761409134,-0.00304543133825,-0.00876664742827,0.00697076693177,0.0117408530787,0.000709630432539,0.0117526873946,0.0116723692045,0.00131447799504,-0.00286997482181,0.0112639097497,-0.000568100658711,0.0048389066942,0.00476839672774,-0.00969580002129,0.000130580563564,-0.000618788704742,-0.00682158442214,-0.00786249618977,-0.00435130903497,-0.0115698426962,-0.0119146788493,0.000811594945844,0.0108556682244,-0.00260675535537,0.00241884333082,-0.0118351075798,0.00953760929406,-0.00728215230629,-0.00333468103781,-0.00610268814489,-0.00214812997729,-0.00713937776163,0.0112033421174,0.000655030598864,0.00223914533854,-0.0103232404217,-0.0103587992489,-0.0012047883356,0.00765178119764,0.0101247038692,-0.000537408166565,0.00369256432168,0.00960332527757,-0.00572275137529,-0.000134693633299,-0.00231743813492,-0.00346789765172,-0.00683301361278,-0.0110024772584,-0.00595812872052,0.00936113949865,0.0033801945392,-0.00628552399576,0.00375177734531,-0.00794714037329,0.00281094759703,-0.00339996418916,-0.00120766507462,0.0100601082668,-0.00460835173726,-0.00541787082329,-0.00353501760401,-0.00760908564553,0.0041085658595,-0.00496683921665,-0.00743508245796,-0.00288525037467,-0.00193205301184,-0.0106709105894,-0.00247566774487,-0.00656025577337,-0.0122518036515,-0.000111647525046,-0.0121436035261,-0.00916967075318,-0.00883274152875,0.00449802819639,0.00874027982354,0.0044903466478,0.00508463010192,-0.00685892999172,-0.000138815958053,0.00207305629738,-0.00634552910924,0.0109455166385,0.0123666981235,0.0102660348639,-0.0113988593221,-0.0120973726735,0.000416073511587,0.00288796238601,-0.00410670554265,0.0113946367055,-0.00475271744654,0.00697546685115,-0.00372512289323,0.00045111606596,0.00602752529085,-0.00983473006636,0.00382381328382,-0.000473036983749,0.00464144907892,0.00337924668565,0.00581910461187,-0.011178612709,0.0124447839335,0.00442410400137,0.00471750460565,0.00404351996258,0.000743160082493,0.0124914068729,-0.0119068063796,0.0017091705231,-0.00623353850096,-0.00480468617752,-0.00967584829777,0.00539745390415,0.0120371989906,0.00841270387173,-0.00714848889038,0.00677114492282,-0.00638025300577,0.00773954484612,0.00501690572128,-0.00143676693551,-0.00800484605134,-0.0016326532932,-0.0115579785779,-0.00393448863178,-0.00757877714932,0.0100370794535,-0.00697787897661,-0.00394097901881,-0.00220301235095,0.00341427884996,0.00573163758963,0.00158158061095,-0.0107390303165,-0.0121810715646,0.0111008118838,-0.011046285741,0.00370782031678,-0.0014605576871,-0.00632935529575,-0.0111474338919,0.00813814625144,0.0112776337191,-0.00567345926538,0.00953436456621,0.00802364945412,-0.0115304915234,0.00275801424868,0.000335019023623,-0.00559662468731,0.00350519595668,0.012046629563,0.00476867193356,-0.0082340920344,0.00374211766757,0.00604795943946,-0.00178640312515,-4.58144968434e-05,-0.00617214106023,-0.00905590038747,0.0123855983838,-0.000793531246018,0.0102485045791,0.0030342375394,0.00154687359463,0.0114297298715,-0.00774139445275,-0.0122561575845,0.0121447332203,-0.0043881945312,-0.00722735095769,-0.00117338018026,0.0014285115758,-0.00417842948809,-0.0119373528287,-0.0080415988341,-0.0122892074287,-0.00680713867769,0.00813691969961,-0.00983719713986,0.00942813884467,-0.00740720564499,-0.00680794985965,-0.00710146874189,-0.00674191024154,-0.00362401804887,-0.00515288533643,0.00836661271751,0.00142694986425,0.000109293025162,-0.00183587474748,-0.0103117674589,-0.0108907446265,0.000793355982751,-0.00752227101475,0.0007827389054,0.00163999665529,-0.00945867598057,0.005595988594,-0.00324414391071,-0.00983808003366,-0.0115687502548,-0.00262584979646,0.010577284731,0.00264842389151,-0.00558704324067,0.00651003001258,-0.0042785005644,-0.0112457787618,-0.00873043481261,-0.00862825848162,-0.0120957409963,0.0108532132581,0.0078424140811,-0.000549769203644,-0.00354364700615,0.00470701698214,0.00163461465854,-0.010418814607,0.00330417486839,0.00387751287781,-0.00646024663001,-0.00682257721201,0.00421353941783,-0.00558572821319,-0.0115974629298,-0.00112787936814,-0.0120321586728,0.0101970182732,-0.00278109917417,-0.000288877257844,0.000621451355983,0.00284324050881,-0.00404510181397,0.0110746417195,-0.00505614187568,0.0106244254857,-0.011045540683,-0.00878475978971,0.000159698538482,-0.00546753639355,0.00233601056971,0.00646119657904,-0.0121421134099,-0.00612149061635,-0.0113412393257,0.00152979616541,0.00613998062909,-0.00858213938773,0.00958303548396,-0.00671025412157,0.012323233299,0.00843667052686,-0.00846723187715,0.00329630705528,0.00449646124616,-0.0057868771255,0.00128218659665,0.00965952966362,0.00739297363907,-0.00445563392714,0.00542977498844,-0.010453408584,-0.0112827178091,-0.00893387012184,0.000525114650372,0.00436467444524,0.00922017171979,-0.0107683259994,-0.000831801851746,0.000649552443065,-0.0101864458993,-0.00854012928903,0.00670517142862,0.00361094181426,-0.0122379707173,0.00368793704547,0.00657639745623,0.00386313744821,-0.0104819303378,0.00724848266691,-0.0103662703186,0.00813023280352,-0.0052165845409,0.00182763172779,0.00332206278108,-0.00682384939864,0.00970238726586,0.00819319766015,0.002907829592,-0.00810283143073,-0.00789162144065,-0.0107724908739,-0.00680172210559,-0.00494357151911,0.00570866884664,-0.00443511735648,-0.0105988103896,0.0066658789292,0.00260636536404,0.00436315732077,0.0109890289605,-0.00840310286731,-0.00410085637122,0.000689283537213,-0.0104677509516,0.00190712267067,-0.00134010065813,-0.0121179958805,-0.00385741959326,0.00964755844325,0.00841032993048,0.00892636179924,0.00484189903364,0.00908221211284,0.00303836422972,-0.0116929598153,-0.00950159598142,0.00408451352268,0.00267630862072,0.00763954268768,-0.00309222075157,0.000649434921797,0.00216355314478,0.00645493576303,-0.0098844403401,-0.00857698824257,0.00970133487135,-0.0114798238501,-0.000181649258593,0.00544524984434,0.00233891862445,-0.004961787723,0.000524481234606,0.00907391682267,-0.00760007603094,-0.006369412411,0.00523264706135,0.00375926913694,-0.0107008945197,-0.011701438576,-0.00927370321006,0.00454263715073,0.0126489363611,0.00488068675622,-0.0079161869362,0.00987836159766,-0.00841463916004,0.00200749770738,0.00993514340371,-0.0065267989412,-0.00496781384572,-0.00306739029475,0.00326538784429,-0.0072397524491,0.00385447684675,-0.0113837048411,0.00658374466002,0.00398813933134,-0.00717654405162,0.00662545859814,-0.0118332030252,-0.00846441835165,0.00853824801743,7.45821089367e-05,-0.000338880287018,-0.00506047951058,-0.00780109222978,0.0120162460953,-0.00739642931148,-0.00979333184659,0.00430728774518,0.0108114620671,0.00106402125675,-0.00185357150622,0.00370109500363,-0.00774722499773,0.00274811545387,0.00340745830908,-0.00117794796824,0.00622870353982,-0.00452994508669,8.65063993842e-05,-0.0120772775263,-0.00213561439887,0.00699830288067,0.00370132224634,-0.00460218545049,-0.0120581584051,0.00863808952272,-0.00054421974346,0.00826323032379,0.00253271358088,0.00880759581923,0.00220518582501,0.0108976354823,-0.00970176141709,5.9486788814e-05,0.0017229198711,0.00303478864953,0.00458572804928,-0.00813863798976,-0.00184794061352,0.0113560678437,-0.00290702003986,-0.00766717875376,0.0111393854022,-0.0103008076549,0.00013795911218,-0.00157642725389,0.00822909269482,-0.00511938985437,-0.00158237107098,0.00263650598936,0.00711877178401,0.0119793508202,0.00594364199787,0.00996071193367,-0.0116691151634,0.00842007528991,-0.0125040747225,0.012551125139,-0.00294331391342,0.00992219429463,0.0059165423736,-0.0117555856705,0.0097548244521,0.0113444784656,-0.00349608296528,0.0116479359567,0.00134288112167,0.00662596151233,0.00800976809114,0.000217618347961,0.0106756696478,0.00457326555625,0.00855222996324,-0.000241683781496,0.00308771710843,0.00544669805095,5.18952674611e-06,-0.00201965682209,-0.00616670632735,0.00293842400424,0.0113903209567,0.00196410482749,0.00164991349448,-0.00711933942512,0.00323014031164,-0.00657746708021,0.00244082021527,0.000207429329748,-0.00844698306173,0.00713355373591,-0.00157658546232,0.0106426170096,-0.0096449162811,0.00269970251247,0.00600063195452,0.00747933983803,-0.000428333412856,-0.011007967405,-0.00200375728309,0.0101392427459,-0.0120099987835,-0.00558714848012,-0.0102620813996,-0.00727824959904,0.00359175004996,-0.00248621427454,-0.000200801281608,0.00417919643223,-0.00933330878615,0.00686951866373,-0.00356480176561,-0.00223835953511,0.00548130786046,0.00303682591766,-0.0105661470443,-0.00523554254323,-0.00854605995119,0.0105638504028,0.00288891838863,-0.000523997063283,0.00720871752128,0.00818388164043,-0.00561707792804,0.000164487282746,0.0114099951461,0.00947001297027,0.00947746261954,-0.000640548707452,-0.00854626111686,-0.00606007874012,-0.00820966623724,-0.000202905663173,-0.00233735470101,0.00151593866758,0.00893654674292,0.00301153631881,-0.00159303494729,0.00809357501566,0.00700602866709,0.0102218566462,-0.00945415254682,0.00162451562937,0.00851767323911,0.00331000634469,-0.00213571963832,-0.00103910150938,0.00770311057568,-0.0111631955951,0.0101672969759,0.000998591654934,0.010517959483,-0.0107427593321,0.00818081758916,0.0120622720569,-0.00832245126367,0.00260126194917,-0.00845283921808,0.00055174290901,-0.00321915210225,-0.00243501574732,0.00602107821032,0.00932315085083,0.00111484248191,0.0101197324693,-0.0104921376333,-0.00635172985494,0.00990647450089,0.0123314894736,-0.00336194201373,0.000822348345537,-0.00257067941129,-0.00565651152283,-0.00589062832296,-0.0031872568652,-0.0099408859387,0.0043515432626,-0.00581156695262,0.00682760914788,-0.00631823437288,0.0056012053974,-0.00358132994734,0.00972738396376,0.00166966754477,0.00943126156926,-0.0101983547211,0.00545362988487,0.00257188617252,-0.00180861237459,0.00766442762688,-0.00556703191251,-0.0112435901538,-0.0100628491491,0.0077527356334,-0.000245845760219,0.00791234895587,0.00946464575827,0.00408211769536,-0.0125145129859,0.00335768959485,-0.00485384184867,0.000461110612378,0.00165861030109,0.00820645969361,0.00475373724476,0.00582134490833,-0.00523165753111,0.00174160907045,-0.00587103981525,0.00978287123144,-0.00893154833466,-0.00171870004851,-0.00419049710035,0.00717464555055,-0.0096370074898,0.00623093592003,-0.0117885936052,0.00257077882998,-0.0112590510398,-0.00916344579309,0.00928603578359,-0.0124226808548,-0.000223100549192,-0.00498150289059,0.00683158216998,-0.00950048584491,0.00213504885323,-0.00468255579472,0.00904197059572,-0.00049655942712,-0.00235074339435,0.00722149433568,0.00469385506585,0.00814166851342,0.0100327990949,0.00360960769467,0.00872980803251,0.00747460173443,0.0116710728034,0.0105619113892,-0.00257052551024,-0.0106204096228,-0.00383919733576,0.00720125483349,0.0102215148509,-0.00452334992588,0.0116946119815,-0.00126257364172,0.000908360467292,0.00685583986342,0.0105460332707,0.0111910467967,-0.00437394110486,0.00125881552231,0.0072066760622,-0.00390335172415,0.00467382883653,0.0121667832136,0.00332742929459,0.0015964662889,-0.0114048719406,0.00554654048756,0.00242535816506,0.00678008142859,0.0105686224997,0.0123603660613,-0.00131913158111,0.00959532521665,-0.0121118770912,0.0123219108209,-0.000910223752726,-0.00142524740659,-0.00833516567945,-0.0116383461282,0.00305219204165,0.00588852912188,-0.0118948183954,0.0116195771843,0.0124276652932,0.000693048408721,-0.00503370119259,-0.00112652149983,0.00441650301218,0.00547132780775,-0.0115842325613,0.00376257649623,0.00150696234778,0.00903722736984,-0.0102724777535,-0.00651434296742,-0.00232787895948,-0.00232021301053,-0.00713223218918,0.00784630142152,0.01130606886,-0.00652628904209,-0.00265379319899,-0.00849686656147,0.00939600262791,-0.00616790447384,-0.00934887118638,-0.00564874336123,0.0103462068364,-0.00972210988402,0.00749896327034,0.0014477079967,0.00123687426094,0.0111912991852,-0.0124091794714,-0.00264872191474,-0.00308807822876,0.0038676217664,-0.00626447983086,-0.00263929204084,0.0109438691288,0.00276948767714,-0.000333062518621,0.0023721056059,-0.000109504966531,-0.00675565656275,-0.00708255404606,0.0061762095429,-0.00186708057299,0.00893828459084,0.00205854745582,0.00490299332887,-0.00351539393887,0.00478241220117,-0.00991503428668,0.00299807987176,0.00398702546954,0.0120414812118,0.00876134820282,-0.000705557584297,-0.00155866146088,-0.00955243129283,-0.00795609503984,0.00517663871869,0.000605648849159,-0.000132326546009,0.00448812777176,0.00447940966114,-0.0046555949375,-0.0100268423557,0.00952931586653,0.00137452583294,0.0102097410709,-0.00466793077067,-0.00131482444704,0.00300445593894,0.0107190366834,0.00838530249894,0.00681181391701,0.00989040732384,0.00643344875425,0.00996693409979,-0.00417428836226,-0.00265386002138,0.0069048316218,0.00741525040939,-0.00316045270301,-0.00873993709683,0.0115803498775,0.00613545859233,-0.00367053085938,0.00884698517621,-0.00688237324357,0.0058722672984,0.00202683359385,0.00576832471415,0.0085490224883,-0.00167835084721,0.00889555271715,0.0060971849598,0.00783528015018,0.0124453911558,0.0060832281597,0.00996389426291,-0.00189578963909,0.000214018538827,0.0026655991096,0.00606143521145,-0.005351443775,-0.0108185028657,-0.00999450031668,-0.00403755251318,-0.00675988011062,-0.000890221737791,-0.0010923659429,-0.00163615890779,0.00435854494572,-0.00788735318929,-0.00887383148074,-0.0107001345605,-0.0115386722609,-0.0121587086469,-0.00561519758776,0.011889975518,-0.000536312640179,0.000343988882378,0.00518500665203,0.00911792553961,0.000773590640165,0.00604115892202,-0.0115570798516,0.0113478684798,0.0108236670494,0.00972559303045,0.0101267546415,0.00195260776673,0.00994248967618,-0.00890363194048,-0.00560788856819,0.00399706186727,0.00189700978808,0.00830607954413,0.0037099965848,0.00238786521368,0.000364709063433,-0.00930259563029,0.0095221940428,0.00919647142291,0.00754610309377,-0.000636081036646,-0.000462697818875,0.00509120943025,0.00190205685794,-0.00949100963771,-0.00640210835263,0.00305215222761,-0.0108929565176,-0.0116603104398,0.00693043973297,-0.0117756575346,0.00951749552041,0.00439901417121,0.00441933609545,-0.00938349030912,-0.00440510595217,0.0116359172389,-0.000399162323447,0.00159550271928,0.00058568129316,-0.0071422108449,0.00932349264622,-0.00718867499381,-0.00173381122295,0.00683056842536,7.38480594009e-05,-0.000430520914961,0.00328343547881,-0.00594903435558,0.0124659184366,-0.00317608728074,-0.00352627690881,0.0107193756849,-0.00946319010109,-0.0109373163432,-0.00593958375975,-0.00554412603378,-0.000610653718468,-0.00891214609146,0.0106702502817,-0.000502515293192,-0.009835078381,0.00652992911637,0.00885589420795,-0.0118358395994,0.00474423216656,0.00851678662002,-0.00504249287769,-0.00719582056627,-0.0124112730846,-0.00906119868159,-0.0106417397037,0.00766720622778,-0.00483670737594,-0.00217950763181,0.00831094011664,0.0100745772943,0.0108443768695,0.00206111976877,0.00463621597737,-0.0119297625497,-0.00219809822738,0.0118743525818,0.00995126180351,-0.00962684862316,0.0026741004549,-0.0088863382116,-0.00279219495133,-0.0108031770214,0.00525345792994,-0.00596233457327,0.00561034493148,0.00143537821714,-0.00680115586147,0.00801728013903,0.00454393355176,0.00498617207631,0.00348292477429,-0.00359664275311,0.0124426744878,-0.00719484128058,-0.00910953059793,0.0120160561055,0.00691994745284,0.0051938011311,-0.00614051194862,-0.0100343329832,0.01066098921,-0.00181419705041,0.00690167304128,-0.0054397569038,0.0100468089804,0.00842031370848,-0.00926102697849,0.0059878048487,-0.00586200179532,-0.00773988757282,0.00290299463086,-0.00306785735302,-0.00825181603432,0.00408776942641,-0.0108427079394,0.0093788607046,-0.00892298761755,0.0106558911502,-0.0052174301818,-0.0111559787765,0.00622463272884,0.0051379436627,0.00959643349051,-0.00836427602917,-0.000951218360569,-0.00476832874119,0.00256144069135,-0.00634449999779,0.00170311308466,0.00082362187095,-0.00972776580602,0.0119718592614,-0.00943136401474,-0.0052862460725,0.00678096478805,0.0069064963609,-0.000451779866125,-0.00708050094545,-0.010943829082,0.0085398806259,0.00579763390124,0.00221595633775,-0.00536603620276,-0.000100272394775,-0.00238913530484,-0.0108802327886,0.0109885027632,0.0106435026973,-0.00440618535504,-0.00959926377982,-0.00816112570465,-0.00148682913277,-0.0121493097395,0.00282236305065,0.00414077984169,0.0113402968273,0.00959384255111,-0.00691822916269,-0.00163462688215,0.00538908783346,-0.010208052583,-0.00560152484104,0.0125460950658,0.00140676053707,0.00962946470827,-0.0013189498568,-0.0103303929791,0.00785845145583,0.00648264493793,-0.00431590108201,0.0102723622695,0.0121626453474,-0.00739970803261,0.00240236264654,-0.00635762512684,0.00173838308547,-0.00314227608033,0.00840049330145,0.0105631370097,0.00232392945327,-0.0111645245925,0.00219407957047,-0.0108531415462,-0.00783343333751,-0.0100070843473,-0.0096586663276,0.00722858170047,-0.00631017517298,-0.0113813914359,0.0026189039927,-0.00113493332174,0.0029185290914,-0.00861877389252,0.00802857242525,0.00808982271701,-0.00337811280042,0.00236434862018,-0.00331469601952,-0.00302912550978,-0.00794968940318,0.00790157355368,-0.00143812340684,0.0121956765652,0.00489840051159,-0.00552622182295,0.00961282942444,0.000893573043868,0.00358898704872,0.012159650214,0.00960298534483,0.00539002055302,0.00470115384087,-0.000608117028605,-0.0124308932573,-0.00618522753939,-0.00730888498947,0.000481666094856,0.0102130481973,0.0123439561576,-0.00596770551056,0.00760868936777,0.00290329684503,-0.0058000641875,-0.0104309450835,-0.00575644057244,-0.00698810210451,0.00694633182138,0.0107559198514,-0.00386262917891,-0.0048713805154,-0.0101758912206,0.00246035214514,-0.00702766003087,-0.00867858249694,0.00546167418361,0.00135131797288,-0.00600023334846,0.00262804934755,0.00792309921235,0.00397329311818,0.0109718823805,-0.0112610459328,0.00311475247145,0.00702127115801,-0.00756834400818,0.00791952200234,-0.0072867735289,0.00586439622566,-0.00615064334124,-0.000683396414388,0.0122190425172,-0.0121522005647,0.00893823895603,-0.00264675123617,-0.0050862156786,0.00921119377017,0.000180769886356,-0.00619127694517,0.00476597063243,0.0113890022039,-0.00726759340614,-0.00465309107676,-0.00363253406249,-0.0120461769402,-0.0124205369502,-0.0120200077072,-0.00816746708006,0.0111178169027,0.00701688975096,0.00267558218911,0.00161440577358,-0.00283506186679,0.0120321856812,-0.00811853073537,-0.0057595865801,0.0075899916701,0.00981475878507,-0.00362139963545,0.00553228752688,-0.00915277842432,-0.00905202422291,0.00436118990183,-0.00107589433901,-0.00367497722618,-0.00669275969267,0.00995832309127,0.000653913244605,0.00864821579307,-0.011103044264,0.00314889918081,0.0112112425268,0.00117331603542,0.010596034117,0.00596608687192,0.000752429303247,0.0030625318177,0.00758751947433,0.00516405515373,-0.0115293161944,-0.010899557732,0.00599766988307,0.00460200803354,-0.00600077630952,0.00383589882404,-0.000274415186141,-0.00479415804148,0.00641916552559,-0.0109764346853,-0.00975535437465,0.0121614905074,-0.00881235022098,0.0120291523635,-0.00668272003531,0.00393123412505,-0.00643829721957,-0.0102163199335,-0.00553946895525,-0.0057359286584,-0.00815357360989,-0.00409209122881,-0.00552491331473,-0.0121814906597,-0.00855376105756,-0.00656972825527,0.00461926870048,0.00929754693061,-0.00615303171799,-0.004209484905,-0.00017914561613,0.00554692512378,-0.00244903401472,-0.00226662494242,-0.00194190593902,0.00485684117302,0.00359550747089,-0.00872722361237,-0.000913447409403,-0.00542564177886,-0.000145059995702,-0.00943912938237,-0.00762192765251,0.00188133725896,-0.00736988242716,-0.00138067349326,0.00658305454999,0.00973775237799,-0.0122803961858,0.00424319086596,-0.00265467260033,0.0104494234547,0.00416068313643,0.00845534447581,-0.00771460775286,0.00746161490679,0.00701590348035,-0.00687167607248,0.00830634310842,0.00418657716364,0.0122878402472,0.00316670886241,0.00956479739398,0.00823914352804,-0.00296287913807,-0.00641076313332,-0.00674758572131,0.00586977461353,-0.00608063908294,-0.0121953925118,0.00324388081208,0.00170506804716,-0.010020387359,-0.00492847338319,-0.00253207446076,0.00245845108293,-0.0121665932238,0.00609411625192,-0.0105493320152,-0.011998466216,-0.00407879287377,-0.00753658963367,-0.00122754042968,0.00966030266136,-0.00604555616155,0.00971294473857,-0.0104152755812,-0.0117394458503,0.0105351498351,-0.00425935443491,-0.00450411858037,-0.0123747829348,0.00888835825026,0.00411856360734,-0.0109544126317,0.010376916267,-0.00222638202831,-0.0115680918097,0.00252228439786,-0.0084293615073,-0.00113167404197,0.0118766995147,-0.0109801329672,-0.00389423500746,0.00551879173145,-0.0115993293002,0.00944934412837,0.00675275595859,0.00190505071077,-0.010988089256,-0.00079356628703,0.00026026982232,0.0107514122501,-0.00729810725898,0.00599587056786,0.00988024938852,-0.000284694542643,-0.00938904564828,-0.00480855908245,-0.00504979863763,-0.0123063670471,0.00453957170248,0.00286273472011,0.00396429514512,-0.00850506778806,0.00192211312242,0.00778701342642,-0.0085925059393,-0.00795676652342,-0.00311519228853,0.00342839886434,0.00644915550947,-0.00221858359873,-0.00584092829376,0.00384426605888,0.00978913716972,0.00579072907567,0.00843612104654,-8.20182540338e-05,0.00785666611046,0.012209251523,0.0089061120525,-0.00725155929103,0.00710874469951,0.0123087130487,0.00261360732839,0.00255373539403,0.0105673111975,0.00293801911175,0.0027394797653,0.00899920426309,0.0023192288354,0.00340712117031,-0.00106954632793,0.00633653067052,-0.00379513995722,0.00386770814657,-0.00911998655647,0.0106539372355,-0.00370058789849,-0.0070491861552,0.00771294441074,0.0111746750772,0.0090471021831,-0.00640723342076,-0.0011399515206,-0.000492530933116,-0.00917634088546,0.00953303370625,0.00616135168821,0.00922214053571,0.0120553104207,0.00649853004143,-0.00370028265752,0.00748719647527,-0.00814750231802,0.000957762356848,0.00902584381402,0.00540605513379,-0.00909657496959,0.0126419309527,-0.0114178741351,-0.000675711722579,0.00729479920119,0.00204196595587,-0.00836671236902,-0.011370013468,-0.00536491442472,0.00675536412746,-0.0123116178438,-0.0012275892077,0.0124809946865,0.00419760122895,0.00832690112293,-0.00976500287652,-0.00141124951188,0.000876165053342,0.0090758074075,0.00887434463948,0.00167900079396,0.000594054698013,0.000687264080625,-0.0108947455883,-0.00391829526052,0.00537413684651,-0.004663602449,0.00488273333758,0.00440134620294,-0.00654884707183,0.00431378465146,0.0115118091926,-0.0120403002948,-0.000220493369852,-0.0118866162375,0.0043800896965,0.00476332008839,0.0124825565144,-0.000198888621526,0.00107092992403,8.65037654876e-05,0.00294266408309,-0.00330756814219,-0.00279046990909,-0.00883114524186,0.00662006204948,0.00219137221575,-0.00474681239575,-0.00270327739418,0.000561050430406,0.0117964418605,0.0121344113722,0.0102101843804,0.0125687746331,0.00642168475315,-0.0121006416157,0.00169764831662,0.00670566502959,-0.00681462325156,-0.000668591586873,0.00570449512452,0.005165013019,-0.0104504814371,0.0119585096836,0.00797324907035,0.000137561379233,0.000629601127002,0.00431459909305,0.00338006438687,0.0019327691989,0.00934769585729,-0.0118730608374,0.0109928892925,0.0114995511249,0.00649316702038,-0.00158849719446,-0.00694769853726,-0.0120382942259,-0.00740702403709,-0.0113013405353,-0.00347045250237,0.000357271288522,0.0095152715221,-0.0120085859671,-0.0124126765877,-0.0124153876677,0.00466266460717,-0.00597114209086,-0.00187345582526,-0.0083245318383,-0.00861161760986,-0.0063524977304,-0.00862773321569,-0.012321495451,-0.00168422586285,-0.000707201019395,0.00586391286924,-0.00626658275723,-0.00756631838158,0.000818690634333,0.0123247988522,-0.00912921689451,0.0097022363916,0.000660751888063,-0.00982806738466,0.00532543566078,-0.000441206851974,-0.00658992724493,0.0124404551461,0.00702321156859,-0.00206764834002,-9.92465083982e-06,-0.00951437745243,-0.00323341670446,-0.0120916683227,0.0092012276873,0.00636861985549,-0.00812414102256,0.00134709535632,-0.0118882702664,-0.00701713375747,0.00899081584066,-0.0101098390296,-0.012030637823,-0.00615188898519,-0.00391028542072,-0.00539438566193,0.0115888491273,0.0114857815206,0.0055845794268,0.00391098251566,-0.0106286564842,-0.00495666125789,-0.00682218000293,-0.00513285351917,0.00764357391745,-0.0112893022597,-0.0104112224653,-0.000808526820038,-0.0031294352375,-0.00112828996498,0.0113656045869,0.00136217894033,0.0116020273417,-0.00130275823176,0.000292143318802,-0.000847550225444,0.00428797444329,0.00670337723568,0.00942391715944,0.0048832623288,0.00950586050749,-0.00402747374028,-0.00942924898118,0.000684170867316,0.0110435932875,0.00309281772934,-0.0023348974064,-0.00610504578799,0.0012711515883,0.0125353904441,-0.00461613759398,0.00232895859517,0.0117418896407,-0.000492086925078,0.00437066797167,-0.00965413637459,-0.00153760414105,0.00489546917379,-0.000445617595688,-0.00616664951667,-0.00701085198671,0.00799328181893,0.00521397404373,0.00187349901535,0.00655520148575,-0.0033361678943,0.00180732388981,0.00454011745751,-0.00966796092689,-0.00248642312363,0.00355068058707,0.00182663579471,-0.00388459744863,0.0122158816084,-0.00796453095973,0.0116540612653,0.00180082058068,0.00571735482663,-0.00537757901475,-0.0023184097372,-0.00477182306349,-0.00379094900563,0.00835312064737,0.00767052266747,-0.000873917713761,-0.010632911697,-0.00790876056999,0.00911903753877,6.29363348708e-05,0.00855176709592,0.00448814546689,-0.00627416884527,-0.00925947353244,-0.00271423021331,-0.00683527393267,-0.00950804166496,0.00572324171662,-0.00959109701216,-0.0117194680497,-0.00449155364186,-0.00458306632936,0.00225003389642,0.00614087143913,0.000365526939277,0.00191204808652,-0.0103851370513,0.00213745050132,0.0122496699914,0.0125046754256,-0.00617235060781,-0.000143582321471,0.0112549541518,-0.00176951638423,-0.00575185706839,0.00950652733445,-0.00604998273775,-0.0114364651963,0.00336173339747,0.00632890919223,0.0123683745041,0.00919838435948,-0.00163953425363,-0.0084229381755,-0.0117326816544,0.00924551207572,-0.0014374689199,0.00427734479308,-0.011972701177,0.00592760834843,-0.00180178857408,-0.00137236434966,-0.00399216311052,0.00214737537317,0.00364905199967,0.00498939817771,0.00716355443001,-0.00868719164282,-0.00589763186872,0.00974782463163,-0.00533391954377,0.00671065086499,0.00121016055346,-0.00525966612622,-0.0122452061623,0.00779071589932,0.0109960036352,0.00720188813284,-0.00628216285259,-0.00230702501722,-0.00198900653049,-0.0025860152673,0.00836036354303,-0.00453323451802,0.00896802544594,0.00513006094843,-0.00964742992073,-0.00880749616772,-0.0113819306716,0.0122911008075,0.00965716503561,-0.0102257728577,-0.00893652066588,0.0102685177699,0.00763141456991,0.00419472949579,-0.00991169549525,0.00215777778067,0.00524188624695,0.0116525115445,-0.0115663800389,0.00385934277438,-0.011324364692,0.0111781349406,-0.00906836707145,-0.010953521356,-0.00575091596693,0.00323305884376,-0.0121559407562,-0.0062780440785,-0.00342994183302,0.0122770722955,-0.00141024333425,-0.0036836087238,0.00196580518968,-0.00102267088369,0.00150208885316,0.00271584326401,-0.00575478980318,-0.0101791564375,-0.0120134092867,-0.00819138623774,-0.0123585900292,-0.00981326121837,-0.00400118529797,0.000765889999457,-0.00599485309795,0.00225341273472,-0.00495962193236,-0.00197588675655,0.00421342160553,-0.00108487310354,-0.00546694826335,0.0119651071727,-0.0101113580167,-0.0055197570473,0.00094247929519,-0.00885506719351,0.0024943377357,0.00193836027756,-0.00871007796377,0.00305101694539,0.00104877527338,-0.010606251657,0.00178853713442,0.00193353614304,-0.00532370898873,0.00722824689001,-0.00950848311186,0.0109233139083,-0.0103749893606,0.0075669111684,-0.0103995939717,-0.00301031209528,0.00889818649739,-0.00412765191868,-0.0109333163127,-0.00579795660451,0.00105406402145,0.0120665179566,-0.01072228048,0.00415259087458,-0.000235976374825,-0.00179932371248,0.00149831094313,-0.00125310081057,-0.00102273339871,-0.0106301102787,-0.011887896806,-0.00612161913887,0.00487880920991,-0.00990897603333,-0.00346102146432,0.00864068977535,0.0107686920092,-0.00526147102937,0.00167598261032,0.00164445897099,0.00509118381888,0.0017928769812,-0.000315397133818,0.00313094630837,0.00610790261999,-0.00976652465761,-0.00769253121689,0.00909385923296,0.0108863878995,0.0123418243602,-0.00420551327989,0.00682325707749,-0.00365154515021,-0.0101390490308,0.00687167327851,-0.000711515080184,0.00780034158379,0.0112427035347,0.0119409868494,0.00808100774884,-0.000223662034841,-0.00800886936486,-0.00814645551145,-0.00911067519337,-0.00499791419134,-0.0122497165576,-0.00167218956631,-0.0062266192399,-0.00825995672494,-0.00490032043308,0.00612576398998,0.00265952106565,-0.00608393736184,0.00258799386211,-0.0121233128011,0.00571252871305,0.00884706806391,-0.00594294676557,-0.0102030243725,-0.00324861612171,-0.00125027098693,0.007690761704,-0.0113577395678,0.00716324476525,0.00292690098286,0.00145520805381,0.00145039579365,-0.00634247018024,0.0119176451117,0.00759733049199,-0.0102643975988,0.00920610781759,-0.00778598105535,0.00915633421391,0.00748712662607,-0.00449352245778,-0.0111858136952,0.00456654466689,-0.00543352356181,0.0125985052437,-0.011445636861,0.0098161296919,-0.00446164188907,-0.00825841445476,-0.00202612765133,-0.0122086666524,-0.00858294032514,0.0126044079661,-0.00343729765154,0.00031406612834,0.00089114921866,-0.00627823220566,0.0122483214363,-0.0121426098049,0.00122327974532,-0.00398500403389,-0.00681758858263,0.00465326430276,-0.00339973834343,-0.0117759658024,0.0111301997676,-0.00322443316691,0.00959392357618,0.00637462176383,0.000590747862589,0.00212596054189,0.00848057400435,-0.000860325875692,0.00515618175268,-0.00591173954308,-0.0105604082346,-0.00168913963716,0.0034207997378,0.0105554917827,-0.00731447571889,-0.00278228800744,0.0054259984754,0.00211105821654,0.0108514949679,-0.00128228054382,-0.00997557770461,-0.00773135153577,-0.0100630838424,-6.04440392635e-05,0.00196182983927,-0.00677281152457,0.000472690939205,0.0026815594174,0.00529043516144,-0.00755313411355,-0.0124329933897,0.00141135614831,-0.00960899889469,0.0105569763109,-0.00117966847029,0.00927731208503,-0.000947018328588,0.00690505001694,-0.0069088130258,0.00179844314698,0.00678617646918,0.001383090741,-0.0103412400931,-0.0104781566188,-0.00973202940077,0.00873704068363,-0.00302273733541,0.0093399612233,-0.00785817857832,-0.00776094058529,0.0091570019722,-0.00101955712307,-0.00871441327035,0.00157443876378,-0.0110274972394,-0.00930038094521,0.00495363678783,0.00324040278792,-0.00506864674389,-0.0053869234398,-0.00111468753312,0.00966014061123,-0.0091899652034,-0.0100485021248,-0.00780771346763,-0.00974344741553,0.00211977912113,0.0115119861439,-0.00677294190973,0.00135385023896,0.000966446008533,-0.00746017321944,-0.00643847603351,0.00990808568895,-0.00633408455178,-0.00725030759349,-0.0111792990938,-0.0103173088282,-0.0107596963644,-0.00746431481093,-0.00836510118097,-0.00673348642886,-0.0013014904689,-0.00678266678005,-0.00803966075182,-0.00511524407193,-0.0047641727142,0.00413749460131,0.000700683274772,0.00251880194992,-0.00252372631803,0.0125957904384,-0.0105080977082,-0.0120956692845,-0.00545549765229,0.000786732300185,0.0101832179353,-0.00775683391839,0.0108107728884,0.00155250530224,-0.000717963906936,0.00421540252864,-0.00475197285414,0.0123226856813,-0.011304368265,0.00236729183234,0.00600110413507,-0.000775790482294,0.00481585646048,-0.00910397805274,-0.00522118108347,-0.00896584428847,-0.0102625582367,0.00829366687685,0.0112446239218,-0.00397022487596,0.000363056344213,0.00660886568949,0.0118431504816,-0.00373411132023,0.00634875008836,-0.00240906281397,0.00175377121195,0.00325179565698,-0.00331806973554,0.00841587036848,0.00517268199474,-0.00356807629578,-0.0107787419111,-0.00909079704434,-0.00796599593014,0.0110040511936,0.00172297144309,-0.00292039010674,-0.00790961366147,-0.00295670027845,-0.00787709187716,-0.00738594075665,0.0113018918782,-0.0104861818254,0.00727703794837,-0.0080565456301,0.0062150824815,0.0110694151372,-0.0123231997713,0.00948497839272,-0.000922480830923,0.00497711030766,-0.00482902256772,0.00552735850215,0.002713651862,-0.00327249150723,0.00719810742885,-0.0103754587471,-0.0102574359626,0.00789878703654,0.0112379826605,0.004422376398,0.00400105025619,-0.00788926240057,-0.00738995755091,-0.0110556939617,0.00366022973321,0.00650091143325,0.00414389139041,0.000446954189101,0.00850946921855,-0.00851048342884,0.000482531031594,0.00911003537476,0.0062617212534,0.000486392644234,0.0101802879944,0.0040551754646,0.000169290884514,-0.00168017984834,-0.00807539653033,-0.00833035167307,-0.0113818189129,-0.00669840862975,0.00414374144748,-0.00225904025137,-0.00256831455044,0.00760570075363,-0.003602855606,0.00350634055212,-0.00227039353922,0.00163026130758,-0.00493101542816,-0.000576019869186,0.00117755925748,-0.000573293480556,0.00437594065443,0.00572156114504,-0.00422254111618,0.0113030700013,-0.00630076928064,-0.0014419760555,0.00789583846927,-0.00508969835937,0.0110915377736,-0.00953921768814,-0.00681764353067,-0.00770817650482,-0.00472438381985,-0.0043622343801,-0.0114309871569,-0.00138862640597,0.00349187431857,-0.00599995534867,-0.00368885858916,-0.00677834451199,0.0011756621534,0.00112869637087,-0.00651860143989,0.00825750920922,0.00728714652359,-0.00263082887977,-0.00249064876698,-0.000776296597905,0.00409138761461,0.0109964413568,-0.00160146795679,-0.010279734619,0.00117779744323,-0.00404954422265,0.00117490754928,0.00462244730443,-0.000865077134222,-0.00500812660903,-0.00128042302094,0.00149679358583,0.0113317361102,0.00287364330143,-0.00467194989324,-0.0100732874125,-0.00884480401874,0.0111966989934,-0.00244265468791,-0.010754480958,0.0101687647402,-0.00763001712039,-0.00827329233289,0.0103489710018,-0.00469670118764,-0.00430415291339,-0.00324397883378,0.0111083006486,-0.0114555424079,0.0027004906442,0.0103356344625,0.00161094986834,0.00151777511928,0.00193295907229,0.00687627866864,-0.00126694038045,-0.00953932106495,0.00862673670053,-0.00844715628773,-0.0113325398415,0.00245815864764,0.00470620486885,0.00410056347027,-0.00487916450948,-0.00865609012544,-0.00633646454662,0.0070377108641,0.0105994194746,0.0049168933183,-0.0098787304014,0.0022216103971,-0.000813988910522,-0.00031148456037,-0.011341707781,0.00996829383075,-0.00119149521925,0.00225868774578,0.00754703208804,0.0103396223858,0.000294169789413,-0.0101257991046,-0.00957222376019,0.00547809945419,0.00953958556056,-0.00163896218874,-0.00165880820714,0.00821787398309,-0.00423702551052,-0.00705682300031,0.0107200592756,-0.00331859267317,-0.00355133414268,-0.00729127461091,-0.00502707948908,-0.011004248634,0.00119489780627,-0.0124666262418,0.00399258546531,0.00071033264976,0.00897829141468,0.00147860718425,-0.00564470980316,0.00448171282187,-0.00921261031181,0.00532460818067,0.00399686908349,0.0019618680235,-0.012431288138,-0.0125497672707,-0.00751811685041,-0.00223250384443,-0.00943167414516,0.00890412926674,0.00750975357369,0.00444854144007,-0.00667184730992,-0.00415811315179,0.00730039272457,0.00640547042713,-0.00595615059137,0.010372299701,0.00825270731002,-0.00301762740128,0.0107673695311,-0.00447931885719,0.00783135928214,-0.0104088205844,0.00370314810425,0.00754200154915,0.00297023402527,0.00126025127247,0.00519312731922,0.0125202778727,-0.00976169202477,0.00133525929414,-0.00026354927104,0.00141567271203,0.00424306700006,0.0102986013517,0.000445728452178,-0.00930127501488,0.00198659230955,-0.00558130722493,0.00642989343032,0.00598321529105,-0.0106287356466,0.0097820898518,0.0122392093763,-0.00356768537313,0.00679479679093,-2.0363022486e-05,-0.00464439857751,0.00639710528776,-0.00105501548387,-0.0102230152115,0.010287983343,0.0118699073792,0.0123250717297,-0.00633726129308,0.0032632034272,0.00909790769219,0.012222985737,0.00701122544706,-0.00952767580748,-0.00539343617857,0.0116573413834,-0.000239292960032,-0.00448936037719,-0.0105238081887,0.0117735154927,-0.00119360280223,0.00765783572569,-0.00525704445317,-0.00976374652237,-0.000426654034527,-0.00849942024797,0.00620018271729,-0.00878433696926,0.00680108787492,-0.00042857369408,-0.0056878500618,-0.00884787272662,0.00592313474044,-0.0117921205238,-0.00211219186895,0.00341630005278,0.00349000142887,0.00187427457422,0.000555396080017,0.00062172266189,-0.00711842114106,0.00950703304261,-0.00968817528337,0.00645093014464,-0.0029728950467,0.0125299384817,0.0063270945102,-0.00923040695488,-0.000257595238509,0.00675744656473,0.00709973555058,-0.00655835540965,0.00811399519444,-0.00401893118396,-0.00118658551946,-0.012353669852,0.000552384357434,-0.0107459099963,0.000132282584673,0.00883723516017,0.000562838627957,-0.0017640782753,-0.00276968232356,0.00485464558005,0.0031094760634,-0.00523946946487,0.012114090845,-0.000186829187442,0.00149894354399,0.0107108494267,-0.00464167725295,-0.00880034547299,0.00591768417507,-0.00200418755412,-0.00605733087286,0.000339970953064,-0.00737832766026,0.00135569553822,-0.0111586684361,0.00378834293224,-0.0124850198627,-0.00506412051618,0.00659516407177,-0.00896285846829,0.00724605284631,-0.0106438416988,-0.00665247999132,0.0111754667014,0.0125951142982,0.00972955860198,-0.00779884448275,-0.00233154394664,-0.0053859045729,0.00362483039498,0.0122639853507,0.00763258524239,0.00807960703969,-0.00557956052944,0.00269457302056,-0.00386267993599,0.00647579878569,-0.0095381597057,-0.00904981698841,0.00798054225743,0.0101119950414,0.0053673768416,-0.00328261125833,-0.0124346455559,-0.0116045633331,0.00852697063237,0.0108156027272,-0.00435800710693,0.0123552326113,0.0052320305258,-0.00217727595009,0.0101674636826,-0.000479703303427,0.00306388502941,0.0026245827321,-0.00710604386404,0.0028898708988,0.00130808050744,-0.0104847354814,0.00822404772043,0.0100225582719,0.00874125864357,0.0103777321056,0.00821019243449,-0.00908225215971,-0.0070206518285,-0.00914511457086,0.00317402253859,-0.00279179261997,-0.00878126267344,0.000919541460462,-0.00573373166844,-0.000428543367889,-0.00386674166657,-0.0107710724697,0.00697213876992,0.0099847400561,0.00646752491593,-0.0123734045774,0.00743770645931,-0.00892664585263,0.0114952931181,0.00863433163613,0.00202126055956,-0.0111867580563,-0.0111071290448,-0.000606606772635,0.00391524471343,0.00419928086922,0.00858647935092,0.00727911991999,-0.0116583909839,0.000117033916467,0.00491745583713,-0.00188838434406,0.00225521647371,0.00679992418736,0.00368750072084,0.00501140253618,0.000370759924408,0.00606857985258,0.00447548087686,0.00355375441723,0.0113745350391,0.000604622357059,-0.00808497238904,0.00768310995772,-0.0013976880582,-0.0114688994363,-0.0105036208406,0.00121778680477,0.00747181568295,0.0101908780634,0.00596855627373,-0.000857428356539,0.0123167186975,0.0109236184508,-0.011743969284,0.0100500928238,0.00601743394509,0.00319189950824,0.010685544461,0.00622125528753,-0.00408456800506,0.0122868828475,0.0106851765886,-0.00334550067782,0.00902821868658,-0.00908925943077,0.0100606959313,-0.00572223262861,-0.0119280777872,0.0020912734326,0.010605734773,-0.00879946164787,-0.00150950520765,-0.00958985835314,0.0113345645368,-0.00482997857034,-0.00291609205306,-0.00299036246724,0.00473675318062,0.000822819944005,0.00966064445674,-0.00720195192844,-0.00401145406067,-0.00290719675831,-0.00739917578176,0.0103130955249,-0.00162184028886,0.00897681247443,0.00336639909074,-0.0120544545352,0.00176956877112,-0.00263821124099,0.00121607165784,-0.0109610371292,0.00665867328644,-0.00329140294343,-0.0112316152081,-0.000151608270244,0.00213369703852,-0.00379213015549,-0.00691249081865,0.00347279175185,-0.00347850448452,0.0116125205532,0.000770748883951,0.0108804069459,-0.00234613846987,-0.00972458254546,-0.00372022623196,0.00120219856035,0.0112814521417,0.00596830341965,0.0111124571413,0.00653067510575,-0.00633725523949,0.00921715889126,0.00462234113365,-0.00127743766643,0.00115266838111,0.00317619484849,0.00839085318148,0.0056123607792,-0.0039210463874,0.00269541773014,-0.00828206539154,-0.000563718669582,0.00484619801864,0.00795404892415,0.00430343719199,0.0109689999372,0.00830316543579,-0.0105904694647,-0.00680160848424,-0.00593048520386,0.0048686475493,0.0044458839111,-0.00572511088103,-0.00943519826978,0.0121125942096,-0.0106623712927,0.0122634004802,-0.00133361772168,-0.0100097497925,-0.0085048051551,-0.00413577398285,-0.00746159441769,0.00142206251621,-0.00333708385006,-0.0118802795187,-0.00204549496993,-0.0030100340955,-0.00491806305945,-0.00166905426886,0.00800415780395,0.00204341858625,0.00558104598895,-0.00489995535463,-0.00540614686906,0.0115469843149,0.00787784624845,0.0124307312071,-0.00712246214971,0.00418709078804,0.000570549396798,0.0117871509865,0.00656713033095,-0.00986759923398,-0.00379497185349,0.00397180113941,-0.00886433571577,0.00891811959445,0.00702359341085,-0.00256422371604,0.00285034696572,0.000159753995831,-0.00125059229322,0.000938522396609,-0.000329877919285,-0.00630714604631,0.000295056670438,-0.00980694591999,-0.0041515417397,0.00452826032415,-0.0111319795251,0.00833059847355,0.0113993566483,0.00261561316438,-0.00739084091038,0.00177488918416,0.00470554362983,0.0102188820019,-0.00658692047,0.00182864069939,-0.00690135825425,0.0125265717506,-0.00176631449722,0.006270152051,-0.00376167567447,0.00204075593501,0.00421731220558,-0.0124357035384,-0.00498384144157,0.00082953524543,0.00377849210054,-0.00989848840982,-0.0101093295962,0.0042637437582,-0.0033901615534,0.00416662031785,0.00521985674277,0.00961345620453,-0.00491586979479,-0.0108201475814,-0.0108732478693,0.00559128820896,0.0113407075405,-0.0106618991122,-0.0090668015182,0.00855643115938,-0.0124882236123,0.00674521597102,0.00649508787319,-0.00728757726029,-0.0042109945789,0.0108894947916,0.00903347507119,0.00543402368203,-0.000466085242806,-0.00244264933281,-0.0112983584404,0.010091942735,-0.00327111175284,0.0121902879328,-0.0125614609569,0.0114466538653,-0.00750499079004,-0.011933170259,0.00789045076817,0.010543288663,0.00753964390606,0.00913716480136,0.00542735122144,0.00248837564141,-0.00715715158731,0.0030217259191,-0.0114587973803,0.00942365080118,0.0101984944195,0.00694782007486,-0.00977805629373,-0.00672348728403,0.00542821036652,-0.0114471688867,0.00645759934559,0.011709404178,-0.00315485638566,-0.00934853591025,0.00589086953551,-0.00288002658635,-0.00392407691106,-0.011437041685,0.0117062078789,-0.000328902708134,-0.00298150768504,0.00490444619209,0.00189895217773,0.00289371469989,0.0110585577786,0.00154540245421,0.000430682470324,0.0122859654948,-0.00828280765563,0.00294603640214,0.00851479545236,0.00460801366717,0.00818014983088,-0.00809149630368,0.0105152698234,-0.00272311316803,0.0014574091183,-0.00602565100417,-0.0100392485037,-0.00217322260141,-0.000808168493677,0.000544949318282,-0.010991438292,-0.0115934703499,-0.0049163075164,0.0108273113146,0.00732845859602,0.00357934739441,0.0120955817401,0.00481075048447,0.0113688195124,0.0091438703239,0.012011772953,-0.00141931476537,0.0096968319267,0.00698238890618,-0.010909628123,-0.00346860382706,-0.00226292060688,0.0102705918252,-0.00531577970833,0.0101302834228,-0.00988737680018,-0.00252805300988,-0.0111934356391,-0.00790494028479,-0.0035238256678,0.0111352121457,8.45671820571e-05,-7.69380858401e-05,-0.00654195202515,-0.00196273881011,-0.0118705388159,-0.000821427092887,-0.00181349320337,-0.0109421992674,0.00421471428126,-0.00375066627748,0.00848708394915,0.0116489976645,-0.00919824745506,-0.00122583948541,0.00160128402058,-0.00420973170549,-0.00847065541893,0.00673472043127,-0.00358137139119,-0.00177748315036,0.00121612788644,-0.00425543263555,-0.00481921620667,0.00404806202278,0.00535256695002,-0.00558195495978,-0.00060457305517,0.00778895802796,-0.000905634078663,0.00492701260373,-0.00428136391565,-0.00363179016858,-0.00116134376731,-0.00486660981551,-0.00672046188265,-0.0111066382378,-0.00159220374189,0.0113298650831,-0.00552803603932,-0.00653659692034,0.00864829029888,0.0119666876271,0.00316994939931,0.00613358197734,-0.00532318977639,-0.0041273124516,-0.00628789840266,0.00131190975662,0.00362623785622,-0.00350961927325,0.0112781627104,0.00419736560434,-0.010975769721,0.0070112850517,-0.00487446691841,-0.00259126303717,0.00653811730444,-0.0124880354851,-0.00234047998674,0.00550121627748,0.0005238794256,0.00566672440618,0.00516147213057,0.00666016852483,-0.000279822794255,-0.0121860029176,0.00190638250206,0.00624142913148,-0.00915211252868,-0.00368832424283,0.0070977723226,0.00473487470299,0.0085413986817,-0.00315264426172,0.00879535637796,-0.00412552105263,-0.00893221702427,-0.0107393283397,-0.00798231642693,-0.00695214280859,-0.00506125018001,-0.00506783928722,0.00573925254866,-0.00562313850969,0.00150387035683,0.0101257208735,-0.00913476012647,0.00935672875494,0.00696720695123,-0.00504499580711,-0.0102426419035,0.00510547775775,-0.0010133337928,-0.00165018660482,9.6292780654e-05,-0.0108269471675,0.00262687634677,0.0118927452713,0.00648591155186,0.0052392706275,0.00342299207114,-0.00010288356134,-0.0121752563864,0.00999011565,-0.00811134185642,-0.0020772702992,-0.00278127170168,0.0112269222736,0.0028932178393,0.00446591991931,0.00274153286591,-0.00245396024548,0.00117134850007,-0.00719260564074,-0.0109013589099,0.00294938008301,0.0119099076837,0.00906483642757,-0.00620643002912,-0.00327574764378,-0.0123854484409,0.0124871581793,0.000926594191696,0.00153611286078,0.00627499213442,0.00167418969795,0.00902457907796,0.0073804249987,0.00856999773532,0.0125925885513,-0.00345371454023,0.00198414619081,0.00375032518059,0.00129707471933,-0.0050444630906,-0.0120929768309,-0.00692099239677,0.00797404069453,-0.00312359305099,-0.00725495396182,-0.00591673143208,0.0115605723113,-0.0117335626855,-0.0020515145734,0.000816282001324,-0.009546068497,-0.00882617197931,-0.00168274308089,-0.00891543086618,-0.00835876911879,-0.00809494312853,0.00996480416507,0.0109691126272,0.00870955269784,-0.00253137154505,0.00376411434263,0.00485020410269,0.00105920876376,-0.00907499529421,-0.00719322217628,-0.000154460954946,0.0108581166714,0.000357902841642,0.00750354491174,-0.00913485232741,-0.0104048317298,-0.010866958648,-0.00215912330896,-0.00820825714618,-0.00853944104165,-0.00105248391628,-0.00601908797398,-0.0117204068229,0.00286295847036,-0.0115796420723,0.00940320733935,0.00892774574459,0.00318375811912,-0.000426225364208,-0.00651175156236,0.00470259133726,0.00970982946455,0.00590028753504,-0.00791880767792,-0.00647755386308,-0.0106118079275,-0.0104548437521,-0.00238985102624,-0.00193935178686,-0.0051182154566,-0.0102658933029,0.0070490995422,-0.00567288510501,-0.00710642524064,0.00419175345451,-0.000741323863622,0.00482984120026,0.000937741715461,-0.0107676442713,-0.003779779654,0.010252292268,-0.00622248789296,-0.0120758516714,-0.00470145186409,0.00569547899067,-0.00530212465674,0.0106385312974,-0.00403781142086,-0.0112880999222,-0.00283012189902,0.00683202920482,-0.00087071507005,0.00245840661228,-0.00643675355241,0.0108117777854,0.00847302097827,0.00859831366688,-0.00938798487186,-2.26972806558e-05,0.00566592346877,-0.00772406579927,-0.00374996871687,-0.0091206273064,0.00685294996947,0.0111683094874,-0.00524659035727,0.0123136630282,0.00408336054534,0.0112553983927,-0.00519129540771,0.00561320362613,0.00404009129852,0.0029999234248,0.00666983006522,-0.000447581900517,-0.00542469648644,-0.00742769008502,0.00968250166625,9.63839283941e-07,0.00023304412025,-0.00607140734792,-0.00810801517218,-0.0113042108715,-0.0100797880441,0.00792031828314,0.0101902009919,-0.0116895884275,0.00390619365498,0.0111492760479,0.0114922905341,-0.00479550519958,-0.00740068079904,0.00711626559496,0.00940010230988,-0.00763158733025,0.00579024525359,0.00233837985434,0.00570821808651,-0.00331538403407,-0.00868850015104,0.00625198660418,0.0110463667661,-0.00942714884877,-0.0107782483101,0.012042561546,0.00739240832627,-0.00745757529512,0.00213524419814,0.00411001872271,0.0088895726949,0.0029028004501,0.0107047883794,0.00409285444766,-0.00754877319559,-0.00472067156807,-0.0123660117388,0.0117634087801,-0.0108710192144,-0.0125560378656,-0.00785276573151,-0.00241969968192,0.00674813054502,-0.00966303795576,-0.00256847706623,0.00622320035473,0.00880367122591,-0.00218423153274,-0.00246559083462,-0.00660480652004,0.0113018695265,0.0112254293635,0.00377222057432,0.0107235377654,-0.00789439398795,-0.0114429658279,0.0112644294277,0.010068337433,-0.0038087470457,-0.0117386486381,-0.00404616910964,-0.000790424179286,0.0091509334743,0.00838557537645,-0.0118286022916,-0.0118258222938,0.00173455278855,0.00157777091954,0.0105945253745,0.00386805064045,-0.00512206507847,0.00612949766219,0.00137089914642,-0.0121461693197,-0.00218911794946,0.00901547074318,-0.00756547320634,0.0100300014019,0.00516887428239,0.00110629526898,0.000834551930893,-0.00413517234847,0.00256478786469,-0.0111179463565,0.000524527044035,-0.0110518159345,0.00398684944957,0.0057205199264,0.00929324980825,0.0116299847141,0.0114720873535,-0.00416982825845,-0.010070190765,-0.00771311484277,-0.000115247385111,-0.00511798402295,0.00422559678555,-0.00276495795697,-0.0115345939994,-0.0100635429844,0.000427449675044,-0.00786590203643,0.00716597447172,-0.00483253737912,0.00135987915564,-0.000692001427524,0.00950396806002,-0.00771883269772,0.0106845479459,0.000848417112138,0.0109127974138,0.00704478286207,-0.0004865549854,-0.00836638174951,-0.00646617403254,-0.001234279247,0.0021574664861,0.000681746518239,0.00715528009459,0.00779994484037,0.00694485707209,0.00353316869587,-0.00778718153015,-0.0121097806841,-0.00613129045814,-0.00411315634847,-0.00987357646227,0.000918570847716,0.00743479607627,-0.00732916034758,0.00144785724115,-0.00612217467278,-0.0125923072919,-0.00139054167084,0.00635051028803,-0.00304781505838,-0.0121776778251,-0.00127700169105,-0.0123759377748,0.00467690033838,0.00797069817781,-0.00348519324325,0.00901964027435,-0.0116393007338,0.0117378057912,0.00446018856019,0.00156606140081,-0.00136591738556,0.00703936303034,0.0101506737992,0.00348609196953,0.0124858226627,-0.00820751395077,0.00741388741881,0.00588608812541,0.00270620617084,-0.00436285091564,-0.00640213955194,-0.00572787737474,0.00807600095868,-0.00783275067806,0.00713046034798,0.00191246741451,0.00775361340493,-0.00934184435755,-0.00995186064392,-0.000829438329674,-0.00858557224274,-0.0116936508566,-0.00532906316221,-0.00754281179979,-0.00155405513942,0.00759423384443,-0.00470592500642,-0.000708706211299,0.00193081318866,-0.00780507922173,0.00801591295749,9.78451716946e-05,-0.011868076399,0.00193522451445,-0.00748676108196,-0.00529357325286,0.0125383744016,-0.00278072198853,0.00540299713612,-0.00332160759717,0.00298982323147,-0.0101621560752,-0.0103774489835,-0.0120158437639,-0.00579924881458,0.0108319409192,-3.63259823644e-05,0.00624640379101,-0.000277974817436,0.00183230766561,-0.00259140366688,0.00327559001744,0.00964424386621,0.00375890894793,0.00120566389523,0.00427359854802,0.00548263825476,0.00168427219614,0.0102684795856,-0.00116593926214,-0.00961236096919,-0.0057083806023,0.00479754060507,-0.00450743176043,0.00439255312085,-0.0026847764384,0.00270168017596,0.00987770128995,0.000786049116869,0.0107368342578,-0.000275741360383,0.0098611433059,-0.00527498917654,0.00435171788558,-0.00827469862998,0.00797890778631,-0.00496566807851,-0.00465651694685,0.00061150820693,-0.00597799243405,-0.00719931256026,-0.00964444503188,0.00501995673403,-0.0084664914757,0.00712253712118,0.00332994339988,-0.00319803343154,0.00269859889522,-0.00570292305201,0.00669106421992,0.0123807992786,-0.0100334612653,0.0086047751829,-0.00615990022197,0.00633025448769,0.00104016216937,-0.00269748619758,-0.00469287624583,0.00833628606051,-0.00129009096418,-0.00287377065979,-0.0093949213624,-0.00966134201735,0.00526050059125,-0.00663606496528,0.00925253424793,0.00869331508875,0.0099871288985,-0.00848661735654,0.00653505790979,-0.00223319255747,-0.0078085437417,0.00140477565583,0.000614013755694,-0.00401731673628,0.0109789678827,0.0112262861803,0.00665089441463,-0.0111147109419,-0.00112835143227,0.00692375656217,-0.00480808876455,0.010476696305,-0.00245060329325,-0.00649264082313,-0.00299573643133,-0.00599665567279,-0.00377927580848,-0.0100801913068,-0.0116511899978,-0.00972725823522,-0.00280272518285,-0.00883827265352,-0.00684023974463,-0.0115268127993,0.00181117048487,0.000532283913344,-0.00449156807736,-0.00676569528878,0.0106571698561,-0.00784415565431,-0.00979532673955,-0.0115713858977,-0.00931853428483,-0.0117732845247,0.00817495305091,-0.00233617448248,0.00197998341173,-0.00457465229556,0.00912400241941,-0.00745985051617,0.00340313883498,0.00895364675671,0.0117054684088,0.00848325807601,-0.00760895200074,-0.00127033190802,0.00684492615983,-0.00266216485761,-0.00816659629345,-0.00492417812347,-0.00298227067105,0.00477056764066,-0.0072037987411,0.00704451464117,-0.0118482559919,0.0109047992155,-0.0116666350514,0.00422522146255,0.00382114201784,-0.0122125539929,0.00607181619853,0.00935730151832,0.0016494296724,0.0120123531669,0.00484765972942,0.000892380310688,-0.00691740959883,-0.0105255274102,0.00776156736538,0.00712081836537,0.00673773698509,-0.000750081322622,-0.00571072800085,0.0104992268607,-0.0119972890243,0.0055613159202,0.00412513175979,-5.55344413442e-05,-0.0049064992927,0.00464287167415,0.00349144102074,-0.00905924569815,0.00272363121621,-0.000637839024421,-0.00660353573039,-0.0094986455515,-0.000352846924216,-0.0028301437851,0.00462465826422,0.00616548350081,0.0124329840764,-0.00691125867888,0.00303521286696,-0.00151271396317,-0.00538542307913,0.00764041626826,0.012462596409,-0.00267890887335,-0.0113524263725,0.0120801907033,0.00280189025216,0.00451498432085,0.0124294664711,0.00644274055958,0.0116410935298,-0.0107658114284,-0.00217138673179,-0.00982409529388,0.00864642951638,-0.0077901808545,0.012094983831,-0.000737309339456,0.00175206852145,0.00152286316734,0.00993407703936,-0.00463835103437,0.0112580964342,0.00459295930341,-0.00955796148628,0.00481696147472,-0.0117570227012,0.000250718148891,0.00781052280217,-0.00525878695771,-0.00470045115799,-0.00737616699189,0.00488331262022,-0.0115163577721,0.00214378954843,0.0124359009787,-0.00243121339008,-0.00405346509069,-0.0104988329113,-0.00115518842358,0.00463162967935,-0.00490436842665,-0.00187146873213,-0.00202169734985,-0.00833588000387,-0.00421793805435,-0.0117666348815,-0.0053937966004,-0.00890828948468,0.00268882303499,0.00426067691296,0.00100066734012,0.00346304196864,0.00375323696062,0.00839464366436,-0.00110057322308,0.00629511056468,-0.00449276855215,-0.00408893777058,-0.00115905795246,-0.000393267167965,0.00454577291384,0.000693988695275,0.00157010694966,-0.000938778801356,-0.0126266079023,-0.0071811825037,-0.000721017597243,-0.00155667122453,0.0122443912551,-0.00455528032035,-0.00677035422996,0.0110406251624,-0.00818676594645,-0.00392051553354,0.00134927639738,-0.00619534868747,-0.00077890913235,-0.00151366228238,-0.00255819759332,0.00283088115975,0.0105237513781,0.00457421736792,0.00128835719079,-0.00393495289609,0.00482093635947,0.0114833079278,0.00579300150275,0.011964106001,-0.00666313571855,-0.0031474372372,0.00146812852472,0.000214958825381,-0.00754851708189,-0.0107787419111,0.00642119906843,-0.0109693780541,-0.0043381806463,0.0122207216918,0.00408757710829,0.0027129414957,0.00703793438151,0.0099697066471,-0.00470043066889,0.00338347395882,0.0124884424731,0.0124625246972,0.00384505908005,-0.00330910086632,0.000517756619956,-0.00275863427669,-0.00624604942277,-0.0110987061635,0.00276689860038,-0.000316176185152,0.00345234340057,0.00760557549074,0.000243352871621,-0.00748064694926,0.0025512764696,0.00390995061025,-0.00969277322292,-0.0096301343292,0.00765873957425,0.00715617882088,0.00418162811548,0.00899418722838,-0.00279248342849,-0.00431751273572,-0.00785894319415,-0.00909929629415,-0.0113169616088,0.010980674997,-0.00268828147091,-0.00691728852689,0.00419013155624,0.00831930153072,0.00454104226083,-0.00943569745868,-0.000887317059096,-0.000404687278206,0.0110398931429,0.00326295290142,-0.0071699405089,-0.00727460719645,-0.0119520081207,-0.0112536223605,-0.00500277383253,-0.0105525143445,0.000227365249884,-0.00360378692858,-0.0103330481797,0.00628101499751,0.00316207460128,0.00918807834387,0.00227600056678,-0.0107887648046,0.00882691610605,0.00465702591464,0.00327765522525,-0.00066204048926,0.00149094057269,-0.00196561845951,0.011647393927,-0.0121786296368,0.00177687569521,0.00930282007903,0.00387202738784,-0.000480285496451,0.0112882340327,0.0121249174699,-0.0121243223548,0.0111707029864,0.0107181342319,0.00298021663912,-0.00394372502342,0.0012034518877,0.00471719261259,-0.00180499604903,0.00802934449166,-0.00250002415851,-0.00560086686164,0.00924614444375,0.0024875565432,-0.000705291866325,0.00441620545462,-0.00387848261744,-0.00289075402543,-0.00126462883782,0.00152335804887,0.00955351162702,-0.00847821868956,-0.00379947852343,0.0107094570994,-0.00823203381151,0.0115370824933,0.00457602180541,0.000731462205295,-0.00802188180387,0.00468549737707,-0.0121660362929,0.00670081051067,0.0046115401201,-0.00389223662205,0.00578119512647,0.00963715277612,0.0106901023537,0.00141495268326,-0.00761374784634,-0.0125025706366,0.010857292451,0.01119105611,0.0107615981251,-0.0100072408095,0.0124127520248,-0.00748710194603,-0.00593619560823,-0.00864612776786,-0.0101412143558,-0.010448188521,0.00590736605227,0.0124163236469,0.00688796909526,0.00887849833816,-0.00898553337902,0.000614059332293,-0.000328493188135,0.00956228375435,0.0100671863183,0.00374617986381,-0.011164277792,0.00940728001297,-0.0106792198494,0.00770002789795,0.00315501680598,-0.000264410075033,-0.00798233598471,0.00776996230707,-0.000131078937557,0.00779797602445,-0.000420673750341,-0.00846228282899,0.00133228045888,0.00352318701334,0.0118639133871,0.000200431168196,-0.0122600570321,0.00318149547093,-0.00868661794811,-0.0044685411267,-0.00273385737091,-0.00718173617497,0.00844093412161,-0.00037064528442,0.00451595569029,0.00205854419619,0.00947341602296,0.0110418926924,-0.000296920305118,-0.00553065352142,0.00599192269146,0.00418626517057,0.00209387927316,-0.0104308007285,-0.00366916949861,-0.00374505785294,0.00912520475686,0.0095257172361,0.00544894812629,0.00778017845005,0.00523357558995,0.0119134495035,-0.00530318869278,-0.00463895872235,0.00101203133818,0.00889934133738,-0.00742137804627,-0.00387263041921,0.0055926181376,-0.00429627578706,0.00265765143558,-0.00857990048826,-0.000432410830399,0.00699145533144,0.0107325389981,0.00589476106688,0.00314233428799,-0.00960396137089,-0.000522944668774,-0.0119627797976,0.00949905999005,-0.00979597773403,-0.000409726519138,-0.0101663228124,0.0119229685515,0.0015027448535,0.0030895981472,0.0033128047362,-0.00679767550901,0.00901245418936,-0.0084162838757,0.0103535819799,-0.00817779172212,0.00403066165745,-0.00321427453309,0.0110960034654,0.000407846731832,-0.011106159538,-0.0080927843228,0.00179589225445,-0.0068006599322,-0.000963957689237,-0.0104666845873,0.00808761734515,-0.00146933051292,-0.00267634238116,0.0096659809351,0.00986140873283,-0.00998235307634,0.00906045176089,0.0026248244103,-0.00541121698916,-0.00970437098294,0.00375189841725,0.00875474419445,0.00754506420344,-0.00426365388557,-0.00219972804189,8.56869228301e-05,0.00695758266374,-0.00260704266839,0.0113316010684,-0.00774987414479,0.000361101410817,-0.00829316768795,-0.0118176778778,-0.00291119213216,-0.00808336865157,0.00346605596133,0.0115234265104,-0.00115270167589,-0.000557084509637,-0.00836107134819,-0.009536344558,0.00902357697487,0.0047167330049,0.00591864902526,0.00273038214073,0.0119863850996,0.00214801821858,-0.00460364902392,0.0096802348271,-0.00122781784739,0.00828410126269,0.00898096244782,-0.00622208882123,-0.00759068317711,-0.00419270899147,0.00799690745771,-0.010929199867,-0.0038195932284,-0.00944694224745,-0.00526606570929,-0.00940644927323,-0.00529924966395,-0.00765228131786,-0.000766136508901,0.00467250542715,0.000175082299393,0.00876009464264,-0.0120196742937,0.0122012645006,-0.00747337657958,-0.0113685717806,-0.00859683845192,0.00585371255875,-0.00627642078325,0.00810140650719,0.00369345652871,-0.00221056258306,-0.00846515968442,0.000905541994143,-0.00522027583793,-0.00559546146542,-0.003537196666,0.00624823616818,0.0096482289955,0.0106044281274,-0.00642505753785,0.00087006756803,0.00673399679363,0.00327351898886,-0.000784550153185,0.00406663585454,-0.00983989518136,0.0121998758987,0.00592333124951,0.0106288865209,-0.00463799014688,-0.00583011005074,0.00509329186752,-0.00475348951295,-0.00185285578482,-0.00471953116357,-0.000495848595165,-0.00085554033285,0.000286784401396,-0.00635427003726,0.0125193921849,-0.00470911711454,-0.00679917540401,0.00809415336698,-0.000368724635337,0.0053220782429,0.0101029099897,-0.00101089035161,-0.00836525112391,0.00263596861623,-0.00226060231216,0.00226311455481,-4.45132900495e-05,-0.001348255435,0.00684580067173,0.00589424325153,-0.00321370456368,0.00187437457498,-0.00339913880453,0.00436010863632,0.00750914867967,-0.00843814108521,0.000368732289644,0.00751500111073,-0.00625147577375,-0.00672742957249,-0.0125559214503,-0.00744887720793,0.00975122395903,0.0112390583381,0.0117250140756,-0.0045020096004,-0.00274988263845,0.00579980295151,0.00867594499141,0.00241255504079,-0.00868998654187,-0.00571118853986,-0.00838868133724,0.00879384856671,-0.00655933981761,0.00528215058148,-0.00271584326401,-0.0122745372355,-0.00910444185138,-0.0119226425886,0.00063839473296,0.00740023283288,0.0060048000887,-0.001727696741,-0.00367443007417,0.00434676231816,-0.00266399397515,0.0111318584532,-0.0102751562372,0.0119306445122,-0.00635504536331,-0.00855018477887,0.0026362047065,0.00853948108852,-0.0117443455383,-0.00736876064911,0.00570752331987,0.00849113054574,-0.00490494444966,0.000972007692326,-0.00796467065811,-0.00483930064365,0.00974681880325,-0.0104825748131,-0.0122943902388,-0.00744330324233,-0.00839433353394,0.00111296202522,0.00139258569106,-0.00131956546102,0.010329968296,0.00447932584211,-0.0125559996814,0.000635739881545,-0.00171690119896,-0.00456165568903,0.00889948289841,0.00652846042067,0.00199620448984,-0.0119771594182,0.00138040236197,0.00922155193985,-0.00562764750794,-0.00751045253128,-0.00375705747865,-0.00123966205865,0.000873703334946,-0.00587153853849,-0.00906666647643,-0.0107515407726,0.0038774034474,0.00444568367675,0.00390609051101,-0.00603454513475,-0.00480186752975,0.0123768290505,-0.00218949140981,-0.00119574368,-0.0015567233786,-0.00291359145194,-0.00554720312357,-0.007966324687,-0.00441580126062,-0.00275433878414,-0.0017005240079,0.00589279318228,-0.00667560752481,-0.00948688574135,0.00313682877459,0.00626459810883,-0.00774850742891,-0.00104725989513,0.00980898365378,-0.0066100587137,0.00353641971014,-0.00587986409664,-0.00231041852385,-0.0117213865742,0.0113389817998,-0.00507524749264,-0.00707744155079,-0.00700884219259,0.00218827836215,-0.00121152692009,-0.00860641431063,0.00517312437296,0.00270305061713,0.00925755407661,-0.0123262684792,0.01072250586,-0.00183745892718,0.00865357648581,0.00779291708022,0.00656944327056,-0.010392036289,-0.000657553144265,0.00518478825688,-0.00439338525757,0.00509219244123,-0.00544923637062,0.0106726083905,0.0109455697238,-0.0103373201564,-0.0110435737297,-0.00381431123242,0.00552788050845,0.0030923129525,-0.00595690496266,-0.00825943239033,0.0113898506388,-0.0082840481773,0.0112971775234,0.00656437454745,0.0119621567428,-0.00949769560248,0.006842804607,-0.00292561971582,0.00898065883666,0.00410758610815,-0.00213993876241,-0.0014032718027,0.00710821291432,-0.00949021335691,-0.00845447927713,-0.00294551928528,-0.00797009840608,-0.00227633886971,-0.00721167819574,-0.0113743394613,-0.0112533597276,-0.0076492917724,0.0070143523626,0.00859726406634,-0.00755710666999,-0.0112730385736,-0.0117064928636,0.012385437265,-0.0100528225303,0.0118565903977,-0.0014388152631,-0.0077326153405,0.00828363839537,-0.00979990605265,-0.00636876374483,0.0030817463994,-0.00914186984301,-0.0121600953862,0.00216569984332,-0.00672324700281,0.0105159692466,0.00446372944862,0.00928165018559,-0.00597834633663,-0.00598173541948,-0.00546829588711,0.00601185718551,-0.0122133176774,0.00611587241292,-0.007742295973,-0.00850490573794,-0.0104514686391,0.00915685668588,-0.0122445812449,-0.00154177297372,-0.00150695641059,-0.0116668753326,-0.00122032896616,0.0104111591354,-0.00111038167961,0.00717153120786,-0.00534669496119,0.00284042186104,0.00906816869974,0.000653177616186,-0.00358516094275,0.00476042786613,0.012173615396,-0.00443794112653,0.00885931868106,0.00111263617873,0.00523757608607,-0.000750668288674,-0.00371144176461,0.00855081528425,0.000596845056862,0.00789660494775,-0.00937240943313,-0.00660464633256,-0.0059149377048,-0.00454238289967,-0.0103831375018,0.00326514523476,0.00423892959952,-0.00510345445946,0.00924177560955,0.00235608802177,0.00795913394541,-0.0114567214623,0.0123224938288,0.00807230267674,0.00175679882523,0.00917210336775,-0.00797677785158,0.00855268817395,-0.000332349358359,-0.00575724244118,0.00555896619335,-0.0104421908036,-0.00881750416011,0.00147682637908,0.0060534728691,-0.00678402557969,-0.00878398027271,0.00866344943643,-0.0105026103556,-0.00614865822718,0.00595593592152,0.00420094421133,-0.00668680528179,-0.0122647443786,0.00311779556796,0.0101616373286,-0.00527892820537,0.00074913771823,-0.00991645827889,0.0114835863933,0.00054096756503,0.0114542972296,-0.00110118708108,0.00048115462414,0.00768305826932,-0.00324341002852,-0.00749802216887,0.00394905544817,0.00254280352965,-0.0115750618279,-0.00476429332048,-0.00968576129526,0.00835934653878,0.00557953258976,-0.00505240168422,0.00561410561204,0.00913586746901,0.00323362462223,0.00671209348366,-0.00453926436603,-0.00441333837807,0.00222632964142,0.00792312901467,-0.00658342475072,-0.00864707957953,9.58325763349e-05,0.00572158116847,-0.00753277819604,-0.0118943601847,-0.00298394821584,0.0117292422801,-0.0115605881438,0.00246016238816,0.00632678065449,0.0110784014687,0.0122251268476,0.00517724454403,-0.0116791771725,0.00662131002173,0.00404805457219,0.00828292965889,0.00802757777274,0.00573892425746,-0.0122149698436,0.00932966824621,-0.00878651067615,0.0113025307655,0.00920728221536,0.00684527121484,-0.00128479802515,-0.0101314932108,-0.0125601580366,0.00124813837465,-0.00492158392444,0.00333822402172,0.00232708780095,0.000658401404507,0.010241840966,-0.002515533939,0.00746774626896,-0.00379490829073,-0.00858468096703,0.00975146144629,-0.00997218396515,0.0107554486021,-0.00285681569949,-0.0076976059936,0.000869270239491,0.0014290245017,-0.0026007371489,-0.00500684091821,-0.0108462758362,0.0108650522307,0.00315256277099,-0.0023224784527,-0.00684405304492,-0.0100627932698,0.00675230240449,-0.00277074147016,-0.00714690890163,0.00344871426933,0.0109454961494,0.00210818485357,-0.00599033711478,0.0103156818077,0.00502506038174,-0.00821552332491,0.0122842891142,0.0124421473593,-0.00303488294594,-0.00257374742068,0.00630349852145,0.00704651512206,-0.00926325004548,0.00477636000142,-0.00574950734153,0.0102032115683,0.00719122309238,0.00881282426417,-0.0101712029427,-0.00207947357558,-0.00180942274164,-0.0120788887143,-0.0120182270184,-0.0112927118316,0.00271566445008,-0.00249793962575,0.00369070260786,0.00925243552774,-0.00412237504497,0.0114293005317,0.0054405326955,0.00354863377288,-0.00725159933791,-0.00969300232828,0.000403142999858,0.0116808591411,-0.00758503843099,0.00309244473465,0.0110003389418,0.00168256286997,-0.00765346409753,-0.0101736215875,-0.00299176713452,0.0107875661924,-0.0118647115305,0.0112807676196,0.0119775328785,0.00712517090142,0.00842898245901,0.0103606078774,-0.00928921345621,0.00931375287473,0.00396006926894,-0.0112651158124,-0.00676135253161,0.00463798874989,-0.00125208881218,-0.0118177859113,0.00131242768839,-0.00404924433678,-0.0122135607526,0.00762131903321,0.00982417725027,-0.0111539429054,0.00986556150019,0.0111401481554,0.000790453399532,0.00394552340731,0.0120879905298,-0.0113318404183,0.0105768814683,-0.00508079351857,0.00532658165321,0.00779460091144,-0.0124009000137,0.00545279774815,0.0023090322502,0.00858080107719,-0.00657302653417,0.00985608715564,0.000192579274881,-0.00693848729134,0.00312638096511,0.0111505333334,-0.0126419123262,0.0109780170023,-0.00945808272809,-0.00622611306608,0.00866053625941,0.0124926762655,0.00657885894179,0.0105507820845,0.010892755352,0.0101792933419,-0.00493557564914,0.0103309676051,0.00875226780772,0.0095563782379,-0.0119797335938,-0.00548065267503,0.00284814485349,0.0112620675936,-0.000551645294763,0.00661518750712,-0.000715263304301,-0.00769194820896,-0.00612041307613,0.00390514568426,0.0109801804647,0.0122574493289,-0.00753727741539,-0.00995590817183,-0.00200905092061,0.00731953931972,-0.00475045712665,-0.00481996918097,0.00317082344554,0.00121899531223,0.00342737743631,-0.00602117134258,-0.00213504722342,-0.00276848953217,0.00227930303663,-0.00566129852086,0.00647599762306,-0.0057006306015,0.000164347147802,0.0109241362661,0.00380322523415,0.0102994050831,-0.0024227341637,0.00791654735804,-0.00613301014528,-0.00147086090874,-0.00526877865195,0.00742610590532,-0.000999224837869,0.00595728540793,0.00741360010579,0.00899048615247,-0.00711998296902,-0.00301299244165,0.00205679913051,0.00484338076785,0.0117190405726,-0.0112020969391,0.000420908414526,0.00833138264716,-0.00267237355001,0.00824514869601,-0.00520093832165,0.0107875205576,0.00939819961786,-0.00948723126203,0.00974660180509,0.0075456770137,0.00846964027733,-0.00505119469017,0.00446101138368,-0.00748042250052,-0.00986353121698,-0.00179790868424,-0.000339824124239,-0.0110953981057,-0.00048264634097,-0.00721537973732,0.00272225984372,-0.00578416045755,0.00908907223493,-0.0051854448393,0.00571180786937,-0.00680406065658,0.00182833138388,0.00469988305122,-0.00926912855357,-0.0109232319519,-0.00495442887768,0.00433578388765,0.00483889179304,-0.000705051701516,-0.0108976159245,0.000451101979706,0.00200461852364,-0.00916756968945,-0.00970236770809,0.00473280670121,-0.0110114160925,0.0104440776631,0.0124795399606,0.00149429973681,0.00389784364961,0.00640792585909,0.0116233723238,-0.00326489680447,0.00502874655649,0.00245805177838,0.00930300075561,-0.00480830157176,-0.0033731108997,0.0117488987744,0.00152183091268,0.0104265781119,-0.0114961666986,0.0108727812767,-0.0121557042003,0.00204941467382,-0.00505551835522,-0.00776671199128,-0.00678749103099,-0.0098161958158,0.00324456649832,-0.000546293216757,0.0120193539187,0.00804599747062,-0.0037914973218,-0.0056051495485,-0.00746109848842,-0.00467376224697,0.00796148646623,-0.00513596041128,-0.00871078670025,-0.00842641294003,-0.0124298576266,-0.00229090196081,0.00248868134804,0.00559629080817,-0.00198407145217,-0.01138380263,-0.00545930676162,-0.00956872291863,0.0124442987144,0.0107631413266,0.00313818803988,0.00183170463424,-0.0106764147058,-0.00232177809812,-0.009590620175,0.0101347407326,0.00138590170536,-0.00624652532861,-0.0114745264873,0.0103463055566,-0.00522993970662,0.0110846022144,0.00864228885621,0.00742497853935,-0.00350275496021,0.00892322603613,-0.0120921684429,-0.0113366702572,-0.00472354097292,-0.00086499407189,0.0114112878218,0.0033624349162,0.00401135580614,-0.0126833608374,-0.00119625835214,-0.0101346513256,0.0119594382122,-0.00952118914574,-0.00407094787806,-0.00065481569618,0.00232184142806,0.00266148382798,0.00248211994767,-0.00539887184277,-0.00382398464717,0.00853303261101,0.000907951791305,0.00311804562807,-0.0125572672114,-0.00513373268768,0.00229055504315,0.0113272052258,-0.00710935145617,-0.00618609646335,-0.00547798117623,0.00782447680831,-0.0115502830595,-0.00224731490016,-0.00501774530858,0.00881735328585,0.00834779441357,0.0110062519088,0.000950424000621,0.00339606613852,-0.00589187629521,-0.00879059452564,0.0121579486877,0.0085878437385,-3.39444777637e-05,0.00988588389009,-0.00265705958009,0.00217952509411,-0.0125389890745,0.00111417460721,0.00649837451056,-0.0105509897694,-5.12811457156e-05,0.0107980454341,0.00146121520083,-0.000158941926202,-0.00230723852292,-0.00275015342049,-0.0122264707461,-0.00127521343529,-0.0114539917558,-0.0122318500653,-0.00943271256983,0.0118829039857,-0.00460452446714,-0.00739450007677,0.00800298340619,-0.00645337952301,0.000964517414104,-0.00574836088344,-0.011703918688,-6.70302470098e-05,0.00656856549904,0.00486184144393,-0.000513515027706,-0.00239585409872,-0.0110784331337,0.00720546580851,0.000271614320809,0.010371514596,-0.00370212597772,0.00844187289476,-0.000455760717159,-0.00793418567628,-0.00926180649549,0.00308162672445,0.00573691446334,0.00605175783858,-0.00383501616307,-0.00441434187815,0.00958263128996,0.00357537646778,-0.0028360367287,0.00762043008581,-0.00983515102416,0.00283597153611,-0.00818312633783,0.00407468015328,-0.00449778977782,0.0063867685385,-0.00435066409409,-0.00534596852958,-0.000224848568905,-0.00326457526535,0.00630529504269,-0.00543472263962,0.00834436900914,0.00156107533257,-0.0126656023785,-0.0101268040016,-0.0113126160577,-0.00228765024804,-0.0084806503728,0.00799264572561,-0.00473896646872,0.00394269172102,-0.00958696566522,0.0102823581547,0.0110084842891,-0.000354663323378,0.00700426194817,0.0069214082323,0.00680140778422,0.00669676763937,-0.00865584239364,-0.0110425129533,0.00827685091645,-0.00711966305971,-0.0106047382578,-0.00490693701431,-0.00125900167041,0.0104811191559,-0.00804806128144,0.00379286077805,0.0122232688591,0.000878252845723,0.0119925960898,0.0124903470278,-0.00386263360269,-0.0126730175689,0.00838574580848,0.00798808224499,0.00157256098464,0.00673486525193,0.00910284183919,0.00766664417461,0.00806796271354,-0.000816691550426,-0.00412237131968,0.0111073562875,-0.011440070346,0.00830162968487,-0.00624207500368,-0.00593664171174,0.00660424446687,0.00729662831873,-0.012317542918,-0.000548829208128,-0.00365264713764,0.0082281101495,0.0103266360238,-0.00880448427051,-0.0122925899923,-0.00830498989671,0.00911851320416,-0.0112886885181,0.000540188688319,-0.0119939157739,-0.0101810283959,-0.00112717784941,0.00496064592153,0.00622120965272,-0.00268070283346,0.00753800431266,0.00397399114445,-0.00720479339361,-0.0088072521612,0.0121916634962,0.00125544017646,-0.00166610663291,0.00342846522108,0.00868701282889,-0.00837207585573,0.00981884822249,0.00531015032902,-0.0097795156762,4.63333926746e-05,-0.00325234327465,-0.00414855033159,-0.0105334855616,0.00168426253367,-0.00812099128962,-0.00471792556345,0.00661379564553,0.00712342234328,0.0121859805658,0.00424613012001,-0.00341578247026,0.00756413582712,-0.0050028511323,-0.00109249388333,0.0112995654345,0.00332895596512,0.00540562253445,0.00944725517184,0.00302075920627,-0.0119546018541,-0.0121972141787,-0.004770249594,0.00596900330856,-0.00689320405945,-0.00607105717063,0.00024588566157,-0.00580777972937,0.00839142873883,0.00682813487947,-0.00180290895514,-0.00300719100051,0.0081155654043,-0.00656449655071,0.00823112856597,-0.000888059497811,0.0107018705457,-0.00879172608256,-0.00196282379329,0.0038454788737,-0.00296720559709,0.00886189378798,0.0109573919326,-0.00456143310294,0.00424820138142,-0.00592371774837,-0.0108422897756,0.0117271710187,0.00489784684032,0.00293730502017,-0.00984627567232,-0.00029135638033,-0.012404714711,0.00195768894628,0.000984370009974,0.00639690831304,0.00755929714069,0.00837481860071,0.0123063130304,-0.00833140127361,-0.00337761850096,-0.0113554578274,-0.00911528337747,0.0103168021888,-0.0103169595823,0.00736903306097,0.0117962369695,0.0106672476977,0.00712475739419,-0.000729191058781,0.00913965050131,-0.0122808823362,-0.00307978130877,0.0027208540123,-0.00951535254717,-0.0109223639593,-0.00738513749093,0.00704667111859,-0.000173558160895,-0.0093859564513,0.0116704786196,-0.0101899839938,-0.00132139143534,0.00492035131902,-0.00695666996762,-0.00275872391649,0.011498295702,-0.00607281364501,-0.00750932749361,0.00151268858463,0.00362875242718,0.00662590516731,-0.00526870274916,-0.00499355979264,0.00945968925953,0.00366665236652,0.00158192147501,0.00717406580225,0.000721175107174,-0.00884843245149,0.0070920214057,-0.00462087197229,-0.00864510331303,-0.00206762598827,-0.0021604069043,-0.00114706135355,0.00043910718523,0.0115595674142,0.000381263205782,-0.0079190293327,0.00278359954245,0.00304608955048,-0.00917384959757,-0.0115978773683,-0.000550530618057,-0.00676003284752,0.001678967732,0.00473227119073,0.00939322076738,-0.00372539786622,-0.0104992846027,-0.0027779310476,0.0107302926481,-0.00942575745285,-0.00632311822847,-0.00232259649783,0.00705370632932,0.00669744797051,-0.00561687117442,0.000181155759492,0.0115716625005,-0.00229646265507,-0.00404066639021,-0.0119187664241,0.00706590153277,0.00161186291371,0.00625631632283,0.0039986805059,0.00395806226879,0.00264026387595,-0.0117358285934,0.011794523336,0.00284181744792,-0.0125091029331,0.00433470169082,0.0106807202101,0.00948856025934,-0.00440333923325,0.00524982111529,-0.00657482491806,0.000406303472118,-0.0115179438144,0.00516263581812,0.000282542983769,0.00865909457207,0.00141461298335,0.0103354286402,-0.00940785557032,0.00688987178728,0.0098884711042,0.00322772958316,0.00469657592475,-0.0016301528085,0.00366197014228,0.00480658980086,-0.00265821325593,0.0061906510964,-0.0120136998594,0.0063782883808,-0.0124635789543,-0.0073766973801,-0.0102767171338,0.00292925420217,-0.0040031010285,0.00502429064363,-0.0035978294909,0.00443481234834,-0.0064749121666,0.00667256070301,0.0108606712893,0.0109609412029,0.00639187311754,-0.00309077906422,0.00783144775778,-0.000829242402688,0.00646923715249,0.00371212838218,0.00457593100145,0.012340717949,0.0104813035578,-0.0054793972522,4.13733505411e-05,-0.00239593931474,-0.0114002330229,