0.00181125930976,0.000388254324207,-0.000302926026052,0.00111162138637,-6.57872806187e-05,0.00184280192479,0.00197741878219,-0.000386298459489,-0.00110132980626,0.00045573854004,0.00203496706672,-0.00142784975469,0.000606826331932,0.000649234978482,0.0011503866408,-0.0018181722844,0.00106507202145,0.00201852968894,-0.00158072798513,-0.00129519426264,0.00232628197409,-0.00157434307039,0.00174885080196,-3.81079153158e-05,-0.00124738633167,0.00182960927486,-0.000269912445219,7.31219843146e-05,-0.000694667571224,0.000458702037577,-0.00166047201492,-0.000537500425708,0.00231649726629,-0.00119358440861,0.000773477891926,-0.000862667453475,0.00134955928661,-0.00182159722317,0.00231851427816,-0.000228043441894,-0.00130256137345,-0.00210474571213,-0.00162970775273,9.75822258624e-05,-0.000804371084087,0.00162300257944,-0.000341062346706,-0.00124006695114,0.000578097417019,0.00102042243816,-0.00164311088156,-0.0016402619658,-0.00228647468612,0.0011666174978,0.000808357028291,-0.000125193793792,0.00169844261836,0.00150844804011,0.000421214237576,0.001817377517,-0.00145164073911,-0.00191513320897,-0.00113625987433,-0.00218572677113,0.000153818138642,0.00215460010804,-0.00227328808978,-0.0018648452824,-0.000235892439377,0.00214112456888,-0.000907249050215,3.57029712177e-05,-0.00226228660904,-0.00173538690433,0.0024014650844,0.0022953087464,-0.00244306586683,0.00222964049317,0.000686541316099,0.00181563559454,-0.000223353752517,7.69646576373e-05,-5.50408767594e-05,0.000823456444778,-0.00177828071173,-0.00231952778995,-0.000947844237089,0.00101007660851,-0.00147131981794,0.000855869671796,0.00231896340847,-0.00200405460782,0.000851772143506,-0.000277586368611,0.0018167408416,-0.00159322959371,0.00095058750594,0.00166856113356,0.00219412147999,0.000904308515601,-1.39422236316e-05,0.000581562926527,0.00182050478179,0.000348451198079,-0.00231748726219,0.00212668348104,0.00093529332662,0.000871073803864,-0.00140311126597,0.000784081988968,-0.000523767259438,0.00074631778989,-0.00194141932297,0.000778948888183,0.00246455078013,-0.00222952291369,0.0023548011668,-0.000459398783278,0.00182962673716,0.00139354076236,0.000330717739416,0.00117672013585,0.00186793191824,-0.000473056774354,-0.000853571982589,0.000827054609545,0.00151918525808,0.00129434780683,0.00146967696492,-0.000317889120197,0.00156847632024,-0.0018742257962,0.000219548717723,-0.0024390257895,-0.000865649315529,-0.000658997392748,-0.000512376136612,0.000964608800132,-0.000549953314476,-0.00025319121778,-0.00129519030452,-0.00062548823189,-0.00134589383379,-0.00210623024032,0.000510507205036,0.00083011132665,0.000589671486523,-0.000180152812391,-0.000593243690673,0.00179301085882,9.41664766287e-05,-0.000102735102701,-0.00234090327285,-0.000783424184192,-0.000591221207287,-0.000499298272189,0.00039564166218,0.000165824807482,0.000532499572728,0.0013071692083,0.00154454959556,0.00107641296927,0.00224795844406,-0.00237746839412,-0.00150130153634,-0.00243012211286,0.000727771199308,0.00196423614398,-0.00126588612329,0.00210736761801,-0.00217003119178,0.00214389315806,-0.000732225424144,-0.0019669434987,-6.97212890373e-05,-0.00120028038509,-0.00106162810698,-0.000951002468355,0.00149539893027,0.000193256521015,-0.000931175367441,0.000544484879356,0.0010666793678,-0.00112207513303,-0.000426625512773,-0.00186594983097,-0.00157349230722,0.000893796328455,-0.00157206610311,0.000124178477563,0.00103161984589,-0.00194001838099,0.00033217825694,-0.00120133545715,0.00228449236602,-8.12003927422e-05,0.0015100389719,0.000247862364631,-0.00225320807658,0.000657087133732,0.00222762487829,0.000501442933455,0.00157516123727,0.00189601583406,-0.0013418958988,-0.00142102653626,0.00054767873371,-0.000439064548118,0.00167717749719,0.00197406928055,-0.000723349105101,-0.0012985143112,0.00138436199632,-0.001111307065,0.00159206555691,-0.000376343174139,0.000826839997899,-0.00199598795734,0.000611231895164,-0.000238021108089,0.000427403079811,-0.00163831270766,0.00116894545499,0.00179036299232,-0.00139785732608,-0.00199510343373,-0.0023507901933,0.000700613483787,0.000528497097548,0.000230446501519,-0.00132281112019,-0.000538366672117,0.000466230150778,-1.59551891556e-05,0.00240716687404,-0.0017941291444,0.000963016529568,-0.000472176179755,-0.000354326853994,0.00107382063288,0.000949650886469,0.00242429343052,-0.00183383258991,-0.00195367448032,0.00110708700959,0.000386830652133,-0.00111449183896,-0.0020755182486,-0.00204473012127,0.00194528780412,-0.00152060028631,-0.000871641561389,-0.00134892005008,-0.000715576985385,-0.00212484505028,9.40579338931e-05,-0.00213378365152,0.0014822257217,-0.00131410104223,0.000197454326553,0.00187564780936,0.000744562945329,0.000162642987561,-0.00086689327145,-0.000824116868898,0.000836399151012,0.00243852240965,0.000798658293206,0.000285154703306,0.0011382343946,-0.000171706415131,-0.00217064819299,0.000307427806547,0.00225832965225,-0.00160234363284,0.00093765289057,-0.00147585873492,0.000176805609954,-0.00199035648257,-0.000244913884671,0.00126413733233,-0.000752217485569,0.000813820923213,0.00145801249892,0.00210807472467,-0.00130951160099,-0.000496864668094,-0.00171528803185,0.00243035098538,0.00210720207542,0.00019718396652,0.00168789597228,0.000103425270936,0.000609881535638,-0.0020276249852,0.00125973089598,-0.0018371923361,0.00160910724662,0.00139177707024,0.00103013170883,-0.00228899670765,-0.000971539528109,-0.00116901297588,-0.000690211192705,-0.00203493679874,0.00215633795597,0.000265508046141,-0.00095971574774,-0.00050838466268,-0.000260549539234,0.000496421766002,7.73762221797e-05,0.0020696525462,-1.49848719957e-05,0.00242874468677,0.00173424277455,-0.00143846799619,0.00212493911386,-0.0018931889208,0.0015665787505,-0.00058911065571,0.00186526100151,0.00181631860323,0.0015097076539,0.00143126770854,-0.000963886559475,-0.00206811632961,-0.000478781963466,-0.00161111995112,0.000962061807513,-0.000759480637498,0.0023470830638,0.000695681432262,0.00159140548203,-0.00181344966404,0.00178650091402,0.00208625942469,-6.3847983256e-05,0.000524346367456,0.00130680669099,-0.00160463503562,1.26633003674e-05,-0.000500086636748,-0.00174510478973,-0.000653702823911,-0.00213102134876,-0.00234006508254,-0.0018004134763,0.00228542112745,0.000244422728429,0.00229878025129,-0.000333115400281,-0.000928666326217,3.03094057017e-05,-0.00029850305873,-0.00194600061513,0.000694962101988,-0.00140131975058,0.000590153154917,0.000741225550883,-0.00171721843071,-0.00216469052248,0.00138552696444,-0.000198380410438,-0.00218041217886,0.00244210986421,-0.00218230346218,0.000962477002759,0.00238690129481,-0.00128711701836,-0.00176545931026,-0.00186842295807,-0.000970815133769,-0.00196879426949,0.000948294706177,-0.00216004089452,4.64971490146e-05,0.00245114346035,0.00154940818902,0.000568595016375,-0.000956116709858,0.000611412106082,0.000133446592372,-0.000364770239685,-0.00182240293361,0.0019078485202,-0.000247807125561,-0.00150700367521,-0.000652592803817,-0.000423760066042,0.00161636283156,0.00115286081564,0.00132898951415,-0.00241300603375,-0.000413770641899,-9.20645252336e-05,-0.00237273238599,-0.00118529493921,0.00128450116608,-0.00179082294926,0.000174251545104,-0.00140544690657,-0.00240762927569,-0.0012771418551,0.00234838365577,0.0014880518429,0.00226795929484,-5.993893501e-05,-0.00192590814549,0.000236674706684,-0.000225142750423,0.00169936369639,-0.00198341743089,-5.80286723562e-05,-0.00172697065864,-0.000865204667207,0.00117133057211,-0.000118347845273,-0.000612477422692,-0.000520747737028,-0.000200125665287,0.00140652479604,0.00193489401136,0.0022470257245,0.00141583604272,-0.000910946284421,0.000928423716687,-0.000307921611238,-0.0012106730137,0.00168216309976,-0.00227781431749,0.00198265048675,-0.000190104401554,0.000677073956467,0.000786393764429,0.00194986187853,0.000674449605867,0.000562249508221,-0.00213852361776,9.08415313461e-05,-0.00172637682408,0.00117170903832,6.03138105362e-05,0.000889403920155,-0.00226179300807,-0.00204900489189,0.00106753176078,-0.00211171596311,-0.00211580004543,-0.00240769004449,0.00225278339349,0.00117207714356,-0.000724187877495,-0.0010040741181,-0.000741697731428,0.00135538447648,0.000796345877461,-0.0015535246348,-0.00160823389888,-0.00198187259957,0.000791075988673,0.00130464951508,-0.00115946959704,-0.00236408296041,-0.00206193607301,0.00230883690529,-0.00100945716258,0.00132858613506,0.000615200784523,-0.000582614680752,-0.0014524004655,-0.0018684156239,0.000567576149479,0.00135528692044,0.000710151391104,0.00014953763457,-0.00226041954011,0.00231193960644,0.00147412111983,-0.00102240010165,0.0023685998749,0.000502774259076,0.000406746607041,0.0012242133962,0.0015385489678,0.00077220442472,-0.00183530582581,-0.000798131746706,0.0021125448402,-0.00135899113957,-0.000630841415841,-0.000335192977218,-0.00029902960523,0.000557344174013,0.00218652957119,-0.00127965246793,-0.00186784833204,-0.00149294931907,0.00190943107009,0.000719560019206,-0.00105652608909,0.00155916274525,0.00178332044743,0.00171000952832,0.00206735543907,-0.00122266286053,0.00125860341359,-0.000194733162061,0.00168772460893,0.0011275758734,0.00136423716322,0.000770641199779,-0.00159185286611,0.000222202797886,0.00239179097116,0.00215846113861,-0.00225438643247,-0.00165410141926,-0.00181737728417,0.00111518555786,0.00156823499128,-0.00141378934495,2.88823848678e-05,0.00168133131228,0.00114884960931,0.000208435885725,0.000445855752332,4.1258364945e-05,-0.000999075709842,0.000320876250044,0.000932127819397,0.00184230681043,0.000672582595143,0.00128860550467,-0.00167750846595,-0.000189709564438,-0.00242139352486,-0.00125011149794,0.0011175632244,0.00242702709511,-0.00197801110335,-0.00048611452803,0.00148081663065,-0.00146055105142,0.000271838071058,0.0011501807021,0.000572375196498,-0.00153956306167,-0.000713660963811,0.00140048074536,0.000267601775704,-0.00244163651951,0.00128796021454,-0.00229318649508,0.00121266872156,-0.00146822514944,0.00226054131053,-0.0006516976282,-0.000854073092341,-0.00173269817606,-0.000959321449045,0.00185872940347,0.00244935438968,-0.000649877707474,-0.000253600795986,0.00109589518979,0.00190583290532,0.000459163362393,-0.000535308558028,-0.000431201420724,0.000965353683569,-0.00245156232268,0.000590160023421,-0.000713125802577,0.00145183084533,-0.00200854567811,0.000435268302681,-9.38966622925e-05,0.000702360528521,-0.00214739888906,0.000394711038098,0.000303419568809,0.000299350765999,0.000510700047016,0.000870849529747,0.0015050865477,-0.00113590899855,0.00160408241209,-8.60801264935e-06,-0.00208717002533,-0.00217850180343,-0.000818015367258,0.00140593468677,0.00102488219272,0.0014242825564,8.52208613651e-05,-0.000295111240121,-0.00173978228122,-0.000847849529237,-0.00032560704858,-0.00203021080233,-0.00137874879874,0.000484730844619,0.00116297113709,0.00245928927325,0.00213736575097,0.000703543308191,-0.000388632033719,0.000672020076308,0.00140965881292,-0.00188346812502,-0.000444609293481,0.00167688622605,-0.000573271361645,0.000354681600584,0.00043313196511,-0.00155707437079,-0.000679852673784,-0.000816668267362,-0.00233816611581,-0.00234806048684,0.00163688778412,-0.00111987011041,8.92166863196e-05,-0.000993266818114,0.00217470270582,-0.00118784350343,-0.00034713576315,0.0018393821083,0.00168740388472,-0.00154905440286,0.00149351090658,-0.000206343029276,-8.40467109811e-05,-0.00180873530917,-0.00206968467683,0.0011248550145,-1.74638171302e-05,-0.000311634707032,0.0011325974483,0.00131027644966,-0.00168325006962,0.000543948786799,-0.00179948681034,0.00124050793238,0.000774556130636,0.0022533419542,-0.00212714402005,-0.0021858853288,-0.00107488245703,-0.00117595575284,-0.00124863127712,0.00200482085347,-0.0012359614484,-0.00112540263217,0.00128010136541,-0.000248028256465,0.00136553565972,-0.00214486941695,-6.13347656326e-05,-0.00230156467296,-0.00215825741179,0.00200572330505,-0.00178028375376,0.000159992443514,-0.000438733259216,-0.000753343570977,0.0019731328357,-0.00235974811949,0.000808283744846,0.00228679971769,0.000296923244605,0.00215566996485,-0.00220955722034,-0.000400745891966,-0.0011835944606,0.00113907561172,0.00237514730543,-0.0012014969252,0.000760834373068,-0.00148985441774,0.000322397507261,-0.000177989146323,0.00232929340564,0.000535569968633,-0.000742669217288,-0.00190439412836,-0.00172105780803,-0.00135553022847,-0.00122895161621,0.00173025100958,0.000302127620671,0.000115431532322,-0.00190107244998,0.00177724903915,0.00109956366941,-0.00213350821286,0.00102564296685,0.000214856234379,-0.00206413865089,-0.000205781660043,-7.55221117288e-05,-0.00164936517831,0.0021994705312,0.00172708928585,0.000834106293041,-0.000186067190953,-0.000435427180491,0.000745037163142,0.0002242011833,-0.00216013332829,6.16991746938e-05,0.00151206750888,-0.000201146642212,-0.00221104407683,0.00141275092028,-0.00147373625077,-0.00119117915165,-0.0016546365805,-0.00083786965115,0.00126703991555,9.56670482992e-05,-0.00145637791138,0.00186454912182,0.0018731940072,0.00182876305189,-0.0012890114449,-0.00024062837474,0.00239336956292,0.00134235108271,-0.00233337585814,-0.00214566662908,-0.000177994617843,0.00201945588924,0.000190989041585,-1.07950281745e-05,-0.00194694311358,0.000773692270741,0.00158954306971,-0.000590113864746,0.0013601136161,0.002292140387,-0.00146187935024,0.000115129121696,-0.00105045037344,0.00144520378672,0.000382914586226,0.000664149178192,0.0014701730106,-0.000513374048751,0.00204842304811,0.000162993761478,-0.0016879546456,0.000966740248259,0.00144721195102,-0.000904260610696,0.00176263961475,0.00200427160598,-0.00110095134005,0.00238612433895,-0.00177304842509,-0.00147051934619,-0.00155831512529,0.00194429513067,0.000761416449677,-0.00171682646032,-0.000294497236609,0.00056898285402,-0.00205555814318,0.00188718200661,0.00149824947584,2.56948442257e-05,0.00230521755293,-0.000405840371968,0.00238903029822,0.000828666379675,0.000664587656502,-0.00164847518317,0.00188477069605,-0.000357830285793,-0.00166684028227,-0.00240522739477,0.000294887606287,0.000135214067996,0.0010824855417,0.00192587985657,-0.00207558134571,0.00114240928087,-0.00154258706607,0.00176756363362,0.00157454272266,0.000201312621357,0.00103752466384,-0.0009161613998,-0.000142283184687,0.00158724212088,-0.000201021699468,-0.00070174963912,-2.85609257844e-05,0.00161987333558,-0.000813229824416,-0.00160994997714,0.00104626547545,0.00160866603255,-0.00197080941871,-0.0012836920796,-0.00176682812162,-0.000750392093323,-0.000245012372034,0.00122793007176,0.000745896424633,0.000596768921241,-0.000728513114154,0.00168500549626,-0.000141694617923,0.00236432929523,0.000661976460833,-0.00184434163384,0.000869416573551,-0.000863092078362,0.000919503858313,-0.00212377286516,-0.00160442374181,0.00175552361179,-0.00134633830748,0.00166326027829,-0.0010892477585,0.000705106242094,0.000958111369982,6.24497915851e-05,-0.000960770004895,-0.00141806784086,-0.00230365828611,-0.000967502593994,0.0007558412035,0.00216298527084,0.00183185259812,0.0013129998697,0.00142345530912,0.000814182043541,-0.00118295755237,0.00200946186669,0.000842544832267,0.00029826775426,-0.00191972346511,-0.000261274952209,-0.000195627493667,0.00179908063728,0.000230203746469,-0.000590209907386,0.00235295621678,-0.00192105025053,-0.00038221484283,-0.0022600570228,0.0011838999344,0.00206316099502,-0.00108549115248,0.00176837609615,-0.00102537975181,0.00202710484155,0.00125327357091,0.0015046808403,-0.0023785836529,0.00228391727433,0.00111859594472,-0.000963531492744,0.00162552576512,-0.00107816839591,0.00183949852362,-0.0019118724158,0.0010051674908,0.000200842419872,-0.0019910573028,-0.0012737250654,-0.00240623159334,-0.000154126595589,-0.000980733660981,0.000485383177875,-0.0010006086668,-0.000987376784906,0.00120013125706,-0.00222986447625,0.00198824168183,0.00173838273622,0.000828097341582,0.00046003801981,0.00193596887402,-0.00155286036897,-0.00207774015144,-0.00128548813518,0.00145371083636,-0.00229635019787,0.000408642459661,0.00244492874481,0.00175532046705,0.000105832077679,-0.0021533833351,0.00163529114798,0.000488447840326,-0.00190026254859,-0.00200426881202,0.00202146242373,0.000834984355606,0.00162499351427,0.00187021843158,0.000354188523488,8.60957952682e-05,-0.000343332940247,-0.000903348089196,-0.000322761625284,0.00135156547185,0.000502980721649,0.00193705852143,-0.00027941330336,0.000528475095052,0.00064798805397,0.00045251523261,0.000999975018203,-0.00129573640879,6.10138595221e-05,-0.00195310625713,-0.000569923664443,-6.08616355748e-05,0.000751209678128,0.00222332030535,0.000496701744851,0.00120210868772,3.09223032673e-05,0.000661788391881,-0.0021174014546,-0.00121205009054,-0.00068173953332,-0.000135742215207,-0.00224217260256,-0.00177644076757,-0.00110139639582,0.00232696114108,-0.000832283636555,-8.86253692443e-05,-0.00149972375948,0.000546687224414,-0.00108230381738,-0.00144595885649,8.1784062786e-05,-0.00244027352892,-0.00242962292396,-0.0013863639906,-0.00228622811846,-0.00193434907123,-0.000795204658061,0.00149322650395,0.000355551979737,6.25138127361e-05,-0.00101910950616,0.00213065627031,-0.000508219236508,-0.00203765090555,0.000577710161451,-0.00190566433594,-0.000763806456234,3.65770865756e-05,0.00184674630873,-3.18469028571e-05,0.000998124363832,0.00243199593388,-0.00181855994742,-0.00111167470459,-0.000520255242009,-0.000385769177228,-0.000439101044321,0.00201151473448,0.00105622713454,0.000532500154804,-0.000940724276006,0.00159786932636,0.00224567274563,0.0015850776108,-0.0024597204756,0.000673125497997,-0.00221509672701,-0.0011961812852,-0.00217369641177,0.00051221891772,0.000920800317544,-0.00190246035345,-0.000573242083192,-0.000215967927943,-0.000646208703984,-0.00187019922305,-0.000399983575335,0.0012395355152,-0.0021170291584,-0.00207176455297,-0.000716687412933,0.00217986688949,0.000831887125969,0.000881716259755,-0.000681409379467,0.000462205527583,-0.00241744774394,0.000671618734486,0.00203952472657,0.000555537466425,0.00184416072443,0.00110528199002,-0.00187250168528,0.00198606192134,-0.00213955109939,0.000167625679751,-0.00176601321436,-0.00240967329592,-0.000384752202081,-0.00101145112421,-6.90859960741e-05,0.000380972807761,-0.0022515966557,-0.00186043651775,0.000289393676212,-0.00077395158587,0.00113094551489,0.000751542218495,0.00170551880728,0.000949930574279,-0.000345782289514,0.000853570934851,-0.00110846874304,-0.000955821189564,0.00142610946205,-0.000264413683908,0.00147247361019,0.00159111828543,0.00176453008316,0.00205604825169,-0.000340580212651,-0.000893871998414,0.00040564162191,-0.000635749660432,0.000498789711855,0.00101454323158,0.000929757661652,-0.00061906746123,-0.00164400762878,-0.000342829938745,-0.00176375790033,0.00192508520558,-0.00076057750266,-0.00170520250686,-0.00234186230227,0.000719617179129,0.000675597635563,-0.000786600576248,-0.00211355392821,-0.000445971294539,-0.000931620539632,0.000874070508871,0.000522008747794,-0.000668214808684,-0.00139216869138,0.00240840297192,-0.000226996853598,0.000929112255108,-0.00177383085247,-7.11132161086e-05,-0.0023315534927,2.69203956123e-05,0.00228987401351,-0.000571426935494,-0.0022750031203,-0.00231468072161,-0.000552772777155,-0.00167773885187,-0.00235220394097,0.00126438552979,-0.000204684314667,-0.00104005343746,0.00197436567396,-0.00189431128092,0.0022499084007,-0.000918053439818,0.00191672868095,0.000508011551574,0.00161226419732,0.00238855089992,-0.00104419549461,0.00227565201931,-0.000545394490473,-0.000564985908568,-0.000787671771832,0.000204341908102,-0.00170675548725,0.000265060167294,0.000205808581086,0.00129245617427,0.00164652522653,-0.000293915276416,-0.000975463306531,-0.00118765537627,-0.00150699715596,-0.00218295957893,-0.000777501612902,-0.00113380188122,0.00230171764269,0.000284786598058,-0.000753670698032,0.000397098599933,-0.00178052391857,-0.000276137841865,0.000622952240519,-5.47879571968e-05,-0.000484710617457,0.00243708654307,0.00187681079842,0.000608994567301,0.000342369516147,0.000595445977524,-0.00147399131674,-0.000517483509611,-0.00227271555923,-0.000120677570521,0.000212321509025,-0.00134352454916,0.00228993035853,0.00202061259188,0.00109625200275,0.000164759272593,0.00182575639337,-0.0018226893153,0.00143363326788,-0.00185146729928,0.0014518967364,-0.00110656197648,0.00186089985073,0.00219129794277,-0.00173315254506,-0.000184191711014,0.00237361877225,-8.18824482849e-05,0.00179406628013,0.000437880138634,-0.00061523297336,-0.00105713412631,-0.00146456086077,0.00129194476176,-0.000559909909498,5.5643144151e-05,-3.78728982469e-05,0.000381363352062,0.00180408230517,0.00237239478156,-0.000456061592558,0.00161626923364,0.00130541506223,0.000362857157597,0.00225054170005,-0.00147812475916,-0.00192823738325,0.00174676266033,-0.000300288840663,0.00171225250233,0.00193985621445,-0.00215922272764,0.00189235573635,-0.000255039689364,5.14831663168e-05,0.000624719890766,0.00210415036418,-0.00237310817465,-0.000114274895168,0.000926387263462,0.00109903386328,0.000950125977397,-0.0018040217692,-0.000989960273728,-0.000697223062161,0.00150236359332,-0.00109179527499,-0.0014276385773,0.00225745467469,-0.00242370460182,0.00245669018477,0.000872593314853,0.00162095925771,-0.00101353030186,-0.0023967998568,0.00117385946214,0.001648966223,0.00118672277313,-0.00176249386277,0.00125063839369,0.00132710381877,0.000782379705925,0.00131325237453,0.00170708354563,0.000560623593628,-0.00203018961474,-6.10553761362e-05,-0.00208425335586,-0.000456264795503,-0.000458419090137,-0.00214169290848,-0.00074605375994,-0.0019196808571,0.0015211062273,0.00220929039642,-0.00211057043634,0.00224594259635,0.000111412991828,-0.000989120919257,-0.00208813836798,3.08069297716e-06,0.00145340128802,0.00102194864303,-0.00221958430484,-0.00210768170655,-0.000479309470393,-0.00101021851879,-0.0013206533622,-0.0010807182407,0.00149765331298,0.00211819238029,-0.000468307582196,0.00200411234982,-0.000880898733158,-0.000116280833026,-0.00135201623198,0.00069323356729,0.00236371811479,0.00051072682254,-0.000701671582647,0.000729462539311,-0.0018608442042,0.00191798910964,1.52189522851e-05,-0.000249953358434,0.000423733115895,0.000615794386249,-0.00211323844269,0.000901195569895,-0.00127353821881,0.00105583225377,0.00159167312086,0.00150000117719,0.000259086402366,9.95361624518e-05,-0.0017623672029,0.00135880243033,-0.00112806912512,-1.6307718397e-05,-0.00106458319351,-0.0018070160877,0.000639352714643,-0.00219932151958,0.00122703635134,-0.000900188751984,-0.00246677943505,5.49210562895e-05,-0.00223623518832,-0.00110457814299,0.00102140579838,-0.00215807766654,0.00167459750082,-0.00244859303348,-0.00124939589296,0.00118883454707,-0.000906686240342,-0.00196461658925,-0.000689729989972,-0.00113308348227,0.00169124489184,-0.000921107130125,0.00142584939022,0.00193384522572,-0.000326603621943,0.00202302355319,-0.000605421664659,0.00229017506354,-0.00202681031078,0.000922919134609,-3.052701868e-05,-0.000554440543056,0.000654918258078,0.00100601196755,-0.00244591175579,-0.00164354918525,0.00105135841295,0.000821093388367,0.00229989225045,0.00128819223028,0.0022245128639,0.000999514712021,-0.00099658977706,-0.00194747990463,0.0013907692628,0.000711360247806,-0.00222965143621,-0.000690635293722,0.00225425604731,1.97960912374e-06,-0.000331974180881,-0.000208747718716,-0.00143663119525,-0.000647915410809,-0.000642456987407,-0.00220907782204,0.0013204163406,-0.000412041292293,0.00158992165234,0.00172892818227,-0.00142127706204,0.000776521803346,-0.000136786198709,0.00187603093218,-0.00140278798062,0.000877488229889,0.000531744677573,-0.00101016426925,-0.00179333391134,0.000748325255699,0.00117745180614,-0.000909858441446,0.000714732683264,-0.000517517211847,0.00105215213262,-0.00148433900904,0.00192566739861,-0.00104910985101,-0.000652461370919,-0.00218076677993,-0.00191714370158,7.82767165219e-05,-0.00114690407645,0.00165555730928,-0.00239493371919,-0.000596657337155,-0.000802681548521,-0.00237206439488,-0.00185369991232,-0.000426163722295,-3.5212477087e-05,-0.000472319370601,0.000152673979755,0.000469464168418,-0.00241847103462,-0.000177186375367,0.00228731683455,9.39221717999e-05,0.000876151199918,-0.000928430818021,0.00135211681481,0.00134683691431,0.000105093611637,0.00234907492995,-0.00184786773752,-0.00238380930386,0.00133320048917,0.00151577824727,-0.00187423476018,-0.00115682242904,-0.00238082511351,-0.00101999891922,0.00134792458266,8.86331908987e-05,-0.000749631260987,-0.000632952200249,-0.00246076402254,-0.000987962004729,0.000722757482436,0.00234009651467,0.00171270628925,-0.00235100556165,0.00196685199626,0.00139755243436,0.00138362473808,-0.000207286226214,-0.000503332470544,-0.000972588837612,-0.00214324728586,-0.00134112802334,-0.0012504827464,-7.85778756835e-05,0.00122111046221,-0.000129245570861,-0.00218198820949,0.0022591415327,0.0021847949829,0.00140737846959,0.00242464826442,0.00021951533563,0.00228371005505,-0.00209434167482,-0.000662850448862,-0.00135521264747,-0.00150102970656,-0.00177259719931,0.000604097614996,0.00138829182833,0.000386393832741,-0.00174219952896,0.00153536093421,0.000670921290293,-0.000551889708731,0.000859313528053,-0.0011848420836,-0.000763959134929,0.00206024595536,-0.00103383685928,-0.000148104532855,0.00192530278582,0.00102508161217,-0.00216047815047,-0.00174052000511,-0.00242874654941,0.00064608437242,-0.000258225802099,-0.0018048126949,0.00225985352881,0.000146367412526,-0.00127372774296,2.97855604003e-06,0.000886406225618,-0.00209121196531,-0.00111181149259,0.00151484028902,-0.00019904934743,0.000229852987104,-0.000331545510562,-0.0022508027032,-0.0016494874144,-0.000268745905487,-0.00143513712101,-0.00222080317326,0.00169587263372,0.00237463135272,0.00144662731327,0.00174588896334,-0.0012733140029,0.00227314257063,-0.0014956376981,0.00222775549628,0.00244187773205,0.0010448283283,0.00237439037301,0.000343171035638,-0.0011866344139,-0.000310918258037,0.000461712741526,-0.0021067946218,0.000603750289883,0.00237455870956,-0.00152928405441,0.0014439241495,0.0020129350014,0.00218961760402,0.00227071763948,0.000105900915514,0.00235546100885,0.00126979709603,-0.00166961364448,-0.000113995389256,0.00107743986882,-0.00124684721231,0.000693920184858,0.000822154688649,-0.00166453898419,0.000321188737871,0.00134044839069,-5.44977183381e-06,-0.00240771658719,-0.00242284010164,-0.000705544196535,0.00210321997292,-0.00133894977625,0.000663069775328,-0.00137152441312,-0.00088003865676,0.00171754870098,0.00112940557301,-0.00199665920809,-0.000351847556885,-0.00232349452563,-9.43049890338e-05,0.000801593647338,-0.00188264681492,-0.00104182923678,-0.000504164840095,0.0020703386981,0.00243415823206,-0.00224581174552,0.00128804484848,-0.000633027346339,-0.000530706834979,0.00125476915855,0.00206488766707,0.00222528213635,0.000380591343855,-0.000705091108102,0.00141902256291,-0.00122878025286,0.000316198158544,-0.000697899435181,0.000772956816945,-0.00128110230435,-0.00152195431292,0.00206396309659,-0.00196505431086,2.9401608117e-05,-0.00137756031472,-0.0022753290832,-0.00228969519958,-0.00160274421796,0.00180997059215,-0.00107344309799,0.00222296547145,0.000402796868002,-0.000312801887048,0.000395229435526,8.24046655907e-05,0.00127703184262,-0.00107335753273,-0.000725179852452,0.00194481131621,0.00220321281813,0.00193723093253,-0.000397515133955,0.00138357235119,-0.000116780509416,-1.21405546452e-05,-0.00145737058483,0.000449717859738,-0.00154888420366,-0.000831209355965,0.00175203429535,-0.00144554814324,-0.00211628596298,-0.00212689931504,0.00217522238381,3.41515878972e-05,-0.000447041296866,0.00153415102977,0.00165726337582,-0.000828118470963,0.000955483468715,0.00133796071168,0.000763183808886,-0.00171933928505,0.00185494089965,0.000192927240278,-0.00107347418088,-0.000368990527932,-0.00228203483857,-0.00183643563651,0.00131044350564,-0.00246738665737,-0.000411738292314,0.000111085224489,-0.00219782930799,0.00233458774164,-0.0013515407918,-0.000966257415712,-0.000967521744315,-0.00133036356419,-0.00246017100289,0.00113179092295,0.00230383034796,-0.00136058079079,0.000804619630799,0.00119373132475,0.00171944021713,-0.000381816265872,-0.000972513924353,-0.000862148939632,0.0010492624715,0.00156327115837,-0.00157119939104,-0.000636891694739,0.00198352988809,0.00151349813677,0.0023927220609,0.0012546867365,-0.000527069729287,0.000447287573479,0.00079458730761,-0.00208027334884,0.000219587513129,0.00103297480382,-0.0016417321749,0.00138488609809,0.00041340928874,0.00223166379146,-0.00225809472613,-0.00115808926057,0.000501157017425,-0.0010039540939,0.00105815927964,0.00127816211898,-0.00196153926663,6.83702310198e-05,4.38738970843e-05,-0.000645084772259,0.00213643582538,0.00161620706785,0.000973206246272,0.00105767790228,-0.000188926540432,0.00207756087184,0.000960306671914,0.00112999591511,0.00178490416147,-0.00111493142322,0.00151536054909,-0.00150395347737,-0.000763220130466,-0.000811244011857,0.00236146966927,0.00175947125535,0.000992750748992,0.00112049968448,0.000306322297547,0.00220634229481,-1.84626351256e-05,-0.000589631730691,-0.00166288285982,0.00141239282675,0.00115695456043,-0.00057069491595,-0.00234311725944,0.00167291390244,-0.00241109752096,0.00100523559377,0.00232066609897,-0.000307634356432,-0.0013078765478,0.00101101549808,0.00156499189325,0.000229128418141,0.0023047667928,-0.00221246457659,2.36657415371e-05,0.00107804581057,0.001789590111,-0.00158283766359,0.00148048356641,0.000260103523033,-0.000510496029165,-0.0018174451543,0.00180269370321,-0.00169131834991,-0.000938675599173,-0.00103610183578,0.00183288671542,0.000852269935422,0.00146408949513,-0.00123141298536,0.000616239733063,0.000354058400262,0.00164248060901,0.00200399430469,-0.00240745162591,0.000858768820763,-0.00221164012328,0.000241112036747,-0.00104800867848,-0.000953535840381,-0.000725633348338,0.000598564685788,-0.000818944827188,0.00114834378473,-0.000471146660857,-0.00213012867607,0.00140032311901,-0.00105725869071,-0.000331787916366,0.000915144803002,-0.000826810137369,-0.00218820013106,-0.00062218552921,0.0021933040116,0.000699443393387,0.000846230424941,0.000652797636576,-0.00148544006515,-0.000403013225878,0.00123835983686,-0.00196718005463,-0.00109627167694,-0.00110384018626,-0.00033547898056,0.00237056589685,-0.00213432661258,9.22873150557e-05,-0.00158229935914,0.00232273596339,-0.00190830393694,-0.000475718261441,0.00117393583059,0.00100945320446,-0.000381325517083,-0.00075738603482,-0.000505271425936,-0.00116327020805,-0.00145414890721,-8.36971958051e-05,-0.00114226003643,-0.00104885292239,0.000773573643528,0.00231217918918,0.000511438003741,-0.00208755908534,-0.00209444737993,0.00222772313282,-0.0010003473144,-0.00201310380362,0.00048877397785,0.000610192888416,0.000732854648959,-0.00114784494508,-0.00239287456498,0.00229479884729,-0.00122931494843,0.000868670002092,0.00101969530806,0.000542874273378,-0.000923281069845,-0.0011296144221,0.00048198204604,0.00180664099753,0.00220458093099,-0.00194481073413,-0.00170338212047,0.00219472358003,0.00116727489512,0.00189003162086,-0.00146747461986,0.000432226457633,0.000992601388134,0.000888831971679,-0.00045326113468,-0.00239147199318,0.000409230822697,-0.00121841626242,-0.000245489733061,0.00225811102428,-0.000498249428347,0.00167688285001,-0.00153701729141,0.000851073244121,0.002353976015,-0.00196461309679,-0.00242638611235,-0.000327761488734,-0.00201034755446,0.00122574891429,0.00204575131647,-0.000325599103235,-0.00119073106907,-0.000323712272802,0.00110269000288,-0.00242276280187,0.000441445416072,0.000559081789106,0.000679476070218,-0.0012730921153,0.00105632620398,-0.00201643723994,-0.00148406717926,0.00186277239118,0.00117807206698,-0.00239961128682,-0.00124173494987,-0.00140937208198,-0.0011310451664,-0.00124576431699,-0.00215888372622,-0.000202623952646,0.00114851363469,0.000526709132828,0.00085310236318,-0.00206698197871,0.00222805608064,0.00167041935492,0.0015055865515,0.00159388897009,0.00213537784293,0.000218388362555,-0.00147907470819,0.000576314050704,0.001198592945,0.00117409566883,0.000105848535895,-0.00212960783392,-0.000636043201666,0.002076436067,0.000416745926486,0.000189163853065,-0.00114068202674,-0.000649189867545,0.00195098866243,0.000821476511192,0.00141822278965,-0.00022530023125,0.000642755476292,-0.00124169874471,0.00101392623037,-0.000357279321179,-0.000283531466266,0.000736888963729,0.00215299613774,-0.00215157982893,0.00160257157404,-0.00102456612512,-0.000276751205092,-0.00235930411145,-0.000981815392151,1.29848876895e-05,-0.00219022133388,-4.3941578042e-05,0.00210774317384,-0.00194734032266,0.00130498537328,-0.000445763231255,0.000765764911193,-0.00118320551701,-0.00168036762625,-0.0016755789984,-0.00211957423016,-0.00155129830819,0.00081040430814,0.00188360048924,0.00155017513316,0.000913617084734,-0.00192247517407,-0.0010403363267,-0.000938581768423,-0.00123393442482,7.40512477932e-05,0.000175454100827,-0.000706251710653,-0.000721534132026,0.00162138510495,0.00142762786709,-0.000948506058194,0.00204199971631,0.00223459140398,-0.000855006161146,-0.00071839656448,2.78039169643e-05,0.00217688176781,0.00185709423386,-0.00196128268726,-0.000529361772351,0.000263380847173,1.54584013217e-05,-0.00151075155009,0.00177072058432,0.000873182958458,0.00166754005477,0.00177046156023,0.00122560828459,-0.000299988867482,0.000545535876881,-0.00167605874594,0.000856920727529,-0.00158284930512,0.00095711951144,-0.00133440282661,-0.0018873414956,-0.00165178359021,-0.00245761312544,0.0010794554837,0.00114687310997,7.3694413004e-05,-0.00167113670614,-0.00205511273816,-0.00237304461189,-0.00164949533064,0.00192882830743,-0.00127548677847,-0.000719154661056,-0.00194757583085,-0.00137011590414,9.4871102192e-05,0.000531747413334,-0.00125665788073,-0.00218254234642,-0.000537740590516,-0.00131167657673,-0.00138397002593,0.00226937141269,0.000573929864913,0.000280688749626,-0.00041564044659,-0.000350651767803,0.000201861621463,0.000969359127339,0.000997568364255,-0.0016201537801,5.56418854103e-07,-0.000434476940427,0.00182850915007,0.000648537650704,0.000160403928021,-0.00189798441716,0.000521311187185,-0.00188905582763,-0.000803367351182,-0.00176253495738,0.000947861932218,-0.00144961290061,-0.000533661863301,0.00195261079352,-0.00145916559268,3.851711881e-05,-0.000398385309381,-0.0023780039046,0.00144472857937,-0.00212671025656,-0.000127048595459,0.00029944058042,0.000633770192508,0.000930876005441,-0.00121757318266,-0.00241819978692,0.00110266951378,0.000175961322384,0.00165870320052,0.00158601556905,0.00169427623041,-7.35561843612e-05,-0.000821025227197,0.00143880711403,-0.000240358102019,-0.00156217732001,0.00175175711047,0.00188789016102,-0.000166257581441,-0.00209387438372,-0.000553565681912,0.00149792432785,0.00198270985857,-0.00146332883742,-0.00213693664409,0.00186218228191,-0.000545774237253,0.000206085678656,0.00230985227972,-0.00213895458728,0.000731932756025,-0.002101741964,-0.00061454687966,0.0014992908109,-0.000328307098243,0.00245353928767,0.000291450967779,-0.000882544787601,-0.00138121924829,-0.000737664406188,-0.000629034009762,-0.00212834961712,-0.000643636740278,-0.000176478904905,0.00109918590169,0.00077344244346,0.00103023508564,-0.00242617027834,-0.00139327975921,0.000797893851995,-7.90106787463e-05,-0.00244122254662,0.00150264694821,0.00134628475644,0.000238943146542,-0.00213945494033,0.00131522188894,0.000413117173593,0.00139144097921,0.00124234321993,0.0014952813508,8.88677896e-05,-0.00177495821845,0.000844642985612,0.000594524666667,0.00119549233932,-0.00162910029758,-0.00150526326615,0.00192662724294,0.00123361242004,0.00201456178911,0.00127673114184,0.000479450565763,0.000760627794079,0.00192030274775,0.000388902524719,0.000653336348478,-0.00169524899684,-0.000128695857711,0.00106789555866,-0.00113037216943,-0.00146934227087,-0.000918743840884,-0.00127566547599,-0.00140687427483,-0.000370852678316,0.00201263744384,3.48385656253e-05,-0.00154007796664,-0.0020875975024,0.00096800859319,-0.000578374951147,0.00158819975331,0.000787167809904,0.00146191834938,-0.00112542079296,0.000949269742705,-0.00116432772484,0.00216675386764,0.000672991795,-0.000866014626808,-0.00113743310794,-0.00152524269652,0.000960531353485,-0.0013881069608,0.000470310944365,-0.00116149976384,0.000799298635684,0.00155419227667,0.0013720234856,0.00128727208357,-0.00154105492402,-0.00203127413988,0.000981790246442,-0.000649691792205,-0.000333863805281,-0.00231372681446,-0.00118646328337,-0.00230125477538,0.00187123939395,-0.0012663085945,0.000282952503767,-0.00227508554235,0.000823373207822,-0.000873340235557,0.00196368666366,0.00191531982273,-0.000862171233166,0.00197869725525,0.00244848267175,0.00160588987637,0.0017019015504,-0.00123861373868,0.000378517754143,-0.00213554361835,-0.00199903454632,0.00246197916567,-0.000855515885632,0.00122475984972,0.0015133577399,0.00176680472214,0.00245574000292,-0.00127568596508,-0.00226831715554,-0.000438259914517,-0.00182551052421,-0.00235677487217,-0.000688778003678,0.00140021648258,0.000326594308717,-0.000923919666093,0.000761660514399,-0.00132246024441,-0.0023964731954,0.00130455440376,0.000610658258665,0.00129443407059,-0.00227528926916,0.00166364759207,0.000589848437812,0.000312848947942,0.000614956370555,0.00179843732622,0.000429021922173,0.000399481068598,0.00242144661024,0.0012669346761,-0.00028477361775,0.00102348101791,-0.000546635244973,-0.00133796921,0.000477953173686,0.00211303075776,0.00211775559001,-0.00078017974738,0.000136585193104,-0.00142304459587,0.00244588404894,0.00237426301464,0.000737809808925,0.00150224927347,0.0010614952771,0.000459725386463,-0.00220417766832,-0.000223232913413,0.00086255086353,0.0008760986384,-0.000626125663985,0.00217970041558,-0.00164155580569,1.77382685251e-06,0.000941991049331,0.000972843146883,0.000733516586479,-0.00110892753582,-0.00169658206869,0.000670850276947,0.00049004482571,-0.00158234219998,0.00101233867463,-0.000221221198444,0.000827879761346,0.00166486878879,-0.00162985327188,-0.00237296614796,0.00137734005693,0.000541344517842,0.000985198887065,0.00166875694413,0.00149433803745,0.00227458938025,0.000177335590706,-5.67727656744e-05,-0.000484175689053,-0.00170899590012,0.000358308578143,-0.00110041827429,0.00207910547033,0.000410537293646,0.000458155904198,-0.000715930538718,-0.00221088249236,-0.00231079221703,-0.000378332479158,-0.0020501234103,0.000527277763467,0.00188005913515,0.00188964174595,0.00078487128485,-0.0014250385575,0.00179134868085,0.00190532789566,-0.00149698054884,0.00117167120334,-0.00105350208469,0.00149349612184,0.00245381332934,-0.00231926911511,0.00196095602587,0.000605167937465,0.00233609019779,-0.000172674117493,0.00171432050411,-0.00215953635052,-0.000812879472505,-0.00213672500104,0.00234576524235,0.00156423076987,0.00173978204839,0.00216130935587,-0.00204746774398,-0.000564563088119,-0.00211689481512,-0.00142720364965,-0.00133554963395,-0.00015245245595,-0.00114211975597,-0.00196912838146,-0.00164089421742,-0.00174065562896,0.00233458098955,0.00127957947552,0.00230835052207,-0.000297373946523,-0.00109372672159,0.00147204357199,-0.000857417471707,-0.000990020576864,-0.00132005300839,-0.00182749284431,-0.00120182754472,-0.000713980873115,0.000858641928062,-0.00215869350359,-0.00142861588392,0.00152499706019,-0.00174240081105,-0.000776528613642,0.00179955095518,-0.00170290493406,-0.00205914699472,-7.63032658142e-05,-0.000975037575699,0.000312913180096,0.00149924308062,-0.00179063156247,0.000398240954382,2.71851167781e-05,-0.00175643130206,0.000611918629147,-0.00111705914605,-6.00362764089e-05,-0.00206143921241,-0.000199448157218,-0.000955081137363,0.0015909151407,-0.00218626041897,-0.000401664001402,-0.00020513626805,0.00111037981696,0.00036660087062,0.000825174152851,0.00136720726732,0.00178743118886,-0.000918503617868,0.000187637793715,0.00167839531787,0.00241538649425,0.00192223419435,-0.000634294643532,-0.00150431913789,-5.23466405866e-05,0.00119247357361,-3.66708045476e-05,-8.30005592434e-05,0.00166912924033,-0.000683956837747,0.00177554646507,-0.00045990786748,-0.000847650400829,-0.000227054639254,0.00129514641594,-0.00184563815128,-0.00149813713506,0.00222782976925,-0.0016014125431,0.000334226730047,0.000391408015275,-5.1202117902e-05,0.000714301597327,-0.00133327487856,0.000259882392129,-0.000630810682196,0.000797809858341,-0.00177052163053,0.000349772104528,-0.00155315559823,-0.00109237176366,-0.00138813559897,-0.00156516011339,0.00160734704696,-0.00105750921648,0.00210780813359,0.00231903488748,0.000351662456524,-0.0017617495032,-0.000619090395048,0.00146927544847,-0.000654411909636,-0.00203802390024,0.000280227191979,0.00170313275885,0.00146036362275,-0.00160323095042,0.000852574012242,-0.00137928011827,-0.001390614314,0.00184600229841,-0.00123535573948,-0.00116834789515,-0.00246421969496,0.00182921020314,0.0014439226361,0.000628354027867,0.00123503350187,-0.0017171013169,-0.000205668402486,-0.000734215660486,-0.00200466741808,-6.84445039951e-05,0.0020763031207,-0.00226975674741,-0.00102911703289,-0.00144325278234,-0.00129221694078,0.00201557879336,-0.000157575646881,-0.000166308629559,0.00128591165412,-0.00170504231937,-6.28440539003e-05,-0.000345515145455,0.000478243397083,0.00246526137926,0.00132970011327,-0.000504021300003,0.00161643768661,-0.00162501737941,-0.00231710914522,-0.00145851424895,-0.000787551107351,5.22148548043e-05,0.000568149436731,0.00202629319392,4.86284334329e-05,6.29516353001e-06,-0.00221950048581,-0.00229515950195,0.000252468686085,-0.000305081630358,0.00167381728534,-0.00167450832669,-0.00234421156347,-0.00025148797431,-0.00129551393911,-0.0022226027213,0.00110836746171,-0.00191674509551,0.000534544582479,-0.00108049495611,-0.00161126046441,-0.000593412783928,0.00148760119919,-0.000532506091986,0.00123752013315,-0.00184818322305,0.00134609639645,-0.00129820464645,0.000875415222254,0.00032462461968,0.00211778120138,-0.000556050741579,-0.00214092619717,-0.00237291376106,0.00161301041953,0.000122067605844,0.00135829858482,-0.0013105799444,-0.000764494354371,-0.00231888471171,0.00227741291746,0.000828409334645,0.00213781860657,-0.00115724897478,0.000550060416572,0.000880877370946,-0.000900371815078,0.0017178801354,0.00220669177361,0.00189921690617,0.00117976882029,-0.00109818694182,-0.00107770040631,0.00228663138114,-0.00241669127718,0.00106618239079,0.00101780169643,0.000605459150393,0.00241863238625,-0.000928353925701,-0.000789720914327,-0.00207788683474,-0.000282284803689,-0.00117919873446,-0.000772869098,0.00165107438806,0.00214906735346,-0.00155087211169,-0.000629154150374,0.00211524381302,-0.00216242624447,-0.00201165513135,-0.00166408868972,0.000469864666229,-0.0017248801887,0.00230990443379,-0.000262957852101,7.49096443542e-06,-0.00125021138228,-0.000143307901453,0.000799025641754,0.00123953109141,0.00125281058718,0.00038438392221,0.00199547014199,0.00156637222972,0.0012685037218,-0.00219303695485,-0.00243350211531,-0.00141904049087,0.000806970638223,-0.000438230461441,-0.000481614173623,0.00189789326396,0.00195205840282,0.00201923423447,-0.00091849087039,0.000942839076743,-0.00112696469296,-0.00152680580504,-0.00155630346853,-0.000779181194957,-0.000345651293173,0.00163319706917,-0.00187579495832,0.00115933280904,0.00015522648755,-0.00104646594264,-3.54345465894e-05,-0.000987263512798,0.000474153697724,-0.000326472829329,-0.00165612110868,-0.00189211964607,0.000230437959544,0.0019858633168,-0.000770051323343,0.00114982947707,0.000782976043411,0.00212967512198,0.00158400542568,0.000328689493472,0.000774927902967,0.00196599261835,-0.000495863554534,-0.000854748766869,-0.00241409265436,0.00161149294581,0.00148530607112,-0.00195197272114,0.000379282573704,-0.00017774628941,-0.00188162794802,0.00237155030482,-0.00140794389881,-0.00213565095328,0.000468061189167,0.0011787803378,-0.00230733933859,0.000783253810368,0.000159356786753,-0.00195784284733,-0.00161605805624,0.000335445540259,-0.00100495235529,0.00216303905472,0.00157294736709,0.00238634995185,-0.00118599750567,0.00231803348288,-0.000339353166055,-0.000752477673814,-0.00221897475421,-0.0022070533596,0.0009475540719,-0.000207615696127,-0.00134958513081,0.000562430708669,-0.00121961755212,0.000383104023058,-0.000694789050613,0.00159669399727,0.00158259971067,-0.000111773253593,-0.000736190995667,-0.000678252021316,0.00150866701733,-0.000847915012855,-0.00143575947732,-0.00204951665364,-0.000164365716046,-8.81760934135e-05,0.00168234633747,-0.00137565587647,-0.000587294751313,0.00152194779366,0.00159704627004,-0.000569431402255,-0.000201718372409,-0.00097076210659,0.00213460996747,-0.00188195030205,0.00214050477371,0.000907360343263,0.000155805042596,-0.00230627530254,-0.000120430064271,-0.000455252768006,-0.00167184718885,0.000771863909904,0.00232507707551,0.0003068948281,0.00105978338979,-0.00212964881212,-0.00040630417061,-0.00189322791994,0.000556634797249,0.00216386048123,0.000798354973085,-0.00208842963912,-0.000717205984984,0.000250018114457,-0.000477658875752,0.00164649588987,0.00155286618974,0.000551873585209,-0.000624470878392,-0.0012073876569,-0.00194496614859,-0.000716063717846,-0.000428483908763,0.00086766644381,0.000780501053669,-0.00212146830745,-0.00051688356325,-0.00157038564794,-0.00169359089341,0.00161519949324,-0.00226059718989,-0.000398823467549,-0.00163737777621,0.00187195220497,0.000281488551991,-0.0013256064849,1.19783908303e-05,0.00114235922229,0.00226076110266,-0.00137956766412,0.00190576387104,0.00214324216358,0.00205498887226,0.000668254680932,0.000640650396235,-0.000477644702187,0.00124555535149,0.000154432476847,0.000875636993442,-0.000353052222636,0.00114240916446,0.00160123058595,-0.00174479745328,0.00164297083393,0.000198858877411,0.00170088768937,-0.000339018384693,-0.000596921658143,0.00204827822745,-0.00122795184143,0.00169864925556,-7.88566831034e-05,6.95594280842e-05,-0.000945187581237,0.000360455072951,-0.000862563203555,-0.00227365386672,-0.00112516141962,-0.00243596406654,0.002360627288,0.0022984102834,-0.000517396896612,0.00112698459998,-0.000760929659009,0.000844325579237,0.00150726304855,0.00220469199121,-0.00049244123511,0.00139804382343,-0.00115511694457,0.00241973507218,-0.00234027393162,0.000510903075337,0.000787144177593,0.000927983783185,-0.00187334476504,0.00216409540735,-0.00157332478557,0.000605774286669,-0.00136856245808,-0.000951365393121,0.000229267709074,-0.000408641208196,-0.00167674862314,-0.00162389199249,-0.000403946294682,0.00126966275275,0.00196391087957,-0.00205228338018,-0.000527520256583,-0.00197274331003,-0.00238556205295,0.000798063585535,0.000505576550495,-0.00166296295356,-0.00131360383239,-0.00235044886358,0.0016529270215,0.00234254496172,-0.00179896643385,-0.00132513977587,0.00181805971079,0.00210455106571,-0.000396629882744,-0.00221762782894,-0.0022730496712,0.000364934297977,-0.000528550648596,-0.00232604751363,0.000410841224948,-0.00241166725755,0.00141814840026,-0.000955232360866,-0.00226877536625,0.000436008325778,-0.000504915951751,0.00233815191314,0.000218115455937,-0.00110916944686,0.00103355734609,-0.00112766143866,0.00199489528313,-0.000618233054411,0.000246095762122,-0.00221787136979,-0.000364583422197,0.0016401768662,0.00150834268425,-0.0013604570413,-0.00135176908225,0.00156586617231,0.00212396797724,-0.0019968484994,-0.000246455019806,-0.000802144932095,0.00182930601295,-0.00205525802448,-0.00142556114588,0.00124590296764,-0.00221431464888,-3.68370601791e-05,-0.000285695306957,-0.000817211635876,-0.000520273810253,0.000147753438796,-0.00167111423798,0.000355291587766,0.00150727434084,0.00128386507276,-0.00170796527527,-0.00173091457691,-0.00114403350744,-0.000685580656864,-0.000451761472505,0.000886785623152,-0.0021877323743,-0.00229633809067,-0.00053340930026,0.000972980749793,-0.00151286227629,0.000698308751453,-0.00118522124831,0.00190529169049,0.00195268553216,-0.00100036500953,-0.00133245065808,-0.000437704962678,-0.00128044758458,0.000850694952533,0.00160909269471,0.000854190264363,0.00160063314252,-0.00050833215937,-0.00169603724498,0.00117426132783,-0.000688542728312,0.000845202361234,-0.00113184645306,-0.00206658476964,0.00243083597161,-0.00169660709798,0.00241030286998,0.00235532294028,0.00144995946903,0.000786734453868,0.000383969076211,0.00180667010136,-0.00103909242898,-0.000159489602083,0.000589176139329,-0.000438265065895,-0.000357846234692,-0.000837526167743,0.000316976831527,0.00173004600219,-0.00147292402107,0.00214387848973,0.000933126430027,0.00159531715326,0.000277294777334,0.00137938361149,-0.0023874968756,0.00157117180061,-0.00226936326362,0.0019241789123,0.00242778100073,-0.00101625407115,-0.00142954546027,0.00130953849293,-0.00121878739446,0.00180400942918,-0.00195992738008,-0.00184586923569,0.00236455933191,0.000857875507791,0.0017118495889,-0.000866914866492,0.000870927528013,0.000465072866064,0.000509034318384,0.000900777231436,0.000371889094822,-0.000350069254637,-0.00110579642933,0.0013254188234,-0.00135081494227,0.00094924698351,-0.00131597265135,0.000618490332272,0.00121930358,-0.00138811545912,-0.00217163050547,-0.00182110327296,0.000523083144799,0.00172447890509,-0.0022453898564,0.00115551031195,-0.000783074705396,-0.000105960090877,0.00211637397297,-0.000829201831948,-0.000171058345586,-0.00239992281422,-0.00206476356834,-0.00119132350665,-0.00232999632135,0.00064832251519,-0.000363215862308,0.000237591186306,-0.00160557974596,-0.00100705260411,0.000808455457445,0.00229621678591,-0.00221864297055,0.00192650291137,0.000379400124075,0.00031543590012,1.37454003379e-06,-0.00212499196641,-0.0020239118021,0.000497989472933,-0.000784851668868,0.00205917120911,-0.000460965238744,-0.00176036602352,0.00105961342342,-0.00101977773011,0.00012569311366,0.000976282637566,0.00197525857948,0.00144193088636,0.000870322110131,0.000886469671968,0.00220058811828,-0.00100758520421,-0.00246195588261,-0.00112537876703,-0.00139217451215,0.000798635534011,0.000659851764794,0.000461221468868,-0.00238728453405,0.00112899404485,-0.000870857678819,0.000814532802906,0.000279208208667,-0.000776105269324,-0.00180332525633,-0.00200149742886,0.00163600582164,0.00206474494189,0.000739187235013,-0.00195700814947,-0.00048348470591,0.00112978927791,0.00138088478707,-0.00188404833898,-0.00246729236096,0.00104687258136,-0.000707681814674,-0.00121160713024,-0.00240379641764,0.000198873065528,0.00173288956285,0.00225836085156,0.000324443972204,7.13650370017e-05,-0.00204770034179,0.000241181798629,-0.000592289783526,0.000528700591531,-0.0005491230404,-0.00128159474116,-0.00199880101718,-0.000913356780075,-0.0019905124791,-0.00159447733313,0.00240494939499,-0.000275842699921,0.000157283604494,0.00184376561083,0.00244557694532,0.000408186548157,0.00154202338308,-0.000854026700836,-0.000958631804679,-0.000480146234622,0.000851304037496,0.000899095612112,-0.00091177271679,-0.00181006791536,0.00065336067928,-0.00183417031076,0.000387351756217,0.000954516523052,0.00098999531474,0.00125085643958,0.00184001948219,-2.02369719204e-07,0.00113625393715,0.000588104128838,-0.00154639687389,-0.00234066857956,-0.0010632640915,-0.000281122280285,0.000577904749662,0.00172701012343,-0.00149899336975,-0.001847869833,0.00228722160682,-0.00193425617181,-0.000106144158053,0.000422247423558,0.000204178140848,-0.00204288493842,-0.00218602269888,-0.00194689515047,0.000422365643317,0.000218837056309,-0.00131395936478,0.000679899996612,0.00157949724235,-0.00226225657389,-9.22851904761e-06,0.000934225681704,-0.00122231291607,-0.000948629050981,0.000560790358577,0.00196376605891,0.00152944237925,0.0004102383391,0.00113611842971,-0.000667085987516,0.00069564912701,-0.000166890065884,-0.00153013051022,0.000995555776171,0.000278646679362,-0.000697686686181,0.00202991277911,-0.00236413651146,-0.000909138878342,-0.00218674074858,0.00131528242491,0.000997377675958,-0.000832257908769,0.000866876740474,-0.000513538136147,0.00126458378509,-0.000226098491112,-0.000432889733929,0.00214534346014,-0.00122938374989,-0.00187304988503,0.00041721080197,0.00231605069712,-0.000602849817369,-0.00216129957698,-0.000793010520283,2.92720505968e-05,-0.00166837207507,0.000780216767453,0.00245633744635,-0.000238160282606,-0.000716898299288,-0.000490013801027,-0.00189921050332,0.00189141230658,-0.000420325843152,-0.000556288170628,0.000788053614087,-0.000286058580969,0.00073151558172,-0.00216421345249,0.00154818955343,0.00217383773997,0.000734140514396,0.00224323198199,-0.00172014255077,-0.000111448578537,0.000502404815052,0.000403361220378,-0.000486275093863,-0.000799035304226,-0.00184158165939,-0.000534238875844,-0.00166473106947,0.00115656841081,-0.00143688672688,-0.00217843079008,0.000258421030594,0.000469948077807,0.00183534936514,0.000379895645892,-0.000762534677051,0.00149532966316,0.000198771827854,-0.00207620463334,0.000324965134496,0.00201352592558,-0.000511685560923,-0.00100510939956,-0.00175943830982,-0.00172007735819,-0.000331765186274,0.00047216922394,-0.00206961599179,0.00216922187246,0.00125905580353,0.000427479331847,0.0016208080342,-0.00207173125818,-0.000114297545224,0.000641994993202,0.00162186531816,0.00139889051206,-0.00110013829544,0.00217569433153,-0.00185381120536,0.00185124238487,0.00232403748669,-0.00159321120009,0.00109587120824,-0.00226863939315,-0.000466727768071,8.03562579677e-05,0.000397975149099,0.00215130159631,0.000850037846249,-9.23912157305e-05,0.00152821163647,0.00222332915291,-0.002358549973,0.00238118856214,-0.00204239157028,0.00155146361794,-0.0010840233881,-0.00181515223812,-0.000296805694234,0.000710409600288,-0.000587489339523,-0.00219816993922,0.000490829581395,0.00198581512086,-0.000576319114771,-0.00139986595605,-0.000283374363789,-0.00222877948545,0.0015815703664,0.00161045533605,0.00043427242781,-0.000724920828361,0.00147939729504,0.000269874348305,0.00160843948834,0.000648734450806,0.00140350917354,0.000486397329951,-0.000423704215791,0.00225991150364,0.000202892129892,0.000518604996614,-0.00137936219107,0.000620072591119,0.000353375740815,-0.00155528727919,-0.00217338837683,0.00051500153495,0.00130129186437,0.000115483147965,-0.00134834647179,0.000821767316666,-0.00207213126123,-0.000287044153083,-0.00166124734096,-0.00155715923756,-0.00146914599463,-0.000559088017326,-0.00221502338536,-0.000504377938341,5.77749415243e-05,-8.2440834376e-05,-0.000578447361477,0.0016736505786,-0.00175027304795,2.8112792279e-05,-0.00216127652675,-0.00211629876867,0.000364519713912,0.000325793545926,0.00186555308755,0.000285600108327,0.00226901727729,-0.00222714035772,-0.00198378716595,-0.00224998383783,-0.0015531234676,0.000203663381399,0.000718382420018,-0.00224248645827,0.00220081652515,0.00168854778167,-0.00100369460415,-0.0020865323022,-0.00162907037884,-0.001840987592,-0.00185905233957,9.15998534765e-05,-0.00125421443954,-0.000700064643752,0.00241565401666,0.000909570197109,0.00221566925757,-0.00176394334994,-0.000581628526561,0.00027009533369,-0.00208865152672,-0.00244677951559,0.000841074332129,0.000699863419868,-0.000440247240476,-5.11053258379e-05,-0.000417279341491,-0.0023489817977,-0.00081242271699,-0.00159356289078,-0.00198173173703,0.00225386419334,0.000490329111926,0.00112839322537,-0.000911159266252,-0.000527306983713,-0.0012982506305,-0.00198892923072,-0.00158394291066,0.00146819849033,0.000876168662217,0.000231588754104,-0.000122928686324,0.00208466593176,-0.00210850522853,-0.0010827104561,-0.000740539922845,0.00139373971615,0.00243050442077,-0.00127976201475,0.00184716482181,0.00163158634678,-0.00135878496803,-0.000496782420669,-0.000445754267275,0.00235996558331,-0.00157476274762,0.00147631112486,-0.000818240398075,0.00113931926899,-0.00039473673678,0.000386696658097,0.00164140190464,0.00150102307089,0.00180825742427,-0.00217323913239,0.000947747961618,-0.00177662202623,-0.00041542595136,0.00023977838282,-0.000479969748994,9.67814266915e-05,0.00245030177757,-0.00180016166996,0.000865855952725,-0.000513223581947,-0.00181105558295,-0.00168409582693,0.00221711257473,0.00187329086475,0.00200870656408,0.00242565921508,-0.00143943086732,-0.000713390705641,0.000835076963995,-7.99326517154e-05,-0.000402738514822,-0.000701685552485,0.000462796917418,0.000373045098968,-0.0016706676688,-0.000139460738865,0.000263877242105,0.000346858170815,-0.00143058854155,0.00119558221195,-0.00234308931977,-0.000716388516594,0.00138281809632,0.000315304409014,-0.00117863668129,0.000962071819231,0.000332566763973,0.00146192905959,0.00115982303396,0.000543370260857,-5.83418477618e-05,-0.00181020516902,-0.0011777948821,-0.000399235053919,0.000490030855872,6.76467316225e-05,-0.00104528560769,-0.00243554310873,-1.85590197361e-05,-0.00105791178066,0.00115776574239,-0.00234927190468,0.000418615760282,0.00217862590216,-0.00160675379448,-0.000139906594995,-0.00201628683135,0.000620226142928,0.000249368196819,-0.000457140762592,0.000105493207229,0.00195705145597,-0.0014987536706,-0.00235609058291,0.00178477575537,0.000380564160878,0.00192785577383,0.000478413829114,0.00153061025776,-0.000347054068698,0.00123303080909,0.00203831330873,0.000355918746209,-0.00157528952695,-0.00114095793106,-0.0014871553285,-0.00124923221301,-0.00095531810075,0.000272079079878,0.000434228830272,-0.000362715509254,0.000569588621147,-0.00206488091499,-0.00203421898186,-0.00161948485766,8.9210428996e-05,-0.00141140422784,-0.00106946716551,-0.000491945014801,0.00153902440798,-0.0023990359623,0.000737167778425,0.000833386788145,0.00147383287549,0.00213558739051,-0.00236806599423,-0.00170853862073,0.00190571206622,-0.000204706258955,0.00031874756678,0.000804521027021,0.000883673666976,0.00213059061207,0.00245238980278,0.00108645239379,-0.00105003954377,0.00187403557356,-0.00222454429604,-0.00132708589081,0.00196105404757,-0.00120316760149,-0.00137855578214,-0.00178581115324,0.00177217635792,2.87502871288e-07,0.000863078399561,-0.00128767814022,0.0012734006159,0.00128309824504,-0.000924807798583,-0.000440771196736,-0.00143264594954,0.00235177529976,0.00071853242116,0.00214442540891,-0.000970270310063,0.00139110011514,0.00131198263261,0.000945799169131,0.00229787616991,-0.000525292474777,-0.00182236870751,0.000847364019137,0.00113161816262,0.000370415538782,-0.00144682091195,2.19895737246e-05,-0.000926822656766,-0.000357944576535,0.000716637412552,0.00121010735165,-0.00132144114468,-0.000467208737973,-0.00113916175906,-0.00148721924052,0.00139848422259,0.00201961630955,-0.000640389625914,0.00124003342353,0.00195912737399,0.00170808425173,-0.00156528037041,0.0022517493926,-0.00060858798679,-0.000793329323642,-0.00215935241431,-6.82314712321e-05,-0.00192947406322,-0.00124092784245,-0.00090336764697,0.00152402336244,0.00185299443547,-0.000974806607701,0.00177013513166,0.00176289468072,0.00130602286663,-0.00174352002796,0.000939221936278,0.00219614384696,0.000900816812646,-0.000830952019896,2.85886676465e-06,0.000719136791304,5.21637848578e-05,-0.00187548971735,-0.0009274429176,0.00149229052477,0.00178355758544,-0.00178988371044,0.00223247800022,-0.000844741240144,0.00080100010382,0.00124272890389,0.00153941975441,0.00219972478226,-0.000923221115954,0.00176918925717,-0.00181758392137,0.00101185392123,0.00119413295761,0.00087704428006,-0.00122229906265,0.00184092612471,-0.00163414643612,-0.00220276229084,0.00107316533104,-0.00012102459732,0.00172275968362,-0.000575422076508,-0.00163700804114,0.00166030460969,0.00024136355205,-0.00153378397226,0.00108757033013,5.48445605091e-05,0.000514772895258,-0.000192962324945,0.00162214203738,0.00162635510787,0.00103331042919,-0.00194730004296,0.00167220586445,0.000843929941766,0.000972292211372,-0.00067616434535,0.00187170214485,0.00111218367238,-0.00191182270646,-0.000455105066067,0.00190674385522,-0.00223453366198,0.00227703945711,0.000884147244506,0.000648325716611,-0.00113226438407,-0.00123968441039,0.00218150787987,-0.0009955028072,0.00135958776809,-0.000527431955561,-0.00178024079651,-0.00241456530057,0.000218405009946,0.00234791520052,-0.000645798223559,-0.000704739824869,-0.000769390433561,0.000101381534478,-0.00029281215393,0.00187483616173,2.72444885923e-05,3.82840626116e-05,-0.00178459566087,0.0023822656367,-0.00123385584448,-0.00210540066473,0.000805108458735,0.000470622355351,-0.000418746698415,-0.000383972626878,0.00140675855801,-0.00150162400678,0.00158041424584,0.000734050350729,-0.000399875105359,-0.000207124074223,-0.00120091880672,0.00124415603932,6.35354153928e-05,-0.00088406278519,0.000473996566143,0.00244639394805,-0.000319473416312,0.00207606493495,-0.000764824566431,-0.00219734432176,-0.00145953206811,-0.000401230354328,-0.00138357025571,-0.00246632355265,0.00204798602499,0.00169700640254,0.00119568500668,-0.00163929781411,-0.00187346327584,-0.00213382206857,0.00110555894207,0.00211611925624,-0.000342797953635,-0.00187949812971,6.11571813351e-05,-0.000745997589547,-0.000617724959739,0.000598753045779,0.00107934942935,-0.00192162767053,-0.00229181023315,0.00243946467526,-0.00131895567756,-0.00220179650933,-0.0015304305125,-0.00227519148029,-0.000533901096787,0.0014923189301,-0.000783440889791,-0.000275448634056,0.000866501068231,4.38912393292e-05,0.0017836940242,0.00180634506978,-0.00241853576154,0.00137212744448,-0.000193775282241,0.00241237343289,-8.27478288556e-05,0.00240277708508,0.00125627126545,-0.00124060676899,0.000189474929357,0.00242863432504,0.00176437350456,-0.00198694923893,0.00101842265576,-0.000762047478929,-0.00243298732676,-0.000476310611703,-0.00130895723123,0.0015735841589,-0.00080275523942,0.00161629274953,-0.00246449327096,-0.000948390981648,-0.00127732066903,-0.00131481525023,-0.00213095080107,-0.00154400675092,0.000274130899925,-0.00102960970253,-0.000407647516113,-0.000607648165897,0.00185504870024,0.00200010510162,-3.4756558307e-05,-0.000838161387946,-0.0019403945189,0.0022374924738,-0.00217023072764,-0.000998573261313,-0.000996520742774,-0.000886299530976,-0.00165670679417,0.00139737001155,-0.00186293083243,0.000665749248583,-0.00185627769679,-0.00211935862899,0.00202048872598,-0.0015291798627,0.00158533360809,0.000220248359255,-0.00208323076367,0.00224758591503,-0.00124871835578,0.00177480955608,-0.00163438555319,0.00174666848034,-0.00240216124803,5.81352360314e-05,0.00132966891397,0.00214566732757,0.0020193667151,0.00157731294166,0.00191568082664,-0.00148431723937,-0.00106502638664,-0.00104141666088,-0.00060672510881,-0.000526450574398,0.000219875539187,-0.00167845527176,0.000943780876696,-0.00164052192122,-0.000936106429435,1.65078454302e-05,0.00146290101111,0.00118175381795,0.00071819574805,-0.00169872038532,0.0002321635111,-0.00203590537421,-0.000605199020356,-0.000426786253229,-0.00227097910829,-0.00111534341704,0.00224857917055,0.0022386261262,-0.000728749437258,-0.0022547498811,-0.00158363056835,-0.000531893107109,0.00220974278636,-0.00177064246964,0.00130042119417,-0.00193110783584,0.00237495219335,-0.000584209337831,0.00135825166944,-0.000776795379352,0.000630031630863,-0.00151986617129,-0.00174684659578,0.00216179760173,0.00206104246899,0.00191211584024,0.000619000056759,0.00152126909234,-0.00212675449438,-0.000815297593363,-0.000919354206417,0.000669394503348,-0.000710832246114,-0.00173457968049,0.000476054206956,0.00155144941527,-0.000581707339734,-0.00181471277028,-0.00149680976756,-0.00129549053963,-0.000987482955679,0.000704677717295,0.000498154666275,0.000967632164247,-0.000678537297063,0.00159889215138,-0.00146029423922,-0.000152780441567,0.00148509885184,-0.00157838128507,-0.00192528183106,0.00189343746752,-0.000775124528445,0.000907378504053,-0.00234235147946,0.000937860109843,-0.0009075194248,-0.00219236919656,0.00054191367235,-0.00127910415176,-0.000558593601454,-0.00206978665665,-0.00174120988231,-0.000996959744953,-0.00202449085191,0.00202738167718,-0.00243760249577,-7.96480162535e-05,-0.00185923161916,-0.000949082139414,0.00210255617276,-0.00166949955747,0.00229883030988,-0.00145187182352,0.00119210174307,0.000230347082834,0.00189735949971,0.000266450661002,0.000170545885339,-0.00150288071018,-0.0016471206909,0.00205532740802,-0.000849599193316,-0.0006312597543,0.00128220068291,-0.000795388070401,0.00223087752238,0.00117414689157,0.000480802409584,0.00187967496458,-0.00222264439799,-0.00119886838365,-0.000172541782376,-0.00134733039886,0.00120364478789,0.00206874473952,-0.000376185926143,-0.000779057969339,0.0022777011618,-0.000272147066426,-5.40449182154e-05,-0.000732091255486,0.00202107592486,0.000340287602739,0.00129380228464,0.0015387312742,-0.000780457281508,-0.000327211047988,0.00171966920607,-0.000674819515552,0.00145053700544,0.00217624776997,0.000608029426076,0.001192403608,0.00150562112685,0.00170273205731,-0.000517900043633,-0.00221446459182,-0.000484229618451,0.000857467530295,-0.000245015282417,0.00122860528063,-0.000705775688402,0.000664947263431,-0.00154748314526,0.00123061030172,0.000225504496484,-0.00146040914115,-0.00102689501364,0.00122685614042,-8.58609564602e-05,-0.00140135304537,0.00230593094602,0.00106161786243,0.00225590914488,-0.000359728437616,-0.000122877027025,0.00196386454627,0.000123615696793,0.00102289824281,-0.00122299906798,-0.000262898916844,-0.0018582327757,-0.00145095563494,-0.00246278848499,-0.00227367528714,0.00235534226522,-0.00127145566512,0.000805920048151,0.00167341902852,0.000250003708061,-0.00171169301029,0.00112572906073,0.000494729494676,0.00114119576756,0.00133116939105,0.00234609702602,0.000363026541891,-0.000781483366154,0.000732655986212,-0.00212969677523,0.00196111132391,-0.00187831209041,-0.000849576317705,0.00155816809274,0.000480225688079,-0.000524896779098,-0.000131092048832,0.00174965173937,-0.000789560435805,0.00182417978067,-0.0020325104706,0.00136596930679,0.00171510863584,-0.00157019426115,-0.000343732070178,-0.00165072118398,0.00101956829894,0.00017443728575,0.00066780555062,-0.00149780279025,-0.00142250186764,-0.0022626593709,-0.000878076825757,0.000294833211228,0.00176636874676,0.000823768263217,-0.000318811915349,0.00223609711975,0.00108195049688,0.00212281709537,0.000136143557029,-0.00118978042156,-0.0022067502141,0.00111570348963,-0.00186882726848,-0.000973282672931,0.000160240291734,0.000317888654536,0.00049636681797,-0.00164699263405,-0.000593482458498,0.000578340375796,0.00231850356795,0.00112333416473,0.00208550225943,0.00129398715217,0.000452612963272,-0.00151983019896,0.000822575006168,0.000608864356764,0.000505673873704,-5.04055969941e-05,0.000141417127452,-0.000817007618025,9.53059789026e-05,-0.00149252777919,0.00150600145571,-0.00155065557919,-0.00204814481549,-0.000314618722769,0.000781229522545,-0.000307360489387,-0.00110169337131,0.000287068280159,-0.000755026354454,0.00213615363464,0.00208570645191,1.17046656669e-05,-0.000849373231176,0.001170221949,-0.00228626979515,-0.000124512123875,-0.000807725708,0.00207529752515,-0.00240821042098,0.00026063551195,0.00118764780927,-7.3934555985e-05,-0.00204598973505,0.00233154417947,8.88794602361e-05,0.000563496316317,-0.00129980128258,-8.14351005829e-05,-0.000349639332853,-0.00209784135222,-0.00194355461281,0.00166538916528,-0.00128395936918,-0.00150534673594,2.42374626396e-05,0.00132623699028,-0.002161744982,0.000379038479878,-0.0018791538896,-0.00228751287796,-0.00220715859905,0.00164906249847,-0.00188526301645,-0.00224462710321,-0.00030645710649,0.00169756927062,-0.00117248808965,-0.000386339466786,-0.00227043079212,-0.000251291843597,0.000383011851227,0.00034991838038,-0.000826955540106,-0.000910323113203,-0.00194126844872,-0.000657335389405,-0.00197644904256,0.0013156211935,0.00230101146735,0.00231976481155,0.00180158496369,0.000497397966683,0.000991249689832,-0.00105998537038,0.000645337393507,-0.000218864515773,-8.87424175744e-05,0.00127209851053,-0.00107620854396,-0.000897954159882,0.00209555961192,-0.00218998338096,-7.08931329427e-05,0.00203712563962,0.00054462911794,0.000229013719945,-0.00123498449102,-0.000773417938035,0.00173731951509,0.000292234850349,7.27510778233e-05,-0.00197602924891,-0.00238834694028,0.00228823442012,-0.000607059511822,0.000509344914462,-0.00207405909896,0.000903648498934,0.00213466817513,0.000373399554519,-0.00184507900849,0.000403286598157,0.00131439371035,-0.000461823918158,0.0018744567642,0.000733733759262,0.00197024876252,0.000609484908637,-0.00181955262087,-0.000939150108024,-0.00147160852794,0.00201751291752,0.00128504517488,0.000870506220963,-0.000982208992355,-0.00155920372345,0.00126555736642,-0.000127527644509,-0.00135319784749,0.000575516431127,-0.00226840097457,-0.000857830338646,-0.000155167712364,-0.0017372862203,0.00239171553403,-0.00143557193223,-0.00182416592725,-0.00146302219946,0.00132778659463,-0.000367621221812,0.00032282032771,-0.00236376631074,-0.00229752948508,-0.000267344847089,0.00156265823171,0.00190111075062,-0.0020395568572,0.000189317608601,0.002039242303,-0.000552841927856,0.0016263704747,-0.00180767092388,0.00214862311259,0.0012407458853,0.00217793579213,0.000871586264111,-0.000674086331856,0.00216237502173,-0.00110755278729,-0.000828209798783,0.000990967033431,0.00130930624437,0.00211905804463,-0.0014567670878,0.00147058698349,0.00117719802074,-0.00215262500569,-0.00055654119933,-0.00107202818617,-0.00096481788205,0.00238328869455,0.000704590580426,0.001074207481,0.00235205469653,-0.00060599547578,0.00148954743054,-0.0003230823786,0.00182360725012,-0.00157591933385,0.0022092810832,-0.00138783012517,-0.00085758237401,0.0012642799411,-0.000524306495208,0.000534011051059,-0.000273523561191,0.00119606847875,-0.00134065491147,-0.0021789604798,-0.000987326027825,-0.000126783867017,-0.00163828383666,-0.000716559123248,-0.000493572617415,-0.00218422175385,0.000411111948779,0.00189669174142,-0.00171860971022,0.000482671603095,0.000812969519757,-0.000398074334953,0.000992394052446,-0.00044052983867,2.28844965022e-05,-0.00243115751073,0.000946117332205,0.00079620804172,-0.00227794004604,-0.00065017095767,0.00236396840774,-0.00039115617983,9.60035686148e-06,0.00202295952477,0.00107216299511,0.000405006896472,0.00146963272709,0.0017981067067,-0.000212752536754,-0.000122837431263,-0.000562325876672,0.00230314256623,0.000972993380856,-0.00205674744211,0.00179116509389,-9.59345125011e-05,-0.00212815124542,0.000245349103352,-0.000408785010222,0.00186415098142,-0.00146075349767,0.00161106628366,0.000284687237581,-0.00219794828445,0.00232850364409,6.22548177489e-05,-0.00103199935984,-0.00015097380674,0.00176598806866,-0.000962781254202,-0.00151660759002,-0.00183049181942,-0.000997541239485,0.00138200598303,-0.000140020711115,-0.0013448477257,-0.00164733966812,-0.000825461291242,0.00217097764835,-0.000774645595811,0.00240883766674,-7.28860468371e-05,-0.00158329016995,0.00193023262545,-0.0001956417982,0.00103470461909,0.00238706241362,-0.00221983436495,-0.00199026730843,0.00108792935498,-0.00107666919939,-0.00155793724116,-0.00227319751866,-0.00235963286832,0.00135455571581,-0.00180403015111,-0.00015929514484,0.00052258890355,-0.000353575858753,-0.00233367574401,0.00139904813841,-0.00241556251422,0.00129239726812,0.00194091361482,-0.000331427465426,0.000175398119609,-0.000113584377686,-0.000546743045561,0.00191189674661,0.00194401782937,-0.00081022788072,0.000567856361158,0.00210674107075,0.00228020688519,4.42118616775e-05,-0.000232804304687,-0.00109211879317,0.00226448127069,-0.00176267139614,0.000393950031139,-0.00107309012674,-0.00109056930523,-0.000468969374197,0.00246148719452,-0.00219619157724,0.000387595093343,-0.00205995957367,-0.00170490099117,-0.000298250117339,5.16195759701e-05,-0.00119033246301,-0.000905763532501,-0.00203827163205,-0.000971088360529,0.00230241357349,0.00219458108768,-0.000814857135992,0.000349656242179,0.00202130735852,-0.00243692751974,0.00153318862431,0.00221265363507,-0.00201676180586,-0.00167071772739,0.00227373139933,0.000185256401892,-0.00239738519304,-0.00119605893269,-0.000247022369877,0.000951983907726,0.00115062040277,0.00244484981522,-0.00104860845022,0.000188611928024,0.000164447978023,-0.000465630088001,-0.00163264898583,0.0023561946582,0.00174358079676,-8.22631864139e-06,0.000509504578076,-0.00134593620896,0.000216084285057,0.000962155754678,7.48475868022e-05,0.00241950247437,0.000549458607566,-0.000636730284896,0.00134303979576,-0.00162623065989,-0.000569901545532,-0.000755240442231,-0.000336524361046,0.00139055191539,-7.81043127063e-05,0.00145092839375,0.000377464166377,-0.000779369671363,0.00152971036732,-0.0012915112311,-0.00136013911106,2.22214257519e-05,-0.0011801822111,-0.00242260051891,0.000731831707526,5.47467680008e-05,-0.000268863484962,0.00230443733744,0.000351360009518,0.00179349409882,-0.00177927268669,0.000341526145348,0.00181593827438,0.000410117616411,0.00107587559614,-0.000631450675428,-0.00201121601276,-0.000207757329918,-0.000520732370205,0.00181140087079,-0.0012633545557,0.00230328110047,0.00226086028852,-0.00124540959951,-0.000749846571125,0.00195202336181,0.00230272836052,-0.000279121682979,-0.00088335952023,0.000128771032905,0.000926620035898,-0.00111787789501,0.00116696860641,-0.00221252068877,-0.00222418131307,-0.000561157474294,-0.000723093398847,-0.000909829454031,-4.43164644821e-05,-0.000884659704752,-0.00151867268141,-0.000940246449318,0.00234359945171,-0.000438645336544,-0.000272836245131,0.000377740943804,0.00238523259759,-0.00127516873181,0.000894606928341,0.00106586026959,0.000529634009581,-0.00203031976707,0.000872844888363,-0.00215114373714,0.000474453205243,0.00118230632506,-0.00142633123323,0.00168586638756,-0.00231765140779,0.00169667799491,-0.000195771688595,-0.00139367196243,-0.0018072638195,0.00223702006042,-0.00210884748958,-0.00148494029418,-0.00075097969966,0.000593345495872,0.000221088339458,-0.00184740743134,-0.00103766890243,-0.00128923077136,-0.0014136339305,-0.000438492745161,0.00100687239319,-0.00139433820732,-0.00065792480018,-0.000538310268894,0.00235125957988,0.00224372767843,0.00148114538752,-0.00127488432918,-0.00213168747723,-0.000903557578567,-0.00115084275603,2.92431595881e-05,0.00137055618688,0.00176828354597,0.00170186569449,-0.000692485424224,0.000923980551306,-0.000923642306589,-0.0021668819245,0.000994701986201,-0.00241894624196,-0.000448173756013,-0.000841994187795,0.000954296498094,0.00131389161106,-0.000966771040112,0.00153784442227,-0.00101699773222,-0.000264873408014,0.00112031097524,0.000952039728872,0.00240510888398,-0.00135629961733,0.000801020709332,0.00054126791656,0.00204846449196,-0.00169581430964,0.00124259572476,0.000336897966918,-0.00111199868843,-0.000126160841319,-0.000820293906145,0.000391402776586,0.00191967445426,0.00034201235394,0.000650035392027,9.25185304368e-05,-0.00221494794823,-0.00131831306498,-3.94705712097e-05,-0.000936467607971,-0.00157046096865,2.0395113097e-05,-0.000874413817655,-0.00119371165056,-0.000177727939445,-0.00180970109068,0.00211087730713,0.00181456864811,0.00102458440233,-0.00194329069927,0.00136142340489,0.00151973497123,0.00132138840854,-0.00190503511112,0.000710169668309,0.00164985540323,0.000381730380468,0.000722503988072,-0.000205471573281,0.000141667405842,-0.00229779817164,0.000685766979586,-0.00206551118754,-0.000320695689879,-0.00102322385646,0.000224181843805,-0.00180904939771,0.000945738749579,0.00145584892016,-0.00166130810976,-0.001952670631,-0.00174934137613,0.00186108227354,0.000139110852615,-0.000161563322763,-0.00194083317183,0.000738042173907,0.00181603676174,0.00161956052762,0.000622065854259,-0.00209595193155,-0.0019127773121,-0.00222410960123,-0.00119681295473,-0.0017979699187,-0.00118413602468,-0.000567225622945,0.00218607042916,0.000544693495613,0.00165305810515,0.00103806110565,-0.00191225367598,0.00116424076259,-0.0011098618852,0.000686481653247,-0.000784834846854,0.00245595700108,-0.0011668469524,-0.00108996639028,0.0021253193263,-0.00234582670964,0.000970638124272,0.0011119605042,0.00165999063756,0.00234130490571,0.00234704231843,-0.00214531063102,0.00158824108075,0.000722023134585,0.0007271169452,-0.00183405156713,0.000741156865843,0.00238099764101,0.00203227857128,-0.000300383369904,-0.00227030529641,-0.000679566233885,0.00161069969181,0.000994375557639,-0.000200634502107,-0.00219552405179,-0.000360766338417,-0.000152858454385,0.0021148736123,0.00069624412572,-0.000929471745621,0.000124942802358,-0.00214146845974,0.00233207130805,-0.000690588727593,-0.000109222128231,-0.000714157416951,0.000900674960576,0.000800597539637,0.00106259144377,-0.00114418717567,-0.000909655413125,-0.00184934318531,0.000767424295191,-0.00227104965597,0.000482051400468,0.00182440783828,0.00192871293984,-0.000251492951065,-0.000200831738766,-0.00208760984242,0.000842706300318,0.0015853792429,-0.0012600987684,-0.000388371350709,0.00167213415261,0.00186104734894,-0.00126737810206,0.000249560427619,-0.00151751190424,-0.00196468364447,0.00202883360907,0.00158166862093,0.00128324318212,-0.00222678761929,0.00169626309071,-0.000305745546939,-0.00077776244143,0.000229355646297,-0.0020166260656,0.00126652198378,0.000406807870604,-0.00154664274305,-0.00153853918891,-0.00155819754582,-0.00218614353798,0.000433275534306,0.00167958019301,-0.00238109240308,-0.00222561159171,0.00035911318264,0.00157667545136,-0.000855024205521,-0.000742136093322,0.000475459179142,-0.00111423409544,-0.00233613466844,0.00116082641762,0.000620068283752,0.000398521806346,0.00119268416893,0.000864744593855,-0.00145143945701,-0.000727989536244,-0.00184510461986,-0.00182661425788,0.000869506271556,0.001769651426,0.00228353356943,0.00063337868778,-0.0015589245595,-0.00194607139565,0.00154388451483,0.000388654385461,0.00058372336207,0.00138898391742,0.00100315036252,0.00165051408112,-0.0021900346037,0.00122148660012,0.00173141912092,-0.00105539965443,0.000693091598805,-0.000917089404538,0.00226003583521,-0.00230250251479,0.000393768743379,-0.00164576771203,0.00104728294536,-0.00159944512416,-0.001305853948,-2.77794169961e-05,0.00204716413282,-0.00142265728209,-0.00175563571975,0.0012780217221,3.05732282868e-06,0.00203211349435,-0.00174391758628,0.000720137846656,-0.00131821155082,-0.00169384886976,0.00090520363301,0.000462323107058,0.00125754496548,-0.000940280850045,-0.000256754050497,-0.000466486701043,0.00238892738707,-0.00102522817906,-0.00101255392656,-0.000717788294423,0.000318764563417,-0.00122225948144,0.00204940931872,-0.00115631555673,0.00195330637507,-0.00195680628531,0.000772619387135,0.0020084278658,-0.00163468439132,0.00231114123017,-0.000232515347307,0.0021995541174,0.000872587144841,-0.000979146570899,-0.00153819215484,-0.000968545558862,-0.0020084134303,-0.00175747170579,-0.0019509565318,-0.000380264973501,0.00145864614751,-0.00176973198541,-0.00182432727888,0.000707805796992,-0.0014943680726,-0.00198574946262,-0.00164406502154,0.00209106691182,0.00158642465249,-0.000720175041351,0.000768958067056,0.000183951284271,0.000874088436831,0.000901461695321,0.000635287957266,-0.00115426362026,-0.00227495166473,-0.00021927295893,0.0019294123631,0.00034296119702,0.00164031260647,0.00242611113936,-0.00166001636535,0.000946401210967,0.000860119296703,0.00236852630042,0.00239638518542,0.000921238039155,-0.00126523233484,0.00147333962377,-0.00193926726934,0.00138521962799,0.0020242719911,-0.000578204053454,0.000644670566544,-0.000344737811247,-0.000307122478262,-0.000935798452701,0.00129358028062,0.00215248251334,0.00217505614273,-0.00160491792485,0.00184931792319,0.00117169762962,-0.00121971976478,-0.00213540205732,-0.00114490755368,0.00203420151956,0.000657221826259,0.00109088001773,-0.00119842600543,0.00108265597373,-0.00232866755687,-0.000615275232121,0.00062551361043,-0.00174647383392,0.00159398652613,-0.0013075908646,0.000751490239054,-0.000467841484351,0.00047396440641,-0.00193718762603,-0.00238398136571,0.00202115462162,-0.00113685010001,0.00157757021952,0.00246423785575,-0.00142405449878,-0.0011588560883,0.000803694827482,0.00229693693109,0.00205199723132,1.41903692565e-05,0.0014563362347,-0.00179755350109,0.00235610408708,0.00229153130203,-0.00165945990011,-0.000989824417047,-0.00197319034487,-0.00112654804252,0.001559206401,-0.000600498868152,-0.0020312150009,-0.000778599351179,0.00237557291985,0.000639974023215,-0.000413736357586,-0.00164559506811,0.00239922804758,0.00158335396554,-0.00107838504482,-0.00212166295387,-0.00218800315633,-0.00187339133117,0.00039858391392,0.00211589946412,-1.60708186741e-05,0.00169239751995,-0.000267043476924,0.00102933647577,0.00114426598884,-0.00160895264708,-0.000684883212671,0.000677570758853,-0.00211856421083,-0.000683283666149,0.000171731473529,0.00244881235994,-0.000125674021547,0.00155970477499,-0.000335240358254,0.00146265502553,0.000470861356007,0.0019078052137,-0.00043948853272,0.000514730636496,0.000641627644654,-0.000407705927501,-0.00175528030377,-0.0020057389047,-0.00238517182879,0.0018433497753,-0.00130046682898,-0.00142368185334,0.00116480828729,-0.00088820036035,2.98298800772e-05,-0.00166547007393,0.00226879375987,0.00173501484096,0.00179526105057,-0.000460061128251,0.00129472324625,-0.00175743130967,-0.0024249101989,-0.00236887973733,0.000427369872341,-0.000220121146413,8.89037328307e-05,-0.00243061431684,-0.000381532881875,0.0010761419544,-0.000282800174318,0.00114597578067,-0.00131752155721,0.00154532073066,0.000436398258898,-0.00142735172994,-0.00129925494548,0.000631815986708,0.00162821495906,-0.000416367460275,-0.00119276030455,0.00181116117164,0.000835320097394,-0.000256192317465,-5.97111829848e-05,-0.00145946117118,0.000625756802037,-0.000697089883033,0.00244595343247,-9.77921372396e-05,-6.96529532433e-05,0.000324971188093,0.00205664429814,0.0014845036203,-0.000241167639615,0.0010792564135,0.00042556252447,-3.76677598979e-05,-0.00151838723104,-0.00017797050532,-0.00125435681548,0.00204719952308,-0.000812248967122,0.00223187217489,0.00016312416119,0.000649156805594,0.000211906284676,-0.00182896514889,-0.000612808391452,-0.00197816896252,0.000606764457189,-0.000262169894995,0.00137182476465,-0.00137944694143,-0.00165532890242,-0.000462239957415,0.00210515107028,0.00103840813972,-0.000400102842832,8.52362209116e-05,-0.00205186218955,0.00239132787101,0.000821201421786,-0.0010590068996,0.000423454825068,-0.00192716077436,0.0022988517303,-0.00160489964765,0.000730513071176,-0.00125615368597,0.00107364112046,0.00136608246248,0.000855806923937,0.000565042020753,0.00193679099903,-0.00207943003625,-0.000834416714497,-0.00124217313714,0.00240829424001,-0.000545849034097,0.00114791758824,0.0009115980356,-0.00142084690742,-0.00128801725805,-0.001079336158,-0.000438576942543,-0.0013110761065,-0.00237046624534,0.00187226221897,0.0022977325134,-0.000781832379289,-0.000796950480435,-0.002432446694,0.000889516959433,0.00160600943491,-0.00174394843634,-0.00167950848117,0.00143152836245,0.000573881843593,-0.0022460622713,0.000604755652603,-0.000942969636526,-0.000647826644126,0.00133109430317,0.00153443042655,-0.000491728889756,0.00220664963126,-0.000461596006062,0.00134148041252,-7.95638916316e-05,0.00196177745238,0.00201225606725,-0.00203605182469,0.00215404573828,0.00160647800658,0.00143758580089,-0.00147596909665,0.00150572916027,0.00172786589246,-0.001040519448,0.00223185284995,-0.00222138990648,-0.00172765867319,0.000185458702617,0.000374027353246,0.000716299400665,-0.00238370336592,0.00227185850963,-0.00224740686826,-0.00176144926809,-0.00239828391932,0.000329938891809,0.00213318876922,0.000818930682726,0.00159227848053,-0.00240190280601,0.000207340795896,-0.000199552174308,-5.09307983521e-06,-0.00211108010262,0.000910167873371,1.58923867275e-05,0.00130847992841,-7.25890713511e-05,-0.00173026241828,0.000731631473172,-0.00161673664115,0.00183772551827,0.00055821595015,-0.00169166049454,0.00228158663958,9.06315035536e-05,-0.00210769823752,0.000625906162895,-0.00121793581638,0.00149869313464,0.00156841636635,0.00236355164088,9.22592607822e-06,-0.00022228276066,0.00125087378547,-0.00181371613871,0.000231522804825,0.000228226723266,-0.00202590413392,-0.000404739344958,0.00174342095852,0.00175757822581,-0.00197771727107,-0.00201974669471,-0.00117107131518,0.00184942851774,-0.00183132418897,0.00108565960545,-0.00196820311248,0.000607671507169,-0.000710291787982,0.0014257581206,-0.00131420779508,0.000686945451889,-0.00130437710322,0.0010543896351,0.00184405932669,-0.00184169132262,0.00180910865311,0.000461783405626,-0.00184016802814,-0.000357572833309,-0.00167361646891,0.000988694373518,0.0012774852803,-0.00194535008632,3.02994849335e-05,0.00155263941269,0.00215241569094,6.67091590003e-05,0.00222207745537,0.000176121073309,-0.000522158050444,0.00171834346838,-3.46295382769e-05,-0.000138657967909,-4.78067813674e-05,0.00171134516131,0.00163809431251,-0.000476118031656,-0.000822646543384,-3.98342963308e-05,0.000359124183888,-0.00129127653781,0.0014506354928,-6.67060376145e-05,-0.000818966655061,-0.00194029440172,-0.0012887698831,0.00221715238877,-0.000961811223533,-0.00163414236158,-0.000194075371837,-0.000952000380494,-0.00229393714108,-0.000872758566402,0.000217671127757,0.000255194754573,-0.000707865692675,-0.000260055006947,0.00229727872647,-0.000605271547101,-0.00119312363677,-0.00126596144401,-0.000208426907193,0.00128070288338,-0.00145091535524,0.00103285291698,-0.00236307200976,-0.000400056684157,0.00136136321817,-0.000795834814198,0.00031453545671,-0.00145589443855,0.00119422015268,-0.00220945244655,0.00173975853249,-0.0014893671032,0.00184761232231,-0.000727751699742,0.0010989184957,-0.000892102892976,0.00200312864035,-0.00184250401799,-0.00158646889031,-3.4395550756e-05,-0.00206308695488,-0.00150030374061,0.00218993751332,0.00235142302699,-0.000610646384303,0.00208886922337,0.00022120475478,-0.00113629514817,0.000998815055937,0.000784162606578,0.00241377879865,-0.00115946528967,0.000849094358273,-0.00221071252599,-0.00190661358647,-0.00244810734876,0.00246478244662,0.00149168691132,0.00141494593117,4.79970913148e-05,-0.000986646511592,-0.0017209717771,-0.0010626061121,-0.000612068164628,0.00126486166846,0.000195726490347,-0.00208507105708,-0.00237847282551,-0.00196244614199,-0.000441678828793,0.00213775853626,0.000678065873217,0.00148947699927,-0.000165937613929,-0.000682662415784,-0.00193250027951,0.00185518735088,0.00139736302663,-0.00163780001458,6.05045097473e-05,-6.23039086349e-05,0.000617312791292,0.00220188242383,0.000393663125578,0.000198467707378,-0.0022191060707,-0.00215700268745,-0.00154290860519,-0.00230720429681,0.00120091927238,0.00110211002175,-0.00179602170829,0.00165851181373,-0.00170359225012,-0.000981176272035,-0.00123877089936,-0.000630150199868,-0.00121070689056,-5.45259426872e-05,-0.000456931738881,0.00240116589703,-0.00219145370647,-0.00176579481922,-0.00220675417222,0.000621012237389,-0.00219844677486,0.00166029250249,5.89158044022e-05,0.000133279609145,0.000303962006001,-0.00162449746858,-0.0014918645611,-0.00089411623776,0.000461394345621,-0.00143053627107,-0.00189335993491,0.00231997412629,-0.00235896627419,0.00149377784692,0.0014214211842,-0.0010007256642,-0.00179814186413,-0.00174878293183,0.000974302936811,0.000704734527972,0.00139531830791,0.00215892051347,0.000947140040807,-0.00169833411928,-0.00126608193386,0.00168868771289,-0.00143454200588,-0.00210955459625,0.00100316433236,-0.000481021532323,0.00207285070792,0.000741491967347,-0.002021236578,0.00221012206748,-0.00119149289094,-0.000803338130936,-0.00048233391135,-0.00221465784125,-1.71960018633e-05,-0.00185888109263,-0.000488700345159,-0.000736730464268,0.00134643528145,0.0014961125562,-0.00171036866959,-0.000658554956317,-0.000624987995252,-0.00172025046777,0.00147283461411,0.00102264864836,-0.00152793119196,-0.000657712458633,-0.00194530806039,0.000632685201708,-0.00186848721933,0.00239803083241,0.00138513464481,-0.000541660469025,0.000387704203604,0.00202992581762,0.000266973889666,-0.00160631351173,-0.000598585349508,0.00169338146225,0.000711675093044,0.000743807991967,0.00181022298057,0.00194421294145,0.00207162927836,-0.00199937378056,0.000217756882193,0.00118688761722,0.00126790523063,0.000526632531546,-0.00164436723571,0.00146773713641,0.00108622480184,-0.00204237364233,-0.000178594462341,-0.00160888500977,-0.000802032591309,-0.00237821578048,-0.000491860962939,0.000246137031354,0.000590126728639,0.000806806550827,0.00165956001729,-0.00140415865462,-0.00187287968583,0.00173479656223,-0.00169457728043,0.00234288792126,0.00169038784225,4.32595197708e-06,0.00237576081418,-0.00198690081015,-0.000971848436166,0.00068212201586,-0.000740199291613,0.00211397069506,-0.00214358652011,0.000243841859628,0.000448414852144,0.000753696192987,-0.00120575982146,-0.000668349501211,0.00169602490496,-0.00150542333722,0.00161305628717,0.000309197494062,0.00129386596382,0.00105412839912,-0.00144339806866,0.000339583144523,0.001814672607,-0.000334998767357,0.00230257329531,-0.000235813131439,-0.00176281295717,-0.00054562749574,0.00222910079174,-0.000889657414518,0.00181652326137,0.0018814294599,-0.00073931273073,-0.00205657677725,0.00110816815868,-0.000930165697355,0.00139619631227,-0.000282991910353,-7.27069782442e-05,0.00137145176996,-0.000580523803364,-0.000280660198769,-0.000610986200627,-0.000654659699649,0.000128043451696,0.00152389064897,-0.000682157929987,0.000119694333989,0.000842520268634,-0.00113779050298,-0.00109790009446,0.00213884515688,0.00110311806202,0.000380907615181,0.000728981918655,-0.00232285447419,0.000582824926823,4.69252263429e-05,0.000225769545068,-0.000693727692124,-0.00206537940539,-0.00151333655231,0.00222437479533,-0.000450557447039,-0.000164414901519,-0.00220732716843,-0.00228205882013,0.00107176613528,0.000187992904102,4.29630563303e-05,-0.00126765167806,0.00120781746227,-0.00163721537683,-0.00153013737872,-0.000193881031009,-0.00105468498077,-0.00124624196906,0.000716731534339,0.000745028664824,0.00160145538393,-0.000406099017709,-0.00210677739233,-0.0011169310892,0.00236877333373,0.000475025299238,0.00103502906859,-0.00243113399483,8.98432481335e-05,-0.00228224438615,0.000341643346474,0.00207645702176,0.00231159594841,0.000200122914976,-0.00020625461184,0.00219610962085,0.000856745115016,-0.00214717327617,-0.000169140432263,-0.00128186179791,-0.000149012295878,-0.000219772424316,0.000405375409173,-0.000706821621861,-0.00165678770281,1.83549927897e-05,0.00162951427046,0.000809382006992,-0.000797636515927,0.00214925734326,0.00203419825993,-0.00143433315679,-0.0022729227785,0.00119083141908,0.00161671999376,0.00230885925703,0.00192379893269,0.000496127817314,0.000148304927279,-0.00233005150221,-0.00125022209249,-0.000199296686333,0.000634152384009,0.000282531400444,0.00119738141075,-0.0010868255049,0.000320533843478,-0.00203247182071,-0.000426050974056,0.00123451568652,0.000954411574639,0.00242126709782,-0.00109608238563,-8.93560627446e-06,-0.000841248314828,-0.00029311698745,0.00176150898915,0.000909051159397,0.00188730447553,-0.0014631395461,0.00184249528684,-0.00217252387665,0.0019176939968,-0.000843501766212,-0.000914989272133,5.96557729295e-05,0.00217475672252,-0.00223164842464,-0.000729223596863,0.00175964285154,-0.00051295949379,-0.00148462702055,-0.000371132307919,-0.000564785616007,0.00205003237352,0.00129261682741,2.524469528e-05,0.00241005397402,-0.000171351493918,-0.00218004686758,-0.00117314956151,-0.000315485027386,-0.0016931471182,0.0022086838726,0.00131686939858,-0.00114347669296,0.000448110222351,0.00109282683115,0.00217766221613,0.00188332772814,7.49719329178e-05,0.00135537993629,0.000306677393382,0.000260087806964,-0.00190120527986,-0.00184496876318,0.00014574508532,-0.00114064244553,-0.00236362917349,0.00109968648758,-0.00230712629855,0.000470180559205,0.000193416984985,0.00231354800053,-7.79063921073e-05,-0.00215357798152,0.000255074322922,0.00168327137362,0.00245189550333,-0.000343748630257,-0.00088680558838,0.00200678850524,-0.00152368552517,0.000569628784433,-0.000465288758278,-0.00226470711641,-0.000753614294808,-0.00115857098717,0.000918339006603,0.00221473095007,-0.00114466121886,0.00153704953846,-0.00219424953684,0.000188122910913,-0.00211928738281,0.00214190431871,0.00131441373378,0.000779465131927,0.0015983923804,0.000727993668988,0.00231418805197,0.00105585856363,0.00209564273246,8.45439717523e-05,-0.00188974430785,0.000139053896419,-0.00184134079609,0.000456444977317,-8.63947861944e-05,0.000604895874858,-0.00241786334664,-0.00150592799764,-4.27833474532e-05,0.00222318456508,-0.00057437637588,-0.000373215589207,0.00105950119905,0.000512205646373,-0.000992276938632,-0.000440111092757,-0.00139311992098,0.00229976372793,-0.00182277802378,-0.000632471113931,-0.00233993167058,-0.00137298705522,0.001384093659,-0.00147466675844,-0.00207234011032,-0.000126070692204,-0.00241824705154,-0.00204913248308,0.00151809921954,0.00133969052695,0.00204866356216,0.00174949399661,0.000903950887732,-0.00220918725245,0.00139582622796,0.00170505722053,0.00147593696602,4.18430900027e-05,-0.00131809955928,0.00170416478068,0.00112102308776,0.00237250258215,-0.00169911852572,-0.00135381461587,-0.00142224389128,0.00144365103915,-0.00154507742263,-0.0021384852007,0.00246034166776,-0.002344973851,0.00165439187549,-0.000664399587549,0.0016858340241,0.00026954599889,0.00198200508021,0.00210321461782,-0.00242254557088,-0.00209529348649,-0.00123195175547,0.000835552637,0.00191607978195,-0.000197681991267,0.000527900352608,-0.00153721834067,0.00150497723371,0.00230621197261,-0.0011419383809,-2.55333488894e-05,-0.0020424707327,0.000291832780931,1.37359738801e-05,-0.00175466609653,-0.000285896763671,-0.000818674976472,0.000107732928882,0.000422694545705,-0.00242551928386,0.00128803530242,0.00105120171793,-0.000659861718304,-0.00220621121116,0.00125806359574,0.00224623852409,-0.00128232280258,-0.000870886258781,-0.00156034796964,0.000379671168048,-0.00170331913978,-0.000709666812327,0.000972237146925,0.000296665646601,-0.000560294545721,-0.000393559283111,0.000306510250084,-0.00243850215338,-0.00208000652492,0.0018814658979,-0.00208311993629,0.00102055259049,0.00207284139469,-0.00113165075891,-0.000639110279735,0.000340119411703,0.00188369106036,0.00218075467274,0.00118221784942,-0.00203998526558,0.00083475682186,-0.000442641088739,-0.000144587291288,-0.00222490215674,-0.00152457377408,0.00143365212716,-0.000227208001888,-0.000978774623945,-0.000572352902964,0.00174892193172,0.00122878223192,-0.00112359807827,-0.00188758561853,-0.00122386100702,0.00207638600841,0.000402631791076,0.000165221077623,0.000475691631436,-0.000661135534756,0.00151553878095,0.000114915033919,-0.00189130625222,-0.0018305220874,0.000181895768037,0.00215442525223,-0.000945760810282,0.00182364427019,0.00130328221712,-0.00124451739248,-0.0022881065961,-0.00196483917534,0.00112759193871,-0.00148209626786,-0.000635263626464,8.38519372337e-06,0.00111266016029,-0.00190866063349,-0.000462071300717,-7.36635192879e-05,0.000201476985239,0.00157107412815,-0.0016202313127,0.00151911377907,0.000951833440922,0.000275716214674,0.000984647660516,-0.00043418261339,-0.0017844674876,0.000818032887764,0.00012175507436,0.000687799067236,-0.000799457891844,0.00200784113258,0.000431160529843,-0.00204599229619,-0.000247711694101,0.00126508844551,0.00145152118057,-2.66629394901e-05,0.0019480350893,-0.00114653026685,-0.000441185431555,0.00196703104302,0.0019554826431,0.000916471704841,0.0017715288559,-0.00202935794368,0.00180120940786,-0.000885220710188,-0.00158739800099,-0.00128618068993,-0.000404816237278,-0.00122783961706,-0.000885478861164,-0.00180134025868,-0.00100584479515,0.000356712524081,-0.00028694543289,-0.000756425783038,0.00121621368453,0.00194192770869,0.00126722606365,-0.00082905770978,0.00120629474986,-0.00171743880492,-0.00182433938608,-0.000761813309509,0.00151847675443,-0.00125174305867,-0.00215529557317,-0.00181747216266,0.00177036621608,0.000660205550957,-0.00121792464051,0.000272878707619,0.000136102346005,0.000767059158534,-0.00131668953691,0.00179828796536,-0.000940744823311,0.000958018004894,-0.00238787080161,-0.000628422829323,-0.000731795444153,0.000214590792893,-0.00210849870928,0.0014317658497,-0.00139272015076,0.000873661774676,0.00149631791282,0.000305355846649,0.00118873163592,0.000798762543127,-0.000712944252882,0.00152418226935,-0.00101312575862,0.000351427792339,0.0012110103853,-0.00059733906528,-0.000973319751211,-0.000200622889679,0.00156911427621,0.00212161568925,0.00022248159803,0.000796817650553,0.00199011014774,-0.00198112637736,-0.00132216222119,0.00103089818731,0.00159764266573,0.00176189828198,-0.000418936571805,-0.00202656164765,-0.000307041453198,-0.0013287946349,-0.00103042216506,0.00134360988159,-0.00209472631104,0.0016165766865,-0.000356944976375,0.000474064756418,-0.00202502030879,-0.000802614726126,-0.00202478002757,0.00227766670287,0.00151630188338,-0.000199207832338,-0.00136399047915,0.00213905237615,-0.000766898388974,-0.00167300389148,0.000311709183734,0.00218997569755,-0.00244854204357,-0.00129232462496,0.0021636900492,-0.00162315391935,-0.00190860033035,0.000346366054146,0.00178565876558,-0.000112960486149,0.00244061928242,0.000884192297235,-0.00210189260542,0.002432071371,-0.000454531633295,-0.00104914465919,0.000285627291305,-0.000965720159002,-0.00204078597017,-0.0024603952188,-0.000248800497502,0.00166238332167,0.000356867356459,0.00246353214607,-0.00105188798625,-0.00108342966996,-0.00167909835,-0.00165780854877,-0.00106008013245,0.00144513288978,0.00200236425735,0.00234450190328,-0.00132112053689,0.00188166066073,-0.000847541901749,-0.00191058858763,0.00182603159919,0.000671666057315,-0.00165451550856,-0.000346274900949,-0.00104985944927,0.00116855464876,-0.000229885685258,0.00241454178467,-0.00219728378579,-0.000715483445674,-8.93206524779e-05,1.54637418746e-05,-0.00090833613649,0.00113127497025,0.00184933480341,0.00216503068805,0.00150560168549,0.00173007405829,0.000249435397564,0.0016082219081,-0.000969686196186,-0.000500995956827,-0.000903513806406,-0.000160939845955,-0.00105814053677,0.00227800081484,-0.000923590792809,-0.00198360532522,0.000132339715492,-0.00218566646799,-0.00192192592658,-0.00138478190638,-0.000175927532837,-0.000329399190377,0.00147894583642,0.00118178059347,-0.00036361097591,-0.00082065112656,-0.000905706023332,0.00135213509202,-0.0022104724776,-0.00240417057648,0.00145847850945,-0.00011278007878,-0.00182156031951,-0.00130495254416,0.00213435851038,0.00177410698961,0.00103526574094,-8.77165002748e-05,0.000100294819276,0.00234527862631,0.00229852506891,-0.00140511535574,0.00153526617214,-0.00149407354183,-0.00141366047319,0.000868999399245,-0.000468808953883,0.00212962343358,-0.0020281909965,5.68777468288e-05,0.00206535682082,0.00199425569735,-0.00169498985633,-0.000658128003124,0.00058785075089,-0.00168084807228,0.00230963714421,0.0020467415452,-0.00164356362075,-0.00186955544632,-0.0020459627267,0.00202055857517,-0.00151193223428,-0.000413124507759,-0.000252412777627,0.000488608435262,-0.00211343821138,-0.00134841562249,0.00212935684249,0.00201545818709,0.00138813781086,-0.00237170094624,-0.000853702251334,0.000631462025922,-0.00110941112507,0.00202126451768,0.000660729536321,-0.00211259233765,0.00201839674264,0.00225902721286,-0.00208394206129,0.000159694143804,-0.000970375258476,-0.000528827134985,-0.00158088537864,0.000385277089663,0.0022600768134,1.51629383254e-05,-0.00205826992169,0.000592193158809,-0.000788481615018,0.00175645097625,-0.000322356034303,-0.00151580211241,-0.00152435922064,0.00132632115856,-0.00115679891314,0.00131876685191,-0.00145141314715,-0.000879957806319,-0.000170317929587,0.00218712189235,0.00213054614142,-0.00144655443728,-0.000699673139025,-0.00173017475754,4.92752478749e-05,-0.000194520704099,0.00197770656087,0.00212202849798,-0.000574581907131,-4.07723273383e-05,0.0019553815946,0.00151356868446,-0.00244940049015,-0.000887985923328,-0.000386035360862,-0.0013338199351,-0.00148258043919,-0.00228098174557,0.000707513536327,-0.00117198517546,-0.00220911647193,-0.00132758694235,0.00148991157766,0.00173455977347,-8.35661849123e-05,-0.000414181849919,0.00235815439373,-0.00147767993622,-0.00140467006713,-0.00102711212821,-0.00161490601022,-0.000595317280386,0.00202742102556,0.000569228664972,-0.000434533925727,0.00214376859367,-0.0022282784339,-0.0014297546586,0.000325152883306,0.000570239266381,-0.00227223220281,-0.000478492875118,0.000736058107577,0.000977455987595,0.000681704957969,-0.000885500397999,-0.0020059326198,-0.000359691912308,-0.00183205527719,0.00220897258259,-0.00012252900342,-0.000901805527974,0.00131418078672,-1.01234663816e-05,-0.000937460805289,0.00153952592518,0.00181185477413,0.000853775942232,-0.00223567988724,0.000327296002069,0.00129933096468,-0.00179381691851,-0.00133897946216,0.00188757048454,-0.00236814562231,0.00124718016014,-0.00012942586909,-0.00026267344947,-0.00243242341094,0.00157619453967,-0.000691748398822,0.000201173825189,0.000874959048815,0.000999954296276,0.00225021061487,0.000154659166583,-0.000494872801937,0.00223897653632,0.000701298122294,-0.000996105372906,-0.00184335710946,0.00169046816882,-0.000680118391756,0.000791900092736,