0.00810859818012,0.00292943464592,0.00663158250973,0.000519045919646,-0.00268561206758,0.00818513147533,0.00728757958859,0.00314401020296,0.00367586687207,0.00625743344426,-0.00374698103406,0.00451887818053,0.000306425296003,0.00616424903274,-0.00546800298616,-0.00725978147238,0.00661763362586,-0.00295188953169,0.00843617506325,0.00876515731215,-0.00171182060149,-0.00885793939233,-0.00654735229909,0.00427434919402,-0.00844052340835,-0.000150646897964,0.00325198820792,0.00642714928836,-0.00920622423291,0.000479963870021,0.0047243158333,0.00444901315495,0.00672225328162,0.0033295545727,0.00703294575214,0.00462760869414,0.00898016430438,-0.00767841609195,-0.00149086106103,0.00783444941044,-0.00334448856302,0.00453858077526,0.00669326819479,0.00734009407461,0.00210654293187,0.00424944981933,-0.00136934197508,0.00881758052856,-0.00240807468072,0.0074726101011,-0.000596894591581,-0.00851605087519,-0.00275433715433,-0.00690296990797,0.00839197635651,-0.00684477109462,0.00887560099363,0.00800412241369,-0.00634774053469,0.00892169773579,-0.00393021851778,0.00416003121063,0.000512513099238,0.00044107879512,-0.00655138352886,0.00845101196319,-0.000239064160269,8.29471755424e-05,-0.00929753854871,-0.00261190021411,0.00394087610766,-0.00940355844796,0.00464949803427,-0.00241036363877,0.00281780934893,-0.00607503019273,-6.03369189776e-05,-0.00753312278539,0.00173975562211,-0.000178580841748,0.00591207388788,0.00255523459055,0.00611000275239,-0.00621911277995,0.00424798531458,0.00437516625971,0.007656251546,-0.000522781047039,-0.00517253391445,0.0075157834217,-0.00246717780828,0.00173803023063,-0.00814546179026,0.0017631163355,-0.00736786052585,-0.00134482060093,-7.97837274149e-05,0.00708900531754,-0.00825066398829,0.00450006080791,0.00865594949573,-0.00492827082053,-0.00219113891944,0.00886300392449,-0.00746461376548,-0.00211180117913,0.00387331005186,0.00144162366632,0.00867198780179,-0.00209584226832,0.00330408243462,0.00154316436965,-0.00881827808917,0.00214847410098,-0.00499040540308,-0.00113039347343,-0.00660976860672,-0.000364989129594,-9.7732678114e-05,0.00265123974532,-0.000717567978427,-0.00255442433991,0.00540992897004,0.00851422175765,0.00901804305613,0.000916135904845,-4.74419175589e-05,-0.00314334407449,-0.00106438167859,0.00544812344015,0.00698214955628,0.00139825826045,-0.00768953701481,-0.00670992117375,-3.5248187487e-05,-0.00742981908843,0.00811016559601,-0.00295409676619,-0.00167523534037,0.00936574861407,0.00891148671508,-0.00915210880339,0.00576961273327,-0.00258093350567,0.00384214520454,0.0059998948127,-0.00487461267039,0.00231339945458,0.00769121898338,-0.00107088580262,0.00289632100612,0.00227434444241,0.00892661977559,0.00434907991439,-0.00308953970671,-0.00427490146831,-0.00733299553394,-0.00739338994026,-0.00273767532781,-0.00400340277702,0.00567225413397,0.00748439272866,0.00511840591207,-0.00308698555455,0.00588675681502,-0.000281053740764,0.00459656910971,-0.00790715776384,0.00387992011383,-0.00793438684195,0.00522950477898,0.000916637422051,-0.00223642797209,-0.000812703801785,0.00849310215563,-0.00436371425167,-0.00691021978855,0.00327399838716,-0.00803886167705,-0.00294957845472,-0.00484673166648,-0.00666238320991,-0.00422965502366,0.0001260307763,-0.00518381269649,-0.00841333065182,-0.0020477056969,-0.00203109323047,0.0066876616329,0.0056710196659,0.00923628825694,0.00878906901926,5.87226058997e-05,-0.00366493663751,0.00417284108698,0.004536525812,-0.000351244700141,-0.00679858820513,0.00611453596503,-0.00677907420322,5.3082825616e-05,0.00349367782474,0.00231236894615,0.0029815712478,-0.00676767481491,-0.000231691272347,-0.00369295640849,-0.00104576046579,0.00527053279802,-0.00434413133189,0.00678587518632,-0.00546784233302,-0.00661617377773,-0.00175278657116,-0.00320241926238,0.00605408800766,0.00110423797742,0.0091880839318,0.00526660494506,0.00401838030666,-0.00884212180972,0.0056113563478,-0.00514513719827,-0.00155289447866,0.000875973550137,-0.00386691838503,-0.00456977821887,-0.00235734833404,-0.000675984134432,-0.00405972776935,0.00204106164165,0.00117448845413,0.00271669821814,-0.00335585698485,-0.000873876211699,0.0082454578951,0.0057617155835,-0.000683163758367,0.00374280055985,-0.00211501680315,0.00459332065657,-0.00691740820184,-0.0019425668288,-0.002862629015,0.00203578150831,0.00346887810156,0.00646732142195,0.00122411223128,0.00173462566454,-0.00847720168531,0.000476235029055,0.00763176381588,-0.00480549177155,0.00438256748021,0.000582473410759,-0.0081515358761,0.00219322135672,0.00225533149205,0.00391016202047,0.00930048245937,0.0012890183134,0.00528799649328,0.00227418681607,-0.0089663406834,-0.00606158049777,0.0079407542944,-0.00399593403563,-0.00157323444728,-0.0054476573132,0.00548099400476,0.00217529945076,0.00900297332555,-0.00618298305199,-0.00246416544542,-0.00702012656257,-0.00296829710715,-0.000500279362313,-0.0077449423261,0.000740962976124,0.0064391004853,0.00593569688499,0.00349191413261,0.00279341242276,0.00153025006875,-0.00411620363593,-0.00790283177048,-0.00855250284076,-0.00458185793832,0.00181703036651,0.00565755972639,0.00525390356779,0.00233005895279,-0.00601500086486,-0.000344488129485,-0.00349696120247,-0.00901430379599,-0.00920771993697,-0.00878883711994,-0.00702980766073,-0.00714736664668,-0.00701498938724,-0.00617897044867,0.00155045557767,0.00938564818352,0.00776591617614,-0.00901285000145,0.00727784074843,-0.00932124815881,-0.00183030392509,-0.00099331268575,-0.00128818745725,0.00652308855206,0.00140741828363,-0.00457449769601,-0.00640978571028,-0.00666206888855,0.00935337971896,-0.00831384304911,0.00366150448099,-0.00772036332637,0.00888847839087,-0.00785983540118,0.00575441215187,0.00453797634691,-0.00365098193288,-0.00513102998957,-0.00835478305817,-0.00467410730198,0.00423421291634,0.00339881936088,0.00204133614898,-0.00626863306388,0.0038274100516,-0.00367316184565,-0.0054823695682,0.00410616071895,-0.00869594700634,0.00115946796723,-0.00429621804506,-0.00502357911319,0.00872585549951,0.00202092016116,0.00750960316509,-0.00623248098418,-0.00266553345136,-0.0037958023604,-0.00321425683796,0.00256756157614,-0.000591884250753,-0.00510668987408,0.000167654521647,-0.000668765744194,0.00548112764955,-0.00201884796843,-0.00749989412725,0.00119554600678,-0.00346552347764,-0.00243695522659,0.00928643159568,-0.0045550474897,0.0079112611711,0.000555696140509,-0.00275624613278,0.00622799061239,-0.00810100790113,0.00546792894602,-0.00270077912137,0.00179944687989,0.000913994619623,0.00304199242964,0.00569661892951,-0.00407523289323,0.00294149923138,0.00770348357037,0.00502314185724,0.00679668877274,-0.00819055829197,0.00199873815291,-0.00560165941715,0.00524041149765,-0.00112605921458,-0.0030078496784,-0.00498171662912,0.00572676258162,-6.31139191682e-05,0.00417912332341,-0.00589588703588,-0.00142585264985,-0.00913802161813,0.00426642270759,0.00684213265777,0.00365822738968,0.00241830106825,-0.00848408881575,-0.00896546803415,-0.00526801962405,-0.0067179328762,0.0036517328117,0.00132407434285,0.00765871722251,-0.00528181809932,0.00912402104586,0.00205922499299,0.00672376994044,-0.00817655306309,0.00576919782907,0.000716995215043,-0.00153902941383,-0.00813937466592,0.00678619882092,-0.00607140362263,0.00218830164522,-0.00321030220948,0.00364418141544,0.00410762149841,0.00208829436451,0.002940464532,-0.00296049471945,0.00111816113349,-0.00653348118067,0.00425711227581,-0.00305680721067,-0.00445250421762,-0.00798195693642,0.00844930484891,0.000537543499377,0.00170693034306,-0.00663579674438,0.00766899716109,-0.00194352923427,-0.000676072319038,0.00440925918519,0.0089942459017,-0.00888436567038,0.0086619136855,0.00763984071091,-0.00851184874773,0.00463584018871,-0.00378542719409,0.00754219014198,-0.00500056659803,0.00459908135235,-0.00275290152058,-0.00375794153661,0.00352449878119,-0.00848330743611,-0.00127162714489,-0.00883168447763,-0.00214144238271,-0.00571850640699,-0.00912591069937,-0.00191438442562,0.000392748246668,0.00304496265016,0.00379351666197,0.00856843870133,-0.00742597738281,-0.00685676792637,0.00825703795999,-0.00134934869129,0.00246044341475,-0.00361343519762,0.00622983509675,-0.00462200352922,-4.9199872592e-05,-0.00502528063953,-0.00564828747883,-0.00545791583136,0.00678211310878,0.00697256438434,-0.00302823679522,0.000196753520868,-0.00941464025527,0.00193270063028,0.00929206144065,0.00524588720873,-0.00438728416339,-0.0039315787144,0.00856469478458,-0.00320210307837,0.0089275976643,-0.000847466697451,-0.00535756908357,0.00527665251866,-0.0080266399309,0.00746165495366,0.00237775593996,-0.00181487970985,0.00847245566547,0.00280582578853,0.0011599813588,-0.00288541195914,0.00902126636356,-0.0031296107918,-0.00453009037301,-0.00438204733655,0.0092352218926,-0.00532045401633,0.00724905729294,0.000397324794903,0.00500336382538,-0.000334215845214,-0.00867698248476,-0.00153840845451,0.00421984633431,0.00502097094432,-0.007481535431,-0.00343870115466,-0.000358068064088,0.00227974471636,0.00208858028054,0.00295579642989,0.00207639764994,-0.00309312692843,0.00216835318133,0.0051640435122,-0.00803994107991,0.000703502097167,0.00129262474366,0.00767985917628,-0.00274164532311,-0.0056813233532,-0.00452614249662,-0.00340539822355,-0.00133528944571,-0.00858007371426,0.00143495213706,1.33289904625e-05,0.00178697088268,0.0080637075007,-0.00531822256744,0.00410770485178,-0.00518420478329,0.003179541789,-0.00768208643422,-0.00557511067018,-0.00662278942764,0.0049313204363,-0.00559322768822,-0.00445297639817,0.00667118700221,0.00382872857153,0.00936798844486,-0.00633637234569,-0.000330922805006,0.00216837623157,0.00184389355127,0.00301259825937,-0.00228138524108,0.00131095352117,-0.00590550713241,-0.00880256667733,0.00297967996448,0.00816257018596,-0.00619336171076,0.00904289260507,-0.00344626745209,0.00688617955893,0.00839225016534,0.000828910036944,-0.00896212272346,-0.00875833723694,-0.00449194107205,0.00274436827749,0.000595994701143,-0.00311535364017,-0.00528494967148,0.0092477556318,-0.00386033928953,-0.0066832266748,0.00182257732376,0.000157519389177,-0.00013809002121,-0.00102710269857,0.00323448446579,-0.000874344899785,-0.00115685490891,0.00866303872317,0.00811812188476,-0.00643745157868,-0.000394664471969,0.00908286683261,0.000140063086292,-0.00267256586812,0.00574754085392,-0.00791426468641,-0.00271698250435,0.000153904722538,-0.00413189455867,-0.00170962500852,-0.00452548917383,-0.0071883671917,-0.00660615740344,0.000284550333163,0.0090214740485,-0.00379653275013,0.00844009034336,-0.00472053326666,-0.000868945848197,-0.00405954057351,0.002228962956,-0.000901677354705,4.56424895674e-05,-0.00809787400067,0.00749266240746,0.00725616049021,-0.00661583757028,-0.000844341644552,0.00379011337645,-0.00937628000975,-0.0039260671474,0.0036936418619,-0.00681155035272,0.00287652458064,0.00754177896306,-0.0019330966752,0.00662703951821,-0.00385486474261,-0.00818696804345,-0.00580059550703,0.00246363482438,-0.00863173976541,0.00595968728885,0.00108970527072,-0.000539208995178,0.000976105919108,0.00830071140081,-0.00244128610939,0.00849436968565,-0.00662868143991,0.00871699303389,0.00021976249991,0.00806938577443,0.00447253603488,0.00865514110774,-0.00696937600151,-0.00306992884725,-0.00215425109491,0.00302872736938,0.00322079285979,-0.00445163901895,-0.00293708522804,0.00492323702201,-0.00583256036043,-0.00580720277503,-0.0041511519812,-0.00437056319788,0.00923417881131,0.00119219243061,0.000628816196695,0.00733211217448,-0.00895080249757,-0.00370142003521,0.00582800991833,0.000751429703087,-0.007689693477,0.0078567834571,-0.00646712165326,0.00123426539358,-0.00538342399523,-0.00783660914749,-0.0059881452471,0.00676481472328,-0.00469754962251,0.00459009967744,0.00429562153295,-0.00826335791498,0.00655691931024,-0.00166184874251,0.00566277047619,0.00504724122584,-0.000120721357234,-0.00251514767297,-0.00373200816102,0.00430917413905,-0.000489614030812,-0.00257750274613,0.00158141716383,0.000502491137013,0.00544201070443,0.00286194402725,-0.00613731937483,-0.00122645217925,0.00520486757159,0.00333441258408,-0.0069263568148,-0.00935941562057,0.00287609733641,-0.00913755502552,-0.00668327556923,-0.000314076576615,0.00239450740628,-0.00334941758774,-0.00393258919939,0.00536507321522,0.00525450101122,0.00513449637219,0.00425355136395,0.00347189349122,-0.0028702809941,0.00116501795128,-0.00192908104509,0.000986699946225,0.00460765324533,0.00514584872872,0.00487010832876,0.00638711964712,0.000238054068177,0.0060370080173,0.00409013871104,-0.0066688247025,0.00137652934063,-0.0019716436509,0.00507687777281,0.00221815495752,-0.000794357387349,0.00757121713832,-0.00424177898094,-0.00679446198046,0.00555740343407,0.00781984906644,0.00310061848722,-0.00161881453823,-0.00535795185715,-0.00363714830019,-0.000863246619701,0.00560983736068,0.00145048822742,-0.00423663621768,-0.00882043689489,-0.00545203406364,0.00284082163125,0.00475498801097,0.00160531722941,0.00508243171498,-0.00695698196068,-0.00892078597099,0.00356439244933,0.000432797765825,0.00445526978001,0.0078673325479,-0.00829053390771,-0.00773152150214,-0.0065557602793,-0.00582072790712,-0.00192776776385,-0.0077186669223,0.0011494976934,0.00591448880732,0.00052556587616,-0.000812742859125,0.00421455409378,-0.00186824426055,0.00364862848073,0.00602623028681,-0.00556099973619,0.0048073255457,-0.00118576246314,0.00702577875927,-0.00842316169292,-0.00360511010513,0.000832972116768,0.0036078391131,-0.00285821547732,-0.00200358103029,0.00458257179707,-0.00882316660136,-0.00193202681839,-0.00710873864591,-0.00426495820284,0.00498664099723,-0.00677257450297,-0.00315538607538,-0.00429021054879,0.00603269366547,0.00123736483511,0.00046943713096,0.0074096522294,-0.00919996388257,0.00366579089314,0.00392863852903,-0.00217594299465,0.00222545024008,0.000230376826948,-0.00104115426075,0.00465679029003,0.00106188899372,0.00242337817326,-0.00554719241336,-0.00282727647573,-0.00272400281392,0.00906162615865,0.00364341726527,0.00204328377731,-0.00740608526394,0.00403976533562,0.00110842625145,0.0050202049315,-5.41096560482e-05,0.00433995993808,0.00249842158519,-0.0065594445914,-0.00341958296485,0.00313429138623,0.00540682300925,0.00436951266602,-0.00309553742409,-0.00866883341223,0.00886598881334,0.00013150749146,0.00668081548065,-0.00701829977334,0.00685157021508,-0.00788954365999,-0.00600932585075,-0.00516016269103,-0.00336781749502,0.000329411530402,0.00320620415732,0.00647770659998,0.00520256254822,0.00479826051742,0.00799378845841,0.00337396701798,0.00736255571246,-0.00251193391159,0.00890936329961,0.00425419071689,0.00167628761847,-4.55194240203e-05,0.00282847532071,-0.00598807027563,0.00496097374707,-0.0070031140931,0.00363949337043,0.00666246702895,0.000403952959459,0.000765819568187,-0.00229854765348,-0.00133615476079,0.00431837281212,-0.00743677839637,-0.00602475693449,0.00806820672005,0.00724937859923,0.00293891783804,-0.00346694816835,-0.00544957257807,0.00922176335007,-0.00609261915088,0.00307576614432,-0.00307476287708,0.0053953169845,0.00539340544492,0.00423221616074,0.00106872222386,0.00687752151862,-0.00864794198424,0.00401076953858,-0.0058884494938,-0.00772633869201,-0.00169710814953,-0.00278103980236,-0.0065067447722,-0.0029267994687,-0.000877377577126,0.00527789397165,-0.000517807842698,-0.00881573650986,9.50744797592e-05,-0.00268201995641,-0.00442077405751,-0.00256479647942,0.00415397388861,-0.00192813447211,-0.00548115978017,0.00519398506731,0.00482441065833,-0.00587155111134,-0.00530806556344,0.00712218089029,-0.00937939155847,-0.00815689563751,-0.00938259903342,0.00638475595042,0.00534943537787,0.00174732785672,-0.00594554562122,0.00872606877238,-0.000693837995641,9.78320822469e-05,0.00721183326095,-0.00202651135623,0.00242164358497,0.00470107700676,-0.00538609409705,0.00542869092897,0.00821565836668,0.00155124661978,-0.00747424084693,0.00694129196927,0.00923844333738,0.00800712779164,0.00288223102689,0.00439234962687,-0.000739992421586,-0.00206466671079,0.00533545669168,-0.00396440736949,-0.00402778526768,0.0031152064912,0.00380066712387,-0.00193520251196,-0.00680549908429,0.0011028185254,0.00783281214535,-0.00460450863466,0.00876099895686,0.00170411344152,-0.00681547774002,0.00157921190839,0.00109275139403,-0.00689680594951,-0.000616606732365,0.00574399577454,-0.00340022007003,-0.00748534919694,-0.00767022185028,-0.00375466747209,0.00293411989696,-0.0037607178092,-0.00168793159537,0.00278566405177,0.00107086426578,-0.00401956355199,-0.00478744599968,9.7721509519e-05,-0.00254670111462,0.00278391479515,-0.002411050722,0.00276450044475,-0.00268096476793,-0.000844344205689,0.00180437753443,-0.00805396027863,0.00600633164868,0.00279390835203,-0.00263915001415,-0.00577744375914,0.00656805280596,0.00497721647844,-0.0092642409727,0.00159356638324,-0.00177997071296,0.0049122357741,-0.00524078542367,-0.00342971878126,0.00435892492533,0.00736577156931,0.0018408842152,-0.00174778595101,0.00916057452559,0.000678880256601,0.0076022031717,0.00803303904831,-0.00829166267067,0.000936210271902,0.00910478830338,-0.000748227641452,-0.00191158894449,0.00732105225325,0.00395111693069,0.000627337722108,0.0054100882262,-0.00922294240445,0.00528791826218,-0.00587617093697,-0.00776550685987,0.00652002822608,-0.0046117445454,0.00449769105762,-0.000663552607875,-0.00887652207166,0.00887592695653,-0.00614555552602,0.000903732609004,0.00908265635371,0.00464087212458,-0.00399486301467,0.00378434732556,-0.00382981705479,-0.0092968987301,0.00897247623652,0.00772752612829,0.00754237314686,0.000435624533566,-0.00736563140526,0.00342186936177,-0.00018492374511,-0.0063947699964,0.000103112091892,-0.000320095976349,-0.00121834711172,-0.00454780180007,-0.00499356351793,0.00286698201671,-0.00198788777925,-0.00755692878738,0.00545831490308,0.00551446480677,0.00844606477767,-0.000805799849331,0.00771010387689,0.00304918689653,-0.00894785579294,-0.00429811980575,-0.00445215264335,-0.00326082808897,0.00759432464838,0.00898062996566,-0.00488056382164,-0.00701210228726,-0.00362077797763,-0.000582444539759,0.000729651481379,-0.0053167627193,-0.00014083077258,-0.00854841340333,-0.00435395538807,-0.00745046697557,0.00653855549172,0.000420528231189,0.00687886588275,-0.005425860174,-0.00490698963404,-0.000128226965899,0.00526581285521,0.00571378460154,0.00668614171445,0.00808533094823,0.00339733809233,0.00299941538833,-0.00268252519891,-0.00545660033822,0.000693596433848,-0.000776666041929,-0.00175472500268,0.00636791205034,-0.00228357641026,0.00727477809414,-0.00715420814231,-0.00285131647252,-0.00238913600333,0.00400180928409,-0.0060456530191,0.00141443184111,0.000716778333299,-0.00784165132791,0.00609499076381,0.00798270013183,0.00198682164773,-0.0024948134087,-0.00412695994601,-0.00877913367003,-0.000822477217298,0.00410140445456,0.00821459945291,-0.00339948339388,0.00699320156127,0.00882393121719,0.00549028906971,-0.00621737539768,-0.0083635635674,-0.00180359638762,0.00871444866061,0.00713492603973,-0.000382362690289,0.00360187981278,-8.92415846465e-05,-0.00890582893044,-0.00257126917131,-0.00242715049535,0.00580570288002,0.00875756796449,-0.00352630903944,0.00808945670724,-0.00456506339833,-0.00417072186247,-0.00587251037359,-0.00629762141034,-0.00613671261817,0.00015182516654,0.0027103247121,-0.00221023103222,0.00480787409469,-0.0013904212974,0.00589810498059,0.00636060861871,0.00223234808072,-0.00558494450524,-0.0049603395164,-0.00833362154663,-0.00319827441126,-0.00880750454962,-0.0072077116929,-0.00141264137346,-0.00870293285698,-0.00306749739684,0.00500890938565,-0.00374127249233,0.00514493975788,0.00851374212652,-0.00195953855291,-0.00684991944581,0.00454562297091,5.80230444029e-05,0.00532420445234,0.000602002139203,0.00661041913554,-0.00495628686622,-0.000797999615315,-0.00548075744882,-0.00585769861937,-0.00478526204824,0.00493568414822,0.00353794940747,0.0050336830318,0.00536809675395,-0.00588294165209,0.00711577525362,0.00158071948681,0.00181801430881,0.00561577640474,0.00429536541924,0.00202943990007,-0.000352393195499,-0.00549022294581,0.00705964164808,0.00667008012533,0.00471159769222,-0.00376584427431,-0.000319438899169,0.00855771172792,0.00704176630825,-0.00592188816518,-0.00916598644108,0.0001452134602,0.00175364397001,0.00269566569477,0.00820712279528,0.00251245801337,0.000402877223678,-0.00816767010838,0.00927665643394,-0.00591289950535,-0.00392776587978,-0.0047435509041,-0.00431844172999,0.00597073463723,0.00244831154123,-0.00141356675886,-0.00335299316794,-0.00727798230946,0.00699943909422,-0.00696745282039,-0.00489082187414,0.00513420952484,-0.00629336107522,-0.00122676009778,-0.00501249777153,-0.00403177458793,0.00120706181042,-0.00314788729884,-0.000961758079939,-0.00872213020921,0.00765504455194,0.00337196676992,-0.000244110371568,0.00453156046569,-0.0053176600486,-0.000856459315401,-0.00109133939259,0.00800029374659,-0.00399990100414,-0.00275162095204,0.00791447423398,0.00435716100037,-0.00158732314594,-0.00857747159898,-0.00564993685111,0.00840135943145,-0.00225281831808,0.00515807559714,-0.006966015324,-0.0026428590063,0.00243034027517,0.0045449458994,0.00477589247748,0.00190582103096,0.00651326635852,0.00887467619032,0.00904399808496,0.00254067988135,0.00368177401833,0.00356031372212,-0.00169828545768,0.000388735177694,-0.0019461568445,-0.00479953642935,0.00365165318362,0.00122529524378,-0.00247621396556,-0.00738318730146,0.00935649778694,-0.00627462333068,0.00705991731957,0.000814010156319,-0.00511266291142,0.00230949604884,0.00266699003987,-0.000116786504805,0.000241588917561,-0.00562990596518,-0.00414757849649,0.00323941442184,0.00714990030974,-0.00824711099267,0.00669648172334,0.00327444425784,0.000544059264939,-0.00464177457616,-0.00535510713235,-0.000212146900594,-0.00791814178228,-0.008933394216,-0.00635748775676,0.00403907289729,0.00857629161328,-0.00715652573854,0.000628462235909,-0.000123985810205,0.00884053111076,-0.00625360896811,-0.00625583063811,-0.0054308460094,0.00103261496406,0.00636485544965,-0.00726691540331,0.00695906067267,0.00568616064265,-0.00506860017776,0.00849142018706,-0.00126267888118,-0.000410090375226,-0.00528350612149,0.00255313632078,-0.00636529410258,-0.000178382615559,-0.00595254916698,0.000631289382,0.00188451563008,-0.000763493822888,-0.00880188215524,-0.00779808824882,0.00358573300764,0.00627414928749,0.00593513669446,0.00860395468771,0.000237959859078,0.00822282768786,0.00115805200767,-0.00674051884562,-7.72860439611e-05,0.00929237622768,0.00750957801938,0.00578313693404,0.00242358073592,-0.00149388273712,0.00616498710588,0.00811222940683,-0.00186293432489,0.0075971679762,-0.00673050154001,0.00229591922835,-0.00198194757104,-0.00140146003105,-0.0079643400386,-0.00686271348968,0.00649002753198,0.00221804878674,0.00149627949577,0.00854766275734,-0.000534779392183,-0.0028500307817,-0.00637733237818,-0.0018681967631,-0.00219905516133,-0.00690229143947,-0.00605886476114,-0.00539106875658,0.00142574543133,-0.00213068863377,0.00276000937447,-0.00839580688626,0.00274828821421,-0.00654523866251,-0.00620249425992,-0.00559876253828,-0.000783155672252,-8.67923372425e-05,0.00853670202196,0.00652665272355,0.00933306477964,-0.00882351212204,0.000699219584931,0.00843014288694,-0.0060581616126,-0.00709361303598,-0.00918292906135,0.000763313553762,-0.00368385086767,0.005655342713,-0.00268455501646,0.000824329967145,-0.000590368174016,0.00445978622884,0.00777246616781,-0.00797029770911,0.00629966985434,0.00604954501614,0.0029801405035,-0.00306694582105,0.00761458510533,-0.00287454389036,0.000773782841861,-0.000370380061213,-0.0086197340861,-0.00114674132783,0.00329645979218,0.0011190577643,-0.00540820416063,-0.00499732187018,-0.00916994456202,0.00817190483212,-0.00436919508502,-0.00866238866001,0.00720751145855,-0.00645240815356,0.00936616770923,0.00617284420878,-0.003210459603,-0.00401099352166,-0.000684362603351,0.00699943676591,0.00713908579201,0.00599976442754,0.00204201578163,0.00296816905029,-0.00526885082945,0.00604075985029,0.00354872643948,-0.00740108825266,-0.000688411993906,-0.00585220661014,0.00436115637422,0.00452813738957,-0.0071577290073,0.00548097817227,0.00391590921208,0.00443192478269,-0.00771992607042,0.00552024645731,-0.00833192747086,-0.00583816738799,-0.00628972006962,-0.00841093994677,0.00600795773789,0.00151271047071,0.000485765078338,-0.00532946595922,-0.00434902124107,0.00812150072306,-0.00421061692759,-0.00401102751493,0.00924006197602,0.00285397656262,-0.00627929158509,0.00528994202614,0.00815393961966,0.0047677597031,0.00238504842855,-0.00414685206488,-0.0087224515155,0.00683416519314,0.00257856934331,0.00821247603744,0.000720252573956,-0.00360912876204,0.0027978552971,0.00380325084552,0.00321651226841,-0.00045432819752,0.00208832905628,-0.00939671229571,-0.000196324312128,0.00172991340514,0.00934944488108,-0.00191415240988,0.00387315358967,0.00898281484842,0.000212285085581,-0.00323027605191,0.00807355996221,0.00717412028462,0.00255623157136,-0.0073663899675,0.00366712268442,-0.00602601375431,0.00189318531193,0.00604622671381,0.00582877732813,-0.00592853222042,0.00310774007812,-0.00167026335839,-0.00293204793707,-0.00727879488841,-0.00283101340756,0.00325096375309,-0.00825100857764,0.00645729759708,0.00266759516671,0.00695162359625,0.00740241166204,0.00805911421776,0.00328335748054,-0.00446733785793,-0.000464399519842,-0.00872033182532,0.00536106759682,-0.00302543048747,-0.00289673428051,-0.000742149364669,-0.00595654640347,-0.00702307093889,0.00443336740136,-0.00561774056405,0.00772463018075,-0.00784096121788,0.00182996736839,0.00742496130988,-0.00580932339653,-0.00465168524534,0.00835667271167,0.00294274068438,-0.00724627031013,0.000988245243207,0.0039165597409,0.00293663120829,0.0010943878442,4.02928635594e-05,0.0062336884439,-0.000371353584342,0.00471388874575,0.0059404745698,-0.00694433832541,0.00838469807059,0.00728209223598,-0.00660566566512,-0.00368832261302,-0.00123105221428,0.00923088844866,-0.00788577925414,-0.00937235821038,-0.0056642908603,-0.00251444405876,0.00818665791303,-0.00712238997221,0.00053702481091,0.00840424746275,0.00723895989358,0.00623092707247,-0.00145294063259,0.00120532920118,0.00813674461097,0.00127914187033,0.00931294355541,-0.00402838829905,-0.000708192586899,-0.00325426994823,-0.00646125013009,0.00209854380228,0.00034528868855,0.00108362908941,-0.00916459411383,0.000122202924103,-0.000128571133246,-0.00838114973158,-0.00776702910662,0.0075420034118,-0.00305987382308,-0.00674390699714,0.00428596930578,-0.00104173575528,0.00255654961802,-0.00263597397134,-0.00182618002873,0.00703317159787,0.00332768005319,-0.00632677040994,0.00111817126162,0.00520230224356,-0.000460590381408,0.00462952489033,0.00523092970252,-0.00787242501974,0.00908654090017,-0.0073050679639,-0.00226530758664,0.00169670186006,-0.00790486577898,0.00583309167996,0.00919571425766,-0.0086909243837,-0.00580446328968,-0.00697130523622,-0.00517088593915,-0.00556408893317,0.00389405991882,0.00679546454921,0.0061862594448,-0.00752867385745,-0.00874822121114,0.00480211246759,-0.00060545373708,-0.00110212946311,-0.00244254153222,0.00767479836941,-0.00894423667341,-0.00322376843542,-0.00164529809263,0.00845029205084,-0.00600531697273,0.00698933890089,-0.00798430573195,-0.00893590785563,-0.00520165078342,-0.00150477304123,0.00865290034562,-0.00811117794365,0.00485603231937,-0.00660504773259,-0.00235226517543,-0.00511953840032,-0.00508982129395,0.00932410825044,-0.000538654392585,-0.00626855064183,-0.00029706893838,-0.00832063239068,-0.00498536322266,-0.00291928648949,0.00842996500432,-0.00109160982538,0.00422199768946,0.00708023132756,0.00803868938237,-0.00129614921752,-0.0031132271979,-0.0079587213695,0.00153176835738,0.00929399579763,0.00232384121045,-0.00656041596085,-0.00757415872067,-0.00224157865159,0.0010464170482,-0.00369353010319,-0.00034249923192,0.00490568298846,-0.00182471692096,-0.000886086432729,-0.00837510079145,-0.00653636781499,0.00830083526671,0.00631717406213,-0.00911930948496,0.000236557621974,-0.00757549889386,0.00705974036828,-0.00780277326703,0.00903766229749,0.00893111992627,-0.00231156032532,0.00704887788743,0.00416474184021,-0.00850883964449,-0.00250644912012,-0.00215364294127,-0.00568650569767,-0.00427425978705,-0.00398531043902,0.00456124031916,0.00279376097023,-0.00682273088023,0.00489634554833,-0.00821965839714,-0.00923616811633,0.00221423525363,-0.00628061592579,-0.00424526445568,0.00233934936114,8.7062267994e-05,0.0016805838095,-0.00601449375972,0.0067658899352,-0.00684671290219,0.00365021894686,0.00055189646082,0.00331894308329,0.00161066337023,0.00735450303182,0.00145389710087,0.00824928376824,-0.000344326748746,-0.000893641205039,-0.0020652981475,0.00470478693023,-0.00792159326375,-0.00698916008696,0.00435742875561,2.21989885176e-05,0.00517259771004,-0.00587147986516,-0.00606105430052,-0.000430329906521,-0.00887483265251,-0.00394591270015,0.00587087729946,-0.00232050591148,-0.00743320491165,0.00372754246928,0.00759048946202,0.00442701391876,-0.00173061084934,-0.00400101440027,0.00791745819151,-0.00612350692973,-0.00706048915163,-0.00906941015273,0.00397960096598,-0.0025051580742,-0.00384172657505,-0.00226796488278,-0.00612674793229,-0.0019830968231,0.00512101966888,-0.00673056254163,0.000425747421104,-0.00342101580463,-0.00363592454232,0.00326355453581,-0.00840375479311,0.00581451691687,0.00535912113264,-0.00182670389768,0.00129709020257,-0.00388794974424,-0.000609187467489,-0.00201989500783,0.00658039888367,0.00736744794995,-0.00114247109741,0.00748873734847,0.0011049550958,0.00839562155306,-0.00512911379337,0.00235343887471,-0.00506338756531,-0.00407736515626,-0.00594330439344,0.00555109977722,0.00762954819947,-0.00718740560114,0.000105854400317,-0.00149540603161,-0.00657561887056,-0.00606045173481,-0.00288842921145,-0.00315861147828,-0.000690550601576,0.00137990235817,0.00156614976004,0.00441842200235,-0.00290242349729,0.00173990533222,-0.00357603072189,0.0026792192366,-0.00606485642493,0.0021381538827,0.00780359609053,0.0010740380967,-0.00845682062209,0.00280220923014,0.00285062124021,-0.00638498552144,0.00795396324247,-0.000150966923684,0.00161515118089,-0.000992931658402,-0.00738117145374,-9.99141630018e-05,-0.00513982819393,-0.00694745359942,0.00524380756542,0.00682290736586,-0.00474227080122,-0.00458876555786,-0.000441355397925,0.00404264964163,-0.00932074990124,-0.00252033909783,0.000887858273927,-0.00342461420223,-0.0012954280246,-0.00567497871816,-0.00559423072264,-0.00391729222611,0.00357363303192,-0.0084904031828,0.000820932851639,0.00841118395329,0.00709677953273,0.00352513184771,0.000510333222337,-4.76896566397e-05,0.00852494314313,0.00106033554766,-0.00565178133547,-0.00150907004718,0.000391710287658,-0.00570220313966,-0.00369407050312,0.00881615187973,-0.000413034518715,-0.00364224240184,0.00664597563446,0.00936121121049,0.00483721029013,-0.00238614622504,0.00664923712611,-0.00782283954322,0.00649028923362,-0.00743489619344,-0.00612209690735,-0.00182436569594,-0.00199535978027,-0.00548902107403,0.00334877637215,-0.00643602944911,0.00625820271671,0.00632172310725,-0.00781398266554,0.00284094875678,-0.00513753807172,0.00246081012301,0.0010613425402,0.00871671829373,-0.00396097451448,0.007235144265,0.0091842925176,-0.00807660631835,-0.00669158203527,-0.00492265168577,0.0069571826607,-0.00503837224096,-0.000159121394972,-0.00828147400171,0.00398354232311,-0.00162521621678,0.00184135430027,-0.000386379600968,0.00406840862706,0.00371925975196,0.00434167403728,-0.00385799398646,0.00213472195901,-0.00768985459581,0.00744397193193,0.0029410040006,-0.000141573676956,0.00759855471551,0.00625780969858,-0.00110263121314,0.00417461711913,-0.00578581029549,-0.00318311178125,-0.00862194877118,-0.00660380255431,0.00426750583574,0.00605719303712,0.00854319799691,0.00869409553707,0.00881075486541,-0.00376857165247,0.00322666880675,0.00211557094008,0.00366724771447,-0.00657900981605,0.000847256800625,0.00848447997123,0.00162258371711,-0.000822598871309,-0.00765349762514,0.00546693895012,0.00538309197873,-0.0065358215943,0.00102845428046,-0.00301265507005,-0.00295854033902,-5.43116184417e-05,0.00440569641069,0.00241756648757,-0.00871666427702,-0.00431689387187,-0.00827872287482,-0.0093227988109,0.00813780445606,-0.00413301819935,0.00428238837048,-0.00511451298371,0.00549466814846,-0.00503614358604,0.00282971328124,0.00290684611537,0.00904256664217,-0.00332089443691,-0.00192338437773,0.00894136354327,-0.00690493965521,0.00216446677223,0.00509149720892,0.00620316108689,0.00405687233433,0.00687495432794,-0.00879886560142,0.00743231317028,-0.00854904111475,-0.00710236513987,0.00786991976202,0.00698878383264,-0.00919059291482,0.00668997410685,-0.00456838961691,-0.00290200323798,0.00407169247046,0.00365629442967,0.00256537809037,-0.000214158295421,0.00912850070745,-0.00344308908097,0.0081287259236,0.00556334806606,0.00654368428513,-0.00459690578282,0.00531881069764,0.00696988636628,-0.00473744329065,0.000820649147499,-8.61510943651e-06,0.00795014109462,0.00801609270275,0.00293528754264,-0.00775871379301,-0.00825222674757,0.00646286644042,0.00683414004743,-0.00551569787785,-0.0053231776692,-0.00415024859831,-0.000105203762359,0.0070240739733,0.00729151489213,0.00134525354952,-0.00181883305777,0.00367923802696,-0.00922172702849,-0.00611397018656,-0.00247681583278,0.0022396731656,0.00260542170145,-0.00740725081414,-0.000251193298027,-0.000727535516489,0.00845466647297,0.00258175423369,-0.00360790360719,-0.00535467592999,-5.84236477152e-05,-0.00227709813043,0.00333200837485,0.00698577286676,-0.00817126501352,-0.00487515656278,-1.75814238901e-05,-0.00126105162781,0.00141212914605,-0.00541449105367,0.000598188547883,0.00084615952801,-0.00357997696847,0.00782022066414,-0.00765824550763,-0.00490083871409,0.00215477636084,-0.00210102414712,-0.00307079846971,0.00121997355018,0.00883372221142,-0.00259882910177,-0.000452420179499,0.00429130671546,-0.00234794896096,0.00292192632332,0.00891674496233,-0.00543433846906,-0.000502515933476,0.000576831575017,0.00534643651918,-0.00777683034539,-0.00485392473638,-0.00695571256801,-0.000305618217681,-0.00283155823126,0.00167719624005,0.00368796219118,-0.00720113655552,-0.0029546674341,0.00169725273736,-0.00690915575251,0.00449359416962,-0.00909701734781,-0.007916665636,0.00109596387483,-0.00131647917442,0.00828288961202,-0.00230347551405,0.00667655840516,0.000972330220975,-0.00657397974283,0.00829278398305,0.00164591136854,-0.00717682251707,-0.00832545757294,-0.00818435102701,0.00151715031825,-0.00744846137241,-0.000364709703717,0.00603484036401,-0.0042612417601,0.0049776933156,0.00512683391571,0.00526902452111,-0.00435419706628,0.00856728851795,-0.00496543431655,-0.00143398251384,-0.00384740065783,0.00449135433882,0.00391186913475,0.0020735275466,-6.86953399054e-06,-0.00767056597397,0.00305604119785,-0.000796677253675,-0.00635737553239,-0.000834513863083,-0.00939107965678,0.00680700875819,-0.00629163905978,0.00383457983844,0.000945368490648,0.00838787201792,0.00461867079139,-0.00376863218844,-0.00619071209803,0.00153961742762,-0.00556852901354,-0.00710944551975,-0.00743021909148,0.00123168446589,-0.00786766689271,-0.00488871801645,-0.00659211026505,0.00669625634328,-0.00417394004762,-0.00164766737726,0.00329507794231,0.00388947525062,-0.00585613865405,-0.00330102001317,-0.00418425910175,0.00854592584074,-0.00838670879602,-0.00502145336941,-0.00173932430334,0.00676409620792,0.00644497666508,-0.00336333364248,-0.00120852829423,0.00350800296292,-0.00421895878389,-0.00140108226333,-0.00729012582451,-0.000829143216833,-0.00469110533595,0.00362217379734,0.00314636575058,-0.0055260960944,0.00216509471647,-0.00713892187923,0.00503064412624,-0.00722558004782,-0.00438941502944,-0.00367890670896,0.00571636063978,-0.00152662070468,-0.00166963378433,0.00597954401746,-0.00334062241018,-0.00123252836056,-0.00168057740666,0.00648958049715,0.00750057259575,0.0038692348171,0.00246486603282,0.00727384211496,0.00497262738645,0.00626527192071,-0.00467770546675,-0.00114807311911,-0.00926664099097,-0.00290621560998,-0.00809253752232,-0.00240224087611,-0.00396848609671,-0.0062835062854,-0.0021998253651,-0.00236993771978,-0.00278494996019,0.00353202642873,-0.00671027926728,0.000780897215009,-0.00413619214669,-0.000277646584436,0.00245721475221,0.00628073560074,-0.00696848751977,-0.00298562180251,0.00328742549755,-0.00623867986724,-0.00573974847794,-0.00694273039699,0.00872263498604,0.00122160708997,0.000131655266159,0.00342297437601,0.00859845709056,-0.000453769083833,-0.00912107806653,0.00286554195918,-0.00753094535321,-0.00199075881392,-0.00297015230171,-0.00925350561738,-0.0073071802035,0.00432964693755,-0.00365534098819,-0.000500798458233,0.00494098383933,-0.000318614620483,-0.00121821719222,0.00447314186022,0.00708952266723,0.00798579119146,-0.00875455047935,0.00912564154714,-0.00818023178726,-0.00866606272757,0.00444244407117,-0.00118900113739,-0.00303333369084,-0.00477839400992,0.00556215224788,0.00597535772249,0.00883479136974,0.00545744784176,-0.00834462139755,0.00182697270066,0.00655234558508,6.91879467922e-05,-0.00201976881362,-0.000433599343523,-0.00236237095669,0.00404215743765,0.00822013430297,-0.0085003329441,0.00455360114574,0.00325286109,-0.00119125039782,-0.000736281916033,-0.00324726477265,0.00912563316524,0.00612112879753,-0.000603722524829,0.00471568293869,3.77809665224e-05,-0.0065643619746,-0.00211281771772,-0.00302033941261,0.000845439208206,-0.00902569573373,-0.00262253475375,-0.00777438888326,0.00409655785188,-0.00222267396748,0.00483229989186,-0.000956178002525,-0.00415721349418,-0.0037566605024,0.00820684619248,-0.00555335683748,0.00651270803064,0.00521386694163,0.0066553838551,-0.00799253210425,-0.0017564566806,-0.0015122203622,-0.00525163160637,0.00809278339148,0.00366195780225,-0.00394647801295,-0.00717032980174,-0.00891097262502,-0.00651249522343,-0.0045502949506,0.0074395253323,0.00939449016005,0.00669974600896,-0.0012098995503,-0.00494348164648,0.00149050308391,0.000659763114527,0.00669530639425,-0.00729426229373,0.00500925071537,0.00142957968637,0.00356474262662,0.00613902136683,-0.00507054990157,0.00783482939005,0.00715779792517,-0.000738832284696,-0.000748034217395,0.00403705006465,0.00384698063135,-0.00749443145469,-0.00432475656271,-0.000714973430149,0.00683602178469,-0.00709808431566,-0.00824985839427,-0.00397845543921,-0.00535784941167,0.00397011591122,0.0037298835814,-0.00597703596577,-0.00177309266292,-0.00109393289313,-0.0051784273237,0.00394833274186,0.00930264592171,0.00222163461149,-0.0036862352863,0.00572926225141,-0.00834997743368,-0.00446706172079,-0.00888135749847,0.00373254716396,0.00196067779325,-0.0031558808405,-0.00547014409676,0.000519944180269,-0.00245468085632,0.00780682824552,0.0030585960485,0.0040258327499,-0.00673758238554,-0.0090208677575,0.00207292940468,-0.00467899208888,0.00803422275931,0.00687913689762,-0.00419028056785,-0.000970878987573,-0.000693298410624,0.000662755221128,-0.00204631104134,-0.00305280881003,0.00564650958404,0.00495457649231,-0.00466667441651,-0.00540161551908,-0.000976602663286,-0.00702500715852,-0.00700881192461,0.00609511090443,0.00401219679043,-0.00374620128423,0.00720279105008,-0.00162123935297,-0.00617262953892,0.00460967794061,-0.000897108169738,-0.00618251319975,-0.00857761502266,-0.000117134331958,-0.00351890246384,-0.000694058719091,-0.00350765371695,-0.00288147339597,0.00717910192907,0.00631515076384,-0.00648727081716,-0.00498825265095,-0.000762009120081,0.0015200166963,0.00293013686314,-0.00701059726998,0.00201945519075,0.00722284242511,-0.00851756520569,0.00154431490228,0.00678645865992,0.000173297259607,-0.00353562715463,0.00254855584353,0.00121578900144,-0.00725863594562,-0.00800645817071,-0.00276902294718,-0.0036216143053,-0.000709404062945,0.00487974099815,0.00641600601375,-0.00417580315843,0.00261515006423,-0.00216031190939,-0.00870928913355,0.00743873836473,-0.000515909108799,0.00221750303172,-0.00491073727608,0.00534875318408,-0.00385044957511,-0.0027126846835,-0.00861752778292,0.00313675892539,0.000608194037341,-0.00269199698232,0.00764226447791,-0.0022989215795,-0.00117238168605,-0.00889887753874,0.00284631527029,-0.00435900595039,0.00507547240704,-0.00195466517471,-5.37235200682e-06,-0.00878226477653,0.00133821554482,-0.00844050943851,-0.00567639386281,0.00933174416423,-0.00587832415476,0.00584085099399,0.00681169843301,0.00422576628625,0.00456852652133,0.00266189617105,-0.00655084615573,-0.00902445986867,-0.00530619360507,-0.00407052086666,0.00814157072455,0.0043374998495,0.00288128829561,0.00451416382566,-0.00677524646744,-0.00639479188249,0.0052104764618,0.000832823920064,0.00266706640832,0.00477278232574,-0.00200645672157,-8.26591349323e-05,0.00442357501015,-0.000163956006872,0.00352817471139,0.00693871220574,0.000949542911258,0.00292015401646,0.00658635795116,-0.00493895635009,-0.003548291279,0.00928832404315,0.00931293144822,-0.0066752540879,-0.00417753821239,-0.00527566252276,0.00399299059063,-0.00268188747577,-0.00099165586289,0.00220981659368,0.00393369980156,0.00538197532296,0.00719537818804,-0.0067340391688,-0.00533957593143,-0.00463983416557,0.00542798172683,0.00397632503882,-0.00489477906376,-0.00394617533311,-0.00181708333548,-0.005233715754,0.00522736692801,3.45126936736e-05,-0.0088292742148,0.000807334145065,-0.00881473440677,-0.00509295100346,-0.00543183088303,0.00434162188321,-0.000765109376516,0.0092396857217,-0.00772974127904,-0.00286495755427,0.00499563105404,0.00170027278364,0.00545232510194,-0.00400041043758,-0.00288740731776,-0.00557185942307,0.00699196523055,0.0045661823824,0.000198768349946,0.00272050849162,-0.00919843558222,0.00103344523814,0.000124063299154,0.00177183165215,-0.00226741516963,0.00198956532404,-0.00614579347894,-0.00108205596916,-0.00510305678472,0.00627224054188,-0.0048714959994,-0.00465014344081,0.002429560991,0.00886903703213,-0.00675349496305,0.00587844289839,0.000680664961692,0.00507855834439,-0.000354259711457,0.00508877262473,-0.00676884083077,-0.000663300044835,-0.00400649802759,0.00757380668074,-0.00449775904417,0.00712275411934,-0.00706909364089,0.00434629339725,0.0066134352237,-0.00317393383011,0.00937113538384,-0.00294991675764,0.00271767750382,0.00345399067737,-0.00712955789641,-0.00410222029313,0.0019232260529,-0.00205668550916,-0.00460251607001,-0.00894090533257,0.00658762361854,0.000803135044407,0.00270288530737,0.00520505569875,0.00392846483737,0.00226607057266,-0.00875218119472,0.00796577520669,-0.00704141892493,0.00418627820909,0.00456412183121,0.00656239688396,-0.00387087184936,0.00749308941886,0.00297285034321,-0.00406656321138,-0.00921259634197,0.00470582349226,-0.00340000865981,0.00286910170689,0.00016148108989,0.00402571447194,0.00801189336926,0.00751066720113,-0.00579986767843,-0.00362530164421,0.00340601266362,-0.00091206288198,0.00868180859834,0.00113713392057,0.00321062398143,0.000855007732753,-0.0034881811589,0.00698677171022,-0.00640153698623,0.00874365586787,-0.00638361694291,-0.00163249287289,-0.00666501373053,0.00852755270898,-0.00655636237934,0.00111548462883,-0.000607559282798,0.0078139109537,0.0090988446027,0.000352550850948,0.00319640920497,0.00924468040466,-0.000472885149065,0.000309568888042,0.00783659890294,-0.00130937097128,-0.00670150574297,-0.00501517299563,-0.00812589097768,0.00886562280357,-0.00377167318948,-0.00389130879194,0.00135124754161,0.00320345140062,0.00864441040903,-0.00420550024137,-0.00763981696218,-0.0087453564629,-0.00914995744824,0.00398260401562,0.00603169202805,-0.00244295690209,-0.00847257394344,-0.00655839825049,0.00847047101706,0.000995922484435,-0.00883288029581,0.00741691375151,0.00561975222081,-0.000683357822709,-0.00501260859892,0.00451000640169,-0.00799738243222,-0.0075251897797,0.000961426645517,-0.00259835645556,0.0049591246061,0.00395713653415,-0.00249350327067,0.00506308209151,0.00357188866474,0.00587015086785,-0.00361914024688,-0.0078015117906,-0.00725215487182,0.00220583286136,-0.00179283728357,-0.00725259445608,5.97398393438e-05,-0.00749344471842,0.00302204210311,0.00818755012006,0.000742541975342,-0.00335999717936,-0.00522064976394,0.00594088574871,-0.00584627687931,-0.00194604019634,-0.000324669003021,0.00833923369646,-0.00305545981973,-0.0084111187607,-0.00370817771181,-0.00202611205168,-0.0018847027095,-0.00351774529554,0.0039249593392,0.00305534224026,0.00668509397656,0.00832083635032,8.73073804541e-05,-0.00651012873277,0.0047655319795,-0.000210630489164,-0.00371833657846,0.00121155870147,-0.000937632052228,-0.000976610695943,0.00863376446068,0.0080559393391,-0.00838143005967,-0.00916182808578,-0.00868510361761,0.0093071134761,0.00910166278481,0.00149552884977,0.00454934313893,0.00580800045282,0.00238203490153,0.000178504124051,0.00508898310363,0.0048564565368,0.00477100815624,0.00628427509218,-0.00408444646746,-0.00406470522285,0.00846852175891,0.00817723665386,0.00870302785188,-0.00805740430951,0.00114521477371,-0.00537611683831,-0.000553031859454,0.00618274277076,-0.000319045502692,0.00875865947455,-0.00196172040887,-0.00934178568423,-0.00362548604608,-0.00591487344354,0.00708559388295,-0.00698648486286,0.003032366978,-0.000729052524548,-0.00384358642623,0.00458631711081,-0.00727544026449,0.00497004948556,0.00155838998035,-0.00100126222242,0.00102349987719,0.00568726845086,-0.00288669625297,0.00443923892453,0.00430218549445,-0.00519431149587,0.00484895100817,-0.0058805081062,0.00679155858234,-0.00895901303738,0.00667227013037,-0.00919817108661,-0.00846386794001,0.00806746166199,-0.00533580593765,3.59089535777e-05,-0.00036585223279,-0.00236247479916,-0.00602894276381,-0.00687110703439,-0.00494239293039,0.00809705257416,0.00273684621789,-0.00654115807265,-0.0051236981526,0.00214619329199,-0.00534793222323,0.00781556218863,-0.00585682690144,0.0073339114897,-0.0068779187277,0.00288762291893,0.000607833149843,-0.00323676271364,-0.0055527552031,-0.000409683445469,0.00341315451078,-0.00925446022302,0.00157617358491,8.51615113788e-05,0.00153329712339,-0.00871326308697,-0.00378228281625,0.00849170144647,0.00415973830968,0.0034297555685,0.000248229829594,-0.00450647249818,0.000474981381558,-0.00343754282221,-0.000805498217233,-0.00825801491737,0.00884039048105,-0.00814909115434,-0.00657336832955,0.00712825683877,-0.000620043778326,0.00131662038621,0.00441287830472,0.00905236974359,-0.000705559330527,-0.000510657322593,0.00909897405654,0.00290587125346,-0.00803926214576,-0.0060186102055,-0.00300976773724,0.00100968952756,-0.00523935258389,-0.00469006970525,-0.00541659537703,0.00506149884313,-0.00915930233896,-0.00129510881379,-0.00453430227935,-0.000584476336371,-0.00317342206836,0.000298692961223,-0.00199219724163,0.00764091312885,0.000818601925857,0.00442893337458,-0.00253067375161,-0.00675399880856,0.00561476359144,0.00495721912012,-0.00355641264468,-0.00140220252797,0.00743500795215,0.003273290582,0.00650271307677,0.00320988567546,-0.00297381868586,-0.000365801912267,-0.00777496257797,0.0039065266028,0.00306173041463,-0.00594190601259,-0.00581307290122,0.00765486666933,0.0020933849737,0.00850913859904,-0.00159964815248,-0.00909755099565,-0.00783329457045,0.00283913174644,0.00274452310987,0.0090153682977,0.00444453116506,0.00337380822748,-0.00556291965768,0.00706215202808,0.00377136725001,0.00365618849173,0.000403653335525,0.00564914755523,-0.00839620362967,0.00188570923638,0.00371098937467,0.00727638136595,-0.00314004393294,0.00100580300204,-0.00546682393178,-0.00531688379124,-0.00725667458028,-0.00410276697949,-0.00694566685706,-0.000866238726303,-0.00286745047197,0.0018970426172,-0.00220309593715,0.00150024401955,-0.00694942427799,0.000957749143708,0.00203259265982,0.00511666573584,0.00933980941772,0.00466691982001,0.00419706618413,0.00161599286366,-0.00821663532406,-0.00618492346257,-7.14702400728e-05,-0.00504849059507,-0.0059220790863,-0.00659795245156,0.00425991183147,0.00658967904747,0.00911082699895,-0.00417236238718,0.000275102065643,-0.00874942820519,-0.0073808231391,0.00602731993422,-0.00303421518765,-0.00712505402043,-0.00151591503527,0.00824999902397,0.00793953705579,-0.000215868771193,-0.000297070917441,-0.00101911101956,-0.00624388409778,-0.00533587951213,-0.00470972945914,0.00353363202885,-0.000575602985919,-0.000372074224288,0.00135901849717,0.00472948560491,0.00522529426962,0.000270357180852,0.00791382417083,-0.00883030984551,0.00737345870584,-0.00216935877688,0.00884720683098,0.00907364487648,-0.00259610684589,0.000966611900367,-0.00127587048337,0.00496612396091,0.00469398638234,0.00780979078263,-0.00453176535666,0.00280975154601,-0.00630534812808,-0.000585173314903,0.00356886070222,-0.00131832843181,0.00497211096808,-0.00215314794332,0.0016394215636,-0.00216691964306,0.000157183909323,0.00907726213336,0.00483403448015,0.00510754110292,0.00687315315008,0.00099764415063,-0.00554730510339,0.00447301380336,0.00136295019183,0.00855041388422,-0.00515546742827,-0.00641496805474,-0.000804514565971,0.00449590617791,-8.94630429684e-05,-0.00708754919469,-0.000482783652842,-0.00915857031941,-0.00704666785896,0.005047227256,0.000795306114014,0.0075301672332,0.005181892775,0.00361255113967,-0.00283133191988,-0.00840192846954,-0.00257242890075,0.00681781815365,-0.00201659742743,-0.00115481484681,0.00357375573367,-0.00764112919569,-0.000524806615431,0.00521430047229,-0.00845091696829,0.00120349146891,0.00851942040026,-0.00271213543601,0.00414663972333,0.00762229552492,-0.00372274918482,0.00840360298753,0.00772121408954,-0.00499469833449,0.000215309904888,0.00493532977998,0.00555624533445,-0.0030870528426,-0.00522143719718,-0.000801099929959,-0.00394284259528,0.0077577107586,0.00375044695102,-0.000809442193713,-0.00680250953883,0.00633465871215,-0.00930220354348,-0.00418207654729,-0.00141685863491,0.000894235388841,0.000749636325054,-0.00328363990411,0.00630219839513,0.000586463604122,0.00643159169704,-0.000936786120292,-0.0002161757875,0.00476512173191,-0.00326975248754,0.00236318586394,0.00447499472648,0.00303693348542,-0.00518630957231,0.000548067560885,-0.00346419517882,0.00800624489784,-0.00648156553507,-0.00195844215341,0.00487951561809,-0.000274127349257,-0.00401952071115,-0.00422527128831,-0.00650784932077,-0.00137855194043,0.00781111372635,0.00652630301192,0.000159849689226,0.00682661728933,-0.00604699319229,-0.00469988211989,-0.00625248253345,0.00086587871192,-0.00736705586314,-0.00648511666805,-0.0056215072982,-0.00484295655042,0.00296988012269,0.00268962862901,-0.0061006648466,0.00714687956497,0.00621774233878,0.0056816637516,-0.00216354499571,0.00232776929624,-0.00316610862501,0.00898298155516,-0.000233128739637,0.00867682974786,-0.00774182518944,0.00753230182454,0.00693278061226,-0.00782914552838,-0.00381573662162,0.00231597595848,-0.00442874850705,-0.00713095720857,-0.00745675805956,-0.00930954329669,-0.00721481908113,-0.00800363812596,-0.0011413624743,-0.00843753758818,-0.00318026635796,0.00507072964683,-0.00275470782071,-0.00272976746783,0.00727249495685,-0.00279447366484,-0.00333093339577,0.0014115087688,-0.00872644130141,-0.00436716992408,-0.00774160632864,0.00286131096072,0.000226408650633,0.00583913736045,0.00267052371055,0.00919266976416,-0.00043324084254,0.00896345730871,-0.00323388422839,0.00646168412641,0.001772104064,-0.00375363463536,0.00448755221441,-0.00240079360083,0.00389494770207,-0.00576012721285,0.000517079432029,0.00211980333552,-0.000102670368506,-0.00418129563332,-0.000228092030738,-0.00203082384542,-0.00911576580256,0.000822581350803,0.00160855043214,0.00355135300197,0.00154373887926,0.00523732136935,0.00823339447379,0.000780400645453,0.0060998997651,0.00674172723666,0.00268649472855,0.00477859657258,0.00786088500172,0.0021469371859,-0.00218538683839,0.00809092074633,0.000978601514362,0.00814839918166,0.00599878048524,0.00307816429995,0.00727363722399,0.00103844457772,0.00217874860391,-0.00632787076756,-0.00899288244545,0.00623114872724,-0.00056993967155,-0.00821079313755,-1.39880012284e-05,0.00142494833563,-0.00195371313021,0.00343775656074,-0.00766101619229,0.00405693193898,-0.000958603806794,-3.00940246234e-05,-0.00289310258813,-0.00331197679043,-0.00651342095807,0.00312980497256,0.00615750392899,-0.00540845654905,0.00574384769425,0.00552737386897,-0.00785048492253,-0.00514454487711,-0.00842899270356,-0.00336257484742,0.00322684342973,-0.00923634599894,-0.00624608574435,-0.00721608381718,-0.0021826273296,0.0017595711397,0.00860792864114,-0.000617819430772,-0.00173434626777,0.0084787029773,-0.00323216617107,0.00184800080024,0.00476599670947,0.0050723371096,-0.00237950822338,-0.00171170197427,-0.00861625932157,0.00829762406647,-0.00163980410434,0.00607293238863,0.0037082103081,-0.00405562436208,0.00690460111946,0.00619287742302,-1.05171657196e-05,0.00579636031762,0.00637868698686,0.00910408701748,0.00651251990348,0.000118506162835,0.00135857693385,-0.00412782328203,0.00764668779448,-0.00674641737714,0.00804939027876,0.00107603822835,-0.00713180424646,-0.00410024542361,-0.00155558192637,0.00753568392247,-0.0061421347782,-0.00404157023877,0.00553867593408,-0.00472291652113,0.00742849987,-0.00809873826802,0.000294164463412,-0.00697074178606,-0.00358595023863,-0.00621860427782,-0.000899704697076,0.00103060994297,0.00108892668504,-0.00638409424573,0.00754945678636,-0.00572133809328,-0.00279764807783,-0.00409418204799,-0.000968000269495,0.00632651569322,-0.00278777559288,0.00910303927958,0.00248865480535,-0.00290212524123,-0.000894276541658,-0.00393645884469,-0.00635369308293,0.00839692912996,-0.00214651948772,0.00607836106792,0.00180633575656,-0.0012530622771,0.000835705781356,-0.00355226104148,0.006836370565,0.00192749267444,0.00319589208812,-0.00213201297447,0.000234639650444,0.00423357822001,-2.77853941952e-05,-0.0054366029799,-0.0049918689765,-0.00496382825077,0.00504918582737,-0.00527099287137,0.00787930656224,0.00833981391042,-0.00669214362279,-0.00431564543396,-0.00688096135855,0.00620658742264,-0.00685660680756,0.000262030196609,-0.00810223910958,-0.00703585613519,-0.0011694523273,0.0073630255647,0.00557351438329,-0.00675052125007,-0.00290764379315,-0.00759749347344,-0.00738333165646,-0.00793886464089,0.00751827750355,-0.00794646609575,0.00907332357019,-0.00489075947553,0.0025950523559,0.00797900464386,0.00223957654089,-0.00266690552235,-0.000911377137527,-0.00343325780705,0.0022714107763,-0.00452412944287,-0.00155522662681,-0.0078730173409,-0.00717934267595,-0.00508389342576,-0.00607744418085,0.00705326348543,0.00094641110627,-0.00671746535227,-0.00900749303401,-0.00153838342521,-0.00890801008791,-0.00287773367018,0.00699354242533,-0.00937855709344,0.00292160199024,0.00190155045129,-0.00334577611648,0.00391982682049,-0.0053065600805,-0.00430634431541,-0.00234846165404,0.00382030475885,-0.00353446207009,-0.00935412012041,0.00208486546762,-0.00435527600348,0.00479798624292,-0.00475425040349,-0.00834232475609,-0.0081817060709,-0.0016923105577,-0.00889561139047,-0.00692519219592,-0.00670353136957,-0.00376121792942,0.00876488815993,-0.00846048910171,0.00450358027592,0.00326323532499,-0.0042879213579,-0.00809343345463,-0.00409780303016,0.00304277683608,-0.00867452565581,-0.00885152444243,-0.00216190307401,0.00357018527575,0.00881033018231,0.00736685330048,0.00519927451387,-0.00386601127684,0.00581155717373,1.37513643494e-05,-0.00545158423483,-0.00764568895102,-0.0011719323229,0.00390370050445,-0.00197508418933,0.000447020982392,6.14227537881e-05,0.0087566524744,-0.00160727335606,-0.0052892700769,-0.00716754654422,-0.00714323949069,0.00347002386115,-0.00431054178625,-0.0015270706499,-0.0030981709715,0.00820750650018,-0.000890161143616,0.00143746787217,0.00440650060773,-0.000930011505261,-0.00157393945847,-0.00914049334824,-0.00337686738931,0.004168511834,-0.00685703614727,-3.47038039763e-05,0.000101444929896,-0.00477242097259,-0.00722249830142,0.00308412290178,0.00875293742865,-0.0027208821848,0.00214549619704,-0.00431319046766,0.00186107354239,-0.00924365501851,0.00107696780469,0.00882640480995,0.00739432591945,-0.00643155025318,0.00147804431617,0.00106215302367,0.00329628889449,-0.00517490459606,0.00116645626258,0.000819447799586,-0.00657040346414,-0.00347596593201,-0.0017473512562,0.00195020413958,-0.0014131066855,0.00892994459718,-0.00256311357953,0.00351621187292,-0.00526396557689,-0.00638957601041,0.00716222636402,-0.00376939098351,-0.00138405023608,0.00427334615961,0.00853779353201,-0.00618240144104,-0.00519101275131,-0.00779578601941,0.00748829683289,0.00358235347085,0.00433519948274,-0.00242722802795,0.000364062696462,-0.00486721657217,-0.00464472267777,0.00172296725214,-0.00493915565312,-0.00659595057368,0.00137516553514,0.00118469272275,-0.00537850055844,0.0056832311675,0.00926748476923,-0.0020196584519,-0.00860471837223,-0.00645976653323,0.00440414249897,-0.00779471267015,-0.0018288649153,0.00645108660683,-0.00382605288178,-0.00667775562033,0.00932725239545,-0.00932098738849,0.000524754519574,-0.00931431166828,-0.00664469692856,-0.00818063598126,-0.00773607706651,0.00348236784339,0.00895223300904,0.00830234680325,-0.00197839876637,-0.0023740795441,-0.00805456005037,0.000804669165518,-0.00410767830908,-0.00472414912656,0.00573028810322,-0.00938288960606,0.00391297182068,6.82037571096e-05,-0.006459064316,0.00937133282423,0.00511463358998,-0.00526699004695,0.00160435354337,0.00326372287236,0.000790606427472,0.00464903376997,0.00899448432028,-0.00102181162219,0.000492808176205,-0.00256897485815,0.00717131886631,-0.00024836108787,-0.00209337309934,-0.00563828879967,0.00709363352507,0.00866450835019,-0.00841150432825,-0.00360606657341,-0.00911563076079,-0.00626770500094,-0.00916767865419,0.0055707921274,0.00690812710673,0.00880978442729,-0.00399825442582,-0.00269910669886,-0.0050336625427,-0.000520868576132,0.00786444917321,0.0061376360245,0.00133492110763,-0.00777047453448,0.00893274880946,-0.00343065825291,-0.00603479286656,0.00908068940043,-0.0040274001658,-0.00598809681833,-0.00216524512507,-0.00157354271505,0.00726139219478,-0.00366295268759,-0.000679527234752,-0.000906734028831,-0.00271847075783,0.00194118986838,-0.00809662044048,-0.00264212954789,-0.000900000100955,0.00162070395891,-0.00846506934613,-0.000573131954297,-0.00391700444743,0.00729970121756,0.00657045934349,-0.00844712555408,-0.0074468399398,-0.00796653144062,0.000492077204399,0.00906945951283,-0.00542637752369,-0.00281152222306,-0.00488399155438,0.00933425873518,0.00458189984784,0.00882397778332,5.51409684704e-05,-0.00906849652529,-0.00538657559082,0.00102902564686,0.00141549541149,-0.00441309949383,-0.00247695180587,-0.00823190622032,0.00129561347421,0.00429342128336,-0.00695650558919,0.00866286456585,0.00593979051337,0.00286168744788,0.00888946745545,-0.00179380131885,-0.000919630692806,0.000542578811292,0.00411935383454,-0.00461971666664,0.00651228427887,0.00573143316433,0.00233132834546,-0.00265462975949,0.00046956713777,0.00737688876688,0.00586833292618,-0.00750288832933,0.00214267638512,0.00295788724907,0.000822194211651,-0.00505061261356,0.00701228296384,-0.0025985352695,-0.00347859458998,0.00626878347248,0.00532220024616,-0.0078044841066,-0.00869272649288,0.00520339189097,0.00913156755269,0.0024046858307,-0.00440609781072,0.00358780403621,0.0044612926431,0.00725599424914,0.00320687610656,0.0079354448244,0.00673787901178,-0.000189617712749,0.00741025060415,0.00611770199612,0.00646792678162,0.00241695600562,-0.00128848920576,-0.00107812474016,-0.00532840099186,-0.00785146281123,0.000451527856058,0.000650077417959,-0.00566250272095,0.00478058401495,0.000297544640489,-0.00546532683074,0.00858980137855,-0.00392487086356,0.00873061269522,0.00485228933394,0.0074919112958,-0.00327242049389,0.00935833435506,-0.00287888315506,0.000957558688242,0.0037285941653,0.00155230390374,0.00357204535976,0.00435784691945,0.00740024959669,0.00291378749534,0.00739432638511,0.00161930581089,-0.0031186696142,0.00467135338113,-0.00881974585354,-0.00608468940482,0.00896997470409,0.000282926688669,-0.0092983758077,0.00513265701011,-0.00914313364774,-0.00223031151108,0.0032209334895,0.00124871067237,-0.00492261536419,-0.00164627772756,0.00889123883098,0.0042255888693,0.00576955964789,0.00837564934045,0.0083187809214,0.00898635108024,0.00654368102551,0.00661706738174,0.00263262516819,-0.00475539872423,0.00208359956741,-0.00493688788265,0.000344629253959,-0.00767623726279,-0.00184780429117,-0.00547116436064,0.00167591951322,0.00437541399151,0.00057203497272,-0.000525352486875,0.00776616390795,-0.00514493184164,0.000361265789252,-0.000539438682608,-0.000291300268145,-0.00699285045266,-0.00115654745605,0.00255894870497,-0.00370905944146,-0.00618526432663,-0.00129445095081,-0.00479995785281,-0.00141931290273,-0.00463488698006,-0.00726792914793,-0.00570793449879,0.00548699265346,0.00750673376024,-0.00719989696518,-0.0062003005296,-0.00271421181969,0.00387946213596,-0.00645790295675,-0.00424285465851,0.00899856351316,0.00712372688577,-0.00589251983911,-0.00727966800332,-0.00400915089995,-0.00588404806331,0.00764977140352,-0.000970169785433,-0.00294246594422,-0.000148441147758,-0.00128762004897,0.0085618859157,0.00310947652906,0.00774666387588,-0.00650374172255,0.00387062365189,0.00841651298106,0.00613231677562,0.00546494266018,-0.00822179578245,-0.0014179488644,0.00394416507334,-0.000364677951438,-0.00592459272593,0.000851659162436,-0.00834299158305,-0.00930806528777,-0.00636718003079,-0.00802810676396,-0.000992412678897,-0.00874067377299,-0.00233909464441,0.0068308818154,0.00776169029996,0.00621987273917,0.000687133637257,-0.00346224848181,-0.00257784617133,-0.00536524225026,-0.00607467489317,-0.00605338066816,-0.00164030608721,0.00177212932613,0.00765448296443,-0.00782084278762,0.0060057323426,-0.00172675354406,-0.00788720138371,-0.00337607087567,0.00132914120331,0.00774476025254,-0.00854587368667,0.00726366275921,0.00158826471306,-0.00214304029942,0.0042913374491,0.00777817331254,0.00335179176182,-0.00417980225757,0.00774857122451,-0.00647785561159,-0.00691252294928,-0.000756011926569,-0.00519650243223,0.0030249489937,-0.00898339040577,0.00254185334779,-0.00378264440224,-0.000122686979012,-0.00712382001802,0.00342165958136,0.0056919362396,0.00383691280149,0.00745058385655,0.000288474519039,-0.000601889390964,-0.0062454608269,0.00827307254076,-0.00937200337648,-0.00228375452571,-0.00325995194726,-0.00244524772279,0.00786075461656,0.00808932818472,-0.00170026684646,-0.000824368558824,0.00473927659914,0.00757016567513,-0.00385249382816,-0.00112059083767,-0.00553696369752,0.00331810186617,-0.00192946696188,-0.00656974175945,0.00200271094218,-0.00538152270019,0.002832822036,0.00326540111564,0.000639655918349,-0.0047453539446,-0.00173630600329,-0.000100024743006,-0.000183160067536,0.00598271377385,0.00139087834395,-0.00762649765238,0.00538160325959,0.00926144327968,0.00537454849109,0.00915990676731,-0.00603129342198,0.00555975455791,-0.000507631979417,0.00925390794873,0.00609912909567,-0.00675766170025,9.81351331575e-05,-0.00163719058037,-0.0007784323534,0.00558112282306,-0.00431460514665,-0.00934317987412,0.00170645641629,0.0082509694621,0.00073592964327,-0.0067216893658,-0.00461355457082,-0.00935111474246,0.00293544889428,-0.00675758626312,0.00532902311534,-0.000749719503801,-0.000934139534365,-0.00187860731967,0.00209589209408,-0.00764522654936,0.00265330122784,0.0082572074607,0.007842422463,0.00640743039548,-0.000175498978933,0.00232323072851,-0.00103410717566,-0.00711884908378,-0.00847229268402,0.00379808736034,0.0016282965662,-0.00321034924127,-0.00385125284083,0.00166154967155,0.00517719937488,0.00132166547701,0.00649493886158,-0.00230480311438,0.00537784956396,0.000981667544693,0.00917131174356,0.00191311119124,0.0075508072041,-0.00783701427281,0.00658149598166,-0.00313714030199,0.009097722359,-0.0061999047175,-0.00396163016558,-0.00613329699263,-0.00328829023056,0.00461798347533,0.00321390246972,0.00664141401649,-0.000334155920427,0.00391764240339,0.00925083272159,0.00745880138129,0.00132696155924,0.00511375581846,-0.0013436533045,0.00420658942312,-0.00172982679214,0.00696070073172,0.0043669976294,-0.00771921128035,-0.00244301906787,0.00753272417933,-0.00275442446582,0.00625877501443,0.00537224905565,0.00626961188391,0.000562739383895,0.00751603441313,-0.00146901013795,-0.00534060504287,0.00553294131532,0.000966656079981,0.00385561771691,0.0091500300914,-0.00479179853573,0.00480119558051,0.000749536673538,0.000580255582463,0.00916279666126,0.00124606466852,-0.00303465151228,-0.00928271654993,0.00214859680273,0.00332312774844,0.00655945250764,-0.00645065167919,-0.00254434207454,-0.00429810769856,-0.00115241180174,0.00636473018676,-0.00286390678957,0.00797696225345,0.00478427670896,-0.0012698834762,0.0092043671757,-0.00143930024933,-0.000820853223559,0.00802296213806,-0.00888658501208,-0.00919439550489,0.000403072248446,0.00487689534202,-0.00649761315435,-0.00336670246907,0.00203287438489,0.00455599091947,-0.0017358744517,0.00498729664832,-0.00299335131422,-0.00740552507341,0.00343189039268,-0.00247950712219,-0.000462736206828,-0.00156574917492,-0.00123180111405,-0.00574758090079,0.00884960312396,0.002359256614,-0.00501208705828,-0.00585903599858,-0.00548188714311,0.00204028561711,0.00673773279414,-0.00365819013678,0.0053786453791,0.000472086889204,-0.00590398069471,-0.00587114691734,-0.00232790829614,7.66434313846e-05,0.00255549000576,0.000328499823809,-0.00897202081978,0.00318751740269,-0.00501671759412,-0.000228248609346,-0.00271634897217,-0.00184669194277,-0.00659699784592,-0.00504141580313,0.00549554824829,-0.00202874746174,0.000523021502886,0.00296806776896,0.0066867750138,0.0016929715639,0.00622925581411,-0.00219602114521,0.00937594007701,3.3854987123e-05,-0.00148541864473,0.0064682145603,0.00512328185141,-0.00201039435342,0.00371391209774,0.00863392371684,-0.00912785902619,0.000564985210076,-0.00547836953774,-0.00739170890301,-0.00449167983606,-0.00886546447873,-0.000626304768957,0.00826351344585,0.00478237681091,0.00511356815696,-0.000199677961064,-0.00454485183582,0.00225786259398,-0.00913771707565,-0.00545296119526,-0.00870027113706,-0.00203507835977,-0.00837348680943,-0.00267008901574,-0.00408634217456,0.00392808811739,0.00418232893571,-0.00846741255373,-0.00166870246176,0.00503239966929,0.00249087484553,0.00646656239405,-0.00397619931027,0.00189752981532,0.0013908179244,0.00571680255234,0.000697634881362,-0.00877090822905,0.00823711417615,-0.00919074937701,0.00409574061632,-0.00290170055814,0.00427210284397,-0.00670216418803,-0.00458720745519,-0.00288941687904,0.00256243115291,-0.00491357594728,0.00444262148812,-0.00659448234364,-0.00552291655913,-0.00645286776125,0.00569147011265,-0.00326630380005,-0.00550258718431,0.00884813349694,-0.00847673974931,0.00602820981294,-0.00611069612205,0.0086583327502,-0.00783830881119,0.000952449627221,0.00691790273413,-0.00545462127775,-0.0046420302242,-0.00455103209242,-0.00168544019107,-0.00769033841789,-0.00641397433355,-0.00030569935916,0.00474026659504,0.00930185616016,0.0073674544692,0.0032752272673,-0.0022232234478,0.00711624743417,0.00098700763192,0.00835325662047,0.00786266010255,-0.00467635551468,0.000491806829814,0.00449726590887,0.00290110264905,0.00503488909453,-0.00335852336138,0.00738776894286,-0.00676746759564,0.00525224814191,-0.00223772088066,0.000164538694662,-0.00448570819572,0.0041695125401,-0.00852030608803,0.00339213758707,-9.38693628996e-05,-0.00401105498895,-0.00200013956055,-0.00400705216452,0.00708105135709,-0.00337767810561,0.00910811964422,-0.00860163755715,0.00142020406201,-0.0015866428148,-0.00451713660732,0.00498166307807,0.0026295594871,0.00853745918721,-0.00433836784214,-0.00503672566265,-0.000513770850375,-0.00237053795718,-0.00540970079601,0.00108231510967,0.00839100312442,0.000313693191856,0.00389458681457,-0.000217997425352,-0.00810454599559,-0.00662548094988,-0.00693283695728,-0.000576196471229,0.008829113096,-0.00777947157621,-0.00847631320357,0.00544415507466,0.00920028518885,0.00905371177942,2.99469647871e-05,0.000429905456258,0.0043404228054,-0.00626666564494,0.00916774664074,0.00657602865249,0.00606522057205,-0.000232728547417,-0.00028954341542,0.00728321634233,0.00581351108849,-0.00187538808677,0.00343457283452,0.00490165082738,0.0056122308597,0.00474588340148,0.00814198516309,0.00882701948285,0.00303846481256,0.00257107825018,0.00312032876536,0.0012877243571,0.0013853427954,-0.00326592870988,0.00476845679805,-0.00938193313777,-0.00182815932203,0.00565961236134,-0.00545585295185,-0.00584471877664,0.00464378902689,0.00638226838782,-0.0019224982243,-0.00171432085335,-0.00479589495808,0.00895163603127,-0.00649705016986,-0.000503965595271,-0.0019023984205,-0.00938274059445,0.00560248224065,-0.00644901394844,-0.00669246446341,0.00920869689435,-0.000455184374005,-0.0008533084183,0.00889950990677,0.00145403074566,0.00290278857574,-0.00767935579643,0.00720737455413,-0.00927344337106,-0.000998078030534,-0.0063366680406,-0.00432256096974,-0.000598270038608,-0.00754488352686,-0.001606809441,0.00102850853,-0.00182557583321,0.00466091977432,0.00284504424781,-0.00239287456498,-0.00613509537652,0.00537003716454,0.0080691576004,-0.00530800549313,-0.00566883664578,0.00774105172604,-0.00497308932245,-0.00488896248862,0.00140279333573,0.00771133368835,0.00569221936166,0.00816193223,0.00431858608499,-0.00862582400441,0.00791607517749,-0.00200408231467,0.00472480570897,-0.000166682642885,-0.00330174621195,0.00749844266102,-0.00177434610669,-0.00175186654087,0.00405959691852,-0.00480369990692,-0.00596324913204,-0.000428134080721,0.00543790031224,0.00420701364055,0.000873218348715,0.00234549050219,0.00588779198006,-0.00732945092022,0.00274070072919,0.0081494525075,0.00242217513733,-0.0081894826144,-0.00130736432038,-0.00160220870748,0.00236717658117,0.00906165875494,0.0090558398515,0.00926243327558,0.0045201885514,0.00904787890613,0.00193170830607,0.00792512577027,0.00401928136125,0.00775487255305,-0.00841752160341,-0.00765118282288,-0.00698661385104,-0.0087742516771,-6.61714802845e-05,0.00713156955317,-0.00779714202508,0.00446123024449,-0.00260636303574,-0.00251607829705,-8.67584788011e-07,-0.00609330460429,0.00162216590252,-0.00865350849926,-0.00923645868897,0.00244578905404,0.00777013227344,0.00413972791284,-0.00242253742181,-0.0013871116098,-0.008997740224,-0.00820311438292,0.00630896212533,0.00442367978394,0.00707605807111,0.00726195378229,-0.00245379726402,0.00932111497968,0.000420262978878,0.00524271186441,-0.00111511547584,0.0030536162667,-0.0019990124274,0.00303356884979,-0.00158893852495,-0.00715974252671,0.00687104091048,0.000392991787521,-0.00291808345355,-0.00590734742582,0.0074623990804,-0.0092505114153,0.0020098737441,-0.00272835744545,-0.00917673576623,-0.00246377615258,-0.00186373852193,-0.00908128451556,0.00715007307008,0.00706397043541,-0.00166709790938,0.00876254029572,-0.0068581616506,0.00410921918228,-0.00417023012415,-0.00128334236797,-0.000755001616199,0.00385763286613,-0.00117292511277,0.00337436469272,0.00785771105438,0.00171689188574,0.00888122245669,-0.0072068227455,0.00624188920483,0.00692411372438,0.000299788924167,-0.00834624189883,0.00551351811737,-0.00349731743336,0.000577540195081,0.00571117224172,0.00648027751595,0.00188302434981,-0.00685907760635,0.0034144311212,-0.00157861015759,-0.00145831657574,-0.00246451818384,0.00791966915131,-0.00530203524977,0.000559380336199,-0.0056452662684,-0.00358360912651,-0.00901252217591,0.00523132039234,0.00923365261406,-0.00876418035477,-0.00841786991805,-0.006038534455,0.00248138327152,0.00115454755723,-0.007508110255,-0.00250657484867,-0.00906850770116,0.00604140385985,0.00646466435865,0.00159614754375,-0.00419953465462,0.00366097711958,0.00100313068833,-0.00558275263757,-0.00698705669492,-0.0019529616693,0.000817776308395,-0.00138231320307,-0.00299304490909,0.00230013718829,-0.00908605661243,-0.00478562619537,0.00260058930144,-0.00828457251191,0.00270788557827,0.00798483472317,0.00793188810349,-0.00752054387704,-0.00508032180369,0.00453568063676,-0.00220053573139,0.00455315643921,-0.00831167399883,-0.00505524454638,0.00402104156092,-0.00600066501647,-0.000937379139941,-0.0063365646638,-0.00126863853075,0.00592727353796,-0.00158264080528,-0.00297985109501,0.000930556212552,-0.00825925543904,0.0089118797332,0.00908204074949,-0.00790120661259,-0.00654206098989,-0.00458230264485,-0.000274627265753,0.00103062577546,0.00814643036574,0.00162119127344,0.00702925818041,-0.00499640544876,-0.0058274413459,-0.00017307640519,0.00524489302188,-0.00711640855297,0.00684911198914,0.00935687217861,-0.00306453276426,-0.00311736622825,-0.00708343181759,-0.00363303301856,-0.0014319261536,-0.00326931080781,-0.00910097640008,-0.00932005234063,0.00343646272086,-0.00897348765284,0.00237690960057,-0.000395876151742,0.00668458687142,-0.00514320842922,0.000859567662701,-0.00561698898673,-0.0026349236723,-0.00797225441784,0.00111391476821,0.000515656371135,-0.00853474065661,-0.00393040524796,-0.00789790973067,0.0054687182419,-0.00687463674694,-7.90354897617e-05,-0.00463838130236,-0.00613934639841,-0.00899120699614,0.00653668725863,0.0035577614326,0.00939996633679,0.0032303140033,0.00606470741332,0.00873244553804,0.00359736732207,-0.00235637160949,0.00265853991732,0.00165859505069,0.0071698599495,-0.00737763475627,-0.00656303483993,0.00314661324956,-0.00671690050513,0.000661628262606,0.00455960072577,-0.00503085553646,0.00464702490717,6.6853579483e-05,-0.00925025623292,0.00423269765452,-0.00748361647129,0.000599023711402,0.00754583068192,0.00372627028264,0.00885401573032,-0.0053115892224,-0.00687893712893,0.00807808432728,-0.00561152817681,-0.00819124653935,0.00732540246099,-0.00209615658969,0.00815478339791,0.00807172153145,0.00195548171178,0.00663882493973,-0.000183669035323,0.000510628684424,0.000306454196107,0.00601675827056,0.00717826699838,-0.00621370598674,0.00734577467665,0.00396209862083,0.00358193274587,-0.00165088486392,0.00762412231416,-0.00681436574087,0.00497476523742,-0.00876408163458,0.000513994251378,-0.00660458998755,0.00590254878625,-0.000573438126594,0.00390988076106,-0.00707621779293,-0.00923801865429,-0.00613371049985,-0.00739702535793,0.00052485690685,-0.00803137850016,0.00185200141277,-0.00893623288721,-0.0081538669765,0.00449942797422,-0.00843433570117,0.00308045861311,0.00628460524604,-0.00863116700202,0.00164032226894,0.00833467580378,-0.00477725593373,0.00397939328104,-0.00369759881869,-0.00568836554885,0.00647227605805,0.00706159882247,-0.000121094526548,-0.00714156962931,0.00806197989732,-0.00831428170204,0.000919434183743,0.00540107674897,-0.0078467624262,0.00112924037967,-0.00140975904651,0.00488077709451,-0.00274508539587,-0.00511447992176,-0.00521072372794,-0.00265583768487,0.00776418019086,-0.0077534453012,-0.00126887415536,0.0062156226486,-0.00557928765193,0.00922127719969,-0.00597595609725,-0.00406413432211,-0.00486236298457,0.0005431760801,1.53109576786e-05,0.000183782191016,-0.00837637390941,0.0042606391944,-0.00679372437298,0.00869745202363,-0.00689998548478,-0.0065284059383,-0.00670561147854,-0.00806347001344,0.00762651395053,0.00600352976471,-0.00088313431479,-0.00396134285256,-0.00117500661872,-0.00147803791333,-0.00552148744464,0.00323445559479,-0.00657353643328,-0.00691713951528,-0.00133576360531,0.004345449619,-0.00149634224363,-0.00567913800478,0.0069752833806,-0.00734674884006,0.0024847141467,0.00554902758449,-0.00327031873167,0.00140638323501,-0.00804223865271,0.00457424297929,0.00441243685782,-0.00382464658469,-0.00239935959689,-0.008310476318,-0.00476433709264,0.00274071493186,-0.00201341207139,0.00827385578305,0.00103827496059,-0.00866927392781,-0.00220833369531,-0.0093433028087,-0.0018902705051,0.00625489559025,-0.00895692687482,-0.00293736066669,0.00788327306509,-0.00768483523279,0.00930851511657,-0.00299642584287,-0.00901580229402,0.00428368337452,0.00824281200767,0.00598939973861,-0.00521905114874,-0.00320261321031,0.00480693904683,0.00277161854319,-0.0039732339792,-0.00723003642634,0.00178701977711,-0.00272607058287,0.00784017983824,-0.00263960752636,0.00404362566769,-0.000386193656595,0.00482260342687,0.00773577345535,-0.00638450914994,-0.00554816517979,0.00828552991152,-0.00219913315959,-0.00377467810176,0.00108822749462,-0.000634878873825,0.00371275190264,-0.00388278090395,0.000342197949067,-0.00701686553657,0.00104977318551,-0.00688552577049,0.00747150368989,-0.00859646964818,0.00124328990933,-0.000883356959093,-0.00361170643009,-0.00770803447813,0.00293559231795,-0.00223904871382,0.00926737394184,-0.00606871116906,0.00655856681988,-0.00483250245452,-0.000521227426361,0.00839763693511,-0.00109067873564,0.00907375663519,-0.00788088981062,0.0037829738576,0.00360648008063,-0.00787240639329,0.00756985927001,0.00734488014132,-0.00749439978972,-0.00474533811212,-0.00777333276346,0.00157964753453,0.000314205739414,0.00247539673001,-0.0021012078505,0.0029640388675,-0.00894915685058,-0.00548265129328,-0.00598069000989,0.00691176299006,-0.00362499337643,-0.008241542615,0.000238616674324,-0.00911217462271,-0.00423365551978,-0.00653590681031,0.00123624515254,0.00160758302081,-0.00610053678975,-0.0050210529007,-0.00062988238642,0.00342163420282,0.00333411991596,0.0048735444434,0.00533219706267,-0.00454535055906,-0.000972978130449,-0.00630284612998,0.00874304305762,0.00189737114124,0.00327317602932,9.64159335126e-06,0.000273899408057,0.00281972391531,0.00340807531029,0.00242008198984,0.00834465865046,0.00454178778455,0.00311188283376,0.00873849540949,-0.00904376804829,0.00615531112999,-0.00744022987783,-0.00644935294986,-9.74728027359e-05,0.00707347225398,0.00531607167795,0.000471835926874,-0.00155919312965,0.00205954769626,-0.00685049593449,0.00501184491441,0.00622817734256,0.00794911757112,-0.00727873155847,-0.00547338370234,0.00791077036411,-0.00454295240343,-0.0045681274496,-0.00303940731101,-0.00559392943978,-0.000130571206682,0.00343795050867,-0.00250046374276,6.63617101964e-05,0.00114586902782,-0.00486373994499,-0.00592548353598,-0.00575292855501,0.00915023963898,-0.00859006308019,-0.00106311414856,-0.00861816294491,-0.00812798831612,0.000341647828463,-0.000726080674212,0.0062151690945,0.00188803672791,-0.00302166072652,-0.00514705106616,0.000970388995484,0.00113767420407,0.00577203463763,0.00518934382126,0.0058142603375,-0.00696718785912,0.00787110254169,-0.00136412354186,-0.00465236837044,-0.0090052280575,0.000843054032885,0.00223554973491,-0.0018587744562,-0.00516231916845,0.00924478285015,0.00465365033597,-0.00274971476756,-0.0079719722271,-0.00831019785255,0.00845864228904,0.00459116464481,0.00548515841365,-0.000523416034412,0.00128469360061,-0.00665344111621,0.00237303366885,-0.000596720841713,-0.00254348386079,-0.00486563984305,0.00596333108842,-0.000204689073144,-0.00542095350102,0.00868465006351,0.0017170162173,0.000609905924648,-0.00428158743307,0.00644819671288,0.00534772826359,-0.00566494744271,0.00437432667241,0.0068816402927,0.00678253546357,0.00761757325381,-0.00928986351937,0.00651255715638,0.00672432547435,-0.00311465794221,0.00789215695113,-0.00382354157045,-0.00150434393436,-0.0072680125013,-0.00324697676115,0.00683780945837,-0.00175960827619,-0.0073352935724,0.00650354241952,0.00551959406585,0.00886854156852,-0.00424463581294,0.00400389311835,0.002393795643,0.00405683647841,0.00106531591155,-0.00144289946184,0.0049157445319,0.00806313194335,-0.00826244894415,-0.0024622278288,0.00227622222155,-0.00757598737255,0.00127267779317,-0.00748740136623,-0.00764622120187,0.00429535098374,0.00703797535971,-0.00701951188967,-0.000528133532498,0.00879026204348,-0.00640122639015,-0.00315274042077,0.00606108037755,-0.00824133772403,-0.000674111128319,-0.000103288701212,-0.00265668611974,0.0066497749649,0.00367922289297,-0.00874657090753,-0.00635105464607,0.00361862685531,-0.00357243278995,0.00870914757252,0.00396744674072,-0.00717253051698,0.00595121830702,-0.00146297051106,0.00515793310478,-0.00653249491006,-0.00821636989713,0.00824203249067,0.00579923205078,0.00225929892622,0.000772194995079,0.000179282258614,0.00279613700695,-0.00741670606658,-0.00662089092657,0.00163346691988,0.00541756069288,-0.00311987148598,-0.0092263892293,-0.000635822245385,0.00155423535034,0.00226883823052,-0.00132745900191,0.00885427556932,-0.00594004662707,0.00826869253069,0.00224404968321,0.00803225021809,-0.000263577472651,-0.00789617188275,0.00433460855857,0.00287090311758,-0.00703930575401,0.00785615202039,0.00143472326454,0.00895786006004,0.00804555881768,0.00657158251852,0.00281853694469,0.00630548316985,0.00220332364552,-0.00911836046726,-0.00426650233567,-0.000515496009029,0.000734282424673,0.00661420077085,-0.00270807743073,-0.00037291640183,0.0085381558165,-0.00619813334197,-0.00764591572806,0.00031496482552,-0.00812615733594,-0.00017036938516,-0.00589435175061,0.00615790905431,0.00220452994108,0.00251267710701,-0.00901644304395,-0.00264066806994,0.00120293465443,0.00375044951215,-0.000626039400231,0.0073465751484,-0.00550339231268,-0.00607895990834,-0.000549875840079,0.00391600467265,-0.00645123003051,-0.00462072109804,0.00304135587066,0.00432342663407,0.00522379204631,-0.004025246948,-0.00137275806628,-0.0012323143892,-0.005487695802,0.00508147105575,0.00426274118945,0.00515660783276,-0.00488715153188,0.00534985866398,0.00221123639494,-0.00234905211255,-0.00307116773911,-0.00520633161068,-0.00797095429152,-0.000815084669739,0.00908148754388,0.000501861446537,0.00664616655558,0.00584112247452,-0.00130382552743,-0.00790337007493,-9.97566748993e-05,0.00735779525712,0.00153660913929,0.00377412140369,-0.0081844208762,-0.000181378651178,-0.0090994508937,0.00644187862054,-0.00130960776005,0.00662081874907,0.0068718707189,0.00217178883031,0.00436193589121,0.00671643996611,0.00133622111753,0.0012715124758,0.00546313310042,-0.00702825095505,0.00894042477012,-0.00360117666423,0.00524057494476,3.7776321733e-06,-0.00597893167287,0.00162407814059,0.000817268213723,0.00454648118466,0.00258757709526,0.00110919133294,0.00044205901213,0.00510176178068,-0.00704179191962,0.0063940952532,-0.0048834499903,-0.00420691352338,0.008874040097,-0.00551382778212,-0.00285069318488,0.00302120647393,0.0072759911418,0.00146077212412,0.00576694961637,-0.00159804918803,3.75898380298e-05,-0.0042251017876,-0.00277121597901,0.00644861301407,0.0038936343044,-0.00720543926582,0.00546885840595,-0.000241123867454,0.00838777888566,-0.00224042031914,-0.00828598346561,-0.00370926037431,0.00580593198538,-0.00826507527381,0.00341432029381,-0.00752532947809,-0.00223186658695,-0.00175089738332,0.000547727220692,0.0059252451174,0.00583221018314,-0.000470766943181,0.00754281692207,0.00750893773511,-0.000785959651694,0.00515083177015,-0.00156771286856,0.00711580971256,-0.000813488091808,0.00023985489679,-0.000729825580493,0.0024164558854,0.00732296705246,-0.00859133061022,0.00872468482703,0.00511331297457,0.00147870113142,-0.00106171623338,-0.00611335877329,0.00294902338646,-0.00159729958978,0.00779075687751,0.00663520069793,0.00450524641201,0.00631211930886,0.00592389702797,-0.00718261953443,-0.00189656647854,-0.00381924561225,0.00276053580455,0.00481905182824,-0.00339828967117,0.00724172405899,-0.00635839998722,0.00238708802499,0.00178568542469,-0.00568924006075,-0.00743675790727,-0.00446295784786,-0.00261327321641,0.00824862532318,-0.00737031409517,0.000379485776648,-0.00223427871242,-0.000304277084069,0.0021455171518,0.00489101139829,0.00936292577535,0.00516898091882,0.00477138673887,-0.00041340678581,-0.00731994071975,-0.00246322597377,-0.0058912569657,-0.00388395553455,-0.00686631957069,-0.00249243131839,-0.00677322456613,0.00758888293058,-0.00700037321076,-0.00603232858703,0.00441554794088,-0.00649968814105,0.00410411972553,-0.00530294235796,0.00402951007709,0.00459805550054,0.00251028803177,-0.00843108166009,0.00313408346847,0.007687587291,0.00456080352888,-0.00121839891654,0.00152092345525,-0.00862751621753,0.00619810493663,0.00677073560655,-0.00832301657647,0.00423171417788,0.00697794929147,0.00340227829292,0.00473786378279,0.00627400493249,0.00831306446344,0.00638373149559,-0.00473688542843,-0.00170867692214,-0.00683194724843,-0.00718873040751,0.00245580472983,0.00275832857005,-0.00391171546653,-0.00555800320581,0.00108250952326,-0.00154463830404,-0.000555590784643,0.00797925330698,0.00672816531733,-0.0055160257034,-0.00843044184148,0.00177674030419,0.000743035750929,0.00520692532882,0.00919994339347,0.00297262123786,-0.00215573655441,0.00359864044003,-0.00726817455143,0.00522687938064,0.00173383275978,-0.00643971422687,0.00671700574458,0.0085113113746,-0.00865245051682,-0.00518076773733,0.00498880073428,-0.000324384396663,-0.00300187966786,0.00112545234151,-0.00378743791953,0.000811857695226,0.00757625605911,-0.0031734649092,0.00399518059567,0.00244816835038,-0.00431164121255,0.00610126229003,0.00903098657727,0.00819434225559,0.00404373416677,0.00895235314965,-0.000627161061857,-0.00294564850628,0.00307829119265,-0.00441819662228,0.00753227621317,0.00272647105157,-0.00564719410613,0.00181384070311,-0.00899148732424,0.00567918131128,0.00226589757949,-0.00334265222773,0.00404806714505,0.00426756218076,0.00414675567299,0.00367471249774,-0.00281400396489,0.00590784288943,-0.00528096780181,0.00247480347753,0.00577749731019,0.00510486867279,-0.00392230320722,0.00799059774727,0.000507474935148,0.00511758960783,-0.0065358444117,0.00593883823603,-0.00392234185711,0.00612887879834,-0.0029498715885,0.00794446375221,0.00432581687346,-0.00636607967317,-0.0069006937556,0.00912548135966,0.00359970610589,0.00698662968352,-0.00204684352502,0.00882393494248,0.00499169621617,0.00583575665951,-0.00725729996338,-0.00837408285588,-0.00522736925632,-0.00190979347099,0.00718244118616,0.00215472280979,0.00272109592333,0.00915373675525,-0.00260503147729,-0.00413753604516,-0.00174779968802,-0.00186874566134,-0.000684880826157,-0.000865845475346,-0.0084609715268,-0.00133129244205,0.00790846440941,0.00681698415428,-0.00733343604952,-0.008315497078,-0.00372366560623,-0.00737339630723,-0.00246687396429,-0.000344190892065,-0.00507953995839,0.00652208644897,0.00649748137221,0.0030015243683,-0.00529043748975,0.00708555430174,0.00204058014788,-0.000500319700222,0.00111773179378,0.00497617293149,-0.00136582017876,-0.00314273056574,-0.00747817289084,-0.00747978594154,-0.00731192901731,-0.00781820341945,-0.00208732672036,-0.00925277546048,-0.00549907656386,-0.00332833919674,-0.00823846552521,0.00490700034425,0.0062019713223,0.00693898182362,0.00878062378615,0.00848196819425,-0.00431657535955,0.00415998417884,-0.00327787618153,-0.00437058182433,-0.00577055756003,-0.00866713002324,0.00899001024663,0.00900638848543,-0.00694480072707,-0.00325487880036,0.0014315583976,-0.00397609593347,-0.00843530986458,0.00294898496941,0.00261442991905,0.00833933800459,0.000926659733523,-0.00145819957834,0.00379499583505,0.00919983815402,-0.00666150683537,0.00405500689521,0.00800892990083,0.00376836373471,-0.00757770007476,-0.00917704962194,-0.00728910276666,-0.00788435339928,-0.00782509800047,-0.00717415800318,-0.0087263463065,0.00531064346433,-0.0074220164679,0.0067007667385,0.00847743172199,-0.0041167838499,0.00551585759968,0.0065076155588,-0.000571795098949,0.00301157590002,-0.00868909806013,-0.00708782766014,-0.00575880426913,-0.0065528745763,-0.00272846361622,-0.0073780817911,-0.000681438134052,-0.0022116987966,0.00876791775227,0.000345553940861,-0.000205813383218,0.00316051347181,0.00168566557113,-0.00744836265221,0.00826175883412,-0.00503847375512,-0.0017502651317,-0.00663582468405,0.00694659445435,0.00592833850533,-0.000502226117533,-0.00439130561426,0.00901358667761,0.00297891721129,-0.00556792924181,0.0043010818772,-0.00134625204373,-0.00753034325317,0.00876422971487,-0.00135255907662,0.00569727085531,0.00408077938482,-0.00280186254531,0.00415431382135,0.0010138656944,-0.000111947694677,-0.00525507563725,0.00261683133431,-0.00717977387831,-0.00132320763078,-0.00838719215244,0.00197328417562,0.0060307062231,0.00784825906157,-0.00384781789035,-0.00345623586327,-0.000296131795039,-0.00353562412784,0.00880864728242,0.0031056269072,0.00125614576973,-0.00881939660758,0.00324188964441,-0.000397330790292,0.00533021474257,0.00322092487477,0.00747010996565,0.00141111249104,0.00128036690876,0.00714853126556,-0.00361878843978,0.00796965230256,-0.00686057796702,0.00764204189181,-0.00317852920853,0.000729672552552,-0.00283372192644,-0.00309213669971,0.00389157212339,-0.0093127284199,-0.00476818252355,-0.00424181763083,-0.00148047832772,-0.0080381333828,0.00209174468182,-0.000708827632479,0.00879781134427,-0.00405079172924,0.00318463845178,0.00484833680093,0.00222241948359,-0.00433952501044,0.00739796506241,-0.00306069082581,-0.00615556677803,-0.0087464954704,-0.00298808491789,0.000689329463057,-0.00664751417935,-0.00358663778752,0.00517451576889,0.00293679302558,0.00337815308012,-0.00295668235049,0.0091830054298,0.00704048620537,-0.00570040894672,-0.00636991532519,-0.00614359462634,0.00654126564041,0.00725959707052,-0.000980951590464,0.00305498251691,0.00454944791272,0.00539263570681,0.004275332205,0.00263875583187,-0.00286476826295,-0.00201272033155,-0.00780086265877,0.00419206544757,-0.0065227067098,0.00784836150706,-0.00575865060091,0.00599354086444,-0.00305145583116,0.00890126544982,-0.00277754361741,0.00185085530393,0.00876584928483,-0.0054295132868,-0.00528251565993,-0.00288762082346,0.00496128760278,0.00885903090239,0.00681098271161,-0.00154278299306,-0.00925896130502,-0.00725466059521,-0.00913758948445,-0.00687542371452,0.0018109701341,-0.0026249459479,-0.000922223262023,0.00800506025553,0.000203372183023,0.00444533675909,0.00842044502497,-0.00774601381272,0.00163921923377,-0.00398929324001,0.00366103625856,-0.00465781614184,-0.00317947636358,0.00726102758199,0.00101844640449,-0.00285794888623,0.00857200101018,0.00540061248466,-0.0061006071046,-0.000158185328473,-0.00844614207745,0.00659832311794,0.00815468281507,0.00580224953592,-0.000325338885887,-0.000511299702339,0.0078225499019,-0.00487637287006,-0.00077677128138,-8.98127473192e-05,-0.00659921765327,-0.00143147469498,-0.00373599515297,0.00367334927432,-0.00419886875898,0.00194190815091,-0.00609926972538,-0.00186081707943,-0.00735467579216,0.00866360124201,0.00190881453454,-0.00313298008405,0.00809596199542,-0.00772136962041,-0.000644084298983,-0.00100513966754,-0.00402513844892,0.00478116795421,0.0060673635453,0.00573622668162,-0.00725498748943,-0.00167930650059,-0.0081032300368,-0.00169668102171,-0.00231502950191,0.00445536710322,0.000972038891632,0.00825364515185,0.00425076764077,0.00583004811779,0.00873240549117,-0.000923110812437,8.18944681669e-05,0.00807121023536,0.00138972210698,0.000321057625115,0.00609693070874,0.00138994574081,0.000715614238288,0.00171722250525,0.009396600537,-0.00184684502892,-0.00536695867777,0.00889412872493,0.0056633586064,0.00256730988622,-0.00925609003752,0.00592831196263,-0.00842048414052,0.00409144628793,-0.00883509125561,0.000532374775503,-0.00302278809249,0.00891470070928,-0.0037386927288,0.000493424595334,-0.00662669632584,-0.00749094365165,-0.00567276775837,-0.00691859051585,0.00581136811525,0.005610588938,0.00422297464684,-0.00111415795982,0.0049563604407,0.00302812946029,-0.00802343338728,-0.00322172394954,-0.00140104908496,-0.00675010727718,-0.00921068992466,-0.00768033927307,-0.00087421934586,0.00586271844804,-0.00563450483605,-0.00300459261052,-0.00168220233172,-0.00762668298557,-0.00182869052514,-0.00559550710022,-0.00715996604413,0.00317487353459,0.00271363533102,0.00583404581994,-0.00595165323466,0.0061679049395,-0.00719064520672,0.00669226981699,0.00135347200558,-0.00596318719909,0.00724170310423,0.00238386378624,0.00730178831145,-0.00458881119266,-0.000707697763573,0.00660770107061,0.00327709363773,0.00372389587574,-0.00217811227776,0.00880550313741,-0.00338074075989,0.00718875741586,0.00187307351734,-0.0012234817259,-0.00893676094711,0.00276794168167,-0.00110812322237,-0.00359590584412,0.00879676174372,0.0043981350027,0.00142718385905,-0.00112048862502,0.00314411893487,0.00441524665803,0.000653161900118,0.00727764191106,0.00176995375659,0.00570862554014,0.00111620605458,-0.00605603819713,0.00190470844973,-0.00225914712064,0.00194741087034,0.00551288248971,0.00654890481383,-0.0086556635797,0.00570842437446,0.000577889790293,-0.00299639580771,-0.00216146209277,-0.00132221786771,0.0067185247317,-0.00306838890538,-0.00273904995993,-0.00726834731176,-0.00400603236631,0.00232273852453,-0.00326144718565,-0.00910674035549,-0.00659056380391,-0.00877580605447,0.000108714775706,0.00437701866031,-0.00441533327103,-0.00217208033428,-0.0088253961876,-0.00294134253636,0.000468631711556,0.00874545238912,0.00109078688547,0.00263007893227,-0.008260644041,0.00391334481537,0.00373177882284,-0.00839776545763,0.0060913017951,0.000106673018308,0.00171744229738,0.00153168593533,0.00622863648459,0.00220251083374,0.00331781664863,-0.0092261089012,0.000240936380578,-0.00364844687283,0.00259285722859,-0.00773980421945,-0.00164704862982,-0.00580155244097,0.00670077325776,-0.00260069221258,0.000809341319837,-0.00350530957803,0.00547455530614,0.00240497058257,0.00124581006821,-0.00740951253101,0.000743010139558,-0.00688459118828,0.00205999216996,0.00456521753222,-0.00323418900371,0.00490281963721,-0.00782617926598,-0.00160021591,-0.00309754442424,-0.00742523465306,0.00782467797399,0.00352937495336,0.00794739834964,-0.00204463000409,-0.00882957316935,-0.00336821237579,0.00229446985759,-0.000871653261129,0.00593689875677,0.00381321855821,0.00588968396187,-0.00108902459033,-0.00605020392686,0.00507395714521,-0.00363901653327,-0.00854006782174,-0.000616100791376,0.00377906812355,-0.00312334974296,-0.000506086042151,-0.00180010579061,0.00761826708913,0.00536976475269,0.00182710401714,-0.0039866999723,-0.00731091247872,-0.00232649920508,0.00124303041957,0.00760278152302,-0.00481536285952,0.0025886723306,0.00084635487292,-0.00425592251122,0.00656614499167,-0.00174297415651,-0.00703817093745,0.00622797152027,-0.00905721075833,0.00146136258263,-0.000961694051512,0.00304883508943,0.000464663578896,-0.00435804948211,-0.00776802515611,0.00198526959866,0.00429903483018,-0.003299476346,-0.00790950749069,0.00660219835117,-0.00059446139494,-9.34952040552e-05,-0.00221831095405,0.00318803498521,-0.00630600284785,-0.00342066818848,-0.00562141975388,-0.00534602394328,-0.0065266112797,0.0058915107511,-0.00423182966188,0.00244290521368,0.00104649446439,-0.00469482317567,-0.00779674574733,-0.0076043731533,-0.00603933352977,-0.00275290780701,-0.00620308704674,-0.00660649687052,0.00659603159875,0.000732123560738,-0.0046963468194,0.000943214225117,-0.000695302442182,-0.0036196867004,0.00450913514942,0.00884995888919,-0.00670530321077,-0.00241513457149,-0.00100968976039,-0.0077537894249,0.00680650956929,-0.00676313461736,-0.00834456644952,-0.00630400655791,0.00923660025001,0.00236567528918,-0.00723220035434,0.00647879904136,-0.00912796147168,0.00719092972577,-0.00921518262476,-0.00898198969662,0.00418355315924,0.00678606145084,-0.00306972209364,0.00649311533198,0.0058487765491,0.00420112768188,0.00505602313206,0.0039039242547,-0.00167561136186,0.00339396600612,0.00368603272364,-0.00292480387725,0.00723068788648,-0.00401034438983,-0.00605296483263,-0.00807703286409,-0.00736193265766,0.00227521383204,-0.00683620199561,0.00546674849465,0.00925196614116,0.000616968143731,-0.00781702529639,0.000674329116009,0.000555250502657,-0.00820914655924,0.0061549693346,-0.00803907867521,-0.000793859537225,-0.000656289979815,-0.00477344170213,-0.00753153394908,-0.000213088365854,0.0022174839396,-0.00463649444282,-0.00422474415973,-0.00234702369198,0.00188410724513,0.00235275062732,-0.00476570287719,-0.0016190049937,-0.00501608289778,-0.00572032248601,0.00454680109397,0.00352633954026,-0.00633295997977,-0.00134086050093,-0.00811222475022,0.0014512577327,-0.00193035777193,0.00818755757064,-0.00593400606886,-0.00585673144087,-0.000161529504112,-0.00574995949864,0.00529198022559,-0.00553722679615,0.00474829832092,0.00120571395382,0.00867524184287,-0.00610165251419,0.00643445691094,-0.00353461271152,0.00295610399917,-0.00520735466853,-0.00680230278522,-0.00705406675115,0.00508181797341,0.00714079616591,0.000894425611477,0.00202860194258,0.00164647900965,-0.00854952447116,-0.00647128280252,0.00736661348492,0.00728579144925,0.000202116003493,0.00296760885976,0.00754000153393,-0.0086161531508,0.00434872461483,-0.0027847061865,0.00238419696689,-0.00189986475743,-0.00345636066049,-0.00293550058268,0.00862332619727,-0.00450410554186,0.00416713627055,-0.00426742853597,0.00676424568519,-0.00901711732149,-0.00047139369417,0.0011172790546,-0.000481157825561,-0.00434843357652,0.00400887383148,-0.00486273225397,-0.00441233022138,0.00820916239172,-0.00647486606613,0.00176021724474,0.00389442150481,-0.00164485513233,-0.00219556526281,0.00168690946884,0.0015697083436,0.00664125056937,-0.00605198927224,-0.00678534107283,0.00798765942454,0.00700314715505,-0.0074447048828,0.00448362482712,0.00586591102183,-0.000529014680069,0.00592239852995,-0.00409504538402,0.000402277335525,-0.00684984680265,0.00654338859022,0.00767805986106,0.0023843802046,-0.00416740309447,-0.00352834211662,-0.00928606186062,0.00205835653469,-0.00719361845404,-0.00207197060809,0.00472445646301,0.00346174975857,-0.000883865111973,-0.0055493041873,0.00214338721707,0.00879056099802,0.00266745616682,-0.0058926846832,-0.0028360914439,-0.00481616146863,-0.00812869053334,-0.004047724884,0.00419220188633,0.0026462636888,-0.000925579981413,-0.00699277548119,0.00616518221796,-0.00793944951147,-0.00309832743369,-0.00345794390887,0.000730901141651,0.000137546609039,0.00165047589689,-0.00713074626401,-0.00905014853925,-0.00317939533852,-2.9171585993e-05,0.00930825993419,0.00551265431568,-0.00462645618245,0.000549892662093,-0.00362480641343,-0.000308923103148,0.00696485163644,-0.00485429633409,-0.00827961694449,0.00772209977731,-0.00639054551721,-0.00323089840822,-0.00311612943187,-0.00106048909947,0.00811197143048,0.00221222196706,-0.00518325949088,-0.00811755470932,0.00103586784098,-0.00601462554187,0.00249162269756,0.00490155024454,0.00750676495954,-0.00641892571002,0.00316028948873,-0.00867187790573,-0.00217147939838,0.00213301740587,-0.000149394079926,-0.00161619437858,-0.00435540964827,0.0049359598197,0.00562599720433,0.00337669369765,0.00715252291411,0.00139926362317,-0.00377000728622,-0.00038221583236,0.00652493210509,-0.00654107285663,4.2988340283e-05,-0.00580201577395,0.00707282871008,0.0010906457901,-0.00167640089057,0.00780274905264,0.004166059196,-0.00456933258101,-0.00679269060493,0.00525245536119,-0.00476265372708,0.00736037129536,-0.00103304220829,0.00376073503867,0.00540777156129,-0.00487212790176,0.00517825782299,-0.00734497280791,0.00481578661129,-0.000222244445467,7.94540028437e-05,0.008440813981,-0.00295030674897,0.00162071036175,0.00275565544143,0.00654484378174,0.00388874672353,-0.0016344464384,0.00702716456726,-0.00824655499309,0.00323771941476,0.000950063986238,-0.00127393240109,-0.00584618095309,-0.00705505302176,-0.00792371109128,0.00767781492323,-0.00126977113541,-0.000997588620521,-0.000207840494113,-0.0044368095696,-0.00047947265557,-0.00387096824124,0.00908839795738,-0.00674721924588,0.00891805719584,-0.000253992708167,0.00308156409301,-0.00512533960864,-0.00847600959241,0.00937850773335,0.0029846415855,-0.0047558140941,0.00471070129424,0.00630115810782,-0.00122154515702,0.00394592201337,0.00708230398595,-0.00526879401878,-0.00253387726843,-0.00858164951205,0.00820059236139,0.00553355272859,-0.0089706685394,-0.00931435916573,0.00706621166319,-0.00617222767323,0.00506721995771,0.00326664955355,-0.00509038055316,0.00244335830212,-0.00491226417944,0.00901372078806,0.00602713180706,0.00798480864614,-0.00191060639918,0.00271840346977,0.00830503553152,0.00328252953477,-0.00406652130187,0.0074645797722,0.00733103137463,-0.000348409143044,0.00516647705808,0.00519701000303,0.00597034487873,-0.000341409555404,0.00784250628203,0.00249329791404,0.00149969931226,-0.00853749923408,-0.00318387150764,-0.00843746121973,0.00815832149237,-0.0076244189404,0.00458981888369,0.00061345694121,-0.00423696450889,0.00716247223318,-0.00468553416431,-0.00502188457176,-0.00441033253446,-0.00923946592957,-0.00920609943569,0.00447673676535,-0.00907526165247,-0.00692783016711,-6.47021079203e-05,0.00657236110419,-0.00567750958726,0.0021497909911,0.00117829197552,-0.00778354378417,0.00419980660081,-0.00889222510159,0.00806887913495,0.00571234989911,-0.00364456186071,0.00527358939871,0.00428208522499,0.00783057045192,-0.00528332730755,-0.00461006863043,0.00116480223369,0.00320798880421,0.00474332738668,0.006051894743,-0.00111832749099,-0.00661372859031,0.00786405149847,-0.00509732635692,0.000356875563739,0.00800899043679,0.00222589354962,0.0062470450066,0.000679259072058,-0.00851990189403,-0.00139891798608,0.000126711121993,0.00889214221388,0.00122184667271,