0.0188382863998,0.0299788229167,0.0152524439618,-0.0142921069637,-0.0356132462621,0.0534459985793,0.00182839401532,-0.00240997667424,0.062303442508,-0.0146164121106,0.0444665290415,0.0454992651939,-0.0336231403053,-0.0509423948824,0.0597331039608,-0.00934301503003,-0.062580563128,-0.000154910070705,0.0149534316733,0.0346547774971,0.0556209981441,0.0521313399076,0.0552683696151,-0.0588287748396,0.0265733357519,-0.0344850532711,-0.0392983481288,0.0377162769437,-0.0104337539524,0.0523277670145,-0.0575164593756,0.0379502810538,-0.0456546023488,-0.0406606756151,-0.00286648236215,-0.0131403561682,-0.00176542240661,0.0552641749382,0.0197490025312,-0.0263768099248,-0.041128911078,-0.0100745614618,-0.00610449491069,0.0127003854141,-0.0294310934842,0.0335900597274,-0.0504800789058,0.00757218664512,0.015498357825,-0.0368625484407,0.040941208601,0.0144806019962,0.01828674227,-0.000307695299853,0.0514457635581,0.0243459008634,-0.0148703884333,-0.0328680612147,-0.0539210252464,-0.0420717522502,0.0618863776326,-0.0117376130074,0.0500752329826,-0.0414223559201,-0.00940622668713,0.0578396245837,-0.0514041185379,0.0117823462933,0.052644174546,0.0564781278372,0.0434506125748,0.0446979962289,0.0190761685371,-0.0351771488786,0.0289396233857,0.0600653737783,0.00321214087307,-0.0301164127886,0.00918553117663,0.0239048097283,-0.0367029681802,0.0275210384279,0.010965006426,0.0140959881246,-0.0244002696127,-0.043339330703,0.0154907694086,0.0108142355457,-0.0203762240708,-0.0256686769426,-0.0192297007889,-0.00130628049374,0.0596289299428,0.0330834202468,0.0441631712019,0.000674843497109,0.00324753299356,-0.0371885299683,0.0277407485992,-0.0098849516362,0.030433466658,-0.0114592509344,-0.0492237322032,-0.0411143228412,0.0391192026436,-0.0303628053516,-0.0296417977661,0.0539212487638,0.0197704974562,-0.0485020503402,-0.0448231250048,-0.0286408271641,0.0117737427354,0.0317316688597,-0.0283733047545,0.0465360470116,-0.049146335572,-0.036762572825,0.0590962171555,-0.0459171682596,0.0487479753792,0.0256051309407,-0.0536648482084,-0.00206792331301,0.00236428715289,0.0542804077268,-0.00994157791138,-0.00671737222001,-0.0487216822803,0.0174600016326,-0.0363554507494,-0.0531134270132,0.0624130666256,-0.0289753489196,-0.0451317578554,0.0250430442393,0.0403972193599,-0.0548004806042,-0.0496088936925,-0.0515213161707,-0.0569514892995,0.0200125370175,0.0110729411244,0.0204335078597,0.000689814740326,0.0398745238781,0.00584185915068,0.0525958612561,-0.00182564894203,0.0365007780492,-0.0116630410776,-0.00816181488335,0.0438307262957,-0.0493273250759,0.00812995713204,0.0284132193774,0.0314395353198,0.0114693669602,-0.00655337609351,-0.030086517334,0.0514195710421,-0.0163893029094,0.03752361238,-0.0588956959546,-0.0337011814117,-0.0194497834891,0.0215127822012,-0.0227487571537,-0.0576770566404,-0.0410271473229,-0.0303089190274,-0.0407281108201,-0.0372503139079,0.0337746217847,-0.0110749872401,-0.0119362846017,0.0586104914546,-0.0067187147215,0.0537164062262,-0.0252704173326,-0.0125219924375,-0.0130677055568,0.00575502868742,0.0105511229485,-0.0316847451031,0.0368555746973,-0.000471595092677,-0.0619781203568,0.0114424452186,0.0374215058982,-0.0313868969679,-0.0581008605659,0.0385673940182,0.059815607965,-0.0532388947904,0.0550105273724,-0.0177145153284,0.0554381087422,0.0186651889235,0.0489991940558,0.0358792692423,-0.059347409755,-0.0546422451735,0.00319757126272,-0.0465780682862,-0.00493368552998,0.057089690119,-0.0258105825633,-0.00141377036925,-0.0145640801638,0.0162929911166,-0.0384908802807,-0.0301856789738,0.0450607910752,0.0391007140279,0.0363178662956,0.0340148471296,-0.00512482086197,0.0287336483598,-0.0142012936994,-0.050201177597,-0.0134260170162,-0.0429189689457,-0.0137430429459,-0.0254826620221,0.0124359931797,-0.0174224544317,0.0258094575256,0.001502152998,0.0526876635849,-0.0514143072069,0.0235626660287,0.0216385796666,0.0565998777747,-0.016162596643,-0.0244702156633,-0.0411880649626,-0.0295152422041,0.000215288091567,0.0424134396017,-0.0271280147135,-0.0430290922523,-0.0286557599902,-0.0501733496785,0.0535895489156,0.0467951633036,-0.024091552943,-0.0318199060857,0.0509133115411,-0.0626327544451,0.0126108275726,0.0522460788488,0.0010287349578,-0.0625018700957,-0.0353721268475,0.0530358068645,-0.0607357025146,-0.0132681345567,0.0363616235554,0.0424366332591,-0.00286026694812,-0.0336365438998,0.0125070419163,-0.0297042038292,-0.030774012208,0.0386303327978,-0.0434651076794,-0.0621557533741,-0.0205316580832,-0.0011556482641,0.0257248170674,0.0352790802717,0.0205023977906,0.0158518217504,0.0207825489342,-0.0287539027631,-0.0148268351331,0.0145861553028,-0.054633513093,-0.0257588680834,-0.0117992851883,0.00416177976876,-0.00173885398544,0.0273693818599,-0.00337934982963,0.0507411547005,-0.0150789869949,0.00314786401577,-0.0624724589288,-0.0238624159247,0.04601437971,-0.0209599547088,-0.0310614611953,0.00542289810255,-0.0529829412699,0.00392358982936,-0.0247184056789,-0.0147151462734,0.0365855209529,0.0203254632652,-0.00679840520024,0.00971410050988,0.0335061587393,0.0308579299599,-0.0395675599575,-0.0250420439988,-0.0191055946052,-0.0392978787422,-0.0613355636597,-0.0410036668181,0.0386971607804,0.00573455123231,-0.019932275638,0.0135785173625,0.0301010087132,-0.0183228906244,-0.00429377192631,-0.0547901652753,0.0121691543609,-0.0180741790682,-0.00838403496891,-0.00975658092648,0.0166072007269,0.00907484814525,-0.00981635693461,-0.0607260651886,0.0151711981744,0.0476677678525,0.0338423363864,0.0604894943535,-0.0453808940947,-0.0348955504596,0.00490570440888,-0.0332230441272,-0.058521643281,-0.012313047424,-0.0267187133431,-0.0297198724002,0.0569090098143,-0.0328998044133,-0.04659903422,-0.0471158996224,0.0384320057929,0.0269374884665,-0.0466168522835,-0.0352742560208,0.0310206767172,-0.0283803399652,0.060449231416,0.00503837037832,-0.0387606024742,0.0450590439141,-0.0227114483714,-0.0265650954098,-0.021710511297,0.0336731895804,-0.0410902611911,-0.0148817729205,-0.0589812099934,0.0410152003169,-0.0200594700873,-0.0316884107888,0.00999426934868,0.0257136952132,0.039272531867,-0.0191715620458,0.039197742939,-0.00445772102103,-0.0501637198031,0.0434753969312,0.00594535609707,0.0128356860951,0.0549332052469,0.0073925005272,-0.0621667541564,0.046529892832,-0.0270875897259,0.000181776631507,-0.0371305979788,-0.0255580693483,0.0234057791531,-0.00889732595533,0.0159269478172,0.0406115055084,-0.0200494956225,0.00853956490755,0.0348328538239,0.0270052421838,0.00498027028516,-0.0146798845381,-0.0116492491215,-0.00842827558517,-0.0190198086202,0.0249887667596,-0.0470951758325,0.0587122067809,0.0350206121802,-0.0253976862878,-0.0575173608959,0.0265159197152,0.0294130314142,0.0582214035094,-0.0309840459377,-0.0524688065052,0.0521286055446,-0.0303580816835,0.0278059504926,-0.055236697197,0.0327132232487,-0.046897366643,0.024545788765,0.00403323723003,0.0572040267289,-0.058220025152,-0.0261588711292,-0.0541223436594,0.0476200394332,0.0117707578465,0.00436565279961,-0.0463380739093,-0.00140665995423,-0.0127570126206,-0.0231804288924,0.0341672711074,-0.0551633238792,0.0183970034122,0.0405511185527,0.0511457249522,0.0308659747243,-0.0273707509041,0.0125944167376,-0.0450947992504,-0.0481781996787,0.0173594802618,0.0440593399107,-0.0544374473393,-0.0495675653219,0.00818445999175,-0.0354679226875,0.0139911342412,-0.0359288342297,-0.048218857497,0.00569934258237,0.0454846024513,0.0232342816889,0.040022328496,-0.0293888635933,0.048473149538,-0.0154782133177,0.0442597717047,-0.00366676761769,-0.0292149204761,-0.0301697589457,0.00845807790756,-0.0529447421432,0.0539944283664,-0.0287618227303,-0.020699556917,-0.0335570909083,-0.0624903924763,0.0241548903286,0.0113382833079,0.0388684719801,-0.0577151030302,0.053822953254,-0.0212903339416,0.0518645048141,-0.0494066290557,0.030602324754,0.00992406904697,-0.0178669504821,-0.0529311336577,0.0131130069494,-0.0595535300672,0.00011331562564,0.0130466679111,0.0291702430695,0.0617129392922,-0.0301720220596,-0.0223441310227,-0.0199873838574,0.0290734823793,0.0542344674468,0.0595754161477,0.0559926591814,0.0476455278695,0.0616586990654,-0.0156238153577,0.0562987029552,0.0327631309628,-0.0416957065463,-0.0571507439017,-0.0359124913812,0.0349911600351,0.0165128968656,-0.0346672050655,0.0303680803627,-0.0451009422541,0.0404104888439,0.0369322746992,0.059351220727,-0.0439753979445,0.0510625652969,-0.0199972745031,-0.0105760972947,-0.00399356754497,0.0159177649766,0.0621415860951,0.0125319389626,0.0535909980536,-0.0308107323945,-0.0127937030047,0.000536898965947,-0.0222884211689,0.0598863437772,0.0283235684037,-0.00268864864483,0.0315430350602,-0.00412601232529,-0.060698568821,0.00539255701005,0.0156953316182,0.0604071766138,-0.0577617175877,0.00146055233199,-0.0505538396537,-0.0441653355956,0.0138208968565,-0.0337896794081,0.0312507599592,0.0017246484058,-0.0354357436299,-0.000807550793979,-0.062744691968,0.045553073287,-0.0612624213099,-0.0619747005403,0.0139837320894,0.0594733767211,0.0446977876127,-0.0311816297472,-0.038136985153,0.0158254988492,0.0405201278627,-0.0173519421369,-0.00852134916931,-0.0483374148607,-0.04364579916,0.00856751389802,-0.0499478317797,-0.0374588705599,-0.0333585962653,-0.00706535438076,-0.0571157857776,-4.79020309285e-05,0.0538464598358,-0.0597732029855,0.0164399407804,0.0421779453754,-0.0235881563276,-0.0463246889412,-0.0574048943818,0.0180596038699,0.00654086563736,-0.0340384766459,0.0416470393538,0.0295701231807,-0.0281056053936,0.0318241454661,-0.0320555344224,0.0220109354705,-0.0479446537793,0.0241435728967,-0.0328370891511,0.00909372419119,-0.0411694198847,0.0283771958202,-0.0551951229572,-0.042059250176,-0.0397071316838,-0.0576499402523,0.0307703893632,0.0604177191854,0.0349654704332,0.0452986992896,-0.062087841332,-0.0480316542089,0.00740160234272,0.0600325204432,0.0201798919588,-0.0158301815391,-0.0444781780243,-0.0436379946768,-0.0172605868429,0.0268530193716,-0.0588433109224,0.0442397743464,0.0554701462388,0.0488436743617,0.0518858656287,-0.0609141252935,0.0600240379572,-0.0168066043407,0.0463858321309,-0.0393710173666,-0.00673598563299,-0.0572951771319,-0.0578089095652,0.0556837581098,0.0390130206943,0.00373121490702,0.00318236486055,0.0312292780727,-0.0199235677719,0.0328772179782,-0.00191206380259,0.0173019003123,0.0583804175258,-0.00363265140913,-0.0102812396362,0.0509566180408,0.0505736917257,0.0618624165654,0.00637821247801,-0.0195825416595,-0.0326346233487,-0.0585566982627,0.0284768082201,-0.0335033945739,0.0133870560676,0.052326105535,0.0565508194268,-0.0622952245176,-0.023006927222,0.0423723347485,0.00455827638507,0.0386190712452,0.0443759523332,-0.00723065808415,-0.0177387800068,-0.00561921065673,0.0191805437207,-0.0167113896459,0.0345348492265,0.05074506253,-0.0273730568588,0.0584096945822,0.0154020637274,0.0474965199828,-0.0497930645943,-0.0312483701855,-0.022512761876,-0.0247993171215,-0.0412553921342,0.0462440028787,-0.0102495942265,0.0581724494696,0.010476320982,-0.0454504303634,0.00575571274385,0.0620045103133,0.00817672722042,-0.0626057088375,0.0544066801667,-0.033324636519,0.0236773379147,0.00187798182014,-0.0219522714615,-0.0273296311498,0.0538593903184,0.0517440997064,0.00163354096003,-0.0303635150194,-0.0499851107597,-0.0431702286005,0.0027814025525,-0.0241620317101,-0.057556618005,-0.00564816221595,0.0309205241501,0.0492042526603,0.0107017979026,0.0280433539301,-0.0170950647444,-0.000486234232085,0.0288404803723,0.0285931099206,-0.00949728209525,0.00547353038564,0.0532465241849,0.0165727622807,0.0179018303752,0.0357507802546,-0.0483662374318,0.00285894074477,0.0577138140798,-0.0173998326063,-0.0257854033262,0.0127007961273,-0.0350596830249,0.00701323896646,-0.0432860702276,0.00999825913459,0.01283629518,-0.0102817649022,-0.0147619172931,-0.0320130102336,-0.0212739296257,-0.000236112478888,-0.0317364893854,0.035511624068,0.0262535251677,-0.0290011838078,-0.0505977869034,-0.0628184750676,0.012140291743,-0.0362819582224,-0.0612600520253,-0.0177198480815,0.0580399259925,0.0238462109119,0.0449339188635,-0.0446620211005,-0.0536402761936,-0.0614005960524,0.0572354830801,-0.0251270346344,-0.00510974274948,-0.0132750440389,0.0289392191917,-0.0238982010633,0.00443574786186,0.0622538439929,-0.00704788556322,0.00642345985398,0.000298543571262,0.0380780883133,-0.0293171536177,-0.0414342172444,0.0319056548178,-0.0106258029118,0.0519645065069,0.0180917996913,0.00806240178645,-0.0539974421263,0.0289299748838,0.0233544167131,0.0175883993506,-0.0291761029512,0.0561230704188,-0.0224226359278,-0.0437118113041,0.0612073503435,0.0309298634529,-0.010720051825,0.0547631084919,-0.0513955578208,-0.0518298447132,0.0229091495275,-0.0404817312956,0.0523992218077,0.04275130108,-0.0243481006473,0.0488431639969,-0.0574559159577,0.00609697913751,0.0547164939344,0.0446414090693,-0.0180999543518,-0.0398639440536,-0.0363870188594,0.00180833844934,0.0121454484761,-0.0587194189429,-0.0108763212338,0.0415016636252,-0.00700895162299,-0.0415836684406,0.0571424886584,-0.0293824709952,0.0374858379364,-0.0384901687503,-0.00966736208647,-0.00122007937171,6.32170704193e-05,0.00205343146808,-0.0345786586404,0.00198327191174,-0.00231451704167,-0.0366178117692,0.0613276660442,0.0459186770022,0.0486730895936,0.0232898741961,-0.0427643097937,0.00852790661156,0.0403626039624,-0.0579888783395,-0.000550612981897,-0.0130810830742,-0.0362015776336,-0.0153116676956,0.06074141711,0.0280388593674,-0.0252024456859,0.0132254837081,-0.0318472385406,0.0139151923358,0.0497677586973,0.00713388388976,0.0293109808117,-0.00587287452072,0.0030216849409,0.0245027597994,0.0392460078001,0.0200264230371,0.0599902048707,0.0401780717075,0.0348172783852,0.0433554984629,-0.0275008697063,-0.00854734238237,0.00809151493013,-0.00473504606634,0.04365157336,-0.0594354048371,-0.0365525521338,0.0479551367462,-0.0554120801389,-0.0343158952892,-0.0187015775591,0.0314968116581,0.00755180278793,0.0571135990322,-0.0342044718564,0.0467489361763,-0.0272885225713,-0.0319854095578,-0.000209821388125,-0.0538864955306,-0.0145431924611,-0.0181408319622,-0.0427160337567,0.04533040151,-0.0143443252891,0.0605505481362,0.0502180941403,-0.0383565984666,0.000635969801806,0.0127846533433,0.0400716774166,0.0484507158399,0.0155759649351,-0.0584209337831,-0.00236039073206,0.0483463145792,0.0268950443715,0.0465039946139,0.0218675658107,-0.0573014393449,0.0588013008237,0.0525199845433,-0.0469292104244,-0.0486743673682,0.00490432977676,0.0322939194739,-0.0148117970675,-0.0456969328225,0.00132031214889,-0.0204169359058,-0.0186318866909,0.0182122085243,0.048447933048,0.00735489139333,0.0235659107566,0.0200908239931,0.00641931360587,-0.0237869098783,-0.0153634343296,-0.0231654588133,0.0524536669254,0.0410341061652,0.00995768979192,0.0517881400883,0.0485418401659,0.0537296459079,-0.034973628819,0.0273178108037,0.0137119349092,0.0293694734573,-0.0297456327826,0.0244730692357,-0.0113364998251,0.0419748425484,0.0371086746454,-0.0362755507231,-0.039731387049,0.0273534413427,0.00633658049628,0.00718237413093,0.0317204967141,0.0445946604013,-0.032810408622,0.00696925492957,0.0413255803287,0.0468342788517,-0.0267229508609,-0.049750123173,-0.0335820168257,0.0559711158276,-0.00472331047058,-0.0102403536439,-0.0611926019192,-0.0564264245331,0.0211890116334,0.0112786777318,0.00948194880038,-0.0489739812911,-0.0185996908695,0.0392394401133,-0.0408596992493,0.0480767264962,-0.0475738756359,-0.0415837168694,-0.0028061310295,0.055944390595,-0.0214286502451,0.0198754407465,0.0111364359036,-0.0440327748656,-0.0316500775516,0.0540456548333,-0.0396087989211,0.0244985688478,0.0583860352635,-0.0478171184659,-0.0126760704443,-0.0346973091364,-0.0349951907992,-0.0478844568133,0.0187843646854,0.0309469178319,0.0222075805068,0.0533530265093,-0.0445303209126,-0.0226441752166,-0.0195370204747,-0.0336721614003,-0.0449657812715,-0.00167742872145,0.0420177802444,0.0571090988815,-0.0465822592378,0.0406000763178,0.0407795161009,-0.0139567181468,-0.0490082912147,0.0615664236248,0.0195451062173,0.0605847612023,-0.00205991044641,-0.0131757799536,-0.0317738093436,0.0607562586665,-0.0310122501105,-0.0598496980965,0.00155921606347,-0.0154568841681,-0.0299912635237,0.0169068388641,-0.0170629899949,-0.0122902989388,-0.0599450618029,0.0111795142293,-0.0475019030273,-0.0359749831259,0.0272694062442,-0.0234799925238,-0.0423325151205,0.00971602462232,-0.0358368046582,-0.0287838950753,0.0152411367744,0.0301342196763,0.0301088262349,-0.00223712506704,-0.00574877718464,0.0361385419965,-0.0385779328644,-0.0437087602913,0.0206853244454,-0.0113806491718,0.0263779740781,-0.0305943116546,-0.0220155566931,0.0498353838921,-0.00985397864133,0.0114192273468,-0.0494324229658,-0.0403657443821,-0.058327216655,-0.00951192248613,0.0614271685481,0.0469708219171,0.0166921522468,0.0453653559089,0.0118243126199,-0.0164986718446,-0.0410312004387,0.0192212555557,-0.0385802909732,-0.0103859072551,0.0409287214279,-0.0465999171138,-0.0466260388494,-0.0346408262849,0.00651345727965,-0.0312031041831,0.000396185700083,-0.0248877350241,0.000778716348577,-0.0279476083815,0.0603108219802,-0.000920695893001,0.0306096747518,0.0251942854375,-0.00119393563364,-0.0328212715685,0.00133915501647,0.0227325372398,-0.00504405330867,-0.0525413677096,-0.0605760589242,-0.021636005491,-0.0439592003822,0.0510336868465,-0.0407402478158,-0.013290669769,0.0266422145069,0.0396280549467,-0.00280711753294,-0.040073979646,-0.0287950634956,-0.010188754648,-0.0170206446201,-0.0190213210881,-0.0462659485638,0.0519288778305,-0.0590950921178,-0.00754522765055,0.0603492558002,0.0200641807169,-0.0181746613234,-0.044477570802,0.0582809075713,-0.0610781610012,0.0227849651128,0.0477590709925,-0.0596740618348,0.0282871089876,0.0626746416092,0.0175394359976,-0.0107339145616,0.0470329634845,0.0067951628007,0.0313309840858,0.01101717446,-0.0580293722451,-0.0360579006374,-0.0529437549412,-0.0494349077344,-0.0608981437981,-0.0099120028317,-0.0403852574527,0.0446896106005,0.0314129069448,0.00918924529105,-0.00138543604407,-0.0306825060397,-0.00315340305679,0.0177248660475,0.0354423709214,-0.052585657686,0.0261734090745,0.0304790418595,0.00738877383992,-0.0359189845622,0.00490233767778,0.000318440317642,-0.00307143828832,-0.00496510509402,-0.0489214174449,-0.0398657657206,-0.0506169572473,-0.0323784984648,-0.0297398660332,-0.0320520401001,-0.0363427959383,0.0295593552291,0.0400068238378,-0.0217476710677,-0.0245096348226,0.0432069040835,0.01554893516,-0.0259786266834,0.0268188267946,-0.0195507500321,0.0108636682853,0.0618898719549,-0.0249434765428,0.0540856122971,-0.0225487165153,0.00504967896268,-0.00504087796435,0.0355681106448,-0.0551640465856,0.0159566365182,0.0327373333275,-0.00351722771302,-0.0496144965291,-0.032083902508,0.022559877485,0.0496720708907,-0.00986741296947,0.00757408794016,-0.034144885838,-0.0110457204282,-0.0205231271684,0.0195279847831,0.0608906261623,0.0393537245691,-0.0386962108314,0.00974601414055,-0.054497834295,-0.0318152718246,-0.0412015132606,-0.0206783600152,0.0224554371089,-8.9873559773e-05,0.0543840788305,-0.0361085236073,-0.017076600343,-0.0213937163353,-0.0331945084035,0.0619532428682,-0.014187540859,0.0553359650075,-0.013779418543,-0.0371994152665,-0.0478657819331,0.0446620024741,-0.0588115267456,0.0583255812526,-0.0103082638234,-0.0317724384367,0.01472934708,-0.0461552143097,-0.0537910163403,0.0411595366895,-0.0094940662384,0.0022653597407,-0.0406382530928,-0.055122859776,-0.0166278854012,0.000759181741159,0.0333398878574,0.000119057549455,0.0354856401682,-0.048336353153,-0.0548038780689,-0.0428876541555,0.0341585762799,0.0325650162995,-0.0450857765973,-0.0589555986226,0.0232603531331,0.0446219220757,0.0319087728858,-0.0373665690422,0.0105066904798,0.032320342958,-0.0307008940727,0.00346402777359,-0.0233334582299,-0.0345023907721,0.0589875504375,0.0518242232502,-0.00684645259753,-0.0456639640033,0.0286150816828,-0.0307205375284,-0.0416756682098,-0.0149094779044,0.00372794014402,-0.0506069920957,0.00899251922965,-0.0609223544598,0.0492281317711,0.0528561547399,0.0292741954327,-0.00421586772427,-0.0308113824576,0.0306616052985,0.0542453490198,-0.0429199822247,-0.00430727237836,-0.023230580613,-0.0180183444172,-0.0118591673672,0.0567539222538,-0.0303457956761,-0.000937383796554,0.0567151121795,-0.00302565586753,0.0456714481115,-0.0554587207735,0.0569112785161,-0.0392784290016,0.0602920092642,-0.0407805591822,-0.00700553460047,-0.0240635294467,-0.00840466469526,-0.0313628949225,0.0584563612938,-0.0244254972786,0.0192462969571,-0.0455706045032,0.0407476462424,0.00532774394378,0.0602317228913,-0.00963862333447,-0.038282494992,-0.0193654093891,0.0297594442964,0.0199759695679,0.0349593609571,-0.0536127984524,0.0100820977241,0.0542879551649,-0.0492862537503,-0.0509909875691,0.0271891914308,-0.0232519488782,0.0198979731649,0.00567436125129,0.0610488094389,0.0488588735461,0.0223474614322,-0.0299755372107,-0.029946193099,0.0480181835592,0.010710503906,0.0363369323313,-0.0063130077906,-0.0498893558979,-0.0210371203721,-0.0425918027759,0.0354009233415,0.0251824278384,-0.0517398864031,0.0152313793078,0.0469910092652,0.0247785765678,0.00137483584695,-0.0236620046198,0.0486196689308,-0.00972148869187,0.0446359701455,0.0355414263904,0.0397166199982,0.0615268349648,0.0312387887388,-0.0585698820651,-0.0370332933962,-0.0584248453379,-0.0389835238457,-0.0551270805299,0.000180317249033,-0.0593066848814,-0.00346847786568,0.0500939376652,0.031212233007,0.0557629168034,-0.0343714058399,0.00388325215317,-0.0228194892406,-0.000789172307122,0.00715933600441,-0.0582937113941,-0.0335306487978,0.0257183779031,0.0342824533582,0.00871441327035,-0.0288093332201,-0.011939345859,-0.0507775433362,0.0569277405739,0.0463095232844,-0.0546018220484,-0.041924584657,0.0101729668677,-0.0336388908327,0.0545680522919,0.032099455595,-0.0285020805895,-0.0620761960745,0.0376126244664,-0.00955337751657,0.0178758781403,-0.0267826877534,-0.0448899678886,0.0220142249018,-0.00625679455698,-0.0332912020385,-0.0455479212105,0.0100991185755,0.0283281002194,-0.02716957964,0.0295334681869,-0.0398312918842,-0.0203177072108,0.0307573284954,0.0201062746346,-0.0288518704474,-0.0474977791309,-0.0575077459216,0.0424444191158,-0.0534027442336,-0.0484137907624,-0.0329749844968,-0.00684367120266,0.0363850705326,-0.0317591205239,0.00543859694153,-0.051500685513,-0.00448789447546,-0.0405351147056,-0.0363190285861,-0.0167623125017,0.0328114852309,0.0306452605873,-0.0106972986832,-0.0479294322431,-0.0275705922395,0.000659853569232,0.046405762434,0.0588259734213,0.0172609314322,-0.0187753047794,0.0242487974465,-0.0206385161728,0.015706691891,-0.0322571136057,-0.0293391309679,-0.0534353293478,-0.0100945690647,0.0147895459086,0.0362290665507,0.0389434807003,0.0618249550462,-0.0518547669053,-0.000916138465982,0.00263211596757,0.0382127761841,-0.0294122379273,-0.0541647560894,-0.0234560985118,0.0607447735965,0.0501285083592,-0.0132266720757,0.047217156738,-0.058776024729,-0.0234101880342,0.0284365247935,-0.0350649878383,-0.037962783128,0.0454282425344,0.0145352194086,0.061413615942,-0.0459411181509,-0.0181134510785,-0.0237573031336,0.0477308556437,-0.0307836011052,-0.0184486284852,-0.0449277125299,0.0345582515001,-0.0330067835748,-0.054290805012,-0.00820156373084,-0.0136865321547,-0.0405579768121,-0.0460883118212,0.0497822798789,-0.0543442256749,-0.0503902696073,-0.0320775993168,0.0568608231843,-0.0521402433515,0.0396679975092,0.0492225550115,-0.0153878824785,-0.0259396564215,0.0222505703568,0.0254242531955,0.0351428203285,0.0414997190237,-0.0291405748576,0.0234548449516,-0.0459143891931,0.00131041975692,0.0141468960792,-0.0425521545112,-0.0532612539828,-0.0384036973119,-0.0100251920521,0.0486879274249,0.00396356638521,0.0311779901385,-0.0409924350679,-0.0495579577982,-0.0327981114388,-0.0234665237367,0.00596487522125,0.0478261485696,-0.00936635583639,0.00228266860358,-0.0623277947307,-0.0587216466665,-0.0523813962936,0.0249682217836,-0.00177176808938,-0.0386179536581,0.0115990648046,0.00556916510686,-0.0517065413296,0.0176071170717,0.033533025533,-0.0268573705107,0.0234993100166,-0.0377918966115,0.0321997590363,0.0516821630299,-0.00736456736922,-0.0321496129036,-0.0127288820222,-0.0314641110599,-0.0627321824431,0.0188520587981,-0.0575380809605,-0.0364449210465,0.0278984177858,0.0207706280053,-0.0536675862968,0.0200581233948,0.0540506616235,-0.0535201206803,-0.0106581002474,0.0287660006434,0.021011646837,-0.0344293825328,-0.0424014180899,0.0356536470354,0.0572662129998,0.033559769392,0.058140758425,0.0131582114846,0.0538838133216,0.0238943230361,0.0513437837362,-0.0425585433841,0.0396176092327,-0.0381408706307,-0.0594165585935,0.00217469176278,-0.0228853691369,-0.0574056841433,0.0603056252003,0.0208699088544,0.0504425950348,0.06266528368,-0.0136226220056,-0.0308663900942,-0.0397694595158,0.00186714727897,0.0132884941995,-0.00350646022707,-0.0142086902633,-0.0417248159647,-0.00734690204263,-0.0521579757333,0.0458292886615,-0.0569756962359,-0.0150356004015,-0.0502831824124,0.0345149599016,-0.023568790406,-0.0486537069082,0.00391903612763,0.0522697381675,0.051310710609,-0.0314959324896,0.0275549180806,-0.0590693764389,-0.0463067777455,-0.000112974274089,-0.034130115062,0.0374317578971,0.0541201941669,-0.0623302645981,-0.0336074605584,-0.00767493573949,0.00784686487168,0.0521813258529,0.0491631515324,0.0171568207443,-0.0305651426315,0.0355174355209,-0.0374430678785,0.058372348547,-0.0621308982372,0.00873046834022,-0.0517570599914,-0.0116473156959,0.016918618232,0.0237876065075,0.0358469337225,0.0116905756295,-0.0312848798931,0.0488522723317,0.0390327647328,-0.0427763275802,0.0409683436155,0.0593308992684,0.0171826072037,-0.0274773426354,0.013334360905,-0.0198462624103,0.0220550168306,0.00557566061616,0.0539144165814,0.014762211591,-0.0359936952591,0.0282327029854,-0.0250746104866,-0.0286542251706,-0.0136526590213,-0.0613843724132,0.0588866770267,0.0039988043718,0.0343024507165,-0.0304911471903,0.0309253055602,0.00837658252567,-0.00959555897862,0.0590787492692,-0.000808688171674,0.0197505448014,-0.0609353519976,-0.0249834768474,0.0488063879311,0.032504696399,0.00458326004446,0.0502474308014,-0.00176659098361,0.00830944720656,-0.0148557974026,0.0150361955166,-0.0227911584079,-0.0144361900166,0.0585491918027,-0.0488890483975,-0.0496496856213,-0.057432744652,-0.0226537324488,-0.0128293335438,-0.0509928278625,0.00613240804523,0.0104261413217,0.0315018370748,0.0597671158612,0.0149561362341,-0.0488396883011,-0.0517425090075,0.034837435931,0.0188523754478,-0.0425205826759,-0.0310298763216,0.0314062088728,0.00827484019101,0.0106427408755,-0.0364772379398,0.0161702558398,0.033959466964,0.048362635076,0.0296983178705,0.00955039449036,0.0217244252563,-0.00191751075909,-0.034363605082,0.0479799807072,0.00401979498565,0.0117722405121,0.0615057833493,0.0608657859266,0.0107660712674,-0.0586405731738,-0.0131291402504,0.054869171232,-0.0266800317913,0.0626995414495,-0.0522697046399,0.00852234102786,0.00190467911307,-0.0307780299336,0.0563336201012,0.0149379717186,-0.0339351147413,-0.0146066853777,0.0278018899262,-0.0254176091403,0.0477029010653,-0.0420070998371,-0.029588341713,-0.0446176417172,-0.0497343316674,-0.0250885523856,0.0627279356122,-0.0509722828865,-0.0360603146255,-0.0286950320005,0.0149721167982,0.0308319274336,0.0316597521305,-0.0617401897907,0.0190836749971,0.0164306219667,0.0022216620855,-0.0151749411598,0.0373789407313,-0.0196140985936,-0.0339223816991,-0.0238594710827,-0.00758037064224,-0.0359272137284,0.0135202398524,0.0482800416648,0.011996941641,-0.00669966870919,0.0373051762581,0.0311693809927,-0.0167031697929,0.0130893150344,0.0288829710335,-0.0319823287427,-0.0168010927737,-0.0495342649519,0.0612824447453,-0.0520346239209,-0.0416392795742,-0.00253182114102,0.045901067555,-0.0181068945676,0.0337531715631,0.0221218541265,0.0174260828644,0.0433556884527,-0.0610453598201,0.0539278686047,0.0413714423776,0.0550228618085,0.0368932709098,0.0475744903088,-0.0373081155121,-0.022713040933,-0.0232166778296,-0.0491086505353,0.0288499929011,-0.0457154139876,-0.0562280267477,0.0346135571599,0.0508503839374,0.033191088587,0.0408848710358,0.012017827481,0.0487250797451,-0.000411854503909,0.0613631084561,-0.0498309880495,0.0388528220356,0.0177688356489,0.0101377125829,0.0283785387874,0.0427637659013,0.0456026569009,-0.0407863520086,-0.0380652695894,-0.0607926286757,-0.0462572313845,-0.0296655707061,0.0277763754129,-0.00304310047068,0.0324090532959,-0.00168999156449,0.00698802061379,-0.0488700009882,0.0347531363368,0.0324370749295,-0.024179212749,-0.021537175402,-0.0352207161486,0.0394389331341,0.031040975824,0.0137181356549,-0.0328155755997,-0.0412306152284,-0.0565084554255,-0.0570936836302,-0.0393105447292,-0.0501928217709,0.00705300690606,-0.0178291238844,-0.00691517069936,0.0118228588253,0.0199948437512,0.0186251886189,-0.0300471186638,0.0389097854495,0.0524910390377,-0.0231252405792,-0.0606804713607,0.0501594282687,0.0532247535884,-0.0564231090248,-0.0622020177543,0.039761453867,-0.0249455571175,0.052096594125,-0.0355911329389,0.045383092016,-0.0542007274926,-0.0300756599754,0.0594533495605,-0.0337750166655,-0.0461123995483,0.0448685288429,-0.0480232834816,-0.0505797192454,-0.0221853014082,0.0170072820038,0.0264840014279,0.0479074120522,0.0051432014443,-0.0133902924135,-0.0177363231778,0.0435926094651,0.0281258616596,0.0509468019009,0.058311060071,-0.0251227598637,0.00373083096929,0.016566183418,-0.0422373116016,-0.0561227425933,0.0462137646973,0.00446568010375,0.00889514386654,0.00690225791186,0.0320393443108,-0.0445429086685,0.0143328178674,-0.00383315607905,0.0498826019466,0.00246786396019,0.0556598715484,-0.0184372849762,0.0586705580354,0.0471432693303,0.0105905756354,-0.0183798670769,-0.0155886225402,0.0342770181596,0.0101358629763,-0.0123620908707,0.0171001963317,0.0293112676591,-0.059946462512,-0.0515322349966,-0.0509513728321,-0.0336801372468,-0.00917224027216,0.0381573662162,-0.0187084637582,-0.0606300123036,-0.00208882405423,0.0624063313007,-0.0189695823938,0.0579613596201,-0.0500915646553,-0.0410740077496,0.0281653683633,0.000155392801389,0.0333172306418,0.0456863902509,-0.0312746837735,0.022976661101,0.0135238077492,0.0454321466386,-0.00878014042974,-0.0563075169921,0.00932468101382,0.0576636232436,-0.0609868578613,-0.0326354578137,-0.0231094900519,0.0334070287645,-0.0222036186606,-0.0327824838459,0.0186704751104,-0.0569937340915,-0.0413882955909,-0.0115533210337,-0.0181415136904,-0.0192013159394,-0.0491842366755,-0.0174830667675,0.0374464169145,-0.0108242193237,0.010829729028,-0.0422715395689,-0.0540666393936,0.0477456077933,-0.0211872775108,-0.0188042521477,0.0474605932832,0.0261101722717,0.0322033986449,0.0228722803295,-0.0495322309434,0.057552408427,0.0514129064977,-0.0331431627274,0.0382011532784,-0.011382477358,0.0230935402215,-0.0420169048011,0.00484667811543,-0.0469158254564,0.0045467261225,-0.0322168618441,-0.00597077514976,0.0211084745824,0.0473838895559,-0.0420565418899,0.0494186505675,-0.0138155212626,0.0432021208107,0.00157865765505,0.0455157011747,0.0204617921263,0.00109717110172,-0.0235537346452,0.0589236803353,0.0378120057285,-0.0149271907285,-0.0418758802116,0.035127710551,0.0615668818355,-0.0277707781643,0.0522581189871,-0.0470721237361,0.0568265430629,0.0308324005455,-0.0192720796913,-0.0245451666415,0.0180275887251,0.0117537854239,0.0526460185647,0.0334591269493,0.00507612992078,0.0537281669676,0.0116540379822,0.0439419411123,0.0428434312344,0.0526763014495,-0.0543315932155,0.0105343200266,-0.00396980857477,-0.00118654558901,-0.00500704534352,0.0424352101982,-0.0227846093476,-0.00465012202039,-0.0375806465745,-0.0311679225415,0.020188190043,-0.0481039248407,-0.039196677506,0.00355005403981,-0.0573004111648,-0.0468516014516,0.0456848628819,0.0435228012502,-0.0191005486995,-0.0190735068172,0.0548781864345,-0.0595536641777,0.0101220840588,0.0122701851651,0.0362072475255,0.0567977018654,-0.0180837009102,-0.00777914980426,0.0215571634471,0.0587480254471,0.0491379350424,0.0210090987384,0.0448423922062,-0.0521037504077,-0.015421894379,-0.061165060848,-0.0405097305775,0.0164150539786,0.0484660714865,0.016702523455,0.0206491798162,-0.0497580803931,0.0207399521023,-0.00571241183206,0.019053613767,-0.0218182075769,0.0102634197101,-0.00951695349067,0.0073923128657,-0.0443244166672,-0.0130692869425,-0.015776693821,0.029725400731,0.0259575992823,0.0513965785503,0.0166145693511,-0.0232823286206,0.0356098897755,-0.000357910234015,-0.0384951010346,0.0311081353575,-0.0461553297937,-0.0404226519167,0.0325336456299,0.033964715898,0.0365578308702,-0.0259506180882,0.0460877306759,0.0280033797026,0.0419888198376,0.0262363217771,0.0100255338475,-0.0490582063794,0.0265291910619,0.0239563267678,-0.0235378928483,0.0296726506203,0.00638034380972,0.00750517798588,-0.0165958479047,-0.0481129065156,-0.0355292670429,0.0338207744062,-0.0286793373525,-0.0625046119094,0.0624719709158,-0.0363359004259,0.019543485716,0.053664047271,0.012548151426,0.0375937074423,0.0598777085543,0.0453005507588,0.00729464320466,-0.0170961506665,-0.00217301794328,0.042983006686,0.0444316267967,0.0434892438352,0.0122472746298,-0.00286519876681,-0.0236761216074,-0.0623753331602,0.0332615301013,-0.0279942192137,-0.021374700591,0.0431878603995,-0.0562350824475,0.0537604577839,-0.0626296177506,0.0552116334438,-0.00565753970295,-0.0499632842839,0.0219169035554,0.0497742667794,-0.00774907460436,0.0240777544677,0.0602673478425,-0.0325500816107,0.0402989126742,-0.0256972685456,-0.00923827197403,-0.027404608205,-0.0067660883069,-0.0621707439423,-0.0246812645346,-0.00685626966879,0.0166346523911,0.0172781646252,0.0105460435152,-0.0259826146066,0.0562432929873,-0.0135504510254,-0.0355498418212,0.0068740923889,0.0313036032021,-0.061266683042,-0.0280795414001,0.0408596545458,0.000903208332602,-0.0114780459553,0.0541663691401,-0.0515564866364,0.0145430723205,-0.0198089927435,-0.05390772596,-0.035948805511,0.0160965677351,-0.0592555478215,0.0116109875962,0.057425443083,0.0371000096202,-0.0193823240697,-0.0454420745373,-0.00437051430345,-0.0134320836514,0.059295527637,0.0615786984563,-0.0112118422985,-0.0441087074578,0.0516193769872,0.0369091518223,0.00144042086322,-0.0168952662498,-0.00648953299969,0.0505226030946,-0.0395860783756,0.0385896638036,-0.0605019032955,0.0528878867626,7.77726381784e-05,-0.0342954024673,-0.0624287314713,0.00752279907465,-0.0320662558079,0.0165128074586,-0.0274787973613,-0.0517486594617,0.000653404626064,0.00812166184187,-0.00593871856108,-0.00525445444509,0.0112837227061,0.00333011592738,-0.0461397171021,-0.03803261742,-0.0449807271361,0.0243191998452,0.00362399942242,-0.00878370832652,0.0375185757875,-0.0218595601618,0.00858845096081,-0.053450986743,0.0307382047176,0.0245544593781,0.0380231924355,0.0483391024172,0.0324501693249,0.0433146059513,-0.0193671286106,-0.0196583047509,0.0558616034687,0.0521263107657,0.00612644804642,-0.0167352594435,0.0460228137672,-0.0221570283175,-0.0434904284775,0.0175605677068,-0.057439930737,-0.0151737276465,0.0386777296662,-0.0257144924253,0.0542153269053,0.0572950579226,0.0397021397948,0.0612932667136,0.00388356554322,0.0087132146582,0.0422656163573,-0.000879857980181,-0.0116969989613,0.0144437048584,0.0198351051658,0.0315507911146,0.0211596693844,0.0309006739408,0.0219587143511,-0.002436212264,-0.0458517596126,0.0358886644244,-0.0589395351708,0.0619066394866,0.0412937998772,0.0214969422668,0.0586529821157,0.0141535485163,-0.0557175800204,0.00748109212145,-0.0279763117433,-0.0163815971464,-0.00505901919678,0.0345246456563,0.000387428270187,-0.00316222407855,-0.0248640663922,0.00503394380212,-0.0315924882889,-0.0300088487566,0.0323499068618,-0.0197611544281,-0.0563456490636,-0.0196191594005,0.0174362082034,0.0394779779017,0.0580856129527,0.0309795569628,-0.00889982283115,-0.0252014603466,-0.0464988574386,0.016085030511,0.0012823168654,0.0223697349429,-0.0329904220998,-0.0221415646374,-0.0261058695614,0.0374204553664,-0.0412933379412,0.0136488219723,-0.0563563480973,0.00624208291993,-0.0547782368958,-0.0407094433904,-0.0486872456968,-0.0193213652819,-0.0196975711733,0.0409551113844,-0.0345305502415,-0.0520345456898,0.0129454275593,0.0234928783029,-0.0258431397378,0.012864023447,0.0346329584718,-0.0192111171782,0.00313065131195,-0.0444579645991,-0.0599119737744,0.0604316033423,-0.0252202581614,-0.0278375260532,0.0594006069005,0.0286133922637,0.0106526445597,0.02498065494,0.0263130087405,0.0330242142081,-0.0544509105384,-0.0110188312829,-0.025808699429,-0.0539966635406,-0.0110185621306,0.0145618282259,-0.0404348373413,-0.0245356746018,0.0174515917897,0.0099315457046,0.0463040843606,0.036558881402,0.0584579855204,0.0121640479192,0.0248897727579,0.0452509187162,0.0426732338965,0.0274348463863,-1.66963418451e-05,-0.0285468325019,0.0473505705595,0.0347211323678,0.0424177646637,-0.0451793707907,-0.023312240839,-0.00948100164533,0.0424736849964,0.0493263043463,-0.0270718950778,0.0233836397529,-0.053089376539,-0.0114017613232,-0.00171420222614,0.0333392769098,0.049214605242,-0.0204854551703,0.00344646978192,0.0184886902571,-0.0215655975044,0.0609629042447,0.0471704006195,-0.0256312079728,0.000950528657995,-0.0338695086539,0.00177454261575,0.0229888744652,-0.052129805088,0.0464595407248,0.0116981100291,0.0614400245249,-0.0596939586103,0.0415732115507,0.0366053581238,-0.0462159514427,-0.0207764953375,0.0482704155147,0.00223725964315,-0.0124422265217,0.0509154833853,-0.0511364191771,-0.00341492961161,0.0191091001034,0.0136012658477,-0.0296577643603,0.00791802164167,0.0261694267392,0.0106049068272,0.023117357865,-0.0307116713375,0.0417630374432,-0.00638328306377,0.061161197722,-0.0599636286497,-0.0151005806401,-0.0402117669582,0.00693246442825,-0.0323231182992,0.0297853667289,0.0479285493493,-0.0363844186068,-0.0426932051778,0.0471106953919,-0.0174872428179,-0.00827517546713,-0.0351274684072,-0.00945020932704,-0.0338293686509,0.0207842476666,-0.000206745957257,0.0361310094595,-0.0235974285752,0.000637488323264,-0.0302829388529,0.0545582436025,0.00272026355378,-0.0410675406456,-0.0285894796252,-0.0524470284581,-0.0593689233065,0.00322114885785,-0.0205025915056,0.0582399107516,-0.0413481555879,0.0368830226362,-0.0231732018292,-0.0347881503403,0.0589638501406,0.037971701473,0.0163644440472,0.0247205980122,0.0616961978376,0.0116697438061,-0.0500659942627,-0.0547195859253,0.0208928342909,0.0197612196207,0.0311422329396,-0.0492016971111,0.0558623857796,0.00638602441177,0.0187534857541,-0.0584877952933,0.0578851290047,0.00782596692443,0.00792288128287,0.0556963384151,0.0539113730192,-0.0351853333414,0.0541311018169,0.0296849589795,-0.0605010651052,-0.0327382832766,-0.0109825534746,0.0103591810912,0.0252503566444,-0.0364618226886,0.0422605276108,0.0433932952583,0.0168818030506,0.0528314448893,0.0392465703189,-0.0350613072515,0.0374489910901,0.0568660348654,-0.0456185899675,0.0600697398186,-0.0597691908479,0.00274780974723,0.0343787148595,0.0364576913416,0.029450410977,0.00365053955466,0.0189319532365,0.0250850673765,-0.000723821343854,0.0119857722893,0.0434617996216,-0.0235743653029,0.0028545523528,-0.0618240423501,0.0234910808504,-0.0383381843567,-0.0024487755727,-0.0364759899676,-0.0599324144423,-0.00216365628876,-0.00950032658875,-0.00946063082665,-0.0366455577314,0.0561387650669,-0.0624426454306,0.0491448491812,0.029712986201,-0.0412614271045,-0.00355980847962,0.0613614656031,0.0179910100996,-0.0468879789114,-0.0053880745545,-0.00406103767455,0.0379156880081,0.0522278770804,-0.0525594949722,-0.0234034433961,-0.0253635756671,0.062295421958,0.00740616209805,0.0476920865476,-0.00933051574975,0.0279504582286,-0.0268529132009,0.0517073683441,-0.00568504072726,0.0381160676479,-0.0307319927961,0.0242787022144,-0.01196632348,-0.0589264445007,-0.0109799411148,0.00623663933948,-0.0438072197139,-0.0397606007755,-0.00445755198598,-0.0198043193668,-0.00748866284266,-0.00496467621997,-0.04526899755,-0.04010219872,0.0437068007886,-0.0424238108099,0.0208090711385,-0.0102765383199,0.0587977021933,-0.0545607917011,0.0414762720466,-0.00111355015542,-0.0621946528554,-0.0297366417944,-0.0116375451908,-0.0233955420554,-0.0173320416361,0.0523094274104,-0.017522463575,-0.0102475611493,0.0327648222446,0.0368740297854,-0.0523096732795,0.0255946926773,-0.00227157818154,-0.0460901223123,-0.0296472031623,-0.057250700891,-0.0176436919719,-0.0308163221925,-0.0148960724473,0.0100136483088,0.0291132666171,0.0132004916668,0.0223765634,0.0459071658552,0.0469356998801,0.045288965106,-0.0436191149056,-0.0313173495233,0.000254548038356,-0.017787925899,-0.0462830662727,-0.0266704931855,0.0597405582666,-0.019234597683,-0.0101889474317,-0.0620237067342,0.0275708343834,-0.0108629679307,-0.0498679019511,0.0588770471513,0.0348611958325,0.0284171551466,0.0575344860554,-0.0116256987676,0.0274600889534,-0.0369167923927,0.0247694142163,-0.061058960855,-0.0469570346177,-0.0093916784972,-0.0613085627556,-0.00477922521532,0.00286392401904,0.0152806192636,-0.050213880837,-0.0400828234851,0.0142347551882,0.0198772624135,-0.0595735609531,0.00507240835577,0.0358097143471,-0.0541451349854,-0.0109103657305,-0.02179992944,0.0519796386361,-0.039480868727,-0.0228241346776,0.0500670410693,-0.0212794579566,0.00393899949268,-0.0586769916117,0.0609309859574,0.0408315584064,0.0168883074075,-0.055193811655,-0.0534202121198,0.00565121416003,-0.0270079802722,0.0154292518273,0.0123384911567,0.0425536371768,-0.0274713225663,0.00978403259069,0.034852411598,-0.00115943117999,0.0415474176407,-0.0463324226439,0.0293906982988,0.0556634329259,-0.0211248975247,-0.0167956501245,-0.0523295551538,0.0177794415504,0.00659075751901,-0.0577583909035,0.0316919982433,0.0413766279817,0.0511570908129,0.00574677018449,-0.00595861114562,0.0472639538348,-0.0127293700352,0.0195323880762,0.0144959799945,-0.0160637460649,-0.0519098304212,-0.0601370930672,-0.00901737064123,-0.00236213812605,0.0405465178192,-0.0107547044754,-0.0274986121804,-0.00476281251758,-0.0329231135547,-0.0513480603695,-0.0486235320568,-0.0227243583649,-0.0612352155149,-0.0351581834257,0.0361290574074,-0.0333469882607,-0.0489142388105,0.0564297437668,0.0153891257942,-0.0552854537964,-0.0550067462027,0.0140888374299,0.00504243187606,-0.0542363747954,-0.0346414633095,0.0539118908346,0.00904860254377,-0.00749848224223,-0.0313945151865,-0.0460281036794,-0.012234929949,0.0530729666352,-0.0567071996629,0.0616945177317,-0.0367151349783,-0.0114639438689,-0.0571671128273,0.0106534073129,-0.00206638243981,0.0209477674216,0.00536277005449,-0.0127945896238,0.0298755969852,-0.0596840269864,0.00515554985031,-0.0485188364983,-0.00804094783962,0.0365816913545,-0.0449270159006,0.0547622591257,0.0488180108368,-0.0106927035376,-0.0620773099363,0.0364082269371,0.0478619076312,-0.0408711656928,0.0522971190512,0.0520338788629,-0.00360748171806,0.0374499149621,-0.00691762613133,0.00804780889302,-0.0226383395493,-0.0427897796035,0.0309788435698,-0.0626530647278,0.00999628659338,0.0458250492811,-0.0350232310593,-0.0209972150624,0.0109931370243,-0.0318073146045,0.043663866818,-0.0167621355504,0.0102552678436,-0.0344145670533,-0.0576276369393,-0.0410015769303,-0.0570229031146,-0.00394511362538,0.0108865229413,-0.05721437186,-0.0514584369957,-0.0018188697286,0.0375938042998,0.0160851441324,-0.049670599401,0.0486970804632,0.0524551980197,-0.0219952557236,0.014578351751,-0.000964140926953,0.0555430166423,0.00109930720646,0.0577975437045,-0.0377794653177,-0.0194092597812,0.0353527665138,0.0356374382973,0.0291752610356,0.0451873987913,0.0254511777312,0.0170999392867,-0.00516132544726,-0.00413562823087,-0.0117913875729,0.0151053545997,-0.0117282532156,-0.044294513762,-0.0494419820607,0.0533375628293,-0.0597194880247,-0.0495754741132,-0.00687278015539,-0.0297897774726,-0.0118306670338,-0.0480700992048,-0.0463788211346,0.0377795211971,0.0325586125255,-0.0497280694544,0.021083900705,0.0137356426567,0.026810342446,-0.00321065285243,-0.0289025753736,0.0205672979355,-0.016164733097,-0.0353153012693,-0.0114813288674,0.0330814793706,-0.00304173422046,-0.0251482911408,0.0417013391852,0.0479558929801,-0.00838749669492,-0.015746222809,0.0141613185406,-0.0555432401597,0.0240409355611,0.0354711785913,-0.0128870550543,-0.0408865250647,-0.0592068806291,0.0172457564622,-0.0290274042636,-0.00453749625012,-0.0142801301554,-0.0408527329564,0.00105157482903,-0.00507732341066,0.0155999148265,-0.0311771817505,-0.03585736081,0.0394993983209,0.0254067033529,0.0342044197023,-0.047335959971,-0.0346761234105,0.00949100125581,0.0448845550418,0.0492716245353,0.0417065359652,-0.0573748648167,0.0403204485774,0.0501482710242,-0.0556972138584,-0.0105198221281,0.00460031302646,-0.0335815660655,0.00209665577859,0.0484977252781,0.0461085923016,0.0552682690322,-0.0019967018161,-0.0112378150225,0.0208322629333,-0.0104595469311,-0.057557489723,0.0276344884187,-0.0275207199156,-0.0566602125764,-0.0602369196713,0.0542032048106,-0.0311531797051,-0.00654678791761,0.0566177107394,-0.00408169208094,-0.0529503412545,0.00652608508244,-0.0517453812063,-0.0508797056973,0.0441652648151,-0.0264604836702,0.0224510133266