-0.0038310221862,0.0137629369274,0.00708412844688,0.0030126189813,-0.010503757745,-0.0105044944212,-0.0134942857549,0.0111814942211,0.00308763119392,0.00635366979986,-0.0146393524483,0.0143490890041,0.0101514132693,-0.00878396537155,-0.00971573963761,-0.0096675073728,-0.00597762642428,0.000755958259106,-0.00207811570726,-0.00637499243021,0.0034155214671,-0.0110083557665,-0.00634703645483,-0.00408075237647,-0.00134143966716,0.00870808586478,-0.00917071197182,0.000434660440078,0.00282195582986,-0.0138495145366,0.00328397168778,-0.0100608207285,-0.0132815120742,0.0137070938945,0.0142184626311,0.00941717065871,-0.00596628151834,-0.0122854178771,0.00562570896,-0.00182749354281,-0.011541377753,-0.000147277067299,-0.0142178349197,0.0124989394099,-0.00736585445702,0.00496275350451,-0.0057495594956,0.000612793781329,0.00142633728683,-0.0096232322976,0.0143391583115,0.00840141065419,0.0134204663336,0.012056382373,0.00298945745453,0.0128822820261,-0.0125657245517,-0.00928341690451,-0.0138868642971,-0.00533368391916,-0.00339933182113,-0.00698204804212,0.0100382743403,-0.00437415670604,-0.00668934732676,0.00130376045126,-0.0109646786004,0.00922783650458,-0.012991450727,0.0148674985394,0.00831322092563,-0.00919996760786,-0.0150992944837,0.0096328780055,0.00631656171754,0.00699292495847,0.00828346610069,-0.0130069013685,-0.00432186713442,-0.0117297582328,0.0110876662657,0.00376501120627,-0.00516367005184,-0.0133271096274,-0.0057718125172,-0.00533817289397,0.00701121613383,0.00420043198392,0.0118238637224,-0.00084844045341,-0.0116160064936,0.00651160720736,0.00796328857541,0.00187115033623,0.0082742087543,-0.0001894566376,0.000694165879395,-0.00221259542741,-0.014491722919,-0.011973362416,-0.0143082002178,0.00416540587321,-0.00566879473627,0.000261713197688,0.0124453818426,-0.00765557074919,-0.00273653212935,0.00780346710235,-0.00828137435019,-0.0129172708839,-0.00642011454329,-0.0103448908776,0.013121176511,0.00940871238708,0.00407359516248,0.0113428588957,0.0092728799209,-0.00957084447145,0.0119871161878,0.00120134814642,0.0093879410997,0.0120949782431,-0.00555741554126,-0.0119073893875,-0.00830772705376,-0.00222582439892,0.00971084646881,0.0110152093694,-0.0150556275621,0.000328177848132,-0.00252192397602,-0.00848567020148,-0.0116077279672,-0.00495855603367,0.0135246170685,-0.00539864599705,0.000573787314352,0.00619935337454,-0.00416418397799,0.0144062591717,0.0141212139279,-0.00757953478023,-8.40191642055e-05,-0.00608034664765,-0.00657007517293,-0.014141542837,0.00334563828073,8.1806210801e-05,-0.0136959701777,-0.00675921468064,0.0124667389318,-0.00795269478112,-0.0108434315771,-0.000322068750393,0.0148297417909,-0.007876557298,0.00525630265474,0.00798877328634,-0.00801145657897,0.00696877669543,-0.00403735227883,0.00404006894678,0.00407744105905,0.00109240983147,-0.012510843575,0.0102387415245,-0.00547263026237,-0.00957241840661,-0.0140228141099,0.00277549191378,0.00542207574472,-0.0147613938898,0.000369271612726,-0.00835167989135,0.00443297205493,-0.00994349271059,0.00583044299856,-0.00345863075927,0.013335914351,-0.0110686002299,-0.00485317129642,-0.0118029080331,0.0129683734849,0.0115223722532,-0.00739145418629,0.00488524604589,0.00968664418906,0.00168560282327,0.000905405147932,-0.00788275524974,-0.0124249467626,0.0121293142438,0.0122270993888,0.00406436389312,-0.00491535943002,-0.00460451142862,0.00689974520355,0.012126092799,0.0118200071156,0.00854623317719,0.00433705467731,-0.012698632665,-0.0103324493393,0.0121701844037,0.00324990018271,-0.014987077564,-0.0121693983674,0.004992662929,-0.0151133574545,-0.0103575093672,0.00148812693078,0.00585968000814,0.00464026397094,-0.00841966643929,0.00647906959057,-0.00802331790328,-0.00533156562597,0.00752682052553,0.00456916540861,0.0106638278812,0.00481284130365,0.00208586012013,-0.0124074798077,-0.00403940817341,-0.00716974167153,-0.00781749002635,0.0144437719136,-0.00326435011812,0.0119714681059,0.00400442723185,0.00900230929255,8.05258387118e-05,0.00234832428396,-0.000228478456847,-0.00930600985885,0.00679276091978,-0.00669429870322,-0.0145254088566,0.00444211810827,-0.00985969509929,0.0134497703984,0.0138610880822,0.0126682305709,-0.00396481249481,-0.0147959366441,0.0130790648982,-0.00219295686111,0.0142496945336,0.0141570223495,0.0107794385403,-0.00627667456865,-0.00350863672793,0.0107222506776,-0.00559043930843,-0.0100923143327,0.00173447397538,0.0133183496073,0.00598593335599,0.00213937624358,-0.012300551869,0.00351184164174,0.0149642033502,-0.0109903346747,0.000559711246751,0.0115234013647,0.00735207041726,0.0060160397552,0.00618302030489,-0.00429055467248,-0.00630284519866,0.00944660045207,0.00946957152337,0.0112088592723,0.0126186450943,0.000346349610481,4.63013238914e-05,0.00910869240761,0.00457927351817,0.00616722693667,0.00903227552772,0.0119091384113,-0.00494695315138,-0.00379917840473,-0.0123981004581,0.00239034928381,-0.0141703896224,-0.00105049321428,0.00130218954291,-0.00651814090088,0.0027736693155,-0.0143365664408,-0.0141274584457,0.00985087733716,-0.00426919525489,-0.0113880187273,0.000679216522258,0.00824447814375,-0.00867764186114,0.00375256314874,-0.0126617606729,-0.0136897722259,0.000957439828198,0.00124082737602,0.00419653672725,0.00690388726071,0.014530540444,0.000497744709719,-0.00540617154911,0.00901375617832,-0.00699782837182,-0.00186355854385,-0.0128721855581,-0.0144938109443,0.0141273550689,0.0102594336495,0.00598423602059,-0.00278019788675,-0.00997623056173,-0.0104909818619,-0.00762654142454,0.00150317722,0.00655286526307,0.0048917606473,-0.00671990215778,0.0138896908611,0.00726438080892,0.0016597462818,0.00341148604639,-0.00245507922955,-0.00770324468613,-0.00439799437299,0.00787354633212,-0.0148283997551,-0.0117235416546,-0.0138631882146,-0.0140242287889,0.0108542852104,0.00621886271983,-0.000788623641711,-0.0122804697603,-0.000256016239291,-0.000810061581433,-0.00997905340046,-0.00201989500783,-0.00309924269095,0.00353757943958,0.00412519741803,-0.0138845210895,-0.00382880843244,0.00384323741309,9.57682714215e-05,0.0108857145533,0.00484584225342,-0.0102925784886,-0.0131130414084,0.00434889132157,-0.0144583722576,0.00261922902428,0.0134427975863,0.00230466690846,-0.00341482460499,0.00437542516738,-0.00127478281502,0.00139294669498,0.0134804956615,-0.00347795104608,0.0140828387812,0.0123777203262,-0.00928927119821,-0.0131499115378,-0.0121905766428,-0.0147114982828,-0.012384022586,0.00558826467022,-0.013094112277,-0.00552773009986,0.0105310548097,-0.0145572889596,0.00960255693644,-0.00666124653071,-0.01165965572,0.00600753352046,0.00393737759441,0.0115264225751,0.00717809051275,0.00926704332232,-0.00665575591847,-0.00984965264797,0.007652730681,0.0093694543466,0.0149779831991,-0.00266829202883,-0.00390803441405,0.00844050012529,-0.00486119650304,0.0131535343826,0.010944432579,-0.00216822652146,0.00766055705026,0.00777267897502,-0.0121189439669,0.0122922891751,0.000160385578056,0.0099686505273,-0.00549493543804,0.0120776314288,-0.00338331912644,-0.0149369798601,0.0123786767945,-0.0124804023653,-0.00551740871742,0.0137430178002,0.0137596651912,0.00224248715676,0.00402575917542,-0.00157425901853,-0.00631448160857,-0.00523187080398,0.00526799494401,0.00770646659657,0.00890360958874,0.00884373113513,-0.0124828629196,-0.000170380648342,-0.0135103119537,0.00151240569539,-0.00178541487549,0.011838870123,-0.00455243419856,-0.0116931777447,-0.0109015470371,0.00798544567078,0.00360988709144,-0.0121800517663,-0.0126996459439,0.00613676011562,-0.0130460383371,0.00982826575637,0.00629777833819,-0.012783864513,-0.0126773267984,0.0148599455133,-0.00383924599737,-0.00395005010068,0.00955159589648,0.0136571079493,0.0148404473439,0.0077371140942,-0.00377851678059,-0.0127181531861,0.00846291240305,0.00178342242725,-0.00231394404545,0.0124083701521,-0.0118724089116,-0.000225198586122,-0.0149212237448,-0.000956973410212,-0.0135486498475,-0.0116397123784,-0.0116791548207,0.00455626100302,0.00751318549737,0.00254573486745,0.0141128245741,-0.00382093130611,-0.00654346030205,0.0112554822117,-0.00844023190439,0.0141448862851,-0.0148967700079,0.014348141849,-0.0139499930665,0.0119438813999,0.000845876464155,0.0150530915707,-0.0130144776776,0.00164448551368,0.014330544509,0.000705311947968,0.00395129527897,0.00597734935582,-0.00138812651858,0.00389509228989,0.00257460772991,0.0122496942058,-0.0138801736757,-0.00668847188354,0.0137536907569,0.0119170304388,-0.00135405804031,0.00366834900342,-0.00679785106331,-0.00952348019928,-0.00110849947669,-0.00447801221162,0.00255450909026,-0.0128942253068,0.01448604092,0.0148468501866,0.00605103326961,0.00110223260708,-0.00581623287871,0.00958199240267,0.00564092025161,-0.0103022735566,0.0125480042771,0.00984894391149,0.0137350158766,0.0068925335072,0.00346322753467,-0.00249651703052,0.0132137248293,0.0111780660227,-0.0138871269301,-0.0144627792761,-0.0037722941488,0.00948300492018,0.0148793831468,-0.0106748118997,0.00287435995415,-0.00363709707744,0.0143492277712,0.010446886532,0.010331149213,-0.000955980503932,-0.00260105752386,-0.00691920425743,-0.0135464444757,0.0111371017992,0.00955469347537,0.015259295702,0.0151652200148,0.00169265340082,0.00821375474334,0.0135812927037,0.0106767751276,-0.00771493650973,-0.00151017610915,-0.0113239269704,0.013864826411,0.00324213108979,-0.00828611850739,0.00524302339181,0.00360714434646,-0.0043311198242,-0.0118003413081,0.00523913046345,0.000620112579782,0.00831546913832,0.000615709344856,0.0107541559264,0.00158501858823,0.00186079181731,0.0115014314651,-0.002947231289,-0.0111756501719,-0.0143890138716,0.00779082905501,0.003673752537,0.00623174570501,-0.0087648788467,-0.0111036999151,-0.0148237831891,-0.00456243334338,0.00274571147747,-0.00329041783698,-0.00190925539937,0.0123413223773,-0.00463364599273,0.000427180726547,0.00866158120334,-0.00315915234387,0.00372801930644,0.0110650779679,0.0137264868245,-0.0107769053429,0.0130262086168,-0.000240735564148,-0.00738220941275,-0.00124782382045,0.0146581949666,-0.000225412659347,-0.00522921234369,0.00407350622118,-0.00793487019837,-0.0129513666034,-0.0113324671984,-0.0113579304889,-0.0106294415891,-0.0110287135467,0.00430172774941,-0.00971405673772,-0.00471267802641,0.0121162645519,-0.000795103027485,0.00511651532724,-0.010005986318,-0.00939621124417,-0.0140199596062,-0.010109343566,-0.00676092877984,-0.00986275449395,-0.0125593114644,-0.011584199965,-0.00119765300769,-0.00896734464914,-0.00414463318884,0.00010434921569,0.00581386499107,-0.0140674877912,0.00914274621755,0.00390554498881,-0.0127713363618,0.0114075345919,0.0128516899422,-0.0134028503671,-0.00681322719902,0.00935011170805,0.00758081674576,-0.00963341351599,-0.00887526106089,-0.00395524222404,-0.000472603540402,0.00361100817099,-0.00400283141062,-0.00114403374027,0.00755673134699,-0.0141477650031,-0.00755954440683,0.00651480769739,0.0120679708198,0.000356580421794,0.00098061200697,-0.0119953304529,-0.00160580722149,0.000995995476842,-0.00786387827247,-0.00704635027796,-0.00374723039567,-0.0146550266072,-0.00543296104297,-0.00881117582321,-0.00526751205325,-0.0116108804941,0.0119250761345,0.00285792374052,0.00546903861687,0.00883008539677,-4.756875569e-05,-0.0126137332991,0.00113307917491,0.00265176594257,0.00749469920993,-0.00208683265373,-0.0113721461967,-0.0066025829874,-0.00418089609593,0.00445570470765,0.0021612746641,-0.00439420668408,0.0148561485112,0.00322992238216,-0.00802399870008,-0.0121599044651,-0.0106002353132,-0.00775739271194,-0.0103613771498,-0.00957093760371,-0.00656229816377,-0.00997381005436,0.012115563266,-0.012817912735,0.000748475722503,-0.00273610767908,0.0147298332304,-0.0118467155844,-0.00311906449497,0.0143356714398,0.0111610647291,0.00968206021935,-0.00739263929427,-0.0100497221574,0.00514966156334,0.0131113538519,0.00173330225516,0.00218675308861,-0.00671852193773,0.00822919141501,-0.00955638010055,-0.0053841015324,-0.00227686064318,0.000232389254961,-0.00786573346704,-0.0117612788454,0.00337787531316,-0.00645434251055,0.00248067686334,-0.0105543229729,-0.000575902697165,0.000995145528577,-0.0136854425073,-0.00498942472041,-0.0111634526402,-0.0133327096701,0.0149613441899,-0.00542457355186,0.009462274611,-0.00749225215986,0.00554233696312,0.00794627517462,0.00292040873319,-0.000867944792844,-0.00269201118499,-0.0046149333939,0.0131160309538,0.0100957397372,0.0141999842599,-0.0114723974839,0.00704973097891,0.013385090977,-0.00973381381482,-0.0132373981178,0.00736282020807,0.00227409857325,0.0104380268604,-0.0109998509288,0.00901623349637,-0.00911105889827,-0.0102705461904,-0.0102519234642,0.00960580166429,0.00504443468526,0.000704322010279,-0.00431072898209,0.0115181328729,-0.00328427832574,0.00966762751341,-0.0018585663056,-0.00375760439783,-0.00113960390445,-0.00606509204954,0.00756095908582,8.30693825264e-05,-0.00817710906267,0.0122013427317,-0.003545478452,0.0013299229322,0.0124119650573,0.00379371084273,-0.0116983382031,0.0134306410328,0.00389967183582,-0.0050412947312,-0.0110151283443,0.00897830445319,0.00366652174853,0.00102176237851,0.0120278382674,0.00881255697459,-0.0106363976374,-0.00574922375381,-0.00768009386957,0.00744910351932,-0.014243976213,0.0021341398824,0.00801439490169,0.0115048531443,-0.00482216570526,0.00980986002833,-0.0118896849453,0.0105792097747,-0.011374944821,-0.00313641829416,0.00907816179097,-0.0106900632381,-0.00826753489673,0.00678666774184,0.00671899924055,0.00431006075814,0.00592237757519,0.00130462646484,-0.00757902255282,-0.00471180165187,-0.00972267892212,0.01247237809,0.002546438016,-0.00302758463658,-0.00116018450353,0.013658169657,-0.0105852037668,0.00263309990987,0.000179815717274,0.0034033479169,-0.0147149078548,0.0113631142303,0.0131950918585,0.00198889616877,0.00600489694625,0.0129013713449,0.00632820464671,-0.0106100104749,0.00232952879742,0.00325863296166,-0.00231673312373,0.00722002191469,0.0132637592033,0.0129950894043,-0.00150116079021,-0.0118100987747,0.0148050300777,0.0103485360742,-0.0114612383768,0.0128507576883,0.0112950941548,0.000575235811993,0.00278717163019,-0.00308403675444,-0.0135957244784,-0.0050323898904,0.00924788229167,-0.0151264742017,-0.00508424174041,-0.00310950377025,0.00114190590102,0.0128206415102,-0.00469195330516,-0.00467341160402,0.00725229876116,-0.00145906500984,-0.00840942095965,-0.00145229906775,-0.0109667303041,-0.00988179352134,-4.98414192407e-05,-0.00247567892075,0.012667665258,-0.00420191697776,0.00246083247475,0.00403880048543,-0.0148680666462,0.0049937502481,-0.00983144063503,0.0140791665763,-0.0107283769175,-0.00260702357627,-0.0126616936177,0.0151724694297,6.70264707878e-05,0.00291266106069,-0.0132196806371,0.00763275148347,-0.00885827466846,0.0121549200267,-0.00900380685925,-0.0094451084733,-0.0141518423334,-0.000852959114127,0.00197997805662,-0.0132614485919,0.00841346569359,-0.0014263644116,0.000744777207728,-0.00180885894224,-0.00303028267808,0.00182116730139,-0.0105275269598,-0.00971258990467,0.0110474256799,0.013622507453,-0.0038686057087,-0.0070005026646,0.00439714593813,-0.00278687826358,-0.0144927231595,-0.0104996673763,0.00659489212558,0.00485287513584,-0.0144405178726,-0.00848981179297,-0.00821185577661,0.00524888839573,-0.0146660394967,-0.012088874355,0.00915818754584,-0.0098159071058,0.00466422969475,-0.0079948073253,-0.0122313909233,-0.007842451334,0.00678710592911,0.0108614880592,0.0100835394114,-0.00313958665356,0.00513261975721,-0.00900855101645,-0.00631640665233,0.0121024446562,-0.0148708922789,-0.0126568423584,-0.0089199366048,-0.0144577343017,-0.00972763448954,0.00253574340604,-0.00239936681464,0.011990558356,0.00969340372831,-0.004830238875,-0.007346205879,-0.00367369269952,0.00275723147206,-0.00708237010986,0.00379099044949,-0.00276619079523,0.00158930406906,-0.00195042975247,-0.00627615954727,0.0136938961223,0.00804942287505,-0.0109894443303,0.0112514765933,-0.000383798847906,0.012047980912,0.00915633048862,-0.00228366791271,-0.0145817976445,-0.00706362957135,0.00127133552451,0.00407586898655,-0.00739310123026,-0.0110125634819,0.0102273738012,0.0147916246206,0.000784471165389,-0.010025546886,-0.00695278588682,-0.0147063424811,0.0126509591937,-0.0116722891107,0.00233649439178,-0.00689941225573,0.00165437045507,0.0046237478964,0.0100689409301,-0.00896467175335,-0.0149321500212,-0.0110879996791,0.0122149027884,0.011417045258,0.00297459028661,0.00306936609559,0.00503953266889,-0.00991280842572,0.0126544144005,-0.00248040980659,-0.00356846256182,0.000577667902689,-0.0138337723911,-0.0101903155446,0.0072685549967,-0.0127395903692,0.00314983562566,-0.00777597725391,-0.00338045065291,-0.00645241281018,-0.00440715393052,0.00668874941766,-0.00619505764917,0.00202772114426,-0.000731320935301,0.00499783549458,0.0133389607072,0.00710178306326,-0.00870453286916,-0.0143157141283,-0.00725946575403,0.00290328380652,-0.0136975869536,-0.000110959670565,0.0029571771156,-0.00506150117144,0.00827253051102,-0.0120128504932,-0.0129735218361,0.0069679338485,-0.000137676426675,0.00575302448124,-0.00199010153301,-0.00774382520467,0.00974405556917,0.00914291385561,0.00594521919265,-0.00695773819461,0.00275526870973,-0.00424527795985,-0.0124713815749,0.0127430176362,-0.0110900457948,0.013748372905,-0.0016487587709,-0.00961472839117,0.00127948040608,0.0113882124424,0.00709118042141,0.0093611003831,0.00484858267009,0.00587132526562,0.0106629803777,-0.00764409592375,-0.000322917563608,-0.00851310230792,0.0148913497105,0.0135597223416,-0.0140639860183,0.00627740938216,0.0129853123799,-0.00975389778614,0.00207476434298,0.0126872817054,-0.0142313484102,0.00602839235216,-0.00618811696768,0.0129592921585,0.014384156093,0.0135660478845,-0.000787390395999,0.0110552739352,0.010521103628,-0.0055239177309,0.0100437086076,-0.0141378575936,0.00293968105689,-0.00824440550059,-0.0115863066167,-0.0129180867225,0.00599384168163,-0.00488955155015,0.00686344085261,-0.013272206299,-0.00564026366919,0.00120589951985,0.00887747388333,-0.00553454365581,0.00384419807233,0.0117861526087,0.00353797897696,-0.00815430469811,-0.0145228188485,0.0113012781367,-0.0146184377372,0.0114418277517,0.000883619533852,0.0134072983637,0.00912359543145,0.0152048328891,-0.00455863913521,0.00815881695598,-0.00299462140538,-0.000614514690824,0.00389348575845,0.0114105427638,0.0147818922997,0.00819195248187,-0.00251105986536,-0.00240142946132,0.0072547737509,-0.00797665771097,-0.0118944980204,-0.00443923380226,-0.00649683503434,-0.00621990161017,-0.00813450943679,-0.0139825660735,-0.0147221218795,0.0148930102587,-0.00220550759695,-0.00353218219243,0.00548567948863,-0.00860335212201,0.013739939779,0.00874378345907,-0.0125376777723,-0.00251673976891,0.011576693505,0.0135802635923,-0.000995422014967,0.00346311135218,-0.010167395696,0.0149982431903,-0.00819362793118,0.0135191837326,0.00456958543509,0.0032898329664,0.000387454259908,-0.00822422187775,-0.00987748615444,-0.00853518676013,-0.0095748687163,0.00853734463453,-0.00457655033097,-0.0135016422719,0.0143244396895,0.0117192221805,0.0130617730319,0.015112423338,-0.00995788071305,-0.00316833658144,0.00788552686572,0.00598565302789,-0.0105685768649,0.00964422803372,-0.00841443706304,-0.00843345932662,0.00112904480193,0.00283799832687,0.00244549917988,-0.0124742900953,0.0115260826424,-0.00715759815648,-0.0113130705431,0.0118707465008,0.0139136984944,0.0110578685999,0.00945133157074,0.00474044354632,0.0015529722441,-0.0126117039472,-0.0027954573743,-0.00388756231405,-0.0073361187242,0.00682231970131,-0.000125937862322,-0.012793103233,-0.00854443944991,0.00559595925733,-0.0129431979731,0.0107243964449,-0.000148204839206,-0.000592805037741,0.00282174884342,0.00991440378129,-0.00464727263898,0.00543587189168,0.00200718035921,-0.00711398618296,0.0115617820993,0.00908215157688,0.00483845872805,0.0107053052634,0.011215634644,0.00636253738776,0.010290983133,0.00602995557711,0.00550074875355,0.00362189742737,0.00771691324189,-0.0104247778654,0.0116302063689,0.0113545525819,-0.0143748270348,0.00994908623397,-0.0113327680156,-0.00503478338942,0.0074357278645,-0.0103589799255,0.00970938801765,0.0101419938728,0.000228033473832,-0.0150729194283,-0.00650296825916,0.00357046094723,0.0146934213117,0.00402503600344,-0.00733459787443,0.00409197574481,0.00122098694555,0.00854531209916,-0.0120011735708,0.00797070469707,0.00126010936219,0.014137847349,-0.00482856528834,0.00404972024262,0.013192338869,-0.0121376970783,0.0133511368185,0.00573724741116,-0.0131964562461,-0.00607774360105,0.00635670823976,-0.0132113099098,0.00250914343633,-0.00470608938485,0.00369225628674,-0.0138711454347,0.0113451862708,0.0144583806396,0.0143175767735,0.00762332696468,-0.0112956250086,0.00788628216833,-0.0145171349868,-0.0145923560485,-0.00538620911539,-0.000346789660398,0.00825711619109,0.00559707731009,-0.00165190594271,-0.00691249873489,0.0151801109314,-0.0022541154176,-0.00148443772923,-0.0102715268731,0.00900225527585,0.0059142485261,-0.00852653291076,-0.0127523429692,0.00551169691607,0.00471812859178,-0.00692370953038,0.0137674948201,-0.0106552382931,-0.00206621317193,0.0135461818427,-0.00245119328611,0.00423000520095,-0.00312704057433,-0.00689452700317,0.0147786615416,-0.00276856170967,0.0120341479778,-0.00824606139213,-0.00876058731228,-0.014317211695,0.00463127298281,-0.00401465781033,0.011125982739,-0.000818057858851,0.0142966769636,-0.00960274040699,0.0112562160939,0.00844611600041,0.00827282480896,0.0105282431468,0.00797058548778,0.00385424285196,-0.0112602449954,-0.0142747033387,0.0128509402275,0.00356201454997,0.00905501376837,-0.000564230431337,-0.0116858137771,-0.011445264332,0.0056663909927,-0.00212816754356,-0.00914472714067,-0.000256667524809,-0.0133072435856,0.00250306515954,-0.00705397920683,0.00908621493727,-0.00579075561836,-0.00136739003938,-0.0149130737409,-0.0130556905642,-0.00328279891983,-0.000612584408373,0.00305421091616,-0.00636175693944,0.00595393450931,0.0109966378659,0.00854548346251,-0.0140581233427,-0.000595236604568,-0.0120637863874,-0.00787687022239,0.0148606477305,-0.0109166968614,-3.39511607308e-05,0.00360798393376,0.0061824368313,0.00182142225094,-0.0149695556611,-0.00529914861545,0.000540839799214,-0.0125848399475,-0.00456123100594,-0.0142540326342,-0.0128684574738,-0.00314753362909,-0.0112153310329,0.00206241616979,0.00578547082841,0.00917866546661,-0.00915616191924,-0.0101536968723,-0.0120748504996,0.00416601123288,0.00630490854383,-0.0143034076318,0.0133201051503,-0.0136809302494,0.00126101798378,0.0063838372007,0.0113278515637,0.00653732288629,0.00921351835132,-0.00490252207965,0.00961344782263,-0.0128215430304,0.0120560554788,0.00145327288192,0.0096889520064,-0.00145600095857,0.0043842648156,0.000806227268185,0.00707177910954,-0.0127752777189,-0.0134250158444,-0.00772241363302,-0.0103960875422,0.0113527216017,-0.00857403501868,0.0145309427753,-0.00498052313924,-0.00970679428428,0.00884618517011,0.00484627438709,-5.50953045604e-05,0.00169057224412,0.00669350894168,-0.00829186104238,0.0151559701189,0.0144982049242,0.00459032040089,-0.00917472224683,0.00550341978669,-0.0130632780492,-0.0143319172785,-0.00739935506135,-0.00114133919124,0.0112455077469,0.00693679694086,0.00741124618798,-0.00227512326092,-0.00470450334251,-0.00393793871626,0.0148907862604,-0.0140431495383