-0.00336758745834,0.00372855435126,0.00375158013776,-0.00158453290351,-0.0014411942102,0.00266370875761,-0.00403452198952,0.00265946961008,-0.00163803249598,-0.00287105934694,0.00389983342029,-0.00178714597132,0.000276424456388,0.00338215217926,0.000868124130648,-0.00203973683529,-0.00414591375738,-0.00371675868519,0.00131109380163,-0.00205305195414,-0.000810030673165,0.00300063728355,0.00074557797052,0.000715768546797,0.00320334825665,-0.00125449092593,-0.00403146492317,-0.00273817754351,-0.000136225062306,0.00122082489543,-0.00160678487737,-0.00147159968037,-0.00330373155884,0.00286951870658,-0.00155954307411,0.0013594381744,-0.00359468022361,-0.00157772982493,-0.0024759802036,0.00310423970222,-0.00092686584685,0.00391320697963,-0.00260015344247,-0.00276938127354,0.00309722335078,0.00356508349068,0.00169133441523,-0.0031164244283,0.00264879921451,-0.00366772711277,0.000818707747385,0.00296702142805,0.00393163785338,0.00180591573007,0.000904427899513,-0.00204415852204,-0.00336727499962,-0.00123732048087,-0.00223400862888,-0.00135770638008,5.23995622643e-05,0.00185181607958,0.00139271584339,-0.00150018651038,0.000123628327856,0.000646245840471,-0.00321649410762,-0.00045413497719,0.001220501028,0.00193575455341,-0.00307292747311,0.00370938517153,0.00231429492123,-0.0014405187685,0.00248578540049,-0.000337033765391,0.00198783562519,0.00307416240685,-0.00416322238743,0.00373789365403,0.000921961967833,-0.00238813157193,0.0023392837029,-0.000822313071694,0.00142297823913,-0.00134244153742,-0.00280618155375,-0.00134047842585,0.00396241480485,0.00330686732195,-0.0019390595844,0.000582300766837,-0.00189975940157,-0.00291740521789,-0.00202809134498,-0.0035210205242,-0.00360264745541,-0.00133863976225,0.00368115818128,0.00074597861385,0.0014572055079,-0.00119375891518,0.00108440767508,-0.00116629060358,0.00271850056015,-0.00169234804343,0.00223535997793,-0.000673543021549,-0.00234052655287,0.0035728958901,-0.0038805429358,-0.00249894685112,-0.000460132199805,-0.00175080448389,0.00355046079494,-0.00373058044352,-0.00160929583944,-0.00114292022772,-0.00129438634031,0.00237079500221,-0.00216885795817,-0.000521933252458,-0.00310951424763,0.00204784050584,-0.00277393660508,-0.000570681702811,0.00119123666082,0.00105907407124,0.00149953190703,0.00366252660751,0.00205221981741,0.000996006419882,-0.000370371591998,-0.000197817906155,-6.60283403704e-05,8.28623888083e-05,0.00155971001368,-0.00346268154681,-0.00292215449736,0.00288522802293,-0.000290429743472,0.00358436186798,0.00149254896678,-0.00325579359196,0.00108790851664,-0.00107951206155,-0.00348576414399,0.000406133913202,0.00113283842802,-0.00396816199645,0.00149909686297,-0.00024163982016,-0.00178013928235,-0.000269394600764,0.00142962811515,-0.00314429029822,0.000890279770829,0.00195827521384,-0.00147965934593,-0.00131757650524,-0.00355780846439,0.00301892845891,-0.00112769717816,-0.000449119717814,-2.47556745308e-05,0.00182236544788,0.00322733842768,0.00127799611073,-0.00116712937597,-0.00341516314074,-0.0015419088304,-0.00301951193251,-0.00327804079279,0.00190996215679,-0.00411866977811,-0.00103296223097,0.00233361520804,0.00316194817424,0.00107015843969,0.000455817382317,-0.000466075231088,0.00309062981978,0.00120820000302,-0.00337750348262,-0.00105742132291,-0.000538158230484,-0.00298723508604,-0.00395201845095,-0.00354927009903,0.00239913328551,0.00413678493351,-0.00187140179332,-0.0013356191339,0.00196717260405,0.0015419353731,0.00279785972089,0.00335341040045,0.00120935763698,-0.00242095370777,-0.00214987481013,0.00408344343305,0.00113064236939,0.000433834647993,-0.000994905596599,0.000945999345277,0.00182609912008,0.00267594610341,-0.000636411597952,-0.00369944167323,0.00249312515371,-0.00378333427943,-0.00352865457535,-0.00109997193795,0.00115159817506,-0.00189693947323,-0.000404162914492,0.00127438118216,-0.00137018971145,-0.00164407398552,0.00345604866743,-0.00247811735608,-0.0013043875806,0.00183639884926,0.00331435236149,0.00117619044613,0.00261694937944,-0.0032051326707,0.0041118725203,0.00368488905951,-0.00263106892817,-0.00175965449307,0.00323678017594,-0.000659875688143,-0.00385897653177,-0.001113002887,-0.00265055685304,-0.00360938208178,0.00212633982301,0.00218279659748,0.00349308829755,-0.0041008410044,0.00161775574088,0.0013390321983,0.00326773221605,-0.00298378430307,0.00111844635103,-2.46932540904e-05,0.00026603252627,-0.00057879940141,0.000687960186042,-0.00313827279024,0.00316994823515,0.00158960570116,-0.00416748505086,-0.000345584208844,0.00380841828883,-0.0026636691764,0.00375212961808,0.00203122384846,-0.00318852136843,0.00138857529964,-0.000535930565093,0.000183585827472,0.00277735665441,0.00223293574527,-0.00210723886266,-0.000732082058676,-0.000801687536296,-0.000614120101091,-0.000235606406932,0.000261694425717,-0.000657136086375,0.000819120148662,-0.00372557947412,-0.00203457172029,-0.00336415111087,-0.00230240728706,-0.00353461061604,-0.000529110315256,-0.00286299176514,0.00405133655295,0.00280216452666,-0.00104671600275,-0.00340442056768,0.000103559526906,-0.00244128797203,-0.0035069421865,-0.00103611021768,-0.00124329933897,0.00154045573436,-0.0015432650689,0.0039992085658,-0.00171861355193,-0.00363229052164,0.00231311889365,0.00174600211903,0.000387320353184,-0.000518530025147,-0.00139936653432,0.00183876475785,0.000655315641779,0.0018609178951,-0.00250932062045,0.00253712479025,0.00299831479788,0.00273558357731,-0.0011705365032,-0.0014891307801,-0.00223578466102,-0.0019501587376,-0.00194314005785,0.0030306703411,0.00280598248355,0.00379887060262,0.000172649772139,0.000400854391046,0.0031509923283,-0.00378783512861,-0.000531540310476,-0.00277354358695,0.00342993228696,0.00312645127997,-0.00312779610977,-0.000255647610174,-0.00172179669607,-0.00211551692337,0.0022891338449,9.73053756752e-05,-0.00412941165268,-0.00413813302293,0.0040191556327,-0.000656118441839,0.00314076803625,0.00155567436013,0.00305892853066,-0.000817986438051,0.0041464054957,-0.000153672750457,0.00375620112754,0.00218644971028,0.000327801739331,-0.00170767330565,0.00327301444486,0.00388756464235,0.0019777501002,-0.00316134584136,0.00067749095615,-0.00284529780038,0.000583944143727,-0.00120281311683,0.00393969053403,0.003271126654,0.00137767207343,-0.00197976850905,0.00111643993296,-0.00290681584738,-0.003989179153,0.00325063662603,-0.00260550319217,-0.0020955260843,-0.00244304840453,0.00247825402766,-0.00198150449432,0.0028537621256,0.00270215189084,0.00234887306578,0.000479876121972,-0.00373564148322,-0.00119240186177,-0.00396696012467,-0.00208728085272,0.000931026064791,-0.00119382573757,0.000790432677604,-0.000143957862747,-0.00384983839467,0.002419692697,-0.000725711870473,-0.00266744242981,0.00261385459453,0.00295278523117,0.000220212794375,0.00147163751535,0.00138713221531,0.00325544457883,0.002251585247,0.00365978409536,-0.000955878931563,0.00389734981582,-0.00320744956844,-0.00334600848146,-0.00300121353939,0.00217106728815,0.00177735264879,0.00416930159554,-0.00033095915569,0.000621192564722,0.00302897603251,-0.0040151970461,0.000300505751511,0.000401506898925,-0.00317309075035,-0.00355462939478,-0.00217147986405,0.00304886722006,0.00302648521028,0.00091785134282,0.00282425782643,0.00351714156568,0.0021298257634,0.00169552571606,0.00400617392734,-0.00237174495123,0.00296825729311,0.00312825199217,0.00137722573709,-0.00379545916803,-0.00387780508026,0.00207757111639,0.00376589689404,-0.00128506287001,-0.000420555588789,-0.000717575894669,-0.000922076113056,-0.00169740454294,-0.00145791564137,0.00056042720098,-0.000871174852364,0.000878779159393,-0.00101163692307,0.00398769089952,0.00128577486612,0.0036881158594,0.00273306970485,0.000534864666406,0.00294369785115,-0.00282677193172,-0.00368770142086,-0.00231011863798,0.00337572023273,0.00282751908526,0.00104599562474,0.00151930900756,0.0033782676328,-0.0015541681787,-0.000153744331328,-0.0032431287691,-3.83620827051e-05,-0.00362571910955,-0.00132594269235,0.00119635183364,0.000984138110653,-0.00414202036336,0.00191040011123,0.000876415404491,0.00361886341125,-0.000204316995223,-0.00241734995507,0.00263953581452,0.00112421170343,0.000988457468338,0.00233421218581,0.00217153155245,0.00374221685342,0.000940880621783,0.00383565458469,-0.00200679455884,-0.00127395766322,0.00150035752449,0.00381569843739,-0.00373856746592,0.0035577325616,0.000649577355944,0.00320912757888,-0.000267195166089,0.00128308951389,1.7821585061e-06,0.00131242652424,-0.000934587791562,0.001116724452,0.00298290653154,-0.00219603884034,0.00251684500836,0.00216652057134,-0.00322182010859,0.000599791994318,0.000401082244935,-0.00328739988618,0.00212033092976,-0.00304661993869,-0.00104398292024,-0.00213922234252,-0.00394921842963,-0.00319524109364,0.000467431760626,0.00107151293196,0.00271432823502,0.000778212968726,0.000908146728761,0.000396564719267,-0.00225033587776,0.000438228569692,0.00237408536486,0.00309688411653,0.00386072904803,0.00232457579114,0.000232319696806,0.00407373672351,0.00179609737825,0.000887308910023,0.00257442961447,0.000676342344377,-0.00124059221707,0.00226652924903,-0.00299339648336,0.00415066210553,-0.000771899300162,-0.00329189817421,0.00340804038569,-0.00144024938345,0.00406357413158,-0.00408353144303,0.00324674905278,-0.0034018100705,-0.00192019960377,0.00044718341087,0.00363299204037,0.00410767272115,0.00124435534235,0.00408330839127,-0.000628489535302,-7.45481302147e-05,-0.000398005271563,-0.000341129867593,-0.00357256573625,-0.000798729248345,0.00246637035161,-0.00171773822512,-0.0011980679119,-0.00018414540682,0.00164586759638,-0.000552751531359,0.00241234339774,-0.00208061304875,-0.00392493139952,-0.00112522649579,-0.0031586852856,-0.00395721243694,0.000108289648779,0.00140801887028,-0.00244628521614,-0.00138227967545,0.00114632816985,-0.00166853761766,0.00167846668046,0.00316293351352,-0.00361744058318,-0.0014304559445,-0.00404409691691,0.0041335830465,-0.00384038710035,-0.00105364935007,-0.000765523232985,0.00345728360116,-0.0024849800393,0.0021554294508,0.00146595388651,0.00143744819798,-0.0039935274981,0.00321670318954,0.00364882452413,-0.000377037911676,0.00257172831334,0.00304866652004,-0.00400596344844,0.000214586034417,-0.000679063261487,0.00282599055208,-0.000661782280076,-0.0029709150549,-0.00282866577618,0.0016872867709,0.000993172056042,-0.00203635520302,-0.00383919943124,-0.000956007745117,0.000466708937893,0.00371617730707,-0.00234455452301,-0.00285522616468,-0.0031824617181,-0.00252503016964,-0.000481027353089,-0.00195008318406,-0.00352881336585,0.00286047137342,0.00366750406101,-0.00154352816753,-0.00127369933762,8.45774338813e-05,0.000330495793605,6.523259799e-05,0.000601189443842,-0.00183244806249,0.000725603837054,-0.00288825458847,-0.000551540695596,-0.00174707360566,-0.00337020447478,0.00150093331467,-0.000209069199627,-0.00195409217849,0.00116719084326,-0.000224430958042,-0.00128782785032,0.00126951665152,0.000386537314625,-0.00071540591307,-0.00199663452804,8.49175994517e-05,0.00198535947129,-0.00338010466658,-0.00239157630131,0.000613392156083,-0.00406290311366,0.00290853274055,-0.00128885230515,-0.00271429540589,-0.00202468712814,0.000562668021303,-0.00225685117766,0.00196794117801,-0.00333575694822,-0.000810344296042,-0.00388853973709,0.000352758012014,-0.00384285766631,-0.000315033597872,0.00391079578549,-0.00186978769489,0.00224548159167,-0.0024766640272,-0.00221000728197,0.0034371081274,0.00278995209374,-0.000564078451134,0.000605881679803,-0.00120175117627,0.00379533250816,-0.000403040699894,-0.00112117337994,0.00248717842624,-0.000943446240854,-0.00108569511212,-0.0031721026171,-0.000921005848795,0.00114017480519,4.48388818768e-05,-0.00126623327378,0.00315526197664,-0.00249724905007,0.00308293453418,-0.00057280639885,-0.000692712317687,0.0023684639018,-0.00251787668094,0.000515311316121,0.00252521899529,-8.62941378728e-05,0.00200764206238,0.00100906623993,-0.00107911729719,-0.00169431651011,-0.0026903883554,-0.00113804999273,-0.000337124540238,-0.00387470168062,0.000171839274117,0.00311548239551,-0.00152139633428,0.000802025781013,-0.00243495125324,0.0010146049317,-0.000160021125339,-0.00256999442354,0.00343756796792,0.002099144971,0.00293529895134,-0.000704000412952,-0.0039399783127,-0.00314898858778,-0.00353131978773,-0.00228061596863,0.00382438977249,-0.00273097748868,-0.00353220640682,-0.00155010633171,0.000517311971635,-0.0036056691315,0.00135131529532,0.00128956825938,-0.00106824492104,-0.00320501695387,-0.000542402500287,-0.00172723014839,-0.00298483623192,0.00243244646117,0.000334843643941,-0.000832039804664,-0.00154346111231,-0.00313176447526,0.00311536621302,0.00173549365718,0.00392638752237,0.0029717120342,0.00149935146328,0.00253009283915,0.000130894375616,0.00337902689353,-0.00361003563739,-0.00263217277825,-0.00269377161749,0.000322334526572,0.000402556819608,-0.000458340189653,0.000703612167854,0.00304184481502,-0.00263888528571,-0.00404159165919,0.00276747788303,-0.00226138951257,0.000943660212215,1.04662158265e-05,-0.00259333173744,0.0035734383855,0.00408366834745,0.00166822224855,-0.00299274548888,0.00211424124427,0.000538627209608,-0.00349936890416,0.00382724474184,0.00404531834647,0.00163820537273,0.00330588617362,0.00408226437867,-0.0024199381005,-0.000177394482307,-0.00115245045163,-0.00109653454274,-0.00302383070812,-0.00384034425952,-0.000454316294054,0.00216074404307,-0.00346034695394,0.00111620454118,-0.00147717841901,0.00193312834017,0.00161572662182,-0.00247108400799,-0.00262144929729,0.00204057898372,-0.00416555162519,0.00181257270742,0.00256057223305,-0.00255851750262,0.00255545112304,0.00304345740005,-0.000715851259883,-0.00352604105137,-0.00390026462264,-0.00203131954186,0.00397051172331,-0.000669657834806,0.000485813157866,0.00182790181134,-0.00221788790077,0.0025233484339,-0.00271419738419,-0.00221432815306,-0.00244283722714,-0.00411444995552,0.00133001082577,-0.00181652058382,0.00259148469195,-0.000707331753802,-0.00245185359381,0.00246703950688,0.00280738784932,0.0020201804582,0.00173856248148,0.0021490403451,-0.000982799101621,0.00037077779416,0.00142470549326,0.000328240799718,0.0024872648064,0.000334490323439,-0.00291450321674,0.00250626727939,0.00258247205056,-0.00287859863602,-0.000931083690375,0.00396650563926,-0.00106545456219,-0.00315858377144,-0.00276834215038,0.00236553396098,0.0035462481901,0.000442295044195,-0.00178696459625,0.00404058722779,-0.00388554902747,0.00331090413965,-0.00267424155027,0.00221472606063,-0.0025614623446,-0.00237636454403,0.00354700325988,-0.00318627222441,-0.00144528399687,0.00268972897902,0.00261044548824,-0.00348479161039,0.00380152999423,0.00227519706823,0.0025185206905,0.000901080202311,-5.53306344955e-05,0.0022548167035,0.00405149813741,0.00103616749402,0.00398445641622,-0.00290988897905,0.00319129205309,-0.00180861749686,0.00280540320091,0.00059709942434,0.00132391799707,0.000202495473786,-0.00217045587488,-0.00212362781167,5.66417766095e-05,-0.00111513561569,0.000431650143582,-0.000769562553614,-0.00122367998119,0.00210947962478,0.00367089663632,-0.00389799918048,0.00163680303376,0.00262750661932,0.00162351736799,-0.00345960957929,-0.00299591198564,-0.00029483938124,-0.00191515998449,0.00289479503408,0.000302968488541,0.00107657234184,-0.00352113461122,-0.00211427896284,0.000352019618731,0.000219795983867,0.00310158566572,0.00384270702489,-0.00160553737078,-0.00161600182764,0.00299283489585,-0.00367156113498,-0.00402826536447,0.000493656203616,-0.00373934069648,-0.000138472285471,0.00117552455049,-0.00344282016158,0.00313197285868,0.000803319737315,-0.000167202786542,0.00141749239992,-0.00214244634844,0.000848650000989,0.0040966309607,-0.00146349088755,0.00363534246571,-0.00137083174195,0.000384091603337,0.000892187817954,0.00232804869302,-0.00185879261699,0.00208630063571,0.0018554989947,0.00201961304992,-0.000412083405536,0.00231968122534,0.000309251336148,0.00262077362277,0.00335267023183,0.00399276334792,0.00358733464964,0.0020104367286,-0.00094633694971,-0.000562254106626,-0.000445710204076,-0.000985367107205,-0.00333771691658,0.000552489946131,-0.00183284701779,0.00174105702899,0.000684933678713,0.00118068966549,-0.00368453911506,0.00227204523981,0.00297731813043,0.00148687663022,0.00257729110308,0.00242724758573,-0.00195250380784,0.00361469667405,0.00329967983998,0.00411100871861,-0.000120343916933,0.000702697027009,0.000996712013148,0.000906130473595,0.0035372863058,-0.00153407454491,-0.00336752901785,-0.0010269745253,0.00078057765495,-0.0036862322595,0.00233716634102,-0.00125431607012,0.00127265881747,0.00272947945632,0.000582888606004,-0.00262352870777,0.000464110984467,0.000688609376084,0.0014786439715,0.00350703415461,0.00327729806304,-0.00258948630653,0.00228966306895,0.00197625462897,-0.00254190550186,-0.00148431188427,-0.00133363937493,0.00333585054614,0.00100873655174,-0.00260024168529,-0.000565787020605,-0.00400864193216,0.00283474149182,0.000760538328905,-0.00279717030935,0.00196484848857,-0.000853788282257,-0.000819202163257,0.00123296608217,0.0022873734124,-0.000662724371068,0.00314002949744,-0.00356256822124,3.4673477785e-05,-0.00354549614713,0.00338664650917,-0.00302733201534,0.00279599265195,0.00320241833106,0.00268310890533,0.00346303544939,0.00201400648803,-0.00288332230411,0.000102240606793,0.00204040622339,0.00206359033473,0.00366878602654,-0.0034864214249,-0.00374562875368,0.000322681094985,0.0036560993176,-0.00413245288655,0.0002725792001,0.00192100123968,0.00318815303035,-0.00256432569586,-0.00148276379332,0.00337579892948,0.000316028628731,-6.38919009361e-05,0.000796549895313,0.00266635697335,-0.00315751321614,-0.00294584338553,-0.000328090332914,0.00235071964562,0.0022918174509,0.00362874823622,-0.00352074485272,0.000214389438042,-0.00290162325837,0.00378215429373,0.000193126441445,-0.00327520142309,0.00193867564667,0.00197014748119,0.00202052504756,-0.00385521235876,0.00207783421502,-0.00413999008015,0.00225354474969,-0.00112088560127,-0.00109867064748,0.00302864634432,0.00316984974779,-0.00356843578629,0.00153708772268,0.00289157219231,-0.00325719965622,0.000415297428844,0.00268187769689,-0.000766544602811,0.00197896105237,-0.000392412068322,-0.00368712376803,0.000971504487097,0.00219939695671,-0.000982524943538,0.00183910899796,-0.0038043409586,-0.00211416603997,-0.00112845958211,-0.00288406177424,0.00240501645021,0.00131351698656,-0.00357171939686,0.000945731298998,-0.00142181199044,-0.00180737336632,-0.00198494782671,0.00195652921684,0.00186057528481,0.00407038535923,-0.00210346537642,-0.00270393560641,-0.00229274434969,0.00111854984425,-0.00220533204265,-0.000931646733079,-0.00368463387713,0.000892963260412,-0.0026331259869,-0.00291240727529,0.00238284142688,-0.00402345275506,-0.00247778464109,-0.00297837681137,-0.00239776284434,0.000874832738191,0.00026376277674,0.00312630459666,-0.00278939912096,0.00157511874568,0.00228520506062,-0.00264098518528,-0.00251380237751,-0.000993342022412,-0.000236728199525,0.000319740298437,0.00377255585045,0.000669587403536,-0.00229469174519,0.00167881918605,-0.000775389315095,0.00134012533817,-0.00151758408174,-0.00272122444585,0.00408036261797,0.00130617595278,0.00109230482485,0.000722112890799,0.0033277135808,-0.000809848716017,-0.00319503736682,-0.000605918176007,-0.0010333758546,0.000973196874838,0.00336384004913,0.00247499416582,0.00268497364596,0.00213933363557,0.00242513627745,0.00326923350804,-0.00255357520655,0.00112053856719,-0.00196808064356,-0.00216109887697,-0.00210367469117,0.00154335156549,0.000224485760555,0.00363234360702,0.00185126112774,0.0010574515909,0.00274519645609,-0.00217426824383,0.00123983959202,0.00108419044409,-0.0027869225014,-0.000543832138646,0.00258832215331,0.00322970142588,0.00278557348065,-0.00270219356753,-0.00259464839473,-0.00221118540503,-0.000948930508457,-0.000333076139214,0.00102196563967,-0.00213908124715,0.00298512401059,0.00265877461061,-0.00229705474339,0.0025350805372,-0.000949375331402,0.00158529984765,-0.000571440265048,-0.00277703232132,-0.00207149866037,-0.00412732921541,-0.00358709692955,-0.00290050171316,0.00333034037612,-0.000946530140936,0.00295146065764,0.000427713239333,-0.00242084800266,0.000547525472939,0.00407620007172,0.000391396257328,0.000947741849814,0.00401321845129,-0.00302513828501,0.00274496222846,0.000313643278787,-0.00344682950526,-0.00320929894224,1.46809898069e-05,-0.0020588808693,0.00332941743545,0.000884532579221,-0.00191809551325,-0.000549681659322,-0.000435131223639,-0.0040906118229,-0.00310312537476,-0.00318379350938,0.00220339605585,0.0034140534699,-0.00158483418636,-0.00041039896314,0.0034612857271,-0.00403039157391,-0.00246161338873,-0.0013032713905,-0.00365977780893,-0.00414544390514,-0.00154625508003,0.0032321237959,0.0029149656184,0.00105094129685,-0.000619772647042,-0.00141594232991,0.00386204430833,-0.000388376414776,0.000524280592799,0.00239504151978,0.00413943408057,-0.00212835916318,0.00272600981407,-0.00169373245444,0.00216031656601,-0.000868977571372,0.00318522681482,0.00404538167641,9.26167340367e-05,-0.00231879926287,-0.000897489488125,-0.0019614410121,-0.000223287803237,0.00180821924005,-0.00337866437621,0.000437644805061,-0.00376002746634,0.0027427887544,-0.00414285063744,-0.00152162695304,-0.000722024473362,-0.00182520446833,-0.00136531738099,-0.000112276014988,0.00301002594642,0.00408904161304,0.00355345918797,-0.00375156407245,0.00380661524832,-0.000935337098781,-0.00163054524455,-0.00360709545203,0.00370586290956,-0.00168177660089,-0.00140593387187,-0.00193362438586,-0.00237698317505,0.0026686785277,0.00222965376452,-0.000234292747336,-0.00401211623102,0.000901655643247,0.00124671508092,-0.0021719452925,-0.000414571230067,-0.00221623829566,0.000718298600987,-0.00097005662974,0.00270974054001,-0.00225098174997,0.00116416707169,0.0038553851191,0.00291398703121,-0.00278497650288,0.00131903449073,0.00247952784412,-0.00114167039283,0.00237564230338,0.00188271491788,-0.00258070253767,-0.000389467953937,-0.000191628641915,-0.00395916216075,0.000904905842617,-0.00152339565102,-0.00411932682618,-0.00144240539521,-0.00405778363347,-0.000308458722429,0.00153465790208,0.0028663140256,-0.0035971745383,0.00275770272128,-0.00377691048197,-0.000918361765798,-0.000547103991266,0.00217419490218,0.00113529060036,-0.00215209717862,-0.00278930133209,-0.000867357593961,0.00295172259212,-0.00188904837705,-0.000961578276474,0.00180862215348,0.00340946484357,-0.00103556609247,-0.00312423938885,-0.000569175113924,0.00337814819068,0.000940693775192,-0.00180865684524,0.00145132897887,0.000962504942436,-0.000439869356342,-0.00336588453501,0.00359476124868,-0.000729902589228,0.00123158260249,0.00172992760781,-0.0038106450811,0.00348399416544,-0.00227238074876,0.00213558040559,-0.00122718047351,0.00273471674882,-0.00175632012542,-0.000625516462605,0.00332859996706,0.00262805237435,-0.00168075913098,-0.00227393372916,-0.00178221694659,-0.000300977320876,0.00116767617874,-0.00280226860195,-0.00174487219192,0.00341618782841,0.0039940578863,0.00191539514344,-0.00274463323876,0.00106240028981,-0.00415566889569,0.000905036227778,0.00394459581003,0.00311738695018,0.000991445966065,-0.00306910765357,-0.0034969241824,-0.00222366745584,0.00159464008175,-0.00284003769048,0.0031528964173,-0.00130107055884,0.00175820826553,0.00400510895997,0.00210762396455,-0.00290646939538,0.000251805613516,-0.00153126125224,-0.00186557671987,-0.00202210736461,-0.00235214480199,0.00283126579598,0.00298092933372,0.0029963478446,-0.00389211927541,0.00145460898057,0.0014349729754,0.00160574982874,-0.00180199660826,-0.00257053249516,0.000211408696487,5.43209898751e-05,0.0016785254702,-0.00106491043698,-0.00323057337664,-0.00222950195894,-0.00244007259607,-0.0017434915062,0.00246051792055,-0.00178477691952,-0.00188236730173,-0.00219729822129,0.00166357657872,-0.00226403283887,0.000711455184501,0.00153829751071,0.000566710194107,0.00369663792662,-0.00323763117194,0.00266777654178,0.000201523012947,-0.00223650876433,-0.00111490057316,0.00321208615787,0.00135095568839,-0.00106600124855,-0.00200592121109,0.00383685389534,0.00144449237268,0.0039893114008,-0.00101735757198,-0.00283772661351,0.00103011436295,-0.00270795705728,-0.00245360820554,-0.00275470176712,-0.00128307996783,-0.00171288312413,-0.00263522192836,-1.33025932882e-05,-0.00297826342285,0.000720371725038,0.00341438897885,-0.000334325159201,0.00241373409517,-0.000445046985988,-0.00326658366248,0.00098355463706,-0.00342251150869,0.000955088238697,-0.000841588713229,-0.00110010860953,0.00219855876639,-0.0018654728774,0.00364042748697,0.001153500285,0.000627581204753,0.00293063139543,0.00125978048891,-0.00398203544319,-0.00193191808648,-0.00100629008375,0.00337686156854,0.00144362030551,-0.00255192513578,0.00324775604531,0.000526991323568,-0.00256285862997,0.00189176236745,-0.00381058012135,0.000131482956931,-0.00261884694919,0.00223063770682,-0.0034728248138,0.0027248209808,0.000777591078077,0.00155342614744,0.00340138585307,-0.000693361333106,-0.00256299902685,0.00345997093245,-0.000587733811699,-0.00286103412509,0.000735114561394,-0.00411612773314,-0.000935091113206,-0.00176960055251,-0.000334561482305,-0.00321776932105,0.000820679182652,0.0008118620608,0.00228492869064,0.00386602268554,-0.00148139242083,-2.41793895839e-05,0.00247180880979,0.00325024663471,0.00156274531037,0.00153384683654,-0.00129557773471,-0.000737937749363,0.00274016149342,-0.00198164535686,-0.000586054578889,0.00353864999488,0.00200028368272,-0.00163550791331,-0.000870077637956,-0.00194785406347,-0.000682121433783,-0.00170076545328,-0.00379178044386,0.0029879680369,0.00251654488966,0.00311415456235,-1.18369634947e-05,-0.000145383106428,-0.0029982549604,-0.00019292824436,-0.00125353981275,0.00330089242198,-0.00299045280553,-0.00226092012599,-0.0018397559179,-0.00254815863445,0.000821031513624,-1.40091306093e-05,0.000885056681,0.00179271469824,0.00100997579284,-0.00233005615883,-0.00100094708614,-0.00326478132047,0.00268691359088,-0.00122302840464,0.00210705189966,0.000167315258295,0.00240992498584,0.002458156785,0.00160113989841,0.000696062634233,-0.000217707231059,0.000956639472861,-0.00141700380482,0.00205818633549,4.97611617902e-05,0.00167324382346,0.0032216347754,-0.00295974547043,0.000886682129931,0.000817857100628,-0.00286307954229,-0.00188628793694,-0.0036780720111,-0.00147532508709,-0.00183519627899,0.00235243607312,0.00139445543755,-0.00273620616645,-0.00192219472956,0.00199465942569,0.00233908859082,0.00141513184644,0.000950723362621,-0.00323546258733,-0.000678269891068,-0.00186805066187,-0.000487787008751,0.0038489785511,0.00221044151112,0.00059934030287,-0.00175743887667,0.000643913750537,-0.00249985628761,-0.000474003725685,0.00319964485243,0.00339285470545,-0.00033340146183,0.000245071161771,0.00231187627651,0.00288735423237,-0.00148032954894,-0.00200476567261,-0.00105292082299,0.00393685838208,0.00188508874271,-0.00170427886769,-0.00179661053699,0.000665178115014,-0.000841890228912,0.000467744510388,0.000889171904419,-0.00276324874721,-9.75064031081e-05,0.00385163910687,-0.00359713193029,0.000454729190096,0.00407931674272,-0.00198106234893,-0.00245337747037,-0.0033399942331,3.0855928344e-05,0.00294106965885,-0.00261435937136,0.00351586122997,0.00337166315876,0.00259760045446,-0.00313245691359,0.0014564889716,0.00150392577052,0.00185933115426,0.00387500040233,0.0033142126631,-0.00110257521737,0.00177665660158,0.000518957909662,-0.0015418396797,0.00319784600288,0.00219231774099,-0.00322921015322,-0.000257466832409,0.00416745711118,0.00220905477181,-0.000406050879974,0.00307578546926,-0.00204636272974,0.00304928724654,-0.000810982193798,-0.00340268877335,-0.00376228778623,-0.00201011588797,0.00365400011651,0.00365565903485,-0.00279908790253,-0.0026995500084,-0.00257272669114,0.00365109951235,-0.00163960142527,0.00134355784394,-0.00216345209628,9.80864861049e-05,0.0028838282451,0.00242490740493,-0.00192715669982,0.00255182292312,-0.00144412869122,-0.00344034843147,-0.000943767256103,0.00281192781404,-0.00371769000776,0.000710050342605,-0.000758556765504,0.00108279217966,0.00295481528156,0.00306410598569,0.00242810579948,-0.00261542177759,-0.0033111658413,0.000208652534639,-0.00366186234169,0.00376075599343,-0.00136650982313,0.00162230501883,0.00250541465357,-0.000245729839662,0.00358074530959,0.00189751165453,-0.000768611265812,0.00295345601626,0.00226880284026,0.00126463535707,0.00302435224876,0.00197075563483,-0.0016841746401,-0.00315412413329,0.00139624881558,0.000768628437072,0.00286580552347,0.00172098330222,0.00290303956717,-0.00265221181326,-0.00351659907028,-0.00140078389086,0.00229429011233,-0.0029883836396,0.00330813927576,0.00313658663072,0.00349273812026,0.00348185771145,-0.000869394862093,-0.00109610916115,-0.00293486006558,0.00399437732995,0.000540129898582,-0.00355485384353,0.000871718162671,-0.000209823338082,-0.00115143181756,-0.00184940185864,0.00403257412836,0.00156233366579,0.000676033901982,-0.00124271633103,-0.00192323559895,-0.00178798893467,0.00300318817608,0.0011052491609,0.000717585848179,-0.00091250037076,0.00110619387124,5.24824054082e-06,0.00223693298176,-0.00123829103541,-0.00341187650338,0.00127189862542,0.00338420365006,-0.0040752729401,0.00397812062874,-0.000721348857041,-0.00227267295122,-0.00210748892277,0.00167115661316,0.0034691253677,-0.00207130331546,-0.00151333760004,-0.000225178169785,-0.00104760681279,0.00316568627022,-0.000994573463686,-0.00279427855276,-0.00315102748573,0.00166648440063,0.00146276352461,-0.00360761280172,0.00347393355332,-0.00349058164284,-0.000319185404805,-0.00124598608818,0.00158875633497,-0.00351969338953,0.0037605096586,-0.00112330168486,-0.0014576629037,-0.00322999781929,-0.00140777777415,0.00230098376051,-0.000569109688513,-0.00194030837156,-0.00139299384318,-0.000861579726916,-0.00313933822326,0.00400621350855,0.00288575747982,-0.00331888650544,-0.0013177349465,0.00230709603056,0.00412680068985,-0.0010429599788,-0.00313906022348,4.84675501866e-06,-0.000165403020219,0.00147324660793,-0.00294326734729,0.000513359671459,-0.00164305244107,0.000826886040159,-0.00315300934017,-0.00274799368344,-0.00248790928163,0.0041257282719,0.00140141544398,-0.00283548189327,-0.000603055406827,0.00402111606672,-0.000473709078506,-0.00201003393158,-3.15821780532e-05,-0.000117469709949,-0.0024851532653,0.00390919996426,0.00188804231584,-0.00363603536971,-0.00315218511969,-0.00325640314259,-0.00270573166199,0.00226742657833,-0.000130627071485,0.00321844615974,-0.00320960953832,0.0016110711731,-0.000165303921676,-0.00121652125381,-0.00369309703819,-0.00379229150712,-0.00139766687062,-0.00414702994749,0.00275906780735,0.00145674473606,0.00400674436241,0.0011871648021,0.00338787026703,-0.0023930084426,0.00264283386059,-0.00329425837845,0.00170173984952,0.0019781794399,-0.00245634955354,0.00156672822777,0.000623799278401,0.00378997530788,3.98618394684e-05,0.000725407968275,-0.00296473805793,-0.00315369199961,-0.00142364774365,-0.000678530195728,-0.003712417325,0.00210959790275,0.00171776430216,0.00133595406078,0.000464112876216,0.000969246961176,0.00281177624129,0.000283930829028,0.00361419841647,-0.00337349483743,-3.93590453314e-05,-0.00078126497101,0.00335891032591,0.00188501330558,-0.00370454508811,0.00269018136896,0.00406148936599,-0.00257833558135,0.00132075464353,-0.00250689336099,-0.00373224238865,-0.00273819523863,-0.00133044889662,-0.000778102490585,-0.00363125000149,0.00394007982686,-0.00224515958689,-0.0010009163525,-0.0028848440852,-0.00310000847094,-0.00130395591259,-0.0032968884334,-0.00269789854065,0.00221136771142,0.0022349965293,-0.00095812510699,0.00037706294097,-0.000123068108223,0.00334949861281,-0.00371665949933,0.00237428839318,0.000751394894905,-0.000406505540013,-0.00195856508799,-0.00146947347093,-0.00341882626526,0.0024279227946,-0.00155722978525,0.00265287677757,-0.00316638103686,0.000971741217654,0.00124261947349,-0.00414130510762,0.00305174849927,-0.00372266303748,0.00236237281933,0.00410731043667,0.000710353138857,-0.0011463179253,0.00118846085388,0.00215817894787,-0.00149254722055,0.000672302092426,-0.00253163953312,0.0010679330444,0.00123473769054,0.000883217842784,0.00277724931948,-0.00328089250252,0.00138958788011,-0.0034877746366,0.00390007742681,0.00187967193779,-0.000404096528655,0.00390165741555,0.00247510243207,-0.00273914006539,-0.00379851576872,-0.00353329046629,-5.19370951224e-05,-0.00332750706002,-0.000322430074448,0.00296638952568,0.000838064763229,0.000432184751844,-0.00372078106739,-0.00220035179518,-0.000468687008834,-0.00266185682267,-0.000155985238962,-0.00321583915502,-0.00322659849189,0.000543520320207,-0.00175075687002,-0.0037844076287,0.00139157357626,-0.0018711645389,-0.00206070230342,-0.000298246566672,-0.000111033696157,0.000143347453559,0.0025209072046,0.000218677727389,-0.00306460959837,-0.00150568876415,0.00396404601634,-0.00317849917337,0.00106926390436,-0.00313766719773,0.00170682999305,0.000315880577546,0.000958694203291,0.00194991845638,-0.00147053122055,-0.00097969325725,4.98682456964e-05,-0.00300482707098,0.00143752212171,0.00346733257174,0.000992892542854,-0.000374430179363,0.0025791504886,0.000120300042909,0.00140519312117,0.00147747714072,-0.0028749324847,-0.00230891210958,0.00089570536511,-0.000147188096889,-0.00208595208824,-0.00224517006427,-0.000890573952347,-0.0027073409874,0.0029861300718,0.000817747379187,0.00379606476054,-0.00326570426114,-0.00295245344751,-0.000254236161709,-3.16103214573e-05,-0.00244283652864,0.00305675924756,0.0039073782973,3.82531743526e-06,-0.00353859993629,0.000835981976707,-0.00125135015696,0.000763452087995,0.00225696270354,-0.0029266984202,-0.00388897419907,0.00325566437095,-0.000997322844341,0.00343450065702,-0.00190897239372,-0.00399659806862,0.00408089952543,0.00260090385564,-0.00236785039306,-0.00377575447783,-0.00369242369197,-0.00312658399343,-0.00136640365236,-0.00224962295033,-0.00230054021813,0.00314203696325,0.00363910198212,-7.61705450714e-05,-0.00374506623484,0.00395554397255,0.00216856575571,-0.00196205242537,0.00103528762702,-0.000158290757099,-0.000857860373799,0.00366466026753,0.00274258269928,0.00277717597783,-0.00291744293645,0.000430198357208,0.00319118378684,0.000143627985381,0.00329187815078,-0.00034244696144,-0.00157440628391,-0.00198879046366,-0.00358628667891,0.00399038428441,-0.0012348719174,0.00371308415197,-0.00398606155068,0.0015674874885,0.00291902455501,-0.0016237575328,0.00373831042089,-0.00390762416646,0.000725663965568,-0.00164567260072,-0.000284194102278,-0.000395011447836,0.00304764648899,-0.00209505460225,0.000929764762986,-0.00215722550638,-0.00226907921024,0.000373799965018,0.00197662599385,-0.00112402206287,-0.00405822554603,-0.00135906122159,0.00359952752478,0.00268810614944,-0.00133805908263,0.00151325738989,-0.000394115719246,-0.000196476146812,0.000248459429713,0.001857846044,0.00312373763882,0.00220766454004,0.00414912914857,0.00288728158921,-0.00365136750042,-0.00164939346723,-0.00129812338855,-0.0027065880131,0.000438550021499,0.00352311739698,0.000951065914705,0.000179539303645,0.00160529953428,0.00356889073737,0.00106056162622,0.00350328953937,-0.00228173006326,0.000573572178837,-0.00377909373492,0.00240054656751,-0.00370641378686,-0.00122115516569,0.00409251498058,-0.00122820853721,0.00326730986126,0.00189765752293,0.00298525439575,0.00412633270025,0.00148172525223,0.00271141133271,-0.00158424756955,0.00382514018565,0.00132699334063,0.00305712013505,0.00163931050338,0.00403286097571,0.00272499979474,-0.00309649202973,-0.00190836098045,0.00274390075356,-0.00397522654384,-0.00385624007322,7.43053242331e-05,0.00314118852839,0.00361182261258,0.00230317935348,0.00399882579222,-0.000475192209706,-0.000590656884015,-0.000833345518913,0.00354717345908,0.00144871743396,-0.00367006775923,0.00133210059721,0.00315089384094,-0.000779375492129,0.000577199331019,0.00246984697878,0.00255358126014,0.00309613719583,-0.000213383056689,-0.00371946650557,0.00116335984785,-0.00146633479744,0.000832852441818,0.00411519315094,0.00393586186692,0.00170721788891,0.00311314919963,0.00233514257707,0.00297857658006,-0.000139825438964,0.00117773737293,0.00135818461422,0.00394985917956,0.00339889829047,-0.00309432880022,0.000935143441893,0.000171588530065,0.00101043155883,-0.00317463511601,0.0025594884064,0.00414261594415,-0.00319496146403,-0.00375770567916,0.00280539621599,0.00280906958506,0.00211092457175,0.00355575536378,-0.0016913455911,-0.00133897620253,0.00166005897336,-0.0030307425186,-0.00246490607969,-0.00278935814276,-0.000654716219287,-0.0011695966823,-0.00166125549003,0.00358459469862,0.000461766350782,0.00207499344833,-0.00376410875469,0.0032744219061,7.08666339051e-05,0.00146562233567,0.000760746188462,-0.00273574143648,-0.000862380024046,-0.00249082548544,0.00394809292629,0.00111305853352,0.00136405706871,-0.00300032971427,0.00308106397279,-0.00161808938719,0.00288902362809,0.00314037059434,-0.000454937573522,-0.00161400646903,-0.00205771322362,0.00376771623269,0.00013260585547,-0.000422073149821,-0.000562412431464,0.000813602935523,0.00199495721608,-0.00375923211686,-8.97741920198e-05,-0.00198947568424,-0.00177443900611,-0.00310692028143,-0.000691196124535,-0.00330374366604,0.00324649037793,0.0025290325284,-0.00349099561572,0.00325657101348,0.000678899639752,0.0031555343885,0.00302592664957,0.000229798315559,0.000159230476129,-0.00397195015103,0.00237532006577,0.00357332453132,0.000960168312304,-0.00239211600274,0.00076173490379,-0.00211000372656,-0.000471246021334,0.000718251045328,0.000461245595943,0.00275908131152,-0.00274741067551,-0.000110857239633,0.00185998750385,0.00281175482087,-0.000332683004672,-0.00263944198377,0.00176831171848,-0.00336264446378,-0.00250939140096,0.0007864041836,-0.00238058948889,-0.0016079681227,0.00135283218697,-0.00299769779667,0.00367399142124,0.00065265543526,0.00268639437854,-0.000228703342145,0.00222012051381,-0.00394653854892,-0.00390938902274,-0.00335927447304,-0.00223602680489,0.00345707498491,-0.00184685911518,-0.0039501003921,-0.00363707658835,0.00011399606592,0.0023180602584,-0.0037225310225,0.00206559989601,-0.00283681531437,0.0018002288416,0.000146209262311,-0.00406729383394,-0.00344988005236,-0.0023343488574,0.00361151993275,-0.000969268672634,0.00136007124092,-0.00278786546551,0.00336544774473,0.0031290682964,-0.000609145383351,0.00168551027309,0.00234092422761,-0.00257757841609,0.00279828091152,0.00156082992908,0.00306062796153,-0.003701640293,0.00406232336536,0.00229248823598,0.000552202691324,0.00269971555099,-0.00137692596763,0.00289527885616,0.00415395200253,8.11710415292e-05,-0.000515355670359,-0.000861027394421,-0.00332373497076,0.00344356126152,0.00396095681936,0.00215238612145,-0.000269678974291,0.00283013423905,-0.00265282508917,-0.00220690621063,0.00189465878066,0.00389322126284,-0.000218631103053,0.00242524733767,-2.21128921112e-05,0.00267618219368,-0.00301610562019,-3.35103468387e-05,0.00363789242692,0.000813482678495,0.00398334348574,-0.00284739979543,-0.000437084148871,-0.00244977488182,-0.00229718186893,0.00134953216184,0.000209904828807,0.0011358888587,0.00303622544743,-0.00357603933662,0.00324756512418,0.00238279253244,-0.0040863766335,0.00379937840626,0.00309675536118,-0.000904438027646,0.00158014940098,-0.00223374599591,-0.00271612103097,-0.00314272358082,0.00110398011748,-0.0011433964828,0.00197979435325,0.000681883422658,-0.00216408050619,0.00237403507344,-0.00366638577543,0.00136297801509,-0.00369469472207,0.001019202522,0.0012421158608,0.000976818031631,0.000626955530606,-0.00340552302077,-0.00217071315274,0.00259903329425,0.00139624543954,0.00325696030632,-0.0024678427726,-0.00111761305016,-0.00146501138806,0.00178825296462,-0.00276751397178,0.00138562195934,-0.00188187311869,0.00125567812938,-0.00238891947083,0.00286302808672,0.000133126144647,-0.00205696397461,0.00201260694303,-0.00293309241533,-0.00209566648118,0.00384156941436,0.00355542032048,0.00278153805993,0.000407994084526,0.000749902566895,-0.00108182290569,-0.00312440330163,0.00246253516525,-0.00230319332331,-0.00408575963229,0.00280880532227,-0.00178948021494,0.000974827795289,0.000112489971798,0.00197412609123,-0.00138705468271,-0.00240340782329,9.79214819381e-05,-0.00345276389271,0.00157040846534,0.00164299446624,0.000967654923443,0.00300661078654,-0.000453740620287,0.00266220490448,0.000714196590707,0.000587753427681,-0.00125716114417,0.000299899314996,0.000301218475215,0.00380336795934,-0.00178213790059,0.000925255240873,0.00339344353415,0.00234978436492,0.00368866953067,0.00411532120779,-0.00296823540702,0.000456460256828,0.00209769513458,-0.00188564916607,-0.00315097626299,0.00191298895516,0.00143820384983,0.00346278655343,-0.00203317450359,0.00416492531076,0.00157988606952,0.00276473560371,0.00372810149565,0.00194161338732,-0.000524277274963,4.23348246841e-05,-0.00069297500886,0.00155937846284,-0.00107905396726,-0.00251255719922,-0.000895588542335,0.0034266624134,-0.00353829469532,0.00193957542069,0.000226301155635,-0.00412461301312,-0.0034125871025,-0.000376060168492,-0.00115962175187,0.00182100990787,0.00090172525961,0.00334719149396,-0.00226394296624,-0.001374160056,0.00112794537563,0.00373876909725,0.00170111481566,0.00116150581744,-0.00190500786994,-0.00333137391135,-0.00399317406118,0.00192007783335,0.00145618512761,-0.00101632531732,0.00125659641344,-0.000256731407717,0.000388747983379,-0.00219441042282,-0.00373842590488,-0.000978065305389,0.00306139164604,-0.000906866043806,0.00317096500657,-0.00227094767615,-0.00407460099086,-0.00039421726251,-0.00364017975517,0.00351749220863,0.00301392609254,-0.00296678580344,-0.0028079226613,-0.00111949513666,0.000981596298516,-0.00382091407664,-0.00353335682303,0.000107427993498,-0.0026277769357,-0.0013545723632,-0.00193690392189,-0.00147484475747,0.00193562486675,-0.00359469675459,0.00398475304246,0.000327017303789,0.00351750175469,0.00386132788844,0.00071774731623,0.00304621853866,0.00305519811809,0.00394294597208,-0.00362703949213,0.00151018565521,0.00269495020621,0.000329772970872,-0.00243535148911,-0.00262671243399,0.00046303065028,0.0010135100456,0.000362528226105,0.000832478515804,-0.00279199704528,-0.000612501753494,0.00128949794453,0.00273179449141,-0.00181425083429,0.00250886077993,0.00245464476757,-0.0029510052409,0.00131334015168,-1.24798373236e-06,0.00209918990731,-0.00344517640769,-0.00137830234598,-0.000572241842747,0.0031301304698,0.00153179245535,-0.0033258527983,-0.000571562268306,0.00190434313845,0.00207012263127,0.000765675969888,0.00409057643265,0.00185519445222,0.00348375085741,-0.000497751520015,2.26389620366e-05,3.88514890801e-05,0.002245380776,0.000123658610391,-0.00117171206512,0.00102845509537,-0.00219172169454,0.00403709011152,0.00161396258045,0.000160951138241,0.00383626064286,0.00342257041484,-0.0019273160724,0.00178775296081,-0.00383551418781,0.000393836817238,-0.00309305661358,-0.0028270073235,-0.00199745292775,0.00173162051942,-0.00160497846082,-0.00264715170488,-0.00333373202011,-0.000843327667098,0.00267541501671,0.00136026646942,0.00223516975529,0.00303959520534,-0.00395388482139,-0.00189346214756,-0.00260382285342,-0.00368683342822,0.000267141324002,-0.00279393955134,-0.00366745167412,-0.00209408183582,0.00262655341066,0.0023347705137,-0.00304592843167,0.00142558140215,-0.00313790817745,-0.00163534097373,0.00237232958898,0.00306512671523,0.00123023241758,-0.000119312520837,-0.0013826622162,0.00164469983429,0.00212947651744,0.00131175550632,0.0034893443808,0.000174661603523,0.000211036764085,0.00108071847353,-0.00144522311166,-1.9970343601e-06,-0.000262372050202,-0.00188866374083,-0.00349432788789,0.000921800034121,0.000494657491799,-0.000471240608022,0.00130317197181,-0.00385829689912,0.00125444424339,-0.001984562492,0.000340387312463,0.00292370305397,0.00275612412952,-0.0017992585199,0.00165510096122,-0.000413745903643,-0.00242493860424,0.000591743330006,-0.00382930180058,0.00278809643351,0.000363168597687,0.00227725203149,0.0026822257787,0.00235417904332,-0.00213594944216,0.00309504522011,0.000431150896475,-0.00209095026366,-0.00386509089731,0.000737965805456,-0.00170424114913,-0.000594222685322,-0.00399068649858,-0.00333033059724,0.00101209711283,0.00308646378107,-0.00312753207982,0.00154939712957,0.00074157002382,0.00310131860897,0.0012692558812,0.00314031424932,-0.00200452189893,-0.00337410112843,0.00254033296369,0.00217699655332,0.00218187971041,-0.000198624606128,-0.00174953928217,-0.00234042922966,0.00376200000755,0.00412346282974,0.000945288280491,-0.00286960392259,0.00383638963103,0.00405700271949,-0.00360494130291,-0.00355691672303,0.00184779101983,0.00223499233834,0.00326351937838,0.00242879684083,0.00284235551953,-0.00030408820021,-0.00286993547343,0.00292033702135,0.000294397905236,0.00272445427254,0.00286856293678,-0.00109189853538,-0.00357460789382,-0.00389390904456,0.000959284021519,-0.00267830281518,0.00112418655772,-0.000715322094038,-0.00160023616627,-0.00124984479044,-0.000310579489451,-0.00330137065612,0.000659798271954,-0.00391341699287,-0.00107438815758,-0.00373817747459,-0.00328617659397,-0.00359801203012,-0.000213077670196,0.00277914013714,0.00119499419816,-0.00263201794587,0.00132866995409,-0.00328303151764,0.0024015030358,0.000881115556695,-0.00127711810637,0.00256134546362,0.00131518626586,0.00150754977949,0.00300894281827,-0.00321695697494,-0.00249723927118,-0.00334486551583,0.00391561212018,-0.00364202586934,-0.00292275426909,0.00145436893217,0.00403732806444,0.00301743717864,-0.00100042019039,-0.000600494910032,-0.00359017518349,0.00292791286483,-0.00102951703593,0.00354465423152,-0.00036696557072,0.00220847222954,0.00112562731374,-0.00319478381425,0.0024875709787,-0.00135291658808,-0.000969067099504,0.00251515815035,0.00393669866025,-0.00227399240248,0.00123488809913,0.00287030613981,-0.00305858417414,0.000688851403538,-0.00336653948762,-0.00113041664008,-0.00211625406519,0.00318573787808,-0.000745440891478,-0.00177297065966,0.00223213410936,-0.00110063666943,-0.00302361440845,-0.00316083687358,4.98232802784e-05,0.00261212000623,-0.00166173640173,0.00414533913136,0.00177197821904,0.00053401425248,0.00337824644521,0.000562752829865,-0.00228025694378,0.002074459102,0.00138973805588,0.00285120680928,0.00239959941246,0.000469731166959,0.00280240247957,0.00162810960319,-0.000568175048102,-0.00385914812796,-0.00331683782861,0.00157555553596,0.00230480544269,0.00325380847789,0.00372322206385,-0.00400798209012,0.00145834113937,-0.0011467311997,-0.00146255246364,-0.00334587460384,0.00161735911388,-0.000891085481271,0.00154170859605,-0.00193886179477,0.00272145285271,-0.000824627059046,0.00207266956568,-0.00223033665679,-0.00363365490921,-0.000746160803828,0.001154091442,-0.000957302050665,0.00137636705767,0.00165239023045,-0.00371705624275,-0.00150066183414,0.00398548552766,0.00103616144042,-0.00413322402164,0.000879052677192,0.000870443705935,0.00251810974441,-0.00392445130274,0.00103020435199,-0.000348931120243,-0.0036497223191,0.00258110766299,0.00164158688858,-0.000345727661625,-0.00214837421663,-0.00254802592099,-0.00224956427701,0.000822842994239,-0.00161481043324,0.0039508426562,4.28557541454e-05,0.00226905406453,0.000193661326193,0.00267429440282,0.000859864521772,0.00127683486789,0.00214515160769,0.00171971181408,0.000598892918788,0.0014623531606,0.00258600455709,0.00273362686858,0.00355746457353,-0.0028097294271,-0.00248313671909,-0.000786437070929,0.00100733328145,0.00294427177869,-0.00229617697187,0.00123173592146,0.00202232063748,0.00163605529815,0.00291345384903,-0.000605524750426,0.00415910081938,0.00149438378867,-0.000278756691841,0.00020970251353,0.00320798368193,0.00305695110001,0.00339755113237,0.0028746118769,-0.000466215191409,-0.000372376060113,-0.00305069587193,-0.003729976248,0.00103755458258,0.00266802706756,-0.00222988217138,-0.00177966582123,-0.00161947996821,-0.000500610098243,-0.00134804123081,0.00392512138933,0.00174996128771,0.00281350058503,0.00223468802869,0.00175238726661,-0.00129573023878,-0.0040599773638,-0.00385104445741,-0.000919423880987,-0.00251268711872,-0.00102439033799,0.00238490011543,0.00415774807334,0.00023506108846,-0.00402487022802,-0.00232426333241,-0.00320143834688,0.00149902538396,-0.000130124419229,0.000951974012423,-0.00199496978894,0.000203080402571,-0.0029515856877,0.00214487081394,0.00320670893416,-0.00225145556033,0.000849297328386,0.00215592235327,-0.000709469371941,0.00254717585631,-0.0011879481608,-0.00317614967935,0.000457752874354,-0.00285593932495,0.00303121423349,-0.00291604315862,-0.002827483695,-0.00160405144561,-0.00315358419903,0.00173016753979,0.00396038638428,-0.00379970739596,0.00151944020763,0.0021447292529,-0.00023123799474,0.000231840967899,-0.00274888030253,-0.00313513330184,-0.000383422186133,-0.00032465509139,-0.000526370014995,0.00093664979795,-0.00141434906982,-0.00307117123157,-0.00241682771593,0.00337355816737,0.00283446465619,0.000395512499381,-0.00181870372035,-3.20009421557e-05,0.00415969733149,0.00261488603428,-0.00381663208827,-0.00144058139995,-0.000971121422481,0.00190868799109,-0.00245035067201,0.00289350538515,0.00277325627394,0.0033463020809,-0.00196069711819,-0.00299313734286,0.000503257673699,0.00329580390826,0.000106775056338,-0.00133185985032,-0.00297493766993,-0.00334972143173,-0.00227123196237,-0.00343333976343,-0.00132982095238,-0.00146477401722,-0.00245519098826,-0.00203204900026,-0.00367431342602,0.000296242156764,0.00212363083847,0.00303724897094,0.00292231398635,0.00238512665965,0.00165288813878,-0.00325192930177,-0.00179495557677,-0.0035696704872,-0.0013332834933,-0.000810998491943,0.000168934464455,0.004130307585,0.00169249181636,0.00340853119269,0.000712738838047,-0.00326234498061,-0.00270652282052,-0.00293107307516,-0.00128761085216,0.00301943183877,0.000929222384002,0.00399424415082,-0.000859343854245,-0.00343127921224,0.00361426221207,0.00216276664287,-0.00157653738279,-0.00183304806706,0.00161767471582,-0.00139332877006,-0.00410867063329,-0.0016913410509,0.000892453303095,0.00263294088654,-0.00166177365463,-0.00252478476614,0.00326986098662,0.00168927130289,0.00210047722794,0.00295032863505,0.00413472531363,-0.00271778786555,-0.00285762501881,0.00226737372577,-0.00318573461846,0.00317397923209,0.0034933288116,0.000198639347218,0.00010645405564,-0.000412999186665,-0.000449221057352,0.000892738520633,-0.00362733821385,-0.0034669614397,0.0030830304604,-0.00102196028456,-0.00150618865155,0.000637896358967,0.000618058256805,-0.0019614896737,-0.00136369874235,-0.00108547217678,0.00315639399923,0.000586999405641,0.00403164839372,0.000832514488138,-0.00405014911667,0.000709016050678,8.97372683539e-06,0.0016438649036,0.00284464610741,-0.00181775935926,0.0028540478088,0.00128732388839,-0.00279133650474,0.00340422824956,0.00135249109007,0.000722024182323,0.0031055205036,-0.00411302177235,0.000745451427065,-0.00324252876453,-0.00166178774089,-0.000594780198298,-0.00123026187066,0.0031227953732,-0.00321046519093,0.00349177839234,-0.000885411573108,0.00162604218349,0.00305790756829,-0.00102841143962,-0.00162557256408,-0.00121586560272,0.000265995971859,0.00358961871825,-0.00282285432331,0.00342568405904,-0.000717123504728,-0.0021448598709,-0.00030714875902,-0.00390593754128,0.00100555433892,-0.000203918476473,0.00393024366349,-0.000936032680329,-0.0019302200526,0.00122711900622,-0.000491566373967,0.00320349121466,-0.00207026302814,0.00145751261152,0.000852853117976,0.0031477517914,0.000741568626836,0.00121666584164,-0.00334362732247,-0.0020608282648,0.00174954754766,-0.00176523369737,-0.00109910801984,-0.00100632931571,-0.00361590250395,-0.00339470640756,-0.00308201019652,-0.00358585710637,0.00179614964873,-0.000383573235013,0.00205793860368,-0.00170837098267,0.00383853400126,0.00334454304539,-0.00397330615669,0.000478624366224,-0.00383100402541,-0.00176751345862,0.00158239260782,0.00197071582079,0.000338530255249,-0.0037055069115,0.00245638750494,0.00133847747929,-0.00174282176886,-0.00250351452269,0.000143697208841,0.00394921842963,-0.00122293201275,0.000336749333655,0.00155476504005,0.00321515742689,-0.00146891060285,-0.00393664464355,-0.000582212756854,-0.00169525865931,0.0026298018638,-0.00152927869931,0.00329292169772,-0.000274269637885,-0.00248433928937,-0.00184082519263,0.00306392950006,-0.000950214453042,-0.00199486059137,0.0031853292603,0.000287365633994,0.00291716610081,0.00312457699329,-0.00168568757363,-0.00296832271852,0.00238278950565,0.00399073772132,0.00400438252836,0.00226384494454,0.000584711611737,0.00262611499056,-0.00409880559891,0.00384350726381,-0.00146707321983,0.00231340294704,0.00165566254873,-0.00225975294597,-0.00384116452187,-0.00367989460938,0.00298691028729,0.00253526307642,0.00144026521593,0.00352388480678,-0.00181537808385,-0.00339785404503,0.00198961328715,0.00112709775567,0.00396563950926,-0.00270634214394,-0.00300012971275,0.003977838438,-7.40155301173e-05,0.000746436184272,0.00413379678503,0.00389950722456,0.00364375999197,0.00377049925737,0.00266214646399,0.00408070301637,-0.00392211833969,0.000405475148,-0.00205516093411,0.0014917635126,-0.00107725348789,0.000468107755296,-0.0013724679593,0.000691096414812,-0.00163550535217,-0.00287233106792,0.00237990100868,-0.00154669093899,0.00166343722958,0.0024403987918,-0.00279443454929,0.000655180134345,0.00144510576501,0.003002531128,0.00105666113086,0.00323198456317,0.00193007546477,-0.00168295414187,0.00381153612398,-0.00396113470197,0.0023798099719,-0.00302961305715,-0.00316274119541,-0.00360267190263,-0.00231147953309,-0.00323638110422,0.000134413072374,0.00127998634707,-0.0026558318641,-0.00202732230537,0.000123931225971,0.00296970154159,0.00263028568588,0.0001788692025,-0.00102912785951,-0.0013246522285,0.0014984580921,7.68295358284e-05,0.00270444573835,0.000204737909371,0.00396395707503,-0.0035888357088,-0.000772539759055,0.00148126634303,0.00327462167479,-0.00230960873887,-0.00377514585853,0.000537086336408,-0.0011851954041,0.00183964474127,-0.0032542492263,-0.00128613482229,0.00297148153186,0.000249137170613,-0.00355655932799,-0.000727198494133,0.00337978405878,-0.00179382844362,0.000826907693408,0.00248962524347,7.04978010617e-05,-0.00141107651871,-0.000639393460006,0.0019909394905,-0.00288438238204,-0.00211641867645,-0.00252306973562,0.00115314521827,-0.000306177826133,0.00309222680517,0.00033056884422,0.00324515602551,0.00342843402177,0.00209757685661,0.00235626846552,-0.000700325297657,0.00373420189135,0.00268536340445,0.000837630650494,0.0041619814001,-0.000824918912258,-0.00187506270595,0.0017342477804,0.00360660953447,-0.00201382278465,0.00399506883696,-0.00325777148828,-0.00090945471311,-0.00179048022255,-0.00117137446068,0.000141668118886,0.000297328981105,-0.00398079538718,0.00201099971309,0.00180339941289,-0.00287586404011,-0.000978301744908,0.00142913882155,-0.00105617905501,-0.000512031896506,0.000119067226478,0.000601521285716,0.00150772184134,0.00397170940414,0.000228204211453,0.00251990626566,-0.00295235496014,0.00243627023883,-0.00283224484883,-0.000281707965769,-0.00234494125471,-0.000860992993694,0.00315888179466,-0.00310311280191,-9.69744360191e-05,-0.00110902055167,0.00269905896857,-0.00256655924022,0.00138745678123,0.00329138990492,-0.00269746733829,0.00350080011413,-0.00239046430215,-8.94781624083e-05,-0.00202643708326,-0.00347178266384,-0.00373991951346,-0.00200323783793,0.00403561769053,-0.00201982166618,-7.35438952688e-05,0.000673126720358,-0.00388101302087,-0.00146784633398,-0.0038598976098,-0.00259415153414,-0.00188002549112,-0.00160538672935,-0.00344062317163,0.00203501968645,-0.00218553375453,0.000823817623314,-0.00251793069765,0.00261730188504,-0.000641664140858,0.00124039326329,0.0010442158673,-0.00129450869281,0.00301484810188,0.0024601155892,-0.000681892735884,0.00228463555686,-0.00202947715297,-0.00146449508611,-0.00404441030696,0.00364089035429,-0.00213343440555,0.00344654358923,-0.00259448075667,-0.000354351272108,0.00151658779941,-0.00290553807281,0.000545477261767,0.00392769649625,-0.00308632827364,-0.00260854093358,-0.000259009015281,-0.00106597878039,-0.00349911884405,0.00302660907619,0.00350768095814,0.00407896004617,0.0016968928976,0.00168730330188,0.00238201441243,0.00161198934074,-0.00236005219631,0.000375668489141,-0.00200774380937,-0.00296214851551,-0.00405460968614,-0.0027177836746,-0.00347228674218,-0.00188782578334,-0.00401964597404,-3.87014661101e-05,-0.000245820963755,0.00301993894391,-0.00334890093654,0.00290685892105,-0.000285421381705,-0.00314412661828,-0.00389607273974,-0.000633178919088,0.0013461955823,-0.000171458726982,0.00182172819041,-0.00389767508022,-0.0018283710815,-0.000534006278031,-0.000470047467388,0.00320132565685,0.00200816290453,-0.00127265264746,0.0027766446583,0.00359290838242,0.00259955553338,-0.00379240582697,0.00127643800806,0.00182355858851,0.000976109120529,-0.000175638866494,0.00309814419597,0.0013843922643,0.00373907503672,-0.000985402613878,-0.00227281497791,0.00405572028831,-0.00331953796558,0.00124080816749,0.00150112330448,-0.000196851760847,0.000757052854169,0.00264153210446,-0.00224955426529,-0.00103620113805,0.00262622861192,0.000290358264465,-0.00187947158702,-0.00204892968759,-0.00237493216991,0.000419833027991,0.00374150974676,-0.00191392598208,-0.000479673413793,0.00235428009182,-0.00158182694577,-0.00138988927938,-0.00199014530517,0.00166513316799,0.00174361723475,0.00083440419985,-0.00324467732571,0.00227235490456,0.00198570615612,-0.00118412764277,-0.00314625538886,-0.00345279672183,-0.00332848681137,0.000166723621078,0.00042767211562,0.00183220789768,0.000793581421021,-0.00216972199269,0.00198510638438,-0.00117601407692,-0.000626725319307,0.00292297778651,0.00153544126078,-0.00327593786642,-0.00352299562655,0.000288164213998,0.00230991235003,-0.00233887135983,-0.00231309141964,-0.00240649213083,0.00101741321851,0.000631626346149,-0.00276907510124,-0.00393368676305,-0.00214238162152,0.000500123365782,0.00189760397188,0.00199960800819,-0.00400768266991,0.0029649885837,-0.00172536296304,0.0035100094974,0.000789803161751,-0.00372035591863,0.00394322443753,0.000177281122888,-0.000951068825088,0.000560977787245,5.4831019952e-05,0.00228049303405,0.00301409210078,-0.00194840575568,-0.00221264082938,-0.00370869133621,0.00313465343788,-0.000516521919053,-0.00123502023052,-0.000143718716572,0.0039624706842,0.00163449614774,0.00370062561706,0.000532708363608,-0.00068209937308,-0.00332150468603,0.00147094600834,-0.000174998189323,-0.00351257203147,-2.80664025922e-05,-3.49952097167e-05,0.00170093064662,0.00324476696551,0.0015116292052,-0.000429695151979,0.00318092061207,0.000868624134455,0.000452765030786,0.0026648582425,-0.00275446800515,0.00387974223122,-8.78248611116e-05,0.000738258066121,0.00285466667265,0.000422682380304,-0.00213252310641,0.00380492815748,0.000605951703619,0.00246754847467,-0.00295877456665,-0.00183366192505,-0.00030322157545,-0.00128084036987,-0.00222279294394,-0.000956614443567,0.000471910519991,-0.00234413729049,0.00356156006455,0.000764862867072,-0.00308200065047,-0.00341733079404,-0.000395760667743,-0.000515322783031,0.000758805894293,0.00103362335358,-0.00157789362129,-0.00223503215238,-0.000137010239996,0.00329648819752,-0.000940877071116,-0.00106160645373,-0.00212085316889,-0.00130077707581,-0.000944954983424,0.00368363386951,-0.00110700237565,0.00370810576715,-0.0017030723393,-0.00361367594451,-0.003015098162,-0.00106149795465,0.00124655442778,-0.000536883191671,0.000127787425299,-0.00029468088178,-0.00169434444979,-0.00398481125012,0.000462217285531,0.00403207913041,0.00137997046113,0.000153314074851,6.01333595114e-05,0.00367771461606,0.000520284520462,-0.00178419949953,0.000577146012802,0.00362592726015,-0.00259942584671,-0.00402140291408,0.000374050985556,-0.0023996909149,-0.000106928077003,-0.00232906313613,-0.00268251495436,0.000420504395152,-0.00270987395197,0.00288516795263,-0.00165098381694,-0.000260407978203,0.00175537518226,0.00139011931606,0.000535274739377,0.00134916708339,0.000425112404628,0.00127774139401,-0.000221452180995,0.00263871112838,-0.000509903999045,0.000607668072917,-0.00333860307001,-0.00132980791386,0.0010139120277,0.00062559597427,0.000991302658804,-0.00317604816519,0.000910300354008,-0.00207914924249,-0.000595298944972,0.0005437178188,-0.00230582547374,0.00393510097638,-0.0029637941625,-0.00370081956498,0.00384118244983,0.00356106762774,0.00134436332155,-0.00182502937969,0.00123034021817,0.00326808239333,0.000280845386442,-0.00136423984077,-0.00105698255356,0.00257267756388,-0.00322783063166,-0.00167344859801,0.00307911657728,0.00307936640456,-0.00316703389399,-0.00170990964398,-0.00218841806054,-0.00195481814444,-0.00182359444443,0.00349403033033,0.000155472240294,0.00402007205412,0.00276731769554,-0.00401485711336,-0.00351355830207,-0.00384539132938,-0.00169924867805,-0.00261486927047,0.00244061555713,0.00174195948057,-0.00124915596098,0.00181258481462,0.00387797225267,0.00294450204819,0.00108927174006,0.00260863243602,0.000697046576533,0.00390115147457,-0.00353337312117,-0.00252608489245,0.00267742201686,0.000254764221609,0.00100868812297,-0.00229416019283,0.00111457123421,0.00396971963346,-0.00387629284523,0.00225399318151,0.00407670577988,-0.00103222753387,0.000856264785398,-0.00413954583928,-0.00214656954631,0.00149405631237,0.00292864441872,0.00085654942086,-0.00148770469241,-0.00192353676539,0.0031851711683,-0.00323103368282,0.00208413996734,0.0015272119781,0.000631466973573,0.00342423957773,-0.00200538733043,-0.00286721228622,0.00362502713688,0.00412449287251,0.00268320529722,-0.000898394268006,0.00243666116148,0.00300680636428,-0.000115808987175,0.00339597673155,0.000888329581358,-0.00184573547449,0.00289539666846,-0.00232639443129,0.000112154775707,-0.00262819207273,0.00248680589721,0.00249373610131,0.00416450435296,0.00409698672593,0.00347338314168,0.00298239453696,-0.00231591006741,0.00367154483683,-0.00270000565797,-0.00281719630584,9.77305317065e-05,-0.00221103127114,-0.00329541251995,-0.00208122516051,-0.00365554937162,-0.0011454061605,0.00304162479006,0.00319870910607,-0.00141092517879,-0.000691188557539,-0.00260916468687,-0.000522137968801,0.00291534047574,-0.000343594234437,0.000585105037317,5.61427150387e-05,-0.000401942961616,0.00309077999555,-0.00207064091228,0.00283064669929,-0.000416704308009,-0.000386023079045,-0.000631917093415,0.00344542274252,0.00138714397326,-0.00393498176709,0.00260061724111,-0.00416981335729,-0.000744663062505,-0.00197434355505,-0.00118119455874,0.0029077460058,-0.00235406309366,-0.00264554400928,0.000399197742809,-0.00267877639271,0.00173972186167,0.00249943998642,-0.0010947866831,-0.000431487598689,-0.000164816257893,0.00353634660132,-0.00118498026859,0.00279857334681,0.00358868460171,-0.00390269095078,-0.00154262653086,-0.000536211184226,0.00071079551708,0.00327673391439,-0.00306592346169,-0.00375733524561,-0.000807247648481,0.00136038381606,0.00328751187772,-0.00414163945243,0.00120633060578,-0.000102770485682,0.00120293360669,-0.00261051836424,-0.00048272361164,0.00288487388752,0.00164016045164,-0.00393486488611,0.00130108383019,0.000240138848312,0.00342902191915,-0.00186493992805,-0.000226652497076,0.00371991051361,-0.00270778895356,-0.0025627205614,-0.00359687558375,-1.31622737172e-05,-0.00375637994148,-0.00330568337813,-0.00204443419352,0.000799412373453,0.000120637792861,0.000925817235839,-0.00289702252485,-0.00267319334671,-0.00101415906101,0.000507902237587,0.000797093380243,-0.00390348909423,0.00317055522464,0.00180566555355,0.000269735784968,-0.00212835147977,0.00146733003203,0.00387177034281,0.000732589163817,0.00202951813117,0.00312012969516,-0.00158207828645,0.0022340149153,-0.00175064371433,0.00398604944348,0.000707056489773,-0.0002748547995,-0.00102268508635,-4.3145078962e-05,0.00198397738859,0.00186075596139,0.00193797179963,-0.00341833964922,-0.00354114733636,0.00124375405721,0.00159190082923,0.00349870417267,-0.00204627402127,-0.000175397071871,-0.00365286669694,-0.000646936241537,-0.000718428636901,0.000982940313406,-0.00368576473556,-0.00379047985189,0.00154914380983,-0.000896033889148,-0.00156982254703,-0.00288428389467,0.00384327769279,0.00173882907256,0.000745728553738,-0.00224742968567,-0.000146067759488,0.00361991929822,-0.00280298758298,-0.000404514634283,0.00128271698486,0.000993517576717,0.00346989720128,-0.00263933395036,0.0023905960843,0.00100175128318,-0.00393245927989,0.0017885256093,-0.00217751832679,0.00341938226484,0.000387247506296,0.00356211024337,-0.00184673967306,-0.003091274295,-0.00269147567451,-0.00303902057931,0.00288473302498,-0.00398286012933,-0.00319566414692,-0.0036665534135,0.00413461774588,0.00103010574821,-0.00195964565501,0.00268977833912,-0.000244980183197,-0.00262054242194,0.003538047662,-0.00243058521301,0.00135080015752,0.000890031864401,-0.00182992150076,0.0029330693651,0.00289541808888,0.000288080889732,0.00106587435585,0.00139186147135,0.00271671265364,-0.00204993411899,0.00224580313079,0.00164413405582,-0.000528218457475,0.00258726160973,-0.000450469553471,-0.00257421820424,-0.00249690189958,-0.00102689140476,0.00240714638494,-0.00251439562999,-0.00297661684453,-0.00293278088793,0.00235711527057,-0.00335427024402,0.00278751947917,0.00337876519188,0.000864455359988,-0.00194888364058,0.00359182525426,-0.00389824737795,-0.00392411695793,0.00023276511638,0.000385819876101,-0.000714049558155,9.77145027719e-05,-0.000856523984112,0.00341207138263,0.00152508413885,-0.00337679707445,0.00342874368653,0.0015126025537,0.00179055379704,0.000466324185254,0.0019610368181,3.26638269144e-06,-0.00389461684972,-0.00265282928012,0.0016116539482,0.00184954039287,0.00227797706611,0.00136685057078,0.00183476868551,-0.00352727947757,0.000969681423157,-0.000826278992463,0.000990854809061,0.000174899483682,2.80431468127e-05,0.0032594781369,0.00191419920884,0.00326361740008,-0.00162555591669,0.00176242925227,0.00339587684721,0.00328441476449,-0.00128706602845,-0.00395850557834,0.00323043949902,-0.00253747031093,-0.000765701464843,0.000626950873993,0.0012516011484,-0.00195444514975,0.0023375172168,-0.00398033531383,-0.00178236700594,-0.000652424118016,0.00279366062023,0.00374499056488,0.00225253403187,-0.000850649375934,-0.0018779739039,-0.00331644108519,0.000609751674347,-0.00185981905088,-0.000520303263329,-0.00407798122615,-0.00210673501715,0.00257935142145,0.00173490855377,0.000844928843435,0.0036685091909,0.00186461408157,0.00061401037965,0.0025310756173,0.00190929044038,-0.00129518506583,-0.00173406652175,0.000662514357828,0.000190787293832,0.00243926933035,-0.00196520262398,-0.00082821585238,0.00307297520339,0.00247086421587,-0.00392738590017,-0.000442811695393,0.00147763371933,-0.000646006315947,0.00291475793347,0.00257331621833,0.000351868075086,0.0018736962229,0.000187178287888,-0.00344228255562,0.00180180871394,0.000681091856677,0.00323801790364,-0.00330883357674,-0.000305994326482,-0.00295752100646,0.00323705584742,-0.000417738338001,0.00268976110965,0.00216121086851,0.00312326848507,0.00380247877911,-0.000589103845414,-0.00150021049194,0.0029512331821,0.00236541009508,-0.00179439026397,0.00383085082285,0.00233229226433,0.000206354103284,-0.00298012862913,0.00409773737192,-0.00222908472642,0.000574452220462,-0.00324081233703,0.00169347645715,-0.00172075384762,0.000358855351806,0.00182014633901,-0.0011122894939,-0.0032919968944,0.00282308086753,0.00248862593435,0.0035631544888,0.00211005099118,0.000972871785052,0.00252695055678,-0.000306173576973,0.00174623040948,-0.00320641323924,0.0022169908043,0.000462237832835,0.000145451456774,-0.00103907589801,0.00347023457289,0.00253854924813,-0.0032239719294,0.00354240881279,0.00416232319549,0.00285066058859,-0.0016237226082,0.00173516676296,-0.00214306102134,-0.000738304748666,-0.00376218440942,0.00407314952463,-0.00248988019302,0.00282681849785,0.00248836050741,-0.000653184601106,-0.00169179879595,0.000207605378819,-0.00312550691888,0.00089965283405,-0.00185696396511,-0.0014488354791,-0.00379095575772,0.000521428824868,0.00285275606439,-0.00220657628961,-0.00146349216811,0.0011148895137,9.37945296755e-05,-0.000784255797043,-0.000738649629056,-0.00094154413091,0.00282586179674,-0.00173721939791,-0.00113186938688,0.00232118205167,-0.00218826299533,-0.00149607134517,-0.00410419004038,-4.76905188407e-05,0.00183259067126,-0.00119130825624,-9.94604997686e-05,-0.000535352097359,-0.00146028958261,0.00185749912634,0.00338779203594,0.00285056023858,-0.000481568509713,0.00184553698637,0.00192292931024,0.00316949794069,0.00198152801022,0.00344956037588,-0.00187798158731,0.00390132982284,0.000192901396076,-0.00260333018377,0.00170220376458,0.00118151120842,-0.000663468788844,0.000134502261062,-0.00248018838465,-0.00266914395615,0.000281577114947,-0.00159318710212,0.00275438115932,0.001444941503,-0.00100483559072,-0.00384829402901,0.00303642870858,-0.00343938707374,0.00417298078537,0.00308311055414,-0.00302388891578,0.00209529069252,-0.000273328274488,-0.00122403469868,0.000217583903577,-0.00306800496764,-0.0014831838198,0.000939487130381,0.00178099994082,-0.00145193783101,0.00267386459745,0.0022417709697,0.00176504661795,0.00362747116014,-0.00257067382336,-0.00185508327559,0.000996854389086,-6.35633405182e-05,-0.00271443324164,-0.0010547991842,0.000129542328068,0.0022214257624,0.000555350794457,0.00351675832644,0.000761437171604,0.000203326912015,0.00123267213348,-0.001347123296,0.00187843572348,-0.00204486702569,0.000659698736854,-0.00264877034351,-0.00273522152565,0.00235824496485,-0.00151864159852,0.00390397012234,0.00238165049814,-0.00132807833143,-0.00225982279517,-0.00136635487434,0.00244450639002,-0.0018933985848,0.00149260717444,0.000134664704092,0.00375270307995,-0.00266870413907,0.00027076608967,-0.00409082323313,-0.00151445029769,-0.000801899179351,-0.00192161486484,-0.000425973586971,-0.00367231480777,0.000340187514666,0.00338908680715,-3.25532782881e-05,-0.00135213532485,0.00396607676521,0.00174392294139,-0.00176931452006,-0.0015337393852,0.00371639500372,0.00259509799071,-0.000199587273528,4.43806493422e-06,-0.00187241716776,0.00137527473271,0.00323154218495,0.00108786846977,-0.000273852259852,-0.00114497856703,0.00370168313384,-0.00175983924419,1.60571507877e-05,-0.00123019237071,0.00384295848198,-0.00249427673407,0.000818918459117,-0.000287125265459,-0.00114783586469,0.000560872256756,0.00274012424052,-0.00207217852585,0.000384967046557,-0.00354101881385,0.000828088202979,-0.00111602502875,0.00221861200407,0.00325859873556,0.000662415404804,-0.000175607783603,-0.00116201932542,-0.00201305188239,-0.00355253904127,-0.00340926111676,-0.000840102846269,-0.00171701528598,-0.00103162613232,-0.0025452314876,0.00258477497846,-0.00179749238305,0.00315815676004,0.00210058386438,-0.00114987208508,-0.00138993340079,-0.00195629545487,0.000686139974277,-0.00398083450273,0.00282679754309,0.00283412612043,-0.000486799282953,-0.000601677282248,0.00261279684491,0.00172505388036,0.00143107282929,-0.00372244417667,-0.00153217685875,0.00324214552529,0.00275164539926,0.00188027578406,-0.0027740530204,-0.000167143181898,0.0015840975102,-0.00127947563305,0.00333317415789,-0.000783429131843,0.00378551892936,0.000414992595324,0.00363306957297,0.00380255817436,0.00326805212535,0.0038678040728,0.00116434029769,0.00324910134077,0.000287958479021,-0.000753030006308,0.0029080726672,0.00099952169694,-0.00166007562075,0.00106042507105,-0.000838086067233,-0.00263823685236,-0.000831547600683,0.00108172057662,0.00267486250959,-0.00337045593187,-0.00210400158539,-0.0014145624591,0.00403194827959,0.00032650626963,0.00270260381512,-0.000278851890471,-0.000785209354945,-0.0040083900094,0.000998593284748,-0.00302266329527,-0.00247688638046,0.00150337140076,0.00116349000018,0.00155724259093,-0.00406700652093,0.00291226734407,0.000778432528023,0.00063821754884,-0.000615501136053,-0.00380018586293,0.00271576573141,0.00289855781011,0.00353911472484,0.00157296948601,0.00387773220427,-0.000185246637557,0.0022867100779,-0.00181341730058,0.00292854662985,-3.68898618035e-05,-0.0032913852483,-0.00266197742894,-0.00317000155337,-0.00340280821547,-0.00184764666483,-0.00362770119682,0.00142783438787,-0.00242069852538,0.00273128668778,-0.00368794891983,0.00411781109869,-0.000236147301621,0.00196764548309,-0.00357028539293,-0.00192445574794,-0.00405978132039,0.00380649417639,-0.000282084627543,-0.00349897239357,0.00138988962863,-0.00228021107614,0.000939118734095,-0.00334372743964,-0.00245491368696,0.00108134339098,0.00293424469419,-0.00415530754253,-0.00330674136057,0.000340061349561,0.00180531328078,-9.44107669056e-05,0.0041067590937,-0.00025025793002,-0.00354665680788,-0.000389244582038,-0.00147584755905,0.00151850888506,0.00257902243175,-0.000276008417131,-0.00368936895393,-0.003766621463,-0.00148525240365,-0.0031879984308,-0.00016637245426,0.00275369733572,-0.00320316036232,-0.000909983878955,-0.00167420215439,0.000234684426687,0.00344187766314,-0.00309019605629,-0.00205611763522,-0.00401499681175,-0.000620166712906,0.00315821426921,-0.000177256588358,-0.00170355045702,0.00272841355763,0.000647840905003,0.0030213103164,0.00383563572541,-0.00369683932513,-0.00250633549877,0.003724320326,-0.00286532426253,-0.000114028101962,0.00107308418956,-0.00287393224426,-0.00350861251354,-0.00250029773451,0.000700828968547,0.000530330580659,-0.00393996061757,0.00130660005379,0.00323751242831,0.000685344857629,0.00133120769169,-0.00307965907268,-0.00371132115833,-0.00179760053288,-0.00198757485487,0.000765875272918,-0.00150607957039,0.00126537377946,3.50212831108e-05,-0.00091625272762,0.00273427017964,-0.00209678336978,-0.00406090682372,-0.00203650817275,-0.00105788419023,-0.00244257529266,-0.000465321209049,-0.00132285710424,-0.000841609493364,-0.00119176972657,-0.00241166609339,-0.00183236680459,-0.00354373059236,-0.00356604205444,0.00265920441598,-0.000877660000697,0.000249155447818,-0.000429207546404,0.00405105482787,0.00270511000417,0.00400760862976,-0.00213095871732,0.000591094372794,0.00107672426384,0.00105190265458,-0.000842324050609,0.00354625843465,0.00155008607544,-0.00206560175866,-0.000346984859789,-0.000470811122796,0.00133980833925,-0.0032308830414,-0.00195146456826,-0.00335804978386,0.00214611226693,-3.03178221657e-05,-0.00220701494254,0.000706241466105,0.00361582729965,-4.59987168142e-05,-0.000756178866141,-0.000650367524941,-0.00153432344086,0.000558290805202,-0.00321169383824,-0.00240037124604,-0.00283203274012,-0.00189225107897,0.00184805109166,0.00283508235589,0.00403848290443,0.00399460410699,2.53242815234e-05,0.00191488745622,-0.00312460819259,-0.0009380406118,0.00259950524196,-0.00284182047471,0.00118666468188,0.00268270587549,0.00289699994028,0.00211227079853,-0.0030293285381,0.004142974969,-2.27869554692e-06,0.00054997013649,0.00341687281616,-0.00328655145131,-0.00114534527529,0.000813152815681,0.00110689818393,-0.00259112613276,0.00320364395157,-0.00105056376196,0.000890008814167,0.001568071777,0.00143402838148,-0.00221642339602,0.00102595775388,0.000813445833046,0.00118908670265,0.0013328747591,-0.000546963827219,-0.00266627501696,-0.00187458714936,0.00404941895977,-0.003769709263,0.00113088905346,0.000947998662014,0.00391845731065,0.00243258033879,0.00389623921365,0.00192650477402,0.000564929272514,-0.00395000632852,0.0030068801716,-0.00267844996415,0.00264985160902,-0.00394350197166,-0.00067459436832,-0.00148582062684,0.00315636862069,0.00164614850655,0.00180213409476,-0.00185033830348,-0.000488160323584,-0.00189575925469,0.000331120885676,-0.00200589722954,-0.0027841895353,0.00238554505631,0.00215775030665,0.00180369801819,-0.00354068004526,-0.00347212236375,0.000703789235558,0.00370999937877,0.00284929480404,0.000124276077258,-0.00236438168213,0.000245739443926,-0.00350871263072,0.00100538763218,-0.00294074881822,0.00180869386531,-0.00188199453987,0.00135255698115,-0.00244179368019,0.000262657966232,-0.00237077381462,-0.00147440901492,-0.00118888833094,-0.00220924778841,0.00354663701728,-0.00396297546104,-0.0015750679886,0.00175265583675,-0.00291277677752,0.00195553689264,-0.00335890217684,0.00183275120798,-0.00214924663305,-0.0031609730795,0.00201084278524,0.000419038900873,-0.000649743247777,-0.000617509358563,0.00113216857426,0.002617939841,0.0027137065772,-0.0018566387007,0.00357545632869,0.000389305292629,-0.00154755671974,0.00205514649861,-0.0009956874419,0.00252037751488,0.00333844940178,0.00412980187684,0.00364362378605,0.000894794298802,0.00143532117363,-0.00387584418058,0.000629370857496,-0.000684831291437,-0.00219444278628,0.000241731468122,0.00252375402488,0.00387873034924,-0.00010170530004,0.00011756177264,0.00402850983664,0.000563820416573,-0.00231067207642,-0.00163503165822,-0.00134359009098,-0.00250023812987,0.000509579316713,0.00408906769007,0.00141490262467,-0.00329198222607,-0.000555387232453,-0.00228787004016,0.00280396849848,0.00153673090972,-0.0030696708709,0.00206587719731,0.000332560040988,0.00037987466203,-0.00411225389689,0.00295519735664,-0.0019962314982,0.00359371281229,0.0022831694223,-0.00377515191212,0.00045811678865,-0.000500295893289,0.00268351309933,0.0017856383929,0.00149751082063,0.00250380230136,0.000560536514968,-0.00231606210582,0.00267045921646,-0.00217506778426,0.00174531678203,0.000670206267387,-0.0034466010984,-0.00288183894008,-0.00116924650501,-0.000354896910721,0.00226748757996,-0.000522875692695,0.000325503700878,-0.000540572043974,0.0034715461079,0.000261119479546,0.000946816755459,0.000791256665252,-0.0012767908629,-0.000774620624725,-0.00321464962326,-0.00289304973558,0.00131620443426,0.00228523300029,-0.000163161792443,0.00212254468352,0.000288926414214,-0.00259362021461,-0.000671787245665,0.00270872632973,-0.00297361705452,-0.0014606785262,-0.00147909892257,0.00184561603237,-0.00106287153903,-0.000180580696906,0.00105156633072,-0.00185102445539,-0.00191611330956,-0.00153262622189,-0.00247131055221,-0.00343707646243,0.00284004514106,-0.00395496143028,-0.000226626798394,0.00406763609499,-0.00134382897522,-0.00345660047606,0.0013592808973,0.00285551208071,0.00331945135258,-0.000509259756655,0.0018451201031,-0.00296382047236,-0.00377744692378,-0.00170730310492,-0.00293868570589,-0.000529622950125,0.0010998348007,0.00272953207605,0.00240037241019,0.000715653237421,0.0034778052941,0.00286422367208,-0.00263795279898,0.00297078979202,-0.00197045272216,-0.00195731385611,0.000824923510663,0.000580421765335,-0.0012423330918,-0.00300397071987,-0.00144773942884,0.00392636610195,-0.00260931975208,-0.00107643799856,-0.00324524287134,0.00159126124345,0.000195605272893,0.000955182302278,0.00317886145785,-0.000363899074728,-0.000771739112679,0.00340615585446,0.00154596823268,-9.3617978564e-05,-0.00359514844604,0.00238750153221,-0.00166479125619,-0.00196853629313,0.000465220131446,-0.001489716582,0.00201375992037,-0.000416510098148,0.00416904129088,-0.00203969026916,-0.00362758291885,0.000756300985813,0.00380704947747,0.00379497511312,0.00359853357077,-0.00190470414236,0.000272148929071,-0.00382097880356,3.80471428798e-05,0.00275737605989,0.000736440124456,-0.00219505210407,-0.00101762614213,0.00343616493046,-0.00273462152109,0.00116583658382,0.000226031741477,-0.00252979807556,-0.002730935812,0.000329857459292,0.00202387268655,-0.000872936216183,0.00267867627554,0.00188138254452,0.00116637104657,0.00399715267122,-0.00287276529707,0.00121214508545,-0.00416478002444,0.00123500346672,-0.000503006041981,0.00284956768155,0.0015312259784,-0.00213711871766,-0.00222133821808,0.00405673263595,0.00146397878416,0.00320086069405,0.00281834811904,-0.00284163933247,-0.00207037432119,-0.0027062301524,0.00341283972375,0.00173315347638,0.00350197288208,-0.00095926807262,-0.00381111609749,0.00171682389919,0.00146423734259,0.00219132844359,0.000620581035037,0.00186043442227,8.8998436695e-05,-0.00247508543544,-0.000116501367302,-0.0017126124585,-0.000868964765687,0.00192516797688,0.00296083558351,0.00243657245301,0.00286347558722,0.00175049633253,0.00215481640771,0.00195867894217,0.00226204353385,0.00347078801133,0.00344182644039,0.00349925877526,0.000474695843877,0.00239890697412,-0.00226392829791,-0.00374463107437,0.00107364170253,0.00379096344113,0.00298402342014,-0.000153379703988,-0.0040972866118,0.00109766062815,0.00287347799167,-0.00161369284615,0.00247663329355,-0.00264335074462,-0.00383067759685,-0.00390963116661,0.00401596911252,0.00293987244368,-0.00318061490543,0.00284949573688,0.00222818786278,-0.00184306479059,-0.00222959695384,-0.00120340741705,-0.000590375275351,-0.00323036755435,0.00371903716587,0.00355680496432,0.00161502952687,-0.000753844506107,0.00317556550726,-0.00305547146127,0.00308720488101,0.0013885878725,0.00256768404506,0.00351464026608,-0.00020142950234,6.05350687692e-05,-0.00208084401675,-0.00326141552068,-0.00179051759187,0.00334106688388,0.00242648064159,0.0035624646116,-0.00263274367899,-0.00403341883793,-0.00224207900465,-0.00279405736364,-0.00405996805057,0.00203171814792,0.000759660382755,0.000126681698021,0.00201494060457,0.00266511668451,-0.000439496332547,-0.000907120644115,0.00126302544959,0.00340836914256,0.00323990965262,0.00144615909085,0.00172446772922,6.25498287263e-05,0.0022970107384,0.00228329794481,0.00239396165125,-0.00108087062836,-0.00333912088536,0.00409530987963,0.00128147285432,0.00209881551564,-0.000448528066045,-0.00229963753372,0.00253233453259,0.00146064034197,0.000981657882221,-0.00123609253205,0.00138722697739,-0.000284526468022,-0.00116171140689,0.00143697625026,0.00165802554693,-0.00386136514135,0.000160553085152,0.00202957098372,-0.00191414612345,0.000966565974522,-0.00336183281615,0.000592968252022,-0.000326520181261,-0.00231712590903,0.0016526671825,0.000219994602958,0.000396240706323,-0.00397288193926,0.00105538370553,-0.00398555444553,-0.0040605450049,-0.00326409609988,-0.00150811637286,0.00173872383311,-0.00300969369709,0.00390500435606,0.00132074346766,0.00264526414685,-0.00206406787038,0.000981987453997,0.00249349023215,0.000198521825951,0.00312301609665,0.000130268890643,-0.000350502727088,-0.00244370219298,0.00336273340508,0.001297327457,0.000392425165046,-0.000585025118198,0.000171340725501,0.00300031760707,-0.00349089689553,-0.000729006598704,-0.000410617358284,-0.00119081989396,0.00104763184208,-0.0011942491401,-0.0038901984226,0.00402999296784,-0.00190660404041,-0.00182807724923,0.00352797680534,-0.00232185330242,-0.00123634259216,0.00307089323178,0.00384060526267,-0.00211828900501,0.000703892845195,0.00388976256363,-0.00190363137517,0.0026889781002,-0.00325699220411,0.000652839429677,-0.0028215283528,0.00393705768511,0.00210299668834,0.00107638176996,0.000593286240473,0.000320476072375,0.000472974934382,0.00330211478285,-0.00148555124179,-0.00175736821257,0.00158001517411,0.000490631733555,-0.00143567321356,0.00167158280965,1.30617600007e-05,-6.22753359494e-05,-0.00273443572223,-0.00293457671069,0.00253587751649,0.000494706095196,-0.000881289714016,0.00323241576552,0.00273090461269,0.00205623614602,-0.000200912531,-0.0013037022436,-0.00103649520315,0.00297489436343,0.00106052542105,-0.00112739496399,-0.00177592493128,1.23247914985e-07,0.0018260278739,0.00336312293075,0.00231535825878,-0.00131488789339,0.00291468272917,-0.00292512681335,0.0011739670299,0.00315858842805,-0.00126604631077,-0.00213586655445,3.69861954823e-05,-0.00378241180442,-0.00124632718507,0.000102708654595,0.00330308848061,0.00248456420377,-0.00135344138835,0.000207073579077,0.00414879480377,0.00123930210248,0.00167237897404,-0.00198988919146,-0.00328288320452,-0.00382514926605,0.00276867765933,-0.00413612602279,0.00292657664977,0.00276511977427,-0.00106410495937,-0.00248940684833,-0.00293667148799,-0.00260722776875,-0.00134309462737,-0.000552140118089,-0.00148635683581,-0.00368198566139,-0.000436935370089,0.00317875528708,0.00132266362198,-0.00380205828696,0.00303306197748,-0.00333811272867,-0.00221285270527,-0.00329255522229,0.00302124395967,0.000232806385611,0.00166460312903,-0.00147108489182,0.00398709764704,-0.00101801857818,0.00252518849447,6.11409486737e-05,-0.00367371179163,0.00140920327976,0.000973482790869,0.00184303300921,0.00270662293769,0.000415129587054,-0.00384776457213,-0.00130466208793,-0.0039888494648,0.000465435790829,-0.00285864877515,0.00068143743556,0.00391279906034,0.00294380285777,-0.00166867207736,-0.00222653150558,0.00391951715574,0.00106807996053,0.00295922276564,-0.0040297950618,-0.00405182456598,0.00124675803818,-0.00147673417814,-0.00248184497468,0.00403069518507,-0.000761270639487,0.00255860877223,0.00354274455458,-0.00296687544324,-0.000973251881078,-0.00338541041128,0.00395404919982,0.00376018695533,0.00225004507229,-0.000452386273537,-0.000354987685569,0.00315615278669,-0.0013399256859,-0.00157861155458,-0.00161316199228,-0.00392746645957,0.00057957979152,0.000829722092021,-0.00351943192072,-0.00223647337407,-0.000482610106701,0.00295536685735,0.00359646393918,0.000508523953613,-0.0029617017135,0.000413492904045,0.00310251419432,-0.00323242112063,-0.00143620348535,0.00397490942851,-0.00285173533484,0.00370752857998,-0.00282803690061,0.00146962178405,0.000633652845863,-0.00184075906873,0.00189327157568,-0.00401983316988,0.000339835387422,-0.00370863452554,0.000496388005558,0.00118691625539,0.00277026533149,3.77431751986e-05,-0.00252353074029,-0.00284122722223,0.00182426336687,0.0040148650296,0.000981111894362,0.00383933237754,0.000579999468755,0.00286962464452,-0.00401418702677,0.000386705214623,0.00313146994449,0.000128649640828,-0.00164602394216,0.00393278244883,0.00091068726033,-0.00238197855651,0.00233041890897,0.00392877869308,-0.00330210360698,0.00245794188231,-0.000972619280219,0.00410728063434,0.00177521642763,-0.00105488835834,-0.00299571151845,-0.0030699102208,-0.000507176097017,0.003641477786,-0.000522085058037,0.00180065759923,-0.00291089597158,-0.000197585031856,-0.00216264114715,-0.00252054654993,0.00177993264515,-0.00130751822144,-0.00376666220836,0.00058872444788,0.00120127911214,-0.00397743703797,-0.00297338631935,-0.00134776590858,-0.000224884381169,-0.00391165819019,-0.00395255954936,-0.00155678763986,-0.00414086738601,0.00216848356649,0.00117423629854,0.00370443216525,-0.00217686919495,-0.00244098342955,-0.00216939998791,0.000169209743035,-0.000721469288692,0.00161483418196,-0.00222614151426,-0.00160777091514,0.00149923202116,-0.0017342370702,-0.00105614145286,-0.00136497116182,0.00195455807261,-0.000101686222479,-4.3485477363e-05,0.00146916427184,0.00123878859449,-0.000402685080189,-0.0033320451621,-0.00176242587622,-0.00394312711433,-0.000848517287523,-0.000577526981942,0.00342296878807,-0.000926717591938,-0.00282983295619,-0.00149747158866,-0.00175265432335,0.00260155741125,0.0018378556706,-0.00370067660697,-0.00220474577509,-0.00112029467709,-0.00405211141333,-0.00148357998114,0.00277866749093,0.000619631435256,0.00387820811011,5.27895936102e-05,0.00111128157005,0.00373737723567,0.000683664286043,-0.00295448582619,0.00352317141369,-0.00255946838297,-0.00319574656896,0.00367113412358,-0.00174587522633,0.000922269071452,0.00143194466364,-0.00195745704696,0.00371330417693,0.00337477889843,-0.00176215253305,0.00187288434245,0.00230303476565,-0.00140469055623,0.000533669022843,0.00294322147965,-0.00187855609693,0.00113640585914,-0.000287246686639,-0.0017980390694,-0.000565244699828,0.00347003084607,0.00164922547992,0.00241868430749,0.00404049782082,-0.00347513193265,0.00411441735923,-0.0019126648549,-0.00330909970216,-0.00204801280051,0.00164398481138,3.24410139001e-05,-0.00379012292251,-0.00348649965599,-0.0012210290879,-0.000229310986469,0.00128782284446,-0.00398760242388,-0.00323049258441,-0.000159927090863,-0.000199567410164,-0.00294889230281,-0.00295381131582,0.00348417134956,0.0018589401152,0.00244592153467,-0.00185080477968,0.00124072167091,0.00285980338231,-0.00357260694727,-0.00177800189704,0.00191167974845,0.00280006160028,-0.00012243152014,-0.000221212787437,0.00251600402407,-0.00289768539369,-0.000188044883544,-0.00289514451288,-0.00224392907694,0.00303127290681,-0.00264146574773,-0.00274044228718,-0.000120842560136,0.003701755777,-0.00151181418914,4.64595541416e-05,0.00202839495614,-0.000892168143764,-0.00244623306207,0.00360562745482,0.00192812934984,7.66642478993e-05,-0.000773271429352,-0.00394171476364,-0.00382831087336,0.00076576176798,0.00144254404586,0.000761701201554,0.00407235277817,-0.00373342074454,0.00247627263889,0.00140918465331,0.000694733695127,-0.0039162482135,-0.000962055986747,-0.00135238270741,0.00345095479861,-0.00359517242759,-0.000179417518666,-0.00360504677519,0.00284250359982,-0.00254612159915,0.00257478281856,-0.00115579797421,-0.00319504388608,0.000472470506793,0.00379477022216,-0.00118185975589,0.000513065315317,-0.00167204195168,-0.00168248510454,0.00161958311219,-0.000478626519907,-0.0033179144375,0.000255404389463,-0.00168265297543,0.00355355022475,-0.0010525744874,-0.00275297579356,-0.00106671603862,0.000183786076377,0.000265639915597,0.00239745667204,0.00222936552018,0.00404884386808,0.00205123261549,0.000164713201229,-0.000982347060926,0.000223006529268,-0.00142808130477,-0.00206866883673,-0.0025326423347,0.00332690263167,0.00274277827702,-0.00309482472949,-0.00370690203272,-0.00169912609272,0.00350322271697,-0.00408357428387,-0.000424504018156,0.000996179878712,0.000574291159865,-0.00371891958639,-0.00325977336615,0.00330751482397,0.000271229422651,0.00415194313973,-0.00327425962314,0.00380326900631,0.00352916680276,0.00184716610238,-0.00291812350042,0.00395359285176,-0.00264788186178,0.00211116229184,0.000405840575695,0.00387954851612,-0.000391896901419,0.00235823029652,0.00400556344539,0.00090867804829,-0.00281669967808,-0.000335576041834,0.000872427248396,0.00384266674519,-0.00108803925104,-0.00194322469179,0.0026244292967,0.00299260648899,-0.0041678105481,-0.00267828302458,0.0040638144128,-0.00248697143979,-0.00134998210706,0.000675472430885,-0.00307825789787,-0.000919702113606,-0.00254417164251,-0.00181601964869,-0.00206409394741,6.29017313258e-06,-0.00105341500603,-0.003288728185,-0.00268936064094,-0.00236401916482,-0.000584619177971,0.00285235582851,0.00284293596633,0.00154457788449,0.00317826168612,0.00313608371653,0.000651877839118,0.00366977252997,-0.004107396584,-0.000124245154439,0.0012309900485,0.00207734387368,-0.00114874914289,-0.00130427838303,0.00132662965916,0.0038163412828,0.000864939647727,0.00390407186933,0.00127020326909,-0.00224468274973,0.00396923348308,-0.000179152601049,-0.0017538893735,0.00334028643556,0.00191604229622,0.00246830796823,0.000133194102091,-0.00416421890259,0.000929074711166,0.0015321248211,0.00142128008883,0.00314745260403,-0.000904431450181,0.00371550163254,-0.00356223573908,-0.00147104042117,-0.00364415580407,-0.00146031402983,1.36854159791e-05,0.00291173392907,-0.00284714647569,-0.000721134303603,-0.00105219928082,-0.00376220257021,0.000360933423508,0.00122388510499,-0.00355797959492,-0.00397814577445,-0.0010365123162,-0.00303609110415,0.00285633048043,0.00289198453538,-1.22631427075e-05,-0.00134154094849,0.00310195074417,-0.000871579220984,-0.002617781749,0.00414350675419,-0.00323890964501,0.00346040492877,-0.00203319685534,-0.00185441819485,-0.00414622714743,-0.00300332345068,-0.001870881184,0.0024281591177,-0.000557519728318,-0.00140926451422,0.00212408252992,0.00203211046755,-0.00130631600041,0.00364550645463,-0.00391477439553,-0.000116668379633,-0.000661737285554,0.00189347402193,-0.00250503630377,0.00253517949022,0.000910437549464,0.00329325185157,-0.00285766879097,-0.000208621189813,-0.00265740603209,0.00215754471719,-0.00318758236244,0.00190256512724,0.00226837256923,0.00200975919142,-0.00338373635896,-0.001604934223,0.000140698393807,0.00278497929685,-0.000191625760635,-0.00356992986053,-0.00362177961506,-0.00203424645588,-0.00244640279561,-0.00367659889162,-0.00356540339999,-0.000265839596977,-0.00319448322989,-0.00151120417286,-0.000222490140004,0.00107095448766,-0.00256100622937,-0.0017639156431,0.00383029622026,-0.00292904023081,-0.000206955752219,0.00149695912842,-0.00398375093937,-0.00272502843291,0.00259825936519,-0.00309422030114,-0.00177203724161,-0.0021154563874,-0.00204734015279,0.00397936766967,0.00135765294544,-0.00362878479064,-0.00292685767636,0.00208533927798,-0.00365796638653,0.00124695640989,0.00291925715283,-0.00155282416381,-0.00301992846653,-0.000367897184333,0.0014155904064,-0.00201262161136,0.000547539850231,-0.00342836161144,-7.34898130759e-05,0.00220586988144,0.00380194699392,-0.000415022921516,-6.31429065834e-05,0.00359673541971,0.00249261688441,-0.00276082381606,0.000190439401194,-0.00140635913704,0.000620742503088,0.00132411904633,0.00268598855473,0.00298072956502,-0.000545733841136,0.00105201650877,6.4964449848e-05,-0.00321653531864,0.00258222105913,-0.00281283538789,0.00238106492907,-0.00230517121963,-0.00167913502082,-0.00177794531919,-0.00152115372475,-0.00398819847032,-0.00208787317388,0.00229992880486,0.000120762168081,-0.00187903118785,-0.00381834991276,-0.00121937529184,0.00249504484236,0.000906088214833,0.00252474541776,-0.00216040550731,0.0012368807802,-0.000564119254705,-0.00023529434111,-0.00328652956523,0.00187888217624,-0.00199714512564,0.0024189313408,0.00308347749524,-0.00311684026383,0.000192557345144,-0.00303812790662,-0.000857127830386,-0.00219685933553,0.00299084652215,0.00387172796763,-0.00384498387575,-0.00147504324559,-0.003154422855,-0.000966283900198,-0.00126818427816,-0.00287004536949,-0.00167822674848,0.0018239779165,-0.00153189140838,-0.000634843599983,0.00293557648547,-0.0030184390489,-0.00196576910093,0.00216156360693,-0.0022026472725,-0.00269805896096,0.00275441980921,-0.000861859880388,-0.00129105569795,0.0012465773616,-0.000278029998299,0.00076800113311,-0.00314194546081,0.00404895283282,0.00151440594345,0.00292470748536,-0.00381483673118,-7.71358681959e-05,-0.00115946494043,-0.0019585932605,-0.00385406566784,0.0040502990596,0.00398293090984,0.00234181014821,-0.00379728781991,0.00293117738329,0.00256444956176,0.000977294403128,-0.000155309331603,-0.00322180474177,0.0038933083415,-0.00209579337388,-0.00115896726493,-0.00221939664334,0.00230203568935,0.00267351092771,-0.000368259468814,-0.00174978631549,-0.000424331286922,-0.0011706892401,0.00353721040301,0.00209847674705,-0.00261103594676,0.0040380815044,-0.00163836637512,0.00328460917808,0.00383221171796,0.000201304952498,-0.00395533908159,-0.00303908973001,-0.00127190025523,-0.00286111957394,-0.00258143083192,0.0019986894913,-0.00109244766645,0.00169048993848,-0.00066468125442,-0.00173685245682,0.00326702208258,0.00256275688298,-0.00385009893216,-0.00197890005074,-0.00321798026562,0.00290575181134,0.00389820802957,-0.00406742561609,0.00129670288879,0.0033035739325,0.000632969662547,-0.000589342438616,0.00118582404684,-0.00224327691831,0.00403551757336,-0.00207011890598,-0.00110491935629,0.00085786433192,-0.00285991537385,0.0013923428487,-0.00388807919808,-0.00280678132549,0.00401126360521,0.00163269997574,0.0038770805113,0.00121233321261,0.00198674271815,-9.26107095438e-05,0.00320769147947,-0.00217257416807,-0.00119666906539,-3.50338523276e-05,-0.00390284578316,-0.0017271686811,-0.00285570160486,0.00318617164157,-0.00397856533527,-0.00100444629788,-0.00212302338332,-0.00273724365979,0.00249025272205,0.000730441417545,0.00274753128178,0.00274121575058,0.00117310485803,0.000922719424125,-0.00320578366518,-0.00206051929854,0.00258119101636,0.00417324993759,0.00262879300863,-0.00414129393175,0.00394287146628,-0.000476789136883,-0.00059103849344,-0.00121200841386,-0.00306752836332,0.00191675394308,0.00172137690242,0.00289462739602,0.00294824200682,0.00222885236144,-0.00259472872131,0.00415168935433,-0.00098560389597,-0.00259991013445,-7.42187985452e-05,0.00277392100543,0.00129931489937,0.00101996108424,0.000776394736022,0.00198923889548,-0.00181243394036,-0.00181647052523,-0.000637361314148,-0.00208516023122,0.00391946127638,0.000135862064781,-0.00103944691364,-0.00134374201298,0.00251257140189,0.00330639653839,0.00279051088728,-0.00279414234683,0.00104083062615,-0.00083575444296,0.00227684481069,-0.00400166912004,0.00326321739703,0.0014630878577,-0.0026101374533,0.000960769655649,0.00402281805873,0.00337486248463,-0.00069263757905,0.00305704865605,-0.00235628010705,-0.000346055545378,-0.0034111563582,6.79528648106e-06,-0.00192294805311,-0.00390693405643,0.0003051678068,0.00413616281003,0.000948270608205,0.00244360603392,-0.00170346873347,-0.000981863937341,-0.00307480921037,-0.00258753937669,0.00358759122901,-0.00325903459452,0.00177048356272,0.00263853766955,-0.00290424004197,0.00166764413007,-0.00256820884533,0.00269957073033,0.00197087647393,0.00336895533837,-0.000997463939711,-0.00361797213554,-0.00359691702761,0.00282331579365,-0.00392435817048,-0.00376543332823,0.000411851797253,-0.00218536285684,-0.00376857398078,0.00320342206396,0.00339915184304,-0.00332633056678,0.000723072618712,0.00216183648445,0.00311577855609,0.000870066985954,-0.00384196802042,0.00338167999871,-0.000827862648293,0.00346352602355,0.000925837084651,0.000851171615068,-5.21467300132e-05,-0.00244502839632,0.00409924518317,-0.00401709973812,-0.00147680775262,-0.0011541248532,0.00162350351457,-0.00126416306011,0.00327983126044,-0.00325052835979,0.00303457351401,-0.00329609774053,0.0036474687513,-0.00405846815556,0.000234427512623,-0.00235814903863,0.000607900728937,-0.00256036105566,-0.0024201462511,-0.00169249554165,-0.000360062113032,-0.000854186306242,-0.00368919176981,-0.0020287821535,-0.00294051808305,0.00286818225868,0.000366437277989,0.0021338313818,0.00263858400285,-2.04339744414e-06,0.00149137910921,0.00052343000425,0.00335231795907,-0.00416150828823,-0.00213776086457,-0.00413314625621,0.00356933195144,0.000441314216005,-0.00253024185076,-0.00289492704906,0.000572549935896,0.000364101433661,-0.00278100115247,0.00377890234813,0.00294454558752,0.00189151766244,-0.00155493512284,-0.00374651746824,0.000783739204053,-0.00199035787955,0.00141895317938,0.00176863546949,0.000955799361691,-0.00371012045071,0.000348367204424,-0.00300955446437,0.00294290203601,0.00406563375145,-0.00177455216181,0.00174150743987,0.00154250732157,-0.0030950801447,-0.0023832959123,-0.00305732898414,0.000321063154843,0.000390393455746,0.00170131062623,-0.000603452848736,-0.000383957405575,0.000131552034873,-0.000385607534554,-0.00355443102308,0.00235901540145,-0.0013860531617,-0.000510889396537,0.00208200258203,-0.00234103645198,0.000380024139304,0.00283066695556,0.000642725150101,-0.00126841117162,0.000840915599838,-0.000260376691585,0.000547363131773,-0.00303494511172,0.00244567845948,-0.00171697419137,-0.0015782432165,-0.00375026208349,-0.00107893755194,0.000150281790411,0.00214109709486,0.00204902119003,0.0029410335701,-0.00139174226206,0.00390835106373,-0.00416874838993,-0.00241186772473,-0.000566140050068,-0.00119089568034,-0.00411188323051,0.000482199684484,-0.000987389939837,0.00282753049396,-0.00403804145753,-0.000403382931836,-0.00166415376589,-0.00355490995571,-0.000158846683917,-0.00127384462394,-0.00041667316691,0.00315211084671,-0.00149895809591,7.10440144758e-05,-0.00278727966361,0.00232482817955,0.00314905703999,-0.00315434299409,-0.000644272484351,0.000111635628855,-0.00019852364494,-0.000757615373004,-0.00141705619171,-0.0032588231843,-0.00114413537085,-0.00360435992479,-0.00303593580611,0.00119889585767,0.00225612567738,-0.00261582829989,-0.00107511156239,0.00163736892864,-0.00343717215583,-0.00112136639655,0.000539582571946,-0.00219596060924,0.000424264115281,0.00273427017964,-0.00396578479558,0.0013113191817,0.00141385872848,-0.00030047565815,-0.00412159692496,0.00100489833858,-0.0041435668245,-0.000256075378275,0.00329932803288,-0.00204387749545,-0.00288705783896,0.00167269259691,-0.00388225540519,-0.0031424423214,0.000666311010718,0.00316163152456,0.000541318615433,0.000587070011534,0.000146394522744,0.00283892243169,-0.00132492918056,0.000895444944035,-0.00268879742362,7.87082026363e-05,0.00299165397882,-0.00185265147593,-0.00125253398437,0.00269289244898,-0.00080607138807,-0.000266620801995,-0.00194327067584,-0.00417250813916,-0.00205862778239,-0.00234647025354,0.000128911095089,0.00121217395645,0.0028141210787,0.00177463819273,0.00101637700573,0.00224167387933,0.000994893023744,0.000726680504158,-0.00322612980381,-0.00151875487063,0.000145057638292,0.000596988713369,0.00211619562469,0.00279320403934,-0.00196394557133,0.00233223848045,0.00192243629135,-0.00402849214152,-0.00103623361792,0.000324885098962,0.00115482416004,0.00376007682644,0.00295647303574,0.000305549794575,-0.00402828073129,-0.00183200312313,0.000186921213754,-0.00406890874729,0.004164846614,-0.00306319724768,-0.00390951009467,0.000166309706401,-0.00249638454989,-1.67726648215e-05,0.000880414270796,-0.00294572720304,-0.00175944261719,0.000507386517711,0.00415497506037,-0.003490885254,