0.00752629525959,-0.00924847088754,0.0177523121238,-0.00301623158157,0.0173766668886,0.0147301517427,0.0115632852539,-0.0142909362912,-0.0183219313622,0.014239532873,-0.0239003989846,-0.024667756632,-0.0224210675806,0.0181686822325,-0.0265718996525,-0.00960615742952,-0.00864840764552,0.00269318558276,-0.00760253053159,-0.000464587414172,-0.0250396318734,0.0205602329224,-0.0173082724214,-0.00278884219006,-0.00999646633863,-0.000721612188499,0.000677323027048,-0.0115311993286,0.0100814793259,-0.0212886594236,-0.0263914261013,0.027800142765,0.0151193635538,-0.0253179576248,0.0011888705194,0.000174368309672,-0.017040649429,-0.0123487589881,-0.0120828673244,-0.0162060409784,-0.0254851263016,-0.0154495863244,-0.023401459679,-0.0245561487973,-0.024973006919,0.0123303551227,0.0193698182702,0.0216703973711,-0.0139685934409,-0.0207721646875,0.0174284782261,-0.00613320618868,0.0197522621602,-0.00385836977512,0.00481400918216,-0.0162224527448,0.0239454116672,0.0188938342035,0.022441117093,0.0249472688884,0.0171116031706,-0.000565101916436,-0.00691609829664,0.00173581170384,0.0133836036548,0.0116335209459,-0.00979815609753,0.0126571198925,0.00316808233038,0.0153222894296,-0.025173669681,0.00466332864016,-0.0211484283209,-0.0137086743489,0.0151062877849,-0.00878104846925,-0.0123408874497,-0.0166961904615,0.010003102012,0.00377245969139,-0.00114765251055,-0.00265450542793,0.0132356872782,0.00216470216401,0.00458625517786,-0.0106937056407,0.0235659666359,0.00286141270772,0.0119533389807,-0.0145157733932,-0.016305482015,0.0129580153152,-0.00711209140718,0.0175464805216,-0.00312653323635,0.00629665562883,0.016097554937,-0.00716006103903,0.000726499943994,-0.0122337862849,-0.0176916327327,-0.0208673961461,-0.000381300458685,-0.000837007479277,0.0259291548282,0.0095660276711,-0.00243746093474,-0.0174640845507,-0.00155528879259,0.0257536526769,0.00426669185981,-0.0148087125272,-0.0122606223449,0.0266774278134,-0.0256401002407,0.00210584909655,-0.0258718710393,-0.0251671317965,-0.0203145910054,-0.0212787091732,-0.0100310882553,-0.0263309329748,0.0233516842127,-0.0269435886294,0.0208505429327,-0.025447152555,0.0230421405286,-0.0143197253346,0.00743979262188,0.00395097630098,0.0180897340178,-0.00420264620334,0.0089443968609,0.0229971855879,0.00159874290694,-0.0231202766299,0.0186447091401,0.00802318844944,0.00945708528161,0.0215440094471,-0.0115605518222,0.0264360476285,0.0175473932177,0.0126435449347,-0.0256140567362,0.0094302687794,0.00170126522426,0.0243469253182,-0.00867292936891,0.0236329138279,0.0156115824357,-0.0192250572145,-0.0174671430141,-0.00369213055819,0.00255853263661,-0.0081195672974,-0.00716409645975,-0.0198831371963,-0.028117697686,0.00933016370982,-0.00281255645677,-0.0190791487694,-0.0269720517099,0.00889466702938,-0.0183551032096,-0.0112691614777,-0.00441808765754,-0.0255859661847,0.00491271959618,-0.0182186644524,0.024753537029,-0.00293700653128,-0.026599124074,-0.0196991991252,-0.0240646153688,-0.00231603183784,0.0203365311027,-0.00887428130955,0.0187386609614,-0.000628472073004,-0.0153214819729,-0.0280550308526,0.0131990108639,0.00827184598893,0.00415457226336,0.0058601340279,0.0056512830779,0.0208418499678,-0.0232735052705,-0.0137287257239,0.0238789506257,0.0082184066996,0.0178670026362,-0.0184312630445,0.0125486599281,0.0128896981478,0.0280128810555,0.00689528230578,-0.00588062172756,-0.00500345928594,0.00943893846124,0.000952945032623,0.00479495851323,-0.00571236945689,0.0210170056671,-0.0262356549501,-0.00525228027254,-0.027610629797,-0.0197327528149,0.0139482105151,-0.00293482933193,-0.0215724743903,0.00527288578451,-0.00382081884891,-0.00330362981185,-0.0271722320467,-0.0153600731865,0.0172640066594,-0.00283930171281,-0.0130533017218,0.0165569949895,0.0102386409417,0.00860472675413,0.0209394879639,-0.0234395917505,-0.0126551231369,0.0216116029769,0.0113492803648,0.0257836505771,0.0078240102157,-0.0171002261341,0.0129972836003,-0.0168489087373,0.0153324147686,-0.0279556587338,0.023449940607,0.00820958614349,0.0255210716277,-0.000956940290052,0.0207365304232,0.0203961152583,0.00636256905273,0.0114790564403,-0.0164498295635,-0.00867709517479,0.0246262531728,0.0280131753534,-0.00412103673443,-0.0165898185223,-0.00277754757553,0.0150458924472,-0.00613723881543,-0.0122468816116,-0.0113413436338,-0.00849845632911,-0.00456219725311,0.0179539695382,0.00245461356826,0.0207461118698,0.0183597747236,-0.004905896727,0.00113880552817,-0.0233914665878,-0.00460890121758,0.0040117027238,-0.0132332956418,-0.0203962139785,0.0144944190979,-0.0274896789342,0.00952239800245,0.00949286390096,-0.00905124377459,-0.00528427073732,0.0141861783341,-0.0277759879827,0.026011524722,-0.0183551963419,0.0030404550489,0.000201829694561,0.00309819332324,0.0157308261842,-0.00511925062165,0.0100614884868,0.0107809929177,-0.0175303444266,0.0172145925462,-0.027379905805,0.0162670202553,0.0280875321478,-0.0002089812333,-0.0253667291254,-0.0147326402366,0.014211894013,0.0167713686824,0.0245093777776,0.0223283525556,-0.0201683100313,0.0273147094995,-0.0178172402084,-0.00022328212799,-0.0242580901831,-0.0229707229882,0.0241994913667,0.0247775856405,0.000662176462356,-0.016161063686,-0.00914769340307,-0.0134984152392,0.0131013235077,-0.0142094893381,-0.0194971878082,0.0181365832686,0.0259863901883,-0.00104019069113,-0.0162524785846,-0.00722172716632,-0.0247373711318,-0.0254056509584,-0.0109131336212,-0.0220182966441,-0.00588062405586,-0.00481974706054,0.00575782405213,-0.0166260637343,-0.0235878620297,-0.0118529461324,0.00613518245518,-0.0258210189641,-0.0158370677382,-0.00903982389718,0.0172887239605,-0.000801570538897,0.0219978094101,0.000544590817299,-0.0150732239708,0.00276175118051,-0.00182453542948,0.010995529592,-0.0249111335725,-0.0192852523178,-0.0206093676388,-0.00682113924995,-0.00694623123854,0.0225268881768,-0.0261550005525,0.00464994180948,-0.0252145770937,0.00383517192677,0.00311926030554,0.0224787499756,0.0258718002588,-0.00457184109837,-0.023483062163,-0.0263092964888,0.0264382623136,-0.0240377150476,0.0242736339569,-0.0184352323413,-0.00331502011977,-0.0179904680699,0.0183167643845,-0.0211244560778,-0.0151979327202,-0.0121230678633,-0.021988870576,-0.00737647805363,-0.0241234265268,-0.0118847535923,0.0189911928028,0.01729096286,0.00727786822245,-0.0124971233308,0.0248318146914,-0.00410159444436,0.0211113505065,0.00301364366896,-0.01413049642,0.00165366625879,-0.00473188096657,0.0244829840958,0.0239040069282,-0.0126774823293,0.0106323445216,0.0267362017184,0.00579824531451,-0.0110476622358,0.0262521449476,0.0131313772872,0.026531489566,-0.0191665403545,-0.0273282416165,-0.0116305667907,0.026696735993,-0.0128805721179,0.0144971925765,-0.026875294745,0.0264003816992,-0.00831746030599,0.00437629176304,-0.0068804519251,-0.0231167245656,0.0212277863175,0.0167665444314,0.00191128079314,0.00561161991209,-0.0202748514712,0.0195832271129,0.0210202019662,-0.0242007039487,-0.000551700941287,-0.00333569501527,-0.0276774037629,-0.0258695706725,-0.00164468330331,0.0272491462529,0.0197710227221,0.0269053746015,-0.0137712014839,-0.00286300480366,-0.0217414163053,-0.0137503314763,0.000305241032038,-0.00941143743694,-0.0198487192392,0.00282409763895,0.012519383803,-0.0170894172043,-0.0214616209269,-0.00285098701715,-0.0251933690161,0.00141073565464,-0.00892752408981,0.0163388773799,0.00915688369423,-0.0125584611669,0.0237129963934,-0.00787315052003,0.012926758267,-0.0173937659711,-0.00106277363375,0.0146494787186,-0.0204910673201,-0.025372100994,-0.0281091686338,0.00500906724483,0.0205393563956,0.00637265481055,-0.0113462554291,-0.0225786045194,-0.0144734773785,-0.00437561236322,0.0213755648583,-0.0055022505112,0.000477684166981,-0.0268384553492,0.0280432775617,0.00523603893816,0.0271111316979,-0.00602233316749,-0.0176397580653,0.02350923419,0.000254468875937,0.00917107984424,-0.00965379178524,-0.0230828821659,-0.0139048276469,-0.0210290197283,0.0167797207832,-0.0196931622922,-0.0152095630765,-0.000387934414903,-0.00086320185801,-0.0074990526773,-0.0279008597136,0.0121556501836,-0.000782388204243,-0.00440287450328,0.0171100143343,0.00443512713537,0.00512045156211,0.0204544756562,0.0206897314638,0.00118073925842,-0.0211564172059,0.00746812392026,0.025339057669,0.0232158116996,0.00692308088765,-0.0236153975129,-0.0133028002456,0.0272213052958,-0.000675038900226,0.00759430136532,-0.0224541109055,-0.000724872457795,0.0206547323614,-0.0183724090457,-0.0183585789055,-0.0276893936098,-0.00940514728427,0.00770813319832,0.0130758425221,0.00563143612817,0.0179415158927,0.0153439687565,-0.0160324312747,0.00320090912282,-0.027948718518,0.0101134050637,-0.0144381634891,-0.00242928834632,0.0214197915047,0.0149992918596,-0.0136527670547,0.0140095502138,-0.00542342290282,-0.0157674197108,0.0170459207147,0.0061031812802,-0.0244803112,0.00383443338796,-0.00192722829524,0.00666251545772,-0.000612754782196,-0.00480197416618,0.0105892522261,-0.0141291888431,0.00971836876124,-0.0164717622101,-0.0237652193755,0.000899473205209,0.0256061535329,-0.0140340253711,-0.0265530534089,0.0158536862582,-0.0202864855528,-0.0179089698941,0.00285018631257,0.0222721900791,-0.0100421002135,-0.00529378140345,0.00224602944218,-0.00430166069418,0.0146000813693,-0.00490856729448,0.0118911461905,-0.0128632551059,0.0152008691803,0.00805459357798,0.0222070068121,-0.0109549509361,-0.0196606684476,-0.0191865582019,0.0249036010355,-0.00325071555562,-0.0263661239296,-0.0235767830163,0.0131648611277,-0.0154743967578,-0.0250301565975,-0.0238943416625,0.00593392224982,-0.00824110861868,0.0103218229488,-0.0250814799219,-0.019788114354,0.024813240394,0.0131967160851,0.0236326809973,0.0186891946942,-0.016387257725,0.0114344451576,0.0190304238349,0.0202010963112,0.00363523396663,-0.00806081946939,-0.00625965511426,0.0246315095574,-0.00471198232844,0.00518731027842,0.00392914516851,0.0093284631148,-0.00913978368044,-0.0167117100209,-0.0256410744041,-0.00443589221686,0.0229588989168,-0.0215773861855,0.0216089002788,0.00693606073037,0.0126947937533,-0.00753178540617,-0.0231615360826,0.00916755571961,0.0181039180607,-0.00552060175687,0.0253658406436,-0.0270669087768,-0.0155039187521,-0.0236036274582,0.0129372347146,0.0196403618902,-0.0167319942266,0.0232226978987,-0.0189003609121,-0.00101872021332,0.00538753299043,0.0071912878193,-0.0234799329191,-0.00800673756748,0.015825195238,-0.014054371044,0.0264272801578,-0.0177362728864,-0.0085738254711,-0.0240144748241,-0.0129482159391,-0.0141382664442,0.0171601511538,-0.0176708623767,0.00844340119511,0.0263217855245,0.00483148545027,-0.00985278561711,-0.004922747612,0.0156029677019,0.010196599178,0.0023641847074,-0.0128174694255,0.0055141961202,-0.00683618756011,0.0233934633434,0.0111562181264,0.0207748431712,0.00995425228029,0.0064333230257,0.0132069373503,-0.0168375801295,0.0119883641601,0.0232126805931,0.0191656015813,0.0218170136213,0.0121773183346,0.00971418432891,-0.0102785006166,0.000667108746711,0.0236416701227,0.00778627628461,0.00684749055654,-0.0112063139677,0.0122202700004,0.0127925174311,0.0248539131135,-0.0169549621642,-0.0228207726032,-0.00168582634069,0.0101660937071,-0.00953752081841,-0.0211725141853,-0.00982291903347,0.0188129283488,0.00301650189795,0.00429687136784,0.0217353943735,-0.00754455616698,0.0202348958701,0.0210528541356,-0.000968509237282,0.014868776314,-0.0143222426996,0.00119292107411,0.0130441682413,0.00594004336745,0.0165595393628,-0.00913684442639,0.00701061310247,-0.000312798161758,0.0178391411901,-0.00937215704471,0.00524933822453,0.0080242594704,-0.0114331683144,-0.00945856142789,0.0252691879869,-0.0163180008531,0.0193668995053,-0.0115588232875,-0.0101144835353,-0.000664577644784,-0.0213199649006,0.0235363952816,0.0111725404859,-0.021468995139,0.0198930408806,-0.0221583526582,-0.0106326295063,0.0079733999446,-0.00712210591882,0.0175124853849,0.0129786366597,0.0219554584473,0.0196830574423,-0.0168136786669,0.00288714584894,0.0234213974327,-0.0183783639222,-0.00825964380056,0.00536043196917,0.00282236607745,0.0225585624576,-0.0149025954306,-0.0138779878616,0.00727031286806,-0.0206191111356,-0.000979486503638,-0.00786823965609,0.0195400230587,-0.000983208883554,-0.00675900559872,-0.00942761171609,-0.0258982833475,0.00874837674201,-0.016552016139,0.0250929705799,0.0193950422108,-0.0208404809237,0.00492373388261,-0.025210943073,0.0112391598523,0.0111260190606,-0.00507836369798,-0.02364352718,0.00736778369173,-0.0111927548423,-0.00939637236297,-0.00228864885867,-0.0242644008249,0.00370443984866,-0.0154800247401,0.00677489675581,0.00732118263841,0.0141142653301,-0.0155010642484,0.0033421847038,-0.0217660143971,-0.0095062861219,0.00978598557413,-0.0219542682171,-0.00287328660488,-0.00529932929203,-0.0210818909109,-0.00474480818957,-0.0042500756681,0.0153786884621,-0.00155429576989,0.0129067786038,0.00760163646191,-0.0166589207947,-0.00780448969454,-0.00416348967701,-0.00294133275747,0.020991999656,0.00519225699827,-0.0198745224625,0.0226834323257,0.0264626722783,0.00158924085554,-0.0256896466017,0.0242043118924,-0.0257538743317,-0.0266437251121,0.0170591715723,0.0215282831341,0.00579042732716,-0.0271915718913,0.00841354392469,0.013196545653,-0.00530021777377,-0.00137409148738,0.00333214714192,0.0214541852474,-0.0187406912446,-0.0270079281181,-0.0139887481928,0.0229730512947,0.00116298266221,0.0182149168104,-0.0051415162161,0.000458435388282,0.00790323317051,-0.00567914964631,-0.0032939997036,-0.0100225107744,0.0278519168496,-0.021507255733,0.0244595818222,0.00917429663241,-0.00484210858122,0.0255294591188,0.00144037767313,0.00237090582959,-0.000470921891974,0.0258075539023,0.0179986506701,0.00211250688881,-0.00337812770158,0.0157863497734,-0.00208244728856,-0.0250907298177,0.000472906423965,-0.00844047497958,0.00713363941759,-0.00514904316515,0.00854717660695,-0.0184706822038,0.00964974798262,0.0250177178532,0.00672795344144,0.0226938743144,0.00425862101838,0.00548153091222,0.0171371847391,-0.00931852776557,0.00931234937161,0.000835354498122,-0.0191282276064,-0.0207702908665,0.025575267151,-0.0240524560213,-0.0216175783426,-0.0144789358601,0.0232847575098,-0.0221651159227,-0.00945512298495,-0.0178347863257,0.0110380547121,-0.0186965800822,-0.00313740409911,-0.00147303414997,0.00330732855946,0.0241591688246,0.0159278493375,0.0244418587536,0.00361382542178,0.0101439347491,-0.0223233290017,0.00998225621879,-0.0179607048631,0.0119051178917,-0.0217257570475,-0.0172020085156,0.019150627777,0.00839743763208,-0.0127465389669,-0.00122503051534,0.00414303550497,-0.0185295511037,0.00825713761151,0.00682725943625,-0.0190357379615,0.0202310793102,0.00259795412421,-0.0223471522331,0.014744753018,-0.00232789688744,0.00777163822204,0.0133982980624,0.0271047465503,-0.00218574004248,0.0208719279617,-0.00844076555222,0.021949660033,-0.0114034796134,-0.0231991577893,-0.0123494174331,-0.01650425978,0.0204320698977,0.025451367721,-0.00671535823494,-0.010827999562,-0.0164024140686,0.00554730696604,0.0247958637774,-0.0133840395138,0.0147473020479,0.0122446808964,-0.00818964932114,-0.0257993154228,-0.0181965213269,0.0120298191905,-0.0277312342077,0.0279832184315,-0.00835703965276,0.0219247117639,-0.00856920331717,-0.0125906718895,0.00664899032563,0.00149216689169,-0.0018864570884,-0.0158177074045,-0.0143432039768,-0.00576307158917,-0.0219726227224,0.0122932177037,-0.0154471332207,-0.0248699784279,0.01414607279,0.0210562217981,-0.0256265886128,0.0180366002023,0.00424540834501,0.0113032115623,0.0207380596548,-0.0280593149364,0.00951599981636,-0.0090987700969,-0.00917322468013,0.0155110713094,0.0110991112888,-0.0154911847785,-0.0215068869293,0.00599884986877,-0.00548526272178,-0.0124010005966,0.0256200283766,-0.0135725121945,0.00203824345954,-0.000949503562879,-0.00472574215382,-0.00164266838692,0.0111100040376,0.0278156828135,-0.000437568960479,0.00747048715129,-0.0168693680316,0.0220116265118,0.0271050073206,0.0256681442261,-0.00825007352978,-0.0114171663299,0.0257343240082,0.0193419083953,-0.0189864356071,-0.0153990061954,0.00753164524212,0.00165382749401,-0.0228584744036,0.0100903352723,0.027211740613,-0.0205907020718,-0.0262850001454,0.0103986077011,0.00532097928226,0.00587959960103,0.0219600964338,0.0174995195121,0.0101601853967,0.0244535747916,-0.00490774866194,0.012314254418,0.0128922946751,0.0220269821584,-0.0184910818934,-0.00069484859705,-0.00805485062301,0.0144298234954,-0.000268645293545,-0.00474730227143,-0.0276755746454,0.0211956668645,0.00172905996442,-0.0152252344415,-0.0158115755767,-0.0105132749304,-0.0128947077319,0.0278282947838,0.0116863334551,-0.0137720117345,-0.0224899277091,0.0197259560227,-0.0191053636372,-0.0226442366838,-0.00945886317641,-0.0211041662842,0.0181238800287,0.0130360899493,-0.0167205650359,-0.021200703457,0.0260346401483,0.0195231176913,-0.00719080073759,0.0016070153797,-0.0252652335912,-0.00478700501844,-0.027518177405,-0.00162383366842,0.00261881691404,-0.0199211537838,-0.0180864501745,-0.0195342972875,-0.00142593565397,-0.0124939577654,-0.0146623756737,0.00208135182038,0.0260963048786,-0.000234689839999,0.00789790134877,0.0278157796711,-0.0164435971528,-0.0175645872951,-0.0179618671536,-0.0129891848192,0.0198778249323,-0.00374964787625,0.0257505532354,0.00526029011235,-0.02774887532,0.00521141989157,8.11821300886e-05,0.000800966692623,-0.0257198233157,0.0274967737496,-0.0272443071008,0.027309672907,0.0105746416375,-0.012244572863,-0.0120405312628,-0.0160198099911,-0.00143309845589,0.000683156249579,0.00461404630914,0.0235246047378,-0.00898300111294,0.00642730481923,0.00711667397991,0.0063715018332,0.0262580718845,0.0148636363447,0.0198073685169,0.0246720761061,0.0265455860645,0.00972544401884,-0.0199434328824,-0.0226797256619,0.0263338219374,-0.00110827246681,0.0128744989634,-0.0036608055234,-0.0174919050187,-0.0151642719284,0.00380340008996,0.0215193647891,-0.00649394933134,0.0198103822768,0.0170098766685,0.0168469790369,-0.00777130341157,0.0148388063535,-0.0272544212639,-0.0274455714971,0.0256743449718,-0.00870497059077,0.0211439803243,-0.00968746654689,-0.0254232212901,0.00768561055884,-0.00741313863546,-0.0126083279029,0.00638880720362,-0.00621083984151,-0.02527618967,-0.0185219291598,0.0256960149854,0.0191952455789,0.00469095213339,0.019846925512,0.0276583749801,0.0183974504471,0.0164392255247,0.00570923835039,0.0044076689519,3.50167028955e-05,-0.0142800696194,0.0112342750654,0.0106628928334,-0.000635782722384,-0.0148539775982,0.000527529104147,-0.0226515568793,0.00500325392932,0.0131603367627,0.000604466709774,-0.0165234599262,0.0112303160131,0.0143194682896,-0.00700628617778,-0.00170030409936,0.00135105743539,0.00955009832978,-0.0147070782259,0.0230373218656,0.013009481132,0.0183653291315,-0.00107568548992,-0.012830581516,0.00861903745681,-0.000734127126634,-0.0141219357029,0.0185588784516,4.26183978561e-05,0.0105503462255,0.0118018994108,-0.0208015758544,0.00722301844507,-0.00121651997324,0.0228668246418,-0.0134301073849,0.0252569429576,-0.0139053883031,0.0136357182637,-0.0176591854542,-0.0136901643127,0.0127007998526,0.0172862410545,0.0212278533727,0.0237649660558,-0.0112764621153,0.0204283837229,0.0224667675793,-0.00296503771096,0.00305520230904,0.0206778291613,0.00883581023663,-0.0132005838677,-0.0174260567874,0.00139895314351,0.0108264312148,0.00800878740847,-0.0256904680282,-0.013626139611,0.00859906896949,-0.0173245165497,0.0172515325248,0.00647848658264,0.0167184080929,0.00243456475437,0.0166708994657,0.0197614040226,0.00164328014944,0.0280335843563,-0.0170070324093,0.01391402632,0.0178092811257,0.00875771697611,-0.0175540503114,-0.0226480364799,-0.0174700114876,-0.00324629130773,0.0194969531149,0.0276143457741,-0.00412942981347,-0.00292406207882,0.00986046437174,0.0263278242201,0.00247554504313,0.00501517904922,0.0218420494348,0.0158020798117,0.0241941474378,-0.0134737482294,0.00979450624436,0.0199562609196,0.0146071407944,0.00702940812334,0.0240293871611,0.0168363936245,-0.0214657466859,0.0138423964381,-0.00244794157334,0.0119043402374,-0.0258125234395,-0.0150615135208,0.0149858631194,-0.0124176070094,-0.00548526225612,-0.0210875812918,0.000435681809904,-0.0137750748545,-0.0250282771885,0.0206793937832,0.0174158886075,-0.0145676648244,0.0119867771864,-0.00561505462974,0.00057832285529,-0.0167505573481,0.00353341689333,0.00409286143258,-0.00360073777847,-0.00805790815502,0.010955048725,0.00577700324357,0.0254129841924,0.0209123920649,0.0141866952181,0.0151074277237,-0.0170441772789,0.00847716722637,0.0113819958642,-0.00786404497921,-0.0237008947879,0.0116374585778,-0.0144528057426,0.0230383891612,0.0145372068509,-0.00461775111035,-0.00371777988039,-0.0257543642074,-0.0177472382784,0.0227918904275,0.0199990719557,0.0228964202106,-0.0114263836294,-0.0229107551277,-0.0248638000339,-0.00721690477803,0.0174500960857,-0.0149661349133,0.00923207681626,0.0280360151082,-0.0178884677589,0.0278650447726,0.0246455557644,-0.00576906884089,-0.000337153265718,0.00202130479738,0.0139491064474,0.0138133633882,-0.00561589002609,0.000129672203911,-0.0246982481331,-0.00388137041591,0.0062535116449,-0.00210511824116,0.00760648399591,0.0211260803044,-0.00550687499344,0.0164419170469,-0.0147463548928,0.00178872211836,0.00530417403206,0.020717902109,-0.0256343279034,0.0138163985685,0.0164379794151,0.0129235032946,-0.00381114659831,-0.00150742800906,0.0135253220797,-0.0145063800737,-0.00397958653048,0.0040066903457,0.0172473173589,-0.017165010795,0.0197737757117,-0.00604495359585,-0.0142629342154,0.00524724414572,0.0158126279712,0.00683459592983,-0.0088069671765,-0.011633830145,0.0176184419543,-0.0143627291545,-0.00574998091906,0.0200504846871,-0.0187503863126,-0.000651846814435,0.0184623375535,0.022324277088,0.00839860085398,0.0129454713315,-0.0108965151012,0.0137738334015,0.0129597606137,0.0032664781902,-0.01626217179,-0.00759916380048,0.0250030029565,-0.00689721759409,0.0130118289962,0.00972849316895,-0.0138695146888,-0.00130936328787,-0.01944485493,0.0129266586155,0.0182464849204,8.94701224752e-05,0.0053074657917,0.0134402718395,-0.00742333289236,0.0031260503456,-0.0258492622524,-0.0274899378419,-0.00592925352976,0.0236613918096,-0.0240788217634,-0.00827957782894,-0.00501430267468,-0.0206416901201,-0.0267285369337,0.022571939975,-0.0165293272585,0.0217033792287,-0.00726521620527,0.020259687677,0.0243652295321,-0.00247706333175,0.0113030243665,0.0258275773376,-0.000303655397147,0.0123852817342,-0.0202279482037,0.0153130907565,-0.01646415703,0.00610844604671,0.024903986603,-0.0206636711955,-0.011579092592,-0.0131056271493,0.0187153052539,-0.00256193103269,0.00973470229656,-0.0272822715342,-0.0193686485291,-0.0276573449373,0.0228206012398,0.0257286895066,0.0148612000048,-0.00119908398483,-0.0192240830511,-0.00713610835373,0.00643639266491,-0.0114402370527,0.000841646804474,0.021564098075,-0.00609309831634,0.000239952671109,-0.00115280365571,0.0211115702987,-0.00282389181666,0.0278407037258,0.0118439672515,0.00949554331601,-0.0222249738872,-0.0116902841255,-0.0110617754981,-0.0270081106573,-0.0260316394269,-0.0132066113874,0.0133527368307,-0.0149022359401,0.00573687348515,-0.00236457074061,0.0213161334395,0.00974346976727,-0.01850303635,0.010331261903,0.0273700933903,-0.00329650100321,-0.00436096824706,0.020557127893,-0.0137041164562,0.0158409774303,0.0226363316178,-0.0203982554376,0.00967439822853,-0.0151535915211,0.0261971224099,0.00238039437681,0.00649236747995,0.0268460810184,0.015543856658,-0.00129441090394,-0.0168261416256,0.00120588438585,0.02031015791,0.0115139232948,0.0205183215439,-0.00937431305647,0.00757006369531,-0.00991630461067,0.00862576067448,0.0259165838361,0.019721545279,-0.0128985121846,0.00180921249557,-0.0114610875025,0.0172606892884,0.0183869395405,-0.0184489712119,0.00912779290229,-0.0121525451541,0.0206256974488,0.0182472020388,0.00381704000756,-0.0275801438838,0.021932631731,-0.0168819315732,-0.00706202164292,-0.0246175136417,-0.0223050732166,-0.0170184615999,0.00114652549382,-0.00270875892602,0.0235775019974,-0.0226573087275,-0.0202096886933,0.0102584743872,0.00972298905253,0.00636221887544,0.0028652457986,0.0035312473774,0.00925439409912,0.0271406620741,0.000206694327062,-0.00240007741377,0.0145177971572,-0.00416318513453,-0.00271841371432,-0.0200250931084,0.0235420968384,-0.00595453381538,-0.0111177098006,0.0279353894293,-0.0115530686453,0.00579300010577,-0.0262724980712,0.00538914604113,0.012086270377,-0.0252606682479,0.0181949306279,0.0169326774776,-0.000168666039826,0.0278316903859,0.00671539921314,0.0223714672029,0.00782290939242,0.0116596063599,0.00470237666741,-0.00140385271516,-0.0171139445156,-0.0205496959388,-0.0260612163693,-0.0152156576514,-0.00797517877072,-0.0172381233424,-0.00383764924482,0.00511485850438,0.00494923535734,-0.0135520240292,0.0211640987545,-0.0153793273494,-0.00974477548152,0.00491835968569,0.0167283322662,0.00398268504068,-0.019489383325,0.0134100411087,0.000991756096482,0.00652417121455,-0.0164552945644,0.0280302874744,-0.0162413865328,0.020568003878,-0.0190925598145,-0.0235223546624,-0.00636720703915,0.0174639057368,0.00955563038588,0.00951317884028,0.00328430486843,0.00769964652136,0.0195747278631,0.00301191676408,-0.0101211378351,-0.00476825190708,-0.0273207258433,-0.0124679170549,0.0158968679607,0.0266596861184,0.0213192924857,-0.00805557053536,-0.0272795613855,0.0279415771365,-0.00443271966651,-0.024629348889,0.00316228414886,-0.00920567754656,0.0153223248199,0.00682106241584,-0.0214255973697,-0.0188743900508,-0.00315853930078,-0.0076668811962,-0.0151737844571,-0.0277763549238,-0.0141650801525,-0.00326198479161,-0.0164736770093,-0.00665322830901,0.00744376750663,-0.0130118466914,0.0165014527738,-0.0234587434679,-0.00925079733133,0.0142693873495,0.0181766785681,0.00223300931975,-0.0128990150988,-0.02020627819,0.0133170867339,0.00484191952273,-0.000728878367227,-0.0165275018662,0.0220713205636,-0.0186548307538,0.0109738102183,0.00510048586875,-0.02326570265,-0.000748681370169,-2.59291191469e-05,-0.0127249304205,0.0151272872463,0.0125491544604,0.00929294992238,0.0200164280832,0.017484581098,-0.0250114127994,-0.00322490162216,0.00582868698984,0.027849400416,-0.00752318836749,-0.00755116017535,-0.00691159628332,0.0237104203552,-0.00164446304552,-0.0198665205389,-0.0116437543184,-0.000640700396616,-0.0200033355504,-0.00848560035229,0.00361830089241,0.0270562935621,0.00016968412092,-0.0246230922639,0.0253011621535,0.0253411214799,0.0155311971903,0.00156713521574,0.00175237935036,-0.0104822386056,0.00441562011838,-0.00850461237133,0.00574960885569,-0.0072638685815,-0.0239776689559,-0.00701249251142,0.0172058735043,-0.0257904417813,0.000968369538896,-0.0170271899551,-0.00912487134337,0.0244633555412,-0.0142740495503,-0.0117198592052,0.0117724416777,-0.0197992380708,0.0188419707119,0.000129256106447,0.0200953725725,-0.0232112109661,0.0152539154515,-0.004852630198,-0.00182388105895,-0.0193624515086,0.0104503696784,-0.0276609100401,0.0108969882131,0.0257757697254,-0.0189658124,-0.00332449912094,-0.000179991751793,0.0223869662732,0.0164871700108,0.0142941409722,-0.00385308358818,0.0156833399087,0.0199513752013,0.0245515052229,0.0270710028708,0.00207439647056,0.0238475408405,-0.00367754511535,-0.00734775001183,-0.0227881688625,0.0164448171854,0.00391573645175,0.0241034664214,-0.0221409127116,-0.00516954483464,-0.0265790466219,-0.0222771000117,0.0178811401129,-0.0145477531478,-0.00202819751576,0.00119285599794,-0.0268274098635,-0.00947019085288,0.00830747373402,0.0221577510238,0.020561074838,-0.00996751990169,-0.00418852316216,-0.0029255959671,0.02398856543,0.0214485228062,0.0248340852559,-0.00878337211907,-0.0100229782984,-0.0251442827284,0.0207415223122,0.00562303792685,-0.0178152900189,-0.0230127759278,0.00392022030428,0.0137509144843,-0.0156035851687,-0.0139106977731,-0.00783627014607,-0.000740543589927,-0.0157721787691,0.0270160734653,-0.00559454830363,0.00155107304454,0.0270320679992,-0.0220801290125,-0.0170747656375,-0.0038324566558,-0.00446788081899,-0.00774052133784,-0.0143838794902,-0.0172592569143,-0.0194275956601,-0.0109384870157,-0.00316193653271,-0.00577057246119,0.00921078119427,0.0043124742806,-0.0253362264484,-0.0280810315162,-0.00269506173208,-0.0216534994543,-0.00561105506495,-0.0205777417868,-0.0111865801737,-0.00694586941972,0.0243935398757,-0.0158220082521,-0.0187815874815,0.0123924929649,-0.0128417313099,0.0128711760044,6.61867161398e-05,0.0023639134597,-0.0165741425008,0.0124005088583,-0.0226685125381,0.0171382986009,-0.0279506351799,0.0155295003206,0.0233510565013,0.00716374721378,-0.00468312483281,0.0177699644119,-0.0176119673997,-0.00246657198295,-0.0144051956013,0.0212462171912,0.0186124760658,0.0189956203103,-0.0135884890333,0.0229374915361,-0.0118396319449,0.00141065055504,0.015552806668,-0.00561214005575,0.0108224861324,0.000290111463983,-0.0245001204312,-0.00861308258027,0.0260143764317,0.024121530354,-0.00846558436751,-0.0206803381443,-0.00718021998182,0.0119816754013,-0.0186496879905,0.00983884837478,-0.0126659655944,0.00855094008148,0.0256729796529,-0.0223559141159,0.0169655419886,0.000731626991183,-0.0231412090361,-0.0007368864608,-0.00285879825242,-0.00753959640861,0.0242271311581,-0.0173481553793,-0.00415336387232,0.0158270671964,-0.00688009848818,0.0236108843237,-0.00124006520491,0.0255661662668,0.027978790924,0.00811829697341,0.00969664379954,0.012242439203,-0.0263560656458,0.0256615038961,0.00754869589582,0.0240367595106,-0.0232928041369,-0.0100020058453,-0.0109652271494,0.0149745261297,-0.00439142156392,0.0265995673835,-0.019853817299,0.00166842027102,-0.00131151359528,0.00363899790682,0.0264832433313,-0.0126411402598,-0.0115815233439,-0.0128876110539,-0.0107594104484,0.0144471339881,-0.0124358702451,0.00394438859075,0.00385001581162,0.0156655870378,0.0131969591603,0.0216464102268,-0.00920963194221,0.0218531750143,-0.0179974846542,-0.0250760484487,-0.000275622296613,-0.018980011344,-0.00695521524176,0.00771525781602,-0.00124139315449,0.0183118712157,0.0211538057774,-0.00484057934955,-0.00461941817775,0.0255192946643,-0.0121451597661,-0.00242076721042,-0.0168444253504,-0.00928205158561,0.0208671372384,-0.0196040216833,-0.00791950151324,0.0219776313752,0.00752149708569,0.0110980188474,-0.018454125151,0.00844540353864,-0.0170516837388,0.0199777018279,-0.00329203368165,-0.00223711482249,-0.00680451095104,-0.0113954721019,-0.0204501394182,-0.00669508427382,-0.019854305312,0.00600776169449,0.0256440974772,0.0218920968473,-0.0169526915997,-0.0044413479045,-0.0260043833405,-0.0117511739954,-0.0231537502259,0.000715578382369,-0.0270131677389,-0.021308042109,-0.0226816721261,0.0260649509728,0.0275410339236,0.00936936587095,0.0127316107973,0.019716206938,0.0193437244743,-0.00689282501116,-0.0257392711937,0.0268550105393,0.00171083956957,0.0258439239115,0.0137025471777,0.0176912769675,-0.0280584506691,0.000583054090384,-0.00721819885075,0.00777549901977,-0.0233910344541,0.0163752827793,0.00602833554149,-0.021840069443,0.00812142714858,-0.00858025159687,-0.0249451771379,0.0093242879957,-0.00961907766759,-0.00887914467603,0.0134416837245,0.00346354953945,0.0132113294676,-0.0267942473292,-0.00990388914943,-0.0079321982339,-0.0162635482848,0.0201659407467,0.0275506395847,-0.00501611921936,0.021583031863,-0.0202511344105,-0.0244004689157,0.0255283173174,0.00568252056837,-0.00116831215564,0.0209307000041,-0.021064395085,-0.024411495775,0.00554114812985,0.00132490589749,0.00762015720829,-0.0169049147516,0.00724102929235,0.0232757311314,0.0148326894268,-0.0201480444521,-0.0253846123815,-0.0203620884567,-0.00423752237111,-0.00846839509904,0.025106003508,0.00194919994101,0.00493834586814,-0.0270257741213,-0.00886280089617,0.0217206459492,0.0184639468789,0.0266184713691,-0.0263521149755,0.000113590525871,-0.00138252379838,0.00555641297251,-0.00558227580041,0.0169317536056,-0.0178713873029,0.0244643073529,0.000349327165168,-0.023240506649,0.0232903528959,0.00139533751644,-0.0173300523311,0.0241855792701,0.0111227752641,-0.0184584427625,0.00145935360342,-0.000366118940292,0.021932810545,0.0272275675088,0.013556775637,0.0204837266356,-0.011072925292,-0.00821572821587,0.0245595127344,0.0111780371517,-0.00101815012749,0.00715180439875,-0.0219839978963,0.0174960829318,0.00376572133973,0.00286113587208,0.0261756926775,-0.0100545538589,0.0132028870285,-0.0204049050808,0.0116791864857,-0.00271116499789,0.00194856896996,0.0216846447438,-0.00875905714929,0.018940879032,0.0160757619888,-0.0116564473137,-0.0143772047013,0.00438144663349,-0.00218290113844,-0.011247003451,-0.0187700409442,0.00107308244333,-0.00874066259712,0.00115230493248,-0.0225638542324,0.00157201779075,0.013224854134,0.00798727944493,0.00485737854615,-0.0112075656652,-0.00878084823489,0.00142818584573,-0.020315092057,-0.00410730531439,-0.0137217929587,-0.00717359641567,-0.00514882570133,-0.00730872154236,0.0136665711179,-0.0198897365481,0.00793514121324,-0.0227439459413,0.0197895951569,0.00625760527328,-0.00551627157256,-0.0175792463124,0.0119937416166,0.0186586678028,-0.00517753371969,-0.0260672308505,0.0225877743214,-0.0150512643158,-0.00431836908683,-0.02767823264,0.00611939979717,0.012579748407,-0.019606910646,-0.0254604145885,-0.0253721643239,0.00436647096649,-0.00712101394311,-0.0231368541718,-0.0131998546422,0.00021061442385,0.0033767928835,0.014370390214,-0.0222283191979,0.0202781632543,-0.0201644785702,-0.00423356797546,-0.00305844354443,0.0269896276295,0.0250018294901,-0.0122029865161,-0.00381855806336,0.0176673475653,-0.00071955518797,0.0199090410024,0.0244045183063,-0.0224312115461,0.00359258707613,-0.00575722381473,-0.00302049750462,-0.0197192803025,-0.0108884302899,-0.00981021858752,0.0197743456811,0.00841999426484,-0.0273170676082,0.0229910053313,-0.00155042484403,-0.0172643475235,0.0225938986987,0.000574327073991,0.00729114469141,0.0262784156948,-0.011406798847,0.00424121925607,-0.00453396700323,-0.00194688537158,-0.00968314707279,0.00021402767743,-0.00125357974321,0.00144441402517,0.0041529238224,0.00975205656141,0.0202633310109,-0.00856008008122,-0.00432922225446,-0.0119707789272,0.0159587860107,0.0122465118766,0.00767886312678,0.0191543381661,-0.0202336385846,-0.00687368493527,0.0275326762348,-0.015268985182,0.0149389524013,-0.0119588281959,-0.0264604222029,-0.0255159884691,0.0180347170681,0.00122888479382,-0.0242992993444,-0.0205901637673,-0.00859374366701,0.0140328146517,0.00754162203521,-0.021891631186,-0.00242921593599,0.0104872277007,-0.00690078502521,0.0222881715745,-0.0112985763699,-0.00675862282515,0.00250899698585,-0.00320301833563,-0.0190345235169,-0.014463769272,-0.0148271545768,-0.0203575193882,0.00734450342134,0.0163477454334,0.0147065045312,0.00414518546313,0.0201754197478,0.00748661067337,0.026580484584,-0.00605300348252,0.016910135746,0.0059682042338,0.00316719384864,-0.00371714239009,-0.024241970852,-0.0104340454563,-0.0231709182262,-0.012631688267,0.00904425326735,0.025419851765,0.00729488441721,-0.0193913709372,-0.0249912533909,0.0128799406812,-0.0153785627335,0.00806336198002,0.0211866982281,-0.0269959326833,-0.0149022527039,0.0172484871,0.00877576693892,-0.0112914331257,0.0245236773044,0.00396808236837,-0.010141693987,-0.0170467421412,0.0194960106164,-0.0223946906626,-0.00476439949125,-0.0144487060606,0.0241843666881,0.012662072666,0.00295033655129,0.00895282626152,-0.00345624354668,-0.0199662577361,-0.026336863637,-0.0115711791441,-0.00189834833145,0.010438320227,-0.00313746440224,-0.022247498855,-0.0116421319544,-0.0153323775157,0.0156690683216,-0.0147913014516,-0.0249206516892,0.00120416295249,0.00151121977251,-0.00619895244017,-0.00644968776032,-0.0190789941698,0.000759099028073,0.0207320358604,-0.0193639528006,0.00598833709955,0.00478153536096,0.0128427110612,-0.0261164736003,0.0215925071388,0.0260377861559,0.0131989326328,0.0259748529643,-0.00872322823852,-0.0196702312678,-0.0167906284332,0.00368072185665,-0.0274554248899,-0.00672138109803,-0.0122765898705,0.0268037617207,-0.0159643366933,-0.0135296965018,0.000973878195509,0.0155782522634,0.00465111061931,-0.00803144648671,0.0133220879361,0.0253535714,-0.0210350677371,-0.00575197814032,0.00777081632987,0.0112541196868,0.0268629416823,0.00448898458853,-0.0238166768104,-0.00651911227033,0.00632102321833,0.00768920546398,0.00693357223645,-0.0060878964141,-0.00785905309021,0.000537513464224,-0.00829785410315,-0.0135392677039,-0.021152375266,0.0232175495476,-0.0137854963541,0.00406508753076,-0.0210328064859,-0.0183162335306,-0.0128934336826,-0.025836404413,-0.000728595070541,-0.0115667507052,0.019326787442,-0.0133922537789,0.0254805907607,-0.00987185817212,-0.000166782701854,0.0110715506598,-0.0131577691063,-0.00493150111288,0.011127316393,-0.0119480201975,-0.0194004289806,0.0171167775989,0.0197320263833,0.00383917638101,-0.0236380379647,0.00163109402638,-0.0229292269796,0.0102346651256,-0.0193968210369,0.0131653305143,-0.0200017355382,0.00155425560661,-0.0205245316029,0.0242230407894,0.00864565186203,0.0119031555951,0.00991341192275,-0.0260976366699,-0.0130235627294,0.0163408406079,0.0123556293547,-0.0109956804663,-0.0279420353472,0.0178600344807,-0.000178812348167,0.00166306935716,0.000101146652014,0.0245513468981,0.00955975148827,0.0229185018688,-0.0120509732515,0.0117573458701,-0.018374081701,-0.00364682031795,-0.013246120885,0.0263850390911,-0.00182197079994,0.0071918759495,-0.0160310156643,0.0170238185674,0.017068689689,-0.0261487048119,0.00242378632538,0.00318753137253,0.0210590045899,-0.018060805276,0.00180166587234,-0.0141333723441,0.0161373540759,-0.00468049710616,0.0125611545518,-0.0023441624362,-0.0218935534358,-0.013598957099,-0.00618905806914,-0.0185693595558,-0.00592201063409,0.0032115036156,0.0191207490861,0.0125687476248,0.0267881266773,-0.00867821462452,-0.0183930378407,0.0156143214554,-0.0148500930518,-0.0205177906901,0.01199373696,0.0182632096112,0.0166405290365,0.0241223685443,-0.0208322256804,-0.0227106641978,-0.00753655424342,0.00769895035774,-0.0170215889812,-0.0179241038859,0.013715242967,-0.00917247030884,0.0211931373924,-0.0181349553168,-0.0196163244545,-0.0103934891522,-0.0262103434652,-0.0112724108621,-0.0109967757016,0.00840410962701,-0.00617966707796,0.0223508458585,0.0195774827152,-0.021419448778,0.0208683684468,0.00397158227861,-0.0260111074895,0.0229352917522,0.0185001939535,-0.0200399775058,0.0195003468543,0.000607172085438,0.0143873421475,-0.011698381044,-0.00132642372046,-0.0238489843905,-0.00513221882284,-0.024290272966,0.0259187333286,0.0205561537296,-0.00978380721062,0.0257759112865,0.00807051360607,-0.0100978771225,0.0140036670491,-0.00560853071511,-0.00517728133127,0.00678159762174,0.00134402490221,-0.0120282461867,-0.0268235653639,-0.0104952966794,-0.00492575578392,0.0238581243902,0.0127308899537,-0.0121297929436,-0.0182712003589,-0.0198916271329,0.0206506196409,0.0171435084194,-0.0174001604319,-0.0100209126249,-0.00526949716732,-0.0219117831439,0.0263485908508,-0.021237289533,-0.0229907575995,0.004275534302,0.0106652956456,-0.00233694305643,0.00390767119825,0.0190429575741,-0.00316170183942,-0.00817491766065,0.0213026534766,0.0137169249356,0.0176220200956,0.0214611645788,0.0204283297062,-0.0039558452554,-0.00722337840125,-0.00157836999279,0.00220493040979,0.0209747236222,-0.00363079784438,-0.0192348714918,0.0279961135238,-0.0190989747643,-0.0167134422809,-0.00337017630227,0.00700949365273,-0.0116965379566,0.0101858554408,0.0275397077203,-0.00817626528442,0.026930321008,0.00943427719176,0.0131315719336,0.00738370418549,-0.0140969706699,0.0044878711924,0.00376521679573,-0.0112271439284,-0.00325024314225,-0.0184829663485,0.0177862793207,0.015499195084,0.0134314410388,0.00843149144202,-0.0155421597883,0.0195217505097,-0.025820594281,-0.00189579743892,-0.026643678546,-0.00159145169891,0.00655729137361,-0.0261234007776,-0.0162285193801,-0.0204477142543,0.0134325260296,0.0145235396922,0.0167607124895,-0.0154545791447,-0.00834956765175,-0.00677852658555,-0.0168664176017,-0.00977663788944,-0.0142868580297,0.0235141534358,0.00528540229425,-0.000593531527556,0.011925118044,-0.0261701699346,0.0156912934035,0.00574045348912,-0.0149682080373,-0.000612610834651,0.0105886459351,0.0047211186029,-0.00232114386745,0.0258308183402,-0.0101168369874,-0.0204954538494,-0.00277103693224,0.013259254396,-0.0230671260506,0.0195197314024,0.0241391547024,0.00223294040188,-0.0184779409319,-0.0157016720623,0.00894904695451,0.00191225786693,-0.015467078425,0.0126627869904,0.0175409279764,-0.0131456870586,-0.0201139319688,-0.00479441927746,0.0173444766551,0.0122651541606,-0.0252194162458,-0.0272608008236,0.0172418877482,0.00342047936283,0.0232381299138,-0.0153270512819,0.0145770637318,-0.0141297737136,0.00265273964033,-0.00949266646057,-0.0108504127711,0.00674580363557,-0.0195786897093,0.0230329185724,-0.025441871956,0.00797371193767,-0.00888049043715,0.0127052292228,-0.0260041411966,0.01519523561,0.0133907319978,-0.0204763077199,0.00607805512846,-0.00405700178817,0.0241526644677,0.0139639005065,-0.0118946721777,-0.0143844271079,-0.0146640669554,-0.00282568205148,0.0145068261772,0.0220189709216,-0.00216922350228,-0.0133351916447,0.023468349129,-0.0105010671541,0.014483875595,0.0235902722925,-0.0198742430657,0.00412832805887,0.0172153487802,-0.014280512929,0.0183117091656,0.0194446835667,-0.0117294620723,0.019776314497,0.016593048349,0.0097885383293,-0.0207616388798,0.0119170993567,-0.00517729716375,-0.0237663760781,-0.0264556892216,0.00676599191502,0.0122499158606,-0.0164389424026,0.015239033848,-0.00242102961056,0.0177787635475,0.0195842105895,-0.0159625299275,0.00781967304647,0.0193401072174,-0.0223105996847,-0.0242705978453,0.0030395295471,0.0266481488943,-0.0149486633018,-0.0161528829485,-0.0103400656953,-0.0181001331657,0.0104718375951,0.0101928422228,-0.0244598761201,0.0049375644885,0.0159601327032,-0.00161846389528,0.0141981299967,0.0184482503682,-0.0057604862377,0.00204939371906,-0.0136322844774,-0.0217543113977,-0.00352810416371,-0.0235952325165,0.020110828802,-0.0199176538736,-0.00334818521515,0.0250135045499,-0.0192725751549,-0.00350365135819,0.0269300788641,0.0134227732196,-0.00208679470234,0.0185044649988,-0.00106173474342,-0.0146351978183,-0.00885835569352,-0.0110654085875,-0.021794186905,-0.0146231278777,0.00857725832611,-0.0224335361272,-0.0145217441022,0.0236940309405,-0.0281017012894,-0.017562456429,0.0227267127484,-0.0095711806789,-0.019820459187,0.0259533114731,0.010464547202,-0.00706662843004,-0.0272658057511,-0.000439496041508,-0.0215734299272,-0.00256482744589,-0.0263769794255,-0.0278228726238,0.000947698194068,-0.0119360378012,0.00274169468321,0.0164839737117,0.0117415767163,-0.0261601898819,0.00533683970571,-0.0143833104521,0.0101670734584,-0.0119254477322,0.00378781580366,0.0192029848695,0.00616190582514,0.00220372411422,0.0240850318223,0.0222652088851,-0.00283962348476,0.00536190532148,-0.00182524276897,0.0184533577412,0.0187583826482,0.00882718339562,0.0250016637146,-0.00906242989004,0.0117569090798,0.000303596170852,0.00727528240532,0.0227296203375,0.00424126489088,-0.00704375607893,0.0161334369332,0.0154752898961,-0.0195283871144,0.0267450734973,0.0272592101246,0.0257768072188,-0.0174795072526,-0.0256427973509,-0.0202783625573,0.00639104750007,-0.0245703477412,0.0224431622773,-0.0139863686636,-0.0216819699854,-0.00739781698212,0.0278563536704,-0.0279332883656,0.0140227144584,-0.0270734988153,0.00611227657646,0.0017583668232,-0.0198457613587,0.0200979653746,-0.0219378061593,0.0214748661965,0.0277916323394,-0.00274600367993,0.0182400811464,0.0171340499073,0.0223886948079,-0.0260136742145,-0.0211818274111,0.0237426217645,0.0146493650973,0.0189547706395,0.0164760239422,0.0079334564507,0.0240197051316,0.0224068500102,-0.0199967324734,0.000798923370894,-0.00337050389498,-0.00960033666342,0.000165204517543,0.0170111358166,-0.023200891912,-0.00717447791249,4.47178390459e-05,-0.0049260747619,0.0187822878361,0.0241660475731,0.0149502651766,0.0169373936951,0.0187548603863,0.0253284201026,-0.00359262013808,0.0198566243052,0.0140256779268,-0.00247038109228,0.0175348035991,0.0166937056929,0.02134125866,-0.0234358124435,0.0265404414386,0.00325465435162,-0.00508984876797,-0.0279984325171,0.00171392981429,0.00140361336526,-0.0108842831105,-0.0107436273247,-0.0109839094803,-0.0155052049085,0.0165761634707,-0.00720724649727,0.0017116147792,-0.0260065030307,0.0173178445548,-0.0179384145886,0.020993752405,0.00337061169557,-0.00459609273821,-0.00049720867537,0.00231714360416,-0.00303493766114,0.0106830475852,-0.00677477568388,-0.0186870563775,-0.0266761835665,0.00382927129976,-0.00768210086972,0.0134778376669,-0.0248984061182,0.0101907514036,0.0116750830784,0.00145936233457,0.0203760974109,0.0163466855884,-0.00723264040425,0.00274564395659,0.0101232761517,0.0160517003387,-0.0189060680568,0.0166406873614,-0.00115844211541,0.0209473911673,-0.0242178142071,0.0075612696819,0.00978123210371,0.00104030501097,-0.0276874266565,-0.0119031500071,-0.00184776750393,0.0125730074942,0.026633983478,-0.00395799148828,0.0209579933435,-0.00503420596942,0.0205018799752,0.00415069656447,0.00345210917294,0.00263604940847,-0.00112058443483,0.00122695055325,-0.00839851051569,-0.0173110552132,-0.0223443713039,0.0109496628866,-0.0253463052213,-0.0275101866573,-0.00507964845747,-0.0278950650245,0.0211670845747,-0.0219234135002,0.017151504755,-0.00339058879763,0.0228461343795,-0.0104779703543,-0.0114862369373,0.000102558136859,0.0151389772072,0.00827607978135,0.00299623655155,-0.0228535812348,0.0217131134123,-0.022133693099,-0.0150398705155,0.022259503603,0.0260095149279,0.0206449218094,0.0270124040544,-0.00146107294131,-0.0143974954262,-0.0253209285438,-0.0216725729406,-0.003425240051,0.0139385014772,-0.0136235961691,0.0155808078125,0.0228321757168,0.0189638063312,0.0170927550644,0.0235368590802,0.01608546637,0.0134166134521,-0.0181588325649,0.0212056264281,-0.0156385228038,0.0122311748564,-0.0239262785763,-0.000567828421481,0.00449899025261,0.0231464523822,0.0179606750607,-0.0209472030401,0.0123523678631,0.0274971891195,0.0234077442437,-0.0213306862861,0.00556011823937,-0.00693080341443,0.00989775266498,-0.0261961072683,-0.0197741836309,-0.0091117946431,-0.0195534266531,0.0207825060934,-0.0137290526181,-0.0201306100935,0.019127599895,-0.00707260053605,0.0260843746364,-0.0230754390359,-0.023837108165,-0.0232949908823,0.0126984156668,-0.0239940956235,-0.0261150877923,-0.0049521336332,0.00234859553166,0.0173950344324,0.00530176330358,0.0167160425335,-0.0159431919456,-0.0231916829944,-0.00450761197135,-0.00722639029846,-0.017591079697,0.00164254533593,-0.0221378616989,0.0154631417245,-0.00233342451975,-0.0257796179503,0.0279038306326,-0.0192221626639,-0.0145061230287,-0.0231407936662,-0.0114090405405,-0.0239309351891,-0.0199922472239,0.0233422145247,0.0276750810444,-0.00626728450879,0.022344654426,0.00803856458515,-0.0237083379179,0.0257503837347,0.0112685263157,-0.0220825430006,0.00861509423703,-0.0257960855961,0.00842391140759,-0.0265293326229,0.0268698334694,-0.0133441379294,-0.0256870668381,-0.0150941582397,0.0215867497027,0.014686897397,0.0181659460068,-0.0264900606126,-0.00449656834826,0.0254677217454,0.0114315263927,0.00201121065766,0.000599128426984,-0.00795670226216,0.0155588183552,0.019314981997,0.0142552033067,0.0259549785405,-0.00498894508928,0.0279004573822,0.0233485512435,-0.0216268971562,0.0256047919393,0.00238200300373,0.0179561991245,-0.00832558609545,0.0221462156624,-0.0214579347521,0.0197941940278,0.00705851241946,0.00839806161821,0.000484677118948,-0.0113044921309,0.0125300809741,0.00935955159366,0.0126096531749,0.0178041700274,0.00653077522293,0.0148001192138,-0.0212057642639,0.0279187578708,-0.00948989298195,-0.0182742420584,-0.00614566076547,0.020757753402,0.0147918928415,-0.0229763854295,0.0162589084357,-0.0168920792639,-0.00522656273097,0.0123179601505,0.00641418993473,0.0284082144499,-0.0246613994241,-0.00977851822972,-0.017499551177,0.0281130727381,0.0205877013505,0.0171044636518,0.00737394532189,-0.0118521181867,-0.0101580899209,-0.00905449595302,-0.0116965500638,-0.0102812424302,-0.0111700817943,0.0107965916395,-0.0268500838429,0.0194801278412,0.0205515045673,0.00175366469193,-0.0263615231961,-0.026254536584,-0.0197672024369,0.0231825541705,-0.0118374237791,0.00242896657437,0.00451774802059,-0.0232946332544,-0.021507140249,0.00570889050141,0.007220341824,0.0253363456577,-0.00435237539932,0.012172778137,0.00967268273234,0.00684112356976,0.00756556494161,-0.0220812428743,-0.0216250568628,0.0238165128976,-0.0216373130679,0.00638250354677,-0.0144325168803,-0.00176649540663,0.0238928496838,-0.0262074135244,-0.0239027757198,0.0167313218117,-0.0234885625541,-0.0236506592482,-0.00294935610145,0.00935973506421,0.00838137976825,-0.0200418867171,-0.0102757131681,0.0110130207613,0.0126927988604,0.010781432502,0.00877584051341,0.0115393493325,-0.0250959545374,0.0107016237453,-0.0220557674766,0.0112007679418,-0.00931826420128,0.0143095990643,-0.00558680901304,-0.0150286629796,-0.00372100062668,-0.00571025675163,0.0226471032947,0.0220275186002,0.0257430113852,0.00534153543413,0.0169351361692,0.0258342083544,-0.0219019949436,0.00284030847251,-0.0143940988928,0.0247706845403,-0.00863329414278,0.00269965897314,0.011131234467,0.0267895814031,0.0182152930647,-0.0162590742111,-0.0257995165884,0.0159777943045,0.0235871020705,0.0192484688014,0.0133107425645,-0.0251550599933,0.00603146478534,-0.00331807811745,-0.0213215257972,0.00134442339186,-0.00885894522071,0.0171589832753,0.0264493562281,0.0170980412513,0.0253386143595,0.0255068130791,0.0211264248937,0.0155366193503,0.0262458473444,-0.0167957805097,-0.00286182574928,0.00197411794215,0.0223977770656,0.0198272224516,-0.0203614700586,-0.0193385314196,-0.0219477936625,-0.0265945661813,0.0239891372621,0.00237416243181,-0.00570269720629,0.0238410197198,0.0144313843921,-0.0274554267526,0.0192010849714,0.0249124541879,-0.00896087475121,0.0098535977304,-0.0114800985903,-0.00336024537683,-0.00585542153567,0.0126452762634,-0.00984513759613,0.00902889482677,-0.00815193820745,0.00516860140488,0.00809577014297,-0.0111431358382,0.0133797144517,0.0212980434299,-0.0189605783671,-0.0137528320774,0.0170131698251,0.00848812423646,-0.00311067025177,0.021999232471,0.0210684034973,0.0116913160309,-0.0111658554524,-0.0054565477185,0.0208809748292,0.024255272001,0.0153036667034,0.0257798116654,-0.00346848624758,0.00257990020327,-0.0114090805873,0.00564158381894,0.0108303939924,-0.0273372661322,-0.00292154890485,-0.0155696757138,0.0134420217946,-0.00143037294038,-0.00573526136577,8.10712590464e-05,-0.0259607359767,0.01636685431,-0.0101297693327,0.022123593837,-0.0249529685825,0.0111300237477,0.0122221698985,0.00260845851153,0.00681654782966,-0.00329432985745,-0.00638733385131,0.000241408517468,0.000366740889149,-0.00591917987913,0.00805888604373,0.01016693376,-0.0179860945791,-0.0268937926739,0.00860732141882,0.0265607256442,0.0244100466371,0.0272471383214,-0.00183579104487,0.000548011856154,0.00984129682183,0.00761729013175,-0.0242268722504,-0.0185245145112,0.0227544065565,0.0190244037658,0.0028164985124,-0.000889122427907,0.0112179527059,-0.0226391199976,0.0200119949877,-0.0109295770526,0.0267168469727,-0.00550744635984,-0.00870103947818,-0.0180193781853,0.0256212037057,-0.0012301444076,0.0268563777208,0.0213055983186,-0.012782080099,0.0181459449232,0.00569166382775,0.0114070661366,0.0093705477193,-0.00533766904846,0.0109423073009,-0.0228587146848,-0.01205196511,0.0128898033872,0.0179057084024,0.00039294429007,0.0217880550772,0.010947602801,0.0169556960464,-0.0102190831676,0.00154505076353,-0.00890208315104,-0.0205827299505,0.00932405795902,-0.0245192050934,-0.00312815327197,-0.0198808927089,-0.0228098947555,-0.00611299043521,-0.00966599397361,-0.00977961253375,0.0188726279885,-0.0175571888685,0.000360405392712,-0.0222291983664,0.0245198812336,-0.010844502598,0.0121433250606,0.013536256738,0.00674289744347,0.0258432906121,-0.00273753935471,0.0112583814189,-0.0153555413708,0.0232425145805,-0.00679704966024,-0.00227380637079,-0.0202365927398,0.00889271497726,0.0242220982909,0.0211860109121,-0.00862786453217,0.0164970271289,-0.0126585699618,0.0135694257915,0.0128436367959,0.00113672320731,0.0192713160068,0.0130141172558,0.00309630669653,-0.00931439362466,-0.0278421752155,0.00924941990525,0.0147592639551,-0.00183043966535,0.0129528297111,-0.000464009732241,0.0199475847185,0.0116346729919,0.0212854780257,0.00517268432304,0.0185089297593,-0.024376122281,-0.00327678769827,-0.0101116420701,-0.00599778769538,0.0245752558112,0.0147020993754,0.0185277443379,0.027833558619,0.00999535433948,-0.0164769552648,0.00291909975931,0.0218661110848,0.00483895698562,-0.00496538961306,0.0282237995416,-0.0202841553837,-0.0139044737443,-0.00379586475901,0.00210758042522,-0.0173343736678,-0.00230587134138,0.00768796401098,-0.011295363307,0.0145544921979,0.026428969577,-0.0276392865926,0.0204646624625,-0.0121590588242,0.00112090725452,-0.0236621256918,-0.0217865910381,0.0163996275514,0.0117062050849,-0.0195965543389,-0.00116041302681,-0.00682709086686,0.00313989887945,0.0163831803948,-0.0164985787123,-0.0118447085842,0.00220013572834,-0.0201527811587,-0.021952887997,-0.00857111345977,-0.00508356327191,-0.0231188572943,-0.00416090711951,-0.0143346218392,0.00476016802713,-0.00443205190822,0.00108513259329,0.000899652717635,0.014675966464,-0.019889594987,0.0207090526819,-0.0127871120349,-0.003419195069,-0.0134518463165,0.00708328234032,0.0231694784015,0.0174723416567,0.00894075166434,0.0245924834162,0.00557728018612,0.00837099552155,0.0174776017666,-0.0114790666848,0.00936798285693,-0.0110672898591,0.0236967336386,-0.014581666328,0.0245819576085,0.00680840667337,-0.00625923043117,-0.012678203173,-0.0270491167903,-0.0140447346494,0.000808695680462,0.0175696797669,-0.0038265872281,-0.0177252870053,0.0134459780529,-0.0100476117805,-0.0111906398088,-0.0276194922626,-0.0042286273092,-0.0154162859544,0.00415733084083,-0.00124398258049,-0.0214491281658,0.00728539610282,0.0199939012527,0.0232496839017,0.0226819701493,-0.0179366115481,0.0138117996976,-0.00791531521827,-0.0207669772208,-0.0247942898422,-0.0171240214258,0.0129788760096,0.0264101587236,0.00910944491625,0.00730652036145,6.19202619419e-05,0.00891417637467,0.00884654559195,-0.000803387607448,0.0198022928089,0.0142808929086,0.0215756483376,-0.0185412000865,0.00317919347435,-0.0224789399654,0.00642979517579,0.00495942961425,-0.0135170184076,0.0050315153785,0.00157145503908,-0.0131191806868,0.00946032535285,0.0246564615518,0.00846425630152,0.0170074347407,-0.0112486388534,-0.00431114481762,0.017275614664,0.00273136468604,-0.0204111579806,-0.0177908595651,0.0216796565801,0.0216503627598,0.0189076494426,0.027185479179,-0.0165369119495,0.017882110551,-0.0118543235585,0.00675498181954,0.0281085055321,-0.0207884460688,0.0165496841073,-0.00601355778053,0.00109845760744,0.019936921075,0.0144447945058,-0.0108970049769,-0.0263106953353,0.0167827121913,-0.00381820090115,-0.00796914473176,-0.00821664184332,-0.0177228264511,-0.0106934867799,0.0049636871554,-0.0155529640615,-0.0159276220948,0.0139291686937,0.00162533216644,-0.00974327139556,0.0237215142697,-0.0206059571356,0.00961357075721,-0.0173263549805,0.00660558277741,-0.00876052305102,0.00353829283267,0.0116622718051,0.0156951341778,0.0102276531979,-0.02175665088,4.19855532527e-05,0.0225687362254,-0.0040941471234,-0.0174745433033,-0.012009980157,0.00227951048873,0.0185356400907,0.0249162521213,0.00706246681511,0.014268531464,-0.0179739613086,-0.0238091405481,0.0145082622766,-0.000358399614925,-0.0126794511452,0.0133998245001,-0.0238701999187,-0.00696876458824,0.00547823635861,0.0207891892642,0.0117437709123,-0.00992206390947,-0.0159076768905,-0.0196770876646,0.0205240715295,0.000649252906442,0.00320986425504,-0.0234051067382,0.00468611158431,-0.00219846586697,-0.00753062125295,0.00676465593278,-0.0129564087838,0.00749056274071,0.0144880944863,-0.00648398138583,0.010294017382,-0.0175481643528,-0.0194791909307,-0.0247148852795,-0.00326924282126,-0.00423119822517,0.0277118403465,-0.022892113775,0.0114282499999,-0.00621206779033,-0.0239794664085,0.000766126497183,0.0263807103038,-0.0259809754789,0.0126953562722,0.0252950619906,-0.0150937279686,0.0247732009739,0.0133889755234,0.0178487356752,0.00545999733731,-0.00104313064367,0.0284890830517,0.0233760718256,-0.0173834562302,0.011098086834,-0.015022543259,-0.0272282715887,0.0276820622385,0.00290037877858,-0.0103593226522,-0.00269331596792,0.0145521061495,0.0252693071961,-0.0059894695878,0.0148733016104,0.00804036483169,-0.0163891334087,0.00574655085802,0.0167513955384,-0.00922817364335,-0.0233886037022,-0.020615875721,0.0207476150244,0.00568304164335,0.021553883329,0.0124857090414,-4.56296311313e-06,0.0265036392957,-0.0184171423316,-0.0192869119346,-0.00593671994284,-0.0122320102528,-0.026073044166,-0.0182351879776,0.0272048059851,-0.0121390884742,0.000325687375152,-0.0187889672816,0.0232623070478,-0.00786535441875,0.0276112128049,-0.0220509525388,-0.0040032370016,0.0174208562821,0.00296851247549,0.00438459962606,-0.0256285481155,-0.0100818900391,0.00167905725539,0.0151483258232,0.0130796348676,0.00373527547345,-0.0077967918478,-0.0204949919134,-0.0235191620886,-0.0201505534351,-0.0135723780841,-0.0185714084655,-0.0199394281954,0.0208299607038,-0.0092745879665,0.0023303120397,0.0253386758268,0.0236214715987,-0.0161401629448,0.0110542476177,0.00527798710391,0.0149478754029,-0.0166664980352,-0.0177051275969,-0.0204019807279,-0.0260801874101,-0.0271699670702,-0.0244826897979,0.0267272256315,-0.0273280423135,0.0175742637366,-0.00215012952685,0.0107682598755,0.00166512222495,-0.0146157294512,-0.0214534811676,0.000869547307957,-0.0235363375396,0.00875569134951,-0.0201070904732,-0.0246324576437,0.0242122001946,0.00962193403393,-0.00479114288464,-0.019773574546,0.0264960546046,-0.00981501303613,0.00959536898881,0.00674181152135,-0.0193409081548,-0.0161934848875,-0.0270401332527,0.0159138236195,0.0136019447818,0.0241901688278,0.0155564984307,-0.0136702712625,0.00286324624904,-0.0158252827823,-0.00369576690719,-0.024415621534,-0.024575099349,0.0124400202185,0.023522246629,0.00580332381651,0.0150098958984,-0.00987247005105,-0.00815768633038,-0.0276960153133,0.0265335869044,0.0191678311676,-0.0182533357292,0.00297814863734,0.0246084742248,0.000922497536521,-0.0126245273277,-0.0167095474899,0.0104048317298,-0.00987525098026,0.00898554269224,-0.0253565181047,-0.00467216782272,-0.0198156945407,0.0186828430742,0.00597748020664,-0.0207610242069,-0.0197930447757,0.00234246556647,-0.000239845612668,-0.021664634347,0.0225740112364,0.0190716776997,0.0118354670703,-0.0110677387565,-0.0163025911897,0.0193495247513,0.0173257142305,0.0231475066394,0.00346261053346,0.0154589824378,-0.0165545996279,-0.0233871154487,-0.00793784484267,-0.0255973022431,0.0008014512714,0.00306789530441,-0.00593332434073,-0.00598489260301,-0.0032084917184,-0.00200424622744,-0.00798207428306,-0.0223725754768,-0.020332030952,-0.02597620897,0.0157554280013,0.0196500457823,-0.0125591149554,0.0154749425128,0.0220093745738,-0.0127802053466,0.0169905908406,-0.023618273437,-0.0197662170976,0.0189096387476,0.0150398975238,0.0210216380656,0.0128830661997,-0.00680380966514,0.021530976519,-0.0223204959184,-0.00265284185298,-0.00300299725495,-0.024888234213,0.00880365259945,0.00281285424717,-0.00031526942621,-0.0253627188504,0.0175622031093,0.0146505432203,0.0157040413469,0.00398575654253,-0.00411939993501,0.0193913225085,0.0175087992102,0.0257981885225,-0.0213150661439,0.0227132905275,0.0269628167152,0.0164612345397,0.00029049339355,0.0268284939229,-0.00514858169481,0.0225997883826,0.00957647990435,-0.000768438039813,-0.00434135785326,0.00761812599376,0.00943218264729,0.0185454357415,-0.0167089477181,0.00899641308933,0.0017596213147,-0.0187833812088,-0.000110817381938,0.020990492776,0.0261409208179,0.0130334123969,-0.00659953523427,-0.0157170873135,-0.0238952990621,-0.0160531364381,0.0217538662255,-0.0200571585447,-0.024075563997,0.0198955629021,0.0177104398608,-0.0194175317883,-0.015089395456,0.02349999547,-0.0242146514356,0.0108138434589,-0.0133478436619,-0.0146064283326,-0.00666020996869,0.00148746476043,0.00907185208052,0.0123184025288,-0.0263765268028,-0.00634195888415,0.0160159189254,-0.0248951241374,0.00061093387194,0.000418161012931,0.0283029414713,0.00588553398848,0.0168373137712,-0.00333216623403,-0.00163668661844,-0.025772633031,0.0139742530882,-0.00260944920592,0.0194392744452,-0.0129098091274,0.019989201799,-0.0257383957505,-0.0165770314634,-0.0138726960868,-0.00846899673343,0.00135864550248,0.0134792318568,0.0138658527285,0.0183483902365,0.0117333279923,-0.000530664750841,0.0125232050195,-0.00497570075095,0.00571255665272,0.00941137876362,0.00640894472599,0.0128138000146,0.0241621211171,0.0143244182691,0.0283054709435,0.016657654196,-0.0199782457203,0.0214752331376,0.00914380978793,-0.0236859563738,0.0204216055572,-0.024193784222,0.0208817012608,-0.0260084364563,-0.0171560328454,-0.0211357492954,0.0145607031882,-0.00608878303319,-0.0218928419054,-0.00688190385699,-0.00140247284435,0.0245607960969,0.00545611325651,0.0152059858665,-0.0090747801587,0.00713832862675,0.00341273471713,0.0161549281329,-0.00236175721511,-0.023540712893,-0.0249044504017,-0.0121026914567,0.0181750077754,0.0251188799739,-0.0249346122146,0.0112469224259,-0.00831841025501,0.0189499948174,-0.0130850961432,0.024251177907,0.0053939493373,-0.00349216605537,0.0158228818327,0.017100147903,-0.0196373201907,-0.00837668776512,0.00906782783568,-0.00546331610531,0.000918918580282,-0.0198251288384,-0.00961389951408,-0.0269603412598,-0.00758371734992,0.0281425230205,0.00324305286631,-0.0182613730431,0.000458182912553,0.0214759074152,0.0189824141562,-0.0225212518126,-0.0124020148069,-0.0270987786353,0.0098565928638,-0.00801628828049,0.0215414278209,0.00235382281244,-0.0188821032643,0.0135415652767,-0.0072679053992,0.00611315621063,-0.0188332851976,0.0266938377172,-0.00755926501006,0.011558313854,0.00323062809184,0.00951351132244,-0.00574716925621,0.017971182242,0.0151068549603,-0.0212044306099,-0.00230112019926,0.0131628988311,-0.00510344235227,0.0216107722372,-0.0183131787926,0.011144593358,0.00503231305629,0.0108381370082,0.00485363556072,-0.0194411370903,0.00309621589258,-0.0204090308398,-0.0144033934921,0.0217931810766,-0.00452343188226,0.00671465322375,0.0268124230206,-0.0219317488372,-0.00096193124773,0.0060869208537,-0.0246934369206,0.0203545298427,-0.0208672061563,0.00559147680178,-0.012451111339,-0.00941961444914,0.0154574057087,-0.00707141403109,0.00571346841753,-0.00851878430694,-0.0170657671988,-0.0079202093184,-0.0216824952513,0.00856681726873,-0.0199108999223,0.00157235690858,-0.0178470406681,0.0172602832317,-0.0175322871655,0.0157232116908,0.0121499206871,-0.0226156078279,-0.0138197895139,-0.00333573529497,-0.00396758085117,-0.0268444381654,0.00180056469981,0.0235050395131,-0.0274692233652,0.0175766088068,0.0113104777411,-0.0274843666703,-0.0182859525084,0.0217439886183,-0.0186312459409,-0.0240538846701,0.00490317773074,0.000935120857321,-0.0185636654496,0.0223420727998,0.0197513885796,0.00814979895949,-0.021526766941,-0.0125510301441,0.0192076936364,-0.0125413676724,-0.0181621890515,-0.0196888297796,0.00303121143952,-0.0105923842639,0.00487274909392,0.0191553421319,0.021934941411,-0.0199025738984,0.0104135731235,-0.0196221079677,0.0109292995185,-0.0246051903814,-0.00897595658898,0.0224259253591,-0.0261402856559,-0.00418736925349,-0.00991419702768,-0.0211471170187,0.00736611708999,-0.00304865650833,-0.025090618059,-0.00575198698789,-0.00289444974624,-0.0103357173502,0.0101749254391,-0.0196634493768,-0.0223834197968,-9.40869285841e-05,0.000858929415699,0.0148013280705,0.0253045093268,-0.0253401771188,-0.00965141877532,0.0226952973753,-0.0251377560198,0.017167372629,0.0119105679914,-0.00233945064247,-0.015016338788,0.0142983580008,-0.0152185438201,-0.0193066261709,-0.0251629017293,0.0260631423444,0.000654068833683,0.00481841387227,-0.0135271912441,0.0142745133489,-0.0147921610624,0.0198057312518,0.015293979086,-0.0161435026675,-0.00567604368553,-0.0237124022096,-0.0119907176122,0.0176938530058,0.0253028571606,0.0282793994993,0.0218135640025,0.00802315119654,-0.00353173795156,-0.00206179614179,0.0122109213844,0.000917539873626,-0.0238975901157,-0.0126602612436,-0.0018020963762,0.0160813629627,0.00898484606296,0.0255223438144,0.0107255503535,-0.0139783611521,0.0108776167035,0.000780816131737,0.0137197850272,0.0172282233834,0.0201637744904,-0.00623483769596,-0.0105508901179,-0.0109614515677,0.017959581688,-0.0223382599652,0.0112988641486,-0.017873223871,0.00900901015848,-0.00924225524068,0.0281896945089,-0.026036830619,0.00686615984887,0.00226969062351,0.0128582417965,-0.0218411516398,-0.0227159652859,-0.0224900301546,-0.00215199543163,-0.0165824256837,-0.00933120585978,-0.0178470909595,-0.00868950318545,-0.0240135975182,-0.00463936058804,-0.0106057105586,-0.0140425236896,0.00253536086529,0.00636671436951,0.0108326384798,0.026138773188,0.0027743158862,0.0266018602997,-0.00229522818699,0.000303077831632,0.0108970608562,0.0045592263341,0.0161870829761,-0.00714083760977,-0.0131640378386,-0.014530191198,-0.0156027404591,-0.019270543009,0.0237717200071,-0.0161184016615,0.010226925835,0.0116401324049,-0.0120911616832,-0.0267795547843,-0.022254679352,0.0161946676672,-0.0184381026775,0.0230712797493,0.00778854405507,-0.0154961692169,0.0120884813368,0.0224865842611,0.0110402340069,-0.0243625026196,-0.0101118190214,-0.0142825553194,-0.0244691558182,0.00392039259896,-0.0234974995255,0.0123630026355,0.0231132227927,0.0235760100186,0.0233336184174,-0.00290339649655,-0.0272968690842,-0.0130644356832,-0.0229659676552,0.00112358096521,0.0280475616455,-0.0192635655403,0.0178389623761,0.012619625777,-0.010455830954,0.017463862896,-0.0191911272705,-0.00532599398866,-0.0219203084707,-0.0240195747465,0.00212350860238,-0.00817067176104,0.0258563589305,-0.0245104618371,0.00532944966108,0.0232716817409,0.0202968008816,0.0167280491441,-0.0236790049821,0.00959430355579,-0.00277009257115,-2.58213913185e-06,-0.0170140843838,0.0155796492472,-0.0116435503587,0.00143008329906,0.000345242908224,0.00719895819202,0.00157582259271,-0.0159738305956,-0.00268477434292,-0.013205322437,-0.00566175347194,-0.000223730734433,0.0276604741812,0.0111616132781,-0.00285462243482,-0.00568523304537,0.00275411992334,-0.000594242184889,0.012317257002,0.00933798961341,-0.0209965594113,0.00956362951547,-0.018438603729,-0.00634639849886,-0.0034475508146,0.00852517224848,0.0191053152084,0.00505416607484,0.00594429159537,3.3032567444e-05,-0.0182129945606,0.0205862913281,0.00696314359084,0.0116505241022,-0.0100550381467,0.0262864995748,0.00728843500838,-0.00620970781893,0.0126415742561,-0.0208895560354,-0.0212656110525,0.0203852262348,0.0265689380467,-0.0206658393145,0.0224645715207,0.0251061972231,-0.0127523206174,0.0224773790687,-0.00901104044169,0.0183038134128,-0.0159850604832,-0.00252663879655,-0.0181930754334,0.0237274561077,0.0115341618657,-0.0167841929942,0.0164826326072,0.0171245187521,0.00447059934959,-0.0157751999795,0.00915631931275,-0.00576317636296,0.0214740056545,-0.00169962493237,-0.0101656559855,-0.0016230577603,0.0262487456203,-0.00641211727634,0.0233617667109,-0.000621922779828,0.0281517039984,0.0195719841868,-0.0237870831043,-0.00743000768125,0.0142689365894,0.025930756703,0.0244463849813,-0.00631626695395,0.0147377951071,-0.0171062983572,-0.0102882813662,-0.0232525039464,-0.00977623928338,0.0122946677729,-0.00387262227014,-0.00213514012285,0.000120498058095,0.017504805699,-0.00419944524765,-0.00817496702075,0.0234441887587,0.027419121936,0.00569947436452,-0.0118761043996,-0.0116441249847,0.0178687646985,0.0247784145176,-0.0123531157151,0.0235599409789,0.00630602613091,0.0152958799154,0.0222231503576,0.0231267455965,0.0224236380309,0.016822969541,0.0250437036157,0.0046775219962,0.0199700109661,-0.0277042873204,0.0215780194849,-0.000588809081819,-0.00902200397104,-0.0162187516689,0.00908245705068,-0.0168429855257,-0.0179958902299,-0.0150507092476,-0.0147152021527,-0.00382237974554,-0.00674111256376,0.0142025286332,-0.0107757393271,0.00202769134194,0.0125106815249,-0.0106460824609,-0.0230929795653,0.0193259399384,-0.00610220246017,-0.023896496743,-0.0137310186401,0.0199514161795,0.0272955000401,-0.0215984545648,-0.00767493760213,-0.00311186583713,0.000642614497337,-0.0180432535708,-0.0259865000844,-0.0208502877504,0.014999027364,0.00402265088633,-0.0216695256531,0.0215278398246,-0.013208755292,-0.00269951135851,0.0037343245931,0.0256493855268,0.0270346794277,-0.0178291797638,0.00265601929277,-0.0228818226606,-0.00825277157128,0.0092051839456,0.0261492542922,-0.00706743542105,-0.0140688251704,-0.00249667232856,0.0113689117134,0.00708237290382,0.0251160077751,0.0125293973833,-0.025051785633,-0.0238729324192,0.00260690692812,-0.0257840976119,-0.0208353940398,-0.010033596307,-0.0277622751892,0.00489171454683,0.00771606341004,-0.0207046922296,-0.0170065592974,-0.0194998979568,-0.00775270583108,-0.0271865483373,-0.00715942261741,-0.00886534154415,-0.023736378178,0.00484573468566,0.0257656499743,0.0272200070322,0.0264601130038,-0.0123377041891,-0.0234772823751,-0.00224787695333,-0.01919532381,-0.00619184272364,-0.026904778555,0.0276623852551,0.0229197405279,-0.0221956409514,0.0278492439538,-0.0201085433364,0.0152301099151,0.0241896510124,-0.0231223460287,0.0260308161378,-0.0223826933652,0.0251057073474,-0.00289217708632,0.00467643979937,-0.0279077254236,-0.0116106048226,0.0142725640908,-0.0088901091367,0.00277009117417,-0.000962240796071,0.0112902345136,-0.00858835782856,-0.016402926296,-0.0199016351253,0.0261420533061,0.00920127052814,0.00903314445168,-0.0163739118725,0.00811293628067,-0.016678288579,0.0118330381811,0.00053924752865,-0.00172743760049,0.0265474803746,-0.0126099698246,0.00480407010764,-0.00665224157274,-0.0138024827465,-0.0241486988962,0.00142671982758,-0.0171943400055,-0.0120762111619,0.015106420964,0.0200467500836,0.00829173997045,0.0279735308141,-0.0172500982881,-0.00467783538625,-0.0123875783756,0.0110297938809,-0.0168200023472,0.0266736764461,-0.0245410837233,-0.0108023425564,0.00311537249945,0.00785238947719,-0.0125719746575,-0.0207752790302,0.000473323656479,-0.0234901644289,-0.00450555467978,-0.00324937677942,-0.00360263092443,0.00711317779496,-0.00242652767338,-0.0079008936882,0.00223183073103,0.0125371189788,0.0049014929682,0.0210734307766,-0.0136406030506,0.00325309555046,-0.0201813634485,0.000632548762951,-0.00566491205245,0.0214162841439,0.0139669217169,0.00114033010323,0.0240223724395,-0.0160700660199,0.0217793062329,0.0057033826597,0.0234698057175,-0.00718280952424,0.0255067627877,0.0172585435212,-0.0156248081475,0.0234540458769,-0.0129677923396,0.0141672175378,0.0021406672895,0.000114182039397,-0.0205290932208,0.0183026250452,-0.00221127504483,0.00909592863172,0.0210087671876,0.0245099253953,-0.0164502710104,0.00553541118279,0.0166120175272,-0.0137289818376,-0.00837313942611,0.0274325925857,-0.0109101440758,-0.0145892752334,0.0213078744709,-0.0150170819834,-0.0159356370568,0.00867053214461,-0.0177819784731,0.00424203369766,-0.0279902797192,-0.0214143693447,0.0126164518297,-0.0152968503535,0.00924624782056,-0.00209495425224,-0.00527260033414,-0.0071846046485,-0.0173721909523,-0.00227196025662,-0.00614219764248,0.000193121712073,0.00572702893987,0.00995919946581,0.00154094875325,-0.00855300296098,8.77874408616e-05,-0.0158425513655,0.0270097032189,-0.0132465474308,0.0222173444927,-0.0106261130422,0.0108565688133,-0.020850032568,0.0160829368979,0.010713191703,0.0202318634838,0.0249248314649,0.00639071222395,0.0208276957273,0.0164714958519,0.0176822114736,-0.0213149171323,0.00985663197935,-0.00636898074299,-0.0133323464543,0.00872812047601,-0.00163958244957,0.00370639143512,0.0230817086995,-0.00576878059655,0.0126602156088,-0.0132526075467,0.0108121642843,-0.00811442174017,0.0116204842925,0.0104920966551,0.0227575432509,-0.0243041440845,0.0148127786815,0.0277043376118,-0.00503357686102,-0.014800209552,-0.0101768476889,0.000329935166519,-0.0205237846822,0.00287281093188,0.0100526530296,-0.00325464573689,-0.0271781980991,0.0216247290373,0.018832474947,-0.011447802186,-0.0149776758626,0.0189474709332,0.0152235999703,0.0204276461154,-0.0189498215914,-0.00592106347904,-0.000316272402415,0.0197480078787,0.0111558651552,-0.0101536745206,-0.0233637429774,-0.0274148527533,0.00910772290081,-0.0251997821033,-0.0183937717229,0.0182672962546,-0.0209310390055,-0.013459591195,0.0115567957982,0.00505453627557,-0.0230345260352,-0.00562222674489,-0.00937442667782,0.000530796532985,-0.0254652816802,-0.0178792718798,0.026564931497,-0.00153346348088,-0.0143083939329,-0.00205603265204,0.0253357086331,0.014311619103,-0.0109898829833,-0.0103836283088,0.00220291176811,-0.0188770014793,0.0121128140017,0.01799784787,-0.0093539217487,-0.0250174645334,-0.00554714817554,0.00156040559523,-0.0216269437224,-0.0116687100381,0.00276556424797,-0.0152417961508,-0.0276239290833,-0.00139272166416,-0.0178746134043,-0.0240152105689,-0.0238065645099,-0.018376737833,-0.00249246438034,0.00593453692272,-0.000823594862595,0.0248989723623,-0.0178400445729,-0.00439306022599,-0.0166967585683,-0.00371624436229,0.0261758659035,-0.0258447807282,-0.00161057920195,-0.00475424015895,0.0268715657294,-0.025008674711,-0.0181221589446,-0.0155623117462,-0.010123565793,-0.0069807395339,-0.00642228871584,0.0121354470029,-0.0275343097746,0.0178086459637,0.0203975923359,-0.0124301761389,-0.00228455848992,0.0129026537761,0.0117106055841,0.0207226891071,0.0216243658215,-0.0274196639657,-0.0241730604321,0.00855288282037,-0.0140124065802,0.00981315597892,-0.00347515940666,0.0152441896498,-0.0130338594317,0.0156360212713,-0.0181499235332,-0.00603764085099,0.00828733574599,0.0202157497406,-0.0151036614552,0.00927386712283,-0.0179132465273,-0.0226960889995,-0.020260034129,-0.0190731696784,-0.0242064986378,-0.00450223824009,0.00655730860308,-0.0111524285749,-0.000626814959105,-0.0231884792447,0.0251917950809,0.00466232327744,0.0194972418249,-0.00505205290392,-0.0247695595026,-0.00859117601067,0.0273052826524,0.010936005041,0.0213499106467,0.0187027864158,0.014032359235,0.000726954487618,-0.0113246552646,0.0115448506549,0.0238624475896,-0.00721964845434,-0.00677884882316,0.0164625756443,0.0196806360036,-0.0237418860197,-0.00712103769183,0.0124418986961,-0.018204646185,-0.00789196416736,0.0200909990817,-0.00628958083689,0.00486780377105,0.0135779622942,-0.00204064697027,0.00507705984637,-0.00282619148493,0.0259016733617,-0.00617947569117,0.0257813856006,0.0228677745908,-0.0213314220309,0.0115636242554,-0.0202825982124,-0.0215667728335,-0.0175518337637,-0.00344746629708,-0.0204742904752,0.00201652571559,-0.0186203233898,0.00888890307397,0.00232397415675,-0.0235115308315,0.00807063654065,0.0199266262352,0.0125094978139,-0.00308094825596,0.0247008875012,-0.0147935952991,0.0150642534718,-0.0239556264132,-0.0225467905402,0.0181932672858,0.00912635214627,0.0113879982382,0.0189282987267,0.0137744620442,0.0263397749513,-0.0258339960128,-0.0087312059477,-0.0126952137798,-0.01835154742,0.0249480102211,0.0161857362837,0.0174226798117,0.00975053105503,0.00772928632796,-0.017837414518,0.00289043039083,-0.0250068493187,0.0229824911803,-0.0241939462721,0.0161938741803,-0.00267848884687,0.00208531459793,0.0100354226306,-0.0204439200461,0.00790262408555,0.0195549540222,-0.0234987847507,-0.0126856835559,-0.0199015773833,0.00232338835485,0.0187045224011,0.0276573356241,0.0259906686842,-0.0198225472122,0.0097587313503,0.022894654423,-0.00185411132406,-0.000698333140463,-0.00380352279171,0.027977919206,-0.026956718415,0.0140565140173,-0.012246793136,0.00133615743835,-0.0164252333343,-0.00844781380147,0.0231795608997,-0.0269263405353,0.019156947732,0.00807102583349,0.0262045003474,-0.0098939621821,0.0111345760524,-0.00446312502027,-0.0174432490021,0.0109613286331,-0.0264779143035,-0.0278727915138,0.0244946349412,0.0135534955189,-0.0184270814061,-0.0197751186788,-4.0009705117e-05,-0.0110756494105,-0.0145966149867,0.0153819965199,6.98517833371e-05,0.00563430041075,0.0259562451392,-0.00841773953289,0.00573805440217,0.0238499324769,0.0054965200834,-0.0269064772874,-0.00365220010281,0.0213299226016,0.0166238285601,-0.0233109761029,0.0185952056199,-0.0180949755013,0.0139930341393,-0.0112955281511,0.00792071409523,-0.00512436870486,0.0186795499176,-0.000808181182947,-0.0159090831876,0.00401699682698,0.0246029980481,0.00123997591436,0.0201774407178,-0.0193214826286,0.0177267678082,0.013221187517,0.0094662765041,-0.00731221865863,0.00332165369764,-0.0252355542034,0.00902475789189,-0.025751573965,-0.00640337727964,0.0138368681073,0.0119709018618,-0.0208534523845,0.0263531599194,0.0132476706058,0.0233606118709,-0.0102309687063,0.01819267869,-0.0185640193522,0.0119457487017,-0.0173208974302,-0.0183199476451,0.000378097756766,-0.00591383501887,0.0218094736338,0.0192731004208,-0.021902628243,-0.0215099751949,-0.00388115108944,0.0180885121226,0.00390130234882,-0.0253183692694,-0.00745929544792,0.00706918770447,0.011386282742,0.0259014368057,-0.0260528847575,-0.00761942286044,-0.0210796445608,-0.0139747755602,0.0221702177078,-0.00262067164294,0.00804263260216,-0.00500797666609,-0.00656144088134,0.00241704797372,0.0112435286865,0.00484002986923,-9.59089811658e-06,0.000927691056859,-0.0269026812166,0.0267065651715,-0.00665011443198,0.00523624476045,0.00892076734453,-0.00416597817093,-0.0108220353723,0.00586161529645,-0.0142203513533,-0.0138252135366,-0.0129962852225,-0.00548555608839,0.0218270439655,0.0238471310586,-0.0228094849735,0.0192397851497,0.0036997133866,-0.0253449771553,-0.0234803315252,0.0221815351397,0.00880910642445,-0.0249916855246,0.00614764727652,0.0181451570243,0.0187884513289,0.0102095659822,-0.00477041304111,0.019227931276,-0.0118729639798,-0.0231003146619,-0.0123595548794,-0.0162639133632,-0.00937942508608,-0.026391800493,0.0244424045086,0.0223526190966,0.0044435095042,0.00200805137865,0.000752343446948,0.018771648407,0.00300819613039,-0.0107683539391,0.00135538564064,0.019354775548,-0.0230139531195,0.00349399098195,0.0173642467707,-0.00934308487922,-0.0026799950283,0.0270063187927,0.0266632288694,0.00025928625837,-0.0120207639411,-0.0135446852073,0.0177472196519,0.0093277413398,0.0140156820416,-0.00391727965325,0.0165898893028,-0.0252505019307,-0.0243619885296,-0.0200381837785,-0.0121198082343,-0.0202686470002,0.0269381608814,-0.0190924592316,0.00159473344684,-0.0104688899592,-0.0121187707409,0.0214165523648,0.0253523886204,0.00367695000023,-0.0224842112511,-0.00531830638647,-0.00118714838754,0.0180326700211,0.0125678712502,0.00752425100654,-0.0203472040594,0.0279851462692,0.0006185239763,0.0244085527956,-0.0251342579722,-0.0261950176209,0.018843177706,0.0188339594752,-0.025390189141,-0.00372894573957,-0.0227431952953,0.00464414898306,0.0211783815175,0.0149310072884,0.013307874091,-0.00889822561294,-0.000410675886087,0.0141373164952,0.02090167813,0.0224038697779,0.0213007275015,-0.0178778097034,-0.0234948471189,0.0157302394509,0.0198146048933,-0.00646697729826,-0.000792482984252,0.0155089413747,-0.020156448707,0.0153671186417,0.0106283212081,-0.0245951395482,0.0262226834893,-0.0169770959765,0.0195313636214,-0.0238466914743,-0.0230767037719,0.00440427381545,0.00601443136111,-0.0249969195575,0.0135613270104,-0.00171547185164,0.0201395880431,0.0154241183773,0.0240340773016,-0.012808650732,-0.00542335957289,0.00691318418831,-0.0149874724448,0.00738100055605,0.0165218878537,-0.00388801191002,-0.0170338433236,-0.0127991931513,0.0160893127322,-0.0170594286174,0.0233587622643,0.0230916067958,0.00877734646201,0.0269054621458,-0.0162783432752,0.0227604135871,-0.0274672713131,0.00104788527824,0.0188784282655,-0.0183064918965,0.0217945724726,0.00193520146422,-0.0109156798571,-0.0092489477247,0.0112715978175,-0.00971277616918,-0.014234257862,0.0191291645169,-0.0281330421567,0.00240435195155,-0.00998480245471,0.0174304079264,-0.0114662991837,-0.018440278247,0.00540713127702,0.0035286557395,-0.0165609866381,-0.0226035863161,-0.00501546403393,-0.0148831224069,0.0216464307159,0.0161762684584,0.0248466264457,-0.0194269679487,0.00215902086347,-0.0170321278274,0.00649175560102,-0.0161405149847,-0.00857869256288,0.0251567959785,0.0147936949506,0.0195831730962,-0.014340323396,-0.0177263077348,-0.00685354275629,0.0245294235647,-0.0219925325364,-0.00136069825385,-0.00636396137998,0.0262753013521,-0.0068067908287,0.0251254495233,0.0166749265045,0.000326437031617,0.00291394838132,-0.0108512882143,0.025074865669,-0.0021846012678,-0.00806395988911,0.015292013064,-0.0160392820835,0.0233846195042,0.00735585717484,0.0160296615213,-0.00235100626014,-0.0173338800669,-0.0128642870113,-0.0026558637619,-0.0216366350651,0.0132819227874,0.00151290488429,-0.0200250148773,-0.0180275142193,0.0164946466684,-0.0146976858377,-0.0172094721347,0.000801188522018,0.0156954117119,-0.0109392730519,0.0146530726925,0.00840364210308,-0.0161012709141,0.000399893149734,0.00840209517628,0.00365406880155,0.00662218267098,0.00793614517897,0.0249076168984,0.0164603479207,-0.0206438936293,0.0244530569762,-0.00924630090594,-0.0156684443355,-0.0160812921822,-0.0111115379259,-0.0145315732807,0.00337125617079,0.0209656357765,-0.0229170918465,-0.00866276305169,0.00277691753581,0.0240723304451,-0.00437792483717,0.0244352929294,-0.00121171656065,-0.0111311487854,0.000768554047681,0.0174867976457,-0.0173279829323,-0.0256763957441,-0.015527818352,-0.0123713547364,-0.0253691338003,0.020406153053,0.0144792851061,0.017136964947,0.020339153707,-0.00508421286941,0.00304267671891,0.0205659847707,0.00750659359619,-0.0183828957379,0.00140138878487,0.0199930723757,0.0169908721,0.0209081638604,0.0258772857487,0.0225117448717,0.0172868967056,0.00506170419976,-0.0261823199689,0.0203938167542,0.00593799958006,-0.0168997403234,-0.0079161785543,-0.0192028433084,0.00215201033279,-0.0124434940517,0.0224372465163,0.0176280960441,-0.0186661072075,-0.00764119252563,0.0131003838032,-0.00813022069633,0.011156514287,0.00706230010837,0.00747925555333,0.0114835416898,0.0251195523888,-0.027318675071,-0.022838216275,0.0122195696458,-0.0235019940883,-0.0219870656729,-0.0243697855622,-0.000637424062006,-0.0027858086396,0.0102345412597,0.0181858055294,-0.0221530068666,-0.0198675189167,0.022260485217,-0.017435554415,0.0236690081656,0.0164128672332,0.00418091239408,0.000168469399796,0.0146053228527,-0.0065835043788,0.0100079067051,-0.0191242266446,0.017206788063,-0.0107146725059,0.0109291980043,-0.0149725722149,0.0135678043589,-0.0135178202763,-0.0262224152684,0.0155300907791,0.0163741651922,0.0213318001479,-0.0258579179645,0.00457103457302,-0.0147669874132,-0.0220493227243,0.00336620677263,0.00984021089971,-0.00267754774541,-0.00578895257786,0.0233303681016,-0.018070500344,0.0124890403822,-0.00186164176557,-0.0194115228951,-0.00672365631908,0.00286963419057,-0.00354449707083,-0.00434271758422,-0.0114713767543,0.00934603717178,0.00909148808569,-0.026349786669,-0.00789028313011,-0.0202427431941,-0.022132312879,0.0157873798162,-0.0119761582464,0.0127814775333,0.013651154004,-0.0099180014804,0.0101837711409,0.00348414271139,-0.000168298720382,-0.00546549120918,0.0079966308549,-0.0264374949038,0.0212932266295,0.0265233833343,-0.00712354620919,-0.011531772092,0.0185623075813,-0.0101105431095,0.0164544526488,-0.0106250373647,0.00511416373774,-0.0212049596012,0.0273566450924,0.00876201316714,-0.0169816780835,0.0102321142331,0.00518442457542,0.00973278190941,0.0276775509119,0.0200635623187,0.00839567929506,-0.00388265238144,-0.00501588964835,-0.00864123273641,-0.0148522760719,-0.00414444459602,-0.0122006963938,-0.0197442173958,-0.0200690217316,-0.0226178839803,0.00150199467316,0.0219581946731,0.0210791490972,-0.0256615635008,-0.00996428821236,0.0184080693871,-0.00432486506179,0.0158483851701,0.0241270847619,0.022735228762,-0.0204686671495,-0.00426312023774,-0.0063687870279,0.0248568020761,0.0232857745141,0.00368889095262,-0.0269612986594,0.00944731757045,0.0196284111589,0.0268028881401,-0.0173338819295,0.0171277076006,-0.0145836574957,-0.0266438871622,0.0136448871344,-0.00192139367573,0.0272315219045,-0.0150303542614,-0.00841496512294,0.0184671077877,-0.00374615751207,0.0147963697091,0.0106031950563,-0.0217364188284,-0.0267188549042,0.00708422251046,0.00503171468154,0.0216811336577,0.00301064411178,0.000132332657813,-0.0268605109304,0.00734857982025,-0.00412768870592,-0.0110795432702,0.0275161694735,-0.0172683447599,0.0280309263617,0.00551766576245,0.0262401774526,-0.0223742052913,-0.0222397241741,0.00626773759723,0.0207723286003,-0.00571556948125,0.0188507717103,-0.0178324393928,-0.0146659631282,0.0219320617616,0.027873756364,0.0117052169517,0.00696437619627,0.0227081868798,-0.0145636191592,-0.00235271384008,-0.000729445717297,0.0104669267312,-4.06344806834e-05,-0.0210471525788,0.0237486436963,0.00428126333281,-0.0212522428483,0.00823881290853,-0.0236858911812,-0.00545725319535,-0.0165110379457,-0.0230262558907,-0.024326261133,0.025871263817,0.00434096110985,0.0198645964265,-0.000763570889831,0.0149056045339,0.0217875353992,-0.0101644583046,-0.013180507347,-0.00210427376442,-0.00543422671035,0.018820732832,0.0067970645614,0.0187288038433,-0.0148140368983,-0.0253640711308,-0.00051757635083,-0.0176485460252,-0.0188785884529,-0.00588616589084,-0.0194879285991,-0.00260527175851,-0.0237142890692,-0.0199203342199,0.0114106107503,0.000548486714251,-0.0281991735101,-0.0198555644602,-0.00589728727937,-0.0159869492054,0.00262587540783,0.00415113940835,0.00530716450885,0.016242723912,0.00528918113559,-0.0160911977291,-0.0201610159129,-0.0050680343993,0.012181121856,0.00607373984531,-0.000411687069573,0.00759597681463,-0.0060197385028,0.0260431729257,0.0129279168323,-0.00186570594087,-0.0261676460505,-0.0192448589951,-0.00253477878869,0.0171974785626,0.0109374858439,0.0178358610719,0.0148492502049,-0.0218466743827,0.0272408500314,-0.0088115260005,0.0188746321946,0.0017096074298,0.026101635769,0.0248011853546,-0.0127104278654,-0.0205079447478,-0.0109875444323,-0.0206530522555,0.00666913203895,0.0050905412063,0.02499791421,-0.003232591087,0.0224530827254,0.0157496854663,0.0246128924191,-0.0180067308247,-0.0180350858718,-0.00269024586305,0.00945637468249,-0.00688611157238,0.0248817689717,-0.00822109915316,0.0265398621559,-0.0017359375488,-0.020470874384,-0.0149743761867,0.0172714218497,-0.0272724758834,0.0154002541676,-0.0266498383135,-0.0272776149213,-0.00248584104702,0.0178145393729,-0.0170934982598,-0.0052566472441,0.020536666736,-0.0264504030347,-0.0165404230356,-0.00615469552577,0.0169510487467,0.0185635257512,-0.0275473762304,-0.0274121835828,-0.0236058253795,0.0043088523671,0.0104429349303,0.0258847139776,0.0204469151795,-0.0180031899363,0.0136594809592,0.0247263107449,0.0195232089609,-0.0127397375181,-0.0201601218432,0.0149635151029,0.027401542291,0.00285453093238,0.0152837820351,0.0259624794126,0.0196987912059,-0.0151539063081,0.00654284656048,-0.0200254227966,-0.0122444489971,0.0213504321873,-0.0181790292263,-0.00578655209392,0.00983158964664,-0.00468528270721,0.00620628194883,-0.0096771158278,-0.00444878265262,-0.0235222391784,-0.0130823301151,0.0197885651141,-0.0144176576287,-0.0159561820328,0.0200502164662,-0.0134857175872,0.0250609815121,0.00147765304428,-0.00204848358408,-0.0206553973258,0.00962277781218,-0.0121267586946,-0.0193497445434,0.0145004689693,-0.00834948848933,0.0191665999591,0.0190761927515,-0.0122753363103,0.0141916777939,-0.027881629765,0.0206611342728,-0.0153633300215,0.00279298145324,-0.0182818360627,-0.0109475860372,-0.00208188849501,0.0223990436643,-0.0107000377029,-0.0151111865416,-0.00820078048855,0.00347722345032,-0.0141812684014,-0.0278027169406,-0.0273685958236,0.0199073329568,0.0194542128593,0.0243714917451,0.0109705645591,0.0200505666435,0.0236608684063,-0.02297270298,-0.0171061847359,-0.0264590010047,-0.0194612368941,0.0252871382982,0.0242902077734,0.0216019991785,-0.0255813747644,0.0115605536848,0.0150175830349,-0.00454349070787,-0.0164026264101,-0.000332924857503,-0.00717268930748,-0.00583918998018,0.00297651742585,-0.0275559145957,-0.0113372094929,-0.0184295233339,0.0153823876753,0.00247476971708,-0.0275415126234,-0.00990899838507,0.0180333089083,0.00610254192725,0.015387586318,0.0230395793915,-0.0130041586235,-0.0229706447572,-0.00287066004239,0.0164913237095,-0.0225542355329,-0.0120628550649,-0.00777437770739,-0.02642057091,-0.00997836329043,0.0227933395654,0.0216853879392,-0.00277822604403,0.00454018404707,-0.00289322366007,0.0217095408589,0.000426193641033,0.00929282326251,-0.0259550604969,-0.00711530260742,-0.0128871891648,-0.0119503578171,-0.0101427938789,0.023858115077,0.027293195948,0.0219413656741,-0.0210061520338,0.0211675930768,0.0255417618901,0.0254869628698,0.019975785166,0.0129546867684,-0.00553451292217,-0.00567240687087,0.0011176080443,0.0183676108718,6.59597571939e-05,0.00876612775028,0.0251343809068,-0.0269046407193,0.00072186300531,-0.0269472766668,0.0266525316983,-0.0203243289143,0.014556793496,-0.0167840328068,0.0278777480125,-0.00866412371397,-0.007172009442,-0.0208549480885,0.0217611994594,-0.00464976998046,0.0123633481562,-0.0133737009019,-0.019772907719,0.00318300188519,-0.00929490476847,0.0167751759291,-0.0267845354974,-0.0242381617427,-0.00794169586152,-0.00483745150268,0.0216524899006,0.0129241729155,-0.0182267446071,0.027850497514,-0.0243948232383,-0.0108259348199,0.0199537687004,0.0150014432147,0.00910441949964,0.0150477765128,0.0143122626469,0.0209654550999,-0.0120172640309,0.00546922488138,-0.00172593235038,0.0174195095897,0.0169174615294,0.007630830165,-0.00764018017799,-0.024082005024,0.00559544749558,0.024396115914,0.017190746963,0.0246972013265,-0.0111678056419,-0.0203486774117,0.0023702296894,-0.00227949535474,0.0169668253511,-0.0125527149066,-0.0178701095283,-0.0183609668165,-0.00265279808082,0.00118214194663,-0.0249927323312,0.00273189158179,0.0201051887125,0.00916771404445,0.0259166657925,0.0190524104983,-0.0220105070621,-0.015648111701,0.0244328547269,0.0267950613052,0.00375197269022,-0.0114995930344,-0.0219271685928,0.0229113511741,0.00656316429377,0.0143359685317,0.0183301158249,0.0012466047192,-0.0188492015004,0.0140632390976,0.000870838179253,0.0140536371619,-0.00637964438647,-0.02366152592,-0.00387606839649,-0.0198696628213,-0.00619025714695,0.0089888041839,-0.00350865069777,-0.0112363118678,-0.00671986816451,-0.0115792872384,-0.00172382220626,0.0262916758657,0.0118181603029,-0.00129782781005,-0.00906950142235,-0.0014949310571,-0.00108627590816,-0.0123205464333,-0.00295486790128,-0.0131610753015,0.0150022087619,0.0172766279429,-0.0160519462079,0.0244159009308,-0.00269673531875,-0.0153913218528,0.0184053070843,0.0277489237487,0.0219196304679,-0.00466537894681,0.0258225668222,0.0116691589355,0.0266366153955,-0.026821564883,0.0213818755001,-0.0149859394878,0.0277862176299,-0.0112263308838,-0.0230310726911,-0.0264064893126,0.0115732168779,0.0100575750694,-0.0147462636232,-0.015316516161,-0.024478238076,0.0066538695246,-0.0073308669962,-0.00972501095384,-0.00876017659903,0.0169367250055,-0.022019924596,-0.0125558469445,0.0105477720499,-0.0244958680123,0.0214374996722,0.00571282254532,0.00717959599569,0.0138581851497,0.00335386558436,-0.00343504385091,0.0260229073465,-0.000218876928557,-0.0155826276168,-0.00449236296117,-0.0124688930809,0.0247762799263,-0.0114723993465,0.00371474120766,-0.0247420389205,0.0155143290758,0.00929151941091,0.0198418907821,0.00162923440803,0.0159787759185,0.00536849861965,-0.0248124711215,-0.00399959506467,-0.027510503307,-0.0239772610366,0.0245815627277,-0.0167865492404,0.0173532944173,-0.00113463145681,0.0189087539911,-0.023739811033,-0.0138727426529,-0.0095447814092,0.0106803197414,0.0245770104229,0.0096886549145,-0.00328956358135,0.0211650822312,0.027514571324,0.0242021791637,0.015775218606,0.004513412714,0.0175352096558,0.0223310794681,-0.000334003561875,0.0161031726748,0.0137554714456,0.0258737392724,-0.00458568520844,-0.0177201572806,-0.0114696482196,-0.00463080173358,-0.0159245822579,0.00997939426452,0.00960819609463,-0.00180527812336,-0.00629589287564,-0.010647024028,-0.00278547895141,0.0134520865977,0.0125456275418,-0.00589659577236,0.019370328635,-0.0136237954721,-0.00390905374661,-0.0212297979742,-0.00135322206188,0.0123504353687,0.0228815861046,-0.00519974017516,0.00701210834086,-0.00715021183714,-0.0134550258517,-0.0110583594069,0.0218919869512,0.0217798501253,0.00463254470378,-0.0200641732663,0.0158664621413,0.00905389804393,-0.0167290270329,-0.0161369927227,0.000389485270716,-0.0222445931286,0.00340049690567,0.0164427757263,-0.0183593742549,0.0153344757855,-0.0101478798315,-0.024431521073,-0.00361549598165,0.0265993848443,-0.0276152305305,0.0189256351441,-0.0180209800601,-0.0157338753343,0.0153080122545,0.00647044135258,0.00283642020077,-0.00442474335432,-0.00359847536311,0.00943061336875,0.00396682601422,-0.00573760922998,0.00251026102342,0.00620040576905,0.0020369370468,0.0106418216601,-0.011360145174,0.0156384725124,-0.0274134855717,-0.0181933268905,-0.0122891524807,-0.00139671983197,-0.0279196631163,0.0243175886571,0.0231801327318,0.019369546324,0.0257814526558,0.0239232238382,-0.0254106428474,-0.00566123239696,-0.0236761718988,-0.0182344857603,0.0174133814871,-0.0278398264199,0.00672407541424,-0.0263808015734,-0.0195238869637,0.0223459415138,0.00362231838517,-0.0150214964524,-0.00594306737185,-0.0158567260951,-0.00163318309933,-0.00117773073725,-0.0189873632044,-0.0132202897221,0.0118242390454,0.0248103756458,-0.0273712407798,0.0083660306409,0.0262855440378,0.0208725649863,0.00624016625807,-0.0148555552587,0.0198854655027,-0.0140951368958,-0.0209666807204,-0.000235454775975,0.0115876076743,0.0223541427404,0.024370694533,0.0180491618812,-0.00796948093921,0.0228725038469,0.0260457340628,-0.0105301756412,0.00140804680996,-0.00541589828208,0.0017376630567,-0.0148741835728,0.0146758351475,-0.0173921100795,0.0115737915039,0.00944851338863,-0.0208460241556,-0.00715906964615,-0.0207682047039,0.0252503287047,-0.00303239119239,-0.0138397132978,0.0161345321685,-0.0169375166297,0.00539272138849,-0.0130697172135,-0.00374114094302,0.0145499808714,-0.00980099849403,-0.00937285181135,0.00694941496477,-0.0156431253999,0.0243797078729,-0.0241158362478,0.0147516541183,0.0126729495823,0.0128348553553,0.0103178853169,0.0249521546066,0.0202246662229,-0.00359817012213,-0.0110575314611,-0.00234146881849,-0.0157332159579,0.00612043123692,0.00103249424137,-0.0221017282456,0.0265152063221,0.0246426295489,-0.00974909495562,0.00791896227747,0.0124754048884,0.0096030831337,-0.0254754386842,-0.0207382328808,-0.00916327442974,0.0135226156563,0.0158192869276,-0.00326625164598,-0.0158463865519,-8.84265027707e-05,-0.0220977198333,0.0211366117001,0.0218033511192,0.00530468951911,-0.014722302556,-0.0188705418259,-0.0168487858027,0.0141669129953,-0.0146704362705,-0.0187391359359,-0.00829791184515,-0.026002753526,-0.0169735830277,0.0197531338781,-0.0102049242705,0.0232153870165,0.00325161986984,0.00865341164172,-0.0121232420206,0.00316204316914,0.0263512246311,-0.0120076611638,0.000213256396819,-0.0235524140298,-0.010764522478,0.0174995735288,-0.00896869413555,-0.00372932152823,-0.00820610951632,-0.00974611751735,0.0214874595404,0.00695310160518,-0.00541705964133,0.00923335365951,0.00196816725656,0.0252081528306,0.0274981465191,0.00642068358138,0.0163751225919,0.0143980309367,-0.00712263258174,0.0013338511344,0.0256642084569,-0.0205968394876,0.0192802660167,-0.0203957911581,0.0116957770661,0.0232289489359,0.0280790310353,0.0136099718511,0.0197516512126,-0.00407696701586,0.00784523319453,0.025369990617,-0.0146591616794,-0.024607617408,0.00335025321692,0.0139533756301,0.018533712253,-0.0194503534585,0.00253498391248,0.0244475975633,0.00564087182283,0.0215160418302,-0.0135949160904,0.0227845199406,-0.0068266200833,0.0126210860908,-0.00286667258479,-0.0023138502147,0.0215234719217,-0.00326042389497,0.0128800552338,0.0129997245967,0.0136490510777,-0.0224913842976,-0.0100318649784,-0.0259104948491,5.4619176808e-06,0.0238791555166,-0.0174910835922,-0.00920679792762,-0.0166070684791,-0.0135225607082,0.0134720038623,0.0262403972447,0.0214894805104,-0.0231551229954,0.00475355098024,-0.0092479288578,-0.00752474786714,0.0016042671632,-0.0109355961904,0.0262389630079,0.00511888740584,-0.0107263065875,-0.0113822072744,-0.0167991388589,-0.0229192003608,-0.010933207348,0.0272120721638,-0.0225350372493,0.0112385069951,0.013282856904,-0.0098987929523,0.00599146122113,-0.0159245803952,0.0136223351583,0.0233797822148,-0.0272453427315,0.00144902931061,0.0123667493463,0.00837349053472,0.0132048968226,0.0240087416023,-0.0186508595943,0.0196255221963,-0.0257126819342,-0.0182911660522,-0.00897973962128,0.0175978410989,0.00642466731369,-0.00888573005795,-0.0265785492957,-0.0191684383899,-0.00497433170676,-0.0154845789075,0.000307651091134,0.0101609351113,0.000926470966078,-0.0118898451328,-0.00988636724651,-0.0236609093845,0.00583168817684,0.027768637985,0.00205443031155,0.0236008409411,0.0259546786547,-0.00355148501694,0.00642067706212,0.0241573043168,-0.0167491044849,0.00067612179555,0.00693815806881,0.0250034499913,0.0243336223066,0.0186640080065,0.00854730047286,-0.00757002690807,0.00717570818961,-0.022844504565,0.0168532282114,0.00708692334592,-0.0236879903823,-0.0269608590752,0.0223795864731,-0.0259513370693,-0.0225197710097,-0.0264875181019,-0.0106224147603,0.0134751247242,0.00896700751036,-0.00642193760723,-0.00957444030792,-0.000317536789225,0.027707669884,-0.00831549614668,0.00598530797288,-0.0184648092836,0.00263717235066,0.022364679724,-0.0206327401102,-0.025998108089,0.0223845504224,0.0245022792369,-0.0116334464401,-0.0182390138507,0.0241205245256,0.00971629843116,0.00318773300387,-0.0218068454415,0.010531601496,-0.0157953035086,0.0242860186845,0.00349752395414,-0.0223743002862,-0.00674637034535,-0.0142358904704,-0.0225283689797,-0.0103321429342,-0.0190041959286,0.00323747680523,-0.000510784855578,0.0267389044166,-0.00782165583223,0.0115813370794,0.0220342278481,0.01675731875,0.0202482137829,0.0179937630892,-0.0214422810823,0.00832201354206,0.0261178351939,-0.00974862836301,0.00432372139767,-0.0220668036491,0.00759617751464,-0.027275390923,0.0266472101212,-0.00915656238794,0.0138795040548,-0.00314106117003,-0.00338569679298,0.00693340506405,-0.0203588772565,-0.0105497213081,-0.00472548464313,0.00216819741763,-0.00331011926755,-0.0272126980126,-0.00452634319663,0.0259618349373,-0.00867077708244,-0.00252266926691,0.0176660660654,-0.0194721166044,-0.0093961302191,-0.0213172379881,-0.0133539196104,-0.00659567117691,0.0023895194754,-0.0143352979794,-0.0204732511193,-0.0207863152027,-0.0125248944387,0.0203053522855,0.0200837217271,0.0125251300633,0.0213513243943,0.015742752701,0.0096756182611,-0.0161738079041,0.0183312986046,0.00618942268193,-0.00306439003907,0.0204309653491,-0.0125678852201,0.0151916090399,-0.0113066900522,-0.0045455689542,0.0143253356218,-0.0230881031603,0.0273077171296,-0.0191123522818,-0.0235362239182,-0.0114458957687,-0.0253184158355,0.0181620214134,0.0183152649552,-0.0189820658416,-0.0162939280272,-0.00727029889822,-0.0202014055103,0.003931613639,0.0224463287741,-0.0171878989786,0.00165329186711,0.00178744422738,-0.00288746971637,-0.0279377624393,-0.0063748024404,-0.0136536089703,0.0233297627419,-0.0176785811782,0.00339998630807,-0.0162025969476,-0.00685935188085,0.00861968379468,0.0191663857549,0.0105005456135,-0.0123661793768,-0.0142643265426,0.0224975384772,-0.0201648660004,0.0112707167864,0.014111796394,0.00771281588823,0.0225461591035,-0.0238680057228,-0.0178838651627,-0.00852031819522,-0.0232804305851,0.00357344956137,-0.00474712019786,0.0275732409209,-0.00959171168506,0.0194018147886,0.00740464357659,-0.00420979643241,0.00433681486174,0.00531266769394,-0.0198031757027,-0.00797196477652,0.00762716587633,0.017843933776,-0.0177083332092,-0.0141286160797,-0.0151742361486,0.00141272251494,0.0218037571758,-0.00431388244033,-0.0238602124155,0.0248093642294,0.023098886013,0.00559177109972,0.0139873838052,0.0127967251465,0.00592506676912,-0.0187624972314,-0.0132079934701,0.017352251336,0.0163875948638,-0.00986794289201,-0.0185462683439,-0.00904526934028,-0.00122715043835,0.0093158306554,-0.0269442666322,0.000522267655469,0.00665646558627,0.0178491268307,-0.00147019932047,0.0224496982992,-0.00399254262447,-0.0161518901587,-0.00109996343963,-0.000375570438337,-0.0185235422105,0.0179080329835,0.00360520533286,0.0219265371561,0.0115759428591,0.00892486609519,-0.0148061979562,-0.000200160779059,-0.0210772994906,0.016050150618,-0.00992508139461,-0.0101312045008,-0.0012848888291,-0.00423124898225,0.00280842324719,-0.00503126299009,-0.0136274844408,0.00169354153331,-0.022835617885,0.0158646721393,0.0123388636857,-0.0201875679195,-0.0162598639727,